2.716169349199370475e-01 -2.432823861563082612e-02 -1.063204099217713028e-01 -2.164946297746284110e-01 -4.366890697325284676e-02 -4.732995663692626254e-01 -2.741605666201213376e-01 -9.465028732505970099e-02 -4.782977215827657336e-01 5.812989636176383451e-02 -6.628010993261478079e-02 -4.551103763240488820e-01 2.523216728959727373e-01 3.667228286859366970e-02 4.873397845148517704e-01 -1.950692523564324377e-01 -6.576614761340993098e-01 -8.033462511390693228e-01 -8.615736696481335333e-01 -4.083389183911856901e-01 -3.673867200626988461e-01 -5.186765504647672387e-01 1.897806854658847520e-01 2.556684346880848113e-01 1.559704283230194388e-01 -3.934563902078707653e-01 3.237031734813745065e-01 -1.762721130410511983e-01 1.787115430021487816e-01 -2.051734124136636861e-01 2.132268778310495994e-01 2.618722616069150966e-02 1.877472562234805062e-02 -1.242863723030270123e-01 1.426391731297109999e-01 -3.225991995618687075e-02 -6.867169672981043860e-02 -2.733541488254723206e-01 -2.304390547568971881e-01 1.201974498644445832e-01 8.778313991743529332e-01 -2.300168870902146168e-01 1.051646927781702424e-03 -9.661726110538255696e-01 -9.461616965708029570e-01 -9.412295867211221134e-01 -9.668978321949606158e-01 -9.477071640175056544e-01 -9.420271142691809541e-01 8.162911100652564533e-01 -2.355084961587488590e-01 5.817350053251694499e-03 8.872845080056970257e-01 -2.177193835689547052e-01 -1.139828905257796524e-02 -3.000236889601407553e-01 7.616609224148448432e-01 -8.987611051211078506e-01 -9.047712308202754405e-01 -9.686112731187567215e-01 -9.529179763668894632e-01 -9.466164914704585653e-01 -6.711106913191899892e-01 -9.964510900331473575e-01 -7.607943516434731990e-01 -5.054503314755072196e-01 5.647489668463019363e-01 -6.221314926924162991e-01 6.775698100882912023e-01 -2.675258145621468020e-01 2.788097401176367063e-01 -3.404430695964798526e-01 4.208004181664974919e-01 -4.198129009696714431e-01 4.527605933504565416e-01 -4.848829485861728683e-01 5.135298661475033999e-01 2.612233406413093650e-01 -2.040155533508623831e-01 7.079188255187467138e-02 4.643282019739188721e-02 1.010406171038784849e-02 7.972557653857683183e-03 -2.436922684943553796e-01 -1.778880969744620066e-01 -6.650741095229080191e-01 -2.611871859922368366e-01 -1.700983426571532342e-01 -6.572819255393257398e-01 -4.480660280953053798e-01 -4.097895583014993237e-01 -7.451464498474849041e-01 7.199319583134483613e-02 3.150112756349596754e-01 6.374306984574998891e-01 -3.335009159163203063e-01 -6.689085093746396371e-01 -5.933823108469330476e-01 -9.275926939485962253e-01 -2.857922996712596864e-01 -3.391455846924677497e-01 -6.790515760943603985e-01 6.241899169788942547e-01 5.321983995395327405e-01 3.585938092086300433e-01 -3.686145775528777979e-01 2.119988316263618500e-01 -1.291894269268636063e-03 -1.235622106087429575e-02 -2.636857316688043795e-01 2.050529500303031327e-01 1.285000164158011937e-01 2.213082956550763147e-01 -1.572235196250631462e-01 1.332103243098989864e-01 -3.721625054871186694e-02 7.440497332606284264e-02 -3.515587184459900150e-01 -2.009712609662179517e-01 9.149881226928997802e-02 -1.033135757122005810e-01 -3.835725326322322187e-02 9.162710066304086132e-02 -4.990492235516664765e-01 -5.116122132770670738e-01 -3.930196625937044663e-01 -5.178483728749634363e-01 -5.201231370530260412e-01 -3.987421026149040593e-01 -4.387277266685786214e-01 -6.363969558937246918e-01 -2.851398536788460336e-01 4.282312494564423089e-01 6.411268053093832631e-01 3.463225642965104267e-01 -3.231660185717402101e-01 -8.241443056703257053e-01 -8.700599321611172110e-01 -8.081671739616211880e-01 -5.406343873378035569e-01 -5.416787458108464071e-01 -4.692690892160455984e-01 -1.470801254009811154e-02 2.174918592052412780e-01 2.596851370965601591e-01 -3.668965266398166447e-01 2.872695455253762575e-01 6.842844642625747764e-02 -1.809426926356756116e-01 -2.477403176168469778e-01 2.301326988908915794e-01 -1.150801770876690305e-01 2.027227313628441052e-01 -2.234938006404593447e-01 2.341767465384557712e-01 -1.759639630880951711e-01 2.605500329573142704e-01 -3.710948344791051984e-02 -1.700575042630257105e-01 6.749557297218175544e-02 -7.690311425097770548e-02 -4.462327765044998840e-02 -6.436194209065118632e-02 -4.563262733846071284e-01 -6.835676317324576035e-01 -5.280595976776853995e-01 -4.685537871613914551e-01 -7.030813421425842202e-01 -5.595738394852423081e-01 -4.292332443199289860e-01 -7.048361815988366530e-01 -4.711404127649381768e-01 4.740734328269732845e-01 7.368438361698235184e-01 6.009620335782831502e-01 -6.055658384484050583e-01 -8.244597161212051661e-01 -9.379036148030486242e-01 -8.591155370571724736e-01 -5.071776955487806715e-01 -7.266692475912751581e-01 -6.199479688658380283e-01 5.012632498953137894e-01 4.859111000847252115e-01 5.518500403859429859e-01 -1.804201755426687315e-01 1.516165850668085568e-01 1.635312425927022695e-01 1.591503140907049862e-01 -2.129948586791800269e-01 2.411284107152356360e-01 4.652128855533612523e-02 4.208589725525227476e-02 -1.865456351275233959e-01 1.866573612169683538e-01 -1.280119386912905929e-03 -3.090945810688935230e-02 1.918156493863583667e-01 -2.098660165056540627e-01 4.712494712658507612e-02 -1.754948392557752201e-01 -2.055165276295882748e-01 -3.262065660664514866e-01 -1.368956644271351608e-01 -7.078492274074377200e-01 -1.754948392557752201e-01 -5.990155821504357103e-01 -4.888021660895764398e-01 7.394486006493823371e-01 -1.479755174335260215e-01 8.490851244465853764e-02 -7.456839612931173700e-02 1.505612135732929679e-01 -1.754948392557752201e-01 -2.055165276295882748e-01 -3.262065660664514866e-01 -1.368956644271351608e-01 -7.078492274074377200e-01 -1.754948392557752201e-01 -5.990155821504357103e-01 -4.888021660895764398e-01 7.394486006493823371e-01 -1.479755174335260215e-01 8.490851244465853764e-02 -7.456839612931173700e-02 1.505612135732929679e-01 -3.302209375104237510e-01 -1.989110407211252540e-01 -2.638155723310672829e-01 -2.025704403518700236e-01 -6.622124712192485330e-01 -3.302209375104237510e-01 -6.985147199758888759e-01 -4.197996254315573550e-01 6.258156380775307115e-01 -3.085417511093400955e-02 8.919445295935833629e-02 -1.766152444971038626e-01 6.402516712466378712e-02 -3.310468439766812709e-01 -4.793822091766404836e-01 -4.296495819170400576e-01 -5.142274922355605238e-01 -4.460338492091407425e-01 -3.310468439766812709e-01 -7.541488627722197080e-01 -4.752155839487308131e-01 7.077748372762292517e-01 1.688451670637478724e-02 -1.442428828906273108e-01 1.970044765119041696e-01 -9.009998767663332520e-02 -6.036863265217783381e-01 -6.169966261245065642e-01 -6.430170812847496586e-01 -6.344824122623410334e-01 -6.637753733304485593e-01 -6.036863265217783381e-01 -9.034162278986652694e-01 -6.709739644777925616e-01 7.766464512803074038e-01 2.183053700913185347e-01 -2.009254113129764763e-01 -3.858737171196358062e-02 -8.237072073314256893e-02
2.694551823540752289e-01 -2.343660782997485786e-02 -1.070275072029592267e-01 -2.310581246378987375e-01 -5.381715180087100203e-02 -4.716390589294941482e-01 -2.874725168163612121e-01 -1.048199067865993178e-01 -4.757802271107539061e-01 3.866490563904600997e-02 -7.062830521215812674e-02 -4.604459663351431198e-01 2.675071835824531785e-01 5.122324446702306022e-02 4.881271675302341073e-01 -2.050708866510082273e-01 -6.702602826170324102e-01 -8.075979073497532301e-01 -8.611715213686396142e-01 -4.181759249233261144e-01 -3.772293311886011358e-01 -5.164085630896103618e-01 1.582341557861354775e-01 2.563413819165439311e-01 1.628182622189446316e-01 -3.872860614282965797e-01 3.249724586508971336e-01 -1.815280857869724929e-01 1.780276279679909035e-01 -2.113117739671890594e-01 2.143605518348853933e-01 3.533198352832400690e-02 -1.436448078762003104e-03 -1.514921424260749216e-01 1.562629218481400573e-01 -5.963861444929090261e-02 -5.041508925315812267e-02 -2.618611267155792066e-01 -2.368822990933147909e-01 1.078470817721419034e-01 9.391418502043225036e-01 -2.175701048917915437e-01 -4.546274749666241732e-02 -9.670328762174177362e-01 -9.471558233568885266e-01 -9.422098395157822992e-01 -9.678025334861590778e-01 -9.486936878234443205e-01 -9.433279651700732238e-01 8.769489802619682139e-01 -2.235404104846735462e-01 -4.034254377166158340e-02 9.473462028137625834e-01 -2.051379914800753324e-01 -5.778604607423670075e-02 -2.915300253007712117e-01 8.422594379011802967e-01 -9.039519815681875681e-01 -9.817964642808882925e-01 -9.696356982403036007e-01 -9.535762359353711082e-01 -9.484430572578081975e-01 -6.794473283006287057e-01 -9.929486679101618973e-01 -7.631859215569734012e-01 -5.071586595710040335e-01 5.652809309770416846e-01 -6.215970694454059364e-01 6.760843920036445631e-01 -2.781939148916097726e-01 2.870660450408678566e-01 -3.454401777884348879e-01 4.223335725282652553e-01 -4.692188529742296610e-01 5.017198452634569206e-01 -5.334221109505464797e-01 5.615906608718410631e-01 3.100172862498709603e-01 -1.345895045242947730e-01 6.465704789399488728e-02 5.701740165429176888e-02 8.549049407571087528e-03 9.562766667857523079e-03 -2.651634921021128743e-01 -2.027533256124019745e-01 -6.760296130571008533e-01 -2.834908472940178004e-01 -1.947863163408418696e-01 -6.678415389399472435e-01 -4.684072902423532248e-01 -4.275951792134893847e-01 -7.558438411179420058e-01 9.192936123371815704e-02 3.318894044661756526e-01 6.493309744083802793e-01 -3.536459461702228246e-01 -6.874526826572502358e-01 -6.159428032889724403e-01 -9.320537646466163784e-01 -3.089444250583043283e-01 -3.563918407659293353e-01 -6.887622383220026734e-01 6.126544932025915768e-01 5.259950788065230753e-01 3.418700389355376346e-01 -3.610658765440925011e-01 2.167203230402504899e-01 1.094163609669434982e-02 -2.725761902555797270e-02 -2.621135318416203397e-01 1.982555029159635274e-01 1.493431796347093332e-01 2.075763492448847169e-01 -1.759499051493384481e-01 1.364831714160231746e-01 -5.545495240909833340e-02 4.028631309291351437e-02 -3.569700679957386047e-01 -1.898146701235273459e-01 1.024575500086744584e-01 -1.034319912202294328e-01 -3.820996865001937554e-02 9.228057136602048349e-02 -5.038831997635665472e-01 -5.179654193293036224e-01 -3.836283467477133446e-01 -5.214857650396724775e-01 -5.244227731234042400e-01 -3.832387620392783689e-01 -4.412052602544676572e-01 -6.459617870581058074e-01 -2.902909498455729098e-01 4.399300346370043635e-01 6.456332417308913163e-01 3.544903767966756658e-01 -3.213711681228375028e-01 -8.249561825757519840e-01 -8.730527605444690087e-01 -8.025647705221623518e-01 -5.433917133280007361e-01 -5.426095740769384390e-01 -4.458561050834587980e-01 -3.215681607750311977e-02 2.112816256042254759e-01 2.547816659240570436e-01 -3.610873528056574022e-01 2.873490150378507635e-01 5.406091950698864446e-02 -1.613487579711871955e-01 -2.674443443072395121e-01 2.419090160810521417e-01 -1.323726994102314147e-01 2.045193887754176154e-01 -2.287443248802356333e-01 2.422936643635764387e-01 -1.993875468633331538e-01 2.715919413076542943e-01 -8.295558238289729713e-02 -2.053605438371456371e-01 8.141300706645493435e-02 -6.711508619638062445e-02 -4.797505771475334829e-02 -6.598120737430737681e-02 -4.731614779082861655e-01 -6.974148380865978769e-01 -5.419739877917144621e-01 -4.840157115594542758e-01 -7.149983812146341045e-01 -5.723241983887805695e-01 -4.454757726417958863e-01 -7.190142012197111576e-01 -4.914484387367511475e-01 4.898280123559547450e-01 7.506022832795132826e-01 6.112066239654555533e-01 -6.186562133863364732e-01 -8.341566200265664310e-01 -9.428011100135027522e-01 -8.675510353791860974e-01 -5.185521920268693075e-01 -7.356242448880035978e-01 -6.325411703614258752e-01 4.867457080742063069e-01 4.634047684424306146e-01 5.434059476565020752e-01 -1.767559420918313196e-01 1.520008287755253151e-01 1.640262041311392749e-01 1.371179633239484330e-01 -2.251660837350035194e-01 2.424974518984179817e-01 4.335379283144265988e-02 4.262337024462366751e-03 -1.849914496092850691e-01 1.963896173807854195e-01 -3.807378479386710167e-03 -6.035707419543208385e-02 1.746025836881378301e-01 -2.029668073379516102e-01 3.453135885450756004e-02 -1.867148316358001603e-01 -2.218398757342257832e-01 -3.417275065379826171e-01 -1.508890628616922358e-01 -7.001776377842132693e-01 -1.867148316358001603e-01 -6.106983331794741954e-01 -5.027564106553280565e-01 7.179926175085861173e-01 -1.664009184563075006e-01 9.911489706551623868e-02 -7.950350047602684767e-02 1.515494093374363527e-01 -1.867148316358001603e-01 -2.218398757342257832e-01 -3.417275065379826171e-01 -1.508890628616922358e-01 -7.001776377842132693e-01 -1.867148316358001603e-01 -6.106983331794741954e-01 -5.027564106553280565e-01 7.179926175085861173e-01 -1.664009184563075006e-01 9.911489706551623868e-02 -7.950350047602684767e-02 1.515494093374363527e-01 -3.496952616876674580e-01 -2.233851891267967515e-01 -2.877911799768019807e-01 -2.217789152365561012e-01 -6.667547944712609587e-01 -3.496952616876674580e-01 -7.155186832886130111e-01 -4.421014062373326281e-01 6.041964946287972094e-01 -3.555027098475921354e-02 1.060439791502738593e-01 -1.977985206166039955e-01 6.857015065978384893e-02 -3.309771734954529698e-01 -4.917058109350750383e-01 -4.426731014170670053e-01 -5.229466925376949904e-01 -4.322045639060981825e-01 -3.309771734954529698e-01 -7.550770673331189675e-01 -4.860807333082557968e-01 6.963208837640858517e-01 1.153190228586958854e-02 -1.391275533637303108e-01 1.929309391710816446e-01 -8.984803653390811828e-02 -6.169232783724255542e-01 -6.332684396091241563e-01 -6.578696464167407276e-01 -6.502385890776386512e-01 -6.707062919810908852e-01 -6.169232783724255542e-01 -9.098089735119576638e-01 -6.849352411749187741e-01 7.509688283663664699e-01 2.079521130648153693e-01 -1.900251113986902995e-01 -6.138818053132886338e-02 -6.172303578821905501e-02
2.690959865415637475e-01 -2.394664073175754165e-02 -1.081505475495908447e-01 -2.630435863618991177e-01 -8.887580608005647698e-02 -4.777344407277040461e-01 -3.180567242269220496e-01 -1.392203715880749870e-01 -4.821377431008819769e-01 5.011368186709397494e-03 -8.424310225633650784e-02 -4.725328858344073901e-01 2.941862650880743835e-01 8.225074000671718510e-02 4.895650435431735947e-01 -2.332463822215295746e-01 -6.920338932139554755e-01 -8.188702911172524024e-01 -8.625467552920504932e-01 -4.437363082127945280e-01 -4.055267658475215642e-01 -5.247275447859566233e-01 1.497373806121345408e-01 2.241098622696881537e-01 1.606716685804639722e-01 -3.638552299783907040e-01 2.968379242104701166e-01 -1.578802354805659836e-01 1.720843274960332792e-01 -2.012201197802683250e-01 1.995605957979034728e-01 5.239789820447168789e-02 -1.614823079988250004e-02 -1.506485937722721047e-01 1.552282819962683691e-01 -7.122116517254863111e-02 -3.213189404576634323e-02 -2.585795908793899200e-01 -2.298617586467697482e-01 1.322339355248009773e-01 9.099306828990370022e-01 -1.969513900045603005e-01 -4.807521855458917609e-02 -9.662547602916679024e-01 -9.464121786730466113e-01 -9.429775783982546900e-01 -9.670438557725375972e-01 -9.480199317426739603e-01 -9.443199556491892466e-01 8.479452759390098127e-01 -2.034160270646243329e-01 -4.311497987430109452e-02 9.182425456083398441e-01 -1.852300599371570489e-01 -6.038950748961608578e-02 -2.533435185596697448e-01 7.946012170568474975e-01 -8.601709655710437774e-01 -9.759966676905145189e-01 -9.688949003938983617e-01 -9.528191038390522172e-01 -9.496228370089612181e-01 -6.589328606889252038e-01 -9.898289332156954279e-01 -7.745888905930193857e-01 -5.209856479306145260e-01 5.761836236226455243e-01 -6.297611179384476898e-01 6.817086508015358648e-01 -2.941868449328780000e-01 2.994686883424575452e-01 -3.529761341306479339e-01 4.246877575269832339e-01 -4.880479012159359420e-01 5.204285917150524021e-01 -5.520831999450652727e-01 5.802440129243077171e-01 3.708573458672441148e-01 -9.605375284756430265e-02 5.378484789618215994e-02 6.325559160703786432e-02 5.736821972143217943e-03 5.606103365765473766e-03 -3.003544066371233168e-01 -2.505430753999979832e-01 -6.865805823395595420e-01 -3.203736309873572718e-01 -2.418969719003190577e-01 -6.782697443265930382e-01 -4.941366915803094839e-01 -4.607905613083547181e-01 -7.663615071848669524e-01 1.271170843513590998e-01 3.720731567806116469e-01 6.608770376181738460e-01 -3.862413853817994180e-01 -7.122621104130600900e-01 -6.518854668824850540e-01 -9.360491019359838960e-01 -3.485350270418209329e-01 -3.908658941542486054e-01 -6.990404897766776537e-01 5.865328985795522643e-01 4.990131919850223086e-01 3.270412557827706568e-01 -3.381679116563474641e-01 1.964836725413785790e-01 1.764265592051243725e-02 -1.458974679109010728e-02 -2.462500237307108375e-01 1.816111399452486341e-01 1.642200045832316879e-01 2.067140734060324558e-01 -1.784277220123407504e-01 1.400783312059817598e-01 -7.488758703674414097e-02 5.558456290173277581e-02 -3.656847261299204233e-01 -1.690977880904748210e-01 1.388606016335197924e-01 -1.052784833825868849e-01 -3.870501706604299180e-02 9.463750055682756956e-02 -5.177359591393869698e-01 -5.340132238493685568e-01 -3.828114083396264578e-01 -5.347147401448718584e-01 -5.403369852952725205e-01 -3.755943201247310959e-01 -4.563072825690949741e-01 -6.573983166697762170e-01 -3.062767245711179309e-01 4.517823218977258803e-01 6.538489737966229898e-01 3.695329362019488251e-01 -3.318033689426141408e-01 -8.299906848231154433e-01 -8.793450246824783267e-01 -7.988658205689739278e-01 -5.575840680950626682e-01 -5.572591568577822674e-01 -4.283863801007336547e-01 -5.664056539129632556e-02 1.988734607308806634e-01 2.480631718389356977e-01 -3.532996565162617730e-01 2.745794992566253923e-01 6.931295686687345692e-02 -1.731735334284987826e-01 -2.594517952650353676e-01 2.374207935962951987e-01 -1.334069321709676348e-01 2.100092256011070468e-01 -2.286067548272592287e-01 2.433214713645946714e-01 -2.057115732493333682e-01 2.727742372271081961e-01 -6.233894586853395980e-02 -2.004959653177824930e-01 1.027944526418778370e-01 -5.563747057356319831e-02 -5.200597564569586079e-02 -6.812578707937676226e-02 -5.001885034885609205e-01 -7.126261762696889379e-01 -5.668117538395578414e-01 -5.105367924824357750e-01 -7.286749115836340662e-01 -5.954412057084726984e-01 -4.722839475894366479e-01 -7.342096766714485412e-01 -5.215783256883761432e-01 5.159771639822056111e-01 7.648205226134842105e-01 6.308309892544526898e-01 -6.380386628255161341e-01 -8.483308252106626091e-01 -9.478183421391772612e-01 -8.798408313394722180e-01 -5.433404733600426528e-01 -7.472658263609367468e-01 -6.524679717771283416e-01 4.791563416998129155e-01 4.389108248515736777e-01 5.222798654488670644e-01 -1.670655005297203566e-01 1.391499258330205491e-01 1.729998266011078811e-01 1.351291579875236737e-01 -2.185270364211073790e-01 2.412717220336627055e-01 4.403480176061203011e-02 3.892821813234739834e-03 -1.769399131714916862e-01 1.915303535782475197e-01 1.237411903644063636e-02 -8.991108553585799856e-02 1.881335628832634110e-01 -1.577600222034862554e-01 4.228777596864917443e-02 -2.161735101412279869e-01 -2.543896048830794898e-01 -3.712086334796770304e-01 -1.831564457208825769e-01 -6.987719459811193579e-01 -2.161735101412279869e-01 -6.335714679287145490e-01 -5.269498715835755354e-01 6.897521677652468375e-01 -1.544537713874695184e-01 8.863941457978211091e-02 -6.033822622306992539e-02 1.258900647110418602e-01 -2.161735101412279869e-01 -2.543896048830794898e-01 -3.712086334796770304e-01 -1.831564457208825769e-01 -6.987719459811193579e-01 -2.161735101412279869e-01 -6.335714679287145490e-01 -5.269498715835755354e-01 6.897521677652468375e-01 -1.544537713874695184e-01 8.863941457978211091e-02 -6.033822622306992539e-02 1.258900647110418602e-01 -3.825856576246958740e-01 -2.622718231665612798e-01 -3.246627125933563285e-01 -2.540850099632589454e-01 -6.858817215263648404e-01 -3.825856576246958740e-01 -7.388812562108054705e-01 -4.723082357168572609e-01 5.716011227300096254e-01 -2.909311006787614062e-02 1.055045775403850999e-01 -1.854632370760498639e-01 4.628699155076814592e-02 -3.426791199419870759e-01 -5.081431118149404291e-01 -4.611245692887187553e-01 -5.345664908029613693e-01 -4.275643886775005176e-01 -3.426791199419870759e-01 -7.613838424642443981e-01 -5.038379138217354836e-01 6.931872087945291083e-01 3.494246510062723292e-03 -1.260348601308245997e-01 1.773241870078192672e-01 -8.408314731238661355e-02 -6.361711814549316779e-01 -6.533278563800428707e-01 -6.762687257228330306e-01 -6.695770760388988219e-01 -6.865628768218031697e-01 -6.361711814549316779e-01 -9.177344064019898884e-01 -7.012963333403064992e-01 7.305811206282633030e-01 2.253758663821218977e-01 -1.993391969194530655e-01 -7.652538248918618058e-02 -5.108015944937865233e-02
2.703844641283258410e-01 -2.321476874442588573e-02 -1.093945406438038698e-01 -3.084861724678817918e-01 -1.368374417766757001e-01 -4.862227881948728014e-01 -3.605422113514303306e-01 -1.868286319253674166e-01 -4.911697741934435424e-01 -5.013474182406089247e-02 -1.054759202245294930e-01 -4.854281005744160993e-01 3.219570187418264173e-01 1.167870975658948374e-01 4.948358153290668970e-01 -2.723964526455237012e-01 -7.198209511565782925e-01 -8.333367453179387763e-01 -8.639940712582081517e-01 -4.772067468082312747e-01 -4.425822876981721499e-01 -5.328763561490874601e-01 1.342582792125909807e-01 1.977091765729176998e-01 1.518104917188930758e-01 -3.394683538616493079e-01 2.853546250700497167e-01 -1.545957964599858070e-01 1.697744499342995761e-01 -1.926355739683342505e-01 1.772296157897045588e-01 7.724386067635627406e-02 -4.079468336179015164e-02 -1.603036625063902210e-01 1.601121247150291138e-01 -8.685343910128380529e-02 -1.001116296455485492e-02 -2.380797730644894361e-01 -2.497585304470014145e-01 1.581483297474713945e-01 9.335758409695809057e-01 -2.121915022110860694e-01 -5.989185778990582104e-02 -9.672471024459411426e-01 -9.464334561573084503e-01 -9.446141838094977983e-01 -9.680792176129470183e-01 -9.481120567418832579e-01 -9.460009309633350405e-01 8.709000040499641493e-01 -2.183463166115383047e-01 -5.541745884101637043e-02 9.414760878202090844e-01 -2.002932526820699888e-01 -7.200105172649888530e-02 -2.534905634982346778e-01 8.337434490824142674e-01 -9.020273056330516681e-01 -9.720746764058286749e-01 -9.699836481960055767e-01 -9.529091428408360542e-01 -9.509893432638197863e-01 -6.758502381998827691e-01 -9.769691245096762122e-01 -7.953976997480421973e-01 -5.136883107330928455e-01 5.679341915710919286e-01 -6.206892502348145824e-01 6.719490032905347521e-01 -3.288370664870568505e-01 3.292902336722467460e-01 -3.752313044573042378e-01 4.384803128261320349e-01 -5.021794802038190841e-01 5.356975294055300596e-01 -5.685254962737826823e-01 5.978598890208660643e-01 4.103112952313714423e-01 -7.108097056274076397e-02 1.034012102718474130e-01 6.358535611807114574e-02 -1.107145079768561465e-03 -1.044791229714071672e-02 -3.458656221592306124e-01 -3.048055212731917707e-01 -6.952117841971622303e-01 -3.665386154480487768e-01 -2.962878818287331684e-01 -6.871317516723255414e-01 -5.247991879518335567e-01 -5.012039442098568109e-01 -7.756430332705949171e-01 1.783850096092474691e-01 4.150590413191947992e-01 6.713499137021137209e-01 -4.242705563735888474e-01 -7.404172863367187718e-01 -6.897424841245322069e-01 -9.387679845478086316e-01 -3.963639422007488311e-01 -4.323721308935181140e-01 -7.092124269108076584e-01 5.397979737846019255e-01 4.567645550092100382e-01 3.039580206819893493e-01 -3.138554884322367622e-01 2.038006766479002196e-01 2.439905325300644953e-02 -5.813750672731818510e-03 -2.275941475078970821e-01 1.517039695169511426e-01 1.827537046952537603e-01 1.982414461136018380e-01 -1.931559810878038519e-01 1.388519058839542963e-01 -9.258371611786095356e-02 4.425428909372022823e-02 -3.560346152969642852e-01 -1.632583630647314044e-01 1.574285527262020701e-01 -1.066993899894021769e-01 -4.024347180047366940e-02 9.694744263946675211e-02 -5.392579422654698584e-01 -5.569418605555914725e-01 -3.916319403144376543e-01 -5.548186054415751300e-01 -5.643109630010132438e-01 -3.789704228109921358e-01 -4.789819190292000650e-01 -6.687217212886158446e-01 -3.261878653638551895e-01 4.688008904778153685e-01 6.675371758248391796e-01 3.903998879593745808e-01 -3.542014817169060747e-01 -8.392913392264221839e-01 -8.879939080205297985e-01 -7.996077302964408329e-01 -5.773763726841090183e-01 -5.815125593896375289e-01 -4.215206614702382559e-01 -6.586226785812288043e-02 1.873153798941774861e-01 2.401660483177322503e-01 -3.333241666136000925e-01 2.502914463708584836e-01 8.972735185135172209e-02 -1.774448538524950603e-01 -2.686957557305018063e-01 2.427836656648657276e-01 -1.497345501646807631e-01 2.249165367772321955e-01 -2.564588539732148287e-01 2.510264350035286696e-01 -2.064641314823706386e-01 2.650549768193102285e-01 -6.617606157482903984e-02 -2.217159351207021456e-01 1.158148032329713029e-01 -4.816882099428441283e-02 -5.395475429400613948e-02 -6.703507471679859275e-02 -5.307214953643729638e-01 -7.268195452744530272e-01 -5.961965753926864453e-01 -5.408583696645247185e-01 -7.412170167852223379e-01 -6.219737250075315638e-01 -5.046126802902981545e-01 -7.499691122739514659e-01 -5.580731645648561168e-01 5.445370285325760173e-01 7.778417638937833445e-01 6.561397699071530587e-01 -6.586915260305841180e-01 -8.625147810283393390e-01 -9.519575866184827317e-01 -8.929251116274915523e-01 -5.733661395509940251e-01 -7.580394590286630985e-01 -6.728275713021044657e-01 4.566308838170361484e-01 4.112873259427229922e-01 4.842806995344715038e-01 -1.479088050418159717e-01 1.182828747569845962e-01 1.800136710869030821e-01 1.369929493016636968e-01 -2.275614447102484450e-01 2.439251714177188002e-01 2.858706195341961451e-02 1.028190932155117641e-03 -1.947981531744890638e-01 1.724713509285570046e-01 2.140221058048990405e-02 -1.321938874957807319e-01 2.067571711890869579e-01 -1.208869900639327893e-01 3.426277299095083217e-02 -2.569262316798017753e-01 -2.986949488301395284e-01 -4.096032539658565064e-01 -2.268112515575179955e-01 -7.035459228441712787e-01 -2.569262316798017753e-01 -6.627245490212232415e-01 -5.553171437936144095e-01 6.581131596589847588e-01 -1.498599320565758009e-01 8.443184708186433907e-02 -5.421011287671636397e-02 1.162239221240786852e-01 -2.569262316798017753e-01 -2.986949488301395284e-01 -4.096032539658565064e-01 -2.268112515575179955e-01 -7.035459228441712787e-01 -2.569262316798017753e-01 -6.627245490212232415e-01 -5.553171437936144095e-01 6.581131596589847588e-01 -1.498599320565758009e-01 8.443184708186433907e-02 -5.421011287671636397e-02 1.162239221240786852e-01 -4.214195376388779057e-01 -3.095215087290409950e-01 -3.684461589735968934e-01 -2.962063438173436203e-01 -7.098437053511368333e-01 -4.214195376388779057e-01 -7.638974578365717027e-01 -5.055514283092364947e-01 5.276472031260409645e-01 -2.280044556658636715e-02 1.037728074036616127e-01 -1.863133368933220513e-01 3.898324243279598089e-02 -3.659489965467029315e-01 -5.295594326203335589e-01 -4.849493920881707276e-01 -5.520862954186438465e-01 -4.413713000019747201e-01 -3.659489965467029315e-01 -7.731790258569452012e-01 -5.252724356350300106e-01 6.921331110231562223e-01 -1.194971223875004700e-02 -1.078565575765763340e-01 1.548883086532415743e-01 -6.612793210916670383e-02 -6.566790137564629815e-01 -6.743834951226034269e-01 -6.958842811128967965e-01 -6.894301187948651544e-01 -7.072866392419027148e-01 -6.566790137564629815e-01 -9.251904334177655231e-01 -7.192423745076864661e-01 6.958490033190555257e-01 2.276034767896695232e-01 -1.944447196728333327e-01 -8.321212727557296407e-02 -5.395400234988327604e-02
2.705615337787367625e-01 -2.229717393298459929e-02 -1.091651797586273842e-01 -4.287920098102190880e-01 -2.822895305570063407e-01 -5.669631582201239972e-01 -4.735645403050425251e-01 -3.238712681148694372e-01 -5.718565636323199586e-01 -1.962179740244925918e-01 -1.752693242526068285e-01 -5.405353115934818931e-01 4.152130454019583583e-01 2.212103508819686093e-01 5.487861940848133280e-01 -3.962161777566206577e-01 -7.718608673624332006e-01 -8.648883709235757333e-01 -8.874944818240532163e-01 -5.722684269333330187e-01 -5.380525318086455400e-01 -6.119684741642662518e-01 2.457394919996807106e-02 8.373889804555154082e-02 6.418972438403759695e-02 -2.462866614851736413e-01 2.264306605862040911e-01 -1.066941022907556685e-01 1.486376707230667171e-01 -1.514329333482546391e-01 1.349690486861156724e-01 9.804473099316200757e-02 -4.006236444523177814e-02 -1.072637407217729710e-01 1.215682866633843173e-01 -7.320818835424823534e-02 -9.366513838806078338e-03 -1.965411275088384813e-01 -2.571510782820097263e-01 1.503955195841296111e-01 9.283830196333286988e-01 -1.946229912940438678e-01 -4.605778830753438913e-02 -9.709453003301526941e-01 -9.498722094115635839e-01 -9.477604985003814653e-01 -9.717232567864879655e-01 -9.514103610724741200e-01 -9.491572403768868682e-01 8.642229173785545004e-01 -2.023556831128560385e-01 -4.242583252647388198e-02 9.377065532538446657e-01 -1.817291735131154329e-01 -5.730060739189328511e-02 -2.575227685113229414e-01 8.268763011030004773e-01 -8.997954002731569645e-01 -9.668736458272707557e-01 -9.734944489627316289e-01 -9.557166825529458398e-01 -9.536325798120622865e-01 -7.107198206355110903e-01 -9.464743808705013972e-01 -7.835366284003695281e-01 -4.789379382529014295e-01 5.298244708051114138e-01 -5.796063697606411713e-01 6.282938259371447787e-01 -3.617250325297610147e-01 3.544162211356587933e-01 -3.900328024989441200e-01 4.424047905856588470e-01 -5.077915292971670880e-01 5.373588246127202206e-01 -5.663634774218545553e-01 5.920173770555196002e-01 4.034861953338994001e-01 -8.054488639227018465e-02 1.207344700124492881e-01 6.256119453573111278e-02 8.942298332998482521e-03 -7.869527568251100114e-04 -4.562900979862710704e-01 -4.313667086792886129e-01 -7.446527243603248136e-01 -4.758027189385505840e-01 -4.237313652827657262e-01 -7.379210740916410938e-01 -6.032215116522516851e-01 -5.878320121324066561e-01 -8.112908315098005252e-01 3.088631189137938104e-01 5.255257007861811047e-01 7.227308942140254766e-01 -5.245671020068164436e-01 -7.875759851829695624e-01 -7.528463430399788825e-01 -9.497721989867390358e-01 -5.042625375344185201e-01 -5.334854541886794310e-01 -7.567429136699581615e-01 3.420871667328156396e-01 2.720995463499780720e-01 1.540045313255525294e-01 -2.294735134552081390e-01 2.025693714574179627e-01 6.224890958623695292e-02 4.624863726435447103e-02 -1.818912330352039364e-01 1.255543271597282240e-01 1.745554304828400849e-01 2.300158802399854541e-01 -1.409764880202120929e-01 1.261172874664918397e-01 -8.153878873660608262e-02 6.356645566092854194e-02 -3.052817552252626854e-01 -1.463471499733603742e-01 1.313197668524763162e-01 -9.174583748221393220e-02 -4.586187384777638820e-02 9.444594421598520584e-02 -6.100273922245107450e-01 -6.288860565818700232e-01 -4.820236913782079968e-01 -6.243526750570765893e-01 -6.366386199664394452e-01 -4.679849848738613649e-01 -5.418384873681376668e-01 -7.126431611193491111e-01 -4.016487310654822118e-01 5.253232218396409747e-01 7.062891389656775765e-01 4.586271176268206795e-01 -4.528966100955075236e-01 -8.655994810345971624e-01 -9.079266116874712411e-01 -8.289149931828051487e-01 -6.464927782683969060e-01 -6.529782518662272661e-01 -5.014568068075876406e-01 -9.727839415604545847e-02 1.150351060260520752e-01 1.381994357493878667e-01 -3.064615939200059924e-01 2.180893322438886839e-01 9.898760178861770731e-02 -1.400190807416546446e-01 -2.461879075200187061e-01 2.133388957937742414e-01 -1.226555439925582497e-01 2.207719617384526212e-01 -2.114638414954950751e-01 2.004739697271480103e-01 -1.663438984763447037e-01 2.382889214007950784e-01 -8.913783124103230593e-02 -2.119330569993309044e-01 9.674378901340932591e-02 -4.883526807041284334e-02 -5.111923551685484957e-02 -6.650055467320317715e-02 -6.135559121502994762e-01 -7.725122152223747873e-01 -6.688141159601014296e-01 -6.223629547420416186e-01 -7.852538353764849655e-01 -6.910718221366450864e-01 -5.891455447668092482e-01 -7.916883863908923402e-01 -6.326452895078353844e-01 6.274772646527608799e-01 8.135426369307462435e-01 7.173635364909547452e-01 -7.189080772703847488e-01 -8.899472175144828023e-01 -9.608459452866184858e-01 -9.149301365483205606e-01 -6.500709934548589697e-01 -8.000975846613574971e-01 -7.336488962194507302e-01 3.195581110343462816e-01 2.716658378786117600e-01 3.226745713268730498e-01 -1.312575378635587042e-01 8.979712312124896179e-02 1.612950163452568642e-01 1.421773045621525233e-01 -2.068562605534496890e-01 2.193926990436143032e-01 3.590270210332328210e-02 1.290752182636319308e-02 -1.400756003963803398e-01 1.395563647641638871e-01 3.657485310683412927e-02 -1.051337961953125594e-01 1.652964333283363507e-01 -9.035464290262984477e-02 2.271881110008175733e-02 -3.827476956235675853e-01 -4.143894088114594143e-01 -5.079638426118171513e-01 -3.562268098697062846e-01 -7.514606556983497443e-01 -3.827476956235675853e-01 -7.252349015494882201e-01 -6.305887861654048132e-01 4.806868192071884205e-01 -1.025215684300021524e-01 4.226010988779131672e-02 3.378788482691923514e-03 5.283139900275501261e-02 -3.827476956235675853e-01 -4.143894088114594143e-01 -5.079638426118171513e-01 -3.562268098697062846e-01 -7.514606556983497443e-01 -3.827476956235675853e-01 -7.252349015494882201e-01 -6.305887861654048132e-01 4.806868192071884205e-01 -1.025215684300021524e-01 4.226010988779131672e-02 3.378788482691923514e-03 5.283139900275501261e-02 -5.225661177390711343e-01 -4.262922938531541472e-01 -4.764632387192125895e-01 -4.115342733149161547e-01 -7.661149543551792895e-01 -5.225661177390711343e-01 -8.084316479171091974e-01 -5.904602782885729484e-01 3.261127514601196431e-01 2.548896127923761315e-02 5.934236331269873016e-02 -1.573470450428810785e-01 1.081314213978488514e-04 -4.628508657486155031e-01 -5.973704411937516001e-01 -5.596998263938012252e-01 -6.165695336190636366e-01 -5.170178665933020667e-01 -4.628508657486155031e-01 -8.103639255885368708e-01 -5.950727583128081477e-01 5.898272919969176353e-01 -3.579322582725555368e-02 -8.474134201753202866e-02 1.345148312236788268e-01 -4.715178211433934674e-02 -7.166867727285088918e-01 -7.294726340587130986e-01 -7.475071218826569996e-01 -7.425180565633670016e-01 -7.575882226611141412e-01 -7.166867727285088918e-01 -9.397445157710385688e-01 -7.676710907394985739e-01 5.161633838406899377e-01 2.448050628551314001e-01 -2.114462149997364815e-01 -6.851035549777877154e-02 -6.255295251032123860e-02
2.731818620868745606e-01 -2.036388943218166853e-02 -1.074744357125908822e-01 -5.832449325897551828e-01 -4.563021528687034034e-01 -6.657331348909208968e-01 -6.166319688413532951e-01 -4.853899457719109689e-01 -6.694546908532752472e-01 -3.999707171392720695e-01 -2.658796607223878339e-01 -6.047186671167069649e-01 5.240562339149994475e-01 3.439995773680115110e-01 6.151717815173649573e-01 -5.482078978569274730e-01 -8.375643785176640765e-01 -9.017894432040534092e-01 -9.156446364464452259e-01 -6.865900645879785547e-01 -6.431971279575451339e-01 -6.998509993018351416e-01 -8.852913321306192518e-02 -3.918438371796779951e-02 -4.266206525172735325e-02 -1.390628058495361752e-01 1.723377410906242191e-01 -7.929467783947653781e-02 1.524667392614349748e-01 -1.063239981621105362e-01 8.555725200257199847e-02 1.303152490250764628e-01 -4.257771727016480129e-02 -3.844046806898027135e-02 6.767652622342457125e-02 -4.160571722610326151e-02 -2.277997740954191067e-02 -1.615295603133058977e-01 -2.595298608599012624e-01 1.659843561686598357e-01 9.207814120586530482e-01 -1.584950776509621850e-01 -3.841023518482645366e-02 -9.763787232827755291e-01 -9.547885739749489842e-01 -9.514564049171871929e-01 -9.770087117106431851e-01 -9.559884299043609479e-01 -9.527700758262096503e-01 8.546378220142011317e-01 -1.687047004435652531e-01 -3.556825349751600168e-02 9.326161415638324348e-01 -1.441240334570315085e-01 -4.843564123918651237e-02 -2.823496934980534445e-01 8.139163330342841229e-01 -9.010406838300029086e-01 -9.550406006640644874e-01 -9.783898919437932218e-01 -9.595411528729390627e-01 -9.566818432823489537e-01 -7.704190708464240256e-01 -8.920473059077496103e-01 -7.588471341514692048e-01 -4.183597314967282821e-01 4.683787227091236738e-01 -5.177657219299482971e-01 5.665396792411939719e-01 -3.856492227862535205e-01 3.719765559121140375e-01 -3.993905265516741743e-01 4.432438285260837385e-01 -5.010223337351691342e-01 5.260961509828220306e-01 -5.506850573747874567e-01 5.720390946784202901e-01 2.911230609848088347e-01 -3.569633718323164673e-02 1.532130165464472837e-01 6.745788825036148906e-02 1.314644367704801559e-02 -7.888179327525883522e-03 -5.974464936850395480e-01 -5.715294841575740969e-01 -7.990651018386499826e-01 -6.101505867378742565e-01 -5.632212283513728934e-01 -7.932018682611350346e-01 -7.038872754857298242e-01 -6.917825379512009265e-01 -8.465887941905576586e-01 4.902758595160037203e-01 6.485080555657172230e-01 7.860335882867980350e-01 -6.404018672904963072e-01 -8.467243719445000094e-01 -8.194684216450707215e-01 -9.597424614089745676e-01 -6.228470562627793639e-01 -6.428590176039399307e-01 -8.069334378270461849e-01 1.009860146601801872e-01 6.316645912590768130e-02 -3.436805662512885245e-02 -1.388961059968635003e-01 2.163173181453743876e-01 9.278772199466406301e-02 9.049706680459182473e-02 -1.344819778620532091e-01 8.772392965324227188e-02 1.741233209195289788e-01 2.584348678996032378e-01 -7.176803500648490375e-02 1.018031621414098448e-01 -5.654779449748250503e-02 8.292654086023126814e-02 -2.366351518689651379e-01 -1.256747719092461968e-01 9.581109434255316581e-02 -8.163902577719449327e-02 -5.012979148026858178e-02 1.020222322024517958e-01 -7.016049511567900021e-01 -7.116834474839103253e-01 -6.025426456993995261e-01 -7.137466731008482723e-01 -7.195887670872750386e-01 -5.922033767109242675e-01 -6.224732303619604501e-01 -7.632555883244597217e-01 -4.815287822160801423e-01 5.975380916102011053e-01 7.525539140888836132e-01 5.463069713891761658e-01 -5.776609313565014281e-01 -9.017887925626323353e-01 -9.281686304031997459e-01 -8.688789433287885666e-01 -7.330654760497938849e-01 -7.376873573755213798e-01 -6.188057833633489047e-01 -1.501950107610018348e-01 2.879574551755300499e-02 4.666949877646655448e-02 -2.805193705221033507e-01 1.892212192401156734e-01 1.062706608320635043e-01 -1.012771557391270449e-01 -2.200550453150143804e-01 1.887650346099318532e-01 -1.097350277626647913e-01 2.255517409466460399e-01 -1.564135908211424786e-01 1.290166511341573341e-01 -8.755842797314335180e-02 1.842099125818019711e-01 -1.333121459663278163e-01 -1.702904732577772973e-01 2.300414554386749980e-02 -6.752548694391266593e-02 -5.193266107745623389e-02 -6.378305750703797128e-02 -7.079735991497808634e-01 -8.197749887507759237e-01 -7.499847356703364110e-01 -7.148033353984428739e-01 -8.287590367679550374e-01 -7.645573335170371410e-01 -6.879596139543366906e-01 -8.404153831323556423e-01 -7.261611558312920378e-01 7.207018543654174492e-01 8.540818724087452241e-01 7.897221412870920609e-01 -7.828668505954767820e-01 -9.201216129595811699e-01 -9.679594466946912501e-01 -9.376975373517852930e-01 -7.369809506087973139e-01 -8.387254823951877380e-01 -7.925182455367598688e-01 1.589149824803103017e-01 1.373604436376876237e-01 1.368045755231626637e-01 -1.171513922125178020e-01 6.423204444509295064e-02 1.443748270939275991e-01 1.471533489631714209e-01 -1.854973473560958264e-01 2.102938609603541287e-01 3.021858384771752837e-02 4.521064738243610326e-02 -7.574201910400576998e-02 7.515403968673527169e-02 7.651770522747398939e-02 -8.243154617026778042e-02 1.002911746726944248e-01 -5.720961534343499411e-02 -6.427806652746032023e-03 -5.387128164102297223e-01 -5.621556700754354319e-01 -6.300811368620717889e-01 -5.239576441054373257e-01 -8.172178759696168138e-01 -5.387128164102297223e-01 -8.021591602257057696e-01 -7.174417361676879157e-01 2.833117048645521496e-01 -6.405449421756814754e-02 1.015552465449912241e-02 4.425445452873838503e-02 1.632905174667287612e-03 -5.387128164102297223e-01 -5.621556700754354319e-01 -6.300811368620717889e-01 -5.239576441054373257e-01 -8.172178759696168138e-01 -5.387128164102297223e-01 -8.021591602257057696e-01 -7.174417361676879157e-01 2.833117048645521496e-01 -6.405449421756814754e-02 1.015552465449912241e-02 4.425445452873838503e-02 1.632905174667287612e-03 -6.401142147843185137e-01 -5.749079259253142560e-01 -6.114816794405723011e-01 -5.637080617687195705e-01 -8.250948225054058893e-01 -6.401142147843185137e-01 -8.595419380336066784e-01 -6.935567696987969821e-01 8.727069060303514758e-02 7.982113728960747723e-02 1.539719810536570657e-02 -1.408461306208770025e-01 -3.952812801292671097e-02 -5.851779552199172230e-01 -6.806318029682598691e-01 -6.505016863204682309e-01 -6.992041935035558931e-01 -6.249104662837106083e-01 -5.851779552199172230e-01 -8.575830785992846206e-01 -6.779549951689279874e-01 4.849822045349471700e-01 -4.794787238645164401e-02 -6.888560665780843473e-02 1.120437666754588724e-01 -2.391793988143936164e-02 -7.804506695811403993e-01 -7.927201415671636386e-01 -8.060966896334277321e-01 -8.028953809333913005e-01 -8.047664512267843628e-01 -7.804506695811403993e-01 -9.538000250729191665e-01 -8.211153961240656995e-01 3.180447625034058534e-01 2.520948260865438217e-01 -1.988533889115996767e-01 -7.283484960631708693e-02 -8.736743659251104688e-02
2.757590691043658171e-01 -1.812581916988274464e-02 -1.076680421193928483e-01 -7.912231207293484170e-01 -7.032708142463449663e-01 -8.143608019465127246e-01 -8.087331195113066640e-01 -7.190908937414287605e-01 -8.160166965141036899e-01 -6.684858156029583887e-01 -4.020882427176644680e-01 -7.016296282169801612e-01 6.841627342117239108e-01 5.081538020016223012e-01 7.255622544746812563e-01 -7.616960010141645698e-01 -9.213496942674433976e-01 -9.516604604171974291e-01 -9.584689951558563736e-01 -8.449445275926116272e-01 -8.032146970742817249e-01 -8.319105418330715596e-01 -2.787136506713470685e-01 -2.345247747116095960e-01 -2.151678305235558419e-01 2.869160284308085044e-04 9.501421848839623763e-02 -2.339294248643013913e-02 1.314815797836405564e-01 -2.873267905832850230e-02 1.164230967369178985e-02 1.637010832756766177e-01 -2.778648377085034954e-02 3.957484347032332733e-02 3.835828539676053306e-03 1.535273432778453025e-03 -3.579705676325636854e-02 -1.111708733758028089e-01 -2.393648878518114254e-01 1.518585646675280065e-01 8.950979892595598564e-01 -8.762207500895381751e-02 9.334418424392587621e-03 -9.837151937840342697e-01 -9.627140997598544470e-01 -9.579489973185548735e-01 -9.840496609555973162e-01 -9.635796408822154824e-01 -9.592656537793872173e-01 8.263478306648650573e-01 -1.020844433476317675e-01 1.044072781064871690e-02 9.105285235438567160e-01 -7.141884326617185808e-02 1.174853526274966323e-03 -3.419227932338361198e-01 7.890068632072487764e-01 -8.893902303845758750e-01 -9.433491011627929135e-01 -9.848330532838300844e-01 -9.662797877903830379e-01 -9.628106944439803749e-01 -8.637440756553275145e-01 -8.260098424115264182e-01 -7.230315619157791085e-01 -3.462287699700521970e-01 3.916993428244088249e-01 -4.371500942779122934e-01 4.826196582764643583e-01 -4.190109843367795794e-01 3.952261701873278077e-01 -4.099120369770034578e-01 4.406450995668719228e-01 -4.871459951527827292e-01 5.053702363883567639e-01 -5.232482046505066986e-01 5.381007965156605621e-01 1.887771072697424779e-01 -5.979243662538302057e-02 2.418993125367232544e-01 6.939835542300860916e-02 1.174289838217405096e-02 -4.784682679709171714e-04 -7.943243288061674345e-01 -7.746904343520133462e-01 -8.952448674322482924e-01 -8.022351491683834546e-01 -7.724833179588408427e-01 -8.920398969154880175e-01 -8.449863695351995663e-01 -8.336026947638039974e-01 -9.208873734522783350e-01 7.375334345730185648e-01 8.112555077174236073e-01 8.837939445381922665e-01 -8.159843728380991035e-01 -9.258892859337980452e-01 -9.133568303616234063e-01 -9.819387223443734047e-01 -8.126369726628496215e-01 -8.151906396444403846e-01 -8.985164002570701358e-01 -2.509381577951483311e-01 -2.562146221151516690e-01 -3.241649364907916997e-01 -1.772737348573983490e-02 2.310720206988551850e-01 1.433769428186447981e-01 1.658214349485261918e-01 -5.713216504374867694e-02 4.042214128613989127e-02 1.691272926237833429e-01 3.029560832811933335e-01 3.133707436620084170e-03 7.497742933708947954e-02 -3.949680927444219197e-02 1.374158662739816683e-01 -1.540322525301595358e-01 -8.830996956552024379e-02 2.659626046421751516e-02 -5.133286145912059617e-02 -6.585867653716870329e-02 8.615566366397504894e-02 -8.272134895422917911e-01 -8.467851342922027014e-01 -7.870412277752981689e-01 -8.350194845747495043e-01 -8.524993085865717468e-01 -7.822170261123551072e-01 -7.332479893616717925e-01 -8.524544978187110766e-01 -6.130059626099068071e-01 7.050591016508126474e-01 8.276272638844793805e-01 6.766673951328152636e-01 -7.684482448087717188e-01 -9.503484107645012724e-01 -9.671308617896626769e-01 -9.370988456276435619e-01 -8.491032478449751508e-01 -8.628189650127511268e-01 -7.972538676063919416e-01 -2.082539852590423735e-01 -1.053152701802396035e-01 -1.345217342121277637e-01 -2.592451802146895079e-01 1.625514620732717574e-01 1.013194636174081092e-01 -2.346253816677223644e-02 -1.856363975030084212e-01 1.503698772837404052e-01 -7.807680231775222801e-02 2.109811507428794863e-01 -5.228118511771387422e-02 1.806666739350032067e-02 1.582022408928322049e-02 1.347536065175379549e-01 -1.626830818791231703e-01 -1.235385363691085259e-01 -6.677704644839545234e-02 -8.160227893988361569e-02 -4.224227719799809877e-02 -5.677299760883206675e-02 -8.429284175772134846e-01 -9.063706215657554299e-01 -8.714382635858408666e-01 -8.479007360729843290e-01 -9.122778602578494045e-01 -8.801211574692020534e-01 -8.314298242466034994e-01 -9.140092088362296030e-01 -8.542173006644623312e-01 8.468365418372405529e-01 9.218643920972477979e-01 8.917635146937890056e-01 -8.876782737768120768e-01 -9.610790405335858377e-01 -9.858835007089521429e-01 -9.714592490448141771e-01 -8.606815245982336604e-01 -9.192600662709399240e-01 -8.963514569311976654e-01 -9.594195803914865039e-02 -9.958013820383082582e-02 -1.487038006361759979e-01 -1.158691006275867352e-01 3.475056123368813754e-02 1.012768344997639902e-01 1.572815155757900651e-01 -1.503950789973368674e-01 1.898817958924364224e-01 3.802244258033611601e-02 8.064905630847166162e-02 3.207854500575189199e-02 -1.009115242029854373e-03 1.102037378397687228e-01 -6.639158002853972305e-03 2.650542407791358496e-02 -4.421954952713525594e-02 -1.573907867086428436e-02 -7.561517871772309718e-01 -7.633766589163100136e-01 -7.992681051632424261e-01 -7.438767640288891370e-01 -9.052140413618597892e-01 -7.561517871772309718e-01 -9.036130456801220179e-01 -8.444548073415668599e-01 -3.898659044022795284e-02 -7.829250632187775491e-03 -3.712844666348824596e-02 1.028751506210189709e-01 -6.771776991027880777e-02 -7.561517871772309718e-01 -7.633766589163100136e-01 -7.992681051632424261e-01 -7.438767640288891370e-01 -9.052140413618597892e-01 -7.561517871772309718e-01 -9.036130456801220179e-01 -8.444548073415668599e-01 -3.898659044022795284e-02 -7.829250632187775491e-03 -3.712844666348824596e-02 1.028751506210189709e-01 -6.771776991027880777e-02 -8.154642879181078774e-01 -7.782885444286010701e-01 -7.985438453436748407e-01 -7.707549084708552600e-01 -9.031452287531869239e-01 -8.154642879181078774e-01 -9.328491748665809213e-01 -8.417956930173297048e-01 -2.806614005879173868e-01 1.456452271571624657e-01 -4.586939649646035871e-02 -1.146116851352996513e-01 -8.330045034871443044e-02 -7.711787680086473751e-01 -8.087123590442929499e-01 -7.908655196606227955e-01 -8.250683004784392649e-01 -8.039265696894251079e-01 -7.711787680086473751e-01 -9.306295371264367011e-01 -8.083542881817897818e-01 3.030649538669271115e-01 -6.745626329587312009e-02 -5.695970517802074334e-02 1.112026773259541107e-01 -1.358853686443396366e-02 -8.862008524331361770e-01 -8.882161431170850774e-01 -8.963156571976916842e-01 -8.927330554757249015e-01 -9.025169590447479351e-01 -8.862008524331361770e-01 -9.787245501581308682e-01 -9.059444032946027958e-01 -5.278237792732931241e-03 2.660438253177861978e-01 -2.066398021982092936e-01 -6.302111418732921078e-02 -1.004150737112627229e-01
2.781900825380689279e-01 -1.765580766680478753e-02 -1.063418283647985102e-01 -9.133528655411572439e-01 -8.476570227187703033e-01 -9.005862925002569019e-01 -9.213757901395313032e-01 -8.543473693012235692e-01 -9.008476472955330161e-01 -8.282670444760490414e-01 -4.841390590643107061e-01 -7.569850429362913191e-01 7.772681433251739103e-01 6.051971502364125177e-01 7.867340447824305860e-01 -8.859748161180419634e-01 -9.706123757174158762e-01 -9.804407411293788455e-01 -9.828680414603088167e-01 -9.364642726296221742e-01 -8.941674768573225629e-01 -9.074854448060057921e-01 -3.827890979844922326e-01 -3.560928897766468260e-01 -3.056993130484640386e-01 8.161902961713822513e-02 5.372288500821725127e-02 4.187871473424255656e-03 1.205908998736973242e-01 2.616792081490225755e-02 -4.530909383679746633e-02 1.977182948767970128e-01 -3.184046135969934715e-02 8.404726708720826334e-02 -3.887113070931661613e-02 3.354837179013036436e-02 -5.610552450706057098e-02 -6.599000543051075640e-02 -2.199116997021979270e-01 1.367392821283353599e-01 9.141125184152822936e-01 -6.257801557590464414e-02 2.144728575926681258e-02 -9.878083362837467574e-01 -9.678396223605258974e-01 -9.621497195108451583e-01 -9.879707264318148274e-01 -9.684929625221557759e-01 -9.633953246275347437e-01 8.438475263313863772e-01 -7.920319615941616431e-02 2.168516192106044807e-02 9.308949279606278937e-01 -4.490728180553732463e-02 1.467058820837239229e-02 -3.654258034054338466e-01 8.071029810199128463e-01 -9.094071787240758376e-01 -9.460847473350456616e-01 -9.884525048642673895e-01 -9.706584150710512171e-01 -9.666325297246407544e-01 -9.058399046829342938e-01 -7.873993211708006923e-01 -7.005451205751623833e-01 -3.022273789932042876e-01 3.455069996804925880e-01 -3.891708185808759324e-01 4.332689944909031698e-01 -4.492524641997565626e-01 4.212204277252117879e-01 -4.294981873078749235e-01 4.532788729008433992e-01 -4.840071813981702276e-01 4.962960694786072158e-01 -5.083006086875172524e-01 5.173890467396997650e-01 1.146076879551555794e-01 -1.910216945807206856e-02 2.940451439292831592e-01 7.336055654792154879e-02 1.150707685077313226e-02 2.542893943064433357e-06 -9.092165214416030317e-01 -8.907700068473638488e-01 -9.476218123255897297e-01 -9.126466824031952418e-01 -8.901058797294121305e-01 -9.455495279641690232e-01 -9.275917257788631742e-01 -9.175934009776537392e-01 -9.588208528788546570e-01 8.859460251357768046e-01 9.075812108681950985e-01 9.400387843375621610e-01 -9.149533104264725436e-01 -9.719504732710039230e-01 -9.660903838086534190e-01 -9.928981106436896020e-01 -9.159135752960086974e-01 -9.102566849211993771e-01 -9.473374990719681810e-01 -4.576917495342394671e-01 -4.423628128956485495e-01 -4.965037584726013087e-01 5.189700304560548177e-02 2.452018923129565819e-01 1.725199581334299070e-01 2.052715031010761138e-01 2.926181270106805333e-03 -4.616723911455357029e-03 1.803096700872018898e-01 3.237215542998010398e-01 5.061239355346399543e-02 5.565736171132334292e-02 -2.830408153765142515e-02 1.764279198638564194e-01 -8.763397547975231017e-02 -6.063119943920385058e-02 -1.367052848016502703e-02 -3.685976183593943356e-02 -7.303377628612855998e-02 8.528433615182999528e-02 -9.021070169912744907e-01 -9.217929752200525462e-01 -8.931512963465664257e-01 -9.073633445943900533e-01 -9.259475980642849491e-01 -8.923528698073434073e-01 -7.993234113863524337e-01 -9.021895392451356743e-01 -6.831101500252176884e-01 7.679552497715366188e-01 8.697725023705494829e-01 7.517866176963626801e-01 -8.765063911251379514e-01 -9.787192406268588885e-01 -9.869750079445742674e-01 -9.747523308548076137e-01 -9.177382612672363438e-01 -9.332590999188794534e-01 -9.016705152572694892e-01 -2.484131993281871731e-01 -1.866683834071500014e-01 -2.241357271960708886e-01 -2.478740220965423569e-01 1.470169608268617201e-01 9.378526485426783021e-02 2.186801122763537206e-02 -1.660459210761013327e-01 1.281949465827831869e-01 -5.724197360093492837e-02 2.032261873555426535e-01 1.810555925648548630e-03 -4.960197632092033099e-02 9.042762218168277910e-02 7.628520764321596037e-02 -2.115062971715231110e-01 -6.319021228294462167e-02 -1.097039370529457325e-01 -9.461255179899497048e-02 -3.968488208033872644e-02 -5.454219881897501288e-02 -9.215686069247840395e-01 -9.529893858012034036e-01 -9.386861655725635689e-01 -9.249467459899081145e-01 -9.563195205407311050e-01 -9.428245487471942354e-01 -9.148350073011005668e-01 -9.558318107700635169e-01 -9.282325012970137346e-01 9.227396027093817121e-01 9.603245089912363364e-01 9.489740794594651030e-01 -9.452337284501689529e-01 -9.846352207121424893e-01 -9.944463781910568567e-01 -9.892358894974347949e-01 -9.321523169734411418e-01 -9.602820463560087783e-01 -9.503133885121084479e-01 -2.475637318726736091e-01 -2.357607025693488623e-01 -3.117217800169263531e-01 -1.122471445571905785e-01 1.686071817480766510e-02 7.882794391267211598e-02 1.537327140552132987e-01 -1.324654940136840431e-01 1.795520234355719447e-01 3.727692658579574020e-02 1.175299687187965625e-01 9.647460895386938962e-02 -5.018952747862181346e-02 1.358794628399718207e-01 5.316289948102051466e-02 -3.270089816289441925e-02 -1.590811991032869965e-02 -2.663135726580285328e-02 -8.833783200417427706e-01 -8.825414100143539331e-01 -8.988566347496421693e-01 -8.760289394147102726e-01 -9.573643001852010226e-01 -8.833783200417427706e-01 -9.627633031292421872e-01 -9.180404172423696219e-01 -2.273778416751757736e-01 2.201835748863867001e-02 -6.432770957307611115e-02 1.354501294877187845e-01 -1.018427970695617302e-01 -8.833783200417427706e-01 -8.825414100143539331e-01 -8.988566347496421693e-01 -8.760289394147102726e-01 -9.573643001852010226e-01 -8.833783200417427706e-01 -9.627633031292421872e-01 -9.180404172423696219e-01 -2.273778416751757736e-01 2.201835748863867001e-02 -6.432770957307611115e-02 1.354501294877187845e-01 -1.018427970695617302e-01 -9.148346158913981396e-01 -8.988265769744224754e-01 -9.081875737083181521e-01 -8.949793561767872552e-01 -9.488770027458011125e-01 -9.148346158913981396e-01 -9.742064024143933798e-01 -9.271309721402634096e-01 -4.946236168115312748e-01 1.853060024414535933e-01 -8.336291691449397578e-02 -1.042343381441413336e-01 -1.039672705905136940e-01 -8.768024968267672525e-01 -8.819531939113663954e-01 -8.709144925505593049e-01 -8.976388388390621476e-01 -9.038000919939714883e-01 -8.768024968267672525e-01 -9.712336600421640487e-01 -8.826620865802702331e-01 1.951012609317043789e-01 -8.314248844386430692e-02 -4.523177204822588504e-02 9.295791793024869853e-02 2.012124316838935847e-02 -9.442200656094050792e-01 -9.432724218702095431e-01 -9.476330774029042558e-01 -9.446709193532779603e-01 -9.525576363512470168e-01 -9.442200656094050792e-01 -9.916840325271161216e-01 -9.526513573722691364e-01 -1.944672270356781751e-01 2.820645651406161747e-01 -2.110487927086563409e-01 -5.730018270856923612e-02 -1.209338487999794542e-01
2.782638093052911543e-01 -1.737994272023358697e-02 -1.068574366695007466e-01 -9.570004459206931102e-01 -9.072589917702993390e-01 -9.338511983574890873e-01 -9.617709062012107513e-01 -9.102658979816176110e-01 -9.331790594157750585e-01 -8.870487279619879706e-01 -5.197279195226385262e-01 -7.790263625400281056e-01 8.108837995684718969e-01 6.435290223999499126e-01 8.104466919685393567e-01 -9.335675555838718331e-01 -9.874736629399872845e-01 -9.910450351393386148e-01 -9.912944170812929556e-01 -9.695829684367832657e-01 -9.319850236856752623e-01 -9.355727930427492067e-01 -4.401450883823604388e-01 -4.168823528795025934e-01 -3.596367302115970332e-01 1.137799114082874707e-01 3.712462445943535971e-02 1.224209926179735571e-02 1.125823194160307239e-01 6.825642965216274782e-02 -8.156884418027680883e-02 2.198218452059720052e-01 -3.891960349513209905e-02 1.118444742246827300e-01 -5.936739974388802188e-02 4.836001503915120237e-02 -6.370474883429440294e-02 -5.470110516457123151e-02 -1.985605580750036958e-01 1.422789024682920567e-01 9.315847347558915414e-01 -5.739071849525209656e-02 2.066099245726282785e-02 -9.901589960240306798e-01 -9.719426739271018745e-01 -9.662158348885749870e-01 -9.902625583653463792e-01 -9.725526062722075205e-01 -9.673815651415047512e-01 8.603610221726180063e-01 -7.516091604516469959e-02 1.988365215455552629e-02 9.489745900555004443e-01 -3.840094864512567929e-02 1.491495197912501985e-02 -3.701507338056576613e-01 8.299461730507781132e-01 -9.268487418403341671e-01 -9.542080873922187401e-01 -9.906387413847960177e-01 -9.745007306066474362e-01 -9.704356641846129117e-01 -9.363519851203355726e-01 -7.929593695418251098e-01 -7.156229018340451997e-01 -2.850068733372543850e-01 3.263743885053794758e-01 -3.682568375701485430e-01 4.107104846724608516e-01 -4.545005444055540411e-01 4.242066986529108297e-01 -4.297887588610178611e-01 4.508456050297830475e-01 -4.690157485872821774e-01 4.795436782722330427e-01 -4.898195163118578832e-01 4.972492520582861841e-01 7.692284862717713168e-02 -3.142546667111934672e-03 3.608984378464880627e-01 7.327216519231191660e-02 1.111540217480891900e-02 -1.789707434550424697e-03 -9.522626792663879680e-01 -9.362108069201833249e-01 -9.676820648621451415e-01 -9.535769194837715457e-01 -9.349706891930876784e-01 -9.659303112902335453e-01 -9.590712382697412774e-01 -9.517188232030117101e-01 -9.741308417760337068e-01 9.427676888472437122e-01 9.473383191605544429e-01 9.614595338935859603e-01 -9.522014539189573856e-01 -9.886802579628309884e-01 -9.852810693503210038e-01 -9.968659276140423575e-01 -9.535293423881481267e-01 -9.451340682069762078e-01 -9.656571337313937242e-01 -5.510249469062509231e-01 -5.309150187278488531e-01 -5.715527415325593052e-01 8.192297145301165318e-02 2.521167910752056818e-01 1.865758108306386776e-01 2.150022314603153573e-01 4.806917696931332223e-02 -2.755571928706233853e-02 1.989740269170073295e-01 3.361237169268603830e-01 7.717354733343893824e-02 5.030690893154231291e-02 -2.004967337199900848e-02 1.983181558162767366e-01 -6.550846585361125296e-02 -4.086593920635373661e-02 -1.879930981245931526e-02 -3.336679326345163427e-02 -7.766582862339886650e-02 8.126771571516321069e-02 -9.318539702344796893e-01 -9.501159472845728260e-01 -9.356636514831034868e-01 -9.354776216335316530e-01 -9.528241817629777843e-01 -9.361714367837805639e-01 -8.278071638597316317e-01 -9.223872976236008325e-01 -7.127617799766993167e-01 7.920838420936507918e-01 8.862818498619863261e-01 7.820034345167805601e-01 -9.185766474533255677e-01 -9.889374608953991341e-01 -9.938973896929562679e-01 -9.892659452766826567e-01 -9.429483007407366557e-01 -9.579278584968324850e-01 -9.427462972100296712e-01 -3.008886450736773521e-01 -2.339275414509574547e-01 -2.883832909559281843e-01 -2.375511308479374140e-01 1.402880869338186398e-01 9.209649953157103552e-02 3.326428186539139020e-02 -1.527188614765010166e-01 1.157008284766883055e-01 -4.792667044619398214e-02 1.921349128481782964e-01 3.921871087761122365e-02 -8.114729623676275594e-02 1.123881301285300088e-01 6.857840364799357158e-02 -2.341763777365916122e-01 -2.893092470359573745e-02 -1.288365285976585395e-01 -1.022725147586545091e-01 -3.802727033606922297e-02 -5.481182577389988320e-02 -9.524322528207460614e-01 -9.720330576355462604e-01 -9.637105252222587515e-01 -9.545547276263519620e-01 -9.742022692419234353e-01 -9.659149668194442206e-01 -9.497177126142821724e-01 -9.730675480887522877e-01 -9.580436052090097743e-01 9.529159455488260821e-01 9.760520489290619439e-01 9.697574967304959381e-01 -9.676039210592447537e-01 -9.931101847666793381e-01 -9.977878429892331758e-01 -9.952433402661116091e-01 -9.587033704478579166e-01 -9.766818635670226900e-01 -9.699246636144234213e-01 -3.266510540704656851e-01 -3.019964172091268995e-01 -3.900979792424361658e-01 -1.028301131801211410e-01 1.074587464524033933e-02 8.456902026544843576e-02 1.420099495737195405e-01 -1.156018024604031080e-01 1.759833667784784506e-01 4.490890026812988794e-02 1.273278334806865475e-01 1.335201449849660882e-01 -6.584774907707646729e-02 1.504205546207418864e-01 7.096251213744211861e-02 -7.005959787710203113e-02 -2.799073519666724595e-03 -3.611897603719690930e-02 -9.319367543793638520e-01 -9.297268098219545474e-01 -9.381454319568924838e-01 -9.272391057345111820e-01 -9.770845349870163066e-01 -9.319367543793638520e-01 -9.834389351097646559e-01 -9.462588548441818181e-01 -3.252284224078427211e-01 4.718641126087097515e-02 -8.532532377621811215e-02 1.485737889669578038e-01 -1.100261475241193498e-01 -9.319367543793638520e-01 -9.297268098219545474e-01 -9.381454319568924838e-01 -9.272391057345111820e-01 -9.770845349870163066e-01 -9.319367543793638520e-01 -9.834389351097646559e-01 -9.462588548441818181e-01 -3.252284224078427211e-01 4.718641126087097515e-02 -8.532532377621811215e-02 1.485737889669578038e-01 -1.100261475241193498e-01 -9.521492310991082064e-01 -9.463172435181858022e-01 -9.510434938033910379e-01 -9.437562969203200369e-01 -9.642728085285928730e-01 -9.521492310991082064e-01 -9.892317065984846947e-01 -9.602024905759520834e-01 -5.968377946010368085e-01 2.121641487187599373e-01 -1.076731607876388608e-01 -9.930472428296700793e-02 -1.165492300926818242e-01 -9.178954720408623036e-01 -9.134010160928235367e-01 -9.051684455534656504e-01 -9.277920575006038950e-01 -9.415316427650226583e-01 -9.178954720408623036e-01 -9.859560515589216312e-01 -9.146284729945084457e-01 1.285845609573577630e-01 -7.754278675427105083e-02 -4.837140919261326971e-02 8.792390982022610380e-02 2.933611181704830206e-02 -9.668066374250627870e-01 -9.657114797029614506e-01 -9.683581742603573073e-01 -9.660472415121981182e-01 -9.717173856691596612e-01 -9.668066374250627870e-01 -9.964658500003406028e-01 -9.711052286721261195e-01 -2.933107736970083090e-01 2.978437557296689797e-01 -2.269152367183768226e-01 -5.092084028992872879e-02 -1.214377656289876151e-01
2.784524139182077973e-01 -1.707227452373768703e-02 -1.070949382352893858e-01 -9.771474489052315304e-01 -9.343828996287810718e-01 -9.502045960912216538e-01 -9.799244935775885956e-01 -9.361560525728349624e-01 -9.495331646293401207e-01 -9.128248974936613580e-01 -5.342823840761643517e-01 -7.905601195134236425e-01 8.275719404907013743e-01 6.606914487360657784e-01 8.197279652736765287e-01 -9.555515162603109847e-01 -9.952694832741153519e-01 -9.956763324094113354e-01 -9.957995550531462126e-01 -9.837666212141631394e-01 -9.506736661130582577e-01 -9.501141927474655580e-01 -4.664513395977150090e-01 -4.449079923518234336e-01 -3.803145383054187811e-01 1.266155220461621378e-01 2.914499053999732719e-02 1.764238675510886034e-02 1.064446218398024946e-01 9.182972584855735032e-02 -1.011608587826387240e-01 2.307427919438020392e-01 -4.094930369165376144e-02 1.238980586708334081e-01 -6.904492534915802893e-02 5.902987293688746057e-02 -7.100090233859125688e-02 -5.045645150886911290e-02 -1.926076323676688684e-01 1.453671779521787943e-01 9.312704206258554107e-01 -4.883764371896719136e-02 2.265593655651219895e-02 -9.910144330760811693e-01 -9.742288324814512013e-01 -9.681541725637051732e-01 -9.910832414577640526e-01 -9.748188353188910193e-01 -9.691605543391014210e-01 8.597313397683816749e-01 -6.742610607963131497e-02 2.137493131782436731e-02 9.489983903970139467e-01 -2.922806941601935327e-02 1.746479488972927513e-02 -3.657471387908604044e-01 8.281558216686776275e-01 -9.276036591313373547e-01 -9.525379859687806983e-01 -9.913739157310041961e-01 -9.767195734961395814e-01 -9.717598235001974061e-01 -9.432369894751021500e-01 -7.931517678298998231e-01 -7.261551474144148921e-01 -2.809903296941670958e-01 3.213528678453005938e-01 -3.622790426582035983e-01 4.038283070052192669e-01 -4.548078126392779419e-01 4.231245884489340248e-01 -4.272279085081905903e-01 4.468428486760351315e-01 -4.618617978326468587e-01 4.717823317101765279e-01 -4.814662462008124644e-01 4.883360372600490940e-01 6.201200033322486899e-02 2.246428611465618036e-02 3.842653219056674785e-01 7.550016643169268904e-02 1.113727269468194753e-02 -6.653118497179305937e-04 -9.704798108650923849e-01 -9.562193136712205943e-01 -9.765143142503514007e-01 -9.714437502323464146e-01 -9.555776106371970391e-01 -9.750712918174460064e-01 -9.723661035267263664e-01 -9.663609395302789062e-01 -9.803789269627749547e-01 9.651125184990131389e-01 9.632062193026336150e-01 9.710772995623636605e-01 -9.688331995320826895e-01 -9.951405277781215641e-01 -9.930544481295457970e-01 -9.984977051276188176e-01 -9.709247899912790691e-01 -9.621620452529535683e-01 -9.742000921330912222e-01 -5.936831993805393726e-01 -5.731885754298130520e-01 -6.072967560688720123e-01 9.419049759391207033e-02 2.528587183475505817e-01 1.943951530851738552e-01 2.178004575318813196e-01 7.268843402316182978e-02 -4.045488640219307291e-02 2.109114769627840613e-01 3.393579511353464473e-01 8.957029087133509815e-02 4.555504968474701627e-02 -1.221419380689878556e-02 2.069202860519956111e-01 -5.977398852536917884e-02 -3.746754619631404576e-02 -1.809815995993171306e-02 -3.240850254643082989e-02 -7.859690132322506850e-02 8.022435626789176100e-02 -9.464642851338058716e-01 -9.633410051109481120e-01 -9.528059305256230127e-01 -9.492926510831705134e-01 -9.661319896787986528e-01 -9.538029414783245619e-01 -8.417448253896251398e-01 -9.308288549518736188e-01 -7.248311501674293833e-01 8.048176699320512828e-01 8.933129519731911605e-01 7.935641930499792718e-01 -9.370780793338452375e-01 -9.933184956365566087e-01 -9.971318830034611169e-01 -9.943189236098809447e-01 -9.553741199568045461e-01 -9.709810373517586690e-01 -9.597427486908923777e-01 -3.247759444224360692e-01 -2.570050615318690834e-01 -3.124784890122125902e-01 -2.288405668456524045e-01 1.342313283309850558e-01 9.210607647323951208e-02 3.836717723441697425e-02 -1.462746925604196113e-01 1.107884501012250944e-01 -4.210558078337090643e-02 1.837581958842356145e-01 5.011802069799001919e-02 -9.068547850689080703e-02 1.181388332874917374e-01 6.794316817765956584e-02 -2.457842387777763316e-01 -1.293409149872432398e-02 -1.392784372242384106e-01 -1.006647483945935367e-01 -3.780480367843775530e-02 -5.206115628352022545e-02 -9.664982103839684369e-01 -9.790703620015128728e-01 -9.755247839120186892e-01 -9.683658480983100558e-01 -9.807807309788592054e-01 -9.770789130975782166e-01 -9.638557546150552380e-01 -9.793831618327624167e-01 -9.702196434537160297e-01 9.657991340411482550e-01 9.820351307414859621e-01 9.799680284360373639e-01 -9.772378276140072373e-01 -9.967192430897662270e-01 -9.988522121721706837e-01 -9.980199863779055658e-01 -9.714639928807417002e-01 -9.827402638833659942e-01 -9.796019379012315120e-01 -3.649707665288625669e-01 -3.345170902706716132e-01 -4.288230438411358980e-01 -9.475978751458082050e-02 7.187485779714113121e-03 8.770191097276115733e-02 1.386527297371272505e-01 -1.082034380266525958e-01 1.763464860823038827e-01 5.005131107498933529e-02 1.345018864746734821e-01 1.430257429659453350e-01 -6.849964166469237059e-02 1.492359583987582505e-01 8.340000529735849821e-02 -8.230670200733722353e-02 3.924302012282334176e-03 -4.431688762229563094e-02 -9.545932415870442833e-01 -9.509851860368124798e-01 -9.567491614247194409e-01 -9.496919925946737395e-01 -9.854799981951462007e-01 -9.545932415870442833e-01 -9.930111826461058833e-01 -9.621651536212715294e-01 -3.728350002098475002e-01 6.436083523233122883e-02 -9.864863012215600857e-02 1.568115046056964834e-01 -1.173978202222411282e-01 -9.545932415870442833e-01 -9.509851860368124798e-01 -9.567491614247194409e-01 -9.496919925946737395e-01 -9.854799981951462007e-01 -9.545932415870442833e-01 -9.930111826461058833e-01 -9.621651536212715294e-01 -3.728350002098475002e-01 6.436083523233122883e-02 -9.864863012215600857e-02 1.568115046056964834e-01 -1.173978202222411282e-01 -9.688408766964410335e-01 -9.649550536723324745e-01 -9.681746248659937049e-01 -9.630826512500116898e-01 -9.727502791698289242e-01 -9.688408766964410335e-01 -9.951664819371819348e-01 -9.738870521067057862e-01 -6.435978575612072428e-01 2.246346635583557905e-01 -1.170229075949893033e-01 -1.031922296875498191e-01 -1.180474557582662370e-01 -9.360287746912581142e-01 -9.268423819905011740e-01 -9.195682345592784968e-01 -9.413454042360727136e-01 -9.576178984205497846e-01 -9.360287746912581142e-01 -9.921424748768797874e-01 -9.274132101969897457e-01 9.360120609281219473e-02 -7.308377131049975661e-02 -5.163028996349267735e-02 8.753431749227746916e-02 3.121243192117670318e-02 -9.765967374574299198e-01 -9.748989424105399815e-01 -9.770911272691257254e-01 -9.745350264779562011e-01 -9.793576707243909496e-01 -9.765967374574299198e-01 -9.982952077142516201e-01 -9.793284176100941485e-01 -3.409353263963922909e-01 3.059131906341444052e-01 -2.346192759410699324e-01 -5.009296559365757073e-02 -1.195828766280682826e-01
2.725581396899205977e-01 -2.428403843483603261e-02 -1.073181073934128121e-01 -1.478437243950788127e-01 1.332692860868405459e-02 -4.384934635083562182e-01 -2.096880942474503018e-01 -3.858388291007248255e-02 -4.439594312728790126e-01 1.397155848468578654e-01 -3.674412764810842252e-02 -4.308117797972805807e-01 1.924410514009820827e-01 -3.112962550080349694e-03 4.593204633146142912e-01 -1.342510412704832068e-01 -6.108891844207935407e-01 -7.865851901490907849e-01 -8.474611130261835434e-01 -3.534107754870688956e-01 -3.195154154495752907e-01 -4.830746855962712027e-01 2.153424339538920207e-01 2.927504574992303432e-01 1.820750436437082453e-01 -3.882003574094435305e-01 3.247000452406034188e-01 -1.962377599905044401e-01 2.023769475227472081e-01 -2.127600551950114827e-01 2.257321134913229665e-01 3.287134746925882839e-02 8.680023030055269290e-03 -1.401984764669913786e-01 1.673004372878791612e-01 -3.769345614889626356e-02 -9.854456666597892489e-02 -2.904533083938672378e-01 -2.344601431204101638e-01 1.063266592548281347e-01 9.421873372923801337e-01 -2.143546427926329989e-01 -3.993430151220735136e-02 -9.652598060716027772e-01 -9.444449362759368416e-01 -9.368061294187876031e-01 -9.660337470472885046e-01 -9.463788803680762696e-01 -9.378013759272548766e-01 8.808719938401066152e-01 -2.197614855157500602e-01 -3.311324909498218616e-02 9.500458037504175834e-01 -2.027911105223591526e-01 -5.311188001387743413e-02 -3.357911136237933247e-01 8.495959019230848730e-01 -9.130726383613899655e-01 -9.856075457375856885e-01 -9.677322522727859200e-01 -9.521087528737426364e-01 -9.425048203445610673e-01 -7.150296753929630267e-01 -9.970402244907783373e-01 -7.906522829645968864e-01 -5.016440101322079403e-01 5.637471539522868058e-01 -6.238376624494560430e-01 6.818775720827818798e-01 -2.276325400252465214e-01 2.415154505885676872e-01 -3.086598145615670474e-01 3.955587090952790708e-01 -3.904915719613237246e-01 4.252601005302845683e-01 -4.591499649100386771e-01 4.895417458310229453e-01 3.221245787177071107e-01 -1.019738360485406004e-01 5.091402521711172607e-02 4.473424897376877124e-02 -3.088005139909573513e-03 1.419590712530248953e-02 -1.665594630689223310e-01 -1.139734526024031719e-01 -6.277076374645848000e-01 -1.830531182624918207e-01 -1.043056199123594124e-01 -6.196416361982756138e-01 -3.705969624872537671e-01 -3.643146327962806241e-01 -7.154520457036597225e-01 -4.749449897028604380e-03 2.732871800438785859e-01 5.982338105531300743e-01 -2.685458919769874164e-01 -6.126478953405893879e-01 -5.462558684586776847e-01 -9.146820728864354377e-01 -2.047973940525327774e-01 -2.859081872523344670e-01 -6.450659185582147126e-01 6.692744330748043868e-01 5.782612327687413067e-01 4.074523701767767125e-01 -3.690870622632798081e-01 2.199338334521223903e-01 -1.987690959308155772e-02 -1.401798991763441964e-02 -2.782425612280863825e-01 2.217902255105012876e-01 1.284015186854630675e-01 2.419267529244705228e-01 -1.635761373460583867e-01 1.611661866896538231e-01 -6.987188568910998251e-03 4.869882415229545569e-02 -3.351468329194695617e-01 -2.219297421228940415e-01 9.575840379872192776e-02 -9.598236263941432866e-02 -4.063169288878289154e-02 9.020655005385684599e-02 -4.670018678868332884e-01 -4.754966421532044740e-01 -3.632756275903952781e-01 -4.866176666398277506e-01 -4.888189102710749356e-01 -3.749734436018788974e-01 -4.070555713074232029e-01 -6.036490285634751318e-01 -2.584979654470234700e-01 4.016458022779716419e-01 6.211892713528867072e-01 3.031406864327623185e-01 -2.840644343472232269e-01 -8.071479956624578733e-01 -8.548257036711865986e-01 -7.973332866949913722e-01 -5.081624046965799169e-01 -5.205705246674958708e-01 -4.523538275578434242e-01 1.484195557425692195e-02 2.219357336773136458e-01 2.746870640845058831e-01 -3.548583321224184073e-01 2.788200006386560292e-01 7.515398094905834103e-02 -1.828075453988858012e-01 -2.434007250347635376e-01 2.389391988238109554e-01 -1.412481082438328539e-01 2.216820402268455670e-01 -2.108493280712312457e-01 2.411427806719248224e-01 -2.009223155319376231e-01 2.933479580867228709e-01 -7.597091698123058234e-02 -1.841940481188566459e-01 6.282314794879027831e-02 -6.874741085819625896e-02 -4.697343002261823025e-02 -6.111719766151688799e-02 -4.132754253846878667e-01 -6.496371747436880950e-01 -4.826530564780461274e-01 -4.254153032159813108e-01 -6.710343137985000928e-01 -5.161112823627300727e-01 -3.848752085925875033e-01 -6.739428670763364382e-01 -4.158867926180434549e-01 4.463465945439906712e-01 7.091681797922537722e-01 5.694379351828101621e-01 -5.677300283486039767e-01 -8.017981059772544272e-01 -9.269233894997394030e-01 -8.370064778277389594e-01 -4.650419914450819592e-01 -6.981166348047973536e-01 -5.756339939845018794e-01 5.402690897033336492e-01 5.217363174748529397e-01 5.906308203993108075e-01 -1.700273859948560895e-01 1.483119223422830202e-01 1.703008757577504639e-01 1.605581742790080091e-01 -2.103090975455945977e-01 2.560382490593877680e-01 4.373419584620318740e-02 1.520864294807662727e-02 -1.868812588750363435e-01 2.134612308812845471e-01 -1.990642497090345381e-02 -2.481811962402056745e-02 1.624420590046821711e-01 -2.189643289543753424e-01 1.705631424446365715e-02 -1.098423616040615780e-01 -1.459534112358027991e-01 -2.758391127361296546e-01 -7.314822510917379228e-02 -7.009562231441399671e-01 -1.098423616040615780e-01 -5.509950931257598938e-01 -4.534847803841163261e-01 7.845832319495115170e-01 -1.575478245902436070e-01 9.285872626001809294e-02 -7.275931648608265079e-02 1.460724932676895071e-01 -1.098423616040615780e-01 -1.459534112358027991e-01 -2.758391127361296546e-01 -7.314822510917379228e-02 -7.009562231441399671e-01 -1.098423616040615780e-01 -5.509950931257598938e-01 -4.534847803841163261e-01 7.845832319495115170e-01 -1.575478245902436070e-01 9.285872626001809294e-02 -7.275931648608265079e-02 1.460724932676895071e-01 -2.654828268883922537e-01 -1.261206053893452750e-01 -1.931259103348854089e-01 -1.384329181973907030e-01 -6.292130416517678348e-01 -2.654828268883922537e-01 -6.525279099377252479e-01 -3.595926004240306839e-01 6.874170896421274435e-01 -3.839816098800526156e-02 9.202367255278905145e-02 -1.748904877507802269e-01 6.804420382176062931e-02 -2.902836834004240973e-01 -4.330845882133490532e-01 -3.742334587842425786e-01 -4.835635032522579979e-01 -4.620121572953602707e-01 -2.902836834004240973e-01 -7.307223307032013615e-01 -4.143147251369486694e-01 6.885713253060958827e-01 3.722542333798266323e-02 -1.664263721139315200e-01 2.103437323167993422e-01 -8.890525617123665181e-02 -5.658122271919353574e-01 -5.824665848235057730e-01 -6.096967426704245074e-01 -6.021920867971826130e-01 -6.237905679543291892e-01 -5.658122271919353574e-01 -8.884576477098070635e-01 -6.399663356383921142e-01 8.144161377061036600e-01 2.027031502710534838e-01 -2.059771165584202979e-01 -3.356199122767768162e-02 -5.868651378188735612e-02
2.720759440733646062e-01 -2.359347682838828023e-02 -1.071275217565061666e-01 -1.656392727159116951e-01 5.616581046574522281e-04 -4.491881191520999406e-01 -2.253450918416383675e-01 -5.138660493512026833e-02 -4.561105920336623876e-01 1.153987222368540733e-01 -4.308333708380159000e-02 -4.379063407466031732e-01 2.111132244694217119e-01 6.560764237540228118e-03 4.650220963431379584e-01 -1.500883621235322152e-01 -6.231084081074542702e-01 -7.909532929444161864e-01 -8.533070145453823807e-01 -3.651757576466018174e-01 -3.309488211249344558e-01 -5.016783976327415795e-01 1.996462962466388213e-01 2.837598005934960366e-01 1.849455537557897766e-01 -3.893920897396079828e-01 3.276431990961506391e-01 -1.957281464381872838e-01 1.962180577058691699e-01 -2.174897789949572224e-01 2.282584958525519792e-01 3.067054154414848230e-02 3.710810023028850678e-03 -1.344158360524340678e-01 1.610430169879827622e-01 -5.200866363550702559e-02 -6.940565070002080450e-02 -2.795278209941770564e-01 -2.280419526338763325e-01 1.253252286419212769e-01 9.398722961933687614e-01 -2.187882424944451731e-01 -4.660661439083198937e-02 -9.655155191995221653e-01 -9.459283303371972540e-01 -9.404525154795144726e-01 -9.662032454357825095e-01 -9.476882825312397118e-01 -9.414821429733477576e-01 8.782402210391843100e-01 -2.244579454065515067e-01 -4.097123068325621287e-02 9.476125544322712146e-01 -2.067931307243544847e-01 -5.910987335445325175e-02 -3.035302209133028395e-01 8.444813567377772445e-01 -9.083136959969169144e-01 -9.822908999516749562e-01 -9.679940030154640107e-01 -9.531771448495042209e-01 -9.462731183518107159e-01 -6.921157844082995725e-01 -9.954583907485859973e-01 -7.979245421250814596e-01 -5.069903871531362682e-01 5.681245065171736108e-01 -6.273650170506355206e-01 6.846800133692347856e-01 -2.387918405537585720e-01 2.505703877770972254e-01 -3.147123422889263056e-01 3.983483962481437768e-01 -4.100914738925342529e-01 4.450198262571063434e-01 -4.791134812882580918e-01 5.097143370021145481e-01 3.395997817885820780e-01 -1.057334598649176949e-01 5.598640312828125076e-02 4.431083510110049584e-02 -6.907067656456046013e-03 9.581114312856501072e-03 -1.879008544130917890e-01 -1.346276054499801200e-01 -6.374589046488058353e-01 -2.043402421750314668e-01 -1.244860741019345324e-01 -6.292787579533881681e-01 -3.953918911575082795e-01 -3.803185502810973451e-01 -7.248598593092038245e-01 1.966507183011670379e-02 2.859887691772978191e-01 6.066669025787599923e-01 -2.866635502984447581e-01 -6.302658021173788150e-01 -5.647381483717701656e-01 -9.186118346531063628e-01 -2.256237548187641495e-01 -3.002345210731719449e-01 -6.536150206578899002e-01 6.582444563913568691e-01 5.711268550798904720e-01 3.938830182626167353e-01 -3.672868350325561582e-01 2.213706262160396732e-01 -8.619611126459883477e-03 -2.321754569372082994e-02 -2.787291117079122027e-01 2.246114852687424723e-01 1.253454313824056698e-01 2.425972803428362301e-01 -1.638348981202080445e-01 1.591118652918587784e-01 -3.397680369117143245e-02 6.073140375155800658e-02 -3.433022488632793134e-01 -2.011077322416753854e-01 1.121106196512002134e-01 -1.057970247031548017e-01 -3.664542009526194910e-02 9.115351546803239502e-02 -4.705646248151444944e-01 -4.924034495904117681e-01 -3.542382638054120125e-01 -4.901889082305865841e-01 -5.043296590287857928e-01 -3.590801551050836760e-01 -4.143435960590428069e-01 -6.213101890247878512e-01 -2.617297303110262541e-01 4.073932138095545663e-01 6.258989849790191906e-01 3.163411822821830532e-01 -2.904821922350186436e-01 -8.104000849183990995e-01 -8.635492770274538765e-01 -7.904900496625693052e-01 -5.132231831873407257e-01 -5.324972229639447496e-01 -4.296592757922328976e-01 -1.429063208226391025e-02 2.228018673691945228e-01 2.705454249821842017e-01 -3.493251127763848385e-01 2.742093846642044142e-01 7.482737590534764560e-02 -1.789356379023629984e-01 -2.458010758515080108e-01 2.352489736370763640e-01 -1.307088639355699078e-01 2.093348233319315133e-01 -2.197885496459421328e-01 2.482675121058556256e-01 -2.174283268776887879e-01 3.078158047818535525e-01 -5.936025393223031549e-02 -1.892722191689321654e-01 6.858374714827686347e-02 -6.184896244006397176e-02 -5.788866626120891395e-02 -7.037102337248347939e-02 -4.255788171832520228e-01 -6.616859159111408983e-01 -4.942536208738667614e-01 -4.371612850593693533e-01 -6.812125835340974156e-01 -5.273666338076477000e-01 -3.969447296326443775e-01 -6.869460069430819438e-01 -4.310834381744011456e-01 4.532421551743989752e-01 7.216682207261279069e-01 5.787127848744781922e-01 -5.786146747029214943e-01 -8.098446948572869397e-01 -9.314614989648101195e-01 -8.433884918605081271e-01 -4.754778327018226447e-01 -7.053650470328917121e-01 -5.887422239946411562e-01 5.334902548254837340e-01 5.054573231240773179e-01 5.770730071834109243e-01 -1.652473410319671432e-01 1.457484930911034648e-01 1.696756967171008101e-01 1.621993615426624291e-01 -2.102877045434764225e-01 2.507365013203441961e-01 4.713594582033913544e-02 2.163260703352827899e-02 -1.936921405189741541e-01 2.170361913188508518e-01 -3.035790959925393009e-02 -3.853003588478037117e-02 1.848337304087216137e-01 -2.046507587131403960e-01 2.440595030188174447e-02 -1.263482620133314360e-01 -1.642514689010386997e-01 -2.911607770597367528e-01 -9.029307044659543036e-02 -7.000380123701849255e-01 -1.263482620133314360e-01 -5.641041731676306181e-01 -4.628456214232931631e-01 7.711522811356649187e-01 -1.568700573383118024e-01 9.321272906989351570e-02 -6.849374954329781606e-02 1.351189895132976215e-01 -1.263482620133314360e-01 -1.642514689010386997e-01 -2.911607770597367528e-01 -9.029307044659543036e-02 -7.000380123701849255e-01 -1.263482620133314360e-01 -5.641041731676306181e-01 -4.628456214232931631e-01 7.711522811356649187e-01 -1.568700573383118024e-01 9.321272906989351570e-02 -6.849374954329781606e-02 1.351189895132976215e-01 -2.830092970881232795e-01 -1.501467925943797965e-01 -2.154402059891762644e-01 -1.591127954297251734e-01 -6.285693921274722040e-01 -2.830092970881232795e-01 -6.678138452625207444e-01 -3.779791632483873176e-01 6.707369432013770005e-01 -3.598297444377984711e-02 9.840625302985471501e-02 -1.870416440700742033e-01 6.833076743440565093e-02 -2.980248654260908014e-01 -4.498983438845235994e-01 -3.937647902652400833e-01 -4.933568195959963654e-01 -4.547531540180810850e-01 -2.980248654260908014e-01 -7.362729121255974229e-01 -4.355588026059390439e-01 6.973414481903353890e-01 3.370762256773588567e-02 -1.625667984605365934e-01 2.106837936816463863e-01 -9.586116553376870797e-02 -5.769260499657349328e-01 -5.951170518230565198e-01 -6.212477143166673654e-01 -6.146654169146730240e-01 -6.335429398248626498e-01 -5.769260499657349328e-01 -8.939913045296259408e-01 -6.497827005495907526e-01 8.038408207511779091e-01 2.078745736406866496e-01 -2.065289568319628177e-01 -3.578130425743639154e-02 -6.213058357392482745e-02
2.689439532840282032e-01 -2.348255537233570611e-02 -1.076901983405567087e-01 -2.046613671111351673e-01 -4.413837419365765347e-02 -4.539152382018164511e-01 -2.625126915826791474e-01 -9.605968476636760067e-02 -4.598731247093788554e-01 7.235705105787955393e-02 -5.795395078239815034e-02 -4.518840403577025766e-01 2.447980790550396135e-01 4.492391731427370499e-02 4.683575261764819642e-01 -1.839598952872721349e-01 -6.498770361165810971e-01 -8.046980152104415973e-01 -8.529704302208274136e-01 -3.958794481272762122e-01 -3.697015324246836765e-01 -5.038913236874097423e-01 1.785440499672862891e-01 2.540320161508967112e-01 1.772074450894437214e-01 -3.740110113261986280e-01 3.123421314179822827e-01 -1.800366086987621184e-01 1.876030722872818746e-01 -2.106162287416157020e-01 2.123602739791635163e-01 4.350497931659675493e-02 -7.782774175597310246e-03 -1.501031892352325259e-01 1.673623404707423878e-01 -7.401740406255252758e-02 -4.100869024107687416e-02 -2.720307528072123948e-01 -2.390977392855514194e-01 1.293893887052254277e-01 9.351640744761712254e-01 -2.124838535613780832e-01 -5.677138724089976496e-02 -9.642863432831713100e-01 -9.435844248347686758e-01 -9.391377366629743983e-01 -9.650018417032731888e-01 -9.456755845892046430e-01 -9.404280221393845896e-01 8.738076147834634710e-01 -2.172426243744856600e-01 -5.039799053249250510e-02 9.423990108643388597e-01 -2.011807620816637443e-01 -6.953089131025075309e-02 -2.767052018352896825e-01 8.351160414398284271e-01 -9.058271918362644781e-01 -9.736372908132765458e-01 -9.667144056142537023e-01 -9.516629001052018255e-01 -9.458381749368318658e-01 -6.670710433418309826e-01 -9.722327719317858108e-01 -8.027954201038584037e-01 -5.162321249178726257e-01 5.754325260120164431e-01 -6.329865004969359443e-01 6.888743528714876829e-01 -2.784369368450023696e-01 2.860915427657808596e-01 -3.432019322427429797e-01 4.188951667588335370e-01 -4.483287318762079199e-01 4.825862479982311881e-01 -5.160963738294438441e-01 5.461406819431344761e-01 3.716008724249106332e-01 -7.027663778123870164e-02 8.399989630700822885e-02 5.970146410076214438e-02 -2.118609102829524440e-03 7.641337070759680883e-03 -2.311241739605089940e-01 -1.932194213850909614e-01 -6.547957584991724866e-01 -2.492569476169294029e-01 -1.840204837853098851e-01 -6.464289074840763316e-01 -4.299693260109068160e-01 -4.173809849256656657e-01 -7.398803021611294328e-01 6.073580893340765896e-02 3.342892252116463347e-01 6.273619305994706519e-01 -3.285596835147830408e-01 -6.612511621605154932e-01 -6.068130715434051359e-01 -9.250764416491801256e-01 -2.746542564190197488e-01 -3.466869925334884472e-01 -6.695090944517654297e-01 6.279294086715745404e-01 5.355773540324167969e-01 3.713908221721374248e-01 -3.515866928666345204e-01 2.134495188574845603e-01 -8.637491500765923482e-04 -1.495904868043639382e-02 -2.637263256662640276e-01 2.027908192242798557e-01 1.375060198854164417e-01 2.312439480023316118e-01 -1.813633595588955705e-01 1.568038011366490458e-01 -6.056369472260585141e-02 5.070239596311166413e-02 -3.559972579680409366e-01 -1.970436229446531629e-01 1.219428073480890579e-01 -1.132425049247334781e-01 -3.520323707550948589e-02 9.750106811721549749e-02 -4.830652449772616652e-01 -5.056746990079207249e-01 -3.609456658426301034e-01 -5.002862660251522486e-01 -5.167650225495178384e-01 -3.600633080354933568e-01 -4.305127148842585738e-01 -6.316405169231786854e-01 -2.810258825856045140e-01 4.194869537167755236e-01 6.349666659618754538e-01 3.336927613869437592e-01 -2.993203700742853579e-01 -8.123715803924635992e-01 -8.673781680785950243e-01 -7.908678133890356676e-01 -5.216685036531177877e-01 -5.429975144292327194e-01 -4.213322000276245038e-01 -4.007072682530205682e-02 2.106085357810909831e-01 2.712133765692263943e-01 -3.454414284293940152e-01 2.646270332989170693e-01 8.206353928783684248e-02 -1.789071680503425410e-01 -2.567842720237860088e-01 2.401396457891821767e-01 -1.385313200511772702e-01 2.155639630182510369e-01 -2.395788596150524308e-01 2.570022003126198329e-01 -2.203527265835221738e-01 2.952317368764814098e-01 -6.663825859884352221e-02 -1.984920956849895168e-01 8.679253163093461620e-02 -4.495566809976171002e-02 -6.367830388311110368e-02 -7.040921244614632701e-02 -4.590441897470117216e-01 -6.797846626231678346e-01 -5.272333816469544354e-01 -4.703216813786911810e-01 -6.977119330196824842e-01 -5.588837423870816057e-01 -4.304485041557539748e-01 -7.033234861705781604e-01 -4.698773422706116754e-01 4.842690629946924674e-01 7.384164788348666075e-01 6.013228406425527028e-01 -6.030756839062147989e-01 -8.267120016737793398e-01 -9.372891702658084911e-01 -8.594179492341721405e-01 -5.063269010030675421e-01 -7.198426278411421686e-01 -6.173408525040060546e-01 5.206682576269456852e-01 4.744659156939945999e-01 5.525094917065288547e-01 -1.598507086964605362e-01 1.323785876929479410e-01 1.741591158965492270e-01 1.486123688197152626e-01 -2.196159709496081636e-01 2.482557565058591265e-01 4.043577443041341396e-02 1.120126583625094194e-02 -1.999073309666587472e-01 2.062042439775803038e-01 -1.247791135907648508e-02 -7.656456797118867119e-02 1.882521697358319479e-01 -1.766512903079599239e-01 3.771555391712874683e-02 -1.621706809025725560e-01 -2.014864400992559534e-01 -3.247216622118863638e-01 -1.277457612766148831e-01 -7.007600602218703179e-01 -1.621706809025725560e-01 -5.916278565708869008e-01 -4.910752675591871230e-01 7.412945776150180466e-01 -1.523185371849165304e-01 8.657199235230238210e-02 -5.658611862208794835e-02 1.243734525855297313e-01 -1.621706809025725560e-01 -2.014864400992559534e-01 -3.247216622118863638e-01 -1.277457612766148831e-01 -7.007600602218703179e-01 -1.621706809025725560e-01 -5.916278565708869008e-01 -4.910752675591871230e-01 7.412945776150180466e-01 -1.523185371849165304e-01 8.657199235230238210e-02 -5.658611862208794835e-02 1.243734525855297313e-01 -3.247843839326222670e-01 -1.962365587449093063e-01 -2.597385717020474494e-01 -1.976381318657022268e-01 -6.589435931152639592e-01 -3.247843839326222670e-01 -6.969066480158649934e-01 -4.155199192793636587e-01 6.324074403973222180e-01 -4.275664046220455095e-02 1.105012145972680965e-01 -1.798882048775531095e-01 5.342901192356502155e-02 -3.073524643452857363e-01 -4.678026989310877237e-01 -4.144070117062138570e-01 -5.042025914812110488e-01 -4.299879255753411567e-01 -3.073524643452857363e-01 -7.398947183256369131e-01 -4.567794722863928736e-01 6.839353639506745575e-01 1.092544029737575750e-02 -1.364593662424301301e-01 1.862251298183682235e-01 -8.324545062443895749e-02 -6.009404455700027015e-01 -6.188862234118612804e-01 -6.437244566967195158e-01 -6.365550258109790027e-01 -6.559735818067281565e-01 -6.009404455700027015e-01 -9.035193459033385999e-01 -6.711073353561245458e-01 7.750318466770392822e-01 2.120180247336940493e-01 -1.990693203050054039e-01 -5.027853954080902660e-02 -6.300616771660036419e-02
2.697039200439949602e-01 -2.341356216870487880e-02 -1.093409395381721022e-01 -2.821186991687807399e-01 -1.232135124283193772e-01 -4.937358812878545611e-01 -3.365081371841493474e-01 -1.725463144921237091e-01 -5.007426004883438475e-01 -1.527560632729848406e-02 -9.527109458427933386e-02 -4.841450228919536025e-01 3.035926387289749062e-01 1.030051675749081852e-01 4.925498664815811112e-01 -2.578457592326737213e-01 -6.929590452366144460e-01 -8.248726447985046395e-01 -8.661002902254130165e-01 -4.594556135528934937e-01 -4.283758155956004510e-01 -5.469890314286828259e-01 1.228094938398671676e-01 1.906855150742078064e-01 1.381181764401133438e-01 -3.275348703147732410e-01 2.803983317249233442e-01 -1.580941234324512445e-01 1.741533758245091268e-01 -1.855107955328375857e-01 1.818884253446919896e-01 6.399251455817882295e-02 -1.761593904334359667e-02 -1.287593275972339357e-01 1.460733781444119583e-01 -6.862765630492427549e-02 -2.835478033521774896e-02 -2.449947518952931558e-01 -2.437078617275645342e-01 1.520192414105150658e-01 9.304631993325437334e-01 -2.110594048092379049e-01 -5.776885766173058684e-02 -9.666467979820186907e-01 -9.462113152200591903e-01 -9.432471011878228451e-01 -9.674441952436353409e-01 -9.479865669495862734e-01 -9.445299593880829292e-01 8.680818460207725407e-01 -2.172679108999136521e-01 -5.294820428792167133e-02 9.383255285731491036e-01 -1.993020302577917791e-01 -6.999211445258153586e-02 -2.589528648090539953e-01 8.288717166788888147e-01 -8.994027914952286151e-01 -9.714990048568514780e-01 -9.693596032087764547e-01 -9.531207984395616561e-01 -9.492339440591744948e-01 -6.850852694422153721e-01 -9.782763759064876385e-01 -8.109444702923572779e-01 -5.091454371951248392e-01 5.643775029426681966e-01 -6.181434100235509987e-01 6.704366837865344264e-01 -3.059063696341600691e-01 3.077254870562972644e-01 -3.567829648759155980e-01 4.238293807666049795e-01 -4.670075804907354300e-01 5.002832671670208731e-01 -5.328871202558044251e-01 5.620748635830301598e-01 4.000857787672951194e-01 -5.165871525655007374e-02 1.027337293698540599e-01 5.945405787551808624e-02 -4.256534357383441819e-04 4.586777961654951198e-03 -3.086947697907471144e-01 -2.750285615454808319e-01 -6.828910264005253472e-01 -3.292882071468951621e-01 -2.666435267443358348e-01 -6.755790798423130239e-01 -4.865005652220280585e-01 -4.739091273257385328e-01 -7.620186679447044087e-01 1.406893695288477242e-01 4.000418224297053182e-01 6.565286234420210087e-01 -3.960833760934381331e-01 -7.053773099689175652e-01 -6.570125836579162604e-01 -9.326598649643574879e-01 -3.582441380742295567e-01 -4.106086296949291170e-01 -6.986029119796329789e-01 5.318967903310897194e-01 4.469850115180605266e-01 3.024747327865209834e-01 -3.040629727570716145e-01 2.080416407343941010e-01 2.384913310644218298e-02 -3.841452140233541333e-03 -2.308559441154912073e-01 1.731158008141487070e-01 1.525989822772751414e-01 2.301340093892644267e-01 -1.639858849507943028e-01 1.418298232770536238e-01 -6.738917152007550815e-02 6.025157751074819434e-02 -3.440920942474035016e-01 -1.764912791440444717e-01 1.463883342661861653e-01 -1.059752596294593757e-01 -3.889707818598695660e-02 9.522704257164366082e-02 -5.285905112840399989e-01 -5.520900106697006482e-01 -3.964836982442001001e-01 -5.455495314343864477e-01 -5.626437156328979450e-01 -3.889355959631429771e-01 -4.701610822663943590e-01 -6.597651761846112795e-01 -3.234960124594243314e-01 4.551624558453668534e-01 6.600490569122035023e-01 3.734961086259793728e-01 -3.521610993334798323e-01 -8.310716911058489975e-01 -8.841135757555146357e-01 -8.005135198529725882e-01 -5.686303675727391038e-01 -5.856536925392368254e-01 -4.378836565590228935e-01 -6.754520450776733964e-02 1.801329071916312197e-01 2.294613620553806743e-01 -3.245420187045786053e-01 2.419476486220665801e-01 9.537237616412598540e-02 -1.713502338981080786e-01 -2.523557101793653112e-01 2.338742344587511068e-01 -1.432115931351038429e-01 2.290101206395161182e-01 -2.289062757943445547e-01 2.381285201037937616e-01 -2.076624998291209112e-01 2.841709164033656698e-01 -6.967490778226974324e-02 -2.094546284250960455e-01 9.126188415675018373e-02 -4.778145603713922912e-02 -5.572292756127967400e-02 -6.802631385165203159e-02 -5.121458927691349139e-01 -7.116131936214258324e-01 -5.756049060608834367e-01 -5.231066393404635306e-01 -7.282016287717425485e-01 -6.051564581017654376e-01 -4.826968147296167300e-01 -7.334585259537781399e-01 -5.227720606171275541e-01 5.329371042923186641e-01 7.624140174230740197e-01 6.393981492708445957e-01 -6.434677450613141003e-01 -8.481884784424967849e-01 -9.454176286498358062e-01 -8.778593011608435415e-01 -5.570458299264895441e-01 -7.480669437135296640e-01 -6.584193794900455865e-01 4.509788539356719972e-01 4.062009730133773200e-01 4.735696614041001173e-01 -1.431183705154777663e-01 1.139295515401528569e-01 1.744641886319594493e-01 1.525452750209148334e-01 -2.162856745274347736e-01 2.419947432009025290e-01 3.428257899377942786e-02 7.231700849652671764e-03 -1.777737518391782900e-01 1.827328293769451273e-01 2.796154318523680002e-03 -9.330706777900783788e-02 1.951338274215135282e-01 -1.386954743806826651e-01 1.783868945370967879e-02 -2.387020211193725538e-01 -2.735490584940737935e-01 -3.877728810802489323e-01 -2.042188698892078436e-01 -7.153811863512359315e-01 -2.387020211193725538e-01 -6.384723277767394567e-01 -5.400860669045547402e-01 6.526652841398355998e-01 -1.344671990146871776e-01 7.093615068729555717e-02 -3.994740719517787808e-02 1.068173726606296975e-01 -2.387020211193725538e-01 -2.735490584940737935e-01 -3.877728810802489323e-01 -2.042188698892078436e-01 -7.153811863512359315e-01 -2.387020211193725538e-01 -6.384723277767394567e-01 -5.400860669045547402e-01 6.526652841398355998e-01 -1.344671990146871776e-01 7.093615068729555717e-02 -3.994740719517787808e-02 1.068173726606296975e-01 -3.934112790113768465e-01 -2.730094921532201235e-01 -3.328796183362474626e-01 -2.664537802848604420e-01 -6.999836952564297832e-01 -3.934112790113768465e-01 -7.352219079599782159e-01 -4.756715032229936191e-01 5.292671153841066456e-01 -1.289618756303115982e-02 8.957747115195220655e-02 -1.682077202505108116e-01 2.680071898409672193e-02 -3.615089588345103411e-01 -5.130945152981807311e-01 -4.659131615381050251e-01 -5.413684415352757462e-01 -4.611680529464612377e-01 -3.615089588345103411e-01 -7.651330928542204868e-01 -5.069137915391263016e-01 6.568019380651926031e-01 -4.794068689905996226e-04 -1.232009711936224439e-01 1.721557304445199554e-01 -7.358667970194703034e-02 -6.412062088332441956e-01 -6.560518425007287879e-01 -6.790307820381129567e-01 -6.718044267585570051e-01 -6.920728893228621503e-01 -6.412062088332441956e-01 -9.158508040297488328e-01 -7.046708144938268470e-01 6.882700337612843722e-01 2.291867935870151307e-01 -2.054758571808016077e-01 -6.237775721517550831e-02 -6.064853320924049052e-02
