2.774483060386027655e-01 -2.075363764113445642e-02 -1.085686455600171629e-01 -9.193779735846380197e-01 -8.712774123879640786e-01 -9.031485599816078125e-01 -9.281633399975369736e-01 -8.705494700386576801e-01 -9.028842706316407840e-01 -8.438948645265551551e-01 -4.968962909095288594e-01 -7.596735620702117497e-01 7.930799785685646031e-01 6.253781778415595793e-01 7.861551778196365081e-01 -8.953524945417031811e-01 -9.761175099862663407e-01 -9.845285842052188263e-01 -9.781819714655135556e-01 -9.433872107964762499e-01 -8.859729856190654562e-01 -9.170970331994000579e-01 -4.457549395770404321e-01 -4.306416673858342592e-01 -4.167969985057691784e-01 1.473959424075570734e-01 -2.457303077041353423e-02 8.718525952519738664e-02 1.263954716681063295e-01 1.447385983518948913e-02 -3.472079463069845107e-02 1.837466377287337860e-01 -3.944354903373344795e-02 1.388233965585282115e-01 -6.908471146759971593e-02 9.419146357894379873e-02 -9.677741442995242693e-02 1.357090923843136052e-02 -1.682406470872212512e-01 1.063656554947782773e-01 9.398479346371855225e-01 -1.329524010884493568e-01 -4.769347549584564833e-02 -9.847867108080002874e-01 -9.635999260422694057e-01 -9.734332317491337649e-01 -9.853350969496710299e-01 -9.646382526268009183e-01 -9.739851286653660178e-01 8.716664053155686043e-01 -1.434135740014139682e-01 -4.964871271280225928e-02 9.560121099976094383e-01 -1.136733812807485394e-01 -5.146047293605370693e-02 -3.733606624379411931e-01 8.581092567441874763e-01 -9.362477632831793795e-01 -9.592345267045174761e-01 -9.879308272073593633e-01 -9.677469804428916467e-01 -9.758951907694404238e-01 -8.893287192932828322e-01 -8.896281280053057738e-01 -8.753254299580185416e-01 3.592362331176925938e-01 -4.077750956538393479e-01 4.569809089627352439e-01 -4.732188478119667141e-01 4.447168741496191346e-01 -4.509755807011972539e-01 4.722307930134947984e-01 -4.100822728943734341e-01 4.238078560495983638e-01 -4.372849974568849274e-01 4.480002652555400422e-01 3.430909300983167598e-01 2.509554586754688676e-01 3.445739879956741247e-01 8.896949775535813176e-02 -6.340404563788736188e-03 -4.670085293822100365e-03 -9.350903528783521823e-01 -9.203690671077998653e-01 -9.417334932541148174e-01 -9.364062528099384997e-01 -9.143409191755310639e-01 -9.391488293278827948e-01 -9.427663794860245972e-01 -9.539487862932991558e-01 -9.559992036750443178e-01 9.264271497642933006e-01 9.383576322695721394e-01 9.339421917596213429e-01 -9.295057219663488413e-01 -9.876015307330167081e-01 -9.857021070006031227e-01 -9.904150279994672346e-01 -9.366756344929472178e-01 -9.193749615767711214e-01 -9.450978118546053963e-01 -5.262092473674150339e-01 -4.992501418609078256e-01 -5.212036430699457101e-01 9.605855643780468467e-02 1.789671036983362107e-01 1.775708873829406065e-01 2.625286299891260722e-01 -2.033354916852759316e-03 4.304267574707548553e-03 1.952506372551665870e-01 2.842010734094094770e-01 8.862793280237728222e-02 5.036415161925361650e-02 2.184491410462364655e-02 2.114871765637746648e-01 -4.602380870961209069e-02 -4.331668541659382948e-02 -1.623082976859278230e-03 1.731334205940886564e-02 -8.640708332067324748e-02 6.335208926745751479e-02 -9.229362640285263542e-01 -9.414668662355554218e-01 -9.062574413149793173e-01 -9.257795671361661594e-01 -9.445190962469306450e-01 -9.086997010217578996e-01 -8.005148998936643112e-01 -9.154339281530375905e-01 -7.056682520665222835e-01 8.040875975769138373e-01 8.746475870912258088e-01 7.493008265691591951e-01 -8.911771784924913398e-01 -9.759465581615253127e-01 -9.925065235987067247e-01 -9.769450550793409294e-01 -9.287803722822345343e-01 -9.502251712832280317e-01 -9.177639115857643137e-01 -1.600017479843522661e-01 -2.558187653121765104e-01 -2.670075466572499057e-01 -2.175644678077603977e-01 1.265647967756123871e-01 7.797344026221963986e-02 4.299871101605091950e-02 -1.479592901957395013e-01 1.181848937872356231e-01 -4.679024809930912993e-02 2.009877915828707229e-01 3.528339392627685700e-02 -8.701752969460829767e-02 1.045150865309798921e-01 8.915543868036504560e-02 -2.138287878508644824e-01 -8.754146954288334614e-02 -1.417805023507362483e-01 -1.035848628908004054e-01 -4.471703826167957446e-02 -5.039219062916259345e-02 -9.414634333751705775e-01 -9.582693048767957356e-01 -9.538523253980819572e-01 -9.414765655274603962e-01 -9.612017829207039066e-01 -9.555737693860589799e-01 -9.334220621504439874e-01 -9.649732583242385253e-01 -9.552944572669105350e-01 9.513717809330439756e-01 9.594822993863318938e-01 9.569365525137155659e-01 -9.551029250667719683e-01 -9.928062450927606086e-01 -9.955273606886624327e-01 -9.947088128204341073e-01 -9.422015793630955649e-01 -9.648514336115721068e-01 -9.585764196478243626e-01 -3.219742713452008465e-01 -3.122879781154812018e-01 -3.872707702302011779e-01 -7.763386756237340702e-02 1.085733790625459556e-02 8.406371225747598375e-02 1.101477597025395522e-01 -1.186166395854561378e-01 1.733365378398188106e-01 5.773954322184771115e-02 8.730942982488244797e-02 1.300265820591587074e-01 -8.163900033322224470e-02 1.331783728222429852e-01 4.047095718188141455e-02 -1.451087034520429087e-01 -3.639728244110124189e-02 -7.366982273011511706e-02 -8.938157995497932884e-01 -9.089438509282550260e-01 -9.232911552809301980e-01 -9.019658937953453082e-01 -9.576328264116422684e-01 -8.938157995497932884e-01 -9.678922506379346036e-01 -9.414022451346397702e-01 -3.393250332471325348e-01 4.407135528888350001e-02 -7.685822810076542444e-02 1.658783098286923108e-01 -1.546091219586566978e-01 -8.938157995497932884e-01 -9.089438509282550260e-01 -9.232911552809301980e-01 -9.019658937953453082e-01 -9.576328264116422684e-01 -8.938157995497932884e-01 -9.678922506379346036e-01 -9.414022451346397702e-01 -3.393250332471325348e-01 4.407135528888350001e-02 -7.685822810076542444e-02 1.658783098286923108e-01 -1.546091219586566978e-01 -9.299858374700094021e-01 -9.297800166123039167e-01 -9.344416774847845719e-01 -9.274369870175200870e-01 -9.381283776609690150e-01 -9.299858374700094021e-01 -9.860758703118706059e-01 -9.460071982319202544e-01 -5.604889388497442670e-01 1.778913264916313353e-01 -7.327920187946848629e-02 -1.073938595147979763e-01 -1.109129222993927855e-01 -8.885365090530545906e-01 -9.056313842478730392e-01 -8.938366050701042065e-01 -9.244692327375512164e-01 -9.303528679806309931e-01 -8.885365090530545906e-01 -9.726240051642005557e-01 -8.962083432696049679e-01 1.049977812072624556e-01 -5.453817124912240660e-02 -8.146741098324823682e-02 1.075201118416319462e-01 3.852584483599970355e-02 -9.544995870304842089e-01 -9.544217950758706603e-01 -9.601983588568760997e-01 -9.520924205042140542e-01 -9.409957693103071508e-01 -9.544995870304842089e-01 -9.948380767693405513e-01 -9.686629633439989284e-01 -2.994330287653748646e-01 3.015933474287368354e-01 -2.121926863628649518e-01 -1.036304958765644768e-01 -8.924636627903934083e-02
2.777655795574227593e-01 -1.803809826584933801e-02 -1.103056861063936855e-01 -9.866907263510747983e-01 -9.544688667602508891e-01 -9.683737125177246385e-01 -9.886123196627015774e-01 -9.557416706986998634e-01 -9.684035387937155459e-01 -9.251197983178939266e-01 -5.481820188607120503e-01 -8.034407823444167374e-01 8.376280192155919346e-01 6.694550368679993424e-01 8.276125269073718593e-01 -9.715130083998854138e-01 -9.984478192950321240e-01 -9.981789308361407320e-01 -9.980562308415609207e-01 -9.906945620502464189e-01 -9.656217109919754682e-01 -9.689430423108312818e-01 -5.477533466520803085e-01 -4.977081686851745346e-01 -4.871185416910369104e-01 2.039745420845267276e-01 -3.738298637749694342e-02 7.755576444077241782e-02 1.263838198149579151e-01 6.641726988233445650e-02 -6.049036765062207333e-02 1.688354410001443318e-01 4.117366916420164488e-03 1.882945517470226149e-01 -9.669019552091628888e-02 9.120877388875374414e-02 -7.623175209804564090e-02 2.944085630356278044e-02 -1.316854353645282583e-01 9.149303289978318043e-02 9.464285709853423878e-01 -1.276487332559602395e-01 -2.523367613569437937e-02 -9.939599401058170081e-01 -9.810237484564042765e-01 -9.774994872637211563e-01 -9.939313380883901816e-01 -9.813017626221024470e-01 -9.777907179935582116e-01 8.734816390404752662e-01 -1.462937510345606318e-01 -2.857555098933313789e-02 9.646509906956082236e-01 -1.048158083614384728e-01 -2.802742335650878006e-02 -4.437841231147527377e-01 8.734507872386769733e-01 -9.400563317384257322e-01 -9.728564470793140684e-01 -9.939098452387564731e-01 -9.821881995951459166e-01 -9.787919861896524631e-01 -9.806675855465998293e-01 -8.800144413392363418e-01 -8.555377853811720890e-01 3.122326851142316340e-01 -3.593744688128140408e-01 4.071571748621518050e-01 -4.396163582017800220e-01 4.076011607535744985e-01 -4.124614212409597469e-01 4.333094846027666369e-01 -4.038666059253288587e-01 4.165116512896749890e-01 -4.289853279209942527e-01 4.387943708943740084e-01 1.639278951665051887e-01 1.491392988954318988e-01 3.373278548858638093e-01 7.594806360106365339e-02 1.107662058844865668e-02 -7.397288936591021663e-04 -9.811962989564610993e-01 -9.693930222583508893e-01 -9.826119522799454664e-01 -9.818326221468582915e-01 -9.680663116473716689e-01 -9.814431913943605368e-01 -9.825196627264179972e-01 -9.767168992239994019e-01 -9.851958148165637086e-01 9.782211780013638780e-01 9.754611404752390191e-01 9.765539284318428548e-01 -9.790387557179084377e-01 -9.984119179002457489e-01 -9.980283743263130836e-01 -9.993553753895579872e-01 -9.808941624570659545e-01 -9.713490850782509067e-01 -9.801053279482733194e-01 -6.613073628433081552e-01 -6.367204653193742070e-01 -6.507264709472178055e-01 1.461033903462654326e-01 2.049420319871663732e-01 2.163684238993230924e-01 2.512778826266676702e-01 3.709322098956296249e-02 1.568264210607969722e-02 1.658658713863948586e-01 3.153743416285350598e-01 1.347928448654786837e-01 4.309630007748271874e-02 2.882627977937912006e-02 2.287654000929598697e-01 -4.238169354118922344e-02 5.253227049744130760e-03 -1.253611815262431310e-02 -2.960254233207637933e-02 -7.624719752391116712e-02 8.731331640134976091e-02 -9.611636815319173355e-01 -9.761274867729780036e-01 -9.674823698133532268e-01 -9.628768660067178464e-01 -9.777750640255981063e-01 -9.682066675348129925e-01 -8.523230081200424690e-01 -9.414944544829371154e-01 -7.328605546661497439e-01 8.178568250346454072e-01 9.000301216724502229e-01 8.086714976904517682e-01 -9.578537351289638790e-01 -9.962087504859840070e-01 -9.989531602214838379e-01 -9.968513912866083793e-01 -9.666155879097910741e-01 -9.802597359907547769e-01 -9.725665034893777872e-01 -3.031634719421021917e-01 -3.196826832798345674e-01 -2.913988863103462723e-01 -1.667195664164865532e-01 8.719232007523625150e-02 1.062779758396946855e-01 5.444246602003738333e-02 -1.409730963577517648e-01 1.043425822118116963e-01 -3.963015291094589693e-02 1.944197476256971646e-01 1.180545264151551532e-01 -1.702764600699175346e-01 1.634373257482850950e-01 7.049288685550487987e-02 -2.114198848474088677e-01 -1.279176024310007265e-01 -1.840363162484732473e-01 -9.714805673628396088e-02 -3.994193035063351577e-02 -5.456016523056540085e-02 -9.761257302094008548e-01 -9.867064650089137912e-01 -9.836754593092552623e-01 -9.771693598993546059e-01 -9.874318207489729549e-01 -9.845138185624727756e-01 -9.733707255178273288e-01 -9.878666937210128784e-01 -9.806881834260184894e-01 9.776566390023643249e-01 9.887089337434038505e-01 9.858014398464153283e-01 -9.846811950792603296e-01 -9.988203774799720991e-01 -9.996817807638256337e-01 -9.993464343373513747e-01 -9.788378237190628051e-01 -9.881235163145964950e-01 -9.858925200127822697e-01 -4.234338694145040605e-01 -4.216259666423948227e-01 -5.079407762548572292e-01 -3.863315263531270916e-02 -2.208077427813344429e-02 1.139129604770379584e-01 1.002212854119604590e-01 -1.068613588202977221e-01 1.597396196214843911e-01 6.014210485232379666e-02 8.279273533285314013e-02 2.217438745657327459e-01 -1.515935712347956932e-01 1.856930306754234206e-01 4.980895604339521249e-02 -1.144875267585888645e-01 -5.727521745728904323e-02 -8.114223475969786770e-02 -9.706740633718545785e-01 -9.691149360948169145e-01 -9.729635543880817972e-01 -9.667861765776780691e-01 -9.884787781916246630e-01 -9.706740633718545785e-01 -9.973590455554882661e-01 -9.755456512058189311e-01 -4.894167089825566253e-01 9.596069814150803845e-02 -1.151880498255363622e-01 1.820269299106342109e-01 -1.634819129044333685e-01 -9.706740633718545785e-01 -9.691149360948169145e-01 -9.729635543880817972e-01 -9.667861765776780691e-01 -9.884787781916246630e-01 -9.706740633718545785e-01 -9.973590455554882661e-01 -9.755456512058189311e-01 -4.894167089825566253e-01 9.596069814150803845e-02 -1.151880498255363622e-01 1.820269299106342109e-01 -1.634819129044333685e-01 -9.788411668288595768e-01 -9.769389831994391704e-01 -9.792337451127387515e-01 -9.745208040771046187e-01 -9.769966936134325541e-01 -9.788411668288595768e-01 -9.984447907195600491e-01 -9.830058837040810404e-01 -7.032510497151283069e-01 2.051174847629801123e-01 -1.077160030601305302e-01 -8.737069492355636902e-02 -1.179034592950322230e-01 -9.563844611270828633e-01 -9.502316610952241671e-01 -9.448617664158327489e-01 -9.606183198361789577e-01 -9.720248724780976568e-01 -9.563844611270828633e-01 -9.958719521261700791e-01 -9.492105830663569721e-01 -1.730715368827314554e-02 -4.115346681720678801e-02 -9.235867112967557913e-02 1.155092421414734283e-01 2.865655733237238573e-02 -9.842444482081883494e-01 -9.837209042576336993e-01 -9.851217212276053292e-01 -9.836363984604192812e-01 -9.823382713865341787e-01 -9.842444482081883494e-01 -9.994593201632742119e-01 -9.862986715592885201e-01 -4.465030111588212391e-01 3.174547597714673097e-01 -2.231962028720422819e-01 -8.219203220881741989e-02 -1.194466340191366327e-01
2.834234899734787150e-01 -1.776415732787566676e-02 -1.123219457786940045e-01 -9.206079034955767515e-01 -8.993393408757379692e-01 -9.237353292258594362e-01 -9.271728956207710981e-01 -9.031492774617971842e-01 -9.253579758535910305e-01 -8.478173354311896448e-01 -4.948141903968747979e-01 -7.545106802468120044e-01 7.692141573797398602e-01 6.453723893064270412e-01 8.070963227628669134e-01 -9.098980154199766135e-01 -9.700504836386153462e-01 -9.906237594281345205e-01 -9.863955326766592480e-01 -9.339627922034785534e-01 -9.274756524837700633e-01 -9.335707220426345820e-01 -4.357191058392461125e-01 -4.337302075100872290e-01 -4.358435114422798407e-01 1.325738731517976943e-01 1.846931228259345026e-02 5.439446198567451929e-02 1.264743847451698100e-01 4.832749729843903441e-02 -4.148705250766197145e-02 1.524381174611454948e-01 1.604789717086977860e-02 1.106065101591278271e-01 -3.123120399416183871e-02 2.436089082165298486e-02 -5.826560472033716354e-02 3.567207078921832281e-02 -1.350409464899187950e-01 7.176739973622174584e-02 9.432312812730795359e-01 -1.025138807406348607e-01 -1.776350439874640336e-02 -9.921151187590777631e-01 -9.800940962751302221e-01 -9.747538934517671061e-01 -9.922297633069786515e-01 -9.804977509522516677e-01 -9.750415787465421813e-01 8.713468382439849558e-01 -1.213495862194908098e-01 -2.059164165312613384e-02 9.608995535028185264e-01 -8.029569465629071701e-02 -2.116051281744970453e-02 -4.616865242044306261e-01 8.672525970864024547e-01 -9.434494732053270161e-01 -9.703598880861353804e-01 -9.924956180390147598e-01 -9.814949608262834024e-01 -9.760627641336665494e-01 -9.812743211859021875e-01 -8.357368139959190367e-01 -8.103619788753463338e-01 3.141772946854478610e-01 -3.672039496999026653e-01 4.207982582395887738e-01 -4.170481150326062481e-01 3.917160710404071766e-01 -4.047412566219587005e-01 4.337418555935491082e-01 -4.048093591299837257e-01 4.174388420558007851e-01 -4.296722666661279000e-01 4.390087292692685383e-01 1.190192100693368837e-01 1.611050798602557399e-01 2.973951809771295807e-01 5.326013472283040728e-02 1.681999762217176175e-02 1.544252151145826708e-02 -9.057309047237387389e-01 -9.089946153117866023e-01 -9.536780050407921427e-01 -9.103099165836131546e-01 -9.090832014493342994e-01 -9.557654027438474698e-01 -9.198227383449614214e-01 -9.358951844348569749e-01 -9.632913238149319879e-01 8.747094144982313635e-01 9.253388433830311843e-01 9.181364104056179976e-01 -9.231790684984929607e-01 -9.613934446681432489e-01 -9.735168355679388874e-01 -9.933532099741995136e-01 -9.164568917063855569e-01 -9.259346096519953662e-01 -9.572295231903507062e-01 -5.291985325562712505e-01 -5.260595037139917940e-01 -5.594816056224050094e-01 8.167015804865675188e-02 2.189142411054683379e-01 2.072330058675977971e-01 2.296238526345565356e-01 1.432846137091039161e-02 3.262610916084981993e-02 1.492281224964244479e-01 3.134129794078209796e-01 6.750071312796605827e-02 8.725707188324466346e-02 -1.059152697760906182e-02 1.809443292896153466e-01 -2.015723070910021078e-02 -2.459897432782781265e-02 -4.881068185156887257e-02 -2.478941294709949283e-02 -6.567174648473625420e-02 9.111007757782166316e-02 -9.218856603693218466e-01 -9.145474883332070926e-01 -9.041818716961005364e-01 -9.243349648026554233e-01 -9.106923004567132329e-01 -9.118784749169352999e-01 -8.092333241760115703e-01 -9.073895782166929713e-01 -6.767234279733062019e-01 7.972891283321971168e-01 8.737303958195372644e-01 7.733156023666875045e-01 -8.932238007087547338e-01 -9.867353331362725966e-01 -9.750075936661912746e-01 -9.732869685971685669e-01 -9.285263697758349144e-01 -9.012445873734624691e-01 -9.369034552361159562e-01 -2.583155261082246690e-01 -2.513807020314834384e-01 -2.637636117478366349e-01 -2.014752582693848104e-01 1.105261306407472610e-01 8.854338361468898355e-02 5.469478643293190778e-02 -1.726507441056487069e-01 1.343606049477638897e-01 -8.625078988414988657e-02 2.416912154516464850e-01 7.410031687108692422e-02 -1.258401684005023557e-01 1.203085892353915193e-01 1.140370994094842411e-01 -1.577973882872146516e-01 -1.096827705414344656e-01 -1.333973053768977568e-01 -7.636649769261655285e-02 -2.789752307500621351e-02 -4.801401669560153435e-02 -9.332821112600546698e-01 -9.551727198414704523e-01 -9.392458206995831782e-01 -9.315288865463594581e-01 -9.581924705165664191e-01 -9.399854735996795441e-01 -9.387875154633747998e-01 -9.625775351395384760e-01 -9.332132658483830445e-01 9.473570202166216037e-01 9.643037202937992936e-01 9.572125964870135117e-01 -9.473177865170347989e-01 -9.865465736993180856e-01 -9.932127368907197607e-01 -9.864586425152207516e-01 -9.303854523833153811e-01 -9.640761816090216429e-01 -9.437129930774742492e-01 -3.212755402303338892e-01 -3.149079723592528857e-01 -3.907647937667829141e-01 -6.722501092441640624e-02 -8.887501558568934937e-03 9.368466414607318216e-02 1.005050200869950922e-01 -1.415164952063503734e-01 1.701861749138723068e-01 3.367899220792845011e-02 4.291753082876263725e-02 1.643270013271646013e-01 -1.187795959625416592e-01 1.446974248542821639e-01 2.722033788580338620e-02 -9.435221136649597773e-02 -4.639828745252454201e-02 -6.840700273913266627e-02 -9.055133266449806317e-01 -9.104794561510591855e-01 -9.209417217850272008e-01 -9.070701708651364159e-01 -9.728722252235001422e-01 -9.055133266449806317e-01 -9.688149639799508162e-01 -9.331266792286704304e-01 -3.505275168180176371e-01 6.805111641008039502e-02 -9.542914112943763627e-02 1.629044516298873424e-01 -1.416606204245018374e-01 -9.055133266449806317e-01 -9.104794561510591855e-01 -9.209417217850272008e-01 -9.070701708651364159e-01 -9.728722252235001422e-01 -9.055133266449806317e-01 -9.688149639799508162e-01 -9.331266792286704304e-01 -3.505275168180176371e-01 6.805111641008039502e-02 -9.542914112943763627e-02 1.629044516298873424e-01 -1.416606204245018374e-01 -9.199945669555119609e-01 -9.027864404516693364e-01 -9.121659327058452282e-01 -8.961120432851621409e-01 -9.428784120276889613e-01 -9.199945669555119609e-01 -9.708604510951597266e-01 -9.256131863236730650e-01 -5.807124282395187409e-01 1.668209777774909419e-01 -1.065460365974744555e-01 -5.565561423514600592e-02 -9.610245649434723259e-02 -8.916495651081454143e-01 -9.045514861025993891e-01 -8.906805895911688031e-01 -9.210793935104555352e-01 -9.005693717582072821e-01 -8.916495651081454143e-01 -9.704938549509686263e-01 -8.905084781581164011e-01 8.186023440622794412e-02 -6.930044344542798940e-02 -5.809373376268239103e-02 6.378430795239480033e-02 8.131035431165532790e-02 -9.470839693410130211e-01 -9.522740200721796500e-01 -9.543960571834767537e-01 -9.586409276910715649e-01 -9.403668999653591598e-01 -9.470839693410130211e-01 -9.908888062094342031e-01 -9.571338449283374183e-01 -3.129802379512230948e-01 2.927655625156361241e-01 -2.187164660531085436e-01 -6.274655222675604160e-02 -1.162476383596665330e-01
2.781086826521187993e-01 -1.811525991147716272e-02 -1.091355779096890161e-01 -9.813944106367281650e-01 -9.462163372042665666e-01 -9.599204771180454010e-01 -9.842620209130790165e-01 -9.485933774473433999e-01 -9.600577446758444822e-01 -9.170994697737711032e-01 -5.408197641839316283e-01 -7.961634120612720578e-01 8.312634497932506195e-01 6.649788036818052861e-01 8.249860311341495889e-01 -9.647299686133835595e-01 -9.971086177312172838e-01 -9.973063411298678238e-01 -9.968375213196902784e-01 -9.874405108477845028e-01 -9.608748074038276910e-01 -9.608442023032389701e-01 -4.874873410581776478e-01 -4.732884817699340996e-01 -4.501444413434084191e-01 1.488464993961320371e-01 6.497005168199797981e-03 6.623360195106747783e-02 8.735070822022428239e-02 8.723225294069839042e-02 -8.187668892142356547e-02 1.758487849800841607e-01 4.079381397338231741e-02 1.456400422453002219e-01 -7.285968713640186833e-02 6.514299466935515037e-02 -8.093626149716633134e-02 1.693256146520699668e-02 -1.670336765596027728e-01 8.377922327211359543e-02 8.030648367482005057e-01 1.031431899115900627e-03 1.582199801650485682e-02 -9.924832342408570485e-01 -9.793880331105482284e-01 -9.735305330962026327e-01 -9.924632579804969490e-01 -9.798147846120115467e-01 -9.738439751776921671e-01 7.313087197404151141e-01 -2.016249244250326381e-02 1.302323345415081976e-02 8.239227752283225792e-01 2.175160610353753937e-02 1.221146482728245608e-02 -4.335478232582830049e-01 6.766022167955443312e-01 -7.706572264531251770e-01 -9.487546465452482147e-01 -9.923789368376543241e-01 -9.809283035363504100e-01 -9.749997062027906392e-01 -9.503840110325753043e-01 -8.459140321705450605e-01 -8.048463118250619441e-01 3.540189302398354942e-01 -3.998790487174982977e-01 4.463637597957422209e-01 -4.511239169342852184e-01 4.231514117007090237e-01 -4.314814271229660547e-01 4.553845746481655077e-01 -4.473247345548377329e-01 4.576014789872548949e-01 -4.676240714815730337e-01 4.748365105598415514e-01 2.170269822443916807e-01 6.347129705922607834e-02 1.777272597565133228e-01 7.661953079681084466e-02 1.213500298532815304e-02 1.365052561909501359e-04 -9.751586791903620322e-01 -9.647636732806190718e-01 -9.805680693913336743e-01 -9.765416886339958191e-01 -9.647669967826996151e-01 -9.795830159734082443e-01 -9.758700388630184852e-01 -9.708235638140310098e-01 -9.833491054531332543e-01 9.698457590225553204e-01 9.703294498563519443e-01 9.745169851668958882e-01 -9.752053535652108751e-01 -9.969965401003245686e-01 -9.969248903230868430e-01 -9.990834409920114068e-01 -9.760797467764501523e-01 -9.690381811492057018e-01 -9.784233590964369620e-01 -6.153996615776243795e-01 -6.170141714092648444e-01 -6.446389958417582111e-01 1.144260356245958704e-01 2.309357339597374326e-01 2.264512593400874740e-01 2.468353069461233507e-01 4.386519041315834616e-02 -9.390740255456553331e-03 1.446265573090823320e-01 3.303766694936169368e-01 1.120154984781986246e-01 4.892219082066780189e-02 2.038910617348398124e-02 1.852365720956215267e-01 -3.472079458189313711e-02 6.444867716019190944e-03 -1.073090858730048336e-02 -3.473150324761214297e-02 -7.433728988359199208e-02 7.706651803951770907e-02 -9.551110396441994110e-01 -9.685172072637481255e-01 -9.588266999676527957e-01 -9.570072388998676072e-01 -9.708477740328126382e-01 -9.596737695382285827e-01 -8.478472600676829618e-01 -9.350790352299106489e-01 -7.297673357584569809e-01 8.116985127142911649e-01 8.952845886233714578e-01 7.985705243958309829e-01 -9.460463338931088817e-01 -9.945493122123345575e-01 -9.980995872825272341e-01 -9.946501194978665250e-01 -9.610079500474442149e-01 -9.743913352971492747e-01 -9.647851792278675509e-01 -3.444245824249888011e-01 -2.547855871620344770e-01 -3.646166685393731899e-01 -1.632758707044918434e-01 7.141403901354441419e-02 1.332803823240807650e-01 2.064390256398971127e-02 -1.537843176315931981e-01 1.193235256459247995e-01 -1.754668426504910062e-02 1.526949294919920097e-01 7.202584207409676309e-02 -1.217117116503005081e-01 1.247287050636797234e-01 7.263635034576018668e-02 -1.521408053197225996e-01 -4.786689638166657934e-02 -1.307298568263923211e-01 -9.718336086777326632e-02 -4.141430872217365111e-02 -5.481204509968145427e-02 -9.722357495439591935e-01 -9.820099256642106367e-01 -9.798728683217645674e-01 -9.748430500133521415e-01 -9.833636535537654266e-01 -9.813087946009197982e-01 -9.697672237316187216e-01 -9.837340229353331855e-01 -9.755188241499039847e-01 9.686430983897844627e-01 9.845986283401787498e-01 9.823113874075317664e-01 -9.812634061688899623e-01 -9.981441418796074272e-01 -9.994057745980822194e-01 -9.989805149139399099e-01 -9.775524919354436904e-01 -9.848765038244362557e-01 -9.835598580020722403e-01 -4.091408012358674906e-01 -3.486551728274166484e-01 -4.646440760774099843e-01 -2.792905728692248249e-02 -3.711182268797518641e-02 1.296501437415430169e-01 1.074137495835583989e-01 -1.105875990444099566e-01 1.744705020528573569e-01 8.013443749344587030e-02 1.114689020125551044e-01 1.745127896623287767e-01 -1.021985634892013245e-01 1.636491074872098161e-01 3.427729656824193144e-02 -2.116907799114262773e-02 -2.299463335724544893e-02 -7.217411022561920353e-02 -9.637466384497551664e-01 -9.604171421135546671e-01 -9.661431590577732598e-01 -9.581763688641159460e-01 -9.854477091440440040e-01 -9.637466384497551664e-01 -9.955554131520061301e-01 -9.711381500615134943e-01 -4.461252947399345081e-01 7.420177968594732221e-02 -9.073157668270435960e-02 1.516438450087861378e-01 -1.505775230443657797e-01 -9.637466384497551664e-01 -9.604171421135546671e-01 -9.661431590577732598e-01 -9.581763688641159460e-01 -9.854477091440440040e-01 -9.637466384497551664e-01 -9.955554131520061301e-01 -9.711381500615134943e-01 -4.461252947399345081e-01 7.420177968594732221e-02 -9.073157668270435960e-02 1.516438450087861378e-01 -1.505775230443657797e-01 -9.751030459885573487e-01 -9.706855091331131336e-01 -9.743576349809062176e-01 -9.683650726966246403e-01 -9.757212358170207489e-01 -9.751030459885573487e-01 -9.973306438469167201e-01 -9.807081109311363010e-01 -6.843755414391888836e-01 2.281249956739759277e-01 -1.385144058594191263e-01 -1.018127079612530378e-01 -9.015117483780690777e-02 -9.447224668925561231e-01 -9.389802541301947025e-01 -9.323080204289052597e-01 -9.504775463898521570e-01 -9.646235923753730956e-01 -9.447224668925561231e-01 -9.936620482467355409e-01 -9.370811235795392102e-01 4.595961336069362413e-02 -7.669302652128996006e-03 -9.021634676695786115e-02 7.597960805004148888e-02 2.862330952657014121e-02 -9.806069401646253514e-01 -9.778618616179313161e-01 -9.803357422670488930e-01 -9.772915658460825661e-01 -9.814609362554610472e-01 -9.806069401646253514e-01 -9.990870043399950884e-01 -9.828202736316470345e-01 -3.703313118942151427e-01 3.598279277993637892e-01 -2.161642372396313239e-01 -1.404847365034632700e-01 -1.194750204932785720e-01
2.494641196869725741e-01 -2.059348148550286042e-02 -1.083378090556695872e-01 -8.492930604865984723e-01 -7.968563223093136916e-01 -8.545740699233174142e-01 -8.614781044415150690e-01 -8.018952640889372985e-01 -8.535631320769802022e-01 -7.735467474572768065e-01 -4.751436848941976154e-01 -7.022004052188489664e-01 7.089593741185586939e-01 5.831797917846689439e-01 7.860803827586706483e-01 -8.228563979166606535e-01 -9.355288973865278912e-01 -9.688430238620419077e-01 -9.642179932968001355e-01 -8.880301132240303597e-01 -8.466351663121802762e-01 -8.512519245439423843e-01 -3.761725295711788042e-01 -3.177665741722253689e-01 -3.220731169403501237e-01 4.532516662471985924e-02 5.459548364314628643e-02 3.180397725786255486e-02 1.270027064701722830e-01 2.728374233073258340e-02 -5.902458087191983505e-02 1.934151999141354994e-01 3.305190054191096873e-03 2.053078462129068540e-02 -1.098396121410210799e-02 2.189235396122719488e-02 -4.140026775952396210e-02 -9.849020712411384049e-02 -1.657457335981672442e-01 1.011365882154954127e-01 9.186130069537814524e-01 -1.177708395467558927e-01 1.866928589553769335e-02 -9.792081395333220861e-01 -9.547889515483767298e-01 -9.494491293767162166e-01 -9.793950991338377099e-01 -9.568663106356679604e-01 -9.517656475362482604e-01 8.508220288110909246e-01 -1.240633699599004436e-01 2.403699883295574644e-02 9.324608266513179089e-01 -9.932630403280708065e-02 1.006160398487227978e-02 -3.745448471818598746e-01 8.235400656543031550e-01 -9.072813103243799748e-01 -9.539992227701424854e-01 -9.783062391610958253e-01 -9.642430825515808657e-01 -9.584939066934917706e-01 -8.298357775105877909e-01 -8.278534419248880782e-01 -6.144670029009551282e-01 3.869418742225551044e-01 -4.353501226512255240e-01 4.843606084978540061e-01 -4.959670651621237436e-01 4.754445154212997848e-01 -4.886266153631335651e-01 5.160629321187140128e-01 -5.574017256408225762e-01 5.683932258113498781e-01 -5.791006588893696794e-01 5.867716764232511206e-01 2.075324515190297980e-01 1.850055617633670213e-01 3.856256222387718369e-01 6.126142348817537747e-02 4.551730783080130266e-02 2.181684488373401148e-02 -8.803931784416364481e-01 -8.594755076803239913e-01 -9.484482776862362963e-01 -8.727630441296668762e-01 -8.538879719509089306e-01 -9.443105309221645483e-01 -8.996765071944318182e-01 -9.027882967441094308e-01 -9.612736379691884103e-01 8.752790098617123649e-01 8.738896083881565469e-01 9.490770659990711566e-01 -8.874225057060683985e-01 -9.652321540947008671e-01 -9.588564469721105876e-01 -9.950036360664487045e-01 -8.497715678783185345e-01 -8.730712183535270787e-01 -9.430976308305003553e-01 -4.191967830081875790e-01 -3.875776400768577989e-01 -4.821061671188307529e-01 1.138460861880621032e-02 1.978798852374477613e-01 1.693313040753248178e-01 1.944171038858918121e-01 -9.192428003707592277e-03 -2.232190388858859564e-02 1.391916784876355562e-01 3.341544675516068263e-01 -1.295821664382744301e-03 3.945342035251756668e-02 -5.787264015624618563e-02 1.526650299703170843e-01 -1.316824935596883905e-01 -3.668320880265255740e-03 -1.550631723112625218e-02 -7.752459289180270441e-02 -2.912374798415469021e-02 6.642624803535736311e-02 -8.980503795223828689e-01 -8.611024624065550803e-01 -9.192100959871249977e-01 -9.024716359275474220e-01 -8.597690460523270684e-01 -9.209581894828512416e-01 -8.017767601408372080e-01 -8.766039669933648470e-01 -7.066487981790480211e-01 7.558150783860865252e-01 8.575037082728307336e-01 7.649041641472630326e-01 -8.446168956586462828e-01 -9.772930841212343900e-01 -9.569483351700559526e-01 -9.879488024366044341e-01 -9.114167257531051725e-01 -8.616836586865636027e-01 -9.274222941732734871e-01 -3.334968609612238288e-01 -1.567732700571221882e-01 -2.705348218105506630e-01 -2.370136532344203628e-01 1.311871193139373115e-01 1.200456283571770116e-01 -1.391528574544218487e-02 -2.237662393603136179e-01 1.566389194528780282e-01 -5.854216183082779773e-02 1.919477646098289025e-01 -1.496327507698330325e-02 -5.074867973488720457e-02 1.229274421109485260e-01 5.212246790243616618e-02 -1.557053851732159155e-01 -4.098158494529095808e-02 -1.143100753770825567e-01 -7.259337381352498619e-02 -6.565082458265544818e-02 -5.706891380964217858e-02 -9.140378929182437773e-01 -9.517946688117363552e-01 -9.460157854335703442e-01 -9.193846635505885656e-01 -9.527179808165523456e-01 -9.464484334947645960e-01 -9.100904824418357686e-01 -9.569510128076823552e-01 -9.468115081400215738e-01 9.144611402405942169e-01 9.632416501185780966e-01 9.613047767240059382e-01 -9.426896157583180003e-01 -9.869547440272348204e-01 -9.960139987167619946e-01 -9.949474150012012075e-01 -9.329412805798433794e-01 -9.508925376514291150e-01 -9.454290345530551587e-01 -2.035425001159701097e-01 -1.969402610376081719e-01 -2.891257211869033283e-01 -9.130925916998977598e-02 1.334254500342367143e-03 1.125646694413973692e-01 1.341621428106551384e-01 -1.790276658054194003e-01 1.582170971764420564e-01 4.765524716912781372e-02 2.890000432410620018e-02 7.183538472822076359e-02 -6.288570716739028121e-02 1.308747515118075244e-01 7.837940729035217102e-02 1.238004299244098612e-02 -4.130150254717546848e-02 -8.506160617731473028e-02 -8.214195044658896272e-01 -8.321277582019809271e-01 -8.472268888481597759e-01 -8.266596606110463430e-01 -9.549844168536723021e-01 -8.214195044658896272e-01 -9.251465677572292545e-01 -8.571932180029693260e-01 -1.814223406708215525e-01 -1.364095836446376116e-02 -3.995459245241858581e-02 8.744829891622381279e-02 -2.573163919769620028e-02 -8.214195044658896272e-01 -8.321277582019809271e-01 -8.472268888481597759e-01 -8.266596606110463430e-01 -9.549844168536723021e-01 -8.214195044658896272e-01 -9.251465677572292545e-01 -8.571932180029693260e-01 -1.814223406708215525e-01 -1.364095836446376116e-02 -3.995459245241858581e-02 8.744829891622381279e-02 -2.573163919769620028e-02 -8.876000182030789887e-01 -8.850707832371140782e-01 -8.958997649518062323e-01 -8.877893729547972068e-01 -9.099053061801701814e-01 -8.876000182030789887e-01 -9.698447197133340802e-01 -9.146036390193433840e-01 -4.572984372748074011e-01 1.726250556792393309e-01 -6.582993236337525422e-02 -9.856582908902820905e-02 -1.183337774217965987e-01 -8.403405552601990181e-01 -8.540684758072987215e-01 -8.345504748779315474e-01 -8.854519931200115490e-01 -8.861257127958696023e-01 -8.403405552601990181e-01 -9.570822775567624507e-01 -8.288780906097443779e-01 2.286913819384895630e-01 -1.243558188100676865e-01 -1.356119864641233859e-02 8.192174167628972492e-02 2.581687048154362313e-02 -9.411816016106490101e-01 -9.457937776635686467e-01 -9.499730488276898477e-01 -9.469063658817384876e-01 -9.449007477318510650e-01 -9.411816016106490101e-01 -9.939770601296360475e-01 -9.507810253639457088e-01 -1.692485854848778670e-01 2.611096236112354085e-01 -1.846540358593465325e-01 -7.807109558819355644e-02 -1.162084458155658862e-01
2.754505623125744207e-01 -1.316638464392229195e-02 -9.973138137840963091e-02 -8.403985485223103291e-01 -7.002424740767486666e-01 -8.330217503183787731e-01 -8.593016621504604435e-01 -7.031422244345085781e-01 -8.333018924450844578e-01 -7.464075969319647896e-01 -3.827535565929583439e-01 -6.983302471017590607e-01 6.189113157852785818e-01 5.163697123595620830e-01 7.246434775168929532e-01 -7.889129312426347296e-01 -9.499608090565777596e-01 -9.451176576789487305e-01 -9.655175922731185079e-01 -8.845657901359126329e-01 -7.780528000535152922e-01 -8.362613997691243917e-01 -2.693421626866595031e-01 -2.165810152237443165e-01 -2.096842597028880095e-01 2.059293875837131527e-02 9.577795314456426234e-02 -3.408002503190405395e-03 1.116503329093041924e-01 -5.810448815445543036e-02 3.998808257032931274e-02 1.252145345875014248e-01 -7.161585760829047918e-05 7.033861207255451276e-02 -8.467178080052208469e-03 3.126196267234329206e-03 -3.890387010521991623e-02 -7.476910644592114907e-02 -2.625521266184960845e-01 1.766390653106535424e-01 9.085313751730836884e-01 -9.028464431868613027e-02 2.867248780534092586e-02 -9.828780105572657577e-01 -9.609848182811032702e-01 -9.531639844251577065e-01 -9.831342201241034529e-01 -9.614443579965801234e-01 -9.539748663012559415e-01 8.400716294244191529e-01 -1.050383188472333584e-01 3.079753723007078170e-02 9.241874181809149880e-01 -7.505552853359152843e-02 2.023096928427575714e-02 -4.290411435459023926e-01 8.164536242672518762e-01 -9.112586272312546143e-01 -9.471167364874184535e-01 -9.821470409365404830e-01 -9.635625419145651405e-01 -9.575644294389554778e-01 -9.631079166876310715e-01 -8.110846220534908557e-01 -5.829506604126918345e-01 3.644927160985759196e-01 -4.175055232952840645e-01 4.706183424977679053e-01 -4.413184154643550183e-01 4.264368564298139930e-01 -4.491752096021986440e-01 4.873317786807671581e-01 -4.550411298935108650e-01 4.669805792745355677e-01 -4.783748151128881521e-01 4.866353582229057118e-01 -1.045552342094302201e-01 -1.299343723014252938e-01 4.379778669599149188e-01 8.827496129585478413e-02 5.021027832996870915e-02 1.410164462857260020e-02 -8.000020956778413073e-01 -7.473320236186655752e-01 -8.743474369658270628e-01 -8.013212761636023806e-01 -7.406943026808108232e-01 -8.725161043366480573e-01 -8.289129415720476457e-01 -8.549304837129597656e-01 -8.932754539032046193e-01 7.816207853625601887e-01 7.734750653134569998e-01 8.830467545188560585e-01 -7.995817636994525524e-01 -9.233142135960858976e-01 -8.849188884831346025e-01 -9.707833247317269043e-01 -8.031012048561673167e-01 -7.969720606149740538e-01 -8.808683179164538135e-01 -3.018606308218296785e-01 -2.917098004311480808e-01 -3.733008389350196965e-01 -6.612699302618626866e-03 2.439452543302134402e-01 1.728461841658994469e-01 1.796762322888921237e-01 -9.745679565115580867e-02 5.735628668849202666e-02 1.539311452242251577e-01 2.695525910471572306e-01 3.714049530227667151e-02 9.356694199002642265e-02 -3.848939474787373138e-02 1.815928293177339059e-01 -1.561006066908806056e-01 -1.291370057730004128e-01 6.945194154754884275e-02 -4.806233425643500340e-02 -7.719694871504599598e-02 8.093650189601506173e-02 -8.259626380418265690e-01 -8.025725969432740969e-01 -8.044476547992561732e-01 -8.284424079157011178e-01 -8.336496910991453291e-01 -8.102403086023621803e-01 -7.427863556364705522e-01 -7.525829355738800075e-01 -5.420265977657936496e-01 6.968570108819790443e-01 7.456143459396105122e-01 6.861767321378878792e-01 -7.722697871453310103e-01 -9.594192776759754571e-01 -9.357719942601923080e-01 -9.432954611512673893e-01 -8.316940926676672508e-01 -8.681044547185678972e-01 -8.297837965894825363e-01 -1.906417795330994369e-01 -1.076068659815864331e-01 -1.612418029358441696e-01 -2.355527606144907915e-01 1.609384256426195925e-01 5.992375465408260327e-02 5.805149915142927136e-02 -2.001137625139436382e-01 1.759323577087945623e-01 -6.345952082046808773e-02 2.002218964927758582e-01 7.071227694484020880e-03 -1.679806427985352027e-02 8.918959853408223171e-02 7.054003780762208020e-02 -1.553240064598229997e-01 2.561280373164955687e-02 -2.162810417360168935e-01 -7.233133584484666145e-02 -5.318768847582244080e-02 -4.628566160145648756e-02 -7.952922887123924367e-01 -8.236582868488921960e-01 -7.792510827846218513e-01 -7.997989144500980974e-01 -8.378172595175896742e-01 -7.937036837795816702e-01 -7.787151663800028212e-01 -8.010879445794282239e-01 -7.543349578130361666e-01 8.081114203953916331e-01 8.532354551984376867e-01 7.989107304530391751e-01 -8.174693939889158267e-01 -9.256750630260193180e-01 -9.383867679106649984e-01 -9.015222782306768767e-01 -8.215183390395026652e-01 -8.530338230800640353e-01 -7.977649941533382361e-01 -1.014761797516323394e-01 -8.101681223544128507e-02 -1.769348418446589077e-01 -1.148267253518925335e-01 4.839213419439868796e-02 6.543731408711046804e-02 1.548807307873436290e-01 -1.812754488911192952e-01 1.951268066906978460e-01 6.665079511249938360e-02 5.608250270002278909e-02 7.517769750022566810e-02 -4.848104544600981280e-03 1.728155060305409108e-01 4.320073453811110187e-02 -1.054978425728101549e-02 4.288086321014764057e-02 -1.878244105607304593e-01 -7.852317965937081201e-01 -8.078159006057002989e-01 -8.344671422020498719e-01 -7.780481664207655745e-01 -8.624890642019271692e-01 -7.852317965937081201e-01 -9.234262648485008773e-01 -8.595203139102089995e-01 -6.182084153543499633e-02 2.040303466204171877e-03 -7.794848769879778039e-03 2.143385336150039830e-02 -5.442155065751599907e-02 -7.852317965937081201e-01 -8.078159006057002989e-01 -8.344671422020498719e-01 -7.780481664207655745e-01 -8.624890642019271692e-01 -7.852317965937081201e-01 -9.234262648485008773e-01 -8.595203139102089995e-01 -6.182084153543499633e-02 2.040303466204171877e-03 -7.794848769879778039e-03 2.143385336150039830e-02 -5.442155065751599907e-02 -8.013683109761443601e-01 -7.839154426590849711e-01 -7.906785702370155988e-01 -7.946319947603144307e-01 -8.277311959111647299e-01 -8.013683109761443601e-01 -9.197249402198893753e-01 -8.107211437451966596e-01 -3.084960461794018505e-01 1.759055188565286088e-01 -8.610008139359928703e-02 -1.015061766433491830e-01 -9.030946287533583861e-02 -7.741549347572790341e-01 -7.584230100418162257e-01 -7.531449907454386139e-01 -7.602850113377176422e-01 -8.626458096965219369e-01 -7.741549347572790341e-01 -9.220364866909281920e-01 -7.919357807662037452e-01 3.177063458613070268e-01 -4.838172788596801534e-03 -8.444202152856855603e-02 7.598596735929211143e-02 1.166872423188717971e-02 -8.159114041441904996e-01 -8.095427167619002606e-01 -8.326531114298945102e-01 -7.894322247572949092e-01 -7.569473336267792396e-01 -8.159114041441904996e-01 -9.305136457870840649e-01 -8.616735227024523436e-01 -2.615633205283671159e-02 3.436818146307673016e-01 -2.403661545481357298e-01 -1.373524262369351379e-01 -6.234615058913118429e-02
3.102081455738176508e-01 -3.070486498835288056e-02 -1.086579822168851489e-01 -7.137768183106523168e-01 -6.394057450619706762e-01 -7.408193815281221006e-01 -7.430425387423880146e-01 -6.601280722963459580e-01 -7.411722970704364144e-01 -5.543428987230951677e-01 -3.969089971848119291e-01 -6.439726304465229756e-01 5.823472986884060676e-01 3.836408261126175723e-01 6.860768800228553843e-01 -6.925082076757517191e-01 -8.679853294187829249e-01 -9.363092303488730339e-01 -9.266707362715655982e-01 -8.133035695177462943e-01 -7.267968388120791268e-01 -7.479726947197798959e-01 -1.936053865141742769e-01 -1.604003325526352497e-01 -2.016818068861667979e-01 -3.279016378817110888e-02 1.207148872967986758e-01 -2.805532319738130234e-02 1.006384232091411535e-01 -3.325660626493232540e-03 -1.547366947733038768e-02 1.956483786796872348e-01 -1.381113580490022849e-02 3.765984952975225813e-02 2.485518061233051110e-04 2.981646600269496211e-02 -1.249335485701747600e-01 -1.292733898077867705e-01 -3.023783393603016734e-01 1.404904648639844489e-01 8.798093171010989977e-01 -9.412666496762736590e-02 9.157273086463590256e-03 -9.603712676720002062e-01 -9.384624125862369715e-01 -9.316238846315011424e-01 -9.600907321629579272e-01 -9.379481453388692769e-01 -9.340553437236684964e-01 8.196009158094674785e-01 -1.034014397736372770e-01 1.615282197510170548e-02 8.894098764715526739e-01 -8.420179544199921096e-02 -5.945917770832292309e-03 -3.449565542956469222e-01 7.673237031173517630e-01 -8.800037652179394376e-01 -9.289405212720452942e-01 -9.582011384853862390e-01 -9.381514687034298028e-01 -9.390934509722727030e-01 -7.682387323445757366e-01 -7.955082090306216935e-01 -6.911582531102818949e-01 4.495193668522012298e-01 -4.931594078783307911e-01 5.372991918568316150e-01 -4.267451717063417416e-01 4.064144860017002148e-01 -4.244978821153873039e-01 4.586244263285277900e-01 -5.589619776494633152e-01 5.712251663535816704e-01 -5.831528524667789481e-01 5.919783229505873878e-01 -9.828703252993097050e-02 -1.366417363040843269e-01 2.729318438996494178e-01 1.383564487821548894e-01 6.194790471271107574e-02 -3.865817918489056204e-02 -6.922675896259082862e-01 -6.743906270946380399e-01 -8.209533800780514090e-01 -6.879689766101914072e-01 -6.911271717708165063e-01 -8.024489392948067623e-01 -7.192660192798243646e-01 -7.134689950679830028e-01 -8.741723218546640917e-01 7.488497399293280177e-01 6.850364825351752396e-01 8.475181314646091923e-01 -7.125611041511507038e-01 -8.519352121869024907e-01 -8.451872361668852918e-01 -9.508631012805830451e-01 -6.741249990059149377e-01 -7.495640317923456530e-01 -7.905204699594301498e-01 -1.709809819015668808e-01 -1.905536488264484574e-01 -2.318593829448121202e-01 -3.620499892674804154e-02 2.121026566994498319e-01 2.226863745185893306e-01 5.753007753915550387e-02 -5.038936456799916752e-02 1.478164076657806879e-02 1.547634918510581437e-01 3.536379846814715622e-01 3.951842141032028966e-02 7.462298181769012884e-02 2.869122007646080982e-02 1.020306819088649536e-01 -1.398302998814930642e-01 -2.041838994471974755e-01 3.057795281618783806e-02 -6.149155330881998088e-02 -8.109201567060260463e-02 6.967971573512658778e-02 -7.553583459102605202e-01 -7.232536932386166573e-01 -7.013170801889341277e-01 -7.573965096701205102e-01 -7.396676835603188671e-01 -7.152075752212639914e-01 -7.182559164219787240e-01 -7.548200516632175283e-01 -5.785782876141873921e-01 6.264542539463481274e-01 7.400225761571278538e-01 5.368230726298395261e-01 -6.632910425087225059e-01 -9.301531558885418605e-01 -8.950708236866290468e-01 -8.861847488943512818e-01 -7.475866690870057729e-01 -7.606957954726843996e-01 -7.631671710961869248e-01 -1.426434971490004588e-01 -9.286130622485863628e-02 -8.221642084868764633e-02 -2.485154369851238498e-01 1.475255492645803634e-01 1.029767563573154576e-01 -1.309913523039995566e-02 -1.408502281701096148e-01 1.299190510510751795e-01 -4.499110650219789731e-02 1.713616188792874140e-01 -1.135633712665174433e-01 7.834993065535464374e-02 -2.410515272586918889e-02 1.472217950528865171e-01 -1.825987712151973807e-01 -2.518366873036338022e-02 -1.724414415543421286e-01 -9.795143051329331663e-02 -7.596779967824596191e-02 -3.634557862876711121e-02 -7.944399573993446984e-01 -7.478091832767228553e-01 -7.650828376500300454e-01 -8.022416576225356311e-01 -7.439553695891879537e-01 -7.671329913556299562e-01 -8.321904644231975512e-01 -8.167677731477605008e-01 -7.946345639306474640e-01 7.680433634440581026e-01 8.314590531044617761e-01 8.094269403675473651e-01 -7.649706842536198037e-01 -9.441234884524311033e-01 -8.985279577909793813e-01 -9.156197307266413787e-01 -8.223426387499418455e-01 -7.288644157013299818e-01 -7.668634181026858787e-01 2.424609822676952048e-02 7.817510615313683076e-02 -3.878357246345560255e-02 -1.110925936762643673e-01 4.544969008922228326e-02 4.752514067485825305e-02 2.479258186935556774e-01 -1.128294175545814099e-01 2.186457345232443450e-01 4.548824334830203764e-02 1.450668414562137909e-01 -5.639431298210752230e-02 7.841729558988133619e-02 3.293777853917904258e-02 5.217926822634960660e-02 9.851002383671829399e-02 -7.963003906185188441e-02 -1.157254787262698287e-01 -6.846077654790964084e-01 -6.519513143547213119e-01 -6.942871039472138239e-01 -6.711205350393125713e-01 -8.857297547532515525e-01 -6.846077654790964084e-01 -8.467369328699264619e-01 -7.247707268737635378e-01 8.661269846874486422e-02 -6.782100077779136538e-02 1.376154978243925193e-02 6.796245692279506700e-02 -4.705949770863407378e-02 -6.846077654790964084e-01 -6.519513143547213119e-01 -6.942871039472138239e-01 -6.711205350393125713e-01 -8.857297547532515525e-01 -6.846077654790964084e-01 -8.467369328699264619e-01 -7.247707268737635378e-01 8.661269846874486422e-02 -6.782100077779136538e-02 1.376154978243925193e-02 6.796245692279506700e-02 -4.705949770863407378e-02 -7.118053619084379058e-01 -6.959331962356991585e-01 -7.075616147180784354e-01 -7.285081202276598722e-01 -8.643213347141106562e-01 -7.118053619084379058e-01 -8.649167198250163890e-01 -7.364165780182524434e-01 -1.737371027593895279e-01 2.022435021146798684e-01 -1.156131224996783113e-01 -9.552574113830715474e-02 -8.391679004081620263e-02 -6.666192365748853099e-01 -7.116400638710373983e-01 -6.810322911415852554e-01 -7.432473013686486940e-01 -7.736182910076230268e-01 -6.666192365748853099e-01 -8.650964500299516136e-01 -7.195140935400848869e-01 3.032207965075245926e-01 3.790294119847167909e-02 -1.530882849529499878e-01 1.974491468865657018e-01 -1.065951837293861865e-01 -7.539838547174074757e-01 -7.792164967193607739e-01 -7.817094545905463043e-01 -8.172872541498407140e-01 -8.507340919406447544e-01 -7.539838547174074757e-01 -9.099528880290903565e-01 -7.678231084093256609e-01 1.080087123494671009e-01 3.181506380629340880e-01 -2.437127751962925581e-01 -8.780011049199379358e-02 -7.936456016771367694e-02
2.509357490184911388e-01 -1.634084472018481476e-02 -9.283758704627192992e-02 -7.173117230477271677e-01 -5.638176751497141481e-01 -5.476531168304890063e-01 -7.233738033178629401e-01 -6.127353301579009370e-01 -5.710043885768153471e-01 -6.311227694746719408e-01 -3.541775636953348738e-01 -5.411934310058490460e-01 6.053120768017465902e-01 3.425294780026558739e-01 4.319176562924100238e-01 -6.121231549832080177e-01 -8.971534860664636124e-01 -9.216068968587811661e-01 -7.859373657279901115e-01 -7.477785870618233188e-01 -7.251574927787913794e-01 -6.632596742314350591e-01 -6.089330411172607510e-02 -7.169226487304318496e-02 -1.084639327641425191e-02 -1.659814815445988939e-02 5.742738326362108875e-02 1.146573424612723491e-01 -5.246898125011670994e-02 4.955748522432869285e-02 -4.449937403126335428e-02 2.204221590590455249e-01 -3.773534813156497608e-02 5.699525541146785446e-02 -3.990381994278330291e-02 1.378521097275185459e-01 -1.213108989716128461e-01 -1.460189437535815982e-01 -3.450012372370017122e-01 2.756099885107839986e-01 8.513206303254958751e-01 -5.177742109445014618e-02 -5.440871077895464286e-03 -9.788308416100680587e-01 -9.602054461355383763e-01 -9.369296307942771573e-01 -9.795775290105011024e-01 -9.612422151295273443e-01 -9.394432652379746118e-01 7.857518580933727792e-01 -6.650017736771125787e-02 9.328141730011973694e-04 8.665024978418721657e-01 -3.699593516810614768e-02 -1.948169769349564207e-02 -3.266558935885010562e-01 7.262131389965784667e-01 -8.757157779196002023e-01 -8.968350162589301400e-01 -9.803540660544004526e-01 -9.648273927637801561e-01 -9.477273278594349204e-01 -8.428361217375438530e-01 -7.869049009281320339e-01 -6.676607543431183345e-01 3.548265100788112192e-01 -3.983912514599892152e-01 4.397699820506791868e-01 -3.166741551857271686e-01 2.990249794824336171e-01 -3.258068251188539488e-01 3.697807911706252892e-01 -4.834017789264740683e-01 5.188679584819199109e-01 -5.541224601291506735e-01 5.863538228120402929e-01 1.263299184418964841e-02 -2.928744656029108606e-02 3.970208625734583663e-01 7.070143207817798647e-02 6.027865534420961957e-02 1.073331686634695081e-01 -6.733454776496650140e-01 -5.731980498389447343e-01 -6.431755548167163994e-01 -6.530027625759222687e-01 -5.785398533433347978e-01 -6.395554997107725237e-01 -7.310756760976842017e-01 -7.045252016068697110e-01 -7.277486251965686881e-01 6.770957528271462911e-01 6.767267580258043980e-01 5.576944254997399097e-01 -6.067207102005678365e-01 -8.641176718557943559e-01 -7.716716408499924018e-01 -8.235663462605727902e-01 -5.818728304851105149e-01 -6.939877535052871860e-01 -6.627202439158202951e-01 -1.010802419063251689e-01 -6.470269780704876461e-02 -3.690956708071946313e-02 1.371635361119694085e-02 1.685347567365020616e-01 2.526877847002150790e-01 1.693284055128526921e-01 1.615731507836900421e-02 -2.174996890288050534e-03 2.151922849682270655e-01 3.546080848065997215e-01 2.611132970583485147e-02 -1.117345886988530511e-02 4.359476630669318481e-02 1.564764307044435310e-01 -2.630007879053910536e-01 -2.532619742335876500e-01 1.645740396929730454e-01 -4.482210550778840258e-02 -6.998081851384821417e-02 6.618003514818200650e-02 -7.662593506650239306e-01 -5.315106256302394305e-01 -6.363977261844190325e-01 -7.726185970152108506e-01 -5.794524881784192116e-01 -6.449211576875162333e-01 -6.912860757311043436e-01 -5.435243469840510544e-01 -4.862702860136459693e-01 6.363565534892728914e-01 6.354943795019472041e-01 5.728749622592747004e-01 -5.742684105430808650e-01 -9.470203092509381637e-01 -7.245864308143821209e-01 -8.557715231793983079e-01 -7.788009659961822040e-01 -6.517182816932485245e-01 -6.770535598792878362e-01 -1.108323790634926226e-01 -6.365982054942345703e-02 -5.011213654663491945e-02 -3.222894644310884127e-01 2.759691080063221835e-01 -6.285225293020638149e-02 8.947078426977633780e-02 -2.524726191932593067e-01 2.795995190139200504e-01 -1.792574059925959307e-01 2.906354701108272987e-01 -1.480004582307919980e-01 1.157332393349241872e-01 -9.469011526682241664e-02 2.531775441769545942e-01 -1.839537934853535950e-01 9.112208185955331108e-03 -9.605537689213598795e-02 -9.364069997806574730e-02 -3.378408853142221280e-01 -4.879773934559811233e-02 -7.133390607830643049e-01 -5.471118111480141044e-01 -7.496275144147553915e-01 -7.159587676419246760e-01 -5.952735722600802637e-01 -7.476115594155668953e-01 -7.509500786967218122e-01 -5.736331014759153968e-01 -7.700367876893509100e-01 6.821361978918033531e-01 6.602282336126050755e-01 8.280369881521314479e-01 -6.630476233256022978e-01 -9.032899110454674085e-01 -7.119189823006644158e-01 -9.224357960001048351e-01 -7.280016855048898616e-01 -6.508656540798473111e-01 -7.818952239572195539e-01 1.346407276747293713e-01 1.311781059889667866e-01 2.422369253705474595e-02 -2.011541866781323407e-01 1.801085463721114333e-01 -2.231671793879336230e-02 2.009819835338698124e-01 -2.867904025252155931e-01 3.354555803825515770e-01 -6.741863277679212285e-02 1.838598001864806819e-01 -1.063054101328983481e-01 7.565879002591299751e-02 1.371540463125131733e-02 6.292639002550845864e-03 3.234967042048542216e-03 9.353977059366208602e-02 -9.176248849017307196e-02 -6.144290118059266836e-01 -6.442888799050783266e-01 -7.312258226209793488e-01 -4.823780731411120293e-01 -8.611638712158175002e-01 -6.144290118059266836e-01 -8.235387005425659490e-01 -8.035627459276450946e-01 1.815618674336390015e-01 -4.566533074277336068e-02 1.871251844337718309e-02 6.297360264115868522e-02 -1.011594079248294697e-01 -6.144290118059266836e-01 -6.442888799050783266e-01 -7.312258226209793488e-01 -4.823780731411120293e-01 -8.611638712158175002e-01 -6.144290118059266836e-01 -8.235387005425659490e-01 -8.035627459276450946e-01 1.815618674336390015e-01 -4.566533074277336068e-02 1.871251844337718309e-02 6.297360264115868522e-02 -1.011594079248294697e-01 -6.188584359949348412e-01 -5.928965925502225343e-01 -6.291050992598304914e-01 -5.982216079857463065e-01 -6.685470722387532039e-01 -6.188584359949348412e-01 -7.992607032436027659e-01 -7.036519522404743876e-01 -5.670176234601873033e-02 2.179177712781083243e-01 -1.265636616617842602e-01 -5.863729066971337667e-02 -1.238397876174483769e-01 -5.722590565291331144e-01 -5.384734559716028990e-01 -5.222467321656141248e-01 -5.566962242623952895e-01 -6.725493120283908555e-01 -5.722590565291331144e-01 -7.792860704263290250e-01 -5.742691407040907414e-01 3.378226396317002833e-01 4.847867924321985073e-02 -8.358860483356815585e-02 -7.615767040315208486e-03 6.325500216525128949e-02 -6.296782991021855347e-01 -5.530090911255240993e-01 -6.135174470601710839e-01 -6.018417599958402198e-01 -7.211561567038102805e-01 -6.296782991021855347e-01 -7.792370826101020498e-01 -7.044285959500868888e-01 1.810978834249659386e-01 2.582117375852930330e-01 -1.222992375482541277e-01 -2.875411130334686871e-01 2.509312486989860938e-02
2.750165562717842294e-01 -2.009892713379172330e-02 -1.072474631210147966e-01 -9.404449185894550034e-01 -8.695737300375889767e-01 -9.107936664585593034e-01 -9.475550276677177086e-01 -8.715911231097324130e-01 -9.100593619254558897e-01 -8.607719246482764541e-01 -5.044298099586538298e-01 -7.613802067687445163e-01 7.859194441420264132e-01 6.249978475152055957e-01 8.028465922252902010e-01 -9.086753619992046227e-01 -9.823605907221254485e-01 -9.890602130219535715e-01 -9.883070802006885813e-01 -9.570400518585643335e-01 -8.995070996567213761e-01 -9.111266147470200583e-01 -3.813152031079161119e-01 -3.100661265963744473e-01 -3.308526810642787308e-01 9.069315881724358819e-02 -4.162346545031090500e-02 1.397827684144672400e-01 -2.350306232046153743e-02 8.603122834817664155e-03 -7.421384211372832052e-02 2.140011683528540987e-01 -2.418424578131540825e-02 3.780535299864633270e-02 -4.288729776589914056e-02 1.544044106102176184e-01 -2.448882150186262596e-01 1.376926259326839430e-01 -3.724651231545930141e-01 1.728859808232442730e-02 8.244460595037244044e-01 -4.189655644153163216e-02 8.797477013416424296e-02 -9.754862080166961658e-01 -9.503551659352822423e-01 -9.475682655675298216e-01 -9.762460678021043226e-01 -9.522348149620634139e-01 -9.510364535256080609e-01 7.613206863673431801e-01 -5.294103236964965709e-02 8.952468656089501708e-02 8.403073528328163233e-01 -2.918880282104709123e-02 7.432629723367793761e-02 -3.749769169012941994e-01 6.981971599183023347e-01 -8.367239653381189912e-01 -8.989190570493890142e-01 -9.776681514688417840e-01 -9.584270685148802427e-01 -9.588598928304585822e-01 -9.188595589005552622e-01 -7.930248180617036624e-01 -5.017868917661159056e-01 5.032758876576618468e-01 -5.210167963632292842e-01 5.388306515006886510e-01 -5.221905714253064490e-01 4.916651057267524272e-01 -4.922395912192066292e-01 5.063609677689725475e-01 -5.365816480696291579e-01 5.430420389241051859e-01 -5.491318349296652190e-01 5.521640188591077081e-01 4.357468521249919791e-01 -4.377006309318922095e-01 -1.164732994237288460e-01 8.493264909405898178e-02 1.308855783231250083e-02 -1.956041651642850820e-02 -9.337140956023596283e-01 -9.237841472667072118e-01 -9.612271240356049518e-01 -9.377467132316124054e-01 -9.228974830328179335e-01 -9.591039226333550882e-01 -9.369448787803159595e-01 -9.397701591656143494e-01 -9.681658234623040649e-01 9.215060117029131304e-01 9.329463646192689419e-01 9.563118424336438661e-01 -9.396468806878901514e-01 -9.779506029135243139e-01 -9.838508669303389631e-01 -9.962226256559935100e-01 -9.392402644568204062e-01 -9.349255795412767522e-01 -9.576105535096506305e-01 -5.128289108713400823e-01 -4.615093317514087357e-01 -5.355387866431555732e-01 1.262254557879778083e-01 1.446193666273481726e-01 2.349728723892726967e-01 2.783665118973145391e-01 -1.721464926451237928e-02 -1.503754183994814378e-02 3.909998965373763513e-02 5.490696993361866562e-01 6.939852862194403893e-02 2.231340701757886583e-02 8.527821192812784501e-02 1.740627308179613086e-01 -7.687231125188910552e-02 -1.464512020907722256e-01 1.498218943043223839e-01 -5.835556305873708383e-02 -7.595935570364253930e-02 8.964890752631349269e-02 -9.221637245819738204e-01 -9.336233030587203219e-01 -9.118904380085137706e-01 -9.257379067608971779e-01 -9.390897453455839816e-01 -9.108951379369227830e-01 -8.225983811470019003e-01 -9.110446183275805465e-01 -6.933473204901864362e-01 7.787200030289197494e-01 8.727074447863947260e-01 7.706330724466011750e-01 -8.781671605789892476e-01 -9.857893979452524436e-01 -9.902860424854017518e-01 -9.794474150345747754e-01 -9.321669564739823999e-01 -9.484445577236211289e-01 -9.162728366054831985e-01 -4.291127130822809388e-01 -2.059614906183614980e-01 -2.526839449443556429e-01 -2.920856367715568003e-01 1.584078771787488515e-01 1.195711260580860635e-01 -4.193420002072800745e-02 -1.768976121029303961e-01 1.106458021856667057e-01 -5.872334413620917785e-03 1.870551540154931636e-01 -1.195247972176162188e-01 2.059616882132902713e-02 1.291304286440281834e-01 -2.987446430628165617e-02 -1.314729137590575359e-01 1.804948792178682482e-01 -3.858753770954886364e-01 -1.098210960366490935e-01 -4.147232722783633641e-02 -5.776061234187104126e-02 -9.405661808799148371e-01 -9.612932241069375161e-01 -9.543402911359119001e-01 -9.452416397172233031e-01 -9.645345597820157435e-01 -9.581649270446810363e-01 -9.341092865419411417e-01 -9.627631413247691450e-01 -9.432295336239938655e-01 9.351454452849310428e-01 9.681452938724307566e-01 9.595542497058031639e-01 -9.583831062337567763e-01 -9.925012056276829586e-01 -9.963715749697436008e-01 -9.954209658612702682e-01 -9.525116593374279850e-01 -9.692771237907569226e-01 -9.625813052376145373e-01 -2.439894620921821133e-01 -2.580195894099270304e-01 -2.876646535408106109e-01 -1.278310900419273866e-01 -3.602075251068205444e-03 1.219968039963627571e-01 1.051420844831973539e-01 -1.447159226571058666e-01 1.393845978533747587e-01 3.377521517585442556e-02 1.517035144320493800e-01 -7.261686094872530674e-03 -1.808017038381404262e-02 7.106029281599438030e-02 2.068835343880131017e-01 1.578744257176279697e-01 -9.872690283071980377e-02 -2.186063532539402054e-01 -9.056760301558679505e-01 -8.991503940456193611e-01 -9.153919691166469974e-01 -8.960410075439358968e-01 -9.648268857141849564e-01 -9.056760301558679505e-01 -9.777252634534873144e-01 -9.336318119967985663e-01 -1.851558619057641630e-01 -2.581144424883835900e-02 -5.399998708160296673e-02 9.761758933198556865e-02 1.514775242239586005e-02 -9.056760301558679505e-01 -8.991503940456193611e-01 -9.153919691166469974e-01 -8.960410075439358968e-01 -9.648268857141849564e-01 -9.056760301558679505e-01 -9.777252634534873144e-01 -9.336318119967985663e-01 -1.851558619057641630e-01 -2.581144424883835900e-02 -5.399998708160296673e-02 9.761758933198556865e-02 1.514775242239586005e-02 -9.393171808408041779e-01 -9.260829021942894590e-01 -9.360139228113365517e-01 -9.239063903501724129e-01 -9.666734574337303432e-01 -9.393171808408041779e-01 -9.831181064844349837e-01 -9.543664570013297155e-01 -5.356557438274844873e-01 2.230207604028959512e-01 -1.667005862428813309e-03 -1.434702028304932764e-01 -2.405818372996332000e-01 -8.789877118032078940e-01 -8.958561397119332304e-01 -8.828524136552557966e-01 -9.099482209227616192e-01 -9.020201194617072371e-01 -8.789877118032078940e-01 -9.793980646238170662e-01 -8.844059731364020127e-01 2.848412161012540689e-01 -1.038014331629165676e-01 6.000366297675529224e-03 -1.148134182550242157e-03 7.132283082413742870e-02 -9.575254711064964397e-01 -9.532053398031358205e-01 -9.584066352517522924e-01 -9.502899579388979223e-01 -9.601166438109302037e-01 -9.575254711064964397e-01 -9.954288245143797509e-01 -9.635491716779451821e-01 -2.080355615523926671e-01 1.487849440014802072e-01 -1.066224555070687252e-01 1.562024911494405352e-02 -2.079268341489211580e-01
2.729914149947342827e-01 -1.856324059811222116e-02 -1.024895554609950993e-01 -9.320297302888013169e-01 -8.754032765422091744e-01 -9.143035678821506140e-01 -9.393097471137269450e-01 -8.780608758475982878e-01 -9.141041852444742322e-01 -8.521911994327844297e-01 -4.996535883705701120e-01 -7.568080314584819668e-01 7.753098905915212224e-01 6.287439448425073962e-01 8.081992679019857073e-01 -9.076703257735070363e-01 -9.782818258030605563e-01 -9.880767521430214861e-01 -9.881913529505003124e-01 -9.495512103113660229e-01 -9.050607233349583503e-01 -9.188143172682791127e-01 -4.199326038013121987e-01 -3.077209690913366713e-01 -2.570026150189493874e-01 9.030008415404695843e-02 -3.092682216897378253e-02 1.134570468811573057e-01 4.614003907368684210e-02 1.758429141040678337e-02 -2.907642859363135726e-02 1.094435275344955300e-01 1.058241369135556331e-01 2.506850650231052038e-02 -5.098074230936516620e-03 7.871339985126700467e-02 -1.920793618766171162e-01 -4.185520230669206865e-02 -3.255953269828334995e-01 3.170964695921339449e-01 7.820297647378636752e-01 9.138404131427767252e-02 1.326736626396628205e-01 -9.764307245046045525e-01 -9.623138508548645387e-01 -9.473349959638811546e-01 -9.771462095665505165e-01 -9.638022794712333141e-01 -9.503611033176547762e-01 7.185650492776552989e-01 7.187198089150508007e-02 1.332039641119191209e-01 7.987388181339809545e-01 1.039564302759323766e-01 1.188744154848795920e-01 -3.811535643163822540e-01 6.343482086443668067e-01 -8.141969935267436842e-01 -8.714991734831730730e-01 -9.775745573306030556e-01 -9.686583985794690044e-01 -9.567606053439925429e-01 -9.039402392448900869e-01 -6.926878629436334922e-01 -4.495834965390361204e-01 4.696985280297643617e-01 -4.889705079135938659e-01 5.082478718198373269e-01 -4.885029491396358226e-01 4.583776223294258600e-01 -4.615853726716261929e-01 4.791254203748991913e-01 -5.405263857842466102e-01 5.455600244084095607e-01 -5.501626029561719200e-01 5.516492568602510138e-01 -2.797138010141912434e-01 -5.423392691513710950e-01 5.246903010621244423e-01 9.010778588497526942e-02 6.592058018172759770e-03 -1.760080004500756343e-02 -9.241195414609743031e-01 -9.176816699282084322e-01 -9.597528504676023919e-01 -9.283457447113091510e-01 -9.148385442043978077e-01 -9.576773705657649627e-01 -9.273544963626912940e-01 -9.403858716043933530e-01 -9.668604993058665942e-01 9.106245579498281062e-01 9.278970231600222052e-01 9.576729114681793442e-01 -9.328959289155798196e-01 -9.714835096199755382e-01 -9.794594560944223094e-01 -9.955323151206554311e-01 -9.289586188503031750e-01 -9.268954794140616960e-01 -9.580779272543524794e-01 -4.775632061887112312e-01 -4.315289163021583940e-01 -5.552964521269551090e-01 8.792413529861298205e-02 1.161285382208522426e-01 2.435425196437890072e-01 1.582441667067663316e-01 -4.159909287422429436e-02 3.919773563975838954e-02 2.723306862004370305e-02 3.802146185887201879e-01 5.807580307983206680e-02 3.926259793957514316e-02 9.476150188092469229e-02 5.219557712565448676e-02 -2.409309570801293487e-02 -6.755875756028777157e-02 -1.740853207876403479e-03 -4.135580954287063765e-02 -7.896784086974266426e-02 1.089925850450742528e-01 -9.326119506429025874e-01 -9.310748423929761097e-01 -9.150269438928710919e-01 -9.357800514157765814e-01 -9.373711020735850941e-01 -9.139527586905642487e-01 -8.264468047178115118e-01 -9.084988559399762575e-01 -6.909900114607322452e-01 7.889610896618607372e-01 8.707658669967470733e-01 7.757385808887966583e-01 -8.882797995234970045e-01 -9.863912078809561335e-01 -9.887463570768565413e-01 -9.787289437709413287e-01 -9.409104376187303886e-01 -9.481676369037387309e-01 -9.196478071482500072e-01 -2.694600535216411519e-01 -2.551448046187159702e-01 -1.589848174026545491e-01 1.913415243453517670e-02 8.776989630776731166e-02 1.598349619457734017e-01 -4.879106167490560725e-02 -5.426388741205743355e-02 4.774786117817050174e-02 8.896584138732520353e-02 6.438437617435501361e-04 7.666162373700873001e-02 -3.604775594925135884e-02 3.905922350982208441e-02 6.417739172329814390e-02 -2.209081385516216411e-02 3.459556499366545079e-01 -1.129301684870906708e-01 -1.048921307672078806e-01 -4.427755678535318790e-02 -6.720450726469130720e-02 -9.337938539507202318e-01 -9.560006639865914480e-01 -9.472428305538689308e-01 -9.376620979878826923e-01 -9.592749988361839453e-01 -9.518257624538472017e-01 -9.323336200974099430e-01 -9.612197745418173955e-01 -9.347521841036821044e-01 9.329847564809442551e-01 9.625876783158137107e-01 9.572213200780070874e-01 -9.522355511381108695e-01 -9.908916959886324705e-01 -9.954655886535022091e-01 -9.945336130270167052e-01 -9.460023346673903655e-01 -9.643962315545030473e-01 -9.591569361974239261e-01 -1.804812223874500410e-01 -1.530678203428066375e-01 -2.616262050146200280e-01 9.809072027100393387e-02 1.002039612623458059e-01 2.910339033128214736e-01 2.121521793358751018e-01 1.425624163891991286e-02 1.643927864107249670e-01 2.233531750333284938e-01 1.354150022436002576e-01 1.795646716784431440e-01 2.062956899883287842e-02 2.249752668858371607e-01 -7.464369905143265760e-02 2.787122794488091082e-01 3.722646138115356385e-01 1.852090665750437126e-01 -9.055264038838060081e-01 -8.984125776497622340e-01 -9.166508999005064107e-01 -8.931538814909020241e-01 -9.647688277643707844e-01 -9.055264038838060081e-01 -9.740921190250181327e-01 -9.398962740794922777e-01 -2.456363751703379561e-01 5.818856481004014251e-03 -8.006299955545276292e-02 1.223925013139782469e-01 7.858176355891810733e-04 -9.055264038838060081e-01 -8.984125776497622340e-01 -9.166508999005064107e-01 -8.931538814909020241e-01 -9.647688277643707844e-01 -9.055264038838060081e-01 -9.740921190250181327e-01 -9.398962740794922777e-01 -2.456363751703379561e-01 5.818856481004014251e-03 -8.006299955545276292e-02 1.223925013139782469e-01 7.858176355891810733e-04 -9.327681623663615085e-01 -9.191656399393243193e-01 -9.299412135424952597e-01 -9.182956428112706293e-01 -9.708481238733553953e-01 -9.327681623663615085e-01 -9.784222760642153904e-01 -9.491663118683960620e-01 -5.422306348492617056e-01 2.159178967289772655e-01 -8.296418816117991091e-02 -9.056227885611028983e-02 -1.681223736914606026e-01 -8.905740182346892908e-01 -9.048918282216069642e-01 -8.930655926056720872e-01 -9.138362086798991202e-01 -9.073042191375435550e-01 -8.905740182346892908e-01 -9.788586008304442920e-01 -8.967167896814153272e-01 1.705196373609192406e-01 1.796173920282893577e-01 -2.264260384563474282e-01 1.736894951462940873e-01 -1.104556250159646064e-01 -9.517792457497651348e-01 -9.477853113339749225e-01 -9.519309513616307505e-01 -9.477005085396897899e-01 -9.551866142870322207e-01 -9.517792457497651348e-01 -9.943760519847930635e-01 -9.559206036812333274e-01 -1.061622123724484251e-01 3.855320097473203256e-01 -4.300141987258935261e-01 -8.835530844425606989e-02 1.710617788489453284e-01
2.737677148148129347e-01 -1.980923615116098394e-02 -1.074360345351744739e-01 -9.273214371509570508e-01 -8.935398640355474154e-01 -9.267967647479998794e-01 -9.344327040670503681e-01 -8.966414372062154747e-01 -9.277045035695845598e-01 -8.455427921168681138e-01 -5.148924080192289754e-01 -7.663716232376445170e-01 7.707258475329217262e-01 6.333198802739794520e-01 8.097394785692308972e-01 -9.148726774765542080e-01 -9.747213138567966118e-01 -9.874909178823914058e-01 -9.887158614334765616e-01 -9.446812045591314044e-01 -9.205914010353047905e-01 -9.326799845622977259e-01 -4.218473165811649772e-01 -4.920835004276420399e-01 -3.989572920098459763e-01 7.190083965877785976e-02 -4.862275601970728750e-02 1.932701645790389083e-02 2.430399346135072025e-01 1.514238930102958791e-01 -7.496956967764537016e-02 1.527673033935842417e-01 1.651085011932632851e-01 2.199549257284542092e-01 -6.018501139743626799e-02 8.805511900778094370e-02 8.236731162364764602e-02 -2.026562120559471103e-01 -1.339471162027320028e-01 -2.040310438623237632e-01 -1.210678095403454162e-02 4.164641229318017390e-01 5.062895927037575072e-01 -9.792360048262666039e-01 -9.699471936531995908e-01 -9.649042370299203419e-01 -9.801741004094655096e-01 -9.713516426459068986e-01 -9.681714405778670818e-01 -7.231364968910822255e-02 3.862044137094016172e-01 5.005491278323020987e-01 2.275178204190993550e-02 4.264023603447819610e-01 4.962311321682422172e-01 -3.062206947631708129e-02 -4.004966271958834145e-01 -3.897923251318493043e-01 -1.927211163931818183e-01 -9.813175161366929355e-01 -9.763800418346056942e-01 -9.747804142874079147e-01 -8.932818345373019220e-01 -8.436881320226323755e-01 -6.181321869091679355e-01 5.483361597803719789e-01 -5.697882540000346330e-01 5.912235008452129126e-01 -3.203658516104480047e-01 3.041557565046950629e-01 -3.340722952900236908e-01 3.829503465240496340e-01 -3.448912458066575315e-01 3.655047952173164916e-01 -3.859069301258455376e-01 4.036332285695337641e-01 1.309608732021472211e-01 -5.176361042320432038e-01 -2.657104597479162389e-01 9.041312724946017065e-02 3.941236615051345663e-03 -1.759100018810923552e-02 -9.199326233379123696e-01 -9.206926725475300666e-01 -9.589339153925232617e-01 -9.244655277521169889e-01 -9.178029312381860150e-01 -9.566178699704043220e-01 -9.255481084406411707e-01 -9.423492773463676420e-01 -9.656781907157941935e-01 9.036400967520678007e-01 9.316377349700032395e-01 9.585564411089212422e-01 -9.317116707199241121e-01 -9.652495276812438352e-01 -9.752948407942150233e-01 -9.949087223534017754e-01 -9.258186961605875398e-01 -9.284026148533274236e-01 -9.560441518494587898e-01 -5.648644088390156748e-01 -5.241648301484866934e-01 -5.740630755526892059e-01 3.517234054112745173e-02 4.590474923256904899e-02 1.089198636814344284e-01 7.435725129718812054e-02 5.274447087739068257e-02 -2.951232459445830153e-03 1.656405921936099090e-01 2.824097137516364819e-01 6.550361849186409069e-02 3.609924064408794736e-02 5.431904453211973578e-03 2.018932734333192813e-01 -1.377592232299867658e-01 1.104420930889894875e-01 -1.327313407972761372e-01 -3.712345726528044898e-02 -7.891704548886942228e-02 1.136434234852929104e-01 -9.433414684418870433e-01 -9.394830767967267127e-01 -9.293044802193489717e-01 -9.457061164371717288e-01 -9.444033961546369760e-01 -9.285693210810728182e-01 -8.327949355130108700e-01 -9.142530240016600862e-01 -7.006744838893161909e-01 8.008998424702440389e-01 8.775885554161836355e-01 7.867927272877083267e-01 -9.027872318107698080e-01 -9.873866923429778231e-01 -9.876149549991242171e-01 -9.796491008648419152e-01 -9.491021141849420584e-01 -9.527593755953481791e-01 -9.336756650498798660e-01 -3.879307966846655131e-01 -4.059850232039072249e-01 -3.267415283192013908e-01 8.725740587397717851e-02 -8.788056161199669924e-02 2.267728832699759112e-01 1.492970325474036464e-01 -3.574731811447638685e-02 8.029138957973069868e-02 -2.508215759258579022e-02 1.708855072306117162e-01 3.069857407018485862e-01 -1.987184828698688455e-01 2.059805426530910144e-01 8.480581022965126559e-02 -2.472413274402194272e-01 2.599496955240350737e-01 -3.352736752731784731e-01 -1.047094061259362940e-01 -4.321689405331712724e-02 -6.984493536638369804e-02 -9.446321909745377665e-01 -9.612338135613294199e-01 -9.559385534545397078e-01 -9.480494776955985525e-01 -9.646318903071267048e-01 -9.593634493504322736e-01 -9.437132128407912379e-01 -9.655873648273824994e-01 -9.431509222333090969e-01 9.395552463884340177e-01 9.651146905750112026e-01 9.624096780132648243e-01 -9.594971787163575350e-01 -9.896940549894136518e-01 -9.947016823836363208e-01 -9.941371204577178489e-01 -9.546803431075042701e-01 -9.700063546251633806e-01 -9.633019962283335680e-01 -4.764317587707807555e-01 -4.388181601797855325e-01 -4.252013288250645062e-01 1.077877514569767631e-01 -1.126994544977396595e-01 1.525298844073383620e-01 2.961992452646948770e-01 -1.634756307752386825e-02 1.869245186140473247e-01 1.361282071102384306e-01 4.976996277486955833e-02 3.628373600990075776e-01 -7.582086364470004558e-02 3.223705699631830290e-01 1.339734806715936200e-01 -4.599396767275162196e-02 1.382816042227028031e-01 -1.454394890154993569e-01 -9.127703755611075165e-01 -9.069462771729163153e-01 -9.242016823621564958e-01 -8.994262005550394123e-01 -9.637012561604472172e-01 -9.127703755611075165e-01 -9.712340782301146502e-01 -9.454483010425205336e-01 -4.649318298544057870e-01 1.721402022640428353e-01 -1.152576966494870403e-01 1.420806834857830103e-01 -2.471644627005367689e-01 -9.127703755611075165e-01 -9.069462771729163153e-01 -9.242016823621564958e-01 -8.994262005550394123e-01 -9.637012561604472172e-01 -9.127703755611075165e-01 -9.712340782301146502e-01 -9.454483010425205336e-01 -4.649318298544057870e-01 1.721402022640428353e-01 -1.152576966494870403e-01 1.420806834857830103e-01 -2.471644627005367689e-01 -9.314453434979041990e-01 -9.156054648065855561e-01 -9.281015407179692422e-01 -9.144780624491684051e-01 -9.639202760297354011e-01 -9.314453434979041990e-01 -9.739304430826837278e-01 -9.490926592890551738e-01 -6.390073353625076447e-01 2.963954798000590363e-01 -8.393016802457910208e-02 -8.307977696504832699e-02 -3.117707536381014166e-01 -9.054790493029615250e-01 -9.214214532817855963e-01 -9.127974278238200068e-01 -9.269434957426225807e-01 -9.143609831446355418e-01 -9.054790493029615250e-01 -9.792103806509948605e-01 -9.173801691816544368e-01 -2.340502190125292870e-01 2.727518267909975758e-01 -3.211728766945661784e-01 3.161137927254237812e-01 -2.918000604119647123e-01 -9.587963020690573046e-01 -9.551960669652138636e-01 -9.593296062870726448e-01 -9.527853263426089292e-01 -9.561819668593855015e-01 -9.587963020690573046e-01 -9.935693142903564423e-01 -9.632534451549706889e-01 -4.488279051248468265e-01 4.307776834530420706e-01 -3.770170985912885686e-01 4.542174538017275387e-02 -1.669191556660609144e-01
1.025612667734185635e-01 -8.703000233903665506e-02 -1.178191787596738344e-01 -3.450388699313101104e-01 -1.911488793198024838e-01 -5.882102727848367296e-01 -3.718604279210822594e-01 -2.085935854921059929e-01 -5.885082156526382224e-01 -2.852909277145365130e-01 -1.674922400202504824e-01 -4.789150761847712490e-01 2.937379433368484949e-01 1.978103959880758433e-01 5.958686715029505310e-01 -2.965449865268754981e-01 -6.594743720506504037e-01 -7.978888602258020768e-01 -8.900337894344452216e-01 -4.375821503923432165e-01 -3.602162266579657102e-01 -5.896148700751027150e-01 3.782746693722061071e-02 -1.431500782692801399e-01 -5.847715599326662461e-02 -1.967729337867387962e-01 5.175112584874888566e-02 1.663749681082306309e-01 -4.994925085680507193e-02 -2.169600616793030678e-01 1.681971971990513515e-01 1.275633553327836511e-01 -6.420944708123421663e-02 -4.325329908163275811e-02 5.535166710582827693e-02 5.224817691569597078e-02 -1.729817562877249137e-01 -2.352146518797414709e-01 -2.170421271183007594e-01 1.853341080380629946e-01 6.995507959941690279e-01 9.965890343456846115e-03 6.182836646090879990e-02 -8.993462641352624187e-01 -7.037424041668104424e-01 -9.117680989800046598e-01 -8.976370941496427669e-01 -6.962809015547332114e-01 -9.136702070816759003e-01 6.581475236140003071e-01 7.087911239305066946e-02 7.825077902986600498e-02 6.926784195734142502e-01 -2.421687438454204339e-02 4.374347174340396938e-02 -2.573985521627829010e-01 5.134248057920375308e-01 -6.499468795784238973e-01 -8.731870546181009773e-01 -8.936843168375901980e-01 -6.875257887421756253e-01 -9.271649915794681895e-01 -6.100688633756984336e-01 -8.704964137356646647e-01 -7.645057254518586864e-01 6.805184141864943914e-01 -7.181667672825030602e-01 7.559247983854532338e-01 -4.491243278997003596e-01 4.273904909769826732e-01 -4.423650505656405718e-01 4.727237809898079401e-01 -5.921509829314643980e-01 6.071833974096533248e-01 -6.217241963626473078e-01 6.329319043896388663e-01 5.269659782393806280e-01 3.015706037082573898e-01 6.408687669066605030e-01 1.918395555860672175e-01 2.303903674868930385e-01 1.861270533498112778e-01 -4.674599030952799605e-01 -3.913903586065335949e-01 -7.712796976842751784e-01 -4.467514817928773807e-01 -3.158122295788172718e-01 -7.615365412662422617e-01 -6.941670185168434815e-01 -6.596835234690948679e-01 -8.085604466145072111e-01 4.041991263293967518e-01 5.158072803224367231e-01 7.806584191664114325e-01 -4.899482641499514068e-01 -7.782146368680507020e-01 -7.157025088902447818e-01 -9.590082941724228371e-01 -4.004685557033410559e-01 -3.030657980047032907e-01 -7.751979358539341503e-01 2.481096233797365214e-01 1.883998561985862075e-01 1.295614193400005110e-01 -1.433172972631274467e-01 -2.456315921150122386e-02 2.474076938070040310e-01 -7.201180959137807105e-03 -2.601606038252870512e-01 1.225555524310774635e-01 1.063867552706212610e-01 3.344969326131890797e-01 -4.285149778313139535e-02 7.201731220296574143e-02 5.439406861732368897e-02 3.553141199809913692e-02 -2.133636363128345592e-01 -9.556871016734784507e-02 2.104767979543240367e-02 -3.814626329854897135e-01 1.209769542755519539e-01 1.955916046416715515e-02 -6.326137066491840377e-01 -6.725053620309213720e-01 -5.920288465090548513e-01 -6.421872230287395400e-01 -6.888426627777182176e-01 -5.881108446662524081e-01 -6.882627955884309534e-01 -6.335757633129165400e-01 -3.169469345035653141e-01 4.266409467828918278e-01 7.041853645311630938e-01 5.412017520358397560e-01 -4.153849827915123138e-01 -7.689469707636792384e-01 -9.106808576848647308e-01 -8.768980847261843570e-01 -6.423182659440109799e-01 -7.159926045917410775e-01 -5.981145623580057524e-01 -4.721804976835155543e-01 2.456084871864726848e-01 4.175978895895672213e-03 -2.516787667395343209e-01 1.634602928258614973e-01 1.700666799080417235e-01 -2.076912990233143463e-01 -2.905554892533867006e-01 2.886028481749488006e-01 -2.181611958911436056e-01 2.102956332566543740e-01 -2.012142335024472706e-01 2.337951704026418887e-01 -1.474873891866647913e-01 1.598450600594222282e-01 1.808343091026421434e-01 1.308533875409914268e-02 -1.832286199417375583e-01 -1.302126604456072811e-01 -1.318461766864306717e-01 7.753131858501068063e-02 -5.220752496041545232e-01 -7.686706634023651175e-01 -6.105445971584693154e-01 -4.931887135660194543e-01 -7.887754557211580364e-01 -6.454339682607795892e-01 -5.383997134062238343e-01 -7.863060957287447694e-01 -5.968498419665476673e-01 6.692996572276521672e-01 7.734371924891694228e-01 6.313917251829443966e-01 -6.744506984686777784e-01 -8.270362729664402224e-01 -9.603232705633862887e-01 -8.838615251995566302e-01 -4.811440696373867620e-01 -8.043419129500979370e-01 -7.173359653843746075e-01 1.890957108856096414e-01 2.037811058720675195e-01 3.583186615924049967e-01 -6.480087661429628776e-02 2.674740546055244528e-02 2.739634936681645816e-01 1.113249514163892617e-01 -2.561654460603055017e-01 4.108647584114591966e-01 -1.260338562252819872e-01 3.128749153058350552e-01 -1.509993955487519413e-01 2.592018241452073157e-01 2.508723306422418284e-03 8.470516699150454354e-02 1.123138078872113060e-01 5.495374965742569166e-03 -6.345737536310398774e-02 -2.678108927143616480e-01 -4.499553425988222499e-01 -5.123640993285657474e-01 -4.183160617224051525e-01 -7.592900224260201725e-01 -2.678108927143616480e-01 -6.049163502999488351e-01 -5.684314799504139870e-01 4.282596638470388961e-01 -8.858306758454682905e-02 -2.277319746736334097e-02 7.654592621062383806e-02 9.570472590066353424e-02 -2.678108927143616480e-01 -4.499553425988222499e-01 -5.123640993285657474e-01 -4.183160617224051525e-01 -7.592900224260201725e-01 -2.678108927143616480e-01 -6.049163502999488351e-01 -5.684314799504139870e-01 4.282596638470388961e-01 -8.858306758454682905e-02 -2.277319746736334097e-02 7.654592621062383806e-02 9.570472590066353424e-02 -4.870862482118037406e-01 -5.272456718344845639e-01 -5.685095811166080981e-01 -5.396836033133707300e-01 -7.664726821080639629e-01 -4.870862482118037406e-01 -7.982237017950220004e-01 -6.921131519453305181e-01 2.563780939326075758e-01 9.046707232900685902e-02 -1.690852014473679873e-02 -1.160824984998124060e-01 -5.646999150363955777e-02 -3.997958080663265301e-01 -5.834260580983549049e-01 -5.312877081299111071e-01 -5.926835315996706877e-01 -2.698928275531460863e-01 -3.997958080663265301e-01 -7.502959988120820878e-01 -5.382375297107380163e-01 3.274403540384535072e-01 -1.760822519144450427e-01 9.241278389462716236e-02 4.181653680754302688e-02 -1.022897298008794142e-01 -6.709217915939496013e-01 -7.136248381680845299e-01 -7.196169515544172945e-01 -7.317429717729596605e-01 -6.836772550099372570e-01 -6.709217915939496013e-01 -9.221144967700031225e-01 -7.263681513719687510e-01 4.880187704648520364e-01 1.484002126346439521e-01 -2.029983154580639326e-01 -1.800345668670648436e-02 -2.070307820516487790e-02
2.924944528682397182e-01 -1.433359072906235238e-02 -1.305799939732536774e-01 -4.902301936815434691e-01 -2.556000901950775672e-01 -4.791074301110807565e-01 -5.156310911833820176e-01 -2.291788293230797302e-01 -4.792895189987392834e-01 -3.769958158385332547e-01 -1.906476598110846965e-01 -4.887504216107003696e-01 3.937815511711971750e-01 3.297742978078682663e-01 5.227398893799681812e-01 -3.723281665208455493e-01 -8.040856592046732310e-01 -8.426046788299262902e-01 -8.203129979075163281e-01 -5.869185300041118714e-01 -3.335298397462496678e-01 -5.113329756274745952e-01 1.705586960174992339e-01 5.033129986426469749e-02 4.187018501827415723e-02 -3.876349871794355639e-01 4.573096963898086176e-01 -3.337649932400043595e-01 1.420241012001648984e-01 -1.190966616198324253e-03 2.716578630651498086e-02 1.592926392010022285e-01 5.384849930482214775e-02 -1.684502350933188841e-01 2.043031289700497632e-01 -1.199147698715791743e-01 5.150467373272394483e-02 -2.221204519972408142e-01 -1.974340908565443142e-01 2.370949802501632619e-01 5.953749746250640573e-01 -1.418427166144626411e-02 -4.885914605654489984e-02 -9.682917773980453946e-01 -9.613726888770657286e-01 -9.644332525846364135e-01 -9.675639212154953928e-01 -9.625993019976294418e-01 -9.655617946860977074e-01 5.347543295961650900e-01 -2.665711455392087703e-02 -5.047627052811236997e-02 6.140403323914992439e-01 1.975411800645186268e-03 -5.728750820532980265e-02 1.028186400238875059e-01 3.085340169117761766e-01 -4.983106868065128037e-01 -8.329651761985710223e-01 -9.687389817106739631e-01 -9.687430445197301454e-01 -9.675449846439537760e-01 -5.814986846903792417e-01 -8.873816317061403725e-01 -8.809680524718184191e-01 4.259484914113199072e-01 -4.834095660784066273e-01 5.380773117360030389e-01 -2.647104090887855699e-01 2.701610241661692724e-01 -3.256831718199914572e-01 4.000020862651520459e-01 -3.535091907386720966e-01 4.225600179787170063e-01 -4.906066702639987898e-01 5.547899222190175728e-01 4.161036321095795132e-01 2.620286477735693786e-01 3.828904947359836886e-01 -4.301569864112168851e-03 1.979689415024338539e-01 5.135461927559597725e-03 -3.644917160028751102e-01 -3.505389368679151518e-01 -6.428630381386438719e-01 -3.513646818751794410e-01 -3.010672105396898779e-01 -6.123632288166566129e-01 -4.192014828025607542e-01 -5.367126355031749396e-01 -7.759448360251128829e-01 3.778234352049214539e-01 6.141757323321809237e-01 6.179570561387526251e-01 -3.936380219241771838e-01 -6.910160629582378089e-01 -6.800830600931262460e-01 -9.010598275008434577e-01 -3.134365583073190908e-01 -3.465778860105449000e-01 -6.154731735900209610e-01 3.385845256552444948e-01 1.772661571592158702e-01 1.822288159908778682e-01 -3.485257756744506441e-01 4.703608295034962250e-01 -4.133210827479281285e-02 7.312304990597079390e-02 -9.392908335049042490e-02 5.978243598819157206e-02 1.767295516808962685e-01 2.987167207683027459e-01 -2.381899393441434809e-01 1.419643194833153377e-01 -3.440692415565298895e-02 -3.246317644520770734e-02 -1.907089790236527471e-01 1.997527371218487946e-01 6.001989048111283642e-02 1.229350794102516096e-03 -1.141170781389211630e-01 5.855350301343666131e-02 -6.350090177352836207e-01 -5.993729598008399329e-01 -5.186993491697130532e-01 -6.184724904782171739e-01 -6.177495940771181582e-01 -5.330962695639818172e-01 -5.371709017195460678e-01 -6.559218345770301273e-01 -3.028973568258312987e-01 5.631665485463550613e-01 6.866273152024929827e-01 5.380805734307269050e-01 -4.856477633325586019e-01 -9.076123552324888433e-01 -8.840430417540527941e-01 -8.366414294635204918e-01 -5.846972877607699015e-01 -6.678438652230365147e-01 -5.963038163099720901e-01 1.095846316049390312e-01 -4.586377830731544480e-02 1.198846562105568142e-01 -9.896569745250914651e-02 4.297014224862780868e-02 2.127007876037692868e-01 -2.887319672921411298e-02 -1.906692125341000743e-01 1.993573792803202127e-01 -7.403954287780188659e-02 1.404394575413357160e-01 -2.968410262607252270e-01 3.313753023744988591e-01 -3.843174510229759311e-01 5.202080643617376099e-01 -2.538123567091843738e-02 9.956240127180249200e-02 2.341555089821466540e-01 -1.948298225411057294e-01 -4.032043595830161922e-04 2.184929737943920036e-01 -5.417714814909990739e-01 -6.820131289954917131e-01 -6.579858007596500746e-01 -5.294955721694233342e-01 -6.879364534408454190e-01 -6.575152968111734886e-01 -6.194633512403946440e-01 -7.953008768956905117e-01 -6.703605817516052889e-01 6.522498925628349431e-01 6.699620992907775463e-01 7.742964197437033347e-01 -6.366050461951481276e-01 -8.431039775407372927e-01 -9.250481710033673366e-01 -9.120409889424735406e-01 -5.328309973827509705e-01 -6.768457933551408345e-01 -6.690298504407422575e-01 1.383060979643135902e-01 2.980849583261789837e-01 2.614599035879753286e-01 -2.522460123907419721e-03 -4.049219000469671953e-02 1.972794612388627800e-01 2.136170729198564322e-01 -1.414968801522936970e-01 2.249403459860855048e-01 1.459651542389946710e-01 -6.385639716553845324e-02 -3.802690568897201251e-01 3.925752462599871317e-01 -3.940393056213546408e-01 2.197800626906742383e-01 3.548146485361696745e-01 1.826163776259673577e-01 3.508013819819220946e-02 -3.793530483121589914e-01 -5.292256184113384165e-01 -5.687374396762538975e-01 -5.349014437580152936e-01 -6.928854461746591920e-01 -3.793530483121589914e-01 -7.196127218352543764e-01 -6.241161436044304622e-01 4.120634246337830375e-01 3.186952883825721478e-02 -9.726073474539112529e-02 4.099758365494008544e-02 1.456522225142077021e-01 -3.793530483121589914e-01 -5.292256184113384165e-01 -5.687374396762538975e-01 -5.349014437580152936e-01 -6.928854461746591920e-01 -3.793530483121589914e-01 -7.196127218352543764e-01 -6.241161436044304622e-01 4.120634246337830375e-01 3.186952883825721478e-02 -9.726073474539112529e-02 4.099758365494008544e-02 1.456522225142077021e-01 -4.073125051404058450e-01 -3.935248712498237711e-01 -3.972289898081284298e-01 -4.910844582423270488e-01 -5.906933768969241383e-01 -4.073125051404058450e-01 -7.203836302600192809e-01 -4.466097517147080143e-01 3.231060343562242032e-01 2.139482720459039700e-01 -2.452088920134178063e-01 -2.328318183114646556e-01 2.317136296431830111e-01 -5.024451452653555528e-01 -6.524849147524771631e-01 -6.146841205839113087e-01 -6.590089997143696587e-01 -7.074084543037499895e-01 -5.024451452653555528e-01 -8.308686699285302568e-01 -6.461215233038296590e-01 5.422639258794725858e-01 1.761673988035756533e-01 -2.116067543100503823e-01 1.930810731937831481e-01 -1.936278551572156725e-01 -6.384373983188305068e-01 -6.816039335955780265e-01 -7.038626081667267442e-01 -6.518063918602259310e-01 -7.364341839499158882e-01 -6.384373983188305068e-01 -9.060003046767798329e-01 -7.048741276739683981e-01 4.876325259865078032e-01 3.510774926215761149e-01 -2.787899754140009678e-01 -5.804975262785191936e-02 -1.004622237458447642e-01
2.398706758071951495e-01 -2.078550074164900799e-02 -1.195565525615031044e-01 -6.049132476954197646e-01 -4.093659658710797067e-01 -4.184969388180413419e-01 -6.319644649191549224e-01 -4.180952751225734398e-01 -4.232754716086585267e-01 -5.035054976235825430e-01 -2.804945926260531408e-01 -5.493631722118175187e-01 4.601801148987244572e-01 3.717782696107165274e-01 3.591216972105725214e-01 -4.695961945411444849e-01 -8.753367427784304322e-01 -8.966830123372797612e-01 -7.638227888898557749e-01 -6.976510871108009271e-01 -5.564723036450365257e-01 -5.143874456783439353e-01 1.712575826074282798e-02 -7.148547053138572249e-02 3.989770076418616696e-02 -8.808142544514520333e-02 5.071451045455095891e-04 2.299214554810941891e-01 -1.193893084864707105e-01 -2.074228951533098886e-01 2.364350558674485347e-01 5.976208921262330526e-02 -3.102015426618547414e-02 -2.363543058958899601e-01 3.151252999755592143e-01 -2.325527202062238064e-01 4.005554824265617625e-02 4.099895978702790267e-02 -1.077721732429344909e-01 2.782396072297788625e-01 5.213637795092936900e-01 1.093647958292067179e-01 -1.064063497613511600e-01 -9.662876157188892146e-01 -9.685298407537132892e-01 -9.651152567695063800e-01 -9.656389396651264834e-01 -9.675284579880442104e-01 -9.660341929107991721e-01 4.620635485358188244e-01 8.759396097661729941e-02 -1.069561257206239624e-01 5.414213500972622217e-01 1.262499727523872239e-01 -1.127200726788954166e-01 9.228035720215303772e-02 2.123612266114350833e-01 -4.472182112325638892e-01 -7.840538571549779956e-01 -9.661672712574922439e-01 -9.680297562593227489e-01 -9.648351524849796412e-01 -5.588098321031406135e-01 -8.906766455381590619e-01 -9.118601100589263098e-01 5.206790910601537536e-01 -5.747148687725350813e-01 6.277583549429153198e-01 -1.468339896102192343e-01 1.529293802983888173e-01 -2.171831481783558504e-01 3.033263497002942066e-01 -2.737787766847051274e-01 3.356111953591613961e-01 -3.965524817596372542e-01 4.539361422037903049e-01 4.360618375383168432e-01 3.044598526892812185e-01 5.425288734051569861e-01 7.780010186449668602e-03 -2.645421593221025311e-02 1.793509265095953598e-01 -5.480759195875603007e-01 -4.649387340704730365e-01 -5.587742470940247896e-01 -5.130461177512697368e-01 -4.333594372867271560e-01 -5.554785322289195193e-01 -6.793440670143693350e-01 -6.989073130537475365e-01 -6.387207403512449311e-01 5.840389674640908968e-01 6.249400535422029446e-01 4.633185133858627180e-01 -4.767272724422029206e-01 -8.329242209672040875e-01 -7.742258315134429303e-01 -8.410119707383145737e-01 -4.878879689595768676e-01 -5.256989994234637642e-01 -5.765043158608027518e-01 1.631008637824139240e-01 1.176539643497280657e-01 1.772050204226147119e-01 -3.500433038697807475e-02 1.944292728539259718e-02 2.313872822922126704e-01 2.034437571661159294e-01 -2.673484921295349870e-01 1.829756009996220123e-01 2.875868565935816856e-01 1.618279396376512691e-01 -2.919245662521826601e-01 3.338845262398346669e-01 -1.429679118604244015e-01 1.110184309119382068e-01 5.448325266309182562e-03 1.026577804949481004e-01 2.955197810830147986e-01 -6.776232989846203703e-02 -6.004957239259191976e-02 1.379870890130689975e-01 -6.958415847246692820e-01 -5.292128122530361800e-01 -6.136723006460907959e-01 -6.844365011786389674e-01 -5.724660081162740166e-01 -6.086760108058059116e-01 -6.650459504288864787e-01 -5.026118165124815462e-01 -4.041415111296138840e-01 6.168122926698476061e-01 6.229987334937329146e-01 6.337946423938688456e-01 -5.236450195497441840e-01 -9.326290386313360603e-01 -8.318027515383371595e-01 -8.913995244119310435e-01 -6.571043517117514110e-01 -6.620415372497860940e-01 -6.704694849040931937e-01 -4.934431840405757025e-02 4.030113171951839150e-03 1.076981907137316563e-01 -9.266536655134767486e-02 6.696982850472817106e-02 9.892330997710850615e-02 1.717965012827440685e-01 -1.346568677280808590e-02 1.291008470011469900e-01 1.215098649623033884e-02 2.275192483101790841e-01 -1.550578224788181358e-01 1.895298014711746248e-01 -2.791208037296933897e-01 5.082303251759299201e-01 5.800808087989075434e-05 1.290536464196612165e-01 -6.919982781549005590e-02 -2.411784294251315131e-02 6.335582444984918030e-03 -3.892849405302188388e-03 -6.119467003024899876e-01 -5.118731902093958119e-01 -7.056199258276412145e-01 -6.360565199483511067e-01 -5.443501024272359157e-01 -7.114971200065822732e-01 -6.441105987197403016e-01 -4.812483052923436366e-01 -6.960400984053322082e-01 5.927668432809062304e-01 6.258025856302011913e-01 7.756196044656235022e-01 -6.061617714946514468e-01 -8.833095706908830058e-01 -8.094652379525011376e-01 -9.328805457548432489e-01 -7.061514727684081727e-01 -5.747040857943381820e-01 -7.445780214849179179e-01 2.308210145709787275e-01 2.523961262791715732e-01 1.694631493783759768e-01 -6.406884849139765636e-02 2.088394813605788658e-02 5.366593505807292983e-03 3.595205262442519034e-01 -5.539969084397819432e-02 2.338300180558482433e-01 1.625628184396592513e-01 1.303144532215515516e-01 -2.089844073973837202e-01 2.443846047145424027e-01 -2.738593605445654999e-01 1.760396693708374261e-01 1.180278847100165590e-01 8.936918342741093091e-02 -2.836585350850486797e-01 -4.777829005866879308e-01 -5.732272498892720947e-01 -6.238474938946185766e-01 -4.858591655558514022e-01 -6.738737966318858463e-01 -4.777829005866879308e-01 -7.877298173513839208e-01 -6.937493061814428152e-01 3.475038970388403814e-01 -5.200204721999639873e-02 5.287174465199505347e-02 1.116366513052740594e-01 -2.684308825188150838e-01 -4.777829005866879308e-01 -5.732272498892720947e-01 -6.238474938946185766e-01 -4.858591655558514022e-01 -6.738737966318858463e-01 -4.777829005866879308e-01 -7.877298173513839208e-01 -6.937493061814428152e-01 3.475038970388403814e-01 -5.200204721999639873e-02 5.287174465199505347e-02 1.116366513052740594e-01 -2.684308825188150838e-01 -4.943394484287843560e-01 -5.005928065626301660e-01 -5.217973124527401918e-01 -5.540414112273934766e-01 -6.604099962554292880e-01 -4.943394484287843560e-01 -7.912820181640198847e-01 -5.924954192971343403e-01 2.331865956791412398e-01 9.896712476334085240e-02 -4.196541798865242325e-04 -2.361437681861565940e-01 3.275444524537433205e-02 -5.398108827866706649e-01 -5.798855031863296983e-01 -5.833084817063837191e-01 -5.428581279663036163e-01 -5.644441526092442984e-01 -5.398108827866706649e-01 -8.342025726483836001e-01 -6.728715998880459015e-01 5.134514473693559955e-01 3.373435756627283233e-01 -3.707910678052781517e-01 2.521353422179428150e-01 -1.398415901068382483e-01 -5.779119871380443696e-01 -5.257517339994983718e-01 -5.936862924669980002e-01 -4.997188778759210082e-01 -6.191922851793421056e-01 -5.779119871380443696e-01 -8.408931713391717411e-01 -6.422357182272133702e-01 4.181071673097269126e-01 3.176791238186817967e-01 -4.594568301954350398e-01 7.526313101775529424e-02 1.436982254356053146e-01
