2.625309890867616458e-01 -1.825734501438792262e-02 -1.074358717285174014e-01 -6.941555883534487048e-01 -7.247451439299206211e-01 -7.718118703238349143e-01 -7.102765750113494425e-01 -7.348654508695596776e-01 -7.726058247250907618e-01 -5.817849818602270906e-01 -4.212014822900876920e-01 -5.967497320030514807e-01 5.989840454270651815e-01 5.221532703623322780e-01 7.294628822231995491e-01 -6.965211039648282476e-01 -8.261546525320899725e-01 -9.556374976930452902e-01 -9.272461509115832445e-01 -7.694825908986135943e-01 -7.980784095455623062e-01 -7.876705496165384845e-01 -1.384298394380908404e-01 -2.157695522804656818e-01 -2.803806999835730673e-01 -8.919850243361834852e-02 7.827815434711284104e-02 -2.305037371336647947e-02 7.684059967409676006e-02 -1.919079082957801186e-03 7.466242544052653640e-02 7.391390608404198315e-02 4.828696474332333510e-02 1.044003237477438978e-01 -4.319310893073831717e-03 6.187310010102414076e-02 -1.275603379402890925e-01 4.710685923769176650e-03 -3.132379524922722647e-01 -1.589288882248549306e-01 1.673588177388086740e-01 3.893347757854433988e-01 2.030055551629571520e-01 -9.538093554988122946e-01 -9.595765105745198698e-01 -9.316045551092240196e-01 -9.544878481263064929e-01 -9.597981638362800272e-01 -9.330910447434641597e-01 1.127684053676060033e-01 3.638317412367036985e-01 2.098124837780796781e-01 1.878775089114264329e-01 3.998946131948474259e-01 1.900359897003955079e-01 -2.508311691806292543e-01 -2.097033312529474058e-01 -2.195230211394739450e-01 -6.083384646607680191e-01 -9.555921678374925676e-01 -9.614459553734110431e-01 -9.351340012430150450e-01 -6.218220339719469081e-01 -7.109216116521751561e-01 -6.684016141168226399e-01 5.864553822185961662e-01 6.539456960300290556e-01 -2.657207859759296298e-01 2.445983444948784113e-01 -2.728292380065552303e-01 3.213485286364293203e-01 3.482143479394224084e-01 3.827772000371316707e-01 -5.755136751851586824e-02 -4.776757303159082646e-01 -3.400634853240797062e-02 6.672733531313151945e-02 -4.444383519232269347e-02 5.275476155024125258e-02 -7.183417226346733298e-01 -7.440727965076305850e-01 -8.219454383194665370e-01 -7.142379657885256083e-01 -7.422949989756086886e-01 -8.175694165361577781e-01 -7.154447381040033305e-01 -8.269369787103940661e-01 -8.504360516510908186e-01 7.237572801996676741e-01 7.844924435786365668e-01 7.980193019379654418e-01 -7.435613513291661203e-01 -8.520954940876106498e-01 -8.925558334638081792e-01 -9.449509989660355158e-01 -7.013115140175292250e-01 -7.944828237650910507e-01 -8.249541232347388231e-01 -2.069620424395286484e-01 -2.395769447623884163e-01 -2.387480458309411691e-01 -5.371285008061435495e-02 1.580956292630046889e-01 1.245900512212353983e-01 8.160766503887094403e-02 -5.987912801703623028e-02 1.603337893980510409e-01 1.775904430671260137e-01 2.622879913173603583e-01 5.870167326281278825e-02 1.170624888692754634e-01 5.004484972227557504e-02 1.797025323963232224e-01 -8.158633053254220335e-02 -1.616387643106322325e-01 -9.547347249518006729e-02 -6.681778307465639777e-02 -4.235957809878006242e-02 1.162007685662044126e-01 -7.716237271884628379e-01 -8.129832531663133688e-01 -7.019218222019439901e-01 -7.713251193886354606e-01 -8.216503748496968296e-01 -7.231917887372730780e-01 -7.264607800280188377e-01 -8.283682390422323349e-01 -5.328870957885080140e-01 6.529937389440068074e-01 7.988539163951204891e-01 5.643143953506281063e-01 -7.030124917303166576e-01 -9.104433360119629226e-01 -9.495574422057766473e-01 -8.567628798232072018e-01 -7.711885105545110974e-01 -8.326432198128260742e-01 -7.599371049634005004e-01 -7.691721573684348612e-02 -2.680281311833128052e-02 -4.279004688058572758e-02 -1.681292797841973663e-01 1.230047549277301228e-01 1.233229529198677232e-01 -8.898294667780122513e-02 -1.623882449051133881e-01 1.708155941672559186e-01 -7.602451141215355035e-02 1.483255623065668771e-01 -1.039318132226196290e-01 9.939022313481486737e-02 -7.278820578004714659e-02 1.659806224015358267e-01 -2.842915618938339772e-01 1.879430362738476745e-01 -2.043355431617426554e-01 -7.690928244976906469e-02 -9.208582301451673224e-02 -9.067150307123277020e-02 -8.254081250179274853e-01 -8.635680831095087218e-01 -7.727160149401579581e-01 -8.233142454323070236e-01 -8.702508359878720068e-01 -7.927097145323959149e-01 -8.241248610322107204e-01 -8.841314599229077587e-01 -6.897874006177709960e-01 8.429545891791870860e-01 8.727419212841217577e-01 8.330575647371922798e-01 -8.400578957602290453e-01 -9.541552966069772879e-01 -9.722900793586988222e-01 -9.055522487395150089e-01 -8.047970425006113482e-01 -8.813900862434703720e-01 -8.304113441978703269e-01 -8.527282911123680587e-02 1.788407233955160297e-02 -1.128868379045075143e-01 -1.637981968942352207e-02 6.207748832462044175e-02 1.686816844818494199e-01 1.972125113900864979e-01 -1.203604438706093321e-01 2.355035282603445690e-01 1.083938561351644458e-01 4.011463130291659934e-02 -3.843068675338973117e-02 1.117158736037517919e-01 5.339086468090705612e-02 4.061681379739877362e-02 4.022153113085204929e-02 4.945318577902340501e-02 -1.143807119606537331e-01 -6.886084646786951868e-01 -7.036404881588899096e-01 -7.404645008247765503e-01 -6.772056353174386034e-01 -9.003250927301952311e-01 -6.886084646786951868e-01 -8.259543476207581447e-01 -7.747115083429831905e-01 2.772040317930426351e-02 -6.891458101715772569e-03 -2.351001964232629637e-02 9.307686829230091274e-02 -9.259576932604303423e-02 -6.886084646786951868e-01 -7.036404881588899096e-01 -7.404645008247765503e-01 -6.772056353174386034e-01 -9.003250927301952311e-01 -6.886084646786951868e-01 -8.259543476207581447e-01 -7.747115083429831905e-01 2.772040317930426351e-02 -6.891458101715772569e-03 -2.351001964232629637e-02 9.307686829230091274e-02 -9.259576932604303423e-02 -7.459330029162436482e-01 -7.193028155503879972e-01 -7.334962578233963360e-01 -7.193611413668291599e-01 -8.007065962789784441e-01 -7.459330029162436482e-01 -8.743778282773148058e-01 -7.670043750016832806e-01 -1.991906222907363633e-01 1.360978145910761161e-01 -5.616731049323834407e-02 -1.542731207342137867e-01 -1.462511385130079063e-02 -7.051050340929153615e-01 -7.416216013702662258e-01 -7.130272103556888341e-01 -7.768481750183069412e-01 -7.945347048541540058e-01 -7.051050340929153615e-01 -8.727749387656402735e-01 -7.102515254788116517e-01 2.604714874477456199e-01 1.458820715772857733e-02 -1.262561621226811481e-01 2.241860130521576011e-01 -1.798152178281338387e-01 -8.402860872962578664e-01 -8.458226559392291177e-01 -8.551941655690166177e-01 -8.450847039868618626e-01 -8.747974808037934924e-01 -8.402860872962578664e-01 -9.593508043977567734e-01 -8.565092411134558326e-01 1.173792098318236637e-01 2.233662278232299570e-01 -1.110348528218433467e-01 3.135671573039089388e-02
2.692114600669676672e-01 -1.746802116251066142e-02 -1.097072425134537621e-01 -8.685793606858198679e-01 -8.015427442775561184e-01 -8.749918210133686980e-01 -8.776456617146137784e-01 -8.081388966929327067e-01 -8.780012152169637263e-01 -7.910704625003387447e-01 -4.751251651694229916e-01 -7.339041385350011382e-01 7.259682467074694001e-01 5.587918578181727547e-01 7.643993045258403729e-01 -8.407524141800500894e-01 -9.627275535796484540e-01 -9.678093788813008080e-01 -9.753050713705483377e-01 -8.951785202727692292e-01 -8.596109756624842335e-01 -8.893379379358496983e-01 -1.933959920973827296e-01 -2.690519753085258148e-01 -3.283314794228020528e-01 -1.019173284851189465e-01 1.031167243553555435e-01 -3.155833045419501742e-02 2.797848633943457106e-02 8.652111913431321556e-04 6.919921660771302663e-02 6.346615153865881043e-02 4.669043555713415367e-02 7.024463938475879188e-02 -7.749985846427399558e-03 8.834026099682648625e-02 -1.226166316315526056e-01 8.902099589307127525e-02 -3.680817207698817706e-01 -2.134992924353833199e-01 2.312852629289685949e-02 4.694164450708614433e-01 2.706539482752204351e-01 -9.573671788604893873e-01 -9.660839448139497687e-01 -9.628273817196708606e-01 -9.584168290794164990e-01 -9.662349978101635317e-01 -9.644795022146929186e-01 -3.203108305104298420e-02 4.403495522031462550e-01 2.689824330066127867e-01 4.815388404100243852e-02 4.801763664026579281e-01 2.637940472389567192e-01 -1.615240858739577234e-01 -4.085589795177060890e-01 -1.107977807602935211e-01 -5.036843238961121738e-01 -9.603810004918974519e-01 -9.680648721880464880e-01 -9.682520687102355028e-01 -5.945652965532352008e-01 -6.778558926417468378e-01 -6.625021835871536258e-01 5.755473355724054496e-01 6.226178308406404849e-01 -2.931170274461482594e-01 2.634585951338884180e-01 -2.807401928132469138e-01 3.177343940484645968e-01 3.784447325616931423e-01 4.028312104385093906e-01 1.892312801958328794e-01 -4.764853675519389875e-01 -2.348926661529780191e-01 8.520318249448129155e-02 3.068564848595748545e-03 1.298211235350205800e-02 -8.761915834854430152e-01 -8.404993993846084921e-01 -9.302543867245148812e-01 -8.778422966477276157e-01 -8.409297903430394960e-01 -9.277951526489168765e-01 -9.102781265340254002e-01 -8.953495910281815684e-01 -9.420866092393628266e-01 8.445770505256848804e-01 8.542423533798783053e-01 9.195188487738744643e-01 -8.798941642106609118e-01 -9.633833205494649610e-01 -9.449517747304592152e-01 -9.905892672951828182e-01 -8.806758730626406129e-01 -8.793975035475760649e-01 -9.284986999855179279e-01 -3.094892414919747092e-01 -3.415109350283943579e-01 -3.927649123096195738e-01 -4.893256750476365075e-02 1.971865667683598278e-01 1.439892383231510531e-01 9.046247875210094991e-02 -4.569609048469693707e-02 1.581511833553602975e-01 1.734818910887437615e-01 2.515412808267888933e-01 2.423815461324979256e-02 7.797250737413989607e-02 2.403505804982991600e-02 2.025807451855621000e-01 -1.027794302821352507e-01 -1.445176704396140821e-01 -1.021748844039550991e-01 -2.062074817666520801e-02 -6.093271931728958674e-02 1.289007153743675360e-01 -8.756202946056699243e-01 -8.836577799057384608e-01 -8.689279150058645262e-01 -8.805879707264413492e-01 -8.867377260498445768e-01 -8.753258088111794955e-01 -7.616568554870000174e-01 -8.857711257008096251e-01 -6.400215028341278423e-01 7.599904821656880971e-01 8.441670368781837297e-01 7.313129477255577715e-01 -8.320928059975893909e-01 -9.717339167600353989e-01 -9.782581830962246983e-01 -9.666784366011231810e-01 -8.854891849022337169e-01 -8.902406846633449389e-01 -8.942356356510697823e-01 -1.271563567628564706e-01 -8.421837464353729152e-02 -1.352066559757958419e-01 -1.893310938294286150e-01 1.762559523770884373e-01 1.189653295694855818e-02 9.998129933132718361e-03 -1.667001916715536436e-01 1.560896509707634938e-01 -1.691191571140553129e-02 6.861621394017190789e-02 -2.667080595256160133e-02 2.691600417029632597e-02 5.407246621430292742e-03 9.190949199117318114e-02 -3.076059979832825864e-01 2.029280030081425934e-01 -2.304502730423644563e-01 -1.156411994036631308e-01 -3.734888245669880369e-02 -6.299517579192202843e-02 -8.899920371647952466e-01 -9.344145762936946209e-01 -9.050051708321361632e-01 -8.973086773192755494e-01 -9.393312773870647892e-01 -9.135827319757234832e-01 -8.783687291419575160e-01 -9.416394693032069663e-01 -8.851827587537987041e-01 8.883121521784640429e-01 9.420606391259486179e-01 9.242451510736777731e-01 -9.224035199073213898e-01 -9.774909693124606003e-01 -9.937256005650593194e-01 -9.827964759930191141e-01 -9.099872406503737299e-01 -9.448495957191160866e-01 -9.315447761554866979e-01 -1.934718766314369731e-01 -6.284994875749774779e-02 -1.926604682590069006e-01 -5.117207052033346387e-02 1.236215126969714140e-01 1.143769870581323178e-01 1.634680542640629952e-01 -1.114403609429322900e-01 2.303273025464510626e-01 1.290997451934527140e-01 1.126476457183275270e-01 5.312722237506199707e-02 7.341437537808133407e-02 1.103013817282650494e-01 8.294220672831645325e-02 4.773859304881184623e-02 6.298447142497046181e-02 -1.067130276094762076e-01 -8.403107040446157194e-01 -8.507746310873041118e-01 -8.699052366953565762e-01 -8.396213578901664532e-01 -9.419787970542867761e-01 -8.403107040446157194e-01 -9.479622168563084372e-01 -8.916327270439331487e-01 -9.868499477814861309e-02 2.751819441695250220e-03 -1.232726121556158155e-02 5.038991566465231969e-02 -8.422897459238129492e-02 -8.403107040446157194e-01 -8.507746310873041118e-01 -8.699052366953565762e-01 -8.396213578901664532e-01 -9.419787970542867761e-01 -8.403107040446157194e-01 -9.479622168563084372e-01 -8.916327270439331487e-01 -9.868499477814861309e-02 2.751819441695250220e-03 -1.232726121556158155e-02 5.038991566465231969e-02 -8.422897459238129492e-02 -8.803087271261960112e-01 -8.583990563674688268e-01 -8.725536004145586499e-01 -8.589236133895378211e-01 -9.192198261350821298e-01 -8.803087271261960112e-01 -9.635630446354940259e-01 -9.036666258366162774e-01 -3.607750890065139493e-01 1.578375896310729998e-01 -5.513580675910881995e-02 -2.097819985467612447e-01 1.064159143121435301e-02 -8.353229788520891708e-01 -8.506669202856549372e-01 -8.374677616737211672e-01 -8.606312481968484418e-01 -8.760639391920327368e-01 -8.353229788520891708e-01 -9.594556184680151922e-01 -8.484209470671125741e-01 3.128923033287112077e-01 2.489632143295583341e-02 -1.389093114032657061e-01 2.362092076702507204e-01 -1.860634366199938883e-01 -9.214464329023741573e-01 -9.149199222950327171e-01 -9.229107478417475363e-01 -9.158354626624066741e-01 -9.260366106266613162e-01 -9.214464329023741573e-01 -9.888494114386339184e-01 -9.310381374122200793e-01 -8.892799375204265069e-03 2.523764955282963851e-01 -1.182066567167475019e-01 7.115964180429766583e-02
2.736132004044030119e-01 -1.545451408051294086e-02 -1.108965305833434362e-01 -9.433828660193677162e-01 -9.246420780332930134e-01 -9.390864883617394687e-01 -9.480853441854993902e-01 -9.276380779342462413e-01 -9.410178584396832191e-01 -8.768288802033211704e-01 -5.276752274236490292e-01 -7.765322464886527110e-01 7.914375931261803387e-01 6.498770790168987288e-01 8.065103750706607011e-01 -9.307588360735647992e-01 -9.887885277355705771e-01 -9.944289554816584387e-01 -9.924365589486797701e-01 -9.560178419136614592e-01 -9.451409190329294052e-01 -9.450372258044554830e-01 -2.953774281163675242e-01 -3.890560008959154659e-01 -4.113715231160755548e-01 -2.195591573386856607e-02 5.054217164905244752e-02 -2.725741308128146190e-02 5.593439031320240895e-02 6.346818782630798961e-02 1.292945409439981083e-02 9.643127384025414195e-02 3.569711007825359522e-02 1.450905223937734301e-01 -4.525928972313134069e-02 9.810357017118782885e-02 -1.161695449868335867e-01 1.458240722979390613e-01 -3.922441888817770339e-01 -2.218515135708285513e-01 -1.252819332606320002e-01 5.481426919797752761e-01 2.565282628155072242e-01 -9.618179972606639705e-01 -9.737255055208193788e-01 -9.698185893796034129e-01 -9.628298667215275941e-01 -9.739912071253431503e-01 -9.707594562604775490e-01 -1.816859140113101512e-01 5.143914879371469517e-01 2.530852705011106818e-01 -9.571746519045352952e-02 5.600625443774436274e-01 2.514682262637511490e-01 -1.286015626261600431e-01 -5.993162501049384971e-01 -7.708013800312002450e-02 -3.394764358368976276e-01 -9.653142087810163696e-01 -9.752502693962219471e-01 -9.728843041020582838e-01 -6.239395329624446429e-01 -6.556945480908228374e-01 -7.164954904453205708e-01 5.561256477554811228e-01 5.923179189368416031e-01 -2.782093599485482849e-01 2.405566217014721564e-01 -2.504987895723088664e-01 2.808322668550757850e-01 3.409394258709704251e-01 3.631094026742149317e-01 8.152091091321440885e-02 -4.936025879817638740e-01 -1.393861158723515570e-01 7.213664539319626645e-02 1.042306382009198368e-02 3.591279049797299703e-03 -9.480725991305073430e-01 -9.382675180963709893e-01 -9.593033293770349967e-01 -9.499070637663339367e-01 -9.376308614257213847e-01 -9.596333136767484229e-01 -9.530461246463715064e-01 -9.542828568143465473e-01 -9.618355935546475388e-01 9.334673641917090592e-01 9.478771502859830722e-01 9.465627389098638655e-01 -9.491442623172806625e-01 -9.880006567236874204e-01 -9.882883254309094978e-01 -9.953864915793805279e-01 -9.509933889183028732e-01 -9.493082479572735322e-01 -9.628151639163933240e-01 -4.840531047372900186e-01 -5.175190847957985563e-01 -5.328540469347475828e-01 1.797327178472456904e-02 2.029580808518051394e-01 1.217535565405697545e-01 1.400013663847610723e-01 2.021151216559818886e-02 1.279687251453542063e-01 1.901203444219130567e-01 2.806157079413125199e-01 8.734715068576376362e-02 8.446579888077633547e-02 4.464282996031205403e-02 2.349523778172779576e-01 -5.913440099054032006e-02 -1.111592233377754341e-01 -1.090268084904367080e-01 -1.947819947392103943e-02 -7.115441132084845965e-02 1.192326646757879416e-01 -9.487677817558193283e-01 -9.416616995738331664e-01 -9.336641590727610129e-01 -9.525881697585486529e-01 -9.466916460219854113e-01 -9.374507652305029692e-01 -8.312083547197920419e-01 -9.152789917826903432e-01 -6.905386432207814007e-01 8.066802878690233491e-01 8.753529517140757887e-01 7.874649432603149091e-01 -9.173027936954935013e-01 -9.937799019711461845e-01 -9.937620116240347690e-01 -9.851380549619311866e-01 -9.589392135600939282e-01 -9.539551170643418843e-01 -9.471594534230736162e-01 -2.208517315533247982e-01 -1.954268787672798491e-01 -2.542773482514788519e-01 -1.238992088980729045e-01 1.146656310079724461e-01 4.951361090611438448e-02 1.668431183494063774e-02 -1.151496415854450089e-01 1.293874855310369332e-01 -1.632009306285567632e-02 8.301212135099436673e-02 8.599744054684169137e-02 -5.636357855829323554e-02 6.608373045770848941e-02 9.487986047873936402e-02 -3.446911229332541016e-01 2.339371922573020013e-01 -2.541189538540780113e-01 -1.015978088171806820e-01 -3.902361891875200800e-02 -6.452824197102480230e-02 -9.519589453589227812e-01 -9.606776782039357920e-01 -9.581723550354669383e-01 -9.560090153269812374e-01 -9.651115554940565833e-01 -9.620705542729099946e-01 -9.458167035505555820e-01 -9.614045501948659256e-01 -9.462633562526298059e-01 9.499935475734800905e-01 9.637968320707933634e-01 9.638059599828721069e-01 -9.625535368875783870e-01 -9.946437371531100524e-01 -9.971268374328323691e-01 -9.953511257175329252e-01 -9.616069444771586650e-01 -9.706562346658508256e-01 -9.669622275631122310e-01 -3.147205012094974608e-01 -2.012845097498381919e-01 -3.586465207126570132e-01 2.465027897724641429e-03 8.824443341370404037e-02 1.201634013154361524e-01 1.743152997554239247e-01 -6.720376717015209833e-02 2.368940770236461768e-01 1.377447679039463524e-01 1.396830366559353998e-01 1.607197146374331476e-01 1.605976111213995236e-02 1.780167964279009696e-01 9.122898597053978598e-02 3.760914160953071628e-02 1.300322403500333845e-01 -1.368167452638990034e-01 -9.304662066787825481e-01 -9.299791429347109561e-01 -9.395123017322035697e-01 -9.237999173743147718e-01 -9.760106096467188186e-01 -9.304662066787825481e-01 -9.865712184669223062e-01 -9.494441710798866563e-01 -2.686959779810934035e-01 4.431953735779340514e-02 -3.946200469438107539e-02 6.583440865541234643e-02 -1.116373575851873079e-01 -9.304662066787825481e-01 -9.299791429347109561e-01 -9.395123017322035697e-01 -9.237999173743147718e-01 -9.760106096467188186e-01 -9.304662066787825481e-01 -9.865712184669223062e-01 -9.494441710798866563e-01 -2.686959779810934035e-01 4.431953735779340514e-02 -3.946200469438107539e-02 6.583440865541234643e-02 -1.116373575851873079e-01 -9.498093033115321271e-01 -9.392871887954153953e-01 -9.453283261541074456e-01 -9.360472676864330932e-01 -9.604200072998595461e-01 -9.498093033115321271e-01 -9.890159352688544514e-01 -9.562260390515877617e-01 -5.435411210347570465e-01 1.934803222363981889e-01 -9.595488703669662056e-02 -1.898948534915243791e-01 -5.875215660011151239e-03 -9.191454214776721976e-01 -9.147337709575861231e-01 -9.081653448508874016e-01 -9.231057533329753984e-01 -9.402914471866287149e-01 -9.191454214776721976e-01 -9.885708079571575713e-01 -9.170322010077823771e-01 1.684670094770326920e-01 5.151394005102554602e-02 -1.495046008255882797e-01 2.401725352456476059e-01 -2.122471977709265156e-01 -9.615283048409097866e-01 -9.545041236300401133e-01 -9.595244010807765234e-01 -9.531395354917381324e-01 -9.681117286416036638e-01 -9.615283048409097866e-01 -9.963625674513938435e-01 -9.659144339123374445e-01 -1.871053804579381752e-01 3.038161001478433820e-01 -9.040295917533298919e-02 5.426886019035995212e-02
2.733194579691528014e-01 -1.579675321526136447e-02 -1.099100387990222111e-01 -9.540120651596392110e-01 -9.391335429484723996e-01 -9.481942283385002002e-01 -9.576645096517913958e-01 -9.413886734586506266e-01 -9.493975088938330087e-01 -8.909637365309198698e-01 -5.353235685753227058e-01 -7.839936166087821956e-01 8.030658706219656606e-01 6.597998142491088291e-01 8.142696347184759098e-01 -9.423792388336752479e-01 -9.924223759570180992e-01 -9.960147669698184991e-01 -9.944894947388239759e-01 -9.635998266827657810e-01 -9.550469669852406085e-01 -9.518713247191206150e-01 -3.187647005262893574e-01 -4.391643564476025441e-01 -4.198232586372089847e-01 -8.076284723023664791e-03 3.406487441277202682e-02 2.004150138081561058e-03 6.448745473918114472e-03 9.275898365479384733e-02 -7.675902001536908693e-03 1.133729005201577766e-01 4.463862852806178838e-02 1.348744880413223490e-01 -3.967958783254523641e-02 8.295857593409025621e-02 -1.250921496317302650e-01 1.439736525257187538e-01 -4.069021440360011677e-01 -2.326375819288837021e-01 -8.619329477121730199e-02 5.535182008023761258e-01 3.224678617124708269e-01 -9.644164400358786748e-01 -9.776067823780103527e-01 -9.714407290454951660e-01 -9.652222909777565807e-01 -9.779551612892044554e-01 -9.722364632688785813e-01 -1.440367488097292481e-01 5.181073309002492966e-01 3.181717765236974360e-01 -5.639406973509720339e-02 5.658567637174335418e-01 3.179447908128500977e-01 -8.920745050074874172e-02 -5.368157304836858046e-01 -6.435643398672746818e-02 -4.191048716034657118e-01 -9.674725034891806796e-01 -9.791401417189138368e-01 -9.741546484225027669e-01 -6.415785484383418336e-01 -6.771013650659476468e-01 -6.928354271487585647e-01 5.475148407092512715e-01 5.793831893594847404e-01 -2.674094691077038011e-01 2.284268152223959958e-01 -2.377317531620891933e-01 2.677766957995552644e-01 3.548513589573634719e-01 3.738662143011616812e-01 1.386767944274008291e-01 -4.846293443025041503e-01 -1.788700914912934870e-01 7.336004265747669839e-02 1.038699311769115084e-02 2.013587779747407110e-03 -9.592113777556626752e-01 -9.501412961846106287e-01 -9.669102718290440990e-01 -9.606387497868964509e-01 -9.493703799604602533e-01 -9.669223327305238591e-01 -9.623633221033394136e-01 -9.629375735011216353e-01 -9.685733452036214830e-01 9.477723345059846372e-01 9.581847473184230690e-01 9.563093966496155618e-01 -9.595950147584169088e-01 -9.922259928027332698e-01 -9.919972909714561693e-01 -9.968889178666028306e-01 -9.609578024424207943e-01 -9.580909104801191845e-01 -9.687060408925231014e-01 -5.171272235935062689e-01 -5.524499386811199120e-01 -5.686290130280120536e-01 4.468974980662532293e-02 2.006822864238809179e-01 1.535791732632949824e-01 1.525035693578999929e-01 4.103875854293900782e-02 1.107738349027733021e-01 1.997689779777598873e-01 2.919783631605339935e-01 8.770629253903572398e-02 9.832905370022784752e-02 3.639549783025314983e-02 2.432445400145295811e-01 -8.565787536687996528e-02 -7.898615276733873813e-02 -1.132804333203624170e-01 -2.365215416918766550e-02 -7.944032067852835333e-02 1.110347684109453670e-01 -9.567187015875925349e-01 -9.482651030489731570e-01 -9.467503166444473095e-01 -9.597822732873235729e-01 -9.524061463371452652e-01 -9.499527426770083549e-01 -8.424683316835538394e-01 -9.221295718335076330e-01 -7.044996708912217853e-01 8.115669903041506927e-01 8.795659127419902523e-01 7.953997188044031885e-01 -9.302672411526847762e-01 -9.954530790578476340e-01 -9.951400760718437377e-01 -9.900490159974935089e-01 -9.646655809440690676e-01 -9.580798058375467052e-01 -9.581761692779161566e-01 -2.804882369878972659e-01 -2.289020505583304610e-01 -2.680506586406647407e-01 -1.233882785090593959e-01 1.100434055543185602e-01 4.806630867932801948e-02 3.747056966549049128e-02 -1.079716685994528552e-01 1.207439452547552500e-01 6.836409370018239028e-03 4.885095081114503718e-02 7.672099248480754308e-02 -5.526064106665599940e-02 6.334809599219567988e-02 7.364879815634908788e-02 -3.066557560455487885e-01 1.961716270812532970e-01 -3.071237485330055028e-01 -1.003733647082622471e-01 -3.750719553763616487e-02 -6.201248502759103276e-02 -9.610676780237834560e-01 -9.668424981546208663e-01 -9.663359333809268259e-01 -9.641352190053283922e-01 -9.706238370669230120e-01 -9.694121592552931155e-01 -9.561440584281126753e-01 -9.673553303088467947e-01 -9.567971326672626287e-01 9.594810398573767607e-01 9.694042666906114158e-01 9.706476710655201900e-01 -9.692133484344490624e-01 -9.962861406133994846e-01 -9.980134104182959431e-01 -9.968649476630645490e-01 -9.685018080154254028e-01 -9.752590540031685906e-01 -9.732673682859005471e-01 -3.528641961044335917e-01 -2.136170599323112262e-01 -3.848181259144349275e-01 -1.283133280119306977e-03 8.101978640539930776e-02 1.038200504765017795e-01 1.844643196220328851e-01 -5.292444972213474624e-02 2.392152765601540942e-01 1.547672897703527284e-01 1.759727570000650387e-01 1.582995363063919303e-01 2.197441736833016454e-02 1.734331471935534885e-01 9.139107583395790491e-02 2.750149242387630102e-02 1.178422506371313572e-01 -1.517031770784744160e-01 -9.423567198971295467e-01 -9.420229172185439204e-01 -9.494945434135303453e-01 -9.369078662671121993e-01 -9.804940112182684020e-01 -9.423567198971295467e-01 -9.907087820343721818e-01 -9.567405078570491161e-01 -3.088948832013890811e-01 4.270650005319192449e-02 -3.316196576417508590e-02 6.316600742746285302e-02 -1.242835228385489182e-01 -9.423567198971295467e-01 -9.420229172185439204e-01 -9.494945434135303453e-01 -9.369078662671121993e-01 -9.804940112182684020e-01 -9.423567198971295467e-01 -9.907087820343721818e-01 -9.567405078570491161e-01 -3.088948832013890811e-01 4.270650005319192449e-02 -3.316196576417508590e-02 6.316600742746285302e-02 -1.242835228385489182e-01 -9.600929333282319789e-01 -9.525981170301368595e-01 -9.573364783712028370e-01 -9.498821408675970357e-01 -9.663492584870603253e-01 -9.600929333282319789e-01 -9.927359724973245925e-01 -9.659628383059007950e-01 -5.895596187356738627e-01 2.048638570075212439e-01 -1.066382865308831418e-01 -2.134669873645882177e-01 1.690036293377949334e-02 -9.315809508320601617e-01 -9.259888522751094087e-01 -9.202793852816558706e-01 -9.341226741171088088e-01 -9.522476215443470560e-01 -9.315809508320601617e-01 -9.916951692189890366e-01 -9.277384926231052598e-01 1.321271564384428332e-01 7.823431810783065821e-02 -1.713720634815216470e-01 2.579424265006292627e-01 -2.360095227306207855e-01 -9.682710182273076560e-01 -9.623339807628217280e-01 -9.665062867689254711e-01 -9.612731999335645261e-01 -9.732153160517685864e-01 -9.682710182273076560e-01 -9.974945670020524124e-01 -9.718851523420954930e-01 -2.271893185763916023e-01 3.326867255860171957e-01 -7.555157568126634471e-02 3.259265557810853836e-02
2.758221103732544921e-01 -1.595537780209010242e-02 -1.092780536920229667e-01 -9.499700621518323285e-01 -9.320146085863141305e-01 -9.448287581330730989e-01 -9.545410976082514543e-01 -9.342021586457661675e-01 -9.448347009652069417e-01 -8.855188509021795218e-01 -5.334058353678275965e-01 -7.837491130244017556e-01 8.022304170098747411e-01 6.549398086143274345e-01 8.154998539422874115e-01 -9.380267125249798221e-01 -9.885484797592019035e-01 -9.937505738637857355e-01 -9.930466722837382187e-01 -9.633078800967589395e-01 -9.482452942351163871e-01 -9.446405639145557531e-01 -3.539970876016544366e-01 -4.582461364869660492e-01 -4.148302551959532347e-01 2.564925615015015842e-02 2.333139723137659521e-02 5.071404370013698343e-03 3.016619680437082618e-02 1.155928258563336808e-01 -2.787570088323483228e-02 1.298241982217397394e-01 4.554631328182072447e-02 1.224470794056635864e-01 -3.231006762714734581e-02 5.694481570054125974e-02 -1.071627924193148396e-01 8.465462976914948923e-02 -3.571818825137989539e-01 -1.493755573166166140e-01 7.674685558035820865e-02 4.770043318002198940e-01 2.497785795963873567e-01 -9.706130963535695155e-01 -9.789163235381550532e-01 -9.725564577192220561e-01 -9.710773183978617107e-01 -9.792812806024523420e-01 -9.732839361216811813e-01 1.618021429495535013e-02 4.428215586431234474e-01 2.456198123610738304e-01 1.056965360160397466e-01 4.903635770803293492e-01 2.454731556004139392e-01 -1.377286680735710644e-01 -3.381415121971938498e-01 -1.597845864110118419e-01 -5.315418776017309943e-01 -9.726026428851465289e-01 -9.805448048131391037e-01 -9.750855935212261461e-01 -6.833554815966584872e-01 -7.276554558456365118e-01 -7.076024821691658806e-01 4.928541338965728991e-01 5.297663894674778939e-01 -2.540772105972911588e-01 2.146816662390935437e-01 -2.244622619134221952e-01 2.553470838350114791e-01 3.764550096014752656e-01 3.945283418888636540e-01 7.968081420583464358e-02 -4.241025427287011818e-01 -4.916274445978196378e-02 6.921512985347674785e-02 3.590594263555678921e-03 2.545835526659229880e-03 -9.556428476009760642e-01 -9.429792830917466118e-01 -9.681509389007298960e-01 -9.564251915653646519e-01 -9.417987933998748229e-01 -9.673941340378072740e-01 -9.641299018826071654e-01 -9.597924587259812901e-01 -9.704381812783652306e-01 9.458070898521074854e-01 9.531064510568199033e-01 9.599179880705759338e-01 -9.559249022965095044e-01 -9.904765442802220266e-01 -9.864903236735037551e-01 -9.970693451939778296e-01 -9.558955536800830544e-01 -9.515871151740733502e-01 -9.676082294261121319e-01 -5.316907690101657646e-01 -5.673431632336218833e-01 -5.858203317813851507e-01 6.071890279527637768e-02 2.041575316540277796e-01 1.588981611745453881e-01 1.592078551723046242e-01 6.147904780518100021e-02 9.270367253465119917e-02 2.112413984414792945e-01 2.972434392248541890e-01 7.842989220789772786e-02 1.058546263351463901e-01 1.464110234909313073e-02 2.343520355146226364e-01 -8.459914181329646066e-02 -5.231677513008801961e-02 -9.862971761519853664e-02 -1.935019265089380283e-02 -7.723607652352688924e-02 1.010064901483110622e-01 -9.557479716446530826e-01 -9.494935309037038085e-01 -9.461539577301494308e-01 -9.588396715511817714e-01 -9.522889176328819261e-01 -9.488624356830502871e-01 -8.394060466615613780e-01 -9.239280850705969828e-01 -7.020093342280306903e-01 8.103043256196336142e-01 8.823475505615194781e-01 7.944089446440684155e-01 -9.322653991653969685e-01 -9.930912697285965152e-01 -9.942790388358714315e-01 -9.900930957527294130e-01 -9.631169626332233280e-01 -9.554701631624755720e-01 -9.570704886209594475e-01 -3.107134631487711851e-01 -2.290898890870204097e-01 -3.047316539430829363e-01 -1.215656873321468712e-01 1.021134683077244559e-01 6.257979049879452971e-02 4.194592607135867735e-02 -9.687498028048152632e-02 1.146517480648960169e-01 1.582716654627302740e-03 8.100846392658964112e-02 9.330349631143831923e-02 -6.527648503510344313e-02 6.026449088489330835e-02 1.047389056801247831e-01 -3.135962063653837673e-01 1.477029126021179584e-01 -2.805543978779173608e-01 -9.899179222238019271e-02 -3.965519389499014280e-02 -5.986320882004914079e-02 -9.569345129693311858e-01 -9.701647467408466285e-01 -9.634313851741647117e-01 -9.588246128253187228e-01 -9.732635143680656853e-01 -9.664127344510508033e-01 -9.565476664598138168e-01 -9.713599604382880948e-01 -9.565649316356231724e-01 9.546144567836416517e-01 9.729429206199750046e-01 9.658341572896270710e-01 -9.684162338597317454e-01 -9.936682094011851651e-01 -9.983727134284045013e-01 -9.950735119511551208e-01 -9.615563259407239327e-01 -9.769791581996279950e-01 -9.704256696364910173e-01 -3.740452341282021198e-01 -2.539971744870619941e-01 -4.001125967641871450e-01 -5.446552092172148724e-03 6.844112138782743049e-02 9.973011955292010455e-02 1.957876191420472589e-01 -5.003105321348901013e-02 2.351266598252073070e-01 1.403142622626917801e-01 1.938626764806871683e-01 1.686233243766245837e-01 7.134365170523481771e-03 1.713620375638064131e-01 6.182880012954762583e-02 1.222789391223272001e-02 8.773195261224969732e-02 -1.392152000593331329e-01 -9.375761518293592722e-01 -9.373878076799259107e-01 -9.443199542767559684e-01 -9.345465178631100489e-01 -9.797908565732031949e-01 -9.375761518293592722e-01 -9.861823590304591436e-01 -9.510931834242476457e-01 -3.409509180639963000e-01 4.989649909732907229e-02 -4.536211626047798040e-02 9.111479432381980326e-02 -1.447653336677137970e-01 -9.375761518293592722e-01 -9.373878076799259107e-01 -9.443199542767559684e-01 -9.345465178631100489e-01 -9.797908565732031949e-01 -9.375761518293592722e-01 -9.861823590304591436e-01 -9.510931834242476457e-01 -3.409509180639963000e-01 4.989649909732907229e-02 -4.536211626047798040e-02 9.111479432381980326e-02 -1.447653336677137970e-01 -9.561720894923531056e-01 -9.499481559762267269e-01 -9.541623998421344677e-01 -9.491655837900138115e-01 -9.663153991668044229e-01 -9.561720894923531056e-01 -9.905382880657018774e-01 -9.633835797553714775e-01 -6.117970851883361982e-01 1.991312843980449776e-01 -1.137590759823584319e-01 -1.875323242250910571e-01 7.532413662962406282e-03 -9.333264628649372563e-01 -9.313734401851735401e-01 -9.267060944390979049e-01 -9.373543556425952827e-01 -9.491574525220199954e-01 -9.333264628649372563e-01 -9.894698582676112464e-01 -9.351207191377234329e-01 5.838720622061554372e-02 9.888093546881010498e-02 -1.895378975717324499e-01 2.525332127066461929e-01 -2.121879325707879127e-01 -9.673616484915380509e-01 -9.637471479318940881e-01 -9.672667619389792026e-01 -9.627466454080039204e-01 -9.737156001983239273e-01 -9.673616484915380509e-01 -9.969446145707504536e-01 -9.721597526196132932e-01 -2.661560793602270047e-01 3.470953601389667464e-01 -6.525588219423855696e-02 4.547694181755624135e-03
2.747749577779461383e-01 -1.637532898194034997e-02 -1.083406941158616271e-01 -9.732740593247970473e-01 -9.547882393426719849e-01 -9.575570016779989535e-01 -9.755382344950380702e-01 -9.560875185618077365e-01 -9.573729587871653290e-01 -9.135426332632985424e-01 -5.449439158514868264e-01 -7.943185318886910595e-01 8.224967647493405254e-01 6.709656393942542429e-01 8.227344718095012110e-01 -9.604309355968965178e-01 -9.965493443323476530e-01 -9.977022749284190084e-01 -9.963460746799308598e-01 -9.787889786648015233e-01 -9.657663116628654176e-01 -9.579011923184050925e-01 -4.293923505694242637e-01 -5.009575229079341607e-01 -4.215066452159636490e-01 7.508757803451023005e-02 7.746778848475176574e-03 2.111732415430114460e-02 4.475932009495475761e-02 1.365436528866881549e-01 -5.508848026358954819e-02 1.548671554871145772e-01 4.157995227081863476e-02 1.240970149565211456e-01 -3.922555087160770754e-02 4.729715187263755505e-02 -9.717468549239358100e-02 2.185771737990798921e-02 -3.079465471748984995e-01 -5.155033665299359885e-02 2.773838353918478550e-01 3.747253885026277098e-01 1.666825210200396645e-01 -9.787370089549138896e-01 -9.818857617171633523e-01 -9.726250968278647990e-01 -9.790602756562225562e-01 -9.823545102973086918e-01 -9.734160128268294354e-01 2.131682102430118297e-01 3.423128016696118103e-01 1.631104169119455827e-01 3.050388296162441781e-01 3.901588945885398063e-01 1.623916181557334137e-01 -1.857716109060024157e-01 -6.701060030219957442e-02 -3.029416571474456421e-01 -6.663485778047407715e-01 -9.800468787534337700e-01 -9.838702914614686490e-01 -9.752863761237914320e-01 -7.691888044425445603e-01 -7.716531911669669563e-01 -7.302045221342606807e-01 4.306458858830974901e-01 4.749611692453598044e-01 -2.695285018550419576e-01 2.295822295703827398e-01 -2.376940318892627468e-01 2.664856820609718957e-01 4.002979746057293564e-01 4.161329360744803751e-01 1.893664105347357988e-03 -3.127552764654437656e-01 1.028136541363514761e-01 7.547868908928506704e-02 9.619583117463690811e-03 2.655004458192263732e-04 -9.739183436744082156e-01 -9.653035561906608830e-01 -9.775225843438294371e-01 -9.746730572411228533e-01 -9.643697953233748565e-01 -9.769076057647362310e-01 -9.753222882694655427e-01 -9.740416067114321397e-01 -9.789932404230720087e-01 9.676060145781808508e-01 9.706551923960740069e-01 9.704390988999538337e-01 -9.733430374673881502e-01 -9.965641149160840984e-01 -9.959936118583954112e-01 -9.985621938050869284e-01 -9.739258024600931929e-01 -9.693830348827735532e-01 -9.766977422344991222e-01 -5.935329159153874823e-01 -6.203408355370259031e-01 -6.298859506720304591e-01 9.033537913621655924e-02 2.111195524187832184e-01 1.808143452243647920e-01 1.759397383555967864e-01 8.149565914332539129e-02 6.578413570022111079e-02 2.146122729163037757e-01 3.209741569316577059e-01 8.321211396685591899e-02 1.029371766978837699e-01 1.748150782571669269e-04 2.346284819665268584e-01 -9.092363718638096781e-02 -3.033879583831191121e-02 -7.186179256428458506e-02 -2.865676208170352471e-02 -7.541921278807742213e-02 9.503757097827753020e-02 -9.659517670408235279e-01 -9.644480919866610380e-01 -9.641292941098684732e-01 -9.682545306489496184e-01 -9.678032047505342739e-01 -9.661954992826636834e-01 -8.556300411727425503e-01 -9.313019954982304505e-01 -7.255908175200997956e-01 8.177043084453748945e-01 8.918992316658094222e-01 8.051487205451304252e-01 -9.527569427090279985e-01 -9.969229403358966790e-01 -9.972329909441379758e-01 -9.956209632001392640e-01 -9.721389389996673014e-01 -9.724372545996252670e-01 -9.720799471954225668e-01 -3.644594783231149826e-01 -2.625483985751691507e-01 -3.332577063449040922e-01 -1.235158660602611869e-01 8.707024047549508095e-02 8.996694895893725397e-02 4.270019487938309100e-02 -8.551071869031356965e-02 1.006919294945692184e-01 9.090859723667292502e-03 1.040649750652114236e-01 1.084475385934940139e-01 -8.738034841060846047e-02 8.533955806673210187e-02 1.001594065522964094e-01 -2.733374888911493383e-01 5.944744355835857724e-02 -2.531124442276713182e-01 -1.005441472828198790e-01 -3.884844957018630807e-02 -5.643862485611154250e-02 -9.728304334289270550e-01 -9.775293168143154299e-01 -9.779335312039916239e-01 -9.744506353703751289e-01 -9.799973042057112949e-01 -9.796643121874497595e-01 -9.701699315561126413e-01 -9.779932837139140300e-01 -9.722666048019596996e-01 9.721902207144742514e-01 9.796949207523745207e-01 9.807067424335774719e-01 -9.790969363592135766e-01 -9.980999485482079381e-01 -9.989887169101074882e-01 -9.985540120287191845e-01 -9.770217521615576217e-01 -9.829037491336617416e-01 -9.820237937409483919e-01 -4.166045300386780892e-01 -3.143080248143907407e-01 -4.534994636929771672e-01 -9.001138089904296355e-03 3.488305755689538601e-02 1.055466989211616274e-01 1.889492827472655789e-01 -4.582842655635135931e-02 2.183585552266315566e-01 1.311069371712206277e-01 2.038004610561439389e-01 1.845767609526546005e-01 -2.078158684223194164e-02 1.801365127705940317e-01 6.406404569751654454e-02 1.272189608613769692e-04 4.334971675638921162e-02 -1.243761775460583557e-01 -9.601596342778708770e-01 -9.586454117010571041e-01 -9.634320541717115161e-01 -9.560929030230606029e-01 -9.864602537832741769e-01 -9.601596342778708770e-01 -9.952207299854656242e-01 -9.678064829814271297e-01 -4.129364718883061225e-01 7.432848429583487071e-02 -7.397447674098153736e-02 1.280322043991021508e-01 -1.649063333072283977e-01 -9.601596342778708770e-01 -9.586454117010571041e-01 -9.634320541717115161e-01 -9.560929030230606029e-01 -9.864602537832741769e-01 -9.601596342778708770e-01 -9.952207299854656242e-01 -9.678064829814271297e-01 -4.129364718883061225e-01 7.432848429583487071e-02 -7.397447674098153736e-02 1.280322043991021508e-01 -1.649063333072283977e-01 -9.735185660328857793e-01 -9.699917401375816040e-01 -9.728397904721999279e-01 -9.679009333640552493e-01 -9.741878270218065072e-01 -9.735185660328857793e-01 -9.966573989812482770e-01 -9.780036163258254422e-01 -6.733981823433848879e-01 2.131962722524411435e-01 -1.286084847120729235e-01 -1.764958485524986409e-01 -3.474376609595664685e-03 -9.526901605523885319e-01 -9.465482851355769833e-01 -9.425991423020134707e-01 -9.534657007978376564e-01 -9.687172941757083988e-01 -9.526901605523885319e-01 -9.952023703807006960e-01 -9.485160452088798877e-01 -8.553512778355011614e-03 9.218697227956326734e-02 -1.854452448108748208e-01 2.298844204204222585e-01 -1.676666018960191462e-01 -9.783783894325351893e-01 -9.748400733149870101e-01 -9.773999756000877337e-01 -9.745992899919289076e-01 -9.806512041673067781e-01 -9.783783894325351893e-01 -9.987445497283534701e-01 -9.806756107669394318e-01 -3.417245419138228990e-01 3.565219525958971403e-01 -5.132695184441682379e-02 -4.435141726884030827e-02
2.757084887430316100e-01 -1.659984107050399213e-02 -1.079987393785583616e-01 -9.795773924122554988e-01 -9.570831215508601719e-01 -9.579835304055188683e-01 -9.815691630675521528e-01 -9.582748911455070129e-01 -9.572560586819606199e-01 -9.200233967605037089e-01 -5.464477347582241684e-01 -7.962754883985797560e-01 8.285375373467959159e-01 6.728549391594127460e-01 8.237427720892396277e-01 -9.651262866554303210e-01 -9.976936510873293251e-01 -9.981186384091202957e-01 -9.965611993137730718e-01 -9.841656122980980692e-01 -9.674943137402970406e-01 -9.574565783014122866e-01 -4.666371981689664827e-01 -5.083927169758081233e-01 -4.155597634359314840e-01 1.040353728539376299e-01 7.122032532831707938e-03 2.639680163419526673e-02 6.849542869525789002e-02 1.349705061461533573e-01 -7.282154970189450016e-02 1.781129328787445509e-01 3.553124070482126251e-02 1.177656243872736708e-01 -4.197043896108981070e-02 3.329390715554851610e-02 -7.285133151731147672e-02 -3.003332190576127672e-02 -2.649700529323422149e-01 6.287505902409012970e-02 5.050615083964056229e-01 2.346316817994864301e-01 9.784932947299694594e-02 -9.847257307234837942e-01 -9.822501335931586031e-01 -9.715829458276440400e-01 -9.849062094037723813e-01 -9.828448309582605846e-01 -9.725127986969026583e-01 4.378433761338131891e-01 2.056855268701694994e-01 9.505672149355104406e-02 5.300554371074988058e-01 2.518883994027309448e-01 9.327470788916501776e-02 -2.365263842749690260e-01 2.410784037889628084e-01 -4.943798240294802193e-01 -7.882751624730161000e-01 -9.854826310250576205e-01 -9.847564341733415771e-01 -9.746920666816939471e-01 -8.408236851104139431e-01 -8.087480097639703214e-01 -7.393573788046411410e-01 3.835283228892603091e-01 4.415126631147480163e-01 -3.113155997047981627e-01 2.751577331644221025e-01 -2.844204369674878663e-01 3.131738471818795722e-01 4.330619668350765838e-01 4.485174320121778635e-01 -8.994381184611252578e-04 -2.044288171282917510e-01 2.456285820497427774e-01 7.572328782278284209e-02 9.177228572234111606e-03 1.400717030857191151e-04 -9.776435920788264511e-01 -9.685051240575315301e-01 -9.799793304520549864e-01 -9.782692024324846081e-01 -9.674968480907656376e-01 -9.791324517566727392e-01 -9.786122038682391056e-01 -9.765385373561543680e-01 -9.816999924002464128e-01 9.726504059671183811e-01 9.731021283205967265e-01 9.741402590315091370e-01 -9.765421725377192441e-01 -9.976337325516317911e-01 -9.970274678999047069e-01 -9.989650471521970276e-01 -9.773003735392298275e-01 -9.716535563267485465e-01 -9.783842421554475033e-01 -6.151413242429963901e-01 -6.295325248839672705e-01 -6.410148475833230552e-01 9.824055640663785505e-02 2.219450445737287114e-01 1.872453868700103274e-01 1.916514013692834362e-01 7.956222867134622734e-02 3.260218381542916155e-02 2.097969905774138555e-01 3.336564078292683644e-01 7.540557266718406204e-02 9.319270685839264878e-02 -2.149010233892872587e-02 2.205491389712551098e-01 -1.019942613120899538e-01 -3.113972295161711312e-02 -3.844243592211199489e-02 -3.031529968384076915e-02 -7.632425658253384759e-02 9.227331327406165795e-02 -9.655264824819580483e-01 -9.676841325520364467e-01 -9.671221551452596765e-01 -9.676507908734481855e-01 -9.711253397055071845e-01 -9.688949108456434978e-01 -8.570751260580615760e-01 -9.331918994319872152e-01 -7.296907845718370034e-01 8.174106951625220718e-01 8.942241005435950241e-01 8.068787958111908187e-01 -9.552306999040149904e-01 -9.969609147512831226e-01 -9.975894082993526091e-01 -9.967644635177776991e-01 -9.712869229051298570e-01 -9.759024810785678072e-01 -9.742937671991714899e-01 -3.758270508172859570e-01 -2.685256900335559194e-01 -3.280943715776880043e-01 -1.419486592186438301e-01 8.740203579647001786e-02 1.031150116023785007e-01 4.592587473249556268e-02 -9.688580825920253825e-02 1.004129950344603006e-01 -1.753940476151095171e-03 1.401806445272923141e-01 1.080678981287215984e-01 -1.030040451627123044e-01 1.086058652876192715e-01 9.257098195409535490e-02 -2.282942170428842454e-01 -4.440844532441730677e-03 -2.343537322554025137e-01 -1.002975667326369835e-01 -3.913836858388884676e-02 -5.443116324806016731e-02 -9.752704473338471569e-01 -9.802782964860021764e-01 -9.805889238708249689e-01 -9.765065359286526636e-01 -9.823691984328111193e-01 -9.819717272928883967e-01 -9.734847020561474551e-01 -9.806817987739151476e-01 -9.758135617134469086e-01 9.749016857591703555e-01 9.825817699211824019e-01 9.832390328522160328e-01 -9.813769912120833272e-01 -9.985734266907106971e-01 -9.992124638596825426e-01 -9.989728185598837351e-01 -9.786480111258706316e-01 -9.848211171768308514e-01 -9.839715675122115979e-01 -4.157786500944377628e-01 -3.379337725841890516e-01 -4.685550808797848132e-01 -2.663352100536857739e-02 1.262427105797704618e-02 1.042464868748658041e-01 1.772516210844093942e-01 -6.381552366614726135e-02 2.008073056474873885e-01 1.079921469963977393e-01 1.852186386014363917e-01 1.865581251185444434e-01 -5.014418212431986932e-02 1.833738064755283670e-01 5.962180389766871813e-02 -2.540686520200888254e-02 9.675508471956039552e-03 -1.021992587010591841e-01 -9.645970081278705255e-01 -9.619129278256701721e-01 -9.661218829304882849e-01 -9.604012493555049712e-01 -9.880285101200962927e-01 -9.645970081278705255e-01 -9.963646661900849022e-01 -9.700223955299346335e-01 -4.320620669263385283e-01 7.906283872664902901e-02 -8.939644717160236120e-02 1.490705817209790895e-01 -1.594371398140022045e-01 -9.645970081278705255e-01 -9.619129278256701721e-01 -9.661218829304882849e-01 -9.604012493555049712e-01 -9.880285101200962927e-01 -9.645970081278705255e-01 -9.963646661900849022e-01 -9.700223955299346335e-01 -4.320620669263385283e-01 7.906283872664902901e-02 -8.939644717160236120e-02 1.490705817209790895e-01 -1.594371398140022045e-01 -9.766149650611057886e-01 -9.740722843164548728e-01 -9.763876114767516823e-01 -9.722837719586486793e-01 -9.757962705624417810e-01 -9.766149650611057886e-01 -9.976323441819058280e-01 -9.805321449006493273e-01 -6.866398527438988264e-01 2.090889902622559138e-01 -1.253112746580421488e-01 -1.548326695922006835e-01 -2.417075259140259724e-02 -9.546844681160336910e-01 -9.482861675937680479e-01 -9.440904691710676477e-01 -9.560933817933530143e-01 -9.698151386553122144e-01 -9.546844681160336910e-01 -9.956849222950279188e-01 -9.491666385741613921e-01 -1.250369192576411721e-02 5.469430339711516681e-02 -1.537766274826263824e-01 1.884427106987927591e-01 -1.074939165570388544e-01 -9.807208905290736300e-01 -9.779560762983878774e-01 -9.800150314848212751e-01 -9.780460639611668894e-01 -9.826684951841215820e-01 -9.807208905290736300e-01 -9.990474788139009910e-01 -9.825597162469213997e-01 -3.644078242103550025e-01 3.568697600169146167e-01 -4.620513625280178727e-02 -8.678285995862659863e-02
2.768233386100927285e-01 -1.652668193774663521e-02 -1.076219551915236772e-01 -9.786353857963517866e-01 -9.504402733173569207e-01 -9.516899896997436104e-01 -9.808741072186826226e-01 -9.515836968222464165e-01 -9.501710703379055989e-01 -9.174612497494745167e-01 -5.429911116683668881e-01 -7.927504524597381863e-01 8.282600736406738884e-01 6.698896712125360642e-01 8.217125080961507066e-01 -9.611705263423143686e-01 -9.963715544584139661e-01 -9.970335771003351333e-01 -9.944985746298051765e-01 -9.841626190966252796e-01 -9.624766171720633423e-01 -9.500177589267534417e-01 -4.810146004979675705e-01 -4.941716237228887532e-01 -4.012396869780132658e-01 1.228435663129766875e-01 9.606959635464512592e-03 3.237979376833974299e-02 8.233491762086106447e-02 1.194347697133964353e-01 -8.036138599372204261e-02 1.918798236722796535e-01 2.454018112090942255e-02 1.095625733624633336e-01 -4.657357093870338055e-02 3.202931208651954575e-02 -6.128886768038339233e-02 -4.668518216484327660e-02 -2.246725252635899672e-01 1.320895889229733167e-01 6.955430897631112996e-01 1.023051352320841212e-01 4.826768520241459665e-02 -9.880623415609631754e-01 -9.815049086477948270e-01 -9.695702671761955438e-01 -9.881540155933662417e-01 -9.821792267198404813e-01 -9.706623431262654256e-01 6.263825480804016133e-01 7.700300389824553393e-02 4.633192597982151856e-02 7.176689889559940694e-01 1.210894632730393772e-01 4.313522521707620350e-02 -3.044145467742420119e-01 5.077414058274243303e-01 -6.753149201989779860e-01 -8.774543264062387715e-01 -9.885074791665589000e-01 -9.843358740984915478e-01 -9.732171595129426311e-01 -8.906438519554571442e-01 -8.286533915835777586e-01 -7.342527670209113566e-01 3.512680850283871337e-01 4.219711924175006401e-01 -3.596632433526922856e-01 3.255447819637177220e-01 -3.336337918810061698e-01 3.598645219487645597e-01 4.620397179860885051e-01 4.762600502721761053e-01 2.645866262257928064e-02 -9.799929181059144345e-02 3.361087416962623142e-01 7.829630348268544482e-02 7.369225798117226035e-03 3.470762516468710746e-04 -9.746650180359430760e-01 -9.643809198449129205e-01 -9.790210276949853352e-01 -9.755904276332441061e-01 -9.632038667086980643e-01 -9.779440092495786940e-01 -9.758116980586607481e-01 -9.745254526646102144e-01 -9.817622291765529807e-01 9.687391883485556576e-01 9.692152248280423432e-01 9.731858811979372526e-01 -9.737571718282098665e-01 -9.961602826359844398e-01 -9.954042124404099967e-01 -9.988154741225290234e-01 -9.746261933940959521e-01 -9.676183572034913194e-01 -9.769256856710475390e-01 -6.167296065876467503e-01 -6.147314048316124824e-01 -6.345029570170152011e-01 1.032811631895231702e-01 2.296867374577559739e-01 1.973889931678351750e-01 2.008847095466825827e-01 6.941477187605574195e-02 7.796984649974683310e-03 2.002588323688324901e-01 3.370984458897031688e-01 6.707957806795297739e-02 7.683490420193611614e-02 -3.488166471504035998e-02 2.091466857000588708e-01 -9.990117631177561353e-02 -4.712707705090783683e-02 -1.821747684911727283e-02 -2.857049965948096210e-02 -7.874981562873131780e-02 9.132867483884084259e-02 -9.593425056672894025e-01 -9.635405188882735228e-01 -9.626497513001238682e-01 -9.615664115875279805e-01 -9.669853557871115335e-01 -9.644852701498426439e-01 -8.512701944073139959e-01 -9.314299307040682097e-01 -7.264542480298019633e-01 8.143118337617553104e-01 8.923837251188425634e-01 8.037895595659281245e-01 -9.484591674652087523e-01 -9.947605564990238403e-01 -9.950692554095215137e-01 -9.954159905806327924e-01 -9.654801563308152978e-01 -9.722359848226576062e-01 -9.706978016161178502e-01 -3.602640684084133516e-01 -2.672312304735694477e-01 -3.035949326312939456e-01 -1.669734923304299901e-01 9.583309932388614505e-02 1.059147343755024173e-01 4.384150013037338423e-02 -1.115870082273052316e-01 1.010778734258117179e-01 -1.375169269232333867e-02 1.672872182458505774e-01 9.638709844514527225e-02 -1.078628448876818718e-01 1.212612371953593199e-01 8.507359218337343099e-02 -2.125829321953008333e-01 -4.200708931291601000e-02 -2.183172438949671501e-01 -9.980239202123808440e-02 -4.076683410360112947e-02 -5.138735893143785149e-02 -9.724828928377223791e-01 -9.793413885708509570e-01 -9.782711225404649991e-01 -9.734510287461604072e-01 -9.812534939603924089e-01 -9.796452696807244065e-01 -9.711179205794148173e-01 -9.798109159051872075e-01 -9.743041862779660001e-01 9.726025909356763588e-01 9.822919568778113453e-01 9.817235489635524059e-01 -9.794439482734320634e-01 -9.977904673563747773e-01 -9.988697025903248150e-01 -9.982200473935401996e-01 -9.753465664121346856e-01 -9.834828551168401933e-01 -9.818548898833550087e-01 -3.936212897575009917e-01 -3.410837028754751254e-01 -4.636279006597945895e-01 -4.600725892438424502e-02 1.108805141035705717e-03 1.014943287857848625e-01 1.593531790718776264e-01 -8.069100373096026180e-02 1.825369601246049911e-01 8.915389338592735746e-02 1.498923824613002664e-01 1.776592677968435174e-01 -6.761583119008528209e-02 1.784049100325625914e-01 5.935732017274156225e-02 -5.281552912755160117e-02 -1.086041692691646320e-02 -8.538231528091583256e-02 -9.605163873537930774e-01 -9.581170595821818514e-01 -9.624165170933803859e-01 -9.568499057947001951e-01 -9.858935809809109552e-01 -9.605163873537930774e-01 -9.942355833834987111e-01 -9.662520271514134507e-01 -4.202440088797229634e-01 7.758692144151502212e-02 -9.952335155178346215e-02 1.589979323160045921e-01 -1.406363411004411257e-01 -9.605163873537930774e-01 -9.581170595821818514e-01 -9.624165170933803859e-01 -9.568499057947001951e-01 -9.858935809809109552e-01 -9.605163873537930774e-01 -9.942355833834987111e-01 -9.662520271514134507e-01 -4.202440088797229634e-01 7.758692144151502212e-02 -9.952335155178346215e-02 1.589979323160045921e-01 -1.406363411004411257e-01 -9.737181323122193755e-01 -9.707713586623450963e-01 -9.735332078062413075e-01 -9.693351399857768058e-01 -9.743738881464117929e-01 -9.737181323122193755e-01 -9.964097418965686126e-01 -9.783424191003525783e-01 -6.764385094186933234e-01 2.086754497397171060e-01 -1.182129378355597921e-01 -1.378339775754868768e-01 -5.063638867713893960e-02 -9.477309154367831168e-01 -9.416897694461270341e-01 -9.362237305021637868e-01 -9.515864996554833644e-01 -9.630179041804761697e-01 -9.477309154367831168e-01 -9.923705062461558590e-01 -9.402727071596401753e-01 1.235821861436768240e-02 1.287578508160472888e-02 -1.197034039610574419e-01 1.549287715169613555e-01 -6.262564886964568089e-02 -9.787486960088389587e-01 -9.772103320537280924e-01 -9.790659580748825030e-01 -9.776343598932810686e-01 -9.808193176455097806e-01 -9.787486960088389587e-01 -9.985563296747507200e-01 -9.811246837511153895e-01 -3.614115683131852164e-01 3.513734421387736395e-01 -5.081988866965858609e-02 -1.162743093050500748e-01
2.766410711090500629e-01 -1.648818216254814562e-02 -1.071909323578604245e-01 -9.837306662893697817e-01 -9.527008970947711264e-01 -9.539964875948766521e-01 -9.857183660497862432e-01 -9.538921075861687138e-01 -9.526377798559109156e-01 -9.229761308126719355e-01 -5.432628256364118169e-01 -7.949269493283990240e-01 8.320643304571779808e-01 6.716788158683004717e-01 8.223955585450970496e-01 -9.652395116862052538e-01 -9.983977782670622192e-01 -9.982006147281549113e-01 -9.961278793216886696e-01 -9.880551801859976946e-01 -9.639323163712055775e-01 -9.526454413326860271e-01 -4.879988897224335487e-01 -4.782269193500295890e-01 -3.930744273686906376e-01 1.358532542168925106e-01 9.916510398772351853e-03 3.699883758577219434e-02 9.311340865842067382e-02 1.029586187443190665e-01 -8.252018475779247797e-02 2.001525939775602447e-01 1.490427917815205852e-02 1.118932701549092135e-01 -5.650399906937664252e-02 4.158614187214172697e-02 -5.776872423984899529e-02 -4.095912410533771725e-02 -2.048765199345514709e-01 1.595960267801890820e-01 8.000067877522681892e-01 2.321991850932441509e-02 2.740973752519732659e-02 -9.897418904308692422e-01 -9.806654977466134904e-01 -9.683820317612463757e-01 -9.898148844193794815e-01 -9.813882032787569765e-01 -9.694526798584367500e-01 7.298448865436000244e-01 2.538083473047044250e-04 2.591170795960059253e-02 8.205094862169537429e-01 4.284022966134148902e-02 2.206909650930958394e-02 -3.445083572118164961e-01 6.552240135008738919e-01 -7.832816189566721432e-01 -9.172432704858268782e-01 -9.900923649918099700e-01 -9.837171759422872475e-01 -9.719966192124830373e-01 -9.207192013648672901e-01 -8.352699934787968239e-01 -7.347384756782331383e-01 3.325077152100207600e-01 4.124937402464177727e-01 -3.934091779046057225e-01 3.607194259792328439e-01 -3.680114696013512821e-01 3.925199369698045282e-01 4.772976303504065654e-01 4.914816505161361260e-01 7.765573089399274709e-02 -1.802462772545109296e-02 3.524761904419512204e-01 7.605670541932058049e-02 9.021276399155880171e-03 -6.967329984427611230e-04 -9.785897316325463668e-01 -9.672578049977977876e-01 -9.804757204289020756e-01 -9.793708617875744871e-01 -9.659335315244211850e-01 -9.794755487676436445e-01 -9.787657296927093631e-01 -9.761646485216307623e-01 -9.826227166540864033e-01 9.738142821186079878e-01 9.719253701037998683e-01 9.753897494505520127e-01 -9.766861616230048115e-01 -9.981702207009350847e-01 -9.974619457782958332e-01 -9.991712368164462621e-01 -9.785263596418691812e-01 -9.698785927398566598e-01 -9.785546162317814156e-01 -6.188480661349941014e-01 -6.037426465647517393e-01 -6.354497220739944163e-01 1.071768741996054902e-01 2.345287415784990392e-01 2.004729884533929807e-01 2.125421496022592005e-01 5.797038862894791228e-02 -8.193728786241201434e-03 1.918230776989789388e-01 3.392685264494131880e-01 6.857976537536099315e-02 5.825771656459297759e-02 -3.535197961409873579e-02 2.009170266393335014e-01 -9.092240823635416858e-02 -6.309400252832642053e-02 -1.071271280245933606e-02 -3.135500358463238352e-02 -7.736352089824526101e-02 9.015376608894484778e-02 -9.589101107215139974e-01 -9.673776809505846286e-01 -9.649363123990183366e-01 -9.608566869540231536e-01 -9.711479123571605809e-01 -9.665647262240520954e-01 -8.530523605812695420e-01 -9.325733579655128835e-01 -7.294009713339775214e-01 8.132575474876092558e-01 8.939960443519479050e-01 8.048572862005490824e-01 -9.507113795953333613e-01 -9.962561987258780061e-01 -9.974885758847220618e-01 -9.971687947363060411e-01 -9.643024048607826693e-01 -9.762019125500814853e-01 -9.720546244369577815e-01 -3.451600327445664140e-01 -2.617951617729405989e-01 -2.890540139645418338e-01 -1.873548415957132507e-01 1.054243162176892457e-01 1.012568322318722763e-01 4.752517630124013931e-02 -1.204982645116059459e-01 1.016386292950851450e-01 -2.497037988744830322e-02 1.875534876484543367e-01 8.476044785837028028e-02 -1.099664067797512107e-01 1.287911152192790787e-01 7.924055249146268187e-02 -2.015883497297519811e-01 -5.624909249755375568e-02 -1.980107932842140039e-01 -1.010417637909657995e-01 -3.952198434572747748e-02 -5.223648703675352195e-02 -9.744538544411380787e-01 -9.810533900678490848e-01 -9.805587548778014195e-01 -9.754196204401306414e-01 -9.830162066305329072e-01 -9.818307270637492978e-01 -9.736235369693120312e-01 -9.813468655986194999e-01 -9.758835676064367970e-01 9.744069894628119011e-01 9.837367442645476023e-01 9.835467470229942721e-01 -9.813697295947120258e-01 -9.987774064236893956e-01 -9.992698464230220790e-01 -9.991608076828132345e-01 -9.774175453081163090e-01 -9.852270770162033786e-01 -9.837656544963930827e-01 -3.789744047957255280e-01 -3.417040239520539036e-01 -4.597067888519846823e-01 -6.294108467296227749e-02 -2.246160211403015403e-03 9.330829815304730879e-02 1.491242767353851695e-01 -9.149657469799547804e-02 1.715365960159000447e-01 7.509499952589608618e-02 1.223785362319526893e-01 1.691614283610099467e-01 -7.984669388609533236e-02 1.729554541655334010e-01 5.997897193558910517e-02 -6.486145972947934824e-02 -2.287286496968767707e-02 -6.612564171079646225e-02 -9.642677954536107432e-01 -9.601944492610382520e-01 -9.642066332249119576e-01 -9.599040188175194110e-01 -9.882790690171774362e-01 -9.642677954536107432e-01 -9.968244753187843754e-01 -9.679918309522671516e-01 -4.094995117859280831e-01 7.287301890340301680e-02 -1.036545343587577800e-01 1.665470490686630223e-01 -1.308770764064527137e-01 -9.642677954536107432e-01 -9.601944492610382520e-01 -9.642066332249119576e-01 -9.599040188175194110e-01 -9.882790690171774362e-01 -9.642677954536107432e-01 -9.968244753187843754e-01 -9.679918309522671516e-01 -4.094995117859280831e-01 7.287301890340301680e-02 -1.036545343587577800e-01 1.665470490686630223e-01 -1.308770764064527137e-01 -9.766929882299664190e-01 -9.744221158203715261e-01 -9.765578878012911579e-01 -9.730825386816910338e-01 -9.754966760237423484e-01 -9.766929882299664190e-01 -9.981020276987079276e-01 -9.802507100763312442e-01 -6.712154916528725312e-01 2.076097212539906867e-01 -1.131191894821734351e-01 -1.248593249202483157e-01 -6.968353080651402964e-02 -9.495235755886951567e-01 -9.423860017319644067e-01 -9.369509616744901015e-01 -9.526737209687635710e-01 -9.671720203016664907e-01 -9.495235755886951567e-01 -9.951945855445532008e-01 -9.409223860696821484e-01 4.679526322256627457e-02 -2.082005473514109140e-02 -9.217400300063255392e-02 1.302103645368045126e-01 -3.141347518715612019e-02 -9.807011310305085994e-01 -9.785183090803086792e-01 -9.803759993206004886e-01 -9.788486018250558418e-01 -9.830331529861724427e-01 -9.807011310305085994e-01 -9.991532650741580257e-01 -9.824914581366045452e-01 -3.569362021702149890e-01 3.400632892620626402e-01 -5.479510248456218729e-02 -1.284256115363761885e-01
2.773076741664446399e-01 -1.583493207328305272e-02 -1.068187819672797995e-01 -9.729598378679379378e-01 -9.359713923674957137e-01 -9.417261170508491874e-01 -9.756363322145972239e-01 -9.369721676580584635e-01 -9.405117779286411572e-01 -9.078574583136463927e-01 -5.327075141965709193e-01 -7.867742292583289609e-01 8.226365172328247155e-01 6.645079505038896661e-01 8.148611282224913488e-01 -9.513741125671351107e-01 -9.937690114986815759e-01 -9.950924285958018256e-01 -9.917308780670845980e-01 -9.789737773775929464e-01 -9.488815861127898321e-01 -9.417427721077857861e-01 -4.657332010753980622e-01 -4.480271169877848569e-01 -3.786801441922413858e-01 1.322253422325679051e-01 1.606133884886611421e-02 3.653772436028260989e-02 1.018394404199110814e-01 8.398885857259683063e-02 -7.453366155320285957e-02 2.009279038263127870e-01 1.021466154239478868e-02 1.108588432247053363e-01 -5.856512726285873632e-02 4.964703675851084991e-02 -6.466070422323028088e-02 -3.085817131884592210e-02 -2.014040415029991760e-01 1.471600500772627662e-01 8.379978754534360696e-01 -1.086263485557736365e-02 2.111672840839903115e-02 -9.891246825342189242e-01 -9.791775650845988554e-01 -9.658739294204992110e-01 -9.892039927212366024e-01 -9.799536045710077747e-01 -9.669912109788881827e-01 7.679733896692053641e-01 -3.246680920910731405e-02 2.011555762084558246e-02 8.575546098067717837e-01 8.769868911002502709e-03 1.498435146819678682e-02 -3.588970972136946158e-01 7.094548454241296209e-01 -8.251047363150449954e-01 -9.294807336687751498e-01 -9.895069157037561514e-01 -9.824538460219697233e-01 -9.698088667100130955e-01 -9.194967379664197304e-01 -8.383920164393291463e-01 -7.326049394183536956e-01 3.300243376926537131e-01 4.170462504755308997e-01 -4.035259605853588893e-01 3.725497088561077752e-01 -3.809582571616407787e-01 4.062710940437239682e-01 4.808631815638652052e-01 4.968842245656013290e-01 1.209069421058537042e-01 3.901157197212704042e-02 3.297987380189141282e-01 7.479655658819552022e-02 6.437685841112813362e-03 2.420426775029903797e-03 -9.669719248344760265e-01 -9.524378732392156932e-01 -9.699482356594228971e-01 -9.675282333694105175e-01 -9.493180016949303024e-01 -9.683497511192596940e-01 -9.697102569729011412e-01 -9.685091856065466409e-01 -9.763672790172956972e-01 9.613537203802074993e-01 9.609352909320911795e-01 9.652322089768464730e-01 -9.629834880728590507e-01 -9.932141101318219256e-01 -9.900527909740586274e-01 -9.945889451161556982e-01 -9.666795400889376388e-01 -9.532665047341717379e-01 -9.679775216808309546e-01 -5.898721671052620241e-01 -5.690158976756760634e-01 -6.105580203806937334e-01 9.945844746009981086e-02 2.362467718060836108e-01 1.973746844381883414e-01 2.188111431247539151e-01 4.088502172986113736e-02 -1.168341441026060461e-02 1.852839288842326182e-01 3.377557292920633225e-01 6.962734423954895779e-02 5.124426655019249932e-02 -2.778073257594039849e-02 1.943971890765727184e-01 -7.566049240737207637e-02 -7.399099492636874997e-02 -1.451348439500792578e-02 -3.182536075883900251e-02 -7.639484066359397696e-02 8.894419860260456556e-02 -9.439921514193851948e-01 -9.548763295402020734e-01 -9.523609437592949201e-01 -9.462672133016253317e-01 -9.588712573094425595e-01 -9.541357316654112131e-01 -8.400272856196256965e-01 -9.230912803275682643e-01 -7.208163650553714996e-01 8.019896251353837435e-01 8.879724490380475066e-01 7.944619283724494441e-01 -9.337983204025485096e-01 -9.912699086686789229e-01 -9.924360049695095665e-01 -9.926313037427673125e-01 -9.511470626673435014e-01 -9.647524624005643368e-01 -9.612875844154303850e-01 -3.190704945111830226e-01 -2.484383722373833259e-01 -2.703939382535028302e-01 -2.060229160193614850e-01 1.176126893662707146e-01 9.509633036497815162e-02 4.862321803481838706e-02 -1.333164696420094664e-01 1.067483402705098477e-01 -3.313306200290349474e-02 1.957870176627064529e-01 6.585373630387657273e-02 -9.985178362443325462e-02 1.232237322927958040e-01 8.133997335552836661e-02 -2.039598164034648331e-01 -4.766108941265524701e-02 -1.772649177442630342e-01 -1.070219758560288781e-01 -3.708856475395146124e-02 -5.282454726416783292e-02 -9.617338156969533758e-01 -9.720913797269631340e-01 -9.710046394061503383e-01 -9.625207543062812565e-01 -9.743535056106925607e-01 -9.722796848100192513e-01 -9.615370512382453994e-01 -9.738100435662038201e-01 -9.649107097389822973e-01 9.658017500194890914e-01 9.777344433848417227e-01 9.781263093140292186e-01 -9.712902190575457562e-01 -9.932185832723829932e-01 -9.963145976828982064e-01 -9.959245801557012889e-01 -9.648838653207594263e-01 -9.770323387006576432e-01 -9.740343344515803858e-01 -3.511501095639885106e-01 -3.196150762574992976e-01 -4.297087840452656349e-01 -7.910562858638578443e-02 1.884221743344779987e-04 8.727857066244264217e-02 1.420059818337794100e-01 -1.033882624960707208e-01 1.675322688494309820e-01 6.481454798246628901e-02 1.085868801047891602e-01 1.507991260559524427e-01 -7.967279391421738799e-02 1.631874893118278880e-01 5.422000376898290785e-02 -6.898865262095654760e-02 -1.988684050753629362e-02 -5.430414194473934253e-02 -9.502276794499310286e-01 -9.486574686614941410e-01 -9.545592496996286869e-01 -9.470897276997988223e-01 -9.850515761469352816e-01 -9.502276794499310286e-01 -9.904915454412176468e-01 -9.610801651257017131e-01 -3.725251154632231443e-01 6.590885809892130243e-02 -1.007007863152582644e-01 1.654476690412833850e-01 -1.249657859578784669e-01 -9.502276794499310286e-01 -9.486574686614941410e-01 -9.545592496996286869e-01 -9.470897276997988223e-01 -9.850515761469352816e-01 -9.502276794499310286e-01 -9.904915454412176468e-01 -9.610801651257017131e-01 -3.725251154632231443e-01 6.590885809892130243e-02 -1.007007863152582644e-01 1.654476690412833850e-01 -1.249657859578784669e-01 -9.632081709182910290e-01 -9.628434138454631253e-01 -9.652538130479701994e-01 -9.617728100749272091e-01 -9.674232350253388901e-01 -9.632081709182910290e-01 -9.917880055483978552e-01 -9.699640523136300319e-01 -6.374138821038868308e-01 2.060989697186196290e-01 -1.070097870823499137e-01 -1.300358415214569185e-01 -7.105600432972015990e-02 -9.326756587246216590e-01 -9.260955507210228976e-01 -9.184881887591804794e-01 -9.394579683018586813e-01 -9.561639351477199122e-01 -9.326756587246216590e-01 -9.876965324232200860e-01 -9.226744809880200737e-01 8.053258508044257302e-02 -4.260246793578255364e-02 -7.591428735857115584e-02 1.184109737005215046e-01 -1.482933965118261345e-02 -9.702570169638987663e-01 -9.700355835714151720e-01 -9.722321139646290522e-01 -9.706730491062414146e-01 -9.718482523170507426e-01 -9.702570169638987663e-01 -9.956086328179988287e-01 -9.740999444075297831e-01 -3.215080001827458345e-01 3.273501463714896254e-01 -6.012802711028685659e-02 -1.299420987629565927e-01
2.690943216793491022e-01 -2.808970054843334258e-02 -1.059936727134142137e-01 -8.783687036036567086e-01 -7.368333255398055170e-01 -8.407075658566520726e-01 -8.878251325698637286e-01 -7.441023376524003030e-01 -8.431265244570137485e-01 -8.028042144255703727e-01 -4.782332863690798574e-01 -6.951244213204528233e-01 7.235896558178946947e-01 5.228051989572009006e-01 7.638466143317451662e-01 -8.265927101213135231e-01 -9.644542022173389073e-01 -9.609063325470543759e-01 -9.691880509993829884e-01 -9.066056111856706234e-01 -8.181254116306686530e-01 -8.586684401232388408e-01 -1.799606838578216572e-01 -2.067348927666738390e-01 -3.032951461305797292e-01 -9.262409094689848243e-02 5.497124005508022271e-02 2.819538323122453699e-02 1.504836602631843406e-02 -1.143658376828086791e-02 1.930406946733039322e-02 1.199482814785621243e-01 6.047655501355537339e-02 8.495896230968860707e-02 -7.715784543693714193e-02 1.677583863266218778e-01 -1.240776368403496005e-01 1.901162425344926077e-01 -4.670707770632679945e-01 -3.047586341684854205e-01 1.475746081911381291e-01 3.297126212725257632e-01 2.315419777472288443e-01 -9.394564734394891259e-01 -8.529762573691717087e-01 -8.938886993137492576e-01 -9.419814838742333052e-01 -8.633028106814848446e-01 -9.015079331054950407e-01 1.036670915111421870e-01 3.640543135070535286e-01 2.379946569108743748e-01 1.671528750030148724e-01 3.269497744233876846e-01 1.951550944308755031e-01 -8.475278370926002391e-02 -2.742755393300767008e-01 -1.471907981935667298e-01 -6.031442081203407524e-01 -9.493000388349046581e-01 -9.013265894971281833e-01 -9.270519704309374553e-01 -5.167991245744579798e-01 -7.107879699060370982e-01 -5.664181401039575237e-01 6.224123899555299433e-01 6.659444026244334403e-01 -3.900341622175415024e-01 3.632893701909025164e-01 -3.768881604940978458e-01 4.074273427513646628e-01 4.688952109505268306e-01 4.947474248787585571e-01 2.108632975921067298e-01 -4.754964104452875095e-01 -2.301397869685840036e-01 7.449912012423158536e-02 7.386765208220054391e-02 -2.251751914084376346e-02 -8.869067614590889770e-01 -8.739241759193270287e-01 -9.233259099323425367e-01 -8.906326454575581586e-01 -8.717469930258386901e-01 -9.228164169533378258e-01 -9.039490970108962076e-01 -9.067941400231223081e-01 -9.369834214523204974e-01 8.565935700491854599e-01 8.984418353161175430e-01 9.068230469032764196e-01 -8.923296526080117808e-01 -9.608967296388949419e-01 -9.640362065062689778e-01 -9.860364148868684397e-01 -8.946274419467052930e-01 -8.961079089392248731e-01 -9.292168226785443297e-01 -3.645305633315664151e-01 -3.080697957243763163e-01 -4.413631303065703171e-01 -3.555961753231132866e-02 1.340120840130686330e-01 1.081415762825394533e-01 1.361458103982522150e-01 -3.840518946315207849e-02 4.499556357524019112e-02 1.667016406051191613e-01 1.989677330606378636e-01 5.707500780788751782e-02 -3.969605115080743901e-02 7.395575314466239225e-02 4.303880019607030788e-02 -3.357846136628914874e-02 -1.966393230541537696e-01 -1.794856762942599882e-01 -1.905770318712063718e-02 -8.910047886740782297e-02 6.784245818157429164e-02 -9.061701236648304070e-01 -9.065145782038138700e-01 -8.701369446820338416e-01 -9.129646291621228427e-01 -9.146660999403710690e-01 -8.744637053456102427e-01 -7.924984134590992157e-01 -8.908355812975522481e-01 -6.610005782601743318e-01 7.698743569049630864e-01 8.493326521448152366e-01 7.252818786914766447e-01 -8.302866390021693688e-01 -9.836157613859087823e-01 -9.840874060206487028e-01 -9.504338885505446699e-01 -9.238238746903725263e-01 -9.267756362613371879e-01 -8.895471707135970130e-01 -2.014553702091763654e-01 -2.123570274540438618e-01 -2.152367574183667309e-01 -2.122180454800257909e-01 1.768679640258577768e-01 3.586624237991115766e-02 -6.329434147760893033e-03 -1.720374329285863646e-01 1.240099171754943386e-01 3.084195251748981723e-02 7.593116322204589153e-02 -1.368428279868972794e-02 -3.823508915170675121e-02 9.369602995930106926e-02 4.116793850913075259e-02 -1.618571454830898815e-01 2.049195677670383742e-01 -1.131822873498025267e-01 -9.741130415574662804e-02 -3.679984410899006519e-02 -6.410634860696383386e-02 -9.116009014367342234e-01 -9.336771605594490486e-01 -9.198020928053970424e-01 -9.186577916249815123e-01 -9.399115430100963842e-01 -9.251252028461236510e-01 -8.995229871301668734e-01 -9.356565005024478632e-01 -9.047794755838846070e-01 9.112579616775227098e-01 9.425211946107376892e-01 9.330344575570511667e-01 -9.312248633203508152e-01 -9.843950985653034946e-01 -9.917869697371045623e-01 -9.858000396569307489e-01 -9.291184082270098621e-01 -9.481891018341702670e-01 -9.326985078581749855e-01 -2.184311851609660737e-01 -1.313488463053902322e-01 -2.471031578009884599e-01 -6.301259359906911939e-02 8.751914517380068870e-02 1.603601241468956551e-01 9.947087159912339216e-02 -1.159968504066049844e-01 1.693810796862751100e-01 8.913817638726484471e-02 1.901829047942822648e-01 8.937367793460546106e-02 -4.081211351599868531e-02 1.678378376716863629e-01 2.571798561332189204e-02 5.887522366286137426e-02 3.460959659577993869e-02 -7.353146343196052814e-02 -8.236811869714260048e-01 -7.771129835528179930e-01 -8.111008470460060460e-01 -7.844413366931991538e-01 -9.501340459597338306e-01 -8.236811869714260048e-01 -9.438888666510099057e-01 -8.743999967899607206e-01 -4.045057570681882299e-03 -9.159208795913884038e-02 4.068718839285313110e-02 1.793800417612637782e-02 -7.944102030942591999e-03 -8.236811869714260048e-01 -7.771129835528179930e-01 -8.111008470460060460e-01 -7.844413366931991538e-01 -9.501340459597338306e-01 -8.236811869714260048e-01 -9.438888666510099057e-01 -8.743999967899607206e-01 -4.045057570681882299e-03 -9.159208795913884038e-02 4.068718839285313110e-02 1.793800417612637782e-02 -7.944102030942591999e-03 -8.937745959993889100e-01 -8.708555822914998412e-01 -8.808921259044193430e-01 -8.689220059359749060e-01 -9.275530943532455108e-01 -8.937745959993889100e-01 -9.651587157024187347e-01 -9.006985984003795798e-01 -3.632161579768078963e-01 8.738493678337286297e-02 -1.237945307538336828e-02 -1.446606609257227449e-01 -3.111864576564775040e-02 -8.317577028296395669e-01 -8.615563452458855354e-01 -8.484321250624826671e-01 -8.696848719755058132e-01 -8.007962689368072207e-01 -8.317577028296395669e-01 -9.677723316271359399e-01 -8.590860094291993265e-01 3.469771985007179538e-01 -4.787799337841721486e-02 -7.551876089652886925e-02 1.723657580125542710e-01 -1.120560626736328003e-01 -9.302045083978348616e-01 -9.231158139911871396e-01 -9.301134916402915565e-01 -9.229944188696117546e-01 -9.414331793814754157e-01 -9.302045083978348616e-01 -9.894115749997072218e-01 -9.384035836504587280e-01 -5.860093819063293824e-02 2.250824048435368374e-01 -8.162810674255237264e-02 6.651229126848756668e-02
2.741962106918104936e-01 -1.569218856458831982e-02 -1.123218486436532576e-01 -9.065337266114459336e-01 -8.824770125991789893e-01 -9.050475230151824313e-01 -9.139891389995388193e-01 -8.883378263194995350e-01 -9.073467990330952304e-01 -8.289597800380316128e-01 -5.053311187563566120e-01 -7.552970366661972967e-01 7.593686595943729412e-01 6.200181527148742600e-01 7.819473493963398081e-01 -8.918135908871068773e-01 -9.738210065879204791e-01 -9.878741379274441625e-01 -9.839944083944813791e-01 -9.281943712355307241e-01 -9.182999433921159582e-01 -9.134263097720772828e-01 -2.327410829167431972e-01 -3.300108710643607224e-01 -3.571610906379449335e-01 -6.254702133892961480e-02 6.924584054813061329e-02 -3.127158196302350784e-02 4.279076892267404814e-02 4.017364941344319512e-02 3.429843010907347722e-02 9.019481685369777624e-02 1.721346400678204491e-02 1.154247433634930514e-01 -3.852461302760829681e-02 9.215305530986926674e-02 -1.207761163978823271e-01 3.180487676777832284e-02 -4.326213042812006582e-01 -1.482300370682745061e-01 4.605157621169633786e-02 5.005517053209008749e-01 2.631359496460103364e-01 -9.581467107198948785e-01 -9.681585185083841916e-01 -9.624825175830142854e-01 -9.593376564348253810e-01 -9.685409271425114985e-01 -9.636534868267925269e-01 -9.356752998986597736e-03 4.702794251767984379e-01 2.612868901619829765e-01 7.058638486095543396e-02 5.121717428810396155e-01 2.561750890156124782e-01 -1.541658494836194160e-01 -3.807154011632302160e-01 -1.195845087174697008e-01 -5.279381595960280782e-01 -9.618169998405015075e-01 -9.705464742565402814e-01 -9.662676990822569589e-01 -6.111915873461054582e-01 -6.611655711756749820e-01 -6.903263026865645857e-01 5.730249521282105851e-01 6.124295761159552764e-01 -2.952734225869478868e-01 2.606233815714792401e-01 -2.724515926765259111e-01 3.040241255341252224e-01 3.746169666613475280e-01 3.987415924101597731e-01 8.922043748487800546e-03 -4.820526739515650361e-01 -6.206324975646740350e-02 6.919217459665383263e-02 1.008497024262627710e-02 8.287009378795201497e-03 -9.104591218447235512e-01 -9.004674073197928008e-01 -9.367286900809503880e-01 -9.131528367166007465e-01 -8.997882224357246495e-01 -9.368178297341358540e-01 -9.243603002248043099e-01 -9.265862306068115561e-01 -9.443632616909206634e-01 8.863476578783123783e-01 9.164518789157006795e-01 9.234073006555513219e-01 -9.147618851291189346e-01 -9.719374609744600990e-01 -9.733667822388621937e-01 -9.896690890678289110e-01 -9.158184152382907728e-01 -9.201568324492153117e-01 -9.426335581093507887e-01 -4.111615127084373156e-01 -4.381771014898943606e-01 -4.542958989635146327e-01 -1.238050194768983842e-02 1.965838169240797517e-01 1.181013153255318499e-01 1.218380961002634988e-01 5.331056600382496138e-04 1.548884514834416026e-01 1.859231223032851710e-01 3.031987810744513068e-01 6.676316463648977739e-02 7.384073216380064586e-02 3.770038269859739277e-02 2.067164716691323734e-01 -6.940328487505532939e-02 -1.595243847011354743e-01 -9.073975511629780999e-02 -1.529691938306907036e-02 -6.059914121518410884e-02 1.318969510553371915e-01 -9.221215018228032800e-01 -9.154247159016980495e-01 -8.939818650533745137e-01 -9.274386517571717725e-01 -9.220011632660929379e-01 -8.981951647489879731e-01 -8.029833431994247706e-01 -8.939151401401347341e-01 -6.566178722348960939e-01 7.868919649100813984e-01 8.619128338215977791e-01 7.605738959081109751e-01 -8.752181779489880409e-01 -9.869297033251182016e-01 -9.881117106552810281e-01 -9.706523585081562322e-01 -9.363118930248913729e-01 -9.328658574652586299e-01 -9.113906207470683363e-01 -1.164768712694751879e-01 -1.033539440745894072e-01 -1.540719759698373492e-01 -1.384078745711032898e-01 1.177008299415918807e-01 6.384215869141500466e-02 -7.371495464695992234e-03 -1.674175940501628213e-01 1.608950477838048954e-01 -3.797399278257721639e-02 8.962151129970338803e-02 -1.513959954110533773e-02 4.811511325426400323e-03 1.899752013415567653e-02 8.966159565361388195e-02 -1.949729207887611337e-01 1.836894612835864304e-01 -2.824159922124529487e-01 -1.013130010099830974e-01 -4.242097167026284699e-02 -6.682753629525317596e-02 -9.263948141611424436e-01 -9.431913697260766449e-01 -9.332063941789210393e-01 -9.319668256532451789e-01 -9.485293950487325709e-01 -9.381264232934810599e-01 -9.177436291239976507e-01 -9.457591029522477433e-01 -9.187131301745939949e-01 9.259509265740349937e-01 9.496948422818802804e-01 9.441683289835155479e-01 -9.421708833495977542e-01 -9.881775418496013819e-01 -9.938854165407818853e-01 -9.893070425521660605e-01 -9.402777444268234364e-01 -9.556064231357619398e-01 -9.447087312805226844e-01 -2.597011025453779265e-01 -1.378698103250684814e-01 -2.829215540340241919e-01 -5.027069332085026473e-03 8.163154063183432341e-02 1.294634804891022228e-01 1.812332850565735176e-01 -1.155011406568915988e-01 2.406901533984526775e-01 1.085912479823897409e-01 1.200127804362373096e-01 7.931690811336535030e-02 3.239233257307667924e-02 1.409278465901911415e-01 2.424455960348807435e-02 1.920563779881136884e-02 1.509036177909979515e-01 -1.290043664263362533e-01 -8.903841408253114764e-01 -8.913012036567615759e-01 -9.068267002661475340e-01 -8.830395909438479851e-01 -9.607990417301676134e-01 -8.903841408253114764e-01 -9.695200407220087024e-01 -9.251215536810047935e-01 -1.777009914642286303e-01 2.727305494897619420e-02 -3.729188574860178157e-02 7.146262892805255174e-02 -9.355680663847473766e-02 -8.903841408253114764e-01 -8.913012036567615759e-01 -9.068267002661475340e-01 -8.830395909438479851e-01 -9.607990417301676134e-01 -8.903841408253114764e-01 -9.695200407220087024e-01 -9.251215536810047935e-01 -1.777009914642286303e-01 2.727305494897619420e-02 -3.729188574860178157e-02 7.146262892805255174e-02 -9.355680663847473766e-02 -9.158824107181507967e-01 -8.985396554365209232e-01 -9.071466321054689752e-01 -8.960742335949841708e-01 -9.416267274642929896e-01 -9.158824107181507967e-01 -9.746655925778043850e-01 -9.242259082173953644e-01 -4.490385915994561938e-01 1.633541559961199374e-01 -7.758027245642312719e-02 -1.653568198426843272e-01 -9.837137709467343519e-03 -8.784367240448226477e-01 -8.791283705226425882e-01 -8.687361239047100003e-01 -8.915788228387336867e-01 -9.021931309862414317e-01 -8.784367240448226477e-01 -9.770663721228851628e-01 -8.808022340197084743e-01 2.811380056504609315e-01 -1.407999703958365961e-02 -9.177441402568399520e-02 1.921248508804306032e-01 -1.641382602897477894e-01 -9.411234140312563223e-01 -9.345535237741808832e-01 -9.407611271836471278e-01 -9.342458504099404593e-01 -9.513180076370104654e-01 -9.411234140312563223e-01 -9.920587823241814318e-01 -9.481745371779475295e-01 -9.495629216603844458e-02 2.559273627632473458e-01 -9.718622073727067878e-02 5.351826082751082875e-02
2.738733650789457186e-01 -1.520689256197054612e-02 -1.117140782133758808e-01 -9.243804741919755541e-01 -9.028203490689401534e-01 -9.189950715223860200e-01 -9.305743444186412860e-01 -9.073736899061132233e-01 -9.208149190165745290e-01 -8.515650028670955773e-01 -5.142556641278983598e-01 -7.648797489564093111e-01 7.760330078828376887e-01 6.353389555327930704e-01 7.927630070867773826e-01 -9.097284140059693769e-01 -9.812354438169768045e-01 -9.909254273719931838e-01 -9.879430779636921844e-01 -9.418963986197069760e-01 -9.313615772090141354e-01 -9.246646544329758521e-01 -2.522884172366228195e-01 -3.523223212127263304e-01 -3.792237853494170308e-01 -3.529270669346210032e-02 5.833001030032515521e-02 -1.505878526432791534e-02 3.762090627097253170e-02 5.557092695110087827e-02 1.812992261312743394e-02 1.075864281552155188e-01 3.392128902009478725e-02 1.207003784868907609e-01 -3.727259513130175977e-02 9.109187453629417897e-02 -1.249324266027742047e-01 1.189076372434905021e-01 -4.029094097359918192e-01 -2.280849212361751033e-01 -1.732590089116850182e-02 5.124457871206483661e-01 2.905445069203187458e-01 -9.604924146741151691e-01 -9.720063703591140802e-01 -9.650873661100719536e-01 -9.615558971273150402e-01 -9.723681234167984577e-01 -9.659602913707719951e-01 -7.364907751431638838e-02 4.803160524793586572e-01 2.878851432400775234e-01 9.413916286993818938e-03 5.244155797617386927e-01 2.844190102455352864e-01 -1.487265801303657986e-01 -4.623631512101820107e-01 -8.914161243057698580e-02 -4.728345583434952482e-01 -9.640565552189271914e-01 -9.739867323424105106e-01 -9.680606407679133163e-01 -6.242073415722663166e-01 -6.758863763774280997e-01 -6.851108772184876239e-01 5.509097110993208535e-01 5.896451884468217886e-01 -2.766410251451897895e-01 2.433686440078478563e-01 -2.580672809440865967e-01 2.931137562684585918e-01 3.682963170280119658e-01 3.909210869029859370e-01 1.495294853548319869e-01 -4.837583108452320757e-01 -1.990430860043970740e-01 7.226609752080526139e-02 1.075185391264910605e-02 6.068064307599438725e-03 -9.284021222897612668e-01 -9.181352096949291219e-01 -9.480081748959655608e-01 -9.308494263582913764e-01 -9.172119440429110648e-01 -9.481508263667094427e-01 -9.372386060515337514e-01 -9.395947643751088041e-01 -9.533297913149418878e-01 9.094891180099264893e-01 9.317782586275961121e-01 9.349604775822215608e-01 -9.312113843452570761e-01 -9.805349145928333732e-01 -9.807712532522860904e-01 -9.926898509988334451e-01 -9.328257473200893823e-01 -9.328175809656713557e-01 -9.523414275325599032e-01 -4.268847285108586798e-01 -4.556818741100780445e-01 -4.882371957968247300e-01 9.011224796022098901e-03 1.953134946584588749e-01 1.417959715126153875e-01 1.245486881813145930e-01 6.902220676527929741e-03 1.212737409633002084e-01 1.930878064866779487e-01 2.878840300556612108e-01 7.279448667879920287e-02 8.341480519773106228e-02 3.724256235163705964e-02 2.257404327150090984e-01 -6.753953342240284763e-02 -1.438629756656202852e-01 -9.598653349662358836e-02 -1.951557110032579867e-02 -6.838407702284340917e-02 1.213089930442045050e-01 -9.343525130253276245e-01 -9.278359978427135335e-01 -9.133509523844391964e-01 -9.388710408453668776e-01 -9.337586372376560639e-01 -9.173557868505834989e-01 -8.178610586144378081e-01 -9.048789380547278549e-01 -6.746850772897292625e-01 7.950487458254063000e-01 8.673917362220858740e-01 7.728265656305689513e-01 -8.968206782995891135e-01 -9.901053722824906256e-01 -9.909813693323581418e-01 -9.787642270607693762e-01 -9.463789970223700498e-01 -9.422297641046535333e-01 -9.292909380284506415e-01 -1.892031586024997269e-01 -1.471996764651473111e-01 -1.983097817123895268e-01 -1.474578935772616894e-01 1.242680430743615672e-01 5.426621418130568586e-02 1.940121891843663016e-02 -1.381985571404125146e-01 1.384645430176225100e-01 -7.648132126601204540e-03 6.894677957837178073e-02 1.424154730834823433e-02 -1.187956505551272454e-02 2.414792204588754598e-02 1.068579606730466897e-01 -2.861014939395616907e-01 2.594459839420654168e-01 -2.566175666465317917e-01 -9.996183758907313532e-02 -3.888869762754273290e-02 -6.478700647917787214e-02 -9.385220689533195770e-01 -9.510653635302902531e-01 -9.452331092769820087e-01 -9.430260532894335634e-01 -9.560321599707277684e-01 -9.496746762826161481e-01 -9.311945325050059452e-01 -9.520534271911954560e-01 -9.316677627970668674e-01 9.376197050072684336e-01 9.561697931593983180e-01 9.533536839270747576e-01 -9.516046323012280483e-01 -9.913490111718630260e-01 -9.955889250870615381e-01 -9.923280841579952272e-01 -9.495992957808745416e-01 -9.621922107982735506e-01 -9.555607625831408214e-01 -2.684583161472754997e-01 -1.354049565361885310e-01 -3.042081828573899860e-01 -2.342383084454723735e-02 8.548319941233671615e-02 9.934608515238614601e-02 1.990180952141177850e-01 -8.635355356674255523e-02 2.305247527581346378e-01 1.396814620948636232e-01 1.334683595073961060e-01 9.464876341929996661e-02 3.336947973317636734e-02 1.333456435047845889e-01 5.590666430865777470e-02 5.395106646336680217e-02 1.435946079993098423e-01 -1.429236202159012981e-01 -9.088329662883609661e-01 -9.088692065148170629e-01 -9.215195232366283351e-01 -9.016689082593135618e-01 -9.683202008361713187e-01 -9.088329662883609661e-01 -9.777985336019129337e-01 -9.353795088113784351e-01 -2.030407346214006536e-01 2.841232482920038466e-02 -3.005645798097813376e-02 5.954350417276446650e-02 -9.833340483242822283e-02 -9.088329662883609661e-01 -9.088692065148170629e-01 -9.215195232366283351e-01 -9.016689082593135618e-01 -9.683202008361713187e-01 -9.088329662883609661e-01 -9.777985336019129337e-01 -9.353795088113784351e-01 -2.030407346214006536e-01 2.841232482920038466e-02 -3.005645798097813376e-02 5.954350417276446650e-02 -9.833340483242822283e-02 -9.321384605226333830e-01 -9.183781141779960855e-01 -9.256548674958969825e-01 -9.158679622685536037e-01 -9.521111397690823486e-01 -9.321384605226333830e-01 -9.821840166170324737e-01 -9.401110817065546632e-01 -4.818514715813917437e-01 1.825397110137845502e-01 -8.195832013678568118e-02 -2.078913880686783788e-01 1.024879421696049848e-02 -8.992713600127670848e-01 -8.982937838389071228e-01 -8.900799585226717436e-01 -9.082743136530770922e-01 -9.242179146318985072e-01 -8.992713600127670848e-01 -9.828548876359423092e-01 -8.999429994311249903e-01 2.330434936859684947e-01 3.831654923050569622e-02 -1.424218005683867139e-01 2.388629955643374603e-01 -2.060520897259671136e-01 -9.505172677494564404e-01 -9.438900875799279833e-01 -9.495259864896229418e-01 -9.429801237710739858e-01 -9.590729744729050710e-01 -9.505172677494564404e-01 -9.942523949456527621e-01 -9.565919526575774601e-01 -1.140677128283492520e-01 2.930197637307084824e-01 -9.646591471390190964e-02 5.062141650149926814e-02
2.733878708445375283e-01 -1.562803036802154835e-02 -1.099335843200803242e-01 -9.407016680319042479e-01 -9.217612492114506395e-01 -9.362756473912386967e-01 -9.453888553588158938e-01 -9.251948806281596882e-01 -9.378377617195776672e-01 -8.731516669978616196e-01 -5.253855652419772149e-01 -7.756696205096563768e-01 7.921924088862744018e-01 6.481090160873785866e-01 8.056778079337852949e-01 -9.278838493638598139e-01 -9.866701764393841501e-01 -9.932250795068682248e-01 -9.912815043528504511e-01 -9.537424594999674987e-01 -9.440071762809717493e-01 -9.414192029473670287e-01 -3.078301995621130493e-01 -4.109600882417889234e-01 -4.036553862350926170e-01 -6.258008065139940117e-03 3.450169701431738539e-02 -1.264852716127504856e-03 2.111831940316929307e-02 7.482731535250498889e-02 3.093104939964684812e-03 1.104028368411076044e-01 4.750461935318524981e-02 1.193030265202566081e-01 -3.242701965278314835e-02 7.757051336981367340e-02 -1.102400758019771443e-01 1.207604766673539692e-01 -3.899796282500599398e-01 -2.212767150136041028e-01 -4.032705013294587970e-02 5.371849752622950280e-01 2.969557275075094815e-01 -9.650668682259710973e-01 -9.764541277970639754e-01 -9.704130553212370058e-01 -9.659137697196265027e-01 -9.767993254211905230e-01 -9.712315891116359845e-01 -9.834491862276788232e-02 5.026015774156261662e-01 2.929971923757208052e-01 -1.125056529634635601e-02 5.495132629902965693e-01 2.920760442901292886e-01 -1.288868056478618684e-01 -4.924882438674897944e-01 -6.988229137411974823e-02 -4.609407464302809343e-01 -9.681463859600034638e-01 -9.780874652001749769e-01 -9.731192838956425062e-01 -6.443864009804671777e-01 -6.882083602562543145e-01 -7.175210887523297831e-01 5.358744116100788712e-01 5.716160761007431645e-01 -2.667233525327237231e-01 2.306585014992058036e-01 -2.430806948559851577e-01 2.761773842295248693e-01 3.681510775594077911e-01 3.903742646749059908e-01 1.169137042607193699e-01 -4.625475164621714042e-01 -1.512148928953401805e-01 7.390640304985368614e-02 1.072552071057940835e-02 2.180571193830086168e-03 -9.453431230634831151e-01 -9.354820679101419900e-01 -9.590110958101719651e-01 -9.471619138860779552e-01 -9.345039430734060071e-01 -9.590642224493001189e-01 -9.519727413370272506e-01 -9.522823050100363007e-01 -9.624263575173815921e-01 9.303651761908636741e-01 9.462342823230350808e-01 9.473603361184411709e-01 -9.468917017218552168e-01 -9.865933599564180589e-01 -9.862194048380915623e-01 -9.949649031504099739e-01 -9.481546400905931371e-01 -9.462229671749687876e-01 -9.620201494494775574e-01 -4.879763869531502096e-01 -5.199838166464570977e-01 -5.463880353723858940e-01 4.170051980927152319e-02 1.952092929580269420e-01 1.535928879923711687e-01 1.425774559836257005e-01 2.139904410748544317e-02 1.113283981200985095e-01 1.928058931475160886e-01 2.887570365245324400e-01 6.886952939237786508e-02 9.044875753015116371e-02 2.581534872915203921e-02 2.282317080716553537e-01 -7.377805543353727069e-02 -9.906556264337637585e-02 -1.190961482969239704e-01 -2.255344071246633691e-02 -7.090990079471720664e-02 1.098974366480048592e-01 -9.473952588109980644e-01 -9.407994176175542567e-01 -9.329520942252905735e-01 -9.510917626052997065e-01 -9.457180887894933718e-01 -9.362403079568522024e-01 -8.323940572527462889e-01 -9.145902914590158250e-01 -6.948701591958267310e-01 8.043994723525925705e-01 8.758273107345886377e-01 7.844264366095783370e-01 -9.188151491873801646e-01 -9.926522019940149377e-01 -9.932152190819099058e-01 -9.854914950323038214e-01 -9.571699815619951757e-01 -9.527650512121520476e-01 -9.458470091723535367e-01 -2.476935262973995466e-01 -1.845732046643584479e-01 -2.638284970035552623e-01 -1.352984124618275830e-01 1.122590365946299767e-01 6.518366735662126099e-02 1.978233888202306223e-02 -1.183127058493604333e-01 1.288596396861561855e-01 -4.310183275054054602e-03 6.744017440209443270e-02 5.218531206862547789e-02 -3.678395886085314426e-02 4.319719566703392882e-02 9.991026555021258193e-02 -3.049671478445016848e-01 2.215367043362442279e-01 -2.637570183782605437e-01 -1.009402262168170722e-01 -3.907149951722069942e-02 -6.294966248464567427e-02 -9.509106692057115451e-01 -9.606836859277099183e-01 -9.572885109028382855e-01 -9.543891112028560775e-01 -9.648634309075384552e-01 -9.607220488164244232e-01 -9.450922248405244641e-01 -9.615397136274432821e-01 -9.467002374976956069e-01 9.501710184808334070e-01 9.643932877847744001e-01 9.635116649919865939e-01 -9.616746559054943910e-01 -9.937377496198439575e-01 -9.968879132888556205e-01 -9.946259979498961457e-01 -9.596339873416774857e-01 -9.699750469140120401e-01 -9.652668458105088112e-01 -3.318142270050389309e-01 -2.030127139883744769e-01 -3.610750299847597100e-01 -1.203525118460861687e-02 7.246461409328884551e-02 1.144295301070341747e-01 1.840914314450645128e-01 -6.728286654700503522e-02 2.382872816392365145e-01 1.424215378207070726e-01 1.647332573624381846e-01 1.312634701387337954e-01 2.220423626207279275e-02 1.567805154759676634e-01 5.710397955204413872e-02 2.541357482144371641e-02 1.213711984864167953e-01 -1.418969566404716109e-01 -9.274374042243428429e-01 -9.271088513247203178e-01 -9.370151642959022587e-01 -9.208236063774960511e-01 -9.748283128658881136e-01 -9.274374042243428429e-01 -9.840181108956528311e-01 -9.475435295893069876e-01 -2.826219723192910926e-01 2.936496462009591593e-02 -2.799522156303963991e-02 6.807614454420024552e-02 -1.185595296879679850e-01 -9.274374042243428429e-01 -9.271088513247203178e-01 -9.370151642959022587e-01 -9.208236063774960511e-01 -9.748283128658881136e-01 -9.274374042243428429e-01 -9.840181108956528311e-01 -9.475435295893069876e-01 -2.826219723192910926e-01 2.936496462009591593e-02 -2.799522156303963991e-02 6.807614454420024552e-02 -1.185595296879679850e-01 -9.474858555819203332e-01 -9.374523371722298659e-01 -9.432993201550335938e-01 -9.345612813227497373e-01 -9.599239442512518261e-01 -9.474858555819203332e-01 -9.876012777577229951e-01 -9.545644844530839501e-01 -5.563573721331451782e-01 1.908766093374134609e-01 -9.887731477223166143e-02 -1.911105212991370261e-01 2.509045941577748608e-03 -9.203013004111454398e-01 -9.167917557535305573e-01 -9.105917688228992724e-01 -9.250216550697655249e-01 -9.432206790580158762e-01 -9.203013004111454398e-01 -9.875118616453278930e-01 -9.196309105681146345e-01 1.415939540998159551e-01 6.571731112586190471e-02 -1.647704188357783373e-01 2.504472215044387107e-01 -2.159459979490269688e-01 -9.607023940302533704e-01 -9.549643041690455414e-01 -9.596746037278601760e-01 -9.542298857628280784e-01 -9.667816174554783037e-01 -9.607023940302533704e-01 -9.959181749288585905e-01 -9.656332586687754738e-01 -1.982913208895033530e-01 3.136244534270955509e-01 -7.664505825296900887e-02 2.947898870393657333e-02
