2.864049168143797397e-01 -3.094231890809977931e-02 -1.472199030329539027e-01 4.045587976108723505e-02 4.644272177992485318e-02 -4.023427070498469260e-01 -2.378400496061788480e-02 -2.611061308954988028e-04 -4.020351045778061683e-01 3.025271890815670606e-01 -8.932772033867275585e-02 -4.189382463615137220e-01 -2.425621450753238928e-02 -1.067472915961639561e-02 4.017306773014121535e-01 -8.369176968137938613e-03 -4.292231337618811482e-01 -7.735822192851282697e-01 -8.206288283364914227e-01 -2.085453495253129508e-01 -2.971434943587861754e-01 -4.389915129084959178e-01 3.391832425824693464e-01 2.879362921701305589e-01 9.844571848574022732e-02 -3.451401139442470400e-01 3.201493461010109232e-01 -2.778790197228115377e-01 2.924819838649392323e-01 -1.144116729057859660e-01 1.447688490696479868e-01 7.829174975391182956e-02 9.670781579542264694e-02 1.331350313222917636e-01 4.923873388526732453e-02 -1.298352960417455647e-02 -9.135923427530361074e-02 -2.895577995554138862e-01 -2.410093142717955605e-01 9.701551122643198299e-02 9.127247419871846734e-01 -1.425804288456667679e-01 1.908622164407228206e-02 -9.747602277619175082e-01 -9.565923577343142803e-01 -9.145313080935216776e-01 -9.754603645440800275e-01 -9.571269284511068065e-01 -9.158280036985907424e-01 8.481148113101127928e-01 -1.534353232192175731e-01 3.070666118601522027e-02 9.241717816893414428e-01 -1.264400391197003648e-01 3.500803430737233889e-03 -5.071531026655938801e-01 8.243449713006447688e-01 -9.333827790447354333e-01 -9.499585860794979020e-01 -9.770070559032408841e-01 -9.571815141208482869e-01 -9.157930030796910259e-01 -8.871818892677473256e-01 -9.807634695190521334e-01 -6.351644211934717177e-01 5.152630490221954407e-01 6.512414935496304569e-01 -1.486346298162172508e-01 1.926463858402271134e-01 -2.979812592825206163e-01 4.254050314889797901e-01 2.785107575510864519e-01 3.471583596598645238e-01 2.024495357030320075e-01 -1.690904926477554415e-02 -4.066172717967844741e-01 -1.241372645510358530e-01 7.887897347863742636e-02 -7.714024058951096489e-03 3.302130913369817622e-02 -3.109383086293165260e-02 -4.697363618578085376e-01 3.346568505491185480e-02 -1.923000952781411810e-02 -4.459070115398636736e-01 -9.239927315182702716e-02 -3.215810820603270948e-01 -6.136318835588531195e-01 -4.717222707408565141e-02 2.584404595241313607e-01 4.852574394257039847e-01 -8.984496486507280444e-02 -4.353012956110845488e-01 -4.875881649705590681e-01 -8.398367726200516303e-01 5.129187115484033083e-02 -2.533125550882627253e-01 -4.980596253549488539e-01 5.309456237644080145e-01 6.101671467890710243e-01 4.393628380321015769e-01 -3.343244143561636128e-01 2.597896668635556461e-01 -8.624501291360425759e-02 -2.280954746236208211e-03 -2.428589051649857888e-01 1.947644365514256959e-01 -4.538881583671778804e-04 4.640328013236196814e-01 6.437792396331899758e-02 2.349089278306201733e-01 5.009765504571711547e-02 2.216378356755887569e-01 -1.402461504779727308e-01 -3.950168305494085041e-01 1.419667743035714913e-01 -2.519071077903863864e-01 -1.105178921038555383e-02 8.824846534287072997e-02 -3.973399067736787527e-01 -3.696130713758667419e-01 -1.683881824470423449e-01 -3.886933720637814060e-01 -3.906548750186022989e-01 -2.707916462755451392e-01 -4.628054185236928353e-01 -4.125181576847727905e-01 -1.086816362057479168e-01 2.906321696390377629e-01 5.942085140925739140e-01 -1.323357838404087272e-01 -1.751841636817396963e-01 -7.510353523836662548e-01 -7.888426611421804902e-01 -6.379085231204069117e-01 -3.638505090828089705e-01 -4.440407566243386173e-01 -4.602207976600265482e-01 -1.299100265273817056e-01 1.745032277954537692e-01 2.096636777236318416e-01 -2.317058930034884556e-01 1.870638736752652243e-01 1.123207746202296020e-01 -1.895863206407576718e-01 -8.601509871816159780e-02 1.416326406667740567e-01 -1.479669589514210071e-01 3.432624534982045006e-01 -1.433739071447862612e-01 1.872531856207760304e-01 -1.545550550614376850e-01 3.510590265598946824e-01 -2.043419000284368292e-01 -9.315224405643526828e-02 -6.669406475644319710e-02 -3.258816116360040149e-02 3.879740572837141188e-02 -1.289126055577783370e-01 -3.147298254635866321e-01 -4.926134361949342511e-01 -2.637635799362165190e-01 -3.348767463704085956e-01 -5.130637598883384110e-01 -3.119745303320018426e-01 -2.493367711290113142e-01 -5.616526383733635441e-01 -1.595656569062954278e-01 4.205082669857409527e-01 5.985622701648347643e-01 3.658205400073543667e-01 -4.170253992840874391e-01 -7.446211067386185878e-01 -8.604054842795995084e-01 -6.924407033817392421e-01 -3.841150337696040973e-01 -5.439370102295542075e-01 -3.929393421077576609e-01 4.598418505763918196e-01 6.771574963739959152e-01 5.542870241945488941e-01 -6.131005507300688051e-02 1.473991504418574738e-01 1.519697731115988160e-01 2.919834106708267818e-01 -1.077744496552207332e-01 2.602037103255986361e-01 -1.151680267143787885e-02 1.638723328198229134e-01 -1.832146044831670650e-01 2.057327660358050647e-01 -9.640277113942491427e-02 1.492503750441142862e-01 5.537793327881902067e-02 -2.091396216491086812e-01 -1.638650109828568638e-02 2.776580698689060100e-02 5.317608164977118482e-03 -7.878716148397824082e-02 2.844103106478086673e-02 -6.730128997265336643e-01 2.776580698689060100e-02 -4.002249236541070010e-01 -1.896683366476740185e-01 8.295142662976184855e-01 -4.395404818564974808e-02 -2.693761922880799631e-02 2.683308969470649726e-03 1.836543422483546961e-01 2.776580698689060100e-02 5.317608164977118482e-03 -7.878716148397824082e-02 2.844103106478086673e-02 -6.730128997265336643e-01 2.776580698689060100e-02 -4.002249236541070010e-01 -1.896683366476740185e-01 8.295142662976184855e-01 -4.395404818564974808e-02 -2.693761922880799631e-02 2.683308969470649726e-03 1.836543422483546961e-01 -9.926613921112273364e-02 3.563951708376843219e-02 -2.884937482213477747e-02 7.409892620038575559e-03 -5.180623265853057102e-01 -9.926613921112273364e-02 -5.157326418890593178e-01 -1.619759958428546864e-01 7.620663976737811485e-01 -1.810166967211923952e-02 6.787930470121175675e-02 -5.819867079541213295e-02 -4.345254269879224307e-02 -1.693089725262266199e-01 -3.104116425564078519e-01 -2.474128593661031605e-01 -3.273225873603570757e-01 -5.708675163537070274e-01 -1.693089725262266199e-01 -6.165457290736735541e-01 -2.958604004879513694e-01 3.687226289556614911e-01 1.576004273811641432e-01 -2.419348444706763690e-01 2.614482428892450638e-01 -1.973298106040503319e-01 -4.154210496731660096e-01 -4.455273460586543499e-01 -4.655284165930854701e-01 -4.949234020303052151e-01 -5.589476017072469993e-01 -4.154210496731660096e-01 -8.130217877899865719e-01 -4.981626895676192768e-01 8.563151305054315099e-01 1.811679760500110592e-01 -1.017879245492932377e-01 -4.343040849730490233e-02
2.408692434812652883e-01 -1.126926226981365443e-02 -1.356916074489661894e-01 -1.493834937014741071e-01 -6.335145972263148129e-02 -4.594017198529319890e-01 -2.235626548938944580e-01 -1.037168821164547172e-01 -4.752876785409963500e-01 1.051578052706611394e-01 8.471995138911671275e-02 -2.536865975230744863e-01 8.108451671638596328e-03 6.927410140892403811e-02 5.187545779076961905e-01 -1.655869989907140238e-01 -6.096057307217790378e-01 -8.135402441773711413e-01 -8.549214422321447238e-01 -3.359750147296806100e-01 -3.493939066235304258e-01 -5.381772332915065737e-01 3.342980794329961092e-01 2.012026378794351533e-01 -6.275491347805423580e-03 -3.163751910722376048e-01 2.628526597421925737e-01 -8.934576287422132945e-02 1.239071255588072989e-01 -9.556244719785178532e-02 1.784360103604860082e-01 5.430291881621273492e-02 3.758723453400800163e-02 7.976621325281747776e-02 9.889452925263819694e-02 -3.776585140544470864e-02 -1.858903454227073815e-01 -1.905989448934263530e-01 -1.768432979675398087e-01 -1.413836244466302461e-01 9.079924871449852608e-01 -5.918271008125484955e-02 5.702894899191100070e-02 -9.754587519639359439e-01 -9.604138238313587594e-01 -9.408358149201360154e-01 -9.763994739304906467e-01 -9.615396997650398347e-01 -9.433164219845744380e-01 8.426188735951222197e-01 -7.173153449795906245e-02 6.251392636385114110e-02 9.183329076376633981e-01 -4.304663516914857685e-02 4.553025298923946834e-02 -5.153614592497567370e-01 8.180134103520407818e-01 -9.422639699074415454e-01 -9.392273229783686395e-01 -9.778580308923644493e-01 -9.642626774777861565e-01 -9.445895928873537795e-01 -8.763325995858758377e-01 -6.549111238006725122e-01 -5.078342723226729749e-01 4.682475834861779540e-01 6.155478365800900464e-01 -6.141596553830125371e-02 9.586949996977321697e-02 -1.966894801705407481e-01 3.217539608304826881e-01 1.737162671419172078e-01 2.179703600631413551e-01 -5.868329986462703096e-02 3.384623968127983135e-02 -4.454619617526593411e-01 4.555634542362783229e-02 -4.738334178646327888e-02 -1.405894472587730648e-02 -7.036474105635935616e-02 -5.271492273388529715e-02 -5.321845411649729352e-01 -9.682028365964714944e-02 -7.719828059429081901e-02 -5.695846921876277502e-01 -2.781196399148614939e-01 -1.886100088961177312e-01 -6.166452738808544387e-01 -1.961364753331204802e-01 2.742997011178596733e-01 3.400387970283898498e-01 -2.066251032747513927e-01 -5.331620152327901652e-01 -5.037378298269995502e-01 -8.754149384085447849e-01 -1.467330779020577236e-01 -3.026694131937534560e-01 -6.321984912409378543e-01 6.670815599677714092e-01 4.865371313765993189e-01 4.043276959344302424e-01 -3.187694665311822662e-01 2.270895002866745727e-01 -2.125145384236853258e-02 1.291261759031054612e-01 -1.928431983640831460e-01 2.510070998711678159e-01 1.451908012676925430e-01 3.127606989338121424e-01 4.893570431402682885e-02 3.199317465553329076e-01 7.047885642263558570e-02 2.523460674823840288e-01 -1.373659636511211091e-01 -1.964065919090789147e-01 -2.464637618165579913e-01 -9.170332327915634019e-02 -1.410930471722778579e-01 3.506834989545711684e-02 -4.826361935592802799e-01 -3.827338460380820817e-01 -3.490127889077120349e-01 -5.142644078381504169e-01 -3.945309541231321049e-01 -4.213254424663462339e-01 -4.008411987314166036e-01 -5.392636708091347320e-01 -1.683530587420772606e-01 4.484576011028879039e-01 5.830791276524615041e-01 2.858798272214838065e-01 -2.875523060306909295e-01 -8.428822683868529841e-01 -7.960039910064793389e-01 -7.852023627764378455e-01 -5.778215892260649689e-01 -3.856498124653420234e-01 -5.796452039323797267e-01 -6.281480960904513300e-02 5.435095353194475259e-02 1.910124129579014729e-02 -3.285080152654374919e-01 2.561077149286624111e-01 1.065645054338486691e-01 -1.769847437259008394e-01 -2.257240997778405811e-01 2.539367496858696005e-01 -2.710970749752585895e-01 4.011860667200985997e-01 -2.095373144729950898e-01 2.689372817452364561e-01 -2.624840071733395286e-01 3.914238610645824346e-01 1.489327521877799321e-01 -1.803373327271757739e-02 2.857386012066370773e-02 -1.551757017760307666e-01 -5.332987613767972181e-03 -3.353149327722074885e-02 -3.905301096381576520e-01 -5.720222796384917263e-01 -4.359634258222943037e-01 -3.860353036829541895e-01 -6.015691116243395697e-01 -4.783718010705800272e-01 -4.100112359426252850e-01 -6.168634730438853353e-01 -3.317324674018748421e-01 4.797556317782246116e-01 6.233307486357791971e-01 5.053409199218218406e-01 -5.136425526289739585e-01 -7.915269975839566152e-01 -9.005297820634042827e-01 -8.151468351129005363e-01 -4.140146591839031776e-01 -6.568867001399433247e-01 -5.622105856401150570e-01 5.544753407636288101e-01 5.064160810139582969e-01 5.726458838585706257e-01 -1.600204023086503891e-01 1.318324120947549638e-01 1.740633922522284160e-01 1.920381084603031974e-01 -2.218413687015189373e-01 2.884018631540604671e-01 -5.999817390605310941e-02 1.458671251465010633e-03 -2.294300908903258163e-01 2.750656406678160804e-01 -1.107640081562173556e-01 4.656365037632733545e-02 8.373502110393354902e-02 -2.071012582439523686e-01 -8.402200309623599622e-03 -1.351991039011554707e-01 -1.564717398804180148e-01 -2.760393950793932905e-01 -9.968012220875233087e-02 -7.415554342319159442e-01 -1.351991039011554707e-01 -5.666723048729702672e-01 -4.174771002631270655e-01 7.627003519540911380e-01 1.665630401356995444e-02 -8.518672170471067173e-02 1.132683341400038679e-01 4.083181433737143040e-02 -1.351991039011554707e-01 -1.564717398804180148e-01 -2.760393950793932905e-01 -9.968012220875233087e-02 -7.415554342319159442e-01 -1.351991039011554707e-01 -5.666723048729702672e-01 -4.174771002631270655e-01 7.627003519540911380e-01 1.665630401356995444e-02 -8.518672170471067173e-02 1.132683341400038679e-01 4.083181433737143040e-02 -1.991516070969490959e-01 7.062374389451625198e-03 -7.670399592903584529e-02 -5.677979884464958403e-03 -6.648691197310477863e-01 -1.991516070969490959e-01 -5.847504953108790815e-01 -2.180527106252174163e-01 6.929716701506405396e-01 -3.271150836747623459e-03 -1.228124187037804016e-01 -9.521766838450547443e-02 2.475110308544992421e-01 -2.873385220163255926e-01 -4.187486994556403608e-01 -3.508554448366315026e-01 -4.680584518810697592e-01 -5.499783257375521206e-01 -2.873385220163255926e-01 -7.232008142346129098e-01 -3.815750473188524450e-01 6.171539313634798463e-01 1.033257505108741287e-01 -2.141753134663876568e-01 2.449618350145928714e-01 -1.352208492381841154e-01 -5.119389010945837315e-01 -5.267294427410056379e-01 -5.662493366377640003e-01 -5.591373135401112027e-01 -5.521094664556328580e-01 -5.119389010945837315e-01 -8.659318155416662055e-01 -6.205422208615229973e-01 8.023343123181921888e-01 1.798088718395868812e-01 1.272552611716447901e-01 3.066995411506827016e-02
2.740333595843689185e-01 -3.484369173226618236e-04 -1.224698540146400144e-01 -1.762740482137259423e-01 -1.389289241208781049e-02 -5.018803498864491397e-01 -2.376860856623583262e-01 -5.635459909660257144e-02 -5.075602139060217954e-01 1.275797087997989077e-01 -6.798067965993111195e-02 -4.668817157294455344e-01 1.109863682796657786e-01 3.497175757919633587e-02 5.348398489638075404e-01 -1.687272370189100701e-01 -6.310821728052108393e-01 -7.952043120173777346e-01 -8.769256305159540688e-01 -3.754924069128468544e-01 -3.297859822656871720e-01 -5.186387851857195974e-01 2.185055125356678007e-01 3.633126263433690828e-01 3.200157609431387995e-02 -2.482907404756198588e-01 1.397085455116656161e-01 3.317606095073442896e-02 7.523343961013774506e-02 -1.300733850080006693e-01 1.593552927158534416e-01 1.057541985912615889e-01 -5.376978168279264447e-02 -2.268600264181655501e-01 2.925950690814607680e-01 -2.534097998344104763e-01 5.755039045624388803e-03 -1.986891403236132059e-01 -2.461897765930186610e-01 5.532233541543556121e-02 8.883612241389341468e-01 -2.036284882646293704e-01 3.017616215605684049e-02 -9.683132068464305187e-01 -9.475592344612556728e-01 -9.430249247522799472e-01 -9.697978859028063559e-01 -9.471895334888323914e-01 -9.441803629557720123e-01 8.259658805991372255e-01 -2.101349168328518202e-01 3.618550972639961866e-02 8.979675633855281891e-01 -1.887982023046232416e-01 1.830900147356452970e-02 -3.446028315205673098e-01 7.728270725202391889e-01 -8.752064082819145385e-01 -9.395103394268327079e-01 -9.703349752160140840e-01 -9.486958837883675555e-01 -9.487449015269773245e-01 -6.146036279801274649e-01 -9.766727335279659084e-01 -5.265423627431111697e-01 5.401327349636932951e-01 6.612200766319447087e-01 -1.838495604979147324e-01 2.061994831601101918e-01 -2.855454639446290410e-01 3.858654006764255517e-01 4.635192061406827602e-01 5.090771038581233254e-01 4.863421955037403599e-01 -3.686299741438921473e-01 -1.073621161304236932e-01 -1.231132597932647378e-02 6.375031224482378966e-02 5.175428218914655126e-02 -1.551906248180971726e-01 -7.310973828014455389e-02 -6.809636376880167097e-01 -1.742934126081152890e-01 -8.810932141237415305e-02 -6.728629161342060128e-01 -3.866342022407212031e-01 -3.035766496432699135e-01 -7.557840075382624700e-01 -7.633252607193890746e-03 1.989584155895295636e-01 6.780301725683502978e-01 -2.794214244923383106e-01 -5.971125538892596563e-01 -5.199445477044295494e-01 -9.320013135006096627e-01 -1.811465382436151794e-01 -3.439588057802633880e-01 -6.960899296216171983e-01 6.034680342361046224e-01 5.750835946957598699e-01 3.222889829288831942e-01 -2.318345177204682583e-01 7.617520242995046154e-02 7.772832569666700275e-02 7.062955162830047984e-02 -1.863714379388854703e-01 1.704277417660637894e-01 2.323027760495806060e-01 2.236086287115254811e-01 -2.602877006594631060e-01 3.501229667720895389e-01 -1.808535302778011833e-01 1.033543007490728971e-01 -3.422606214121923784e-01 -3.872286182949835620e-01 2.144076235959871679e-01 4.552903402363409069e-02 -1.095739374427175533e-01 4.117917161500941198e-02 -5.632567256282530188e-01 -4.770825092621686636e-01 -4.518175071522011477e-01 -5.876532830161963483e-01 -4.875498477093568317e-01 -4.629300904984376963e-01 -4.322412815624830373e-01 -6.490439912079489782e-01 -3.441095986840197463e-01 5.155585592885351121e-01 6.032929295301963091e-01 3.647854459377730674e-01 -3.613298867542922288e-01 -8.596829041913980340e-01 -8.547965632185000606e-01 -8.441314534057587915e-01 -6.268744593553808864e-01 -5.229182571678779867e-01 -5.265502284061938099e-01 3.645525703326625844e-01 1.179606065240998980e-01 1.978152217548633796e-01 -3.027962080272014189e-01 2.290278719689410603e-01 1.526761567311213375e-01 -2.669105858758447636e-01 -2.959361359733295171e-01 2.535187468218577100e-01 -1.186997634377967847e-01 1.906978182488372198e-01 -1.005017353783683731e-01 1.681149267796218094e-01 -1.542843307790078833e-01 2.695877886967948389e-01 -1.486653873854771324e-01 -2.216407615245409857e-01 -9.925897246747687752e-02 -1.112605431751495094e-01 -2.458371726597581575e-02 -1.469439951849617690e-02 -4.613749093598470963e-01 -6.843134867999951521e-01 -4.977306424249183792e-01 -4.703018640487790503e-01 -7.019713407691277052e-01 -5.300763483141961441e-01 -4.548223007414605168e-01 -6.977000070068903881e-01 -4.289884954745332157e-01 5.139977147498347998e-01 7.486458693037948420e-01 6.119840169299665122e-01 -5.987527262924913218e-01 -8.255058663366006133e-01 -9.357746310521866118e-01 -8.450218899626995572e-01 -4.979622978988484383e-01 -7.240077485656993828e-01 -5.933208614427295524e-01 5.158221380952308088e-01 5.066606330999620100e-01 5.963810526825976677e-01 -1.085459846782153848e-01 1.043225487735861684e-01 2.738157760312510680e-01 1.237154174415312918e-01 -2.462604121866258933e-01 2.233950646378499716e-01 6.909671375651178782e-02 -4.886309870916764886e-02 -7.002523434533587665e-02 1.646297220199759992e-01 8.377591853786556242e-02 -9.632096276361315490e-02 1.977883057472951955e-01 -3.490729854218145856e-01 -2.988706473244897438e-02 -1.456205121384467338e-01 -1.831308023081210101e-01 -2.973405907312588470e-01 -1.258228180010873276e-01 -8.176204071257930917e-01 -1.456205121384467338e-01 -5.786457976125327640e-01 -4.368787476278953585e-01 7.804547226161698825e-01 5.630321268159225317e-02 -1.225777995115339830e-01 5.210233081242528208e-02 1.736001992502947122e-01 -1.456205121384467338e-01 -1.831308023081210101e-01 -2.973405907312588470e-01 -1.258228180010873276e-01 -8.176204071257930917e-01 -1.456205121384467338e-01 -5.786457976125327640e-01 -4.368787476278953585e-01 7.804547226161698825e-01 5.630321268159225317e-02 -1.225777995115339830e-01 5.210233081242528208e-02 1.736001992502947122e-01 -2.681957906565784477e-01 -1.002442399381726773e-01 -1.753450296539839914e-01 -1.063377419618009301e-01 -7.281713684706767609e-01 -2.681957906565784477e-01 -6.452719866020416584e-01 -3.285227472532597504e-01 6.645397562467034724e-01 6.544618803444793298e-02 2.752168852683377701e-02 -2.043710344870090512e-01 4.525028622279905072e-02 -3.732903334816278229e-01 -4.818322942457779479e-01 -4.459283529762338438e-01 -4.989470377512217891e-01 -4.127050948501997940e-01 -3.732903334816278229e-01 -7.809072008745591154e-01 -4.940089929926348433e-01 7.223489641664087024e-01 1.681903110161842713e-02 -1.585070060479650822e-01 2.194112761967922653e-01 -8.387023546749815262e-02 -5.992932500301444421e-01 -6.155662902538417969e-01 -6.356624058541469058e-01 -6.471845260165004499e-01 -6.280952117053112405e-01 -5.992932500301444421e-01 -9.003112228116461058e-01 -6.653064193251191361e-01 7.504619449510323559e-01 1.760462364249974487e-01 2.964609526853328320e-02 -2.880014842074085993e-02
2.760060437388628385e-01 -1.296780733330728068e-02 -1.085774525335734125e-01 -2.100373725929655655e-01 -2.647130148318516465e-02 -5.411041680125403541e-01 -2.524007130525112719e-01 -6.161739234733195486e-02 -5.422161853910975049e-01 3.379576841855071179e-02 7.180425385017512319e-02 -4.853839118651397389e-01 1.704391488933887366e-01 6.966767350754189680e-02 5.574448913423133423e-01 -1.926753379964282753e-01 -6.567805923708504023e-01 -8.008129415427179820e-01 -8.934900692690636026e-01 -3.351930935361766561e-01 -2.967324133788962204e-01 -5.737472158801291133e-01 3.143333689237030604e-01 2.690995412498510264e-01 4.175211191956242768e-02 -3.403887415868798727e-01 3.586607025633037904e-01 -2.641816751447105815e-01 2.098693866355756943e-01 -1.665304580919294841e-01 1.838682850013668157e-01 8.217473900736151082e-02 5.522062435191643463e-03 -1.003243907701560911e-01 1.015387864783066502e-01 2.162812595997206169e-02 -8.421923500619324376e-02 -1.310750246139098796e-01 -2.226550700572744457e-01 -1.492713784933237010e-02 9.011965361991229884e-01 -9.850800926615609077e-02 6.732818060951366312e-02 -9.721611988414022854e-01 -9.556558838149687984e-01 -9.355387604778021560e-01 -9.728472343288838697e-01 -9.579707002542561245e-01 -9.333661991958976945e-01 8.370969406070417618e-01 -1.111908092335556208e-01 7.227112825326410805e-02 9.122680652942942725e-01 -8.628135549356885647e-02 5.656563877095428100e-02 -4.930688486078507737e-01 8.119050223842032565e-01 -9.373937797612451606e-01 -9.269228509623870238e-01 -9.736671052228978995e-01 -9.671517358945409537e-01 -9.332333582441699749e-01 -8.719911697729256783e-01 -9.748271946466052773e-01 -5.615491236395013797e-01 4.615018326519426672e-01 6.042608386228862649e-01 -1.610557086667435966e-01 1.889978282332853976e-01 -2.758467158585288792e-01 3.841837013385894783e-01 4.582404973903306811e-01 5.128339674335470333e-01 3.163321377484389352e-01 -4.191974399449247546e-01 -3.824589570043431808e-01 -2.467102695328287493e-02 9.634995396206644247e-03 4.410131821086624160e-02 -9.559962465058643999e-02 -1.002561165632024076e-01 -6.910032807995140081e-01 -1.078130809812474777e-01 -8.924346883139493147e-02 -6.759171353455722953e-01 -2.757801043398160901e-01 -4.549191580794554324e-01 -7.694234906811099339e-01 -5.822125906097640885e-02 2.091460379809143288e-01 6.778254647067254446e-01 -2.534078075798432694e-01 -5.512895397235942907e-01 -5.435739490950014519e-01 -9.347975004149208234e-01 -1.387464543552816287e-01 -2.658427699543946532e-01 -6.769279224922937210e-01 6.428675194824859940e-01 5.565513223507740914e-01 3.075606627755158584e-01 -3.170845798787388925e-01 3.271855811846485218e-01 -2.775249341326533475e-02 3.985470137157230697e-02 -2.500514146233190904e-01 1.762835918908731980e-01 1.661862791587992161e-01 2.606929025422340396e-01 -1.380657637024533813e-01 9.299114465185163991e-02 -2.868185460293866743e-02 1.012411004993356844e-01 -1.384627663851887847e-01 -2.772089056588060152e-01 6.391043856409332757e-02 -8.169862239489979194e-02 -4.651717452685012744e-02 7.918989252515451494e-02 -4.996159903988953155e-01 -5.610336577989099016e-01 -5.479463011089453772e-01 -5.108608143529593804e-01 -5.707857413475526664e-01 -5.745026007715282601e-01 -4.755597368631704347e-01 -6.730490588487049175e-01 -3.856041935275131283e-01 4.458114940139879523e-01 6.878720642939392116e-01 4.084259915108213179e-01 -4.217853513298410739e-01 -8.523153869076405265e-01 -8.893966943762874333e-01 -8.829123649463819223e-01 -4.970820947038587234e-01 -5.985320512673300009e-01 -6.447976834453296169e-01 7.162823687828756558e-02 1.425517408140053177e-01 2.116402311827465244e-01 -3.361020754506842123e-01 2.832361476392027955e-01 2.930641912393703447e-03 -3.988768949482734277e-02 -2.547696945423662540e-01 2.101186719859483298e-01 -3.331931153794497058e-02 1.461379200956748337e-01 -5.451854982474849121e-02 1.822803910275488382e-01 -2.019172744643649708e-01 3.392974661368515776e-01 -3.766646912542001013e-01 -5.302370240923886396e-02 3.425772312450916374e-02 -1.382239097404945327e-01 -4.205801981193275224e-02 -8.134899623241828581e-02 -4.263509421364828911e-01 -6.912293577974396586e-01 -5.347161895642720264e-01 -4.258378623083438619e-01 -7.072508247593271014e-01 -5.580770555291556523e-01 -4.451860801658452105e-01 -6.902003899294332223e-01 -4.564592064070549515e-01 5.327183164983555486e-01 7.586646587826275656e-01 6.666457218942555274e-01 -5.956931975331957174e-01 -8.105407498034958858e-01 -9.374686840175316949e-01 -8.615947638456350477e-01 -4.463113255388962419e-01 -7.272022850075422484e-01 -6.087086847951534985e-01 5.063599117232522318e-01 4.019414596949668073e-01 5.014322808893114658e-01 -1.770172705206614627e-01 1.340822237785978532e-01 1.676191251477238686e-01 5.869973417180518460e-02 -2.271268907707146290e-01 1.900546298664052558e-01 1.015709026724425645e-01 1.409490011835552378e-02 -6.962017790914615256e-02 2.759462562370124106e-01 -2.998407252180422186e-02 8.642012536954585267e-02 -4.414079727635186745e-02 7.716635437200333736e-02 -7.133025613357549255e-02 -1.638792226022840470e-01 -2.682248099361015936e-01 -3.680637272990988640e-01 -1.937791842858662406e-01 -7.864363990476892496e-01 -1.638792226022840470e-01 -6.053943366808782756e-01 -4.764719629223052588e-01 7.466285842274165141e-01 7.764620728952816020e-02 -5.470205716171036570e-02 -2.504654603955605227e-02 4.390531632629059849e-02 -1.638792226022840470e-01 -2.682248099361015936e-01 -3.680637272990988640e-01 -1.937791842858662406e-01 -7.864363990476892496e-01 -1.638792226022840470e-01 -6.053943366808782756e-01 -4.764719629223052588e-01 7.466285842274165141e-01 7.764620728952816020e-02 -5.470205716171036570e-02 -2.504654603955605227e-02 4.390531632629059849e-02 -2.368699993002552906e-01 -9.405359309894577302e-02 -1.554003824917818966e-01 -1.231915022115802893e-01 -7.415575831011409491e-01 -2.368699993002552906e-01 -6.289385663898561241e-01 -3.171723808331530781e-01 6.764772315592146867e-01 7.604639703998460065e-02 7.975687216277738308e-04 -2.155585991386936850e-01 9.097188848805545791e-02 -4.209589871348369816e-01 -4.782080934756632318e-01 -4.133235576379021836e-01 -5.579235703707232652e-01 -6.808029121961572949e-01 -4.209589871348369816e-01 -8.028543810968111760e-01 -4.371108573386505713e-01 7.762585149915013361e-01 1.150364574029290321e-01 -2.622160341138801143e-01 2.751992259314604561e-01 -7.046740719349857407e-02 -5.959677034675450180e-01 -6.176885823737535697e-01 -6.354058429456648227e-01 -6.408103366186445049e-01 -6.180971334383382754e-01 -5.959677034675450180e-01 -9.005770544869980965e-01 -6.542838807883810670e-01 7.699055524958572372e-01 3.404267179378726027e-01 -5.593011791317759746e-02 -6.755457355705028755e-02
2.723091385810376130e-01 -1.458580734134270855e-02 -1.087107458049396680e-01 -4.777698892766444327e-01 -4.210468900377733470e-01 -7.026515141064300085e-01 -5.137838435097318301e-01 -4.422641149229329938e-01 -7.067145921199490255e-01 -2.821585423285393190e-01 -2.695683737377884137e-01 -5.882268212082050196e-01 3.657416581899973762e-01 2.897566209658826164e-01 6.499638813412518257e-01 -4.907902219684471823e-01 -7.584002423940884308e-01 -8.808766354070707294e-01 -9.288278619160714733e-01 -5.926242688366408773e-01 -5.891262797494177805e-01 -7.237417149950199358e-01 1.163286809078365458e-01 2.876713652080270522e-02 -9.874816497062713361e-02 -1.557287155163689096e-01 1.049613158847817196e-01 3.847756764684195918e-02 -1.070338593883982808e-01 -8.187817732281810201e-02 8.663389214019477647e-02 1.020710008621832782e-01 -4.613463358104395035e-02 -1.031433646998108633e-01 1.609737504538756026e-01 -6.545262594854859423e-03 -2.518753253729383856e-01 2.486471406058859690e-01 -5.881666205366483657e-01 -3.496553660735970959e-01 3.373774503083633025e-01 1.598248548205594421e-01 3.716971548968807104e-01 -9.564242559382641895e-01 -9.648181422954366093e-01 -9.545817018461457693e-01 -9.581071595037068400e-01 -9.665634573731716195e-01 -9.560613344554020898e-01 2.858777580702230314e-01 1.414456816985841803e-01 3.696775335351065173e-01 3.589004186964640519e-01 1.750987056169839573e-01 3.609921777170479462e-01 -1.624490015338859727e-01 1.303456201924693691e-02 -6.752303332964931792e-01 -3.676162438759570938e-01 -9.626158376191813471e-01 -9.717131259252581588e-01 -9.614808668256616953e-01 -5.100103304203776888e-01 -7.494401553226116564e-01 -6.378445518002239245e-01 4.860633389257837389e-01 5.581366797369916588e-01 -2.382818298528093237e-01 2.262067187475952090e-01 -2.652171888828548929e-01 3.243522600612391282e-01 2.505998362390008394e-01 2.792953137517494300e-01 6.285197384761558315e-01 -5.171800073148270505e-01 -4.632795011732305235e-01 5.435835443453308075e-02 3.742094339468447772e-02 8.509498145447750087e-03 -4.363498165448811972e-01 -4.440566887595147061e-01 -7.719946457528363837e-01 -4.471320667600046650e-01 -4.370129325989814406e-01 -7.669524973380860144e-01 -5.366949029289413975e-01 -6.121544183383671456e-01 -8.244049113956141150e-01 3.248185932403652165e-01 5.488397614534867852e-01 7.594210847289342148e-01 -5.268645990867213413e-01 -6.968470331687747210e-01 -6.963929453908127565e-01 -9.461281918658315249e-01 -4.632465736127822642e-01 -5.554208745674454883e-01 -7.863561510413685784e-01 1.261666716735069249e-01 2.441080855361400445e-02 -1.112939742969442647e-01 -7.042150728584499475e-02 1.962704902675867502e-01 1.542507809702633736e-01 1.905308273077328529e-01 -9.804320342673182587e-02 1.274625707496909732e-01 1.801552059117053350e-01 2.730617414439080459e-01 -8.812483253345189393e-02 2.322125830681339154e-01 6.877147758452256676e-02 1.103709045861195476e-01 -1.665880115925754135e-01 -2.699920187337255806e-01 -4.945919545658201272e-02 -5.404754475909527567e-02 -8.084313054224111228e-02 8.429391542156097761e-02 -7.141412591766704843e-01 -6.787463915749751830e-01 -6.831020163939198753e-01 -7.287748966845155607e-01 -6.931854073469133626e-01 -7.000279487492665487e-01 -6.225030907221476006e-01 -7.356165783043863149e-01 -5.071059039766874221e-01 5.907093139021020178e-01 7.402342057469785130e-01 5.329313443293561825e-01 -6.217513254843226589e-01 -9.085817177650438170e-01 -9.091268318317400343e-01 -9.069220830941870926e-01 -7.451037021675067651e-01 -7.300277746465190232e-01 -7.464230495872578031e-01 -1.746285503343808498e-02 -1.253154312714157559e-01 -8.760433115919567804e-02 -2.056293647242023737e-01 2.037584808769971889e-01 7.092630032890697919e-03 -7.282716931417364259e-02 -2.166843098557434677e-01 2.347334954725774359e-01 -1.321651763035356919e-01 1.037750815265755661e-01 5.866073191393372105e-02 7.476962355952011807e-02 -5.352927863163948335e-02 2.408741887705899420e-01 -4.070902564719418026e-01 2.946753651684713357e-02 -4.278426590367250676e-02 -1.076447884236383656e-01 -5.297660976992064896e-02 -3.819373848521885606e-02 -6.327861596810385736e-01 -7.598537473331775649e-01 -6.948270117880334107e-01 -6.419733389282187286e-01 -7.754827566177555642e-01 -7.146639529027529747e-01 -6.235347071999882695e-01 -7.780531653889095622e-01 -6.433782290034768536e-01 6.794661270724150492e-01 7.969544613387996579e-01 7.554946378243504457e-01 -7.248220629326288522e-01 -8.667776668739424206e-01 -9.452266880672162142e-01 -8.987269005150113621e-01 -6.794955827951164595e-01 -7.964693692617923482e-01 -7.425558306660671182e-01 6.211782917086649397e-02 1.912307964130982030e-01 7.675576921152879595e-02 -5.332943271691769488e-02 1.758953666571268226e-01 1.368986374390273597e-01 1.945600585577219321e-01 -1.636719455602518580e-01 3.421126918679871509e-01 6.389377003090922214e-02 1.556531821409140315e-01 4.409629579054574755e-02 1.763818323755531325e-01 9.461239189483194867e-02 1.276938549635844022e-01 7.642934509388804587e-02 8.828748668016184187e-02 -1.977628751183815037e-01 -4.726587269263354818e-01 -4.942007752114652153e-01 -5.670640143272493994e-01 -4.470321384413535881e-01 -8.664792282829910652e-01 -4.726587269263354818e-01 -7.347211606021193386e-01 -6.598255105384577268e-01 3.251790780769130973e-01 -9.009277270795856829e-02 9.326745911037181980e-02 -1.414623310786172483e-01 9.706476156355378637e-02 -4.726587269263354818e-01 -4.942007752114652153e-01 -5.670640143272493994e-01 -4.470321384413535881e-01 -8.664792282829910652e-01 -4.726587269263354818e-01 -7.347211606021193386e-01 -6.598255105384577268e-01 3.251790780769130973e-01 -9.009277270795856829e-02 9.326745911037181980e-02 -1.414623310786172483e-01 9.706476156355378637e-02 -5.254357330827400530e-01 -4.184092251914531269e-01 -4.677263691611801555e-01 -4.254864884490508481e-01 -7.865777731337778578e-01 -5.254357330827400530e-01 -7.463808074702290574e-01 -5.709307069981308658e-01 4.381719174454613841e-02 1.613772095733511658e-01 1.702116503470222503e-02 -3.606235810498961691e-01 5.694315093131187971e-02 -6.214584406629616309e-01 -6.568964775412492463e-01 -6.188145656280705786e-01 -6.957176639515937344e-01 -7.604427989741160410e-01 -6.214584406629616309e-01 -8.612075817561719582e-01 -6.393445296134875333e-01 3.868533876662671456e-01 2.149663187973376299e-01 -3.268708622979235590e-01 4.550989011867931366e-01 -4.256311554504428329e-01 -7.235185247783203488e-01 -7.235648057373371689e-01 -7.390115916446069466e-01 -7.397023830907826225e-01 -7.488803684438285480e-01 -7.235185247783203488e-01 -9.224219115400962288e-01 -7.618210025067644331e-01 2.860067461494090191e-01 2.994500520135106036e-01 1.758592132354278373e-02 1.957776287445666882e-02
2.733009190553615797e-01 -1.687447363198048278e-02 -1.063386210408859139e-01 -4.905969682148562661e-01 -4.132976459938493830e-01 -6.936762827116454977e-01 -5.271879415159095306e-01 -4.406113154285752898e-01 -6.936749751458847202e-01 -2.788175586473776724e-01 -2.458982370494830760e-01 -5.848817402662955800e-01 3.601074603824902520e-01 2.862332865554007011e-01 6.461067626402722253e-01 -4.938290598732656966e-01 -7.641624961772097713e-01 -8.855110569242522489e-01 -9.299203839942524752e-01 -6.041114922364375639e-01 -5.960132051235701445e-01 -7.076335607747767931e-01 7.056251764899583445e-02 1.317173394021645474e-02 -3.272921114270956749e-02 -1.445588391162366815e-01 1.795587128050457337e-01 -1.376598921674941634e-01 2.104869195282536853e-01 -1.011725235296775521e-01 1.814738515374799410e-01 -1.705222427402991806e-02 1.316065487178233184e-01 4.487193391258510744e-02 4.016102051194749695e-02 2.296393824272589118e-02 -1.884573920665697233e-01 -2.025279654688278697e-01 -3.878829548303033281e-01 2.588056631138608774e-02 7.877339250954162875e-01 1.480300428984709371e-01 5.723543436198642864e-02 -9.797275449546958281e-01 -9.743805121123554347e-01 -9.559235674578550057e-01 -9.806754047093435567e-01 -9.755733550949261534e-01 -9.563776604362093092e-01 7.219721553663743796e-01 1.247484313380682747e-01 5.807577916970567411e-02 8.042794970883523353e-01 1.643437173453622668e-01 4.849655970165864249e-02 -1.721470417833520228e-01 5.402174623806547116e-01 -7.021996762411598647e-01 -9.288431756978268172e-01 -9.828445193707233685e-01 -9.788997005782200667e-01 -9.588340060770890183e-01 -7.923248133075901922e-01 -8.344757762542505120e-01 -6.394340686297897980e-01 4.811730965114610070e-01 5.797255759869965885e-01 -1.568585144735791248e-01 1.666867065870228093e-01 -2.343991582155940945e-01 3.238495618550080724e-01 4.217911760391564457e-01 4.580906379351962765e-01 -1.725943580815164080e-01 1.031166802237867275e-01 -3.430351670681309195e-01 5.353375174722481422e-02 3.739303785808840291e-02 3.377274907332802629e-03 -4.263917602935209938e-01 -4.254561042160658335e-01 -7.700171848176211586e-01 -4.393790342743642552e-01 -4.167486784459921711e-01 -7.644334971018453828e-01 -5.334890914111759530e-01 -6.061797466609035734e-01 -8.239600907979801603e-01 2.990150990611764592e-01 5.329788314143654171e-01 7.614283494317964918e-01 -5.169733141313250790e-01 -6.959331860156987570e-01 -7.089544386295931755e-01 -9.488683058496883982e-01 -4.616476276163108960e-01 -5.344283436359700268e-01 -7.841687465321933725e-01 1.926434178322975477e-01 2.100203510723765710e-01 -1.947849480763058291e-02 -1.608510381930131627e-01 2.402561629493756290e-01 1.426492293904995518e-02 9.631821085707432950e-02 -1.865585389546471906e-01 2.036678484296510216e-01 1.549718887676295453e-01 1.400545981578800170e-01 3.955281214194573264e-02 1.682559844360985990e-01 7.470360741647270875e-02 1.572918917289340968e-01 -9.756942161117063139e-02 -2.472045145513766251e-01 9.828096208129730171e-03 -5.160414895853134010e-02 -7.780437398594224063e-02 8.389808378024780910e-02 -7.088763443400600828e-01 -6.600088185594636947e-01 -6.579169828035609235e-01 -7.257248723495617337e-01 -6.773380416850860453e-01 -6.800519465916992079e-01 -6.130479516626802239e-01 -7.270615553630975780e-01 -4.888194176241193456e-01 5.841002117492934964e-01 7.321319995494095512e-01 5.132659085024259271e-01 -6.102546736854836951e-01 -9.124634219637418608e-01 -9.067608295587539224e-01 -9.107345070475267867e-01 -7.463821490503912415e-01 -7.252450269195458432e-01 -7.374424849996931153e-01 -9.135018665286022410e-02 -4.018499178369185499e-05 9.400950322473654308e-02 -2.509864071034786925e-01 2.658219117536556042e-01 -4.333597589227364960e-02 -2.127256809271586141e-02 -2.498734721658055213e-01 2.026462680312312026e-01 -1.068995450062038971e-01 2.576741701755373981e-01 -1.471619044958102085e-01 1.689130007403301381e-01 -1.301818464158445154e-01 3.066328123046446752e-01 -1.241543697413836356e-01 -1.450172435494822554e-01 -1.341338639015642320e-01 -1.082465038165942028e-01 -5.775912460366356554e-02 -3.225456136057890111e-02 -6.218971451108593618e-01 -7.553011344641766822e-01 -6.853693357986382351e-01 -6.313084538055239170e-01 -7.716150926028243484e-01 -7.043122429580191968e-01 -6.215941278738593700e-01 -7.709761289912645532e-01 -6.358308290030615373e-01 6.749346119276732336e-01 7.953342505852977196e-01 7.522968607118604156e-01 -7.175905298632101470e-01 -8.699777319667264530e-01 -9.462097217429042972e-01 -9.075575916636782203e-01 -6.737645775869102183e-01 -7.942309528411085617e-01 -7.344013122127961424e-01 2.275794969689927671e-01 2.484152189266874422e-01 2.655221489988652261e-01 -8.265637374642301194e-02 1.478510231365737781e-01 2.232813199186263753e-01 -5.459062933070830959e-02 -2.310428637849568367e-01 1.914237329566611245e-01 1.649355083918084552e-02 1.900639329035336972e-02 -1.572942879548945294e-01 1.400027692279435521e-01 1.052567269115544431e-03 1.368705891827049458e-02 8.687078678730900116e-02 -9.786449964033480664e-02 -1.539279983940190222e-01 -4.741267170457261759e-01 -4.971211317788358786e-01 -5.724768575736526310e-01 -4.412986350822212800e-01 -8.569371286234470642e-01 -4.741267170457261759e-01 -7.418655434263043968e-01 -6.704883751435399830e-01 3.068175426178367804e-01 1.095969067966874426e-02 8.488112540281020357e-03 -2.071622538611500239e-02 -2.434617688533758165e-02 -4.741267170457261759e-01 -4.971211317788358786e-01 -5.724768575736526310e-01 -4.412986350822212800e-01 -8.569371286234470642e-01 -4.741267170457261759e-01 -7.418655434263043968e-01 -6.704883751435399830e-01 3.068175426178367804e-01 1.095969067966874426e-02 8.488112540281020357e-03 -2.071622538611500239e-02 -2.434617688533758165e-02 -5.152051914106855479e-01 -4.012873710302283237e-01 -4.510224615247739322e-01 -4.160522561371155503e-01 -7.953675338942368667e-01 -5.152051914106855479e-01 -7.502104745966565735e-01 -5.603124448706069405e-01 2.398986649541463290e-01 1.468989708740121858e-01 -7.356812095225742643e-02 -3.075542607165890341e-01 1.756007049761092176e-01 -6.107311387641803924e-01 -6.354987111373722186e-01 -5.939645835319384837e-01 -6.879273875947989891e-01 -7.639360457291224371e-01 -6.107311387641803924e-01 -8.637286323945226885e-01 -6.143894458572146666e-01 5.561529176525520368e-01 5.210287078125531296e-03 -1.384983763279935554e-01 2.328353377459028983e-01 -1.242841049582191909e-01 -7.167505535921230297e-01 -7.164369567081011470e-01 -7.301725611938327809e-01 -7.359804853780842482e-01 -7.394850667994151694e-01 -7.167505535921230297e-01 -9.249361456769569223e-01 -7.503958772810418454e-01 4.580959263874607168e-01 1.648348403115078575e-01 5.978588490522631152e-03 -1.646263421982069874e-01
2.526447003777202993e-01 -1.571779017405982443e-02 -1.030524437097810192e-01 -4.795819900625116761e-01 -4.436189791066275090e-01 -7.133696867635300753e-01 -5.155757926176085526e-01 -4.623878115962480329e-01 -7.160153113277374359e-01 -2.836272995965971599e-01 -2.889344135379324219e-01 -5.918598791196418851e-01 3.430281103562619061e-01 3.082858066607873093e-01 6.634669267211980026e-01 -4.967467898340817700e-01 -7.652034317477419689e-01 -8.897212060082713148e-01 -9.313225038541128598e-01 -5.926487096869604843e-01 -6.065589830907625046e-01 -7.327715862344843512e-01 -3.543808549021407184e-02 -4.544677305281898116e-02 -1.065266625676593720e-01 -2.674340442125698880e-01 1.857866732895853690e-01 3.614238625763901980e-02 -1.027027769198213397e-01 -4.082947611110941677e-02 1.069577675175816950e-01 7.698791830959268723e-02 -3.519785671461957144e-02 1.848176998905275495e-02 6.659305274426467747e-02 1.259566472598717124e-01 -2.445431309037138512e-01 1.153345611099745871e-01 -4.532021772403475035e-01 -1.431089146230933307e-01 3.258861014843087434e-01 1.929537205979831027e-01 3.279747342216413064e-01 -9.669084197461103036e-01 -9.742941215711743430e-01 -9.659182622308528643e-01 -9.674500365098599453e-01 -9.751082610914603155e-01 -9.668244400345646916e-01 2.649951194855313386e-01 1.682459023110178808e-01 3.256144659115891016e-01 3.468097030262211056e-01 2.088231046552730397e-01 3.224409197381207237e-01 -2.068121918348707899e-01 4.092111176710672149e-02 -5.882848240923347349e-01 -4.790802246922889474e-01 -9.684104259217812816e-01 -9.774881694450138214e-01 -9.696962299696574306e-01 -5.834230948589643750e-01 -8.625340427145027355e-01 -7.680057329359262219e-01 4.640315435278654088e-01 5.503544671863432880e-01 -1.021443126107873522e-01 8.078837780204052577e-02 -1.191447039686162335e-01 1.812928056858585657e-01 2.345191039582656400e-01 2.697544227757331936e-01 4.764015435466796844e-01 -4.873545824886805211e-01 -3.676894097831494013e-01 4.317472774217612219e-02 3.641893676631569043e-02 1.194666028075640381e-02 -4.248316526987739317e-01 -4.581081016287285590e-01 -7.787201285354244940e-01 -4.354004882388797237e-01 -4.441654138508027150e-01 -7.712834514136724939e-01 -5.310374436365536965e-01 -6.342171494460941972e-01 -8.342056902456881362e-01 3.156150344865155111e-01 5.599259183015711239e-01 7.667329484972208453e-01 -5.254642736304787620e-01 -6.945779369433066064e-01 -7.224237880740268514e-01 -9.511296738591294986e-01 -4.623200732173083360e-01 -5.443581135154509365e-01 -7.863592195890628522e-01 1.433596084751458666e-01 3.577237793981714875e-02 -8.015520217978236439e-02 -1.817860642279022498e-01 1.988528419133718250e-01 1.143085874100441823e-01 1.842526831418732081e-01 -8.401181414516833978e-02 2.109356056948856195e-01 1.906341618945257832e-01 3.109205569118009271e-01 -4.746646385569803714e-03 1.513031994794653834e-01 1.227880107387730041e-01 2.223361322057819389e-01 -2.019601374261196236e-01 -4.055946443715286454e-01 9.650614656174019701e-02 -4.869698640807584855e-02 -5.007745552769144598e-02 8.575040081358391297e-02 -7.191742450695647326e-01 -6.692058023299461977e-01 -6.910864828232629042e-01 -7.338894984366081120e-01 -6.842760463784207658e-01 -7.065079386021300145e-01 -6.312946475660207168e-01 -7.233157200157374067e-01 -5.190672255688283387e-01 5.942440217838341754e-01 7.477054941675992383e-01 5.573818581440559417e-01 -6.219054754312497435e-01 -9.149224717770959581e-01 -9.053682234944477880e-01 -9.158804460007423653e-01 -7.522474959884364321e-01 -7.251786993638048573e-01 -7.533501347007581783e-01 -2.433593680614214161e-01 1.422240234817422899e-01 -1.451363063762510508e-01 -1.106201588375868294e-01 9.027047936987395160e-02 1.509991490672238368e-01 -9.096625354472101521e-02 -2.496463173586061235e-01 2.226957975612824936e-01 6.926084256040634761e-03 -2.116058115204317788e-02 -9.118977483486494229e-02 1.601412775541613820e-01 -1.560751712206454589e-01 2.355997063608854247e-01 -2.413926706108959763e-01 -9.450746787870643179e-03 -4.553135521242599598e-02 -1.091627681199371369e-01 -6.023352966352921167e-02 -2.731813106920263912e-02 -6.343743437435803711e-01 -7.567933956949146612e-01 -7.128597090065516007e-01 -6.405210578048518011e-01 -7.729457297582497111e-01 -7.245406688426274666e-01 -6.446115709459059318e-01 -7.749984477774085612e-01 -6.737364277234456633e-01 6.892408236146079226e-01 7.994853925194154165e-01 7.781055030779274739e-01 -7.253723500176746386e-01 -8.728293375121093378e-01 -9.469440779284713505e-01 -9.167571288882028213e-01 -6.777897437716691176e-01 -7.963172372980166225e-01 -7.459807623229258722e-01 7.489210941865064031e-02 2.130943080099220732e-01 1.285204406815203260e-01 3.260764557263047536e-02 1.899227646975460912e-02 2.652017981264465640e-01 6.275262679710855163e-02 -1.775736059026482294e-01 2.667557844527680411e-01 1.422437835741869327e-01 1.405072263452365744e-01 -5.893724815120559429e-02 1.850055250805357487e-01 7.587441441872123937e-02 -7.786386154738969556e-02 2.111006539559770814e-02 -1.070444287219334857e-02 -1.419611623767375319e-01 -4.763743666369393837e-01 -5.064016553440346957e-01 -5.789147317408526172e-01 -4.553037335181951972e-01 -8.552597800207158985e-01 -4.763743666369393837e-01 -7.453102148709670471e-01 -6.702580416464631874e-01 3.064497691613075614e-01 -1.515117745320736509e-01 1.500516123285060566e-01 -1.452353093287178931e-01 5.700614972771420735e-02 -4.763743666369393837e-01 -5.064016553440346957e-01 -5.789147317408526172e-01 -4.553037335181951972e-01 -8.552597800207158985e-01 -4.763743666369393837e-01 -7.453102148709670471e-01 -6.702580416464631874e-01 3.064497691613075614e-01 -1.515117745320736509e-01 1.500516123285060566e-01 -1.452353093287178931e-01 5.700614972771420735e-02 -5.233373825228120335e-01 -4.184258845015507711e-01 -4.671583536929789227e-01 -4.313023910933813099e-01 -7.949642162692680536e-01 -5.233373825228120335e-01 -7.538407355895598849e-01 -5.719676089935705754e-01 1.045719887864060837e-01 1.147553442672933494e-01 -5.953224899343524668e-02 -1.139494125393008053e-02 -1.328852268568919692e-01 -6.208815835695601359e-01 -6.606358197960858769e-01 -6.213091739010278003e-01 -7.043279604650326542e-01 -7.607429032494742449e-01 -6.208815835695601359e-01 -8.660102561308009594e-01 -6.401613877306201461e-01 4.094247747578917962e-01 1.274686773984725074e-01 -1.663041286317878120e-01 1.391174234918296782e-01 -1.156850612539638001e-01 -7.235062836736355640e-01 -7.268769580856865309e-01 -7.393217435683301364e-01 -7.468751271735761810e-01 -7.341632791117183032e-01 -7.235062836736355640e-01 -9.272640795560576077e-01 -7.582903362926042279e-01 3.489394975098309426e-01 4.044757582426514730e-01 -7.412795893649762324e-02 -1.137453468235328780e-01
2.960054929830949200e-01 -2.556929121445062833e-02 -1.096960218408877530e-01 -2.255752453706658389e-01 4.156220700031303811e-02 -4.683229207873672584e-01 -2.741786808409565901e-01 -3.244138814159489015e-02 -4.608142552468518227e-01 1.212704550696619595e-02 7.677828253249906199e-02 -3.559312209782793945e-01 1.173434089021428844e-01 -3.577527585548733596e-02 5.316102749292438423e-01 -1.755448511810698276e-01 -6.756062206027670936e-01 -7.743263590413468345e-01 -8.594503506322370701e-01 -3.639384280790856074e-01 -3.825315651984180776e-01 -4.522419994460935566e-01 3.720414150708932777e-01 3.399734619866617846e-01 9.102246679454811806e-02 -2.972264835371608016e-01 2.504183972887156773e-01 -7.622832787440707303e-02 8.834662147196679916e-02 -1.524177163706985638e-01 2.278932085860331802e-01 5.048919665621798281e-02 -3.897519086264972926e-02 -9.318160322870793280e-03 1.210982308930656226e-01 6.293769810464720782e-02 -2.887686681544087697e-01 -1.877987086184383647e-01 -2.648926593137078678e-01 1.813542971499782497e-01 9.106491390128946817e-01 -1.592229520281305266e-01 3.092935937572525301e-02 -9.754944473113259518e-01 -9.633625420396916272e-01 -9.610254364474174471e-01 -9.758890831805784316e-01 -9.641405878128320728e-01 -9.618381943611769014e-01 8.455796358865484974e-01 -1.718325391899999111e-01 3.127072401424713793e-02 9.232060798692058867e-01 -1.415807961257995740e-01 2.378933105874057180e-02 -4.066001019435307451e-01 8.234256300757996083e-01 -9.178177490016881102e-01 -9.435870987427286138e-01 -9.774989984845531277e-01 -9.637161226245009038e-01 -9.645539161937813910e-01 -9.035632165248475012e-01 -9.782129702533989279e-01 -7.160452860757732241e-01 4.474382829442500875e-01 5.814477220898855991e-01 4.828833546762134957e-03 3.020088812772979414e-02 -1.352463572390149582e-01 2.653377968794466413e-01 -3.781887157030280194e-02 7.348701320672703687e-03 4.259857952770164657e-01 -2.699038432756311057e-01 -1.836745781094200058e-01 5.228954135483280391e-02 9.022048891900831535e-02 5.646572829972405089e-02 -1.433068856662900459e-01 8.336110359364604094e-02 -5.557938992894657648e-01 -1.440205754207506683e-01 6.849338902873045032e-02 -5.732310100160630251e-01 -3.471657427203743707e-01 -3.672743201866854323e-01 -6.702044116456089551e-01 7.145195124124088847e-04 3.908345279635672131e-02 4.399152260805768710e-01 -1.864403361081220512e-01 -5.916009784266790250e-01 -3.488122940660026705e-01 -8.834208704326476091e-01 -1.460909958804428588e-01 -2.271859046399844761e-01 -6.340427079419782563e-01 6.520579004868246598e-01 6.247410073644752426e-01 4.006344388501700826e-01 -2.706357865072305802e-01 1.854128026343620506e-01 9.877742509352428757e-02 1.536269071331726292e-02 -2.153069607659237605e-01 2.694418339519615846e-01 2.274097860478175026e-01 2.350633895584274824e-01 -5.928370036409847006e-03 2.340681759951226404e-01 1.533102520351874998e-01 1.568712419055546536e-01 -2.594553712266178813e-01 -2.961136187085448568e-01 2.786710957866230243e-01 -6.107241426961735470e-02 -7.542111047535990376e-02 5.548701553518503582e-02 -4.866946662246779964e-01 -4.139525183247520501e-01 -3.632047690883581370e-01 -5.032097955842095294e-01 -4.315098176006039177e-01 -3.897227783149657121e-01 -4.456362640622264504e-01 -5.972376122947373744e-01 -3.361809450024085266e-01 3.605774687283352931e-01 5.835157107224839823e-01 2.572101262063670735e-01 -3.055444349880264143e-01 -8.512223129587783710e-01 -8.179365047154181223e-01 -7.852196362149408415e-01 -5.137549303303560189e-01 -4.743817926382065675e-01 -4.982110944040115674e-01 1.367032752123711614e-01 1.431537237060900580e-01 2.075418604697706615e-01 -2.964833114053705976e-01 2.303290052163343704e-01 1.940177264061885842e-01 -3.057475485889454281e-01 -2.515100830775611751e-01 2.608517031639444039e-01 -2.033489771637791155e-01 3.225782178391907729e-01 -1.886447023291915048e-01 2.278247508609554661e-01 -1.468036545288237682e-01 1.746971726131724134e-01 -1.418520568206286525e-01 1.667551792154179898e-03 -9.042304330247914745e-02 -2.177154209258534423e-01 2.078034076622633022e-03 2.649142431272033006e-03 -3.363601791107498351e-01 -5.875744234317934467e-01 -4.446769976702905081e-01 -3.360997256478022166e-01 -6.034280288047478846e-01 -4.501180829717679743e-01 -3.223097878245636538e-01 -6.436316879037035088e-01 -4.062388263279262390e-01 4.606185165643626456e-01 6.868601361803013949e-01 6.098556241129216016e-01 -4.940928859106038518e-01 -7.600684108865950472e-01 -9.068801638698563705e-01 -8.240332180383206362e-01 -3.873600500091866627e-01 -6.289369192791615104e-01 -5.005764599894272360e-01 5.081577705736944894e-01 5.615469494862533884e-01 5.573898996407330442e-01 -1.323271027536354338e-01 1.048953395575185216e-01 2.953810439786654918e-01 1.356720195595207956e-01 -2.590836215800368936e-01 2.828968763275533371e-01 -2.534540099263423579e-02 5.158335848586276251e-02 -1.411402640393507602e-01 1.852754207037897727e-01 1.251682513298134625e-01 -1.258761192807954787e-01 1.859049676401966777e-01 -3.727573708123739782e-01 -1.819909909456522978e-01 -1.575738508192133513e-01 -1.869298925492445806e-01 -3.112839517772822417e-01 -1.008230435817837473e-01 -8.141910712645643589e-01 -1.575738508192133513e-01 -5.961515694494390338e-01 -4.605136887473820773e-01 7.564585452556497058e-01 2.134156617909139728e-02 -2.051660250488755027e-02 -7.222623042310598318e-02 1.419227766203533248e-01 -1.575738508192133513e-01 -1.869298925492445806e-01 -3.112839517772822417e-01 -1.008230435817837473e-01 -8.141910712645643589e-01 -1.575738508192133513e-01 -5.961515694494390338e-01 -4.605136887473820773e-01 7.564585452556497058e-01 2.134156617909139728e-02 -2.051660250488755027e-02 -7.222623042310598318e-02 1.419227766203533248e-01 -1.864678540406818075e-01 4.508748794784083087e-03 -9.158237780471853440e-02 -3.673256465406816301e-02 -6.940076270080590692e-01 -1.864678540406818075e-01 -5.791901893587154682e-01 -2.715665257933806975e-01 6.992297782552275853e-01 1.198320727232348587e-01 -1.078257591770457324e-01 -3.138294396052967450e-01 2.791052365115906930e-01 -3.153165259761602779e-01 -4.261399586057709188e-01 -3.607927199488322190e-01 -4.816718226215097043e-01 -4.886422927125346760e-01 -3.153165259761602779e-01 -7.412365302911536613e-01 -4.009897947710092114e-01 7.013310056860819763e-01 3.991308619300303756e-02 -1.027448539468552302e-01 1.373477285677651427e-01 -1.255245117482682027e-01 -5.021956302498987723e-01 -5.346600220419612803e-01 -5.399754884264971189e-01 -5.561654400198834391e-01 -5.162834580020005948e-01 -5.021956302498987723e-01 -8.648016998178514880e-01 -5.330892661624180295e-01 8.348797231218382242e-01 2.324227243157354905e-01 6.254630891109073942e-02 -1.816333696680154930e-01
2.720224680530329286e-01 -1.567431786394495041e-02 -1.043031202980540112e-01 -4.829172020196154658e-01 -4.370077391954447221e-01 -7.031201608437822603e-01 -5.163779588430312817e-01 -4.567319803876724871e-01 -7.048833540808642217e-01 -2.822308592753349221e-01 -2.786136595648673331e-01 -5.908565441500213122e-01 3.651351639304434293e-01 3.110614090152196143e-01 6.574001667217697076e-01 -4.956755053990392068e-01 -7.632372687156728785e-01 -8.916682315199757625e-01 -9.248584610220981217e-01 -5.878948861370024703e-01 -6.048310573151000069e-01 -7.190140294158281487e-01 -1.092143861363815277e-01 -4.340493088531043042e-02 -2.023500875573322200e-01 -8.180118645261873211e-02 1.141487628280231786e-01 -1.436274003351964944e-02 1.454625889294600960e-01 2.320947716536648012e-02 3.473088680122228544e-02 1.222752487588624759e-01 -1.333936269905093910e-02 1.441944667916754685e-01 -3.353224362142855769e-03 1.317017158510548624e-01 -1.187693445526062791e-01 -2.533269765325655287e-01 -2.459959477336524925e-01 -1.225586956866631799e-01 8.878230779716319576e-01 2.181766482293889808e-02 5.706992631870225208e-02 -9.813048160773438777e-01 -9.737077071535397144e-01 -9.669778152346270028e-01 -9.818372624351933142e-01 -9.742499806755122727e-01 -9.676108147103853474e-01 8.202572711301883146e-01 2.165075450160476415e-03 5.548579000245939391e-02 9.024051433698412339e-01 4.060032176330378995e-02 5.153542756860807900e-02 -2.689589921950859552e-01 7.549289718925250581e-01 -8.856680393596729761e-01 -9.398485568552125136e-01 -9.831421543377274475e-01 -9.758227502634535533e-01 -9.699943978878837747e-01 -9.034735167127392330e-01 -8.778986516820400654e-01 -8.672976379664747437e-01 3.937885769612525233e-01 4.841948818957504397e-01 -1.793594631016697805e-01 1.642743217503540576e-01 -2.038737401399866589e-01 2.649647576248135294e-01 2.737959465798385228e-01 3.289303301289601134e-01 -1.689155283042212130e-01 2.649483639135246649e-01 -3.530811322528595309e-01 6.313664709213225035e-02 5.504913398092820681e-02 3.737035445072736141e-03 -4.284426424726084370e-01 -4.619575451733347604e-01 -7.761039889166373440e-01 -4.358811436420174101e-01 -4.430347393499973196e-01 -7.669451630104424655e-01 -5.523366300108607518e-01 -6.435454819902531876e-01 -8.302939569540478404e-01 3.262000970194797178e-01 5.710721997529013549e-01 7.736589413726261411e-01 -5.238714735243670262e-01 -7.021058232980058600e-01 -7.383763765285673575e-01 -9.488118079592944287e-01 -4.643002540769567976e-01 -5.356839964000679188e-01 -7.811168492646062278e-01 1.001713846564434574e-01 4.028483624259169421e-02 -1.195674978202931199e-01 -9.885254351678413043e-02 1.772770285663505807e-01 1.224992364822557050e-01 1.504891792196103306e-01 -2.579666817059123041e-02 1.364661233114584926e-01 2.083363904822594093e-01 3.340639789451247954e-01 5.664461079340728233e-02 1.062755431831635122e-01 1.392603148912890387e-01 1.494705346489540176e-01 -1.808910696323818568e-01 -1.886169855672606976e-01 -5.982537862805099166e-02 -5.137656769118841699e-02 -6.110383103098081942e-02 1.094554902676338343e-01 -7.136859828944442929e-01 -6.740660938404076097e-01 -6.843690746164731165e-01 -7.274678388366162540e-01 -6.871058375931355933e-01 -6.959961800357526984e-01 -6.361927648875236319e-01 -7.305991083349099302e-01 -5.151441719966834976e-01 5.886735300203491672e-01 7.570754578284049074e-01 5.740933707858028034e-01 -6.137582876591158865e-01 -9.098418746890171160e-01 -9.039032672861680995e-01 -9.124804275698874534e-01 -7.458871238027783290e-01 -7.252549936442235223e-01 -7.417975472898628020e-01 -1.120723631419548311e-01 -1.471977680055736870e-01 9.983592385909821620e-02 -1.426465478074643023e-01 1.101267635254664229e-01 2.016554650930301729e-01 -2.968919605150607266e-01 -1.158409199231072023e-01 1.605932296143912363e-01 -8.533270509678511639e-02 1.891161872681224043e-01 2.712738321775552078e-03 3.500241873402867854e-02 -3.034345183787743802e-02 1.102059247322989405e-01 -2.373058654693065705e-01 -1.039921886525926042e-01 8.490820533353080068e-02 -1.028603778738421404e-01 -5.720089427985377423e-02 -2.363433888461461546e-02 -6.332432798326410595e-01 -7.653529526892065560e-01 -7.186118990470652390e-01 -6.375640720800135330e-01 -7.791604693515752356e-01 -7.244257370929204631e-01 -6.471548344013879905e-01 -7.888173455587935701e-01 -6.968397128834472598e-01 6.934532798632616624e-01 8.090369938086774404e-01 7.850531054799138042e-01 -7.276640862611930549e-01 -8.750613128642322769e-01 -9.476293416202968833e-01 -9.248619267913039677e-01 -6.728340776619714525e-01 -7.997926747541999060e-01 -7.409743091325752262e-01 -2.254108591186127983e-02 3.156139395102477291e-02 8.499555227850570660e-02 4.734185392065965586e-02 5.557135497362058335e-02 3.597374102312956290e-01 9.628176370238399062e-02 -9.806787093926001841e-02 2.518496247995379855e-01 1.117060852820671024e-01 6.147116555885627498e-02 9.118374008526794472e-02 1.104022047310077720e-01 1.243677187724322869e-01 1.280478744737698349e-01 -1.425202745095396906e-02 -2.149778654041445969e-01 -4.383163303573477110e-02 -4.773098081216792798e-01 -5.079644260338304074e-01 -5.806834120492310181e-01 -4.571324437553317965e-01 -8.487338660469706531e-01 -4.773098081216792798e-01 -7.431862466907277476e-01 -6.720805054247699362e-01 1.309455761597969059e-01 5.779193371661460465e-02 -5.348765015264508177e-02 5.696872789004089888e-02 -3.060157081826625838e-02 -4.773098081216792798e-01 -5.079644260338304074e-01 -5.806834120492310181e-01 -4.571324437553317965e-01 -8.487338660469706531e-01 -4.773098081216792798e-01 -7.431862466907277476e-01 -6.720805054247699362e-01 1.309455761597969059e-01 5.779193371661460465e-02 -5.348765015264508177e-02 5.696872789004089888e-02 -3.060157081826625838e-02 -5.213671417299724498e-01 -4.298468623412047274e-01 -4.716530100140393644e-01 -4.503975021091778386e-01 -7.858842076103846885e-01 -5.213671417299724498e-01 -7.607105242302326653e-01 -5.684852737409921142e-01 6.884953551016642637e-02 1.562499457753300236e-01 -8.278878661319086230e-02 -1.099394743158468440e-01 -5.274009678034521226e-02 -6.136385883159282129e-01 -6.638324561031784254e-01 -6.231155899854160518e-01 -7.129646682094885612e-01 -7.518903458508815474e-01 -6.136385883159282129e-01 -8.606279904408010717e-01 -6.390903429539860348e-01 2.308765186025880656e-01 4.776564211510020419e-02 -1.383963589659133742e-01 1.853216452690247262e-01 -1.393049048495050013e-01 -7.260075313602039060e-01 -7.403439763427202003e-01 -7.498317982422459949e-01 -7.631385806176107511e-01 -7.231536279965660174e-01 -7.260075313602039060e-01 -9.292820794381900784e-01 -7.632414643379495933e-01 1.468446369488774217e-01 3.198475546895584998e-01 5.087084345353495851e-02 -1.501974063176077512e-01
2.752567267308032584e-01 -1.122417245425089659e-02 -1.054404015463293182e-01 -4.716046588654861371e-01 -4.132590484274160092e-01 -6.808340339507258365e-01 -5.053847743793288272e-01 -4.339154811949733626e-01 -6.835153314654769385e-01 -2.657721247108157936e-01 -2.597440806409457847e-01 -5.823687372511171523e-01 3.688786458363215726e-01 3.001995106699759108e-01 6.375383868543260668e-01 -4.757188923850197981e-01 -7.589387211854218274e-01 -8.897359667548278006e-01 -9.168343808430979847e-01 -5.776633089599291226e-01 -5.882656109506325670e-01 -6.982871561826579088e-01 -2.736401224725855050e-02 1.557491592109961354e-01 -1.170608949833199242e-01 -1.681256734363884564e-01 2.859324294784227893e-01 -2.385406530070934561e-01 3.360050081443399228e-01 -7.504660345382320463e-02 6.026463684800734133e-02 2.699016791913517177e-01 -2.710744123271676687e-01 5.061579125435956145e-02 2.756599822201985864e-02 1.366941301726471991e-01 -1.161479626766286494e-01 -6.459247926829915498e-02 -3.113542380072769622e-01 -5.313176986213694747e-02 9.285487004546345569e-01 -9.584157034621720861e-02 -2.931012468806978855e-02 -9.811007751349208883e-01 -9.614733086952133023e-01 -9.630769680737578664e-01 -9.816163050611954599e-01 -9.614547564974958993e-01 -9.636637057755771396e-01 8.608603184560289501e-01 -1.093156142143327098e-01 -2.956398438051094021e-02 9.422110722819067030e-01 -7.839385664284799493e-02 -3.593992938040630608e-02 -5.437377460791197326e-01 8.498168100180656381e-01 -9.498944261985340365e-01 -9.547455632169777884e-01 -9.830560333745702595e-01 -9.619799074455082089e-01 -9.659590758080771611e-01 -8.991298666359345271e-01 -8.115073294416157434e-01 -9.444225747824520623e-01 3.205871724524446686e-01 4.593667713733218250e-01 -1.251897398983079779e-01 1.038964321758795856e-01 -1.406924881788862158e-01 2.006298430656465737e-01 3.094809773248013429e-01 3.626928563768324065e-01 -1.452935335556271579e-01 5.160760193145801089e-02 1.712793088756022972e-02 6.785911747956656359e-02 4.758420114862885186e-02 -1.281170428793540863e-04 -4.239455968667603658e-01 -4.462517930667864730e-01 -7.608279364711320047e-01 -4.310178237749088814e-01 -4.288076204105043532e-01 -7.502215877714232262e-01 -5.504035948420077373e-01 -6.325457308740738416e-01 -8.174720118959128978e-01 3.243752838792402504e-01 5.544222477328459853e-01 7.615141202990456382e-01 -5.117375002686508356e-01 -7.088356457950065748e-01 -7.409629129207314646e-01 -9.429071475394664725e-01 -4.604015856599723566e-01 -5.264913174647838368e-01 -7.646414558447881538e-01 2.136145886579760012e-01 1.466637202013219010e-01 -2.047173639716971891e-03 -1.956608952987909378e-01 3.442496442277397928e-01 -2.732876716729043878e-02 1.474964716296111034e-01 -5.959136622440013020e-02 9.173000409955883727e-02 3.251508434779748491e-01 3.906067144134602320e-01 -3.192790004697880490e-02 7.917696675650823246e-02 4.719155612414508566e-02 2.824713521048087816e-01 -8.004520386904102891e-02 -2.259588809427180434e-01 -1.723938284222333306e-01 -6.511047187192807451e-02 -5.759439136084974764e-02 1.039439102740379317e-01 -6.991790302764046006e-01 -6.652515272054315698e-01 -6.636086475363623949e-01 -7.139103960503069279e-01 -6.788019293514842012e-01 -6.756522420458086486e-01 -6.273489718956795080e-01 -7.189652596116673511e-01 -4.957699836224813694e-01 5.725060273499782415e-01 7.491844863241905461e-01 5.595318506081716770e-01 -5.965166190581935313e-01 -9.012947399237688506e-01 -9.029650984422156190e-01 -9.049331808701630564e-01 -7.348300273722535580e-01 -7.158453596609761771e-01 -7.234486473924898187e-01 -8.533822803375042121e-02 -5.463008063878922044e-02 1.601980746316800444e-02 -3.889014284062534688e-01 3.326174427092262187e-01 7.019834567243060652e-03 -9.723505591084938282e-02 -1.519231522901738629e-01 2.110845318925650971e-01 -1.983949008715077122e-01 2.757592356425008218e-01 -1.098470879351392815e-01 1.683131313570382093e-01 -1.489895113372880775e-01 1.767604142781149801e-01 -2.144398212942947857e-01 -1.160093927248988521e-01 1.025858715402180737e-01 -9.932455869202827525e-02 -5.401714984016420945e-02 -2.246055580837840945e-02 -6.226877869251726816e-01 -7.574821962670964526e-01 -7.088877728316137494e-01 -6.273761351335702674e-01 -7.729308418332380137e-01 -7.145257932571150716e-01 -6.320166922589304237e-01 -7.833908085437660818e-01 -6.951472462525999374e-01 6.813901473622896443e-01 8.001170562137692732e-01 7.736178849330188623e-01 -7.194924897215865256e-01 -8.733344916865966034e-01 -9.462898635907732725e-01 -9.240208197929001832e-01 -6.612041785922532222e-01 -7.964745839677886963e-01 -7.316558810495092935e-01 1.516304295320263784e-01 2.277455467447939974e-01 1.720907683045918846e-01 -2.258884738926667524e-01 1.814355107495716490e-01 1.662164834479811504e-01 1.037667222489113139e-01 -1.466017706641122298e-01 3.255470730822375702e-01 1.382640928995760091e-02 1.023788589739130783e-01 -3.617533145771083258e-02 2.010930294442350996e-01 8.445192935975893989e-02 -1.396930434339104486e-02 -3.202315850204379144e-02 -1.201363368205213833e-01 1.003948177249354701e-01 -4.573387752585578725e-01 -4.920371896117754495e-01 -5.641274881443190115e-01 -4.437176640002150063e-01 -8.382574570410240566e-01 -4.573387752585578725e-01 -7.367849005216762226e-01 -6.555643532585547772e-01 3.234739219659334419e-01 1.025279228513748947e-01 -3.975066208900434467e-02 4.109296280974418514e-02 -1.705434852675115076e-01 -4.573387752585578725e-01 -4.920371896117754495e-01 -5.641274881443190115e-01 -4.437176640002150063e-01 -8.382574570410240566e-01 -4.573387752585578725e-01 -7.367849005216762226e-01 -6.555643532585547772e-01 3.234739219659334419e-01 1.025279228513748947e-01 -3.975066208900434467e-02 4.109296280974418514e-02 -1.705434852675115076e-01 -5.096759433990524224e-01 -4.222989980745414651e-01 -4.620282356645027400e-01 -4.433375554309566535e-01 -7.759785436715040952e-01 -5.096759433990524224e-01 -7.623183302902724057e-01 -5.576221086503994062e-01 2.017232716870265841e-01 2.260985270951599568e-01 -5.657280700995309664e-02 -1.092323785353958854e-01 -1.973868572506533858e-01 -5.961997694429275185e-01 -6.498643776626363833e-01 -6.074690991667387463e-01 -7.014507587975382652e-01 -7.428656412734884196e-01 -5.961997694429275185e-01 -8.519724969520371394e-01 -6.229688198309193403e-01 4.149048161173871097e-01 2.011043885800536390e-01 -3.471900934409369310e-01 3.817162460352274134e-01 -2.053137109616090250e-01 -7.173463288187578168e-01 -7.322174786071908859e-01 -7.424521407774908877e-01 -7.582527317982945547e-01 -7.099235894734329255e-01 -7.173463288187578168e-01 -9.279251298493683686e-01 -7.565078366415333155e-01 3.557813721210767999e-01 3.317077486439059530e-01 5.710265347588509149e-03 -5.739498970418233786e-02
2.311554791572686673e-01 -2.110240770100196145e-02 -1.078284074808670695e-01 -4.299645870542559423e-01 -4.054877020256603681e-01 -6.626822586000142845e-01 -4.623784359838076230e-01 -4.256783053684370377e-01 -6.661518737860007144e-01 -2.505268152238058765e-01 -2.559430381595842463e-01 -5.831618907572910793e-01 3.228059165640189687e-01 2.970929081543071670e-01 6.164897478567443745e-01 -4.406027661318067667e-01 -7.489488448987525748e-01 -8.870155167560775933e-01 -9.065253157897397163e-01 -5.340472272497222006e-01 -5.804560603845266842e-01 -6.824557734147362886e-01 2.109058926499715256e-02 -8.147325103581841421e-02 -1.197633047986585708e-01 -2.894567157162962201e-01 2.270169952153917314e-01 -2.407782827517922219e-02 -6.818187680082490876e-02 -1.345991728244710084e-01 1.707702156106695457e-01 8.228041479941625158e-02 -1.182947193292170768e-01 -4.819430304363019058e-02 1.236801658909987139e-01 -4.997082604533067268e-02 -1.287072308442523128e-01 -1.373948982621219124e-02 1.789043088264809581e-02 1.899150872560201875e-01 2.539689117438002075e-01 1.598757707237051795e-01 2.421536382323519476e-01 -9.170369772769771943e-01 -9.610593939486140602e-01 -9.551602011047953811e-01 -9.154824612351843971e-01 -9.615016402886318314e-01 -9.551571925043111921e-01 2.067123338611457917e-01 1.393085863388808521e-01 2.410468893839214088e-01 2.603867979755229434e-01 1.724672225802882097e-01 2.341265809523520314e-01 4.545123736446875923e-02 2.146149394534329624e-01 -5.878772600046380248e-01 -6.262610802244610309e-01 -9.108867877074985353e-01 -9.630996080030992390e-01 -9.558450088115677534e-01 -8.912024911905623847e-01 -7.472899235976634413e-01 -7.744156481390161995e-01 5.489651542370794779e-01 6.313695723798588011e-01 -9.930100301956200359e-02 7.421386016074145442e-02 -1.089600984828748981e-01 1.678050952323221767e-01 3.735270211763629389e-01 4.173163726854700051e-01 5.788499025192386238e-01 3.617741553791783415e-01 4.128501884756221596e-01 8.048655523873811390e-02 5.670295125553582311e-02 5.786145600319019672e-03 -4.126021690162388622e-01 -4.430473615490295169e-01 -7.501572092834036809e-01 -4.210353688158153251e-01 -4.239647582996136088e-01 -7.403023544262630207e-01 -5.365542599313938288e-01 -6.270955450626638505e-01 -8.064359046527931341e-01 3.129482728616335696e-01 5.645897133730453099e-01 7.504483026542275725e-01 -5.025584917703979082e-01 -7.125308981618283521e-01 -7.403442454090051195e-01 -9.344216723768077326e-01 -4.514900217893424994e-01 -5.235765161615035801e-01 -7.560186687086001278e-01 3.122416783015494746e-01 1.423072398173051145e-01 -5.288046006382830788e-02 -2.035316194457972294e-01 2.095709504309754834e-01 1.592849268726170275e-01 5.647407605234404382e-02 -1.545520899758230371e-01 2.550806617007719823e-01 1.855400093997572608e-01 3.267038141127086015e-01 -6.171591199522279830e-02 1.832359112977308413e-01 4.569272738650251992e-02 2.375993549476074912e-02 -4.656784395878674210e-01 -1.776157671836064156e-01 4.007686926496427382e-02 -7.407453247458740953e-02 -3.918565888645115375e-02 1.210464264741647200e-01 -6.885852858961951650e-01 -6.413587730819515498e-01 -6.392398295301061628e-01 -7.034492863905958959e-01 -6.555241155408078058e-01 -6.526898442515529641e-01 -6.253874310530909142e-01 -6.967443371320590773e-01 -4.824345845655188536e-01 5.595274626040316335e-01 7.463599823463725746e-01 5.427888912455023362e-01 -5.655567763805500192e-01 -8.895361136250399259e-01 -8.996047887351377170e-01 -8.942628249209304547e-01 -7.244656831626757887e-01 -6.956118193855137521e-01 -7.060612993228935208e-01 -1.132735711695952163e-02 5.388395695151256687e-02 1.923316850560578828e-01 -1.784875977534672031e-01 1.511050874642204667e-01 7.516375169072474216e-02 -1.152681299586605923e-01 -3.102856952876166807e-01 3.024358473944473991e-01 -2.265125407381978484e-01 2.405185981387483185e-01 -1.582471409951430874e-01 1.295846657765951648e-01 -5.462343431731353505e-02 1.547157852298815806e-01 -3.830462927768289449e-01 2.027129172052332673e-01 -2.910198474234957922e-01 -9.143009827008626023e-02 -5.409629691303204091e-02 -3.362738981296446716e-02 -6.154280376181084922e-01 -7.504777675471159260e-01 -7.009710968716409418e-01 -6.197781454385838940e-01 -7.655277429287521418e-01 -7.048287939845370165e-01 -6.179010463728276115e-01 -7.800903064688531341e-01 -6.960287264054728640e-01 6.800611166789886086e-01 7.928575784110654112e-01 7.668793280312092842e-01 -7.114845129450326766e-01 -8.689397491701411624e-01 -9.430189695995131460e-01 -9.205487124091487061e-01 -6.527101709361712301e-01 -7.901890520828422915e-01 -7.192461912266149282e-01 1.391936309009905448e-01 3.052909769838260123e-01 1.478043894943542047e-01 -2.098976552186948216e-02 1.119757581717428507e-01 1.810140454906692953e-01 1.646880188300194336e-01 -2.688273904661168112e-01 3.038269312078331619e-01 5.697849748491173177e-03 -3.897799543687967272e-02 -8.687745446603838129e-02 6.303914701052132363e-02 1.111871709813173903e-01 -1.172950147853831365e-01 5.051106922163379337e-02 -7.072386342571237994e-02 -1.315228715616814370e-01 -4.186889811383258109e-01 -4.503104149877210638e-01 -5.220288372405200716e-01 -4.075290472074116210e-01 -8.304176164178350694e-01 -4.186889811383258109e-01 -7.250717652809519631e-01 -6.123704734845010211e-01 5.238877061037326976e-01 -1.602442223508518393e-01 1.380658387683084132e-01 -5.464849128660585059e-02 -4.474675141509517479e-02 -4.186889811383258109e-01 -4.503104149877210638e-01 -5.220288372405200716e-01 -4.075290472074116210e-01 -8.304176164178350694e-01 -4.186889811383258109e-01 -7.250717652809519631e-01 -6.123704734845010211e-01 5.238877061037326976e-01 -1.602442223508518393e-01 1.380658387683084132e-01 -5.464849128660585059e-02 -4.474675141509517479e-02 -5.005913875976676364e-01 -4.158066978083009846e-01 -4.529163858241266327e-01 -4.393225173781619697e-01 -7.674762391834998310e-01 -5.005913875976676364e-01 -7.604880084215550617e-01 -5.473017358593474935e-01 2.449957446074690348e-01 9.348708710409932288e-02 -1.006100020966451125e-01 -8.280458482766937800e-02 7.365764648166547857e-02 -5.652877219867847858e-01 -6.254139695894609385e-01 -5.839449077442413483e-01 -6.772082427632722945e-01 -7.127450159245739547e-01 -5.652877219867847858e-01 -8.388881546454584059e-01 -6.046378032919765833e-01 5.173622496247824998e-01 -5.642098470488841194e-02 -4.930838229602999695e-02 1.394694518474487999e-01 -1.021890459515132910e-01 -7.088468745704158414e-01 -7.270705798292390609e-01 -7.364079889374267607e-01 -7.542455057730539369e-01 -7.023105328156896698e-01 -7.088468745704158414e-01 -9.243817208627518323e-01 -7.484700615640325072e-01 4.254084391652177555e-01 2.235902721732014320e-01 -1.641630981365546083e-01 5.964932028447655910e-02
2.589006711069472000e-01 -9.911348314097623291e-03 -1.028687389803281532e-01 -1.425970643927292891e-01 -7.177172340258271277e-02 -5.082749615600397064e-01 -1.892312857814772431e-01 -9.543788138424394440e-02 -5.151905331594364146e-01 1.337458881524350718e-01 -1.133483058606375889e-02 -4.514312423996810208e-01 9.094570551810407522e-02 1.145413972256461022e-01 5.170239989857543517e-01 -1.565257780465180160e-01 -6.053672251910561242e-01 -8.211691942409492517e-01 -8.683331799839812959e-01 -2.909148390028418185e-01 -3.464916275261922252e-01 -5.479807761677536471e-01 2.723933854979397884e-01 3.240585425553959564e-01 1.294624359549381154e-01 -4.122376395762822887e-01 3.922201772976195433e-01 -2.145075987143201246e-01 1.670965643111624599e-01 -1.360651674311314507e-01 1.699057903574741346e-01 1.146739832782892043e-01 -8.210420015434656549e-02 -8.021936851731197027e-02 1.095639210646705275e-01 9.412477387377009286e-02 -2.107106417168023715e-01 -1.621973250178831705e-01 -3.614373824422776882e-01 1.726817218940893822e-02 9.415188797620881456e-01 -1.570940241619955824e-01 -2.442109682817631550e-02 -9.759141011497806106e-01 -9.484250537778764478e-01 -9.483308612903932344e-01 -9.767079274114195409e-01 -9.485388731932664630e-01 -9.500210090768772542e-01 8.759746111238611022e-01 -1.644055443302730457e-01 -2.161159888926588585e-02 9.525028556498457144e-01 -1.411392387064608900e-01 -3.485976682091167927e-02 -4.352219249404662982e-01 8.655764779516506024e-01 -9.389456531108366644e-01 -9.695138453662773825e-01 -9.791475639485311966e-01 -9.496724412118171532e-01 -9.549330712383331532e-01 -8.801327498811878369e-01 -9.844187580366069446e-01 -9.458472323157449679e-01 4.184515689912781111e-01 5.575212091054684294e-01 -1.470899463379767569e-01 1.651156343287302486e-01 -2.421940158924909270e-01 3.411081789405379094e-01 3.968295281382358541e-01 4.657320366454346661e-01 3.033511119118619676e-02 -4.949738128499026751e-02 2.503000184720491905e-01 -1.245410654970952186e-01 7.215075872078718922e-02 -2.403087967180124462e-02 -6.278383126703304673e-02 -1.131503058039974863e-01 -6.354858678362572677e-01 -6.523021409922058478e-02 -7.213182087298709855e-02 -6.154283836166030142e-01 -3.355699188414972278e-01 -4.458036893418673707e-01 -7.325010671631339010e-01 -8.364087896391982080e-02 3.161192774312895359e-01 6.424956361942193439e-01 -2.099340747148270292e-01 -5.226655810165117266e-01 -5.725145125725614736e-01 -9.086105110805267060e-01 -1.190794077409559615e-01 -2.028789031583840552e-01 -6.170277026946596743e-01 6.972810208045779889e-01 5.597539710509065181e-01 3.659215393268958616e-01 -4.122354808325482400e-01 3.122345245383961188e-01 -3.107579529300017601e-02 4.061164419630269862e-02 -1.899777863035782555e-01 1.999517187132731078e-01 2.113573379072212766e-01 2.917139773915075063e-01 -8.887234697197461675e-02 8.382454230061617273e-02 1.386076727092941108e-01 2.738831120150650444e-02 -7.289695045126219630e-02 -3.570527501338299214e-01 -1.001306159616157931e-01 -8.984702894986568156e-02 -4.460403704928122409e-02 1.356364387565718033e-01 -5.218672161604668291e-01 -4.507836267683348330e-01 -5.035439855262913156e-01 -5.543396346754887460e-01 -4.730985095632491699e-01 -5.278864555982918372e-01 -4.715317722798903488e-01 -5.629014931858947746e-01 -3.671659041298642734e-01 4.137187750749622417e-01 6.614900902483031864e-01 4.177476327094408748e-01 -3.734888696797682428e-01 -8.434617452631618661e-01 -8.328507412663325171e-01 -8.602572160931923895e-01 -6.039705414114548976e-01 -5.455958775084217560e-01 -6.043528783853384656e-01 5.313129905935027458e-02 8.429595354924176998e-02 3.379122205357216746e-01 -3.024002931173146447e-01 2.659176330547931566e-01 1.127793239363109601e-01 -2.520940262592027969e-01 -2.473050117000012982e-01 2.621666998224959078e-01 -2.100396340088623026e-01 3.143652478804964678e-01 -1.407839234340624579e-01 2.206666301143679898e-01 -2.107380085314498330e-01 2.613482448547567172e-01 -1.937960641758872393e-01 -9.642695284186328375e-02 5.841995654462820570e-02 -8.151654861387551410e-02 -1.169987752000440639e-01 -1.109074340525233529e-02 -3.692488947348137596e-01 -6.083107992096598027e-01 -5.458994901959050017e-01 -3.801538906844419419e-01 -6.376479910330113965e-01 -5.499804680806925639e-01 -3.682215638106637878e-01 -6.597320057656147485e-01 -5.329251584775442918e-01 4.894720291798259071e-01 6.577829807099817572e-01 6.546158067933390834e-01 -5.463470296312976648e-01 -7.776434669623294438e-01 -9.080606749543664868e-01 -8.832780371630083449e-01 -4.334639880211731966e-01 -6.862800315550581232e-01 -5.788109355807795620e-01 4.876670427462064805e-01 5.535648215123798455e-01 5.400249991532247718e-01 -1.267525201195818241e-01 1.575313647633342640e-01 2.682854473899831116e-01 1.305269517276974878e-01 -2.510335233139683875e-01 2.916223928859159042e-01 -2.300152263834688571e-02 1.147100837210719357e-02 -1.103963571843331604e-01 2.434791071731789158e-01 3.478146122431234610e-02 -7.138647797731215161e-02 -4.422810812675562198e-02 -2.273772752750667370e-01 -1.454080946151713844e-04 -1.242293315643011875e-01 -2.183261597187816649e-01 -3.273223204943708775e-01 -1.528646268788865781e-01 -7.739495815752890362e-01 -1.242293315643011875e-01 -5.711764357950195325e-01 -4.683269343115847860e-01 7.867275613562683123e-01 -4.806378633072594386e-02 6.237025146962359851e-02 -7.291279941762168759e-02 1.047921027895233441e-02 -1.242293315643011875e-01 -2.183261597187816649e-01 -3.273223204943708775e-01 -1.528646268788865781e-01 -7.739495815752890362e-01 -1.242293315643011875e-01 -5.711764357950195325e-01 -4.683269343115847860e-01 7.867275613562683123e-01 -4.806378633072594386e-02 6.237025146962359851e-02 -7.291279941762168759e-02 1.047921027895233441e-02 -2.009756163815838992e-01 -8.871881468535905424e-02 -1.456431393154998810e-01 -1.345048869597945673e-01 -6.185211490928711475e-01 -2.009756163815838992e-01 -6.105528297201937571e-01 -3.059005332779206054e-01 6.948259151571501979e-01 -7.303609888342305068e-02 7.042196952494529649e-02 -4.670486791712829405e-02 -6.649039372616259713e-03 -3.657625751467126207e-01 -4.399339037434317756e-01 -3.701257920772992316e-01 -5.156910867054393943e-01 -6.536878367758603980e-01 -3.657625751467126207e-01 -7.606563959401148045e-01 -3.826889194504159986e-01 7.079057796427178362e-01 4.859884746081787749e-02 -1.492167956746779933e-01 1.745847396297104948e-01 -7.391267142380665567e-02 -5.421941569680142070e-01 -5.581802651660443537e-01 -5.739678249017702294e-01 -5.999753986031898245e-01 -4.666699893687961120e-01 -5.421941569680142070e-01 -8.772874569563979819e-01 -5.984438243753920084e-01 8.001033509131392218e-01 2.288330317976950135e-01 5.299646400818984471e-02 -1.674694057650585877e-01
2.877161567671306375e-01 -1.751245020429511093e-02 -1.067527423412100718e-01 -4.606554590427744955e-01 -3.655596129407243655e-01 -6.331144380718346509e-01 -4.912319489698411812e-01 -3.909566702457962784e-01 -6.395215936545496360e-01 -2.648257560329201898e-01 -2.045577297290104568e-01 -5.774655821503444919e-01 3.988142645495572625e-01 2.934857538384049169e-01 5.820086285163100781e-01 -4.460866837611333624e-01 -7.455315593975635480e-01 -8.834149110334804655e-01 -8.883843044685699741e-01 -5.574970558523665298e-01 -5.567481064670668500e-01 -6.641207732065433911e-01 -3.956115456691787317e-03 1.228564634671169692e-01 -2.347260784885858362e-02 -1.744832405580238333e-01 2.316642391560687630e-01 -1.530935087379791393e-01 1.500692313571513059e-01 -1.035169220223073755e-01 1.113741054409377040e-01 9.668555856535034423e-03 9.937785098285555063e-02 -1.247317605040815583e-02 6.199852842002485237e-02 2.458894815220027605e-02 -1.171343891655751146e-01 -1.672688378609292759e-01 -3.434862927985721792e-01 2.003474711826047361e-01 9.420472737428284837e-01 -1.306828369178987259e-01 1.687410964615847567e-02 -9.775462674887198666e-01 -9.578757903572232557e-01 -9.526435935626950124e-01 -9.783158694647683395e-01 -9.594807574022484742e-01 -9.544652769809853776e-01 8.756002824223162451e-01 -1.427449719143878415e-01 2.038343441383046184e-02 9.541539070423841196e-01 -1.155926333019630797e-01 8.863892495312851449e-03 -4.374376907155245187e-01 8.607036367372620234e-01 -9.506720099083529885e-01 -9.658450800221363153e-01 -9.803657923518092066e-01 -9.642347839451893554e-01 -9.600534222263684692e-01 -8.669315457598055774e-01 -9.824426803664483288e-01 -8.149127963339924952e-01 4.375796013048179334e-01 5.302244200347686620e-01 -3.239120133418980085e-01 3.140377518531607959e-01 -3.493376582355159909e-01 4.022591231162498948e-01 5.423275548386877754e-01 5.936968324595617297e-01 9.714795122305723563e-02 -2.261812438483429832e-01 6.569183929431135494e-02 6.919914456958543847e-02 7.924698268198143714e-02 5.518163355958117557e-03 -4.402023635672509538e-01 -4.455260829661216171e-01 -7.260190994363124872e-01 -4.429867951143063309e-01 -4.217773956755905274e-01 -7.160252934750304110e-01 -5.747349151914569187e-01 -6.216067453914383423e-01 -7.849127745728505801e-01 3.554482289777655124e-01 5.767776349175020023e-01 7.243610580846223668e-01 -5.023635899959735251e-01 -7.237767697261182631e-01 -7.432421329309181202e-01 -9.175814872059623317e-01 -4.632587858903318145e-01 -5.133809795072292737e-01 -7.367166086986337570e-01 1.738020894163255503e-01 2.193147891273060923e-01 1.680104370347645319e-03 -1.735017665909471818e-01 3.287898210651596376e-01 3.744670430044448606e-02 1.674406599719398259e-01 -1.674835695223027832e-01 1.606862140357881996e-01 2.456391757133643758e-02 3.075275181142507752e-01 -3.228067811159897327e-02 6.738616044195637478e-02 9.551596168066807391e-02 -7.553314651988328465e-02 -1.152419775520650003e-01 -5.901955637926667442e-02 -4.199561810143766401e-03 -8.572301138819110600e-02 -3.263345739236803156e-02 1.239771469219361072e-01 -6.262521426898159937e-01 -6.638120901692884379e-01 -5.939920813685151124e-01 -6.374426740232879141e-01 -6.773293242205528086e-01 -6.042470625460275579e-01 -5.768035614315990545e-01 -7.091505292413351480e-01 -4.448346528691554669e-01 5.247644326973415208e-01 7.480857916947885045e-01 5.211873444822963108e-01 -5.245601426739349149e-01 -8.637348845601192648e-01 -8.973188608878880368e-01 -8.737411005744033510e-01 -6.415136509829525435e-01 -7.102451199914638913e-01 -6.563708922893340958e-01 4.814771724365943945e-02 -2.186259397030620652e-02 2.157762252867815589e-01 -4.496377341999686639e-01 3.550256515267434798e-01 -3.057573634579700134e-02 -6.701436765373793014e-02 -1.667899439749704060e-01 1.229033208904960345e-01 -2.819495528012130880e-02 1.804421253852754869e-01 -2.403954758094123123e-01 2.285600196054925204e-01 -1.995790422844871959e-01 2.757493569528921551e-01 1.179798213307997473e-01 -2.841762156057734967e-01 -1.656204508225356531e-01 -7.654011891763150277e-02 -4.515105629719445152e-02 -5.406069514572366119e-02 -6.026649673018552589e-01 -7.538363820763844814e-01 -6.843511769449077686e-01 -6.072925190952629393e-01 -7.674090169320404442e-01 -6.865150820001978405e-01 -6.019190657259971822e-01 -7.877513570841345736e-01 -6.921191929253158737e-01 6.623696028624489474e-01 8.009296923054914918e-01 7.499033675999636772e-01 -7.048158787121434621e-01 -8.621430892880398433e-01 -9.361888684161033813e-01 -9.128916428717248621e-01 -6.376439769937736202e-01 -7.903578685215334465e-01 -6.982085578141509208e-01 2.877470683674742125e-01 1.688456664481320646e-01 2.524881784559040998e-01 -2.877523502620766838e-01 1.979310497651775302e-01 3.221106484571830547e-02 1.723229022779725339e-01 -1.207790620869472059e-01 1.263007796771935809e-01 1.310439286778903589e-01 -1.278739807937988582e-01 -1.804798735107147889e-01 1.529908885462763490e-01 9.227189216121188878e-03 -1.423359608320177161e-01 5.765475138662126686e-02 -9.846186863788502792e-04 -8.107387150361897166e-02 -4.274941897791015299e-01 -4.633978580536050051e-01 -5.386990045311085273e-01 -4.139278796403868532e-01 -8.167789930096054363e-01 -4.274941897791015299e-01 -7.157558063881164223e-01 -6.326720422014934231e-01 4.123551701186858875e-01 -1.736454706199732911e-01 1.329316304663858972e-01 -1.859762828103026788e-01 2.296783886902189209e-01 -4.274941897791015299e-01 -4.633978580536050051e-01 -5.386990045311085273e-01 -4.139278796403868532e-01 -8.167789930096054363e-01 -4.274941897791015299e-01 -7.157558063881164223e-01 -6.326720422014934231e-01 4.123551701186858875e-01 -1.736454706199732911e-01 1.329316304663858972e-01 -1.859762828103026788e-01 2.296783886902189209e-01 -5.014487393284359218e-01 -4.401151615597331257e-01 -4.669707546194775127e-01 -4.663520055092511551e-01 -7.555836950203941305e-01 -5.014487393284359218e-01 -7.598888245704141786e-01 -5.462234344158108934e-01 2.133216959783910960e-01 1.674464573114781418e-01 -6.212525732398949119e-02 -2.347416325261095504e-01 4.559969406756236160e-02 -5.184758347277818036e-01 -5.823100983015064847e-01 -5.310856858708510320e-01 -6.473133244979518697e-01 -6.860133458374345627e-01 -5.184758347277818036e-01 -8.135725026770173063e-01 -5.340942036198615961e-01 6.303903994722672710e-01 -2.291375966607711312e-01 1.105573398643015792e-01 -4.157013855591346237e-03 3.734272045878037072e-02 -7.021033005445432851e-01 -7.264905914613226656e-01 -7.351751612251629098e-01 -7.564590254617122866e-01 -6.849159625221203918e-01 -7.021033005445432851e-01 -9.174213246204073746e-01 -7.430760645219959271e-01 4.137282134175717108e-01 4.938484681518348629e-02 -7.563963912964945246e-02 -4.192635571197819017e-02
2.973237513072793381e-01 -1.746265406200792417e-02 -1.095120884102689512e-01 -4.811210354908012077e-01 -4.359379348260919440e-01 -6.415873406657361944e-01 -5.104788460060613042e-01 -4.571288087384876575e-01 -6.499805949736000565e-01 -2.936399243599034370e-01 -2.659424958338954537e-01 -5.814363548936698489e-01 4.187695643042165239e-01 3.271415268407641408e-01 5.855752117899598597e-01 -4.767816632422637868e-01 -7.545266797017933236e-01 -8.890570623989110244e-01 -8.872355994643011945e-01 -5.731604998180765964e-01 -6.001392190489794887e-01 -6.776153560923113828e-01 1.076508014112220191e-01 -6.468585763792193688e-02 -9.661451150105815344e-02 -2.596458702363526605e-01 2.519144057071950327e-01 -1.930004973097979026e-01 1.888692588728205501e-01 -2.043258815252340516e-02 1.189317202223853787e-01 6.903437214234574293e-02 1.208615166795442980e-01 -5.825132749393168580e-02 1.034597774714426377e-01 -5.262114984921678965e-03 -2.294626650893936276e-02 -1.328767326056957687e-01 -3.172914845739077117e-01 -7.178475244724411009e-02 4.501819300073884311e-01 2.667563791346322932e-01 -5.711051424463260001e-02 -9.704602717895772779e-01 -9.675029450439779355e-01 -9.492231939495916482e-01 -9.711664838385596354e-01 -9.684736502038537864e-01 -9.499376475816582177e-01 3.894662264666799989e-01 2.418612102059295166e-01 -5.327666316050268941e-02 4.717073023847586644e-01 2.794305606873652703e-01 -6.613591070281722717e-02 -4.398785813048953774e-01 1.531155273608356127e-01 -2.443256947745166829e-01 -9.667205340997327978e-01 -9.731295262437436033e-01 -9.715020668375428103e-01 -9.522444108575379706e-01 -6.294743303145563518e-01 -9.780458064593120504e-01 -9.371159264131686539e-01 5.797234117149661081e-01 6.626342517348221550e-01 -1.218594989163909181e-01 1.238374313855185316e-01 -1.860603606996938386e-01 2.715592889233148233e-01 4.860134036671821534e-01 5.563898894549147434e-01 -1.261932670676174650e-01 -2.077067468698517161e-01 3.562939038478294962e-01 7.364413854385321034e-02 3.824983091719164757e-02 4.888693120933439856e-03 -4.676881806519265217e-01 -4.825065511881542202e-01 -7.298762304032253567e-01 -4.704315403109974869e-01 -4.604471030376461882e-01 -7.217263104872456703e-01 -5.954769337932782625e-01 -6.513271038930236179e-01 -7.847595524819973578e-01 3.858712211564873651e-01 6.014162997429823854e-01 7.213952998506357739e-01 -5.269507869486887985e-01 -7.394911828453281100e-01 -7.564326508088274892e-01 -9.155140387691032000e-01 -4.893257126244845989e-01 -5.493753726046197716e-01 -7.446980200802045813e-01 1.873429259405493263e-01 6.780741408278644078e-02 -2.895898000466243585e-02 -2.387339246931511338e-01 2.555929588778107497e-01 -5.219287329118043120e-03 4.518352892789808534e-02 -1.286547490007677319e-01 1.804363103967120130e-01 1.434617991645016910e-01 3.651744022826463043e-01 -1.444445990233595434e-01 1.277417972172272820e-01 -8.254325967050579749e-02 2.004298393969071446e-01 -1.117172268324939099e-01 -1.426075087875568470e-01 -1.993847798113158598e-01 -1.110397052558111941e-01 -4.058130502805537554e-02 1.259714967964430665e-01 -6.832916138214244484e-01 -6.777939748035844980e-01 -6.222051846441617462e-01 -6.956530159750722309e-01 -6.930180708604881668e-01 -6.337980629448576320e-01 -6.349072300107060363e-01 -7.150466005291614691e-01 -4.564613011070490778e-01 5.473999402323334040e-01 7.516618526636451580e-01 5.457649444210335155e-01 -5.674891998429600903e-01 -8.665721127890181341e-01 -9.007719936167647434e-01 -8.727658895235131942e-01 -7.123257255147654732e-01 -7.267108670321851260e-01 -6.843017657174500501e-01 -2.031326156675389294e-01 -1.774979726481780984e-01 4.028160556054148633e-02 -2.394732109305263146e-01 1.738932167355175251e-01 6.597175789929375644e-02 7.832677442036795751e-03 -2.852761935675323657e-01 2.930570776113600173e-01 -2.352658925334455142e-01 3.224965421471904237e-01 -9.173704540860459777e-02 1.011239658106431460e-01 -9.146275048039466393e-02 3.136916644744204286e-01 -1.990562923063747269e-01 -1.326664377227661784e-01 -3.394661880776723029e-03 -8.165191179413300304e-02 -4.702733521845145481e-02 -5.150431866394349079e-02 -6.299147797245411295e-01 -7.604530246077906286e-01 -6.967163123585052853e-01 -6.321229017423034557e-01 -7.738549495438118431e-01 -6.994880758548326360e-01 -6.306451474444564331e-01 -7.943423299299507967e-01 -7.015983735127647725e-01 6.914373832830471578e-01 8.078493568600110253e-01 7.554593861853877712e-01 -7.178499007139310661e-01 -8.669505664639877152e-01 -9.366531395098023349e-01 -9.136637985065150236e-01 -6.552824718726190101e-01 -7.967452312687091087e-01 -7.123587685357214427e-01 1.478245382564183918e-01 1.850442083979070562e-01 1.680401512322268198e-01 -1.267432526665830672e-01 8.258876465867608097e-02 3.654389941270912850e-02 2.650846809690208805e-01 -2.965254695068913482e-01 3.409616332262081495e-01 -1.027623681781271170e-01 1.441450431673708121e-01 -9.518612156698658122e-02 5.260274634127681120e-02 3.580497484861283608e-02 -7.438900718335617057e-02 -8.949936428182057868e-03 -1.282493666598871207e-01 -4.662994593699452267e-02 -4.621973808142753604e-01 -5.081259233213516469e-01 -5.770029957844449164e-01 -4.632372386093844274e-01 -8.293211924154832992e-01 -4.621973808142753604e-01 -7.252886093119906841e-01 -6.659352599537240458e-01 2.411631417676730060e-01 -5.426211950284864048e-03 1.693321703513132881e-02 3.081221495500596069e-02 -1.135464982040837456e-01 -4.621973808142753604e-01 -5.081259233213516469e-01 -5.770029957844449164e-01 -4.632372386093844274e-01 -8.293211924154832992e-01 -4.621973808142753604e-01 -7.252886093119906841e-01 -6.659352599537240458e-01 2.411631417676730060e-01 -5.426211950284864048e-03 1.693321703513132881e-02 3.081221495500596069e-02 -1.135464982040837456e-01 -5.267462979906335496e-01 -4.711830733445249164e-01 -4.937588171719352048e-01 -5.009874512386759404e-01 -7.695103438911488070e-01 -5.267462979906335496e-01 -7.703571926331282960e-01 -5.675910570534982158e-01 1.523993641445780534e-01 5.859869227006749698e-02 -4.890649704794680641e-02 -3.217422607993845191e-02 -3.513938769789629046e-02 -5.680916675772603730e-01 -6.397183605254723737e-01 -5.973902407333760989e-01 -6.886812055726293513e-01 -7.150838718958021367e-01 -5.680916675772603730e-01 -8.173317951176112262e-01 -6.093857273996191593e-01 3.882194693558580489e-01 4.649219092643690210e-02 -1.628068482714472021e-01 2.067283767912043158e-01 -1.021413286723093089e-01 -7.154752010381700833e-01 -7.409138374312150832e-01 -7.480062099582404089e-01 -7.725518213559597891e-01 -7.032338879712791702e-01 -7.154752010381700833e-01 -9.188307295152089438e-01 -7.549846845055491196e-01 3.493652881923708375e-01 2.655103507918971650e-01 -1.174638554738298424e-01 -4.161633846360007077e-02
