2.456659915741094546e-01 7.613901542551351244e-03 -8.810039205954030284e-02 -7.096151847428044945e-01 -6.839315355436531574e-01 -7.604609770193750951e-01 -7.418017292080013592e-01 -7.114842608792814049e-01 -7.778162844472193971e-01 -5.268694632383374987e-01 -4.041215994292870484e-01 -5.629383213503500460e-01 6.130241351264942296e-01 4.688835735882208589e-01 6.602724475826058370e-01 -6.929867864549892342e-01 -8.892622960079570316e-01 -9.462872629670626701e-01 -9.314627829439027229e-01 -8.406112039101589772e-01 -7.955272543373993477e-01 -8.209768822576052338e-01 -2.132901860496046464e-01 -1.543296356755806398e-01 -1.712458215796241745e-01 -2.482637295186571613e-01 1.821238704827693733e-01 -5.198149208967672158e-02 -2.296732433234354928e-02 -3.802285299254029582e-02 3.924949382306719761e-03 2.515377291167890661e-01 -1.586157273581233484e-01 2.628357920878435575e-02 9.345193589970822445e-02 -2.631868954010486050e-04 -1.025307074856425943e-01 1.096737293078187993e-02 -4.810634169346432731e-01 -2.360703899073397782e-01 1.799202943805091048e-01 3.189645650185783943e-01 3.960746312058993079e-01 -9.669655972197088722e-01 -9.482419757522425607e-01 -9.588490604458331790e-01 -9.677707962208719206e-01 -9.518162802850338444e-01 -9.576788460093920152e-01 1.207373133568342694e-01 3.034753097766015872e-01 3.938653921535369418e-01 2.057289089228535595e-01 3.291705273591801761e-01 3.901558133824468699e-01 -2.159544106921716666e-02 -2.003941348341325146e-01 -5.382449174538889158e-01 -2.929372541943723873e-01 -9.694467944469988829e-01 -9.631953654059359771e-01 -9.577405804051258853e-01 -6.556790892304938945e-01 -7.596577778360490418e-01 -7.299481354534819166e-01 -5.532029180720563488e-01 5.739138180937671807e-01 -5.936647943893321733e-01 6.125478617625556010e-01 -3.520726206583196793e-01 3.208810529046510207e-01 -3.326268188146674909e-01 3.626841262999381810e-01 -1.972247115070988044e-01 2.200726972232266709e-01 -2.427338197131617692e-01 2.629783096580365909e-01 4.614727824926116440e-01 -1.852684273700494211e-01 -1.592159645742329266e-01 6.087021811124531528e-02 -6.138117886474486057e-03 4.484096485420735467e-02 -7.785545594566654071e-01 -7.349126835303144700e-01 -7.767373248609635850e-01 -7.869243916340340483e-01 -7.458252290589167943e-01 -7.996775171857078979e-01 -8.300228939075767753e-01 -8.054547143568319134e-01 -7.083265003511013402e-01 7.617894922751818898e-01 7.980405944748046876e-01 7.109039548952666987e-01 -7.687437144727238270e-01 -9.333305204068274019e-01 -9.042402028208096354e-01 -9.306191952846105675e-01 -8.132185871675722266e-01 -8.061840879382843328e-01 -8.275148551366000582e-01 -2.301996439374147385e-01 -2.960349017884584821e-01 -3.124187200227904193e-01 -1.636734540769044510e-01 2.017782680097287007e-01 1.239960618461125319e-01 6.771180452199342115e-02 -4.606062166863746088e-02 -2.187733407689092247e-02 3.481619609505026691e-01 1.972211466384880540e-01 -3.851512949759880455e-02 2.287091773607758394e-01 -2.285771857561650841e-02 2.716830583816228217e-01 -2.043659146505682478e-01 -1.236405946839088804e-01 -1.117783708704205986e-01 -1.068094186689272640e-01 -7.288981689856162405e-02 1.217809777828370854e-01 -7.904425942513099157e-01 -8.098915247077601576e-01 -8.182424576739599775e-01 -7.925724890786131072e-01 -8.326479249689144879e-01 -8.272941656656941367e-01 -7.253777376317748216e-01 -7.426460037233690858e-01 -6.233036291185345412e-01 6.629519087635536989e-01 7.618175096776449440e-01 6.651268751032931581e-01 -7.658343736083054187e-01 -9.340835469063283325e-01 -9.583182612391621946e-01 -9.590640859547467922e-01 -8.027428322286659368e-01 -8.601645768394552416e-01 -8.591706625256507746e-01 -3.444597458487388408e-01 -2.520911103718380050e-02 -1.093821060698264847e-01 -1.634743117886212072e-01 1.088496776609526456e-01 1.339091500122798206e-01 -1.010237291704978030e-01 -1.613227391737429572e-01 2.157884158112939876e-01 -1.217168427799630859e-01 1.851746959884260357e-01 -5.441023685330866055e-02 6.283230870966209636e-02 2.833325617635927898e-02 1.758388315609106176e-02 -3.457778949837882476e-01 1.072590207986277439e-01 -2.441576121593741489e-01 -2.084753498923668513e-01 1.424037985572951769e-02 -2.891513546152264108e-02 -8.110894729104427547e-01 -8.115810395219053008e-01 -8.398707473098888654e-01 -8.313428958627795406e-01 -8.439440135356806039e-01 -8.465390644655041985e-01 -7.949795435758640894e-01 -8.438374694623479444e-01 -8.355727426973831307e-01 8.030016999331206495e-01 7.507758886968868284e-01 8.729610527814869458e-01 -8.410196985345959053e-01 -9.521791052310316639e-01 -9.536778546020361347e-01 -9.651898147926013527e-01 -8.697190534019715313e-01 -8.787538200056933535e-01 -8.532481375446437921e-01 -1.688531946551734830e-01 2.067478359285779277e-02 -1.742603221207404129e-01 -1.238745517208250831e-02 8.742288457176061733e-02 8.610510963543735463e-02 3.574119424838660963e-01 -1.501647919962145195e-01 3.447963041517631555e-01 2.461750543817886258e-02 2.183219719742926779e-01 2.730712993810734818e-02 1.116240971336248250e-01 1.407033144977839489e-01 1.143520077300438226e-01 -1.847562120957297882e-01 7.881765464958934153e-02 -1.318731580495784705e-01 -6.989954143338888981e-01 -6.767257732693244821e-01 -7.423395159779271335e-01 -6.436519504116227086e-01 -8.642019096365843867e-01 -6.989954143338888981e-01 -8.694333916471759238e-01 -8.258400476709147897e-01 3.011681443903333269e-02 -9.345498990603343104e-02 4.028193742376518643e-02 2.705176967815141331e-02 -8.389309868199384956e-03 -6.989954143338888981e-01 -6.767257732693244821e-01 -7.423395159779271335e-01 -6.436519504116227086e-01 -8.642019096365843867e-01 -6.989954143338888981e-01 -8.694333916471759238e-01 -8.258400476709147897e-01 3.011681443903333269e-02 -9.345498990603343104e-02 4.028193742376518643e-02 2.705176967815141331e-02 -8.389309868199384956e-03 -7.790819062922325067e-01 -6.939348369522425619e-01 -7.077475167005355949e-01 -6.872953629413668386e-01 -9.187447842069446091e-01 -7.790819062922325067e-01 -9.128125153562318683e-01 -7.525579973095979369e-01 -2.332227038086968907e-01 1.370562480669199890e-01 -1.558629652187568451e-02 -2.835740074248360165e-01 6.282821640022920318e-02 -7.633981316779756554e-01 -7.364399395267596793e-01 -6.927364134174960331e-01 -7.688416588243999206e-01 -8.933052169272597265e-01 -7.633981316779756554e-01 -9.187354513752152840e-01 -6.776666436179489272e-01 2.159356393527935292e-01 1.776586776700203874e-01 -2.300553330725971790e-01 1.821652361375528384e-01 -1.230706574517656249e-01 -8.371599778129457103e-01 -7.856407471134343456e-01 -8.241108988080608766e-01 -7.392534963862854580e-01 -8.788035090074141076e-01 -8.371599778129457103e-01 -9.547677978024109446e-01 -8.731321816058437157e-01 3.650451025975849639e-02 4.334826386740521231e-01 -3.769575314924578646e-01 -1.559815586478125182e-01 1.020808837234736949e-01
2.747894217171514275e-01 -1.750599851632274329e-02 -1.089982332573911916e-01 -9.651933990969182586e-01 -9.592480676378781768e-01 -9.674953233503550409e-01 -9.672007797112344152e-01 -9.598168684168215670e-01 -9.676358904014910056e-01 -9.072935420845738008e-01 -5.507939472378072798e-01 -8.006205288638387207e-01 8.185857847912058061e-01 6.733358684158113894e-01 8.272673836857121765e-01 -9.584047763173243473e-01 -9.963334777146855004e-01 -9.982518228529102533e-01 -9.972349230244791363e-01 -9.710208547602623419e-01 -9.675757967466672715e-01 -9.679920581596618279e-01 -3.146043659470020293e-01 -4.845144423170464898e-01 -4.751402498807903996e-01 -2.598722695807760205e-02 -1.446353031121882550e-02 5.718366405674473602e-02 -9.100867450269900516e-02 1.030460306570282619e-01 -7.212402001717421740e-02 1.295391924053921895e-01 4.900841198527899206e-02 1.672415342066318755e-01 -4.731128283175705523e-02 9.377418738958682998e-02 -2.240991911102419298e-01 3.471768651160410113e-01 -5.337947759425563099e-01 -3.396300328575355687e-01 -1.547704079770718111e-01 5.100963059157507251e-01 6.794602765164560187e-01 -9.704269254641408882e-01 -9.866777946471047001e-01 -9.800855160699386559e-01 -9.710143060386442482e-01 -9.868510658270632785e-01 -9.800605369515746901e-01 -2.141559746661980679e-01 4.729467225261189123e-01 6.695023842131271330e-01 -1.205796735848664175e-01 5.253672454911979539e-01 6.769392245497970473e-01 2.108279287033512917e-01 -7.031229116490655962e-01 -3.576925178887006007e-01 6.340299982057956418e-02 -9.722037314133135100e-01 -9.871253743510632894e-01 -9.799890789766240173e-01 -6.295679871247151782e-01 -7.243197797523012182e-01 -6.238808333342160672e-01 -5.989953819969936477e-01 6.052058922332161917e-01 -6.112236479661911082e-01 6.171993348959403658e-01 -4.017444306872154924e-01 3.668847521688555213e-01 -3.712585055288449842e-01 3.926124115652480095e-01 -2.023601211750810369e-01 2.062329079148793320e-01 -2.097352676352537693e-01 2.107693152787033786e-01 5.473100662026126884e-01 -4.818167013430078582e-01 -5.005094536273557715e-01 7.736520899129495366e-02 1.276299161659617820e-02 -4.244120144627158003e-03 -9.767846464170603094e-01 -9.733446300492274439e-01 -9.795422698221436519e-01 -9.775794900230525553e-01 -9.717652478279482642e-01 -9.790125388782007221e-01 -9.790235580344931465e-01 -9.809445748329992387e-01 -9.815154648873594123e-01 9.691976605872713035e-01 9.787472573406511556e-01 9.722547924213238435e-01 -9.774002478518292181e-01 -9.971842890515578706e-01 -9.974842378914422492e-01 -9.985876513193302495e-01 -9.775190177212843556e-01 -9.740078620945925580e-01 -9.783673594572848131e-01 -6.079510332438903264e-01 -6.500037107095127942e-01 -6.604633695235965218e-01 7.437366758647347142e-02 1.316354724229874262e-01 2.060560293148517297e-01 8.825111988438577582e-02 7.408065928483482943e-02 1.417207546269727732e-02 1.912815258752706138e-01 2.402024772873304626e-01 1.562939661649996592e-01 1.435151617387203649e-01 1.126620030702789182e-01 2.618111178025538388e-01 -1.722910130327610645e-01 -4.552329632997697412e-02 6.573836187060300151e-02 -2.638648334169221496e-02 -7.710880879158374390e-02 8.960005287383615569e-02 -9.753371968405302184e-01 -9.607793678721621156e-01 -9.724374762013837659e-01 -9.762780943777550346e-01 -9.616593650856448683e-01 -9.733240186267900773e-01 -8.624296314788270079e-01 -9.343252204200126476e-01 -7.339049277672617944e-01 8.285025336884568326e-01 8.894300214144325034e-01 8.131252438610908628e-01 -9.605162996651760432e-01 -9.988261827377321600e-01 -9.981374671078742100e-01 -9.962065321795118278e-01 -9.772768522779153866e-01 -9.634044305322442270e-01 -9.768675260422257089e-01 -3.100674508067630120e-01 -2.108961053903618821e-01 -4.446354042236174142e-01 -1.853104586350441119e-01 1.351837477862620207e-01 2.005059492669761939e-02 8.812392514509577446e-02 -1.576185206653814008e-01 1.024894014581705093e-01 2.795268168162323100e-03 7.812587435421662618e-02 2.014584155641231389e-01 -1.483310576795778546e-01 1.275270208636860025e-01 8.217926417338633494e-02 -5.585100954579788057e-01 3.516827077817213931e-01 -4.281049393927313096e-01 -9.966884394616393195e-02 -3.833503140053808045e-02 -6.012869821217011607e-02 -9.794789191712521825e-01 -9.796977167364654404e-01 -9.833711127008107900e-01 -9.805754909771123851e-01 -9.820605674666679219e-01 -9.843968111672093402e-01 -9.782596524480517974e-01 -9.786578045012864768e-01 -9.800001665299399312e-01 9.765824049666588236e-01 9.822704217055829856e-01 9.847705951576590788e-01 -9.828829275419390665e-01 -9.988451798159071471e-01 -9.992370993572702309e-01 -9.987912908449589899e-01 -9.821939892402919980e-01 -9.847935061015655744e-01 -9.857955801279216779e-01 -4.674409568694766204e-01 -3.465448067415672351e-01 -5.208435736370081726e-01 -7.211224401338850454e-02 8.432069639733763555e-02 6.911771313387499692e-03 2.427894397306027408e-01 -8.360710045886812769e-02 1.772278006894358604e-01 9.151484135059059777e-02 1.492920205953340018e-01 2.726964732019357962e-01 -2.006622109230131804e-02 2.058677414825588470e-01 1.970491078557477238e-01 -1.460486926255393503e-01 2.669673421423630622e-01 -2.457319725295763480e-01 -9.592900586866280888e-01 -9.621238055247006704e-01 -9.659983398081339878e-01 -9.593340557564368209e-01 -9.832921014530252579e-01 -9.592900586866280888e-01 -9.955920680908785236e-01 -9.683317434497702436e-01 -3.879974580641274984e-01 1.472985842432505098e-02 -3.262190192201233629e-02 9.081816832944725193e-02 -1.303702389210548707e-01 -9.592900586866280888e-01 -9.621238055247006704e-01 -9.659983398081339878e-01 -9.593340557564368209e-01 -9.832921014530252579e-01 -9.592900586866280888e-01 -9.955920680908785236e-01 -9.683317434497702436e-01 -3.879974580641274984e-01 1.472985842432505098e-02 -3.262190192201233629e-02 9.081816832944725193e-02 -1.303702389210548707e-01 -9.776954196372680261e-01 -9.751899551638145702e-01 -9.775791025499666054e-01 -9.730284269881286363e-01 -9.810628711885169828e-01 -9.776954196372680261e-01 -9.973584392115749653e-01 -9.817804188432494028e-01 -7.197223350440300482e-01 2.221534204169598181e-01 -1.514582324688925341e-01 -1.079032754926454313e-01 -6.641539279250795180e-02 -9.610435871547168274e-01 -9.599463445417770746e-01 -9.569184443029056242e-01 -9.632643872990587219e-01 -9.767143253827399452e-01 -9.610435871547168274e-01 -9.972513666344885452e-01 -9.608772087510297766e-01 3.918516775662983509e-02 -6.259603253230469622e-02 -4.595361577497787675e-02 1.408857483797286703e-01 -1.029244766086456764e-01 -9.822947034661706489e-01 -9.790599546900548011e-01 -9.814760373732872578e-01 -9.786392051223385957e-01 -9.823752763918941477e-01 -9.822947034661706489e-01 -9.990954596804918486e-01 -9.852162449185204451e-01 -4.153747033686577272e-01 4.083446578165864649e-01 -3.572594761698514310e-01 -3.639879874345975513e-02 -5.175752366400090954e-02
2.772907082047467164e-01 -1.825277953395404093e-02 -1.294579525806801856e-01 -9.681849723168881594e-01 -9.312946056855466725e-01 -9.426296587513670611e-01 -9.706659634006501447e-01 -9.321418040278338646e-01 -9.397300464299038758e-01 -9.033326908718166681e-01 -5.370926040224731635e-01 -8.006928324278707043e-01 8.195261591178866212e-01 6.563073833398938017e-01 8.060844417149632957e-01 -9.409146791424599643e-01 -9.966971445128423035e-01 -9.971035633137710352e-01 -9.923077829105697578e-01 -9.744220429555147112e-01 -9.460291447391679931e-01 -9.335547981172876986e-01 -3.236418021753805219e-01 -4.269665517910784525e-01 -5.432307027692434565e-01 3.890629751580320511e-02 -4.489995246198728168e-03 5.053331596337649889e-02 4.789948302476782806e-03 2.652950770579810304e-03 1.819045510730016649e-02 9.028468339317052838e-02 7.382972786589996061e-02 5.169038140533453035e-02 4.014998800238170525e-03 4.427834234887803588e-02 -1.432545237680123706e-01 9.984011225311074933e-02 -3.693525572476269447e-01 -5.336953412237060296e-02 2.104783960655287889e-01 3.164473932871856854e-01 4.443435263492796494e-01 -9.730994348980193109e-01 -9.836886228600539850e-01 -9.477928922860104910e-01 -9.733727456140707224e-01 -9.838473771692274328e-01 -9.461259665684844666e-01 1.488633523045832796e-01 2.854500609287487500e-01 4.426989560974858295e-01 2.382871591938298672e-01 3.330159161498576492e-01 4.352604816735720639e-01 1.060501948403400931e-02 -1.712499247747937825e-01 -5.100533092260016721e-01 -3.421860873976713124e-01 -9.741276193909494951e-01 -9.841051993418392652e-01 -9.432030274840582651e-01 -7.013276973597208919e-01 -7.616859806115959808e-01 -4.568251855685774854e-01 -4.767156051093631164e-01 4.909516473250731816e-01 -5.052497050545398105e-01 5.197364662209712494e-01 -4.200093527960503947e-01 3.911609968337971810e-01 -4.006682500203243569e-01 4.265580743151739518e-01 -4.278018927523447590e-01 4.334753416678220339e-01 -4.388547432327880582e-01 4.414445511203842765e-01 3.036485823189335465e-01 -4.230473249281125891e-01 -3.807730630006067596e-01 7.477468222140934428e-02 2.803235413225075526e-03 5.704292173752713302e-03 -9.723598465720011408e-01 -9.566371602181437117e-01 -9.735958856930689853e-01 -9.740444103127432474e-01 -9.556424737798289160e-01 -9.727356413956054215e-01 -9.759143541645601827e-01 -9.646568684274383632e-01 -9.769205881563521876e-01 9.575975357942713151e-01 9.637884145623868415e-01 9.679166479844424353e-01 -9.690908094646339954e-01 -9.972591070806198221e-01 -9.964824601679374005e-01 -9.984165682154824140e-01 -9.742741677470049266e-01 -9.608939084677060594e-01 -9.731435432542264730e-01 -5.605009883788576452e-01 -5.559638332254331905e-01 -5.853860940365037679e-01 7.535355945584203130e-02 1.644435388159043165e-01 1.914857764760992676e-01 1.481430439127568444e-01 -4.328247283651750349e-02 6.097045300217217995e-02 1.540980666273927824e-01 2.263333559825330132e-01 4.029819611593407624e-02 1.042511403284487603e-01 2.566790961475598140e-02 1.750653422914382196e-01 -1.629564316654141531e-01 4.847798457256686372e-02 2.024984016481175958e-02 -2.543213432613404892e-02 -7.504049767422404926e-02 7.955706467311583763e-02 -9.495614584493632382e-01 -9.545680514995402710e-01 -9.560892246754495449e-01 -9.523841329208027062e-01 -9.575357543389341197e-01 -9.600231976199916639e-01 -8.399981106353692217e-01 -9.187312464040167104e-01 -7.309118949597970261e-01 8.061094036419439446e-01 8.904060423086835874e-01 7.812307978087678073e-01 -9.430106580027494134e-01 -9.966576981463923790e-01 -9.977604841401087610e-01 -9.954898004930129440e-01 -9.573501498081498085e-01 -9.623478253537429694e-01 -9.671858247494244942e-01 -2.564453515974471909e-01 -1.915256932073993168e-01 -4.243273407340524828e-01 -1.413694681275872445e-01 6.809147815932657666e-02 7.764767253370419287e-02 1.210797962930732358e-01 -8.221205878254154997e-02 4.647096011744144411e-02 4.278247054649356174e-02 8.778024266853422242e-02 6.009780875705659359e-02 -5.979347336251353978e-02 8.783665262143094954e-02 6.355861105210586226e-02 -3.069712046346415590e-01 2.064050065286145430e-01 -4.602431150909330748e-01 -9.912124760300664028e-02 -3.413117679464466175e-02 -6.328312080437804854e-02 -9.665639987567079539e-01 -9.729997621849931777e-01 -9.732428052674531038e-01 -9.667025960101472970e-01 -9.760310972263305240e-01 -9.769467745411832826e-01 -9.700126226706647925e-01 -9.747647887801735855e-01 -9.674747504776866069e-01 9.664955052852111095e-01 9.759662451656928583e-01 9.712055002739283793e-01 -9.743516321373327793e-01 -9.982550834874568402e-01 -9.990693901725484771e-01 -9.984731242781339500e-01 -9.669170821731155607e-01 -9.793975686690969962e-01 -9.808992245985391767e-01 -3.561220492370888446e-01 -2.525304681603468548e-01 -4.461189568973736863e-01 -3.964758408681232082e-02 -7.907223385658057255e-03 4.553620384586247460e-02 1.865914002512720771e-01 -1.381984159144585521e-02 1.329549968579012420e-01 1.498321109123755823e-01 6.036149018335539018e-02 1.408804071551873205e-01 4.202159600357118635e-03 1.538702662586971803e-01 1.230230354646112412e-01 -3.533327840855007146e-02 1.598014692360749389e-01 -2.281861540877888617e-01 -9.395889638839786118e-01 -9.413099181461859200e-01 -9.466633513785828180e-01 -9.414079315675998316e-01 -9.823123340290258465e-01 -9.395889638839786118e-01 -9.939405450228742112e-01 -9.514516049444772250e-01 -2.576296936696421680e-01 -1.060379035421961796e-01 7.632778667410955453e-02 7.040666980954511742e-04 -7.152055256784370374e-02 -9.395889638839786118e-01 -9.413099181461859200e-01 -9.466633513785828180e-01 -9.414079315675998316e-01 -9.823123340290258465e-01 -9.395889638839786118e-01 -9.939405450228742112e-01 -9.514516049444772250e-01 -2.576296936696421680e-01 -1.060379035421961796e-01 7.632778667410955453e-02 7.040666980954511742e-04 -7.152055256784370374e-02 -9.692412561111608538e-01 -9.641660475249820283e-01 -9.682078336913803041e-01 -9.604919158674842805e-01 -9.756401499335470850e-01 -9.692412561111608538e-01 -9.970739435854496513e-01 -9.754694847229545829e-01 -6.105508581631722276e-01 1.011038764925398514e-01 -2.433640507871270842e-02 -1.479815085105876948e-01 -2.819593039797807510e-02 -9.419636916904308155e-01 -9.351241465798083574e-01 -9.281404170166175360e-01 -9.456249383380403994e-01 -9.732533458846756025e-01 -9.419636916904308155e-01 -9.952561374033379593e-01 -9.311086793355703994e-01 1.362511638646968226e-01 5.519668615809344633e-03 -1.255798898128062391e-01 1.795837979933649908e-01 -7.969341702565643781e-02 -9.732222711292977113e-01 -9.713962013313265365e-01 -9.736664535796706321e-01 -9.733980118671471393e-01 -9.776443402023133888e-01 -9.732222711292977113e-01 -9.988189960524171962e-01 -9.776144450587082035e-01 -2.699114098506231185e-01 3.430277101469261791e-01 -2.938910062089367670e-01 -7.748968371324312099e-02 -3.832837128554858475e-02
2.673350807025000053e-01 -1.843932478619674659e-02 -1.088218223249135114e-01 -8.176079046654763927e-01 -7.611265518793826068e-01 -8.654935903410710951e-01 -8.241952665948181211e-01 -7.782925677642232865e-01 -8.542417921515328416e-01 -7.369545027611050791e-01 -4.365189248780397269e-01 -7.453487990090811310e-01 6.962440857216127821e-01 5.671641198949789464e-01 7.701276041168299002e-01 -7.969187579391080467e-01 -9.266777627901406911e-01 -9.517339815520253765e-01 -9.691285949930339427e-01 -8.362126503629263574e-01 -8.696633480687230300e-01 -8.330407963318532394e-01 -2.283215987198390085e-01 -3.828692898129925637e-01 -3.411558969376022321e-01 -7.366907227188351781e-02 8.687189737537143186e-02 -3.603216737430763039e-02 1.992697916724750495e-02 6.830144528580635310e-02 -4.551471078270789145e-02 2.030864266600297952e-01 -1.259162887069171025e-02 1.207177427000564046e-01 -3.676973325581746332e-02 9.865900144309411313e-02 -1.512132382518923401e-01 6.847030654095374869e-02 -3.705152988053324048e-01 -6.426821990436418740e-03 3.370964870263232771e-01 2.824954224545880854e-01 3.705576096749931270e-01 -9.741706854671825511e-01 -9.799059285827091959e-01 -9.776819463114916342e-01 -9.745776835842030472e-01 -9.797474550378042490e-01 -9.779270998053900543e-01 2.750879114815759641e-01 2.530694167414962448e-01 3.636172458762199633e-01 3.626208900933627910e-01 2.993611653344607770e-01 3.673892079903599006e-01 -2.268928164146659723e-02 -9.996701366742601763e-03 -5.588255064262942495e-01 -4.673921817725859018e-01 -9.750373013648683251e-01 -9.806028787827353321e-01 -9.782602726406256499e-01 -7.355991099020987578e-01 -7.982867129038497822e-01 -6.150959597238297993e-01 -4.690626142183271230e-01 4.927420174944860953e-01 -5.156629349101422566e-01 5.379068738122707583e-01 -3.022427725806515197e-01 2.889025152763877724e-01 -3.229554300143112067e-01 3.762402336152949056e-01 -3.171059019481785590e-01 3.358468511615483876e-01 -3.540518520259142710e-01 3.693155301020269454e-01 3.978494573441740401e-01 -2.970208646579658995e-01 -6.803454095170345661e-02 5.740014310887242566e-02 4.649618108910880121e-02 2.643989653636499501e-02 -8.311092715023405963e-01 -8.058572101394583242e-01 -9.013485245716816863e-01 -8.263098358437251933e-01 -8.107294230464429097e-01 -8.954278972124790625e-01 -8.472554362512781934e-01 -9.208070008042511523e-01 -9.369969520106635752e-01 8.394403156686048861e-01 8.221964774412953147e-01 8.856877252866095507e-01 -8.379119077654713088e-01 -9.342326270783355424e-01 -9.141696342409671994e-01 -9.792916509847191531e-01 -8.090629389473165123e-01 -8.717160704034292440e-01 -8.987313507275073166e-01 -4.076153907977256297e-01 -4.169550950857435212e-01 -4.321894577116989766e-01 -1.959107356930386498e-02 2.250114894226545870e-01 1.191862163619257509e-01 1.487890090431557011e-01 1.873588256079982556e-02 -9.286988391814438026e-03 2.801077836777206564e-01 2.447431630387618962e-01 8.896008634653669589e-02 7.632033595016332606e-02 8.309809978858317958e-02 1.758815330507228214e-01 -1.045983359183013800e-01 -3.832829557437471280e-02 1.321209890784922070e-01 -4.227280805627810223e-02 -7.422641502285773352e-02 8.741297125314118066e-02 -8.723328384797690571e-01 -8.697054414309955961e-01 -8.652384856257241408e-01 -8.689206610539959019e-01 -8.762340639274037724e-01 -8.807417082702406752e-01 -7.969012876201395645e-01 -8.714771586767215972e-01 -5.991382297613682129e-01 7.623432310435316328e-01 8.333557427438236243e-01 7.152007263051596286e-01 -8.410321175453019382e-01 -9.675276675396942139e-01 -9.688677200148535507e-01 -9.648743047614239954e-01 -8.593932758750777445e-01 -8.925177030766303643e-01 -9.086058299862851406e-01 -3.306928495677521340e-01 -1.504436547086060727e-01 -3.217921442284352729e-01 -1.492581045680781149e-01 1.143969285206078990e-01 7.541059270721464647e-02 7.127698660830753853e-03 -1.504553446945234296e-01 1.430183021884678385e-01 -1.370397841067475669e-02 8.865222067879885426e-02 1.245445290679574601e-01 -5.455140471375144462e-02 4.139403329650048063e-02 1.292027051354657230e-01 -3.585562841714716176e-01 1.369722520466885585e-01 -3.204499000243311024e-01 -1.208764064943307903e-01 -2.585357266742626184e-02 -9.101185382710379190e-02 -8.692291981756283814e-01 -8.907855104100944610e-01 -8.366524322763502219e-01 -8.658321867435889718e-01 -8.972615166968395117e-01 -8.513780460953708218e-01 -8.910063924779960676e-01 -9.095076343160261034e-01 -8.053239957311959518e-01 8.887848955408474971e-01 9.158607395045781363e-01 8.764403489669378988e-01 -8.785815121356926882e-01 -9.621720304545845481e-01 -9.750630949873216879e-01 -9.361585486335777251e-01 -8.726186926079166906e-01 -9.086804415890267217e-01 -8.805146199875288904e-01 -2.826674955656287569e-01 -2.012125622818800585e-01 -3.408585336711080216e-01 -1.931365929176043217e-02 2.866192126342152063e-02 1.822825020883649672e-01 8.382602489282185709e-02 -9.943129945291760696e-02 2.221718059751515983e-01 1.287641362458820660e-01 1.352147321800425406e-01 1.825593438201761065e-01 4.824244645598762399e-02 1.814601474560102456e-01 9.361605343945673952e-02 -8.857569830159069124e-02 1.658018590188335695e-01 -1.844602767409522226e-01 -7.902855100435867142e-01 -8.465082436443082115e-01 -8.596870453434968251e-01 -8.264396714999093785e-01 -9.322026236430075441e-01 -7.902855100435867142e-01 -9.104720192964089742e-01 -8.705660760812520271e-01 -1.965242434297086449e-01 6.054152877825400188e-03 -5.374095942236850783e-03 9.990345303188404025e-02 -2.025717462089983711e-01 -7.902855100435867142e-01 -8.465082436443082115e-01 -8.596870453434968251e-01 -8.264396714999093785e-01 -9.322026236430075441e-01 -7.902855100435867142e-01 -9.104720192964089742e-01 -8.705660760812520271e-01 -1.965242434297086449e-01 6.054152877825400188e-03 -5.374095942236850783e-03 9.990345303188404025e-02 -2.025717462089983711e-01 -8.352436708332903192e-01 -8.364377354319777469e-01 -8.356088006315517402e-01 -8.549523241859936507e-01 -8.587193251797694549e-01 -8.352436708332903192e-01 -9.362060511459135981e-01 -8.489802760640684509e-01 -4.547464970848031918e-01 1.689861901085179252e-01 -8.356509837081106673e-02 -5.969659545267628348e-02 -1.367195641380694604e-01 -8.407364234677908721e-01 -8.765905525892364603e-01 -8.620181178084861395e-01 -8.864032599370154086e-01 -8.844044882226415050e-01 -8.407364234677908721e-01 -9.508435668292113396e-01 -8.507531732579399764e-01 8.190050697024024717e-02 1.376640031259438179e-01 -1.926041936669161680e-01 1.788998709631797468e-01 -1.437699502809881014e-01 -8.781229632374318861e-01 -8.839910372502742808e-01 -8.859822404430643950e-01 -9.032911146690517645e-01 -9.081385692954883071e-01 -8.781229632374318861e-01 -9.670081832247411358e-01 -8.826820602471576738e-01 -1.835899648059600153e-01 3.989011015349638312e-01 -3.026450064947119878e-01 -1.490909731674812111e-01 -1.386154411687192181e-02
2.731145973981725650e-01 -2.111409695612370338e-02 -1.104809521918791032e-01 -8.788812117979488692e-01 -8.733931019127751938e-01 -8.221563347043798764e-01 -8.897525119723528331e-01 -8.749476460215545037e-01 -8.147827207064940458e-01 -7.974617190190204097e-01 -5.024318476413470735e-01 -7.340146705225201185e-01 7.609163894685126994e-01 6.210987803554326447e-01 7.418174392922269877e-01 -8.492745816291961125e-01 -9.625831907359030382e-01 -9.857527059289424853e-01 -9.308677964317387810e-01 -9.207174045983785859e-01 -9.015760953290581359e-01 -8.021545041961237743e-01 -3.745621952638401031e-01 -4.624681577368495167e-01 -3.714133980987607830e-01 2.991567410617420111e-02 -2.934298480455968181e-02 1.045104031651105242e-01 -1.200934725873167852e-02 8.185140831258215510e-02 -3.199354834551602911e-02 1.553129199222336720e-01 1.372734294173743458e-02 5.991731203594023725e-02 1.500167589742133984e-03 1.962585428932021175e-02 -7.278072304580242291e-02 -2.426579422953122414e-02 -3.448155423974752498e-01 2.908129081246387318e-02 4.580190191288391888e-01 2.118786140907431836e-01 1.861703068346416690e-01 -9.785878890880251868e-01 -9.838844968638719157e-01 -9.720687466935846732e-01 -9.789776532613314597e-01 -9.837042265913785721e-01 -9.720368713294775809e-01 3.943747115261959091e-01 1.830849999951273954e-01 1.823419991956322650e-01 4.824609469516842331e-01 2.303853620556368664e-01 1.820210427083292781e-01 9.729743856004602343e-02 1.081142986171375053e-01 -6.184753051555760273e-01 -5.272284959254505132e-01 -9.800760138943916955e-01 -9.838999110008423976e-01 -9.723923001714340764e-01 -6.763406435532708372e-01 -8.402011060984917457e-01 -7.084304214745829054e-01 -4.552895685176711615e-01 4.818615182349815229e-01 -5.086300091799782486e-01 5.356947657294333087e-01 -3.254822759507509100e-01 2.987571468718895340e-01 -3.168180941544081475e-01 3.535556134289230545e-01 -4.066832884645453783e-01 4.238161285085077501e-01 -4.407757879930181977e-01 4.550210985645181117e-01 2.649735805858823290e-01 -2.364733452129229585e-01 -1.720252159594524155e-01 7.059783261097064833e-02 3.945664538046456810e-02 4.992661342832208082e-02 -8.959068485778897140e-01 -9.051979870847913778e-01 -9.171234040366180729e-01 -8.942351990803566464e-01 -8.992577780789212660e-01 -9.166775287687507490e-01 -9.266145180846938612e-01 -9.426038809720618250e-01 -9.410101223859953512e-01 8.630030575749936261e-01 9.042410279433505949e-01 8.878949965972569025e-01 -8.991046810146776647e-01 -9.720631545031896970e-01 -9.789171921684960420e-01 -9.831542734590242860e-01 -8.876368435137846902e-01 -9.056278477630654855e-01 -9.287650170882744138e-01 -4.962630697464246454e-01 -5.164422447848274755e-01 -4.760132335087188249e-01 6.112583904759675418e-02 1.217969245359225156e-01 1.896234353325648159e-01 1.995613113676353578e-01 3.790912827325224055e-02 5.053698295577583460e-02 2.228486621692451486e-01 2.810177990696679506e-01 1.730375905992653437e-02 1.094536135135706217e-01 -3.553678583365101756e-02 2.279945924978922511e-01 -1.576957953234701393e-01 1.485972143404997239e-02 4.674765821461124987e-02 -4.088162089147584499e-03 -7.614743576371722777e-02 1.187488760315439686e-02 -8.495757085295909672e-01 -9.119522806826653172e-01 -8.784533862979123642e-01 -8.479143965120577997e-01 -9.170566078158433054e-01 -8.833862602239090922e-01 -7.562536678424698344e-01 -9.061544640106757864e-01 -6.845655261986053342e-01 7.657607248578318648e-01 8.591560789190239023e-01 7.290793388928089591e-01 -8.430140611882106505e-01 -9.425497068294872438e-01 -9.848155326407802557e-01 -9.511682615033401067e-01 -8.676391732434328707e-01 -9.269029404898848634e-01 -8.982042234261109481e-01 -3.524148092380459674e-01 -1.967188868760783027e-01 -4.168829649702466278e-01 -1.908814683029942671e-01 1.428497210161642217e-01 2.969529945912062832e-02 7.988936398637257186e-02 -1.140088099885969153e-01 8.124076365321290794e-02 7.305045695482940971e-02 2.364799057346717720e-02 8.588221462399694972e-02 -9.253782344653802006e-02 1.276405769346867780e-01 2.522671506531829963e-02 -2.914068261316603570e-01 3.196871265376281107e-02 -2.743361525605825801e-01 -8.729051258756824472e-02 -3.907634476517157784e-02 -7.581556158741707685e-02 -9.258826285626604591e-01 -9.343538774860360441e-01 -9.372375938885908475e-01 -9.304893054749155956e-01 -9.370737616193598463e-01 -9.393375367864474912e-01 -9.318490498106499764e-01 -9.437068396008947424e-01 -9.420523728520168172e-01 9.095568269586533638e-01 9.605251193920320008e-01 9.502869794018141691e-01 -9.362973349284001712e-01 -9.872326133091740008e-01 -9.904854335047382774e-01 -9.904223561787559582e-01 -9.402064528868091520e-01 -9.351942844993771375e-01 -9.445849595246783581e-01 -3.455041980898507226e-01 -2.755665175977101700e-01 -3.891053073327401246e-01 -7.232246176862471010e-02 6.898489786103149946e-02 5.305802400381564449e-02 1.867772981869917914e-01 -4.485439894914586972e-02 1.695646397234626124e-01 1.596652799250908028e-01 1.875638035776335810e-01 1.851900923170135826e-01 -2.774642129950954245e-02 1.809047578852195637e-01 1.296049964270639121e-01 -1.093323013440592774e-02 1.116275622489036751e-01 -1.505048489241536114e-01 -8.517266981930734504e-01 -8.679490305108114034e-01 -8.785795549698527385e-01 -8.770329938354970434e-01 -9.444618123325712045e-01 -8.517266981930734504e-01 -9.458982884630966481e-01 -8.883274069873950962e-01 -2.774253900769631520e-01 2.847668753645460002e-02 -6.474792547026508860e-02 1.586631011308664019e-01 -1.575646681784728942e-01 -8.517266981930734504e-01 -8.679490305108114034e-01 -8.785795549698527385e-01 -8.770329938354970434e-01 -9.444618123325712045e-01 -8.517266981930734504e-01 -9.458982884630966481e-01 -8.883274069873950962e-01 -2.774253900769631520e-01 2.847668753645460002e-02 -6.474792547026508860e-02 1.586631011308664019e-01 -1.575646681784728942e-01 -8.979291249455350066e-01 -9.030482525534198057e-01 -9.070703657181015123e-01 -8.948416072241549557e-01 -9.292832739432107525e-01 -8.979291249455350066e-01 -9.733831929287237728e-01 -9.148838905240831432e-01 -5.343374801956303211e-01 1.648192074950236563e-01 -7.568173843466975692e-02 -1.159616874060149100e-01 -8.191835982452581877e-02 -8.396582086196590078e-01 -8.681734668179135195e-01 -8.569047424007486535e-01 -8.837497900502494508e-01 -8.920408381163303924e-01 -8.396582086196590078e-01 -9.374970023348238035e-01 -8.745090995612082585e-01 -1.688897723474445250e-02 3.896885989054127419e-02 -1.337054851925965071e-01 1.596207025993024164e-01 -8.720445234101999177e-02 -9.336071701555893609e-01 -9.371921347582603534e-01 -9.405372701382210820e-01 -9.427941817554008619e-01 -9.588017421472381230e-01 -9.336071701555893609e-01 -9.897702606378246948e-01 -9.391616753519030913e-01 -2.708250798676950510e-01 3.648230582418452994e-01 -2.883211765221566636e-01 -4.968969024717252714e-02 -1.044767490532708260e-01
2.780778640589782746e-01 -1.822080283314813851e-02 -1.098320047078198830e-01 -9.848380338732801720e-01 -9.738655965767256673e-01 -9.719695328315415273e-01 -9.862080518100195814e-01 -9.742791816756414258e-01 -9.718460139721922797e-01 -9.259067715309370339e-01 -5.597141997832614235e-01 -8.057429974897066804e-01 8.370098024970452633e-01 6.810216686318421031e-01 8.305466733248999534e-01 -9.763718654104642791e-01 -9.983067113622089428e-01 -9.989999619923423113e-01 -9.980916429933258671e-01 -9.878889492198256184e-01 -9.791645767495709141e-01 -9.719538374951917081e-01 -5.022174914171634308e-01 -6.024183724280967045e-01 -5.059182398977143391e-01 1.228634440724503257e-01 -3.670412455812108177e-02 7.887408324712158469e-02 5.491799164531328131e-03 1.909076474107092025e-01 -1.065258940751288019e-01 1.884144149979899707e-01 3.044221434318275868e-02 1.860199289092579478e-01 -6.860998963160140629e-02 5.494566835301423896e-02 -1.138046238018000228e-01 -3.956065617337190671e-02 -3.143581219948649585e-01 2.612778650279143008e-02 5.946557082243147940e-01 2.133347436557997134e-01 2.350423494136398006e-01 -9.876999745218543181e-01 -9.887754305021423384e-01 -9.785902555549641502e-01 -9.877705453361169674e-01 -9.889962666529081847e-01 -9.786891055255533267e-01 5.259760290909829550e-01 1.833776629820766668e-01 2.289013831135619237e-01 6.188681946564821290e-01 2.334740618578703131e-01 2.322586257894043993e-01 2.997287304009306833e-02 2.979875249167071027e-01 -6.449032432984748153e-01 -7.026035701847217485e-01 -9.879523129499329093e-01 -9.897104318421123814e-01 -9.789105224005395511e-01 -8.343708999528077763e-01 -8.724846723295847095e-01 -7.008596755648173193e-01 -3.643406439427906984e-01 3.850072175220948245e-01 -4.058075580718150110e-01 4.268429880162373236e-01 -2.927790234078405107e-01 2.608693291332174202e-01 -2.759774031923741267e-01 3.110491359116507315e-01 -3.530941768275255854e-01 3.618593799872397709e-01 -3.703716504679459565e-01 3.762463590081197573e-01 1.470148616531850583e-01 -3.268588197473030199e-01 1.743592047832805692e-01 7.538787151881166937e-02 1.046432140918569613e-02 -1.188699986957197918e-03 -9.846353038732892360e-01 -9.800269364155588248e-01 -9.846354603244317216e-01 -9.852867646104723764e-01 -9.788186948641276475e-01 -9.838099063622218754e-01 -9.855800763062203540e-01 -9.851530424399497221e-01 -9.853880902162602817e-01 9.790344411567383220e-01 9.835063873349652042e-01 9.796194002507091492e-01 -9.843808754732454869e-01 -9.985085727325453409e-01 -9.984171211167486293e-01 -9.991983412226860262e-01 -9.844413549047654755e-01 -9.805266648231155679e-01 -9.827691049153852720e-01 -6.919482076583605146e-01 -7.135471591308465422e-01 -6.958249603690960239e-01 1.432591646837849952e-01 1.920763581129865116e-01 2.252404589851024208e-01 2.221004933083402522e-01 1.409485190621952988e-01 1.704272681547511215e-02 2.601934324720753811e-01 2.898800181702376189e-01 1.527608129306796125e-01 1.016871720232648268e-01 5.686528399830795277e-02 1.991550563042288613e-01 -1.224736174382567017e-01 2.368609830070351682e-02 3.455433241365240670e-03 -2.766614103013530224e-02 -7.694896491554692464e-02 8.864484022331976798e-02 -9.829226018104336715e-01 -9.790812593365113559e-01 -9.794124812396028945e-01 -9.840138262780734335e-01 -9.803869933794954195e-01 -9.803661597849165910e-01 -8.709841222679344241e-01 -9.429250705724580017e-01 -7.411963675182126066e-01 8.334362178258600817e-01 9.017574946705122496e-01 8.159615560851067873e-01 -9.753173276025087768e-01 -9.991629673305066905e-01 -9.990355418527950837e-01 -9.979729171257019082e-01 -9.861859486339852321e-01 -9.826755703523871732e-01 -9.835003787531166886e-01 -4.310675789949929837e-01 -3.372615866091872583e-01 -4.446507731063718549e-01 -5.989728413671877028e-02 2.420321546680396022e-02 1.493062268824018879e-01 2.962438152236129482e-02 -8.031596384793726617e-02 5.462362199051212092e-02 4.685277235450494016e-02 8.703371420195689379e-02 2.287038426311410189e-01 -1.909443689436542690e-01 1.471014217274735081e-01 6.655692013430780651e-02 -3.547539207399246219e-01 3.253220354415131688e-02 -2.970925857515215873e-01 -9.694613889598301115e-02 -3.854622217181395694e-02 -5.785891976285791050e-02 -9.857206274917340583e-01 -9.872945917942868022e-01 -9.878882029553370803e-01 -9.863412294515540024e-01 -9.885346237052359264e-01 -9.887036109793858607e-01 -9.846383214878482448e-01 -9.875002187759415184e-01 -9.847286478690445710e-01 9.849040995689707367e-01 9.888898177457455807e-01 9.888594195209248205e-01 -9.887112169726702815e-01 -9.993155157894826335e-01 -9.996016640306013556e-01 -9.993208920846698984e-01 -9.870679614017385806e-01 -9.898872900191444391e-01 -9.897182764216377882e-01 -5.485049483810503501e-01 -4.726869813996886771e-01 -5.754553982626094966e-01 4.656350617089375504e-02 -2.055601750027546970e-02 1.482290077608224288e-01 1.800925287054671031e-01 -2.342754613313550310e-02 1.524244628239752042e-01 1.395268151771620890e-01 1.634145280845735182e-01 3.213306804616909984e-01 -6.942878998578512484e-02 2.376464918694725648e-01 1.164342483027276942e-01 -1.181391699461361716e-01 7.263903036606864094e-02 -1.265643512544392946e-01 -9.760785309324707670e-01 -9.764556051684265547e-01 -9.790625056878806687e-01 -9.738496214284985131e-01 -9.897938603629914400e-01 -9.760785309324707670e-01 -9.977092401228441210e-01 -9.806580053156006560e-01 -5.510620375922530290e-01 1.365808727456523375e-01 -1.225596768321141755e-01 1.723866037324659206e-01 -2.121714378789106015e-01 -9.760785309324707670e-01 -9.764556051684265547e-01 -9.790625056878806687e-01 -9.738496214284985131e-01 -9.897938603629914400e-01 -9.760785309324707670e-01 -9.977092401228441210e-01 -9.806580053156006560e-01 -5.510620375922530290e-01 1.365808727456523375e-01 -1.225596768321141755e-01 1.723866037324659206e-01 -2.121714378789106015e-01 -9.843021650417766999e-01 -9.831481813340137155e-01 -9.848061711263071949e-01 -9.809502892983756883e-01 -9.796428585037114667e-01 -9.843021650417766999e-01 -9.985255934399894784e-01 -9.876816126997721712e-01 -7.762812383010521122e-01 2.418033973025025263e-01 -1.536637517916044915e-01 -1.567960339265570824e-01 -2.945226186919439396e-02 -9.753949561353619790e-01 -9.731898674188974585e-01 -9.710490667220627037e-01 -9.767604087761854181e-01 -9.825216977303881105e-01 -9.753949561353619790e-01 -9.983920880617773719e-01 -9.743247581378522426e-01 -1.858668697844202133e-01 1.036983470048033068e-01 -2.172500196137847062e-01 2.214352954810394902e-01 -8.094106240731986646e-02 -9.883924084054250825e-01 -9.868563159517370620e-01 -9.880236960725287121e-01 -9.870842813722349174e-01 -9.869192963062769497e-01 -9.883924084054250825e-01 -9.995057493998318332e-01 -9.895856036341393880e-01 -5.245406093498407030e-01 3.742363176038814854e-01 -3.067903262238979578e-01 -3.348156660904654663e-02 -1.066477012938908675e-01
2.788382469604638314e-01 -1.842625756004334647e-02 -1.039603086718108305e-01 -8.471938346634669825e-01 -8.595175371222454341e-01 -9.065947505195922629e-01 -8.530394467358279886e-01 -8.653866642912901863e-01 -9.056378452342316310e-01 -7.869740303955221616e-01 -5.102781135382831179e-01 -7.426328929220061825e-01 7.162319131371626124e-01 6.102565326196845996e-01 7.963707713889358608e-01 -8.536573206356465882e-01 -8.982741663924029840e-01 -9.733168020623225170e-01 -9.768923200091411685e-01 -8.806100482180030387e-01 -9.033050940890001712e-01 -9.119877124141128055e-01 -4.487382734653627137e-01 -4.784906377820173362e-01 -4.323433498430322430e-01 5.459914546414240677e-02 4.789224861317731285e-02 -2.608562913503889233e-02 1.343141896007916114e-01 1.214465163411775489e-01 -7.219881266485322913e-02 1.760533070911732556e-01 2.227067263879017531e-02 1.427860293312844531e-01 -4.125524841590721276e-02 4.278260116243480515e-02 -1.000628604207618594e-01 -8.792785238596347031e-02 -1.663136116843526580e-01 6.508309478670706860e-02 7.146909297476290446e-01 8.991665356356250138e-02 1.141257357208162321e-01 -9.873014888691504787e-01 -9.806300171046463676e-01 -9.730157103560379550e-01 -9.874535273397243573e-01 -9.807701827644289549e-01 -9.731199665961403067e-01 6.457010467742583248e-01 6.538689979413041253e-02 1.106784875894707421e-01 7.359806922549038122e-01 1.094579572035133397e-01 1.102199833114070188e-01 -1.949138347642526137e-01 5.071104021494884373e-01 -7.125690559306797622e-01 -8.451127201566324132e-01 -9.873334324581826138e-01 -9.814855806691836770e-01 -9.736969013820594432e-01 -8.482162371834082171e-01 -8.901631686350690575e-01 -6.821893048094355150e-01 -3.687440760606747192e-01 4.025622701708331252e-01 -4.365371304982916256e-01 4.707412240581133611e-01 -3.276131352615382908e-01 2.980127314260391791e-01 -3.131302850690541040e-01 3.471854168458259338e-01 -3.802934993250216555e-01 3.941195046144011505e-01 -4.077241305109352565e-01 4.186404292993829990e-01 1.284813782772284696e-01 -1.663772880537925380e-01 2.735472650963254315e-01 3.525399313375150029e-02 5.894622667301543245e-02 4.112001621703415856e-03 -8.839472725326151803e-01 -8.985807282017518327e-01 -9.388672604246082187e-01 -8.846654567645788614e-01 -8.955854816360875326e-01 -9.380236627460751819e-01 -8.946710416716965319e-01 -9.350609309573035821e-01 -9.467703720963789316e-01 9.080204011158501398e-01 9.297025516526083999e-01 9.265388491877795119e-01 -9.019293710878635295e-01 -9.453286959890263574e-01 -9.634320572660154403e-01 -9.875558816315660460e-01 -8.794796178641981488e-01 -9.174910564932493573e-01 -9.366831972157186881e-01 -5.777947586200969932e-01 -5.838695113618539434e-01 -5.666574780554070045e-01 2.377988831038550105e-02 2.646184365666120475e-01 7.064249277025247409e-02 2.646079887465879188e-01 7.823902602120268168e-02 1.697334045438278829e-02 2.384578643183940805e-01 2.797063348907734004e-01 1.079784886464513344e-01 1.035498259076994415e-01 3.991250119015106457e-02 1.865922591578175471e-01 -1.237981115824349776e-01 9.847408293970678905e-02 1.244775485712187532e-02 -6.001758154216470242e-02 -7.476346888188845075e-02 7.762181404467476120e-02 -9.019504423038856578e-01 -9.368687559357506967e-01 -9.013374576446503417e-01 -9.042305349273165316e-01 -9.410311506091125766e-01 -9.023786940413723867e-01 -8.208159675946792300e-01 -9.061015189457829466e-01 -7.000041756990231789e-01 7.429789897215894889e-01 8.818575650452663561e-01 7.508571530004662931e-01 -8.952547775484137604e-01 -9.621637504525383244e-01 -9.891973677629464223e-01 -9.685732280671607297e-01 -9.084008434088126638e-01 -9.496023482899582646e-01 -9.174127720265239372e-01 -3.313774666714471295e-01 -3.018176321962384723e-01 -3.415441888643135360e-01 -1.226053204091814980e-01 4.041074942439211448e-02 1.782344548543385310e-01 -7.245390982305007291e-03 -1.005364232374406225e-01 8.677608385439453120e-02 -1.149687710808332090e-02 1.447481805291685464e-01 1.087794871118944878e-01 -1.066049973968013903e-01 7.580552122847684926e-02 1.477786986601533903e-01 -2.630063070601379449e-01 -3.150661154690757165e-02 -2.817264279941165128e-01 -8.182444314108064387e-02 -4.433566284497813398e-02 -2.999270069396145141e-02 -9.375785873634453482e-01 -9.562266311527297669e-01 -9.364465877651159120e-01 -9.383753946545272395e-01 -9.595971624093916352e-01 -9.347753442248071254e-01 -9.376092909092482719e-01 -9.666270435150381424e-01 -9.368853350399214408e-01 9.491684214465451186e-01 9.502813268153897930e-01 9.584463178949332862e-01 -9.488244360500025509e-01 -9.872222304815400085e-01 -9.943122073372818726e-01 -9.854030276141371170e-01 -9.395337721996676050e-01 -9.613768149032057009e-01 -9.258011701995064735e-01 -4.131003106619443033e-01 -3.488364894978070452e-01 -4.440141501209919350e-01 -9.536247537863603999e-04 -4.582391119459482132e-02 1.437550467446992719e-01 1.757532994661511472e-01 -5.620545025295579922e-02 1.790316049123050479e-01 1.014082437547562943e-01 1.317749495272284577e-01 1.738268722621080786e-01 -3.759965476121850808e-02 1.197428623525462199e-01 1.005659896319373164e-01 -8.149649258364886906e-02 4.404691469453944977e-03 -1.192632310785168431e-01 -8.473174009784671945e-01 -8.460738026962064673e-01 -8.623389485442225499e-01 -8.517754652368543233e-01 -9.249364641249343544e-01 -8.473174009784671945e-01 -9.029103761893744196e-01 -8.916133014187976880e-01 -3.885071242242417178e-01 6.065472941192628226e-02 -8.210972545502480402e-02 1.741279582121267877e-01 -1.854325450618955762e-01 -8.473174009784671945e-01 -8.460738026962064673e-01 -8.623389485442225499e-01 -8.517754652368543233e-01 -9.249364641249343544e-01 -8.473174009784671945e-01 -9.029103761893744196e-01 -8.916133014187976880e-01 -3.885071242242417178e-01 6.065472941192628226e-02 -8.210972545502480402e-02 1.741279582121267877e-01 -1.854325450618955762e-01 -9.019396850071212945e-01 -8.856555859415824461e-01 -8.892136704299602457e-01 -8.975697696904046952e-01 -9.469500789682582242e-01 -9.019396850071212945e-01 -9.576870258468743735e-01 -9.068306586148667803e-01 -6.114980608513015392e-01 1.229941197712518530e-01 -3.480981212825167564e-02 -1.527781966762344623e-01 -3.690915528699249826e-02 -8.916799916688652461e-01 -8.919409541033959110e-01 -8.897332758390394947e-01 -8.998596152287566818e-01 -9.217642901412492762e-01 -8.916799916688652461e-01 -9.585754405083225516e-01 -9.060757819436651150e-01 -6.919832046610939480e-02 3.036469138253630046e-02 -1.529621574627103020e-01 1.843799861436467846e-01 -5.876096821190760627e-02 -9.478044191033354604e-01 -9.559185023884909649e-01 -9.587216116489625239e-01 -9.488156571989084798e-01 -9.423212356539817369e-01 -9.478044191033354604e-01 -9.916111562130929258e-01 -9.615413396370139365e-01 -3.723135847921154040e-01 3.519495976058356068e-01 -2.850412817056777737e-01 -1.189417335106584747e-02 -1.396687838869778986e-01
2.822039702113552373e-01 -1.997891807981083331e-02 -1.041590181423751177e-01 -9.055349807735414425e-01 -8.829115157960840676e-01 -9.166492638736843945e-01 -9.180104990133426401e-01 -8.888521285904128488e-01 -9.154135746783922389e-01 -8.229750911492318410e-01 -5.057853094130498883e-01 -7.645830464903359269e-01 7.555045334071902596e-01 6.177561093375019130e-01 8.042644658837327931e-01 -8.984369695663351196e-01 -9.591967401128136395e-01 -9.811286169940711677e-01 -9.806573953849881953e-01 -9.403856184317883615e-01 -9.166096170189212966e-01 -9.157385827688450108e-01 -4.255714137783038753e-01 -5.023925221128360263e-01 -4.199665268809838481e-01 1.158624461045322240e-01 3.157124528494647218e-03 2.273822579342327579e-02 1.209686278748539623e-01 9.903261061067193671e-02 -4.173514782941904061e-02 1.351885760429246963e-01 4.208976862503167882e-02 1.429221164070373085e-01 -5.175507454393565160e-02 5.337892648069830076e-02 -8.629516406297896292e-02 -6.920195676516026351e-02 -1.825530519806355112e-01 8.011671317445241691e-02 7.342094868618219694e-01 6.167688265210075071e-02 4.683838450802414732e-02 -9.905919866944706831e-01 -9.854484965713652400e-01 -9.758564730626432260e-01 -9.908267138899736759e-01 -9.857338066749147254e-01 -9.762818239724437852e-01 6.639106195032398183e-01 3.687429556785092044e-02 4.300404516693792645e-02 7.560067301294473019e-01 8.312181433885161563e-02 4.329145491009839947e-02 -2.737418478072549122e-01 5.436034404120865249e-01 -6.893447929677611885e-01 -8.999283276176534008e-01 -9.913984317739117369e-01 -9.867498083148623644e-01 -9.773864573470243400e-01 -8.585420092568362138e-01 -8.956866540201841032e-01 -8.129964921827002033e-01 -3.376588545783369422e-01 3.732902840731213701e-01 -4.090021398511265449e-01 4.448573746374132609e-01 -3.175941538832829369e-01 2.840386425147335414e-01 -2.955194423180549923e-01 3.261533362736510622e-01 -3.827011571136700874e-01 3.961397875790994560e-01 -4.092891924239371315e-01 4.196816803890817682e-01 1.841123073893479734e-01 -9.869915358903733060e-02 2.395777632697566328e-01 7.429582668386644495e-02 -3.125984724579946011e-03 -1.631646359548999045e-02 -9.047134795452195233e-01 -9.164025816410543701e-01 -9.566630474003309237e-01 -9.066545879075688097e-01 -9.125073642765311188e-01 -9.515498985816284172e-01 -9.131540677366207781e-01 -9.546804650406606196e-01 -9.694270525784390857e-01 8.824638021770925267e-01 9.207580919296951549e-01 9.573030191443481218e-01 -9.210202544718910644e-01 -9.607642798416181629e-01 -9.748750985600931340e-01 -9.941405354604501143e-01 -9.107720972704865803e-01 -9.250388279904898647e-01 -9.488402349726883234e-01 -5.739063049735383393e-01 -5.749753316164591954e-01 -5.748664298552663698e-01 9.431720338728723230e-02 2.101261253573115106e-01 1.643594984792702274e-01 2.219167703910127354e-01 5.909914126102336351e-02 6.341473675051717551e-02 1.820614514876056356e-01 3.193771894932729838e-01 1.100819343914414827e-01 8.251758558209376648e-02 2.226347784116525924e-02 2.116600019799536603e-01 -1.539156048439430657e-01 3.435865945699008439e-02 2.628968714387491627e-03 -6.079802456694275575e-02 -5.438837034731398151e-02 9.499054580704797968e-02 -9.416178989460249893e-01 -9.374476244001047620e-01 -9.132673931611091644e-01 -9.436417187767824899e-01 -9.366105758607629062e-01 -9.193770999568653401e-01 -8.554624886630747271e-01 -9.162233699306817636e-01 -7.011569345313636292e-01 7.830432331906770349e-01 8.878235294161547220e-01 7.594073314544185216e-01 -9.099451340248415621e-01 -9.826546178509073526e-01 -9.871356065950925851e-01 -9.750914785053799161e-01 -9.454572060935366729e-01 -9.377101354989341164e-01 -9.399971223892987782e-01 -3.589563250350636947e-01 -2.853954919087499098e-01 -3.141768766571401694e-01 -9.660488756102306174e-02 3.663408056191731765e-02 1.435313000996765453e-01 3.678806704160093866e-02 -8.402300554876201977e-02 7.461733069481177316e-02 -2.661062644001306338e-03 1.385055531983206134e-01 1.146069760484978578e-01 -1.227241421370919433e-01 1.157483559210134155e-01 9.684605395754812551e-02 -2.750827906840783710e-01 -7.643629030606628738e-02 -2.222491503392776402e-01 -9.039382716922682304e-02 -5.808076275248997417e-02 -7.158632493555056042e-02 -9.346306163765055741e-01 -9.581713288165700781e-01 -9.346323664801430287e-01 -9.322516192273601066e-01 -9.598220912431942864e-01 -9.391475619225518878e-01 -9.378677638917156667e-01 -9.613711880742468185e-01 -9.404774548866653427e-01 9.454353956597777442e-01 9.707107708650599687e-01 9.446327972063313094e-01 -9.482838799021324760e-01 -9.844875887059201247e-01 -9.944015544648974192e-01 -9.831225807087167201e-01 -9.335506292435380438e-01 -9.644695934721143615e-01 -9.498622516035232222e-01 -4.081816612044154025e-01 -3.510446455149613953e-01 -4.349615140549548120e-01 1.404866553956868325e-02 -2.032206860578375518e-02 1.085690821803137196e-01 2.011142562360410391e-01 -4.030193051742438776e-02 1.688228543170658680e-01 1.199506200320598764e-01 1.083222366320931163e-01 2.008344662259107238e-01 -7.591628740760929250e-02 1.827863394929104546e-01 4.861667893544315694e-02 -6.640766501733540161e-02 1.897079090286981490e-02 -1.211472520652010637e-01 -8.952181928406028888e-01 -8.925163031266832858e-01 -9.024942145321754872e-01 -8.794438736163221471e-01 -9.738236044485352183e-01 -8.952181928406028888e-01 -9.539700266481178081e-01 -9.086371229005395511e-01 -4.062133264378030573e-01 9.272376882059270298e-02 -1.012752371445137939e-01 1.734789094810189891e-01 -1.860600454169675788e-01 -8.952181928406028888e-01 -8.925163031266832858e-01 -9.024942145321754872e-01 -8.794438736163221471e-01 -9.738236044485352183e-01 -8.952181928406028888e-01 -9.539700266481178081e-01 -9.086371229005395511e-01 -4.062133264378030573e-01 9.272376882059270298e-02 -1.012752371445137939e-01 1.734789094810189891e-01 -1.860600454169675788e-01 -9.206281964401066276e-01 -9.083361253917320299e-01 -9.194067911305421337e-01 -9.056378951182023629e-01 -9.664359393102323059e-01 -9.206281964401066276e-01 -9.712096931744527151e-01 -9.362546982677735219e-01 -6.243795468431018181e-01 1.806522917141507312e-01 -1.264062449884371386e-01 -1.193491658213075013e-01 -1.111494425313616814e-02 -9.103329263759266654e-01 -9.269638125775094828e-01 -9.180179085607346190e-01 -9.338433637297547385e-01 -9.114430723814900270e-01 -9.103329263759266654e-01 -9.743526901904238091e-01 -9.229095059492080644e-01 -5.701678906931934021e-02 6.797208670820908960e-02 -1.995444322003809001e-01 2.270048019684778040e-01 -7.878222948254084979e-02 -9.481518488765136032e-01 -9.547940534036094551e-01 -9.571100280409061689e-01 -9.587504277394981456e-01 -9.365891960328460719e-01 -9.481518488765136032e-01 -9.907922848662897852e-01 -9.594386242111807572e-01 -3.702646239891907998e-01 3.422994997874119760e-01 -2.884661105047144902e-01 -9.996345739680709275e-03 -1.241518639519327560e-01
2.752749199728071750e-01 -1.375390600874479979e-02 -1.064540839645954778e-01 -9.355146515070094093e-01 -8.998816418242845394e-01 -9.073283381774792655e-01 -9.425519684689254163e-01 -9.042801360758785378e-01 -9.067161263057819109e-01 -8.633517845032377958e-01 -5.098379646779974683e-01 -7.672937494720527551e-01 7.987077908183294328e-01 6.467244415299884253e-01 7.896408914349638541e-01 -9.141009827023108825e-01 -9.829266358806062476e-01 -9.873958120853877363e-01 -9.754109036688726198e-01 -9.597584976223346720e-01 -9.276557588295554213e-01 -9.034971173999224447e-01 -4.737122339547532590e-01 -4.650124742083279195e-01 -4.229077102459474768e-01 1.193822200653972682e-01 -1.067919509613735399e-02 2.601727733178950050e-02 1.557149542147046040e-01 1.123943577966410590e-01 -7.032447951608855607e-02 1.873891220845217143e-01 7.541043082651619801e-03 1.428982825471259155e-01 -5.475923866239940097e-02 5.514074550270919167e-02 -8.033180786778723603e-02 -4.262543854646727581e-02 -1.954915112562959911e-01 6.025403830164480223e-02 6.881605212503485447e-01 9.655031832338673015e-02 6.352802128297414634e-03 -9.894690157150602960e-01 -9.790350174476601941e-01 -9.715382648567754131e-01 -9.896667912072817375e-01 -9.790616526882556236e-01 -9.718814622585242313e-01 6.183242606422895138e-01 7.198727592422261845e-02 4.233885343408673625e-03 7.105882481720944277e-01 1.153913219434825471e-01 2.337097661776179648e-03 -3.402592465331858995e-01 4.868842308613858805e-01 -6.068052546091261545e-01 -9.275563810533041798e-01 -9.901494568573957489e-01 -9.799632949848119390e-01 -9.733674237790145289e-01 -8.423036259689611338e-01 -8.935837592369355598e-01 -8.481248917165313816e-01 -3.613733563437254714e-01 3.963136747764082202e-01 -4.315700641683881122e-01 4.672160101316594760e-01 -3.183794973177095922e-01 2.833402542947016656e-01 -2.932950591111183059e-01 3.225160801455638215e-01 -3.837144027400353763e-01 3.955775593901482146e-01 -4.071852229341553220e-01 4.160790996969410127e-01 9.659804519838277592e-02 -1.338372497051744381e-02 4.045376172023202321e-01 9.556817812229272124e-02 -4.147990767701281722e-03 4.671055733946242669e-03 -9.482029003024153857e-01 -9.381974533395193161e-01 -9.626239353732433113e-01 -9.489885307299413819e-01 -9.347400922732755912e-01 -9.613568039871587256e-01 -9.531478661144358044e-01 -9.613201025207741557e-01 -9.730871221260518622e-01 9.432671998852401041e-01 9.524922827023594163e-01 9.588163735596515469e-01 -9.485652394215389194e-01 -9.908603617849989220e-01 -9.886529249182174350e-01 -9.961204043475345715e-01 -9.458614572355726891e-01 -9.444885438178702852e-01 -9.634981601968095610e-01 -5.630736134583437247e-01 -5.751918295886124799e-01 -5.903723052170805063e-01 8.540952189217286550e-02 1.963282676204103350e-01 1.371399207662369613e-01 2.295338135938077007e-01 7.427477725115282092e-02 2.195403437353575862e-02 2.178638122534776456e-01 3.208576125824871839e-01 1.001481788798169459e-01 8.143202859127716964e-02 1.361674000480136981e-02 2.064343074113405563e-01 -9.891419729433734154e-02 7.900208735605976015e-03 -5.236334488762395961e-02 -4.107608268533594759e-02 -5.626705031410518532e-02 9.494159478464044011e-02 -9.159163247405835984e-01 -9.274726507303875378e-01 -9.328206158411584958e-01 -9.263582172589074348e-01 -9.308871334508028728e-01 -9.358482500395635117e-01 -8.015886678530500520e-01 -9.046441370114020053e-01 -7.020192069182087380e-01 7.894201949692554177e-01 8.772003045245173602e-01 7.815624360949262606e-01 -9.071933425315679145e-01 -9.772339853161006173e-01 -9.822821205079614870e-01 -9.876596900592070627e-01 -9.478021275276861113e-01 -9.370329831604504722e-01 -9.448288904884885042e-01 -3.382802674302706203e-01 -2.692558906359218684e-01 -3.204950109152188698e-01 -1.351790010755632987e-01 7.211799564945040042e-02 1.129120023345882434e-01 6.173663666369470782e-02 -1.343884431866817497e-01 1.297958985012410971e-01 -6.363359160529427627e-02 1.905706824504199426e-01 6.232668629680003514e-02 -8.520057347269201220e-02 1.015230226869751201e-01 1.007319228804211680e-01 -2.636920262303802942e-01 -1.288147400266037301e-01 -1.755391373261966648e-01 -1.269392616642106564e-01 -2.509360288835132610e-02 -4.850387427480715163e-02 -9.524443596410276935e-01 -9.645779359824239174e-01 -9.587188415736606073e-01 -9.527609953484619254e-01 -9.676096433715125622e-01 -9.591374245552373168e-01 -9.550463877908846877e-01 -9.675008190164745558e-01 -9.531289137994382044e-01 9.588175073230729151e-01 9.737316147885944906e-01 9.679755798532665434e-01 -9.621309782923469500e-01 -9.934462585251500055e-01 -9.966318517112469078e-01 -9.949840052499392407e-01 -9.551542846849656598e-01 -9.726952609846659659e-01 -9.598740870973554440e-01 -3.975770040219102630e-01 -3.310015225188266963e-01 -4.160618198078244734e-01 -2.331615768446619608e-02 -2.136215516292800081e-03 9.168127435736247999e-02 1.813009285339255705e-01 -1.015602829827565168e-01 2.088813130829361153e-01 6.693779413212852525e-02 1.052627667192438110e-01 1.431000053270002903e-01 -5.585975620747202219e-02 1.386396594323505704e-01 7.230098179252182622e-02 -4.780655857210504289e-02 -3.394637441464780359e-02 -1.012109811860071595e-01 -9.134089854200280190e-01 -9.253939296264450665e-01 -9.371295317148667925e-01 -9.127290385038835385e-01 -9.724404227355853969e-01 -9.134089854200280190e-01 -9.738425249641499137e-01 -9.506412779068764696e-01 -4.111691025423416801e-01 9.008139549511390287e-02 -1.104135012613484540e-01 2.060875368323316081e-01 -2.107082862805194357e-01 -9.134089854200280190e-01 -9.253939296264450665e-01 -9.371295317148667925e-01 -9.127290385038835385e-01 -9.724404227355853969e-01 -9.134089854200280190e-01 -9.738425249641499137e-01 -9.506412779068764696e-01 -4.111691025423416801e-01 9.008139549511390287e-02 -1.104135012613484540e-01 2.060875368323316081e-01 -2.107082862805194357e-01 -9.490457698772334361e-01 -9.461057879896245248e-01 -9.486600633725762455e-01 -9.503102798060895084e-01 -9.684598832675480606e-01 -9.490457698772334361e-01 -9.908774691846674587e-01 -9.569320585464536899e-01 -6.259889503893626417e-01 1.975661354388753566e-01 -1.360439757392551685e-01 -1.270770529915800362e-01 -1.990346465962537781e-02 -9.077512881746531148e-01 -9.044739941712878206e-01 -9.001116843274993284e-01 -9.170694541586676962e-01 -9.373902539469303186e-01 -9.077512881746531148e-01 -9.705662232438507786e-01 -9.276853387295741493e-01 -4.003460251767459316e-02 1.515840378995426604e-02 -1.329580390938693846e-01 1.587780399734015357e-01 -3.717104553411989393e-02 -9.611264083308338479e-01 -9.646016170780168375e-01 -9.667737371742936014e-01 -9.673005103316176800e-01 -9.677353563311704709e-01 -9.611264083308338479e-01 -9.957373558277413661e-01 -9.690553094561888958e-01 -3.483249553638509965e-01 3.151532635145662953e-01 -2.525484502678572718e-01 -2.811041179321838862e-02 -1.290882724838047502e-01
2.769863416939966072e-01 -1.768730640329381140e-02 -1.094700623763201763e-01 -9.794624022717784984e-01 -9.581247874338784110e-01 -9.596289373873400086e-01 -9.825076835593415936e-01 -9.608480708617929134e-01 -9.604506939879557947e-01 -9.172603486199943923e-01 -5.446989953455585454e-01 -7.906984224357741509e-01 8.301474954284423502e-01 6.742929611060527462e-01 8.288523993052785421e-01 -9.677667083414941418e-01 -9.979742268458243748e-01 -9.982085548775989636e-01 -9.972048734324308050e-01 -9.875297790787567198e-01 -9.731819687793537010e-01 -9.633258731076361769e-01 -4.828797490398827330e-01 -5.260236125462636192e-01 -4.616258845271535849e-01 7.249867141869750786e-02 3.308205870010461069e-02 -1.927842399165892798e-02 1.658507943626288950e-01 9.433413689735406504e-02 -1.576048545437817514e-02 9.384152613439991630e-02 8.742651685831932806e-02 1.190600782121942480e-01 -2.537886233299831151e-02 5.456463868966225303e-03 -4.251347157089314238e-02 8.325347357119154690e-02 -8.649386699819787416e-02 1.302934503652851683e-01 5.808981559280395057e-01 1.821761684697800199e-01 -4.799029627111787988e-02 -9.775991808589221677e-01 -9.772062950380973056e-01 -9.632565555488252773e-01 -9.799207882556795202e-01 -9.791088219914768631e-01 -9.666779375371251648e-01 5.136629543825400601e-01 1.550549306957404172e-01 -4.956330401458838159e-02 5.970343544815055470e-01 1.963615234177424618e-01 -5.898002945878224462e-02 -3.410897250587520135e-01 3.386875946953335492e-01 -4.544297615352727027e-01 -9.282085061342011389e-01 -9.860646560354152657e-01 -9.842743766614046041e-01 -9.724290927570108378e-01 -7.703447200041658727e-01 -8.898491730033913916e-01 -8.798228276933000025e-01 -4.002311083097619404e-01 4.311935319881251005e-01 -4.624444937482266593e-01 4.940697159767351021e-01 -3.078748953140721945e-01 2.736477697448777557e-01 -2.851847253705762086e-01 3.162519345508014723e-01 -4.194110658316446694e-01 4.306527089247402795e-01 -4.416488066101444954e-01 4.498821909192407542e-01 5.010712434066975354e-04 3.400572621753407410e-02 4.683322030343726738e-01 7.225480046246350596e-02 5.870867278704026970e-03 -1.062097677579035976e-02 -9.819415838302820720e-01 -9.732787879948686660e-01 -9.833666098520794652e-01 -9.827436715046371507e-01 -9.730970875647854124e-01 -9.824172653120397669e-01 -9.819170624159655469e-01 -9.800107026582896008e-01 -9.849266771677938070e-01 9.765871718904520771e-01 9.756415097096784450e-01 9.777157411729091585e-01 -9.811274968105273553e-01 -9.981864043418555710e-01 -9.967886665957761405e-01 -9.992062820717454441e-01 -9.818856723692969135e-01 -9.769988680187710051e-01 -9.817243175260578214e-01 -6.586442612881204806e-01 -6.665000333452151260e-01 -6.750741635992911771e-01 5.937027129040415435e-02 2.029010080788529735e-01 1.435683209915074310e-01 1.442188080809276296e-01 4.019763610655138764e-02 1.071997489028931466e-01 1.509644339183380812e-01 3.009431667169296110e-01 7.893713564588047960e-02 9.610968055719762426e-02 6.055328952561570867e-03 1.473973742783702412e-01 -1.264561362757383838e-02 6.676442443526241222e-02 -1.067349935228422697e-01 -2.710252026972076803e-02 -7.140142784935132880e-02 8.331726322687509068e-02 -9.730476128258319646e-01 -9.771816610689280092e-01 -9.718916972747839722e-01 -9.753253933768954997e-01 -9.795283105614757124e-01 -9.744020683137237793e-01 -8.627513999263953792e-01 -9.383429529283703330e-01 -7.353896329334442816e-01 8.246631557561397985e-01 9.013653973718791512e-01 8.059746021253043624e-01 -9.696139318467096313e-01 -9.981904103406429307e-01 -9.990024355409051759e-01 -9.982233885860427591e-01 -9.803221868071648748e-01 -9.831430234429853199e-01 -9.797547579609494628e-01 -2.896798874616939856e-01 -2.798439532054658452e-01 -4.155003534299412937e-01 -8.448903276795663442e-02 3.415476027942320608e-02 1.299059685409001963e-01 7.309370783113952608e-02 -9.194020603156820293e-02 1.028670905736021879e-01 -6.591344673033451562e-02 2.201076473681608248e-01 7.041359664008745023e-02 -8.447053132752956051e-02 6.795882493475659258e-02 1.479653571323528982e-01 -1.777513075333340131e-01 -1.011707170824587970e-01 -2.878857623226717122e-01 -9.723961212038177704e-02 -4.156108676108120903e-02 -5.329735657104420210e-02 -9.802900569783167262e-01 -9.846898929743062023e-01 -9.826768222539262743e-01 -9.819640024005037438e-01 -9.863771739688719231e-01 -9.849218624932967181e-01 -9.774411295430633917e-01 -9.849021712821262042e-01 -9.760487916491124016e-01 9.784979078178641654e-01 9.862105483716309129e-01 9.830020124108347357e-01 -9.855721084096510376e-01 -9.986759296152190046e-01 -9.994210030095298514e-01 -9.990138210738742641e-01 -9.839030997439196513e-01 -9.880302773116950155e-01 -9.877240378120946129e-01 -4.623706302889342146e-01 -4.126549734800038505e-01 -4.956750583164846735e-01 1.668671455719096877e-02 -2.199091295175259822e-02 1.033578028789604725e-01 1.927290594688957082e-01 -6.898496355342190189e-02 2.043834721061215387e-01 6.062120360926735035e-02 1.253721369749846160e-01 1.425854429749245367e-01 -4.882096148989580747e-02 1.214455704791705393e-01 4.370161209051932893e-02 -2.020666789575828806e-02 -3.328243028267836856e-02 -9.522638911329296685e-02 -9.684915450230341394e-01 -9.620807015815329155e-01 -9.686899749751031186e-01 -9.578659429303070239e-01 -9.910455191487560489e-01 -9.684915450230341394e-01 -9.967944248432986099e-01 -9.739671797298546929e-01 -4.488575886867751663e-01 5.836447501931037174e-02 -7.352390466763986110e-02 1.523641500124535142e-01 -1.728271145204711423e-01 -9.684915450230341394e-01 -9.620807015815329155e-01 -9.686899749751031186e-01 -9.578659429303070239e-01 -9.910455191487560489e-01 -9.684915450230341394e-01 -9.967944248432986099e-01 -9.739671797298546929e-01 -4.488575886867751663e-01 5.836447501931037174e-02 -7.352390466763986110e-02 1.523641500124535142e-01 -1.728271145204711423e-01 -9.812274201786626016e-01 -9.786671832557926054e-01 -9.808305594011358375e-01 -9.763914412277414634e-01 -9.764566389548227088e-01 -9.812274201786626016e-01 -9.979564110173353431e-01 -9.845023054630909209e-01 -7.204654851256048209e-01 1.886778559972245861e-01 -1.176620453317592935e-01 -1.508812822181341273e-01 -1.394108684725074709e-02 -9.693816060273651170e-01 -9.582192144617133200e-01 -9.556276552575762029e-01 -9.656949273361766783e-01 -9.824421783880470382e-01 -9.693816060273651170e-01 -9.977016261880322645e-01 -9.635436001843228349e-01 -6.662243901830339210e-02 3.889866269333407817e-02 -1.523321160273178876e-01 1.588099527204441253e-01 -2.733560469710321836e-02 -9.851840131207284523e-01 -9.822098695653769251e-01 -9.842427346063586935e-01 -9.820725188606790335e-01 -9.865311039800119808e-01 -9.851840131207284523e-01 -9.992119752324996051e-01 -9.869930842618770406e-01 -4.385105532255013649e-01 3.099363340407765288e-01 -2.698607920455541875e-01 -2.178882899788422978e-02 -9.874106357134034007e-02
2.909658466866205662e-01 -2.219361565717821796e-02 -1.146026156134824919e-01 -8.462680698495883558e-01 -8.415171149283415808e-01 -8.930813392859416888e-01 -8.549324425985145304e-01 -8.539726553707127632e-01 -8.940452242985044151e-01 -7.662115388756964851e-01 -4.951768050183756320e-01 -7.385908147763904363e-01 7.433620435703891527e-01 5.771564493024727849e-01 7.654271166467098153e-01 -8.498683504517483556e-01 -9.157951543237573544e-01 -9.714676706418399199e-01 -9.731706934680072196e-01 -8.802836878117374919e-01 -8.987379826639494418e-01 -8.995237617732876334e-01 -3.966750347265184939e-01 -4.311284820588485722e-01 -4.002121014722931358e-01 2.517455002286424215e-02 5.946645530909688143e-02 -3.013259224912643447e-02 1.821649106716019262e-01 1.241716955844219816e-01 -2.973386993484483654e-02 1.513068796974316732e-01 8.011661709379849783e-02 1.520383917894774506e-01 -2.234637987077794583e-02 1.701227037961503680e-02 -1.855526835456627888e-02 -4.463694619925116791e-02 -1.699300802616543482e-01 2.959667092118069276e-02 4.630855695682419837e-01 2.953839106819195481e-01 -2.776994275135268378e-02 -9.862235350961481295e-01 -9.854240569872143585e-01 -9.743690646149194556e-01 -9.869469452998141934e-01 -9.854929589410844626e-01 -9.750435232165913790e-01 3.966368007070469326e-01 2.642083382095512523e-01 -3.106819998395410343e-02 4.899693419021773355e-01 3.130123026338527126e-01 -3.241846706150050550e-02 -4.242033548590031788e-01 1.805648148813832066e-01 -2.876164589927293624e-01 -9.418324068851804398e-01 -9.887323219316918044e-01 -9.865502780480394085e-01 -9.765699501934576032e-01 -8.642625178659285590e-01 -8.904135067170875217e-01 -8.094036110031954667e-01 -3.982035843938459552e-01 4.326553830194651562e-01 -4.673462281644314986e-01 5.023524065179117981e-01 -1.738373808926748365e-01 1.488184243556707476e-01 -1.792143139914002814e-01 2.324287945178537818e-01 -3.150374918939851665e-01 3.371555741063463896e-01 -3.592063116855885863e-01 3.787703542679686231e-01 -2.554456600451525117e-01 -2.116990661686328490e-01 4.672482951466566670e-01 1.154939020221734391e-01 3.873750569510597125e-02 8.644831735618051238e-03 -8.747873331011173370e-01 -8.545603741539837817e-01 -9.092201135727492334e-01 -8.719127085270124145e-01 -8.583443344466011871e-01 -9.069546893009342581e-01 -8.856571651743442297e-01 -8.661954047734836681e-01 -9.236477048498888953e-01 8.870686604661225383e-01 9.104791720676805866e-01 9.090204974062454646e-01 -8.749232269895266256e-01 -9.493138772496424460e-01 -9.358249763351288442e-01 -9.746643397356742344e-01 -8.712172482151011588e-01 -8.877051989410169597e-01 -9.078746598947271540e-01 -4.554248834184467798e-01 -5.053206368577487506e-01 -5.238059140924032908e-01 -7.796998980245373884e-03 2.169796207175739011e-01 7.055028905451120325e-02 2.120533775391911790e-01 4.052369974893939991e-02 8.847511157867149478e-02 1.780307269214000676e-01 3.724817933819986049e-01 6.699834343917462909e-02 1.345895280363073321e-01 -2.816904657631812137e-02 2.673160895424133154e-01 -3.371627720231597930e-02 2.082788977616889872e-02 -1.503377194129086325e-01 -8.656323977358576505e-02 -5.699650573840180784e-02 6.655255438186144512e-02 -8.829628466177015245e-01 -9.210455629219264084e-01 -8.886929085564090336e-01 -8.852255091818237442e-01 -9.291409455179099330e-01 -8.950016295018871082e-01 -7.966802240251215084e-01 -8.778143842281500575e-01 -6.446015913090633598e-01 7.398539148744612826e-01 8.741723470453383049e-01 7.273793958844644303e-01 -8.690153003043173952e-01 -9.491693406187086124e-01 -9.847032169419865921e-01 -9.690762421451135644e-01 -8.877436791338891853e-01 -9.418623504256788959e-01 -9.084097619847044669e-01 -3.289027347729932549e-01 -2.379528644529990966e-01 -3.143047224339243773e-01 -1.905078601030087970e-01 1.566984218013779129e-01 3.112507069265972939e-02 9.543446817236965474e-02 -1.299408522244899777e-01 1.690532049780300305e-01 -1.087538883974885351e-01 2.444956841800073888e-01 -5.093115666277767822e-02 4.006571584925301688e-02 -6.288042843340431974e-03 1.743962854531721784e-01 -2.058906072162144385e-01 2.390472695967940653e-02 -2.213476650267542645e-01 -1.170808214101246580e-01 -3.501466648855663943e-02 -7.598219440964151805e-02 -8.850788375972296063e-01 -9.330992424034403321e-01 -9.046053070683419683e-01 -8.851066098996364095e-01 -9.392544844133766668e-01 -9.128818887520991909e-01 -8.957125357950840305e-01 -9.251972893449817992e-01 -8.954078451792406579e-01 8.887618151712278758e-01 9.440113459053705025e-01 9.188088645380347863e-01 -9.189673775771755038e-01 -9.603291846899835171e-01 -9.883309307669969623e-01 -9.735051400109725472e-01 -8.918731255013485626e-01 -9.466636116215708663e-01 -9.297151479564975673e-01 -3.199006203701554862e-01 -2.487021186619385038e-01 -3.289397573418086362e-01 -8.529089074610249344e-02 7.760619167281913866e-02 6.073381349085285597e-02 1.954824797469084385e-01 -1.271709964260980263e-01 2.654972702367796589e-01 4.392285161317409370e-02 1.413512058426718287e-01 2.138313394842837872e-03 4.082948322989908563e-02 8.021569985615797926e-02 2.656934213757783034e-02 -1.811985797637105655e-02 4.791021581836624882e-02 -9.396346589919812864e-02 -8.450332550274001209e-01 -8.307343123649879590e-01 -8.505434136926808275e-01 -8.364077121936683845e-01 -9.490872035098005810e-01 -8.450332550274001209e-01 -9.140976119121637655e-01 -8.801589608680095989e-01 -3.277828306204576547e-01 7.235765650047622233e-02 -9.725782590814228967e-02 2.174751715826959697e-01 -2.250396989433810224e-01 -8.450332550274001209e-01 -8.307343123649879590e-01 -8.505434136926808275e-01 -8.364077121936683845e-01 -9.490872035098005810e-01 -8.450332550274001209e-01 -9.140976119121637655e-01 -8.801589608680095989e-01 -3.277828306204576547e-01 7.235765650047622233e-02 -9.725782590814228967e-02 2.174751715826959697e-01 -2.250396989433810224e-01 -8.762744302943146213e-01 -8.669384620521348728e-01 -8.719496536399753417e-01 -8.665716694950291732e-01 -8.948037903920715852e-01 -8.762744302943146213e-01 -9.473952910828663532e-01 -8.931947099820849445e-01 -5.135902674122084788e-01 1.636226434044113776e-01 -1.193014030391546521e-01 -2.008416534020372179e-01 8.325277689496375644e-02 -8.640632362522859822e-01 -8.614113486690613275e-01 -8.446852894241836385e-01 -8.922914124816517800e-01 -9.014476613905799685e-01 -8.640632362522859822e-01 -9.465223862515550479e-01 -8.543739327653816495e-01 -1.865618617071094706e-02 1.442904539218372272e-02 -1.240477323998772641e-01 1.596674402441679019e-01 -5.569488238824450016e-02 -9.193164427276170336e-01 -9.169046937344549342e-01 -9.219262758132734659e-01 -9.238782344665722457e-01 -9.317514858889339724e-01 -9.193164427276170336e-01 -9.804625353752407513e-01 -9.298248270041826746e-01 -2.150925042434075063e-01 2.331337944472866852e-01 -2.220096231171259094e-01 -7.952793706674983476e-02 -1.400816373605925404e-02
2.765597425911092699e-01 -1.701768984361041320e-02 -1.065246675343349825e-01 -9.768639027458052571e-01 -9.584692871605642317e-01 -9.674711376302866928e-01 -9.798267080797122830e-01 -9.613131105000238819e-01 -9.674246256572119895e-01 -9.164272796642584096e-01 -5.472656857681145182e-01 -7.979700882265787776e-01 8.227053035421388882e-01 6.674314084662424928e-01 8.302245128597574020e-01 -9.689410590575269211e-01 -9.942923058656646385e-01 -9.956981844564523065e-01 -9.971629833323526482e-01 -9.838418097428598408e-01 -9.715295487185621193e-01 -9.670848911367301293e-01 -4.827637622901291281e-01 -5.446971534410781635e-01 -4.490474121148255171e-01 7.356342172004843617e-03 1.087478812568820619e-01 -1.075453143603250783e-01 1.911124339153793816e-01 1.203445622793767461e-01 3.467392499384377297e-02 4.559711396259538696e-02 1.402692628334617775e-01 2.002837751701539992e-01 -6.219275809288275780e-02 3.554013093232364501e-02 -4.520291753836481324e-02 -5.165028697651346395e-02 -2.391510188084362831e-01 1.893604466043663850e-02 1.853494598866997078e-01 5.030414716017727050e-01 -3.062605529519626252e-02 -9.900009953508295268e-01 -9.886815407003424205e-01 -9.814198776327622831e-01 -9.900754691755553338e-01 -9.888428861771116907e-01 -9.817385807847989199e-01 1.180540692156963473e-01 4.654492512274446825e-01 -3.482611218566030592e-02 2.193891758689385796e-01 5.190897470020262583e-01 -3.253284449479049850e-02 -4.294317177954827258e-01 -1.981777649683407472e-01 8.865143962604961347e-02 -9.387881931496423471e-01 -9.903438605356339464e-01 -9.895114332850198924e-01 -9.824034614457920478e-01 -8.498283073808223786e-01 -8.593614594765394132e-01 -9.220106831336908337e-01 -3.912642096697237504e-01 4.162289469061173364e-01 -4.413019250643595570e-01 4.665764222600961020e-01 -9.282933989109808104e-02 4.947186487137020250e-02 -6.609674694131291439e-02 1.081935365971099378e-01 -3.232052825707521504e-01 3.359742656853178522e-01 -3.483887729153140045e-01 3.580799330650233370e-01 -1.891149901646662912e-01 -4.744430672763116918e-02 5.274528871840441502e-01 7.607157536523709296e-02 1.447417745336481744e-02 -7.791766313196221445e-04 -9.732257020040244733e-01 -9.616438880728198635e-01 -9.795243911907064449e-01 -9.743803801051745817e-01 -9.621224956093451519e-01 -9.789113315890378697e-01 -9.731928185455199776e-01 -9.708077999048134732e-01 -9.804351921092274713e-01 9.673736533817077765e-01 9.646188139177465093e-01 9.740543064539765039e-01 -9.733128900561822672e-01 -9.943447889401018092e-01 -9.896847955440989386e-01 -9.982751878670210743e-01 -9.741298882414848315e-01 -9.690393803803665218e-01 -9.793551561416458107e-01 -6.099588076065047826e-01 -6.325682987186951323e-01 -6.596494217983983610e-01 -1.593268089535462492e-02 3.007043539902936047e-01 4.411902000268139862e-02 2.006977588829054193e-01 2.159625585256452762e-02 2.297440218528200573e-01 1.119450307184351318e-01 3.850769114165167872e-01 1.351413419119607273e-01 1.147966925763574814e-01 1.616814981781714011e-02 2.516164720481126049e-01 4.244240848244608920e-03 1.652849756500199968e-02 -1.900231945400672473e-01 -3.053983836688375225e-02 -7.364781586360896748e-02 8.593297057657851845e-02 -9.632573875287485654e-01 -9.699995323444328132e-01 -9.667826364475813339e-01 -9.664732620852419798e-01 -9.735034816638367117e-01 -9.707140762682854307e-01 -8.572365610821677251e-01 -9.324082263889388322e-01 -7.287470922582476307e-01 8.136368476293557306e-01 8.961533786754759534e-01 7.999594422030601448e-01 -9.625926387728801492e-01 -9.957842598470872941e-01 -9.979154105553031950e-01 -9.969547961345350817e-01 -9.739263953649475170e-01 -9.782866289501748192e-01 -9.778606005785765998e-01 -3.556638597736357377e-01 -2.783931454780772530e-01 -3.948476213990905759e-01 -5.727371838989665787e-02 3.718631976255350885e-02 1.187546224466789202e-01 7.742192833235497784e-02 -1.159246578531746980e-01 1.391583907841162926e-01 -1.112111097407618432e-01 2.819071870627037901e-01 3.156598616117126110e-02 -2.591139312114889778e-02 2.731000822818031165e-02 1.647088108443576504e-01 -3.001491895251744424e-01 6.768537197111733350e-02 -1.810076153520736586e-01 -9.626555368068566432e-02 -4.219129719771648468e-02 -5.376572740855569549e-02 -9.724002428699022316e-01 -9.788181232166744961e-01 -9.756165498632625166e-01 -9.753506252358705719e-01 -9.814255185708201656e-01 -9.792242826175133752e-01 -9.675891959776456996e-01 -9.789036224416929333e-01 -9.648999707091100442e-01 9.692500605615459452e-01 9.803085647063138897e-01 9.764008575055933559e-01 -9.799746576949424082e-01 -9.958491538846593327e-01 -9.983632929168511083e-01 -9.971782439543565024e-01 -9.791592693004282921e-01 -9.844290367107861872e-01 -9.838187601850523212e-01 -4.569064132956515145e-01 -3.787548525547166367e-01 -4.729136228634416295e-01 3.589469065809686166e-02 4.111497721315045435e-03 1.116553321876412042e-01 2.174341234001772594e-01 -1.035790049535698504e-01 2.234353830125890561e-01 2.538857837387143920e-02 1.053397926784229027e-01 8.417832652414829198e-02 1.760418803335132842e-02 9.418040863255558448e-02 7.100937074639269986e-02 -3.873647956098695555e-02 8.124669367543536913e-02 -5.291603159471883894e-02 -9.685046161642218987e-01 -9.647698896927664469e-01 -9.699248995476138502e-01 -9.588808524173070280e-01 -9.899613450187008112e-01 -9.685046161642218987e-01 -9.926479469194844363e-01 -9.743672195287581550e-01 -5.183566467734758154e-01 1.748691087882974504e-01 -1.622330617868653901e-01 1.988652205219494373e-01 -1.973661123479878154e-01 -9.685046161642218987e-01 -9.647698896927664469e-01 -9.699248995476138502e-01 -9.588808524173070280e-01 -9.899613450187008112e-01 -9.685046161642218987e-01 -9.926479469194844363e-01 -9.743672195287581550e-01 -5.183566467734758154e-01 1.748691087882974504e-01 -1.622330617868653901e-01 1.988652205219494373e-01 -1.973661123479878154e-01 -9.735272294298047413e-01 -9.680623921394153619e-01 -9.709370535685105663e-01 -9.672049952950761975e-01 -9.741196607557498499e-01 -9.735272294298047413e-01 -9.938223421205827357e-01 -9.766767904046689264e-01 -6.786398073899648775e-01 2.288634862905316592e-01 -1.350985386443970815e-01 -2.123092049791315550e-01 1.852656663708030990e-02 -9.611367653518172460e-01 -9.439096485790100521e-01 -9.412791928817565434e-01 -9.534590368279612926e-01 -9.799585690574452723e-01 -9.611367653518172460e-01 -9.950200988757046394e-01 -9.539199164425028465e-01 -4.384198791099676307e-02 2.187506334654987228e-02 -1.464650969734354324e-01 1.786052628951121379e-01 -4.366440807532407514e-02 -9.793604373484940950e-01 -9.742241522529649922e-01 -9.773436015348483386e-01 -9.741292067116138487e-01 -9.831305760472143218e-01 -9.793604373484940950e-01 -9.976774013321220158e-01 -9.819402020719487645e-01 -3.794543539834622781e-01 2.649062297828559953e-01 -2.533969392419493927e-01 -4.138501737940587094e-02 -3.952515756207629349e-02
2.765791793853848435e-01 -1.730555773252298590e-02 -1.085381901824487433e-01 -9.618448690144849600e-01 -9.305367697396631499e-01 -9.482836784391438512e-01 -9.653847973074498601e-01 -9.332709864805921463e-01 -9.470978491243893238e-01 -9.004749148289993288e-01 -5.323060003766588721e-01 -7.876362232489039217e-01 8.101998785752058119e-01 6.505574017343078719e-01 8.196567266304343180e-01 -9.473352186839476552e-01 -9.879274456747982880e-01 -9.913048476736010528e-01 -9.948985453912901900e-01 -9.711450417831807291e-01 -9.482121623118798803e-01 -9.440884884839648716e-01 -3.899013122421199906e-01 -4.566127357651197927e-01 -3.918676467120714713e-01 -2.984931138919567559e-02 1.051139318888025809e-01 -7.787579101085720379e-02 1.292314747616950810e-01 5.012773711845323193e-02 3.789526847522643738e-02 7.115504466375244252e-02 1.229568234469099880e-01 1.383772438617530409e-01 -5.138639411559824816e-02 6.385830646329440814e-03 -1.715316481498361037e-02 1.361073514099009341e-01 -5.049867671116042844e-02 1.560826979123684233e-01 3.716391531863140751e-01 2.927442412801152805e-01 -1.111497418429884115e-01 -9.842317399054145710e-01 -9.813974251012191896e-01 -9.699306901149693516e-01 -9.841551558779739750e-01 -9.813297019977499369e-01 -9.698363859915666296e-01 3.057405267264816096e-01 2.632469066594158025e-01 -1.115014642988700483e-01 4.001023425364963471e-01 3.104008267695836376e-01 -1.148313835927394083e-01 -2.587074914668850978e-01 3.345659711619251159e-02 -1.422215427638955643e-01 -9.292569359570584941e-01 -9.841086021798204353e-01 -9.816721394293678182e-01 -9.701782756657730822e-01 -7.112263580924659268e-01 -9.073250646525095053e-01 -9.283027180380430954e-01 -4.209922556658341475e-01 4.423393178481948573e-01 -4.637689973689910761e-01 4.853851542947086317e-01 -2.063070567804915212e-01 1.718301604741521160e-01 -1.900810159915608533e-01 2.305871772897994387e-01 -4.244465647762317717e-01 4.348026922405495154e-01 -4.448433939391882030e-01 4.520443416624638777e-01 -3.789557263725058106e-02 4.841947098782099085e-02 5.806598816139330044e-01 7.627505546687719795e-02 2.141925087253857343e-02 7.750096908686818220e-03 -9.607902798527628851e-01 -9.456358352048123139e-01 -9.725800961615002072e-01 -9.618151708793687416e-01 -9.454136764517734326e-01 -9.717291794782392245e-01 -9.635277090458264082e-01 -9.593064200892181814e-01 -9.759355147993692414e-01 9.556402391962759424e-01 9.540868163206397412e-01 9.649108866059837863e-01 -9.607022200387218547e-01 -9.883576948212891011e-01 -9.794032931931339059e-01 -9.968002336466502689e-01 -9.612439810785813332e-01 -9.543397352668917533e-01 -9.723967798829746823e-01 -5.568721828131025786e-01 -5.750657058899006913e-01 -6.116896833770806285e-01 -2.381391825178939478e-02 2.651364563889552772e-01 7.414735826469442959e-02 1.644452465292706445e-01 -3.279368477695502465e-02 1.594072933956877103e-01 9.813615806148734411e-02 3.505680137384334372e-01 8.688424170419434267e-02 8.762586121003146378e-02 -4.161940380815362661e-02 2.272607785909683820e-01 -7.320773044240552752e-02 -1.471173827573532544e-02 -1.168097906785989099e-01 -3.207908770681291988e-02 -6.921757579168991148e-02 8.356513434693763065e-02 -9.497061460198007454e-01 -9.590914333587060581e-01 -9.503596384647805539e-01 -9.537790739824797415e-01 -9.625440650962390210e-01 -9.536096418837395339e-01 -8.456112496360622677e-01 -9.237945851422256771e-01 -7.185347618171959994e-01 8.030828223808763600e-01 8.908102274312208468e-01 7.876563867852842682e-01 -9.465955609112894908e-01 -9.926826105023215385e-01 -9.961547854953046732e-01 -9.945500096923086675e-01 -9.629980229086436694e-01 -9.681550021217226742e-01 -9.623942764394149973e-01 -3.019005243640244807e-01 -2.149549645459128133e-01 -3.130694619226959685e-01 -1.605501298263352083e-01 1.273190243401078059e-01 2.442675740338255339e-02 1.579185538881321405e-01 -1.779201576232285475e-01 2.069665890000881581e-01 -1.826267430831830241e-01 3.142050296549591115e-01 -6.807605254939218253e-02 2.940811083465173434e-02 -2.295697998692342381e-02 2.399402460194720310e-01 -2.435674635759015605e-01 3.080249486632719545e-03 -3.073841053112746358e-01 -9.660894644480096105e-02 -4.192982612245980956e-02 -5.212319457923974414e-02 -9.608335318432402739e-01 -9.717564607138092780e-01 -9.667481078373769687e-01 -9.641962171371745161e-01 -9.746045286993432200e-01 -9.711917366079643177e-01 -9.564381383461061370e-01 -9.726619438503429915e-01 -9.534531719778560621e-01 9.579589169267719306e-01 9.748455021100167484e-01 9.688641288296840903e-01 -9.716656783178841961e-01 -9.917496765380087176e-01 -9.968529043658798106e-01 -9.943876388122271370e-01 -9.696435692928540018e-01 -9.775224217433213791e-01 -9.772392991412406360e-01 -3.767760462837356217e-01 -2.866490739540179522e-01 -4.101196893520662745e-01 -7.000013169068403096e-02 5.597257710865820995e-02 2.963384141132213018e-02 2.001994256719093479e-01 -1.698817912810847985e-01 2.786162593676941857e-01 -2.359509137918123708e-02 1.203798985976342883e-01 -3.280952081549304289e-02 2.689708738502761404e-02 -3.421676375219846744e-02 9.862260166820602247e-02 -4.876303386252864303e-02 3.345206641028531519e-02 -1.098183814003297759e-01 -9.473963924296194827e-01 -9.451590135087639677e-01 -9.527238029167358624e-01 -9.393880680114240489e-01 -9.849458455933459700e-01 -9.473963924296194827e-01 -9.848724717276700069e-01 -9.602931338368339009e-01 -3.830760636747584935e-01 2.311365900268240112e-02 -4.387531233676338766e-02 1.053549683155095562e-01 -1.122981031652690725e-01 -9.473963924296194827e-01 -9.451590135087639677e-01 -9.527238029167358624e-01 -9.393880680114240489e-01 -9.849458455933459700e-01 -9.473963924296194827e-01 -9.848724717276700069e-01 -9.602931338368339009e-01 -3.830760636747584935e-01 2.311365900268240112e-02 -4.387531233676338766e-02 1.053549683155095562e-01 -1.122981031652690725e-01 -9.611387141895287867e-01 -9.546178644478163777e-01 -9.583085595611658958e-01 -9.547346666504599177e-01 -9.636914835554625247e-01 -9.611387141895287867e-01 -9.875672211404457057e-01 -9.663441279869343647e-01 -6.411724183881843953e-01 2.007091073263294057e-01 -1.368173771096224678e-01 -1.846804371626764585e-01 3.423733792881670374e-02 -9.455398872884378525e-01 -9.290139697161804433e-01 -9.251141757914164154e-01 -9.404516523759235413e-01 -9.688541763473014212e-01 -9.455398872884378525e-01 -9.911937825133625424e-01 -9.406207655783014321e-01 4.314800036147514034e-02 -4.674513994388022897e-02 -6.816232441915145990e-02 1.179554235147204228e-01 -2.118026412482553258e-02 -9.708183733838402496e-01 -9.662880685178850682e-01 -9.698594011543285598e-01 -9.671168428140723972e-01 -9.774295589622995495e-01 -9.708183733838402496e-01 -9.954499590270985410e-01 -9.754273880925409257e-01 -3.032391964805225548e-01 2.414610081860285862e-01 -2.096379239532870087e-01 -4.865436134842565652e-02 -8.151956669275359224e-02
2.664226704701272430e-01 -2.601121647317478427e-02 -1.069369176403738159e-01 -7.682415936821823665e-01 -6.955152696314288452e-01 -6.978160825943092727e-01 -7.931321203529060337e-01 -7.071309855058578453e-01 -6.833316951598038536e-01 -6.015993637318529652e-01 -4.371503097730748966e-01 -6.351807635976293165e-01 6.288411333638761480e-01 4.737496544682790467e-01 6.963019103733278925e-01 -7.146856540582205986e-01 -9.159625804993418718e-01 -9.466296854694916663e-01 -8.834797418708288941e-01 -8.287617698445394199e-01 -7.741404485112440836e-01 -6.617340423899739088e-01 -2.107727476064685523e-01 -2.600475760581897888e-01 -2.681560239470984763e-01 -5.208933640386728681e-02 6.053451417585196254e-02 5.118109088553644132e-02 4.956066132250422362e-02 -1.579970570315523959e-03 7.611185928629479736e-02 1.062103832863930397e-01 4.289227436116575115e-02 -6.549792575743770828e-03 6.601426635181964486e-02 -1.014429158177210105e-01 5.141710072216482824e-02 -1.527591411683996425e-01 -2.175431784363369425e-01 5.425513307723038581e-02 4.436994062115279802e-01 2.145100617680303912e-01 -7.020539393150530827e-02 -9.847251905502647507e-01 -9.852293597015213678e-01 -9.542094552192839085e-01 -9.854032824633562893e-01 -9.854488003753494318e-01 -9.554504530036534993e-01 3.769439534424649518e-01 1.858515236257495262e-01 -6.791144584610822599e-02 4.691798680409269839e-01 2.336146417569673339e-01 -7.915628997493948105e-02 -3.159576633737246620e-01 1.376276091951188774e-01 -2.285791667063175048e-01 -9.553399144801485443e-01 -9.868309972962641119e-01 -9.867063839225969080e-01 -9.568234870630155653e-01 -7.142401479302136202e-01 -9.194163453435355571e-01 -9.287743082514736681e-01 -4.409004069294422123e-01 4.717510990735064302e-01 -5.019516171841685859e-01 5.315661902730758337e-01 -1.470584810347355942e-01 1.240330774933347258e-01 -1.576250312766813988e-01 2.139342535615445517e-01 -4.574802449011542427e-01 4.708554721346033811e-01 -4.837864894282691841e-01 4.936681026314360676e-01 3.008807372604335381e-02 -2.407102094618415733e-01 2.114021498743182403e-01 -6.438662034717186622e-02 9.024795687271552902e-02 4.415002235471808534e-02 -7.761621657275361574e-01 -7.494783537669986728e-01 -8.997695499744278180e-01 -7.921630556861219974e-01 -7.616608460906608702e-01 -8.937240221021064412e-01 -8.287625131562768033e-01 -7.819453155570500469e-01 -9.319779301989425946e-01 7.020182292146333047e-01 7.678285890859730678e-01 8.988690214787691257e-01 -8.093987950351440031e-01 -9.232495883176660145e-01 -9.012538979168045472e-01 -9.847782496168112631e-01 -8.094249701354568893e-01 -8.166906924388439570e-01 -8.945387891744839282e-01 -2.328576921215227136e-01 -1.929788489623035508e-01 -2.962874815581821308e-01 -3.543214118052055717e-02 1.475386862864082049e-01 1.372741540770523738e-01 1.556260137348186856e-01 -7.432533019445498879e-02 1.499684000426333153e-01 1.821249144463900072e-01 3.052882741881743356e-01 -3.355053108143377788e-02 1.093375333981520953e-01 -5.525023051589900147e-02 3.679572716980263059e-02 -2.011010332110851617e-01 -3.389246415764087667e-02 -4.036587006168812497e-02 -9.337095137919212973e-02 -3.179028393140160419e-02 8.568382259025655867e-02 -8.440887850575182760e-01 -7.028919783875564598e-01 -8.379948358879000248e-01 -8.599328611743918271e-01 -7.056281853632876411e-01 -8.471823857374979339e-01 -7.573162293223967279e-01 -7.849346588715885309e-01 -6.014608291524203842e-01 7.188039893703982441e-01 7.494815529559534228e-01 6.965073665977731254e-01 -7.324474417950528338e-01 -9.633144115059502077e-01 -8.725425254485987825e-01 -9.692200143128374412e-01 -8.943049107499955186e-01 -7.122838884656843561e-01 -8.698439411050313819e-01 -3.708299312395097469e-01 -1.681470352200219454e-01 -1.568035538911337901e-01 -2.140461213820996633e-01 1.449293172765651616e-01 1.210519579396430456e-01 -3.452758658749555815e-02 -2.562437738429892420e-01 2.730070302727627407e-01 -1.929098543748685723e-01 2.501457668340159035e-01 -8.687106728351985663e-02 7.663359338324696179e-02 2.582638585717827919e-04 1.427536812308541347e-01 -2.723231577729658404e-01 -8.603106989720658848e-02 -1.097053241776004551e-01 -2.613046591893120399e-02 -5.043253038673790184e-02 -7.922917533002564461e-02 -8.583893561197202260e-01 -8.803687251869630748e-01 -8.424677544172786137e-01 -8.648434557067895545e-01 -8.895521529382210968e-01 -8.464684794998819095e-01 -8.384719266567279838e-01 -8.823574973899355189e-01 -8.419179822450666428e-01 8.742183610733916810e-01 9.140094297735178452e-01 8.778012065319720225e-01 -8.736307599676441660e-01 -9.685586294813651742e-01 -9.803837452963330978e-01 -9.641800613987713264e-01 -8.857540717248592044e-01 -9.022216359409414022e-01 -8.594052037944563960e-01 -1.049413058093735668e-01 -4.424397071965357336e-02 -7.002250705930172792e-02 -8.152706877555492004e-02 5.932228741762416574e-02 8.782552774018589914e-02 2.578151906530924409e-01 -2.205223693355565229e-01 2.715317520748846136e-01 7.330507748812571667e-02 -3.005378276470377363e-02 -4.845350420411076442e-02 7.279673895658342331e-02 7.178627193638624504e-02 6.530186627636314078e-02 1.257973182486316066e-01 1.347729022224069401e-02 -1.231830378500186063e-01 -7.185592564544526217e-01 -7.334725857787952608e-01 -7.724035680889593802e-01 -6.720644941496919378e-01 -9.002146716158875295e-01 -7.185592564544526217e-01 -8.770393050936234891e-01 -8.080116449165196668e-01 -5.064226451772423088e-02 -1.726911509095176503e-02 1.718849026166263325e-02 9.121091959975582975e-03 -5.541353315463854595e-02 -7.185592564544526217e-01 -7.334725857787952608e-01 -7.724035680889593802e-01 -6.720644941496919378e-01 -9.002146716158875295e-01 -7.185592564544526217e-01 -8.770393050936234891e-01 -8.080116449165196668e-01 -5.064226451772423088e-02 -1.726911509095176503e-02 1.718849026166263325e-02 9.121091959975582975e-03 -5.541353315463854595e-02 -8.119010204909465900e-01 -7.427865688484585061e-01 -7.862055499292915917e-01 -7.232541656585381729e-01 -9.112787384288504322e-01 -8.119010204909465900e-01 -9.296615348872884210e-01 -8.605613352065847321e-01 -2.655824565807341497e-01 1.386207197201980712e-01 -6.617615166579574049e-02 -1.542798309479974928e-01 -2.356810206617289665e-03 -7.242292543540870264e-01 -7.460941762358702656e-01 -7.134789896139160925e-01 -7.835787447948105999e-01 -7.809833513779599334e-01 -7.242292543540870264e-01 -8.969880773954996833e-01 -7.014833587147218941e-01 1.968825353432977210e-01 -8.954165730896627984e-02 -2.591423619528700900e-02 1.308253723661077506e-01 -8.626557022424151400e-02 -8.728188254416673342e-01 -8.694357889399920714e-01 -8.797124494427914776e-01 -8.697580252703245307e-01 -8.963071722833697574e-01 -8.728188254416673342e-01 -9.756571042986024178e-01 -9.012932897077868821e-01 4.729562574035035827e-02 1.580661706055202786e-01 -2.004112248815324293e-01 -4.673625658749672868e-02 1.228272436204598354e-02
