2.778495375847488402e-01 -1.676292783942601172e-02 -1.085727362160687215e-01 -9.852891997864224871e-01 -9.583756689423574837e-01 -9.609534214079865633e-01 -9.872737386586394326e-01 -9.598861919129353382e-01 -9.604391138515243620e-01 -9.243564013012489644e-01 -5.464093949910751036e-01 -7.981274331040660863e-01 8.334924626317223861e-01 6.740537412441108822e-01 8.260426568218883769e-01 -9.693805593980090451e-01 -9.988583619421740334e-01 -9.985952104552293651e-01 -9.976638932864028142e-01 -9.894495246886693129e-01 -9.689992699073890492e-01 -9.604209391527686046e-01 -4.851848432929014021e-01 -4.979887191322757700e-01 -4.258135911689903685e-01 1.321012053744501369e-01 2.290333727960247503e-03 2.495704095798102068e-02 1.008379461286735279e-01 1.289788819986917301e-01 -9.149473913133276959e-02 1.804471771557235593e-01 3.347531558537120838e-02 1.251670316394500326e-01 -5.505936945408828470e-02 2.889283426283062103e-02 -7.625193056312754014e-02 -4.531900366573159838e-02 -2.612860585070914676e-01 1.110628824373515178e-01 7.018254072492090545e-01 1.047463180322672494e-01 8.410127762299676735e-02 -9.890879476464022879e-01 -9.815089893143235100e-01 -9.698001708332425475e-01 -9.891566825810480523e-01 -9.820580356678445533e-01 -9.705010223671006742e-01 6.322399071894000411e-01 7.990804207999799291e-02 8.167829865376893816e-02 7.241517844590343866e-01 1.241257057552119514e-01 7.924595816343645016e-02 -2.656674166445032736e-01 5.001992128704565443e-01 -6.945058661046171755e-01 -8.522263433564275514e-01 -9.894395634091225356e-01 -9.838764940141696558e-01 -9.721289348851273049e-01 -8.854953455044993760e-01 -8.228517040048867193e-01 -7.093835366150815780e-01 3.544611186633939148e-01 4.240066026844127589e-01 -3.959737781426337366e-01 3.654212960922737508e-01 -3.748277756118324477e-01 4.013577864384805793e-01 4.695451245342588953e-01 4.813327512986866896e-01 1.686704507141157938e-01 -1.301083190048055727e-01 2.452491139322701408e-01 7.673915445376983113e-02 1.036384545685505552e-02 -1.107746241413545352e-03 -9.812886442217643168e-01 -9.704608395332352533e-01 -9.824088814823956906e-01 -9.822223794020883414e-01 -9.699786159716851097e-01 -9.812844843256079974e-01 -9.797030278799988556e-01 -9.770458063848849184e-01 -9.836453401247239325e-01 9.768970978184060572e-01 9.751757935919811437e-01 9.774817476030740471e-01 -9.796827499595780475e-01 -9.988273071152066196e-01 -9.981334768010403646e-01 -9.993430539249545941e-01 -9.814211526136900066e-01 -9.741013386864888490e-01 -9.800466450837773680e-01 -6.382690381998082918e-01 -6.268131808426450347e-01 -6.506648320801003971e-01 1.138048074506672197e-01 2.194713387582273023e-01 1.978949899178381044e-01 2.000374481236005808e-01 8.504631437614962319e-02 6.338114965365134780e-03 1.946223244924306373e-01 3.377982839859595687e-01 9.982014495282504063e-02 7.085236373351549988e-02 2.076125203218465338e-03 1.705084209783115923e-01 -1.084235477515715640e-01 -2.319172533135245573e-02 -3.252961587707091373e-02 -2.936852660708741403e-02 -8.077186038497866094e-02 9.281051267686707407e-02 -9.600518216950578720e-01 -9.711881595372897635e-01 -9.673304317901099125e-01 -9.626335842915318963e-01 -9.737067085402631994e-01 -9.690955319584606542e-01 -8.531554936859359062e-01 -9.362393429763670172e-01 -7.294330405585095489e-01 8.146234176476803146e-01 8.967394099327609114e-01 8.074269683735707526e-01 -9.548492356935165404e-01 -9.964692776397874319e-01 -9.986621633687480237e-01 -9.975057853374728056e-01 -9.687085172016689505e-01 -9.777737765575157391e-01 -9.745024683498209050e-01 -3.378932562359959202e-01 -2.954617643328588672e-01 -3.097055210109680434e-01 -1.700835252357115468e-01 8.021469808161003912e-02 1.297457613772773910e-01 3.982865187669674956e-02 -1.408157250905704150e-01 1.171427179286678166e-01 -4.452016108596975469e-02 1.802041451096469959e-01 7.158138935123464774e-02 -1.016958145787706658e-01 1.156711669104759921e-01 7.538095065191594002e-02 -2.523675066012479040e-01 -2.380712039932861290e-02 -2.361401753703149253e-01 -1.002149789774634814e-01 -3.861442479643673736e-02 -5.416602133866178781e-02 -9.761242029977634793e-01 -9.836939741757347866e-01 -9.829477700577952115e-01 -9.780348572143260366e-01 -9.854526816968389724e-01 -9.841943112186781750e-01 -9.736577518654414565e-01 -9.835334355498573933e-01 -9.785528433613315258e-01 9.742275476618532659e-01 9.851191879202215729e-01 9.848144034040366979e-01 -9.838600827664285564e-01 -9.989617925957890998e-01 -9.995866576216740906e-01 -9.994221091745144614e-01 -9.806731759183413555e-01 -9.873719640836542411e-01 -9.857261104757377712e-01 -4.200758944354436308e-01 -3.688622835863165084e-01 -4.799425314847249324e-01 -5.364876150092738605e-02 -1.618356413407221264e-02 7.582202915785772601e-02 2.111948832212437177e-01 -9.803402862070079160e-02 1.823994286421887767e-01 7.130986518996131063e-02 1.056755727188292970e-01 1.670496612943478121e-01 -7.925587790186998383e-02 1.770209360587749192e-01 3.166949514975405527e-02 -7.353281520321028331e-02 9.341444485519982688e-03 -8.951073109790519400e-02 -9.688402253084099636e-01 -9.655125633991799017e-01 -9.694280875472808257e-01 -9.639404113764417081e-01 -9.892117623903987633e-01 -9.688402253084099636e-01 -9.977908853757977425e-01 -9.723420228954504640e-01 -4.362003803848926720e-01 6.660389270757686997e-02 -9.507334161483403656e-02 1.687948431167465846e-01 -1.510192168029179938e-01 -9.688402253084099636e-01 -9.655125633991799017e-01 -9.694280875472808257e-01 -9.639404113764417081e-01 -9.892117623903987633e-01 -9.688402253084099636e-01 -9.977908853757977425e-01 -9.723420228954504640e-01 -4.362003803848926720e-01 6.660389270757686997e-02 -9.507334161483403656e-02 1.687948431167465846e-01 -1.510192168029179938e-01 -9.797221662152749699e-01 -9.772434461640482350e-01 -9.794631781507716628e-01 -9.758794369034485827e-01 -9.773261158987809338e-01 -9.797221662152749699e-01 -9.986782914046081761e-01 -9.832423016171674135e-01 -6.976964702136988494e-01 1.961005038439931625e-01 -1.046907098710017359e-01 -1.404135109111150082e-01 -5.415543277376338310e-02 -9.537961388039483124e-01 -9.420400905721926232e-01 -9.372187701700824825e-01 -9.531442608221349921e-01 -9.721453309768794959e-01 -9.537961388039483124e-01 -9.960617955135093737e-01 -9.449035628591404556e-01 2.254577360235005684e-02 -5.787186734156208462e-02 -5.166700713496392983e-02 9.116603683752425025e-02 -3.910792220571683055e-03 -9.833301359945464393e-01 -9.804172848260706008e-01 -9.825871433634678631e-01 -9.795892997639316091e-01 -9.845400674947011321e-01 -9.833301359945464393e-01 -9.994361852947213354e-01 -9.850646161339468021e-01 -3.900779495426194288e-01 2.814728317203486485e-01 -5.613002458090465829e-02 -8.819267923170909240e-02
2.776045909527615208e-01 -1.677523683948231939e-02 -1.089285184641286264e-01 -9.832873486399656970e-01 -9.592170915414313104e-01 -9.610285021335025490e-01 -9.853877898936407309e-01 -9.607105298664569970e-01 -9.607216657289529005e-01 -9.223804729329587726e-01 -5.472468890629048621e-01 -7.974241251323007651e-01 8.311033954842337312e-01 6.739591391716477364e-01 8.254275535756759874e-01 -9.687022527615435363e-01 -9.986697000392505963e-01 -9.985947046623898649e-01 -9.976420675991368725e-01 -9.878040288214511300e-01 -9.696245817143518408e-01 -9.609526939848664906e-01 -4.673583723172270443e-01 -5.019336049993877724e-01 -4.298015030599057207e-01 1.089101934350360512e-01 1.171223911044476200e-02 1.170418718616751501e-02 9.690360096160641201e-02 1.381070490750216651e-01 -8.300825941951672782e-02 1.709676229927720448e-01 4.360061246119888156e-02 1.335099732026471531e-01 -5.557737729826096873e-02 3.723288220786040437e-02 -8.444557984848130583e-02 -3.319454216905077387e-02 -2.865662913965934533e-01 6.652540449531273159e-02 5.844373252603159985e-01 1.898104909646471661e-01 1.142208166133088371e-01 -9.872626456157066466e-01 -9.823202708733831390e-01 -9.708066629901852540e-01 -9.873807376185012030e-01 -9.828077066720416477e-01 -9.714648169809891876e-01 5.159599662176839185e-01 1.625018890694766849e-01 1.114208806442757022e-01 6.085878842407934641e-01 2.082994633634686066e-01 1.096881058444297841e-01 -2.262796273567949934e-01 3.317299636145791819e-01 -5.765092762548564842e-01 -8.004454898490286352e-01 -9.878166789031149753e-01 -9.844417232437913112e-01 -9.729950238658103823e-01 -8.516203031313006599e-01 -8.138062027458314862e-01 -7.114258510140706315e-01 3.759570815111148989e-01 4.381977873857255679e-01 -3.538420531925825507e-01 3.231326968544444012e-01 -3.352867598559667317e-01 3.657150347823031056e-01 4.446336784943432652e-01 4.571929030337911759e-01 1.460753345923265223e-01 -2.066305804024018700e-01 1.916031780169933640e-01 7.632354851424347220e-02 1.008164010512692214e-02 -9.367530283408440159e-05 -9.801983435162988645e-01 -9.699273339585664511e-01 -9.813557590650665574e-01 -9.811840148822567054e-01 -9.695533192700970249e-01 -9.804936294396126018e-01 -9.788221113354937941e-01 -9.766336772702275404e-01 -9.821361652219324778e-01 9.753083005531409944e-01 9.744687613403578696e-01 9.755938524453323657e-01 -9.788391805962342040e-01 -9.986701727221058977e-01 -9.979918377276346675e-01 -9.992580352255494569e-01 -9.805455453556143341e-01 -9.740488829925179060e-01 -9.796780480986434503e-01 -6.281621448901528737e-01 -6.254781235916090365e-01 -6.454630110507446616e-01 9.962552370640914701e-02 2.218167138466972110e-01 1.828939255941054998e-01 1.901518573732405293e-01 8.679821793274951347e-02 2.706029109125492049e-02 1.967297655095653908e-01 3.410832285272690223e-01 1.052903518214206163e-01 7.580065895359179573e-02 1.349406583918013290e-02 1.802773493750466638e-01 -1.050986370373199336e-01 -2.716002082473586640e-02 -4.948358830173796297e-02 -2.889052811416851704e-02 -7.923044282467411881e-02 9.507907554655210813e-02 -9.622820216916448954e-01 -9.701921036665920317e-01 -9.664713994777562878e-01 -9.648934943621703120e-01 -9.728862619774182319e-01 -9.685375859849583158e-01 -8.543515354327744227e-01 -9.351586146540602495e-01 -7.275420402227694705e-01 8.158734793454869294e-01 8.958572099811941136e-01 8.068325345494612444e-01 -9.547997956079656845e-01 -9.967231177871079817e-01 -9.985056077555103382e-01 -9.970203324837149106e-01 -9.706297044136191765e-01 -9.771026874247890071e-01 -9.741876805727921473e-01 -3.531977118124575155e-01 -2.858661613260289891e-01 -3.130606789753144770e-01 -1.538865317075431283e-01 7.823168283615736240e-02 1.248694126920072145e-01 3.871492469240433304e-02 -1.262097411669051428e-01 1.106954781632200346e-01 -3.389706546263043102e-02 1.654486952840474312e-01 7.133639733683121154e-02 -9.279511900149491066e-02 1.038172483104160410e-01 8.240803997898137057e-02 -2.625066395377556594e-01 2.117175795020054610e-02 -2.534747947153068171e-01 -1.000254320037558403e-01 -3.881198822321699216e-02 -5.563987671820604108e-02 -9.758401743900513292e-01 -9.823743027542287676e-01 -9.819971319487932337e-01 -9.780251396932614361e-01 -9.844370053194495540e-01 -9.835466388527627224e-01 -9.725700206193417241e-01 -9.822446987389533701e-01 -9.769377976198445612e-01 9.736532537836450896e-01 9.835080881441197187e-01 9.836209315092471206e-01 -9.831989988679638026e-01 -9.989155482641627337e-01 -9.995150589123841245e-01 -9.993445342174627211e-01 -9.808892464298439862e-01 -9.867067182318133289e-01 -9.853850612405800069e-01 -4.237087961891806143e-01 -3.582583766508702916e-01 -4.754970274734603986e-01 -4.047507484495827673e-02 -3.883400611284936691e-03 8.303855455273229103e-02 2.217906765237115108e-01 -8.243842091906604386e-02 1.866070801301199511e-01 8.679383024920923895e-02 1.148676434528879270e-01 1.638073295667303031e-01 -6.370871696190413824e-02 1.737726906197216425e-01 3.665421080239691931e-02 -7.169921755621759540e-02 3.765383529311332883e-02 -9.454140143358490123e-02 -9.683313903534654932e-01 -9.651201321447669956e-01 -9.692203982561116149e-01 -9.628973995077320103e-01 -9.888612999785938440e-01 -9.683313903534654932e-01 -9.976429785032036035e-01 -9.724045644299441626e-01 -4.343918953728556076e-01 7.137336496678987896e-02 -8.995713342848564442e-02 1.526404679859088842e-01 -1.486952319698841285e-01 -9.683313903534654932e-01 -9.651201321447669956e-01 -9.692203982561116149e-01 -9.628973995077320103e-01 -9.888612999785938440e-01 -9.683313903534654932e-01 -9.976429785032036035e-01 -9.724045644299441626e-01 -4.343918953728556076e-01 7.137336496678987896e-02 -8.995713342848564442e-02 1.526404679859088842e-01 -1.486952319698841285e-01 -9.789451125041002122e-01 -9.757729067913144538e-01 -9.782366136911305743e-01 -9.743839746943884217e-01 -9.767547870331654281e-01 -9.789451125041002122e-01 -9.985267768413860212e-01 -9.824592816851966948e-01 -6.893189298464394987e-01 1.975408142770619935e-01 -1.104844865626813111e-01 -1.494168380554798115e-01 -3.763683153636783463e-02 -9.540986615516572344e-01 -9.432982609655430339e-01 -9.388003091465980665e-01 -9.530726568375503804e-01 -9.712772952318527997e-01 -9.540986615516572344e-01 -9.960568251125719863e-01 -9.461921012416771859e-01 1.613612139042775590e-02 -3.777093272178150274e-02 -7.011004286039933253e-02 1.153893420635195427e-01 -3.395320105831149682e-02 -9.826340801642378109e-01 -9.789812078675673712e-01 -9.814400208620104316e-01 -9.780055398898418462e-01 -9.843069320762488639e-01 -9.826340801642378109e-01 -9.993687772630192034e-01 -9.844539374658390907e-01 -3.798981649216141010e-01 2.880160465964284877e-01 -5.247283623245420359e-02 -6.392735970737450923e-02
2.777195421736967096e-01 -1.681006220189076167e-02 -1.090610093153751986e-01 -9.750851211619224745e-01 -9.529945135987187843e-01 -9.549732243485794525e-01 -9.777866902678866712e-01 -9.550947104437942370e-01 -9.552442651193431278e-01 -9.127580670977804012e-01 -5.440553994005108418e-01 -7.918432417028379300e-01 8.232567581173984017e-01 6.683691267680260673e-01 8.200119451353219402e-01 -9.613396129367391962e-01 -9.965638431656874685e-01 -9.974967595712452839e-01 -9.951657092797470128e-01 -9.813086498394599788e-01 -9.661856657048606412e-01 -9.567134879363089484e-01 -4.259712004107440442e-01 -4.874228882217393477e-01 -4.266872154107855808e-01 6.946519375117926609e-02 2.681049022856128033e-02 -4.138824481661326424e-03 8.890617613642069761e-02 1.335593548242465234e-01 -6.256486001819717979e-02 1.539367250462516101e-01 5.757758166186018045e-02 1.384046526463431903e-01 -5.357334365288018291e-02 5.391972830289034485e-02 -9.558483081184594721e-02 1.935635169782903126e-04 -3.194313978726018299e-01 -8.886492937797803998e-03 4.050803954317542810e-01 3.046998832893609843e-01 1.524328166602313961e-01 -9.830849661652112381e-01 -9.824701985199780774e-01 -9.709588347855668822e-01 -9.833353871419308057e-01 -9.828650159512558604e-01 -9.715528641076184302e-01 3.388657979817216170e-01 2.743471811258827997e-01 1.494258779586777608e-01 4.315491402732296589e-01 3.217562026968123212e-01 1.480894523205731894e-01 -1.973564792656561095e-01 8.201590424430697801e-02 -4.056235696111428202e-01 -7.179256665869092613e-01 -9.841713254394360844e-01 -9.842209095042906419e-01 -9.729882013596677925e-01 -7.943802056353487240e-01 -7.914183960212000102e-01 -7.230374683639667621e-01 4.185659523564839724e-01 4.723093945438470165e-01 -3.079708136118696760e-01 2.769454773382731272e-01 -2.919271727740261335e-01 3.264285814136433928e-01 4.079213871498175159e-01 4.224743674708575925e-01 1.017027285648159779e-01 -2.894871817744876230e-01 1.284537455024024610e-01 7.624660113561054775e-02 9.593314406467261246e-03 1.401054147884247701e-03 -9.739924977873046785e-01 -9.632637099675888104e-01 -9.759689538387423813e-01 -9.751016429427513676e-01 -9.630176978436802981e-01 -9.755722872188993255e-01 -9.733039775847829311e-01 -9.712295528534665712e-01 -9.770825730807845000e-01 9.682592108430914113e-01 9.688913625924385764e-01 9.675139651859134826e-01 -9.726494876841945691e-01 -9.970011072665252438e-01 -9.956551379107311250e-01 -9.981548137054981895e-01 -9.746950826245851518e-01 -9.693153602100382793e-01 -9.757111806745233373e-01 -5.962466435118631836e-01 -6.052407897299708628e-01 -6.234728908750387655e-01 7.314956620866160109e-02 2.222721093632496203e-01 1.596223334634499502e-01 1.760939876183763575e-01 7.254544066662832469e-02 5.356355270480407660e-02 1.915768235596438662e-01 3.364396626894758935e-01 1.037558336920439278e-01 7.971810533517542652e-02 2.546733764955591908e-02 1.974769949723351736e-01 -8.735388423165899030e-02 -4.689074357749671573e-02 -7.686975386114094921e-02 -2.710728935165447953e-02 -7.434780926325451622e-02 9.985510948625025973e-02 -9.614026644143001121e-01 -9.639092032341834981e-01 -9.587878721603311227e-01 -9.643299969823034834e-01 -9.672410889630089770e-01 -9.614629220141250876e-01 -8.518997001988685147e-01 -9.301956571797826978e-01 -7.195899014183674280e-01 8.148013244649735531e-01 8.916688406431139136e-01 8.013977826553959627e-01 -9.480666443759739881e-01 -9.964256307462191486e-01 -9.970989062882769094e-01 -9.938321101019204074e-01 -9.702209069976336364e-01 -9.721719095960472679e-01 -9.680127995327191259e-01 -3.457421925448663780e-01 -2.538656202944788443e-01 -3.003314983417714190e-01 -1.394570464631265105e-01 8.343572221890517560e-02 1.073655747134948518e-01 4.736081959587760265e-02 -1.140488228964183781e-01 1.082059658729266349e-01 -2.442762839403573791e-02 1.506215435195387420e-01 5.525135971212696839e-02 -6.767396870375040618e-02 7.515762452912824743e-02 1.058664128293863305e-01 -2.662402181164721937e-01 8.906747198878890714e-02 -2.593727264641926267e-01 -1.001605702121540070e-01 -3.970390541056695310e-02 -6.037267349083477730e-02 -9.721857234317802243e-01 -9.773704976562054281e-01 -9.761071247109073257e-01 -9.748043004613102802e-01 -9.800700929952335105e-01 -9.783777293183967272e-01 -9.678246116921621622e-01 -9.774833090522018209e-01 -9.695162559215302345e-01 9.701798674209300977e-01 9.789164663721676707e-01 9.782913494162025492e-01 -9.789385771018702664e-01 -9.983622719294001913e-01 -9.989639449166652918e-01 -9.979227388087460460e-01 -9.782272776479898901e-01 -9.831088924524232775e-01 -9.812313710240578857e-01 -4.076129141376905740e-01 -3.241459487297979614e-01 -4.524123215718723889e-01 -3.058864713873380922e-02 1.677981654491713867e-02 8.847532568133355257e-02 2.235069014773448104e-01 -7.193761243068252931e-02 1.944512361586769877e-01 1.008063078044867111e-01 1.240017972682948694e-01 1.395838152647554398e-01 -3.459312171038305544e-02 1.515309886757576774e-01 4.537442386579162990e-02 -5.919690974869319666e-02 7.550355042383392890e-02 -9.933417956970423679e-02 -9.613010656897369444e-01 -9.575815900353884524e-01 -9.626692234067765197e-01 -9.542735510218552930e-01 -9.868526776141584023e-01 -9.613010656897369444e-01 -9.948083435548258358e-01 -9.671407995318331841e-01 -4.076146334496164592e-01 6.609978051476435301e-02 -7.427305850686631572e-02 1.237580156933666548e-01 -1.372884956657080546e-01 -9.613010656897369444e-01 -9.575815900353884524e-01 -9.626692234067765197e-01 -9.542735510218552930e-01 -9.868526776141584023e-01 -9.613010656897369444e-01 -9.948083435548258358e-01 -9.671407995318331841e-01 -4.076146334496164592e-01 6.609978051476435301e-02 -7.427305850686631572e-02 1.237580156933666548e-01 -1.372884956657080546e-01 -9.729770616197295219e-01 -9.679805218424770707e-01 -9.711183406642094340e-01 -9.669444604243201402e-01 -9.736426045913454397e-01 -9.729770616197295219e-01 -9.966249060777158109e-01 -9.769160144879011076e-01 -6.565954656651001864e-01 1.967193668780564120e-01 -1.108032639450765300e-01 -1.611724474397593365e-01 -2.225040862718847059e-02 -9.479365636308457743e-01 -9.386741125469004743e-01 -9.338707300999327110e-01 -9.476616431094053716e-01 -9.655302267641787672e-01 -9.479365636308457743e-01 -9.943459302649558795e-01 -9.410078027153795377e-01 3.582761656407009582e-02 -1.404681591407158474e-02 -9.351801817611565815e-02 1.479086525502147365e-01 -7.146307583722336099e-02 -9.782309133471712714e-01 -9.735772084023722739e-01 -9.766965431834552236e-01 -9.726723686831130200e-01 -9.810631163036713787e-01 -9.782309133471712714e-01 -9.986967889347553307e-01 -9.807788241303331267e-01 -3.381322487761346252e-01 2.935525228841975864e-01 -5.804333177896554841e-02 -2.566070741286726603e-02
2.759908231140241197e-01 -1.675065314335746555e-02 -1.099802538542503788e-01 -9.684515340632998681e-01 -9.491577363869755368e-01 -9.528990482352565072e-01 -9.716850061257488180e-01 -9.513226268469365809e-01 -9.535765588556143202e-01 -9.049082870694630243e-01 -5.420658224249030877e-01 -7.873063730994808163e-01 8.149114401774387728e-01 6.657160719319742403e-01 8.179937094944210729e-01 -9.561094825072447012e-01 -9.956215872035727443e-01 -9.973955765381333771e-01 -9.960599762126587375e-01 -9.763404896810534694e-01 -9.631858041793378566e-01 -9.551642150996360048e-01 -3.815394431736397474e-01 -4.645003278333832974e-01 -4.237359783405285629e-01 2.639701109015504116e-02 4.244822161135575894e-02 -1.465849440293067255e-02 7.204569993421433560e-02 1.152045751346172930e-01 -3.393730650986565012e-02 1.345094122033796413e-01 6.365920949146001984e-02 1.420999063579441724e-01 -5.228695334263411959e-02 7.714266010015433106e-02 -1.113152355621739309e-01 5.133774298865868835e-02 -3.484230840872587498e-01 -9.317382863346805599e-02 2.064283476215115765e-01 4.267302481852341400e-01 1.935886311652209313e-01 -9.775065616249165590e-01 -9.814302878083641657e-01 -9.716211856728048657e-01 -9.780282107001324610e-01 -9.816982124368939244e-01 -9.722132044264883977e-01 1.431955259652902268e-01 3.935848458153562990e-01 1.903915985702299418e-01 2.350932969243343940e-01 4.421050692289630879e-01 1.895850451473005960e-01 -1.877393819226256810e-01 -1.898910462597380444e-01 -2.171980377444919785e-01 -6.291672540602631925e-01 -9.794552601034071104e-01 -9.827553296162789831e-01 -9.736215923585718190e-01 -7.279053171969372960e-01 -7.550179706388143730e-01 -7.351162199704028843e-01 4.699199490423575098e-01 5.150701123567690276e-01 -2.740541721741485692e-01 2.417436485798147849e-01 -2.576828047801552057e-01 2.940652511453809570e-01 3.670643193316542874e-01 3.838629170568790827e-01 6.288127398712604899e-02 -3.658799701944708271e-01 6.482883933675846755e-02 7.526868621863343212e-02 9.151061401681514704e-03 4.228375002234205371e-03 -9.686195499546335075e-01 -9.586001519092681722e-01 -9.724018786641536183e-01 -9.701453355330148520e-01 -9.586535390685089197e-01 -9.726924253083411021e-01 -9.687668703214885602e-01 -9.680973916294078885e-01 -9.720050521092310492e-01 9.602923538004339843e-01 9.643191918611262459e-01 9.626975981496870283e-01 -9.682890345720771563e-01 -9.957421817476799220e-01 -9.949067359947731948e-01 -9.982089594116684284e-01 -9.705029543286325389e-01 -9.664769623208081528e-01 -9.740562821038505348e-01 -5.597783335289980844e-01 -5.786157987732243324e-01 -5.960648860636914570e-01 4.563716428422370103e-02 2.208514071910272492e-01 1.410267923438685012e-01 1.628639088715594097e-01 4.866949433103746891e-02 8.137181108088425985e-02 1.879809274279679865e-01 3.215351317030635259e-01 1.007342460520686406e-01 8.132506916875476000e-02 3.852429006270471912e-02 2.180825421478904125e-01 -5.599232232028603096e-02 -8.149096543068128085e-02 -1.063867536839648575e-01 -2.500531398169450470e-02 -6.745027470285133719e-02 1.095125960671687465e-01 -9.594637903831790826e-01 -9.580484059529300600e-01 -9.536348730220814973e-01 -9.628331555061041547e-01 -9.626137918992160314e-01 -9.569465027944661362e-01 -8.479049258124581323e-01 -9.239649054281365848e-01 -7.106878400131655393e-01 8.129665832090408051e-01 8.872230765131076113e-01 7.990836899705507923e-01 -9.399267587894960529e-01 -9.958145912251522569e-01 -9.964703889054997710e-01 -9.926156925108825524e-01 -9.689700601142907654e-01 -9.690128093499015272e-01 -9.644363771902043636e-01 -3.180289739021754936e-01 -2.099889299613977300e-01 -2.704189367645379871e-01 -1.290115913928707170e-01 9.158368456916879397e-02 8.740877333710199426e-02 5.496822062044004475e-02 -1.093396566759411992e-01 1.114786546176896737e-01 -1.809096384764750584e-02 1.328689494113232672e-01 3.041184692848456286e-02 -3.772271162067392797e-02 4.229799973595110146e-02 1.326007367397506187e-01 -2.563252717283395210e-01 1.538693598181401778e-01 -2.619060474776116476e-01 -9.987487940066333558e-02 -4.079126561935289552e-02 -6.244744563989389208e-02 -9.674575985979456672e-01 -9.721617162955951130e-01 -9.728791636803608700e-01 -9.709047439350466657e-01 -9.759720307007641038e-01 -9.759924915796633904e-01 -9.613128612907893000e-01 -9.718456083734706707e-01 -9.638227461276771546e-01 9.649587304802317300e-01 9.729900732691417753e-01 9.748772714852067534e-01 -9.752668622155508116e-01 -9.975295269064562431e-01 -9.986316155030138253e-01 -9.982256341496140717e-01 -9.753949938913947237e-01 -9.803047645047833214e-01 -9.796610127314848704e-01 -3.800544622296715414e-01 -2.785948940261215867e-01 -4.226494084351039016e-01 -2.230162249089167464e-02 3.722744721232414122e-02 9.676821472741017893e-02 2.140848543873615506e-01 -6.872175472307943955e-02 2.047746654761551377e-01 1.132173651533525949e-01 1.278140673054199428e-01 1.069419817710454829e-01 -4.801586256044041920e-03 1.212800465181472498e-01 5.506287243181862134e-02 -3.369914391896784711e-02 1.111554881308357279e-01 -1.072454713135198162e-01 -9.562026217428371000e-01 -9.525626105430259338e-01 -9.588027001792952531e-01 -9.475657615176940052e-01 -9.847822640243119041e-01 -9.562026217428371000e-01 -9.942806145964190323e-01 -9.647181555139245912e-01 -3.683911904611869015e-01 5.646586773615808186e-02 -5.676321479782117652e-02 9.317694979019645884e-02 -1.206511295606041700e-01 -9.562026217428371000e-01 -9.525626105430259338e-01 -9.588027001792952531e-01 -9.475657615176940052e-01 -9.847822640243119041e-01 -9.562026217428371000e-01 -9.942806145964190323e-01 -9.647181555139245912e-01 -3.683911904611869015e-01 5.646586773615808186e-02 -5.676321479782117652e-02 9.317694979019645884e-02 -1.206511295606041700e-01 -9.686784330307828261e-01 -9.611251867003766103e-01 -9.653755130086717484e-01 -9.596026402064906646e-01 -9.719886056112535533e-01 -9.686784330307828261e-01 -9.958166403775926545e-01 -9.729573590111448844e-01 -6.153169396508819666e-01 1.963981227746448566e-01 -1.050771455886640726e-01 -1.783296704131992205e-01 -1.023408663444675543e-02 -9.406089953573992801e-01 -9.332158874313405406e-01 -9.285967865202716665e-01 -9.400924085752535575e-01 -9.560697451151816129e-01 -9.406089953573992801e-01 -9.932703148418912109e-01 -9.362955929545986322e-01 7.662291971525835022e-02 1.012491307003166204e-02 -1.176559639297680843e-01 1.809981741749850104e-01 -1.095217808591705116e-01 -9.743683788878964025e-01 -9.674497134083159811e-01 -9.714819829887917368e-01 -9.662077783507386775e-01 -9.796549333287518646e-01 -9.743683788878964025e-01 -9.983457793996954877e-01 -9.769496929544091435e-01 -2.821958956895287973e-01 2.987343493943436235e-01 -7.383468005857088401e-02 1.784673424132924083e-02
2.746020797488773479e-01 -1.676065288898367575e-02 -1.106325831989136144e-01 -9.527475730076679916e-01 -9.346727961284078123e-01 -9.409740580386427578e-01 -9.573129952080425831e-01 -9.377645347864805858e-01 -9.423907782914690001e-01 -8.848321237877903034e-01 -5.338311761242733322e-01 -7.765603638871294567e-01 7.993221076895048460e-01 6.553156940255752128e-01 8.092316906170434754e-01 -9.407302987218637558e-01 -9.906487903398154549e-01 -9.952764710241449597e-01 -9.934509781323077604e-01 -9.646369699198522607e-01 -9.540426711637276513e-01 -9.456135190231758081e-01 -3.306549619949692431e-01 -4.312895135674596481e-01 -4.060148579218172959e-01 -1.592382467113442890e-02 6.036697388946310472e-02 -1.945411164207818538e-02 4.535164535194768226e-02 9.258590975607482176e-02 -6.198389973656923645e-03 1.190030102661956413e-01 5.774570468842982890e-02 1.364963235113888507e-01 -4.638181849801966544e-02 9.366631128660336814e-02 -1.251855751414085172e-01 8.329010146360096845e-02 -3.783693880824096079e-01 -1.629869445829243702e-01 4.739354871840660566e-02 5.171307443803416781e-01 2.236182972128982205e-01 -9.703609883871799902e-01 -9.789009766825808034e-01 -9.688797036929270856e-01 -9.712878331885216321e-01 -9.791723445331375064e-01 -9.694950131633861545e-01 -1.214653722926666707e-02 4.825315070997395761e-01 2.210400622321283814e-01 7.697798825971428893e-02 5.307391592064449881e-01 2.191373796497224358e-01 -1.767129949570884484e-01 -3.940475722169257677e-01 -7.669587171067066000e-02 -5.599554537306375979e-01 -9.735142252269961549e-01 -9.803127134194170589e-01 -9.709663173914359069e-01 -6.618283760351434397e-01 -7.100312453986319383e-01 -7.446543698128599287e-01 5.214328485472530250e-01 5.616616921380528371e-01 -2.661409839926224818e-01 2.324786413864008416e-01 -2.474961396193031682e-01 2.831634028826235938e-01 3.484352427241665384e-01 3.675669470708505804e-01 2.818387991814848975e-02 -4.275395809928694280e-01 2.199643562637247814e-03 7.540937700327698945e-02 8.536508162512839934e-03 6.937304191361949764e-03 -9.543075912351505208e-01 -9.443271836214568449e-01 -9.631934079543418292e-01 -9.563387558576506020e-01 -9.445051388226219924e-01 -9.639901787128919430e-01 -9.564460741910086883e-01 -9.579005662634536566e-01 -9.630887303839116287e-01 9.428149072951178544e-01 9.526251800179084128e-01 9.516820859060353133e-01 -9.553322041228784478e-01 -9.907211106516429222e-01 -9.896614195454315199e-01 -9.966815045669653594e-01 -9.574098821058343312e-01 -9.558112559181890511e-01 -9.668736796696503211e-01 -5.065274945558507769e-01 -5.372296984084857785e-01 -5.510324826114684216e-01 1.939616443561081524e-02 2.238400668550095673e-01 1.300625536695178275e-01 1.571380917810046851e-01 2.628548596468573834e-02 1.059726629016492505e-01 1.906678147291483161e-01 3.056774830219086136e-01 9.196241822711198610e-02 8.325202371863980877e-02 4.731320187609019956e-02 2.287347292768597828e-01 -4.149498195804442180e-02 -1.155716827503428801e-01 -1.261265136275047938e-01 -2.260351496438526425e-02 -6.112994212185638571e-02 1.228357993636732814e-01 -9.520247261456132870e-01 -9.441955737756174694e-01 -9.403299369039886946e-01 -9.561755056030533106e-01 -9.505649042315522657e-01 -9.442503723083639500e-01 -8.382025396016732355e-01 -9.121938170470726970e-01 -6.948313441572100402e-01 8.067569738580246952e-01 8.781221606380252842e-01 7.913689270800009501e-01 -9.208350017553114109e-01 -9.937891169001925595e-01 -9.935521066656652911e-01 -9.877951130693108928e-01 -9.631501427504861601e-01 -9.590961711087789832e-01 -9.532225486316112661e-01 -2.745710747941469965e-01 -1.645617095695966203e-01 -2.196619123450141153e-01 -1.280964859606754658e-01 1.023976075521965540e-01 6.871322398422530231e-02 5.571380373996825952e-02 -1.144978370979114063e-01 1.193798170835752848e-01 -1.287756326461091116e-02 1.102856198504029300e-01 7.043672707326512419e-03 -1.081587569087617308e-02 1.743542352675322288e-02 1.377865505134475421e-01 -2.167306616255406659e-01 1.957092338291641642e-01 -2.521553340996819381e-01 -9.884476372334607963e-02 -4.167315397255828141e-02 -6.713927359460397648e-02 -9.571368081681683737e-01 -9.622275851820674131e-01 -9.633467945681942757e-01 -9.613478785548439376e-01 -9.673886883744804432e-01 -9.674585897663130485e-01 -9.498960412913660667e-01 -9.618588959922363957e-01 -9.517031557892360327e-01 9.552941576064472029e-01 9.635785364154964006e-01 9.668718025084466205e-01 -9.663780134437626179e-01 -9.951485734024041463e-01 -9.973429813251127873e-01 -9.964622033436962845e-01 -9.673271053684900922e-01 -9.733728758290044469e-01 -9.723343264689520149e-01 -3.374020118213557629e-01 -2.173205318868310087e-01 -3.817385509774150476e-01 -1.749055348551034270e-02 5.317153064061309192e-02 1.054905590783428576e-01 1.936278664650788461e-01 -7.287662661921047447e-02 2.144371982850117320e-01 1.244725240968728996e-01 1.265123589420324712e-01 8.152067051027153677e-02 2.600259924595255123e-02 1.025212004669470572e-01 6.767359364522508580e-02 -6.893794253337027535e-03 1.376068453885092302e-01 -1.148632298082536835e-01 -9.407563300989268962e-01 -9.364460947711624739e-01 -9.450652753530190964e-01 -9.300147173234334375e-01 -9.802861700506672049e-01 -9.407563300989268962e-01 -9.886991409735093050e-01 -9.542126306904333832e-01 -3.099478110541266096e-01 4.580408143127637222e-02 -4.107375042959496292e-02 6.520101598555262667e-02 -1.016251824162389961e-01 -9.407563300989268962e-01 -9.364460947711624739e-01 -9.450652753530190964e-01 -9.300147173234334375e-01 -9.802861700506672049e-01 -9.407563300989268962e-01 -9.886991409735093050e-01 -9.542126306904333832e-01 -3.099478110541266096e-01 4.580408143127637222e-02 -4.107375042959496292e-02 6.520101598555262667e-02 -1.016251824162389961e-01 -9.559040002829845006e-01 -9.447258594469917226e-01 -9.504831074406836500e-01 -9.435367703461149391e-01 -9.658524291497373460e-01 -9.559040002829845006e-01 -9.912945422396789441e-01 -9.613200700718659286e-01 -5.566387101111822666e-01 1.925515339858388519e-01 -9.576786307126285147e-02 -2.048507330963087736e-01 1.243214664026846480e-02 -9.226984919882890157e-01 -9.186692858971693409e-01 -9.132628845499215497e-01 -9.246419856362873002e-01 -9.374685728623621817e-01 -9.226984919882890157e-01 -9.890756772937273622e-01 -9.218333772840978657e-01 1.434951718140909938e-01 2.820636435144397575e-02 -1.333096861406442568e-01 2.028947185608070691e-01 -1.409863141968582534e-01 -9.651934992827513327e-01 -9.563872897521994432e-01 -9.615367332370134967e-01 -9.554357790876999434e-01 -9.740393733538346144e-01 -9.651934992827513327e-01 -9.967611484105388664e-01 -9.685393975736692473e-01 -2.098393407219288909e-01 3.064902796916482708e-01 -9.129494027024336045e-02 4.258521477089434459e-02
2.699558184198238564e-01 -1.963719830243795123e-02 -1.096870141499753371e-01 -9.045693602216406948e-01 -8.816080198796668599e-01 -8.784969422637429748e-01 -9.134205761996508910e-01 -8.866577798371049202e-01 -8.779198846677134238e-01 -8.221104344388017182e-01 -5.054354126056840313e-01 -7.382850996845801150e-01 7.542018652704739479e-01 6.225089765985650780e-01 7.778347086364935103e-01 -8.829131094810471758e-01 -9.724091044963778518e-01 -9.863119950494813049e-01 -9.652524970204001686e-01 -9.286080546180773831e-01 -9.167704293351344180e-01 -8.787747558828592487e-01 -2.681546888329982559e-01 -3.759554133736112136e-01 -3.580648514359974777e-01 -6.849905539893988426e-02 9.746556989070613575e-02 -4.634599201165526261e-02 5.301482202508378538e-02 4.701105330592799530e-02 2.671117314125238951e-02 1.056189081197550089e-01 4.058719984762387128e-02 9.778229805674695796e-02 -2.361009118353892336e-02 7.232889147165820487e-02 -9.901261568215470599e-02 7.402917428723804205e-02 -3.808349124943319897e-01 -1.739511612873872737e-01 5.862358996415951290e-02 5.066124913153038367e-01 2.055267140397251946e-01 -9.621355460764485779e-01 -9.681507467904748587e-01 -9.563457999272995114e-01 -9.635387656486026353e-01 -9.680155032319718300e-01 -9.572252755912459277e-01 2.971182096993085168e-03 4.752259788219000414e-01 2.058877749640203314e-01 8.544952919610472597e-02 5.179324595258313346e-01 1.981455067651813895e-01 -2.237978784039927060e-01 -3.849878476894705304e-01 -7.321799180793557571e-02 -5.748175775743484817e-01 -9.662197185317724646e-01 -9.682315284749829498e-01 -9.583915640309802475e-01 -6.136006944108605143e-01 -6.933356084402688690e-01 -7.389941539745638055e-01 5.529283543913193766e-01 5.945425356567477504e-01 -2.902695792246572926e-01 2.574785886460380646e-01 -2.716948891128287968e-01 3.058280445009713966e-01 3.734076408641140987e-01 3.955817882074920133e-01 1.891500639931281702e-02 -4.268109670929284283e-01 -2.583400458014031495e-02 8.543555065386654324e-02 4.531390253968380880e-04 2.366116434859681997e-02 -9.139104726255213862e-01 -9.076097146749798616e-01 -9.414698026646955986e-01 -9.165901706836073748e-01 -9.062145651418509473e-01 -9.414861927080534487e-01 -9.219107878382092336e-01 -9.351479765968399027e-01 -9.450876488573546341e-01 8.926437263117198428e-01 9.231634527960266290e-01 9.288406363450342207e-01 -9.196431850073799597e-01 -9.764265395309414952e-01 -9.762339234364441065e-01 -9.925674583479124902e-01 -9.198203294293727517e-01 -9.224377150780738166e-01 -9.441487822352726544e-01 -4.051597636320048434e-01 -4.490702459543516878e-01 -4.613599600248427524e-01 -2.593803956502728839e-02 2.301367031016893772e-01 1.106144298176705842e-01 1.363419978607954552e-01 -1.122188052307497574e-02 1.225336958818714350e-01 1.898719168233246879e-01 2.813931875068608757e-01 5.172972473793897852e-02 8.284330476861664905e-02 1.726381046409381295e-02 2.080373043910595243e-01 -4.312853598982312880e-02 -1.459651304133938732e-01 -9.880766047398469032e-02 -3.849843908059868286e-02 -3.232334920250368171e-02 1.329925879401568922e-01 -9.259643560494532633e-01 -8.911177965212266905e-01 -8.972284331679953873e-01 -9.307777283680851443e-01 -9.001767314003161768e-01 -9.042924862955775689e-01 -8.203759616449733949e-01 -8.701479520890297303e-01 -6.489824184885321090e-01 7.801137074981412400e-01 8.564721028921460366e-01 7.573484639585528200e-01 -8.630486741993016464e-01 -9.812327933550560877e-01 -9.702509006432994410e-01 -9.734287128428330549e-01 -9.394198707401542059e-01 -9.116671578913737584e-01 -9.225271022162689905e-01 -2.421716832937026997e-01 -1.019258158760636135e-01 -1.493814838124469802e-01 -1.491805507581464574e-01 1.177489422451172135e-01 6.885318378235014136e-02 3.232568907554982801e-02 -1.484109916311603661e-01 1.465270507652669529e-01 -3.005269081978528822e-02 1.156614054442356432e-01 -4.064474442869950993e-02 3.433231173663915670e-02 -2.104369057010331209e-02 1.568431963929751427e-01 -2.168001257200761200e-01 2.018950536691863640e-01 -2.100673808326476433e-01 -9.450283426013186827e-02 -4.418351713733807695e-02 -7.262354500880120745e-02 -9.322140116581068003e-01 -9.392066614580332207e-01 -9.374650131731731006e-01 -9.365216744018174388e-01 -9.464526178498555709e-01 -9.426259967510706161e-01 -9.250447133867254479e-01 -9.395059199935530403e-01 -9.212030658690401053e-01 9.343490298729482113e-01 9.460936103112670414e-01 9.480153442347747372e-01 -9.433931090579685819e-01 -9.892231067721863891e-01 -9.935840874555118551e-01 -9.910081412796899469e-01 -9.432866077899432211e-01 -9.551732933066671150e-01 -9.488092294903371915e-01 -2.557900451432517097e-01 -1.408198747168525333e-01 -3.003373788098632757e-01 -2.796137778353200917e-02 5.808932440985285078e-02 1.179558030899701959e-01 1.727992949556167168e-01 -1.086383743580450895e-01 2.270049999277130304e-01 1.041697840199769659e-01 1.226881901937216246e-01 3.133174258571697762e-02 5.456392110136155243e-02 8.212371640011872920e-02 4.275994926803512036e-02 1.644962922113617915e-02 1.355258619633323836e-01 -1.135617301289582881e-01 -8.828792005050235536e-01 -8.840281086878825079e-01 -8.981448899513773121e-01 -8.736509372740692836e-01 -9.562014445381857852e-01 -8.828792005050235536e-01 -9.626633173764278517e-01 -9.139515549958651119e-01 -1.974824856371842907e-01 2.175613173175856754e-03 -6.098381615700217313e-03 3.321542786209499831e-02 -6.941998908275785751e-02 -8.828792005050235536e-01 -8.840281086878825079e-01 -8.981448899513773121e-01 -8.736509372740692836e-01 -9.562014445381857852e-01 -8.828792005050235536e-01 -9.626633173764278517e-01 -9.139515549958651119e-01 -1.974824856371842907e-01 2.175613173175856754e-03 -6.098381615700217313e-03 3.321542786209499831e-02 -6.941998908275785751e-02 -9.205330458551811423e-01 -9.042006925305557941e-01 -9.136124754727431574e-01 -9.023528386044474825e-01 -9.458164379178413128e-01 -9.205330458551811423e-01 -9.788960293092184850e-01 -9.320967443375868244e-01 -4.513844170684558343e-01 1.694130577306717789e-01 -6.230182575549362417e-02 -2.179783117196009146e-01 1.251139863936907674e-02 -8.654692662998294539e-01 -8.682048002370353901e-01 -8.595072105974478349e-01 -8.774591169554977199e-01 -8.891573221148486583e-01 -8.654692662998294539e-01 -9.638422325038513705e-01 -8.757643941261493703e-01 2.051649348881534884e-01 1.042924627873597840e-02 -1.157030422057641339e-01 1.951178157732393892e-01 -1.433737066748705102e-01 -9.415702308811030319e-01 -9.326354576234512361e-01 -9.396955395757827789e-01 -9.325199744926075951e-01 -9.561254481157935858e-01 -9.415702308811030319e-01 -9.923083175721059135e-01 -9.482805190999724632e-01 -1.005528770193138827e-01 2.871049019590634077e-01 -1.008092208633658282e-01 4.519554589602998995e-02
2.691415905769695138e-01 -1.866652634674049321e-02 -1.104880062043455818e-01 -8.465266738757025733e-01 -8.092373432577066872e-01 -8.279297202626428875e-01 -8.611502412093200443e-01 -8.171425446232387646e-01 -8.313537208947450186e-01 -7.344378677883017792e-01 -4.660246327490049634e-01 -7.030321108205264125e-01 7.094821339375368963e-01 5.766993928227457378e-01 7.344507191772420285e-01 -8.214181130709582446e-01 -9.503755732767760200e-01 -9.742369495689588987e-01 -9.562751341250957937e-01 -8.893700466399767635e-01 -8.635519747953721570e-01 -8.451033830977728867e-01 -2.124013211770665044e-01 -2.986866200498450308e-01 -3.020660620305162802e-01 -8.018233153993777063e-02 9.345955607668864074e-02 -2.908569066752017887e-02 4.988817181119997030e-02 3.460701763564388161e-02 3.062223788091390092e-02 1.274004778491889256e-01 -7.583809644390595087e-03 6.780053593115684119e-02 1.994405017941469800e-03 4.920155656930355614e-02 -9.160160583352211505e-02 4.506808381815312348e-02 -3.463956541970152347e-01 -1.571887694005497660e-01 1.537234802460096528e-01 4.321207192794444540e-01 1.729262289167829703e-01 -9.614677395281185923e-01 -9.673099252034011997e-01 -9.551876561667838050e-01 -9.631695410863022611e-01 -9.678763137759224255e-01 -9.559976056222242446e-01 9.904488013824570836e-02 4.036473897360456919e-01 1.738247512804377282e-01 1.784169772992334480e-01 4.440102948064225119e-01 1.649246245373504338e-01 -2.583741448505770810e-01 -2.468358496497518595e-01 -1.626008598386251003e-01 -6.245947452605975503e-01 -9.662739724817860365e-01 -9.700333228695532384e-01 -9.583856849191072502e-01 -6.366362087094656896e-01 -7.035062238295843873e-01 -7.743352243151253589e-01 5.575876263736140315e-01 6.090182145176690209e-01 -2.879230357694013143e-01 2.555273345840536892e-01 -2.701559811959572399e-01 3.045850103698918843e-01 3.867948792750916520e-01 4.127985786941404389e-01 4.669742289865930901e-02 -3.739853979638816939e-01 -3.314766666916862947e-02 8.591984230818451584e-02 7.726577289054416785e-03 5.584902261369931870e-03 -8.478388777340835070e-01 -8.287099172697643956e-01 -8.990212507158071853e-01 -8.524882075788492442e-01 -8.192197214563214924e-01 -8.996547639979859401e-01 -8.704996652494843001e-01 -8.839768686561452204e-01 -9.077616156015538840e-01 8.160060751356081887e-01 8.731050646556247630e-01 8.907893006302995964e-01 -8.529818895663400236e-01 -9.494449956018687908e-01 -9.411167790489713969e-01 -9.819688088162713546e-01 -8.582359177915906967e-01 -8.442197589989938189e-01 -9.086727248684118852e-01 -2.870871268769268903e-01 -3.251280476638092609e-01 -3.665344914459314762e-01 -4.141901838745122577e-02 2.125008322941288330e-01 1.075586403496324589e-01 1.403186820549938985e-01 -1.054723020443659211e-02 1.259792214299624846e-01 2.038069159112250728e-01 3.060208333402923420e-01 1.674206274177846704e-02 1.064987410852439448e-01 -8.737569840882843109e-03 2.108015078112892848e-01 -4.611211372739538322e-02 -1.556660238798755480e-01 -9.877438150991814381e-02 -5.894660742385710722e-02 -2.572747036763866832e-02 1.365342268257531688e-01 -8.772150279126635919e-01 -8.287563534551204425e-01 -8.467644100607905067e-01 -8.834531377456447121e-01 -8.398585839652947804e-01 -8.543654329567931249e-01 -7.834941179561156765e-01 -8.278368282843099335e-01 -6.179666430081188766e-01 7.353397704236137589e-01 8.256212654689295549e-01 7.223487678109828947e-01 -7.895721744026276134e-01 -9.604879518068862865e-01 -9.485065719384190297e-01 -9.580583415198619113e-01 -8.961208246159252377e-01 -8.504372310935316426e-01 -8.790368939660810899e-01 -2.093034252173533449e-01 -5.757898437372022810e-02 -7.462935508000070883e-02 -1.593783764502990641e-01 1.171219742471247549e-01 1.017941071370197792e-01 -3.357871679851885671e-02 -1.778719524174959266e-01 1.770375070376204174e-01 -6.651330685841758128e-02 1.380726453274701282e-01 -5.059937799607503589e-02 4.256632104611197953e-02 -2.185216910370710655e-02 1.551436214488437215e-01 -2.069656313411469550e-01 1.919785074350345844e-01 -1.923831400154671911e-01 -8.760432295750837650e-02 -4.538609777776383275e-02 -7.570134608229338313e-02 -8.834463801594657495e-01 -8.955125578224972793e-01 -8.921492986219727861e-01 -8.875601148746399272e-01 -9.037031205684118440e-01 -8.974784230718971800e-01 -8.823500953946410430e-01 -9.045036784134131702e-01 -8.897775580058312483e-01 8.937376437289814568e-01 9.134299248149705397e-01 9.121392078002419357e-01 -8.982034172869141075e-01 -9.753966851814873662e-01 -9.833047000988774933e-01 -9.788883722019602329e-01 -8.982733970020542191e-01 -9.110464125484866171e-01 -9.066929421359454233e-01 -1.607569780568935125e-01 -3.996503242977205578e-02 -1.939366682926798868e-01 -2.003715299727246504e-02 4.397939205804962670e-02 1.685931829338565280e-01 1.440555636750810442e-01 -1.382528275440687571e-01 2.392054885975822831e-01 9.564512897355668952e-02 8.384685671087013792e-02 1.550264675882491623e-02 6.355045933633948763e-02 7.251516339210903328e-02 5.264563304606518362e-02 5.563447569471340060e-02 1.041574149418100226e-01 -1.079890686138238465e-01 -8.191660510658375083e-01 -8.219411619303359506e-01 -8.459348498884970979e-01 -8.048277709120026380e-01 -9.390323824429733790e-01 -8.191660510658375083e-01 -9.371521388822317000e-01 -8.755205263715479802e-01 -7.789442116418059114e-02 1.186481285967618676e-02 -2.955126564370623085e-02 6.369004648299611548e-02 -6.686866483181180820e-02 -8.191660510658375083e-01 -8.219411619303359506e-01 -8.459348498884970979e-01 -8.048277709120026380e-01 -9.390323824429733790e-01 -8.191660510658375083e-01 -9.371521388822317000e-01 -8.755205263715479802e-01 -7.789442116418059114e-02 1.186481285967618676e-02 -2.955126564370623085e-02 6.369004648299611548e-02 -6.686866483181180820e-02 -8.550509671657590127e-01 -8.332172424050339199e-01 -8.455280928039046184e-01 -8.379245046390284557e-01 -9.168687954376620874e-01 -8.550509671657590127e-01 -9.518559314949474048e-01 -8.750789626618497019e-01 -3.168622304567017545e-01 1.697504985311139025e-01 -6.755748650655890586e-02 -2.128083742289649805e-01 1.549120159093346667e-02 -7.925737396069232332e-01 -8.103187776404644493e-01 -7.941078537135682902e-01 -8.309701799658697485e-01 -8.638574228703722602e-01 -7.925737396069232332e-01 -9.330651128699565255e-01 -8.067506201694559786e-01 2.621408367546662066e-01 1.798352621341268651e-02 -1.267587583072916635e-01 2.061083428168539455e-01 -1.490514539109099035e-01 -8.954953048002037841e-01 -8.908268261053530201e-01 -8.988895726544335885e-01 -8.968907261783909401e-01 -9.152787954900692968e-01 -8.954953048002037841e-01 -9.810050501623681640e-01 -9.102431074838640557e-01 2.005571957705448716e-02 2.894680875726029501e-01 -1.075025706762016420e-01 2.965813434325349079e-02
2.686796389735212620e-01 -1.817112118693236036e-02 -1.081315493564393715e-01 -8.292862567978837030e-01 -7.943218781684276975e-01 -8.121796677218664495e-01 -8.451625118990969687e-01 -8.086870714718277231e-01 -8.202872460150778533e-01 -7.267353650045600411e-01 -4.600701007790871100e-01 -6.961444087719920182e-01 6.823661658735485913e-01 5.511492795835223335e-01 7.120418230376076574e-01 -8.076712647968625758e-01 -9.349293509352362141e-01 -9.706900900945590882e-01 -9.615302674662447036e-01 -8.747594450772330221e-01 -8.684685770813311834e-01 -8.459168982711082752e-01 -2.281445313074989545e-01 -2.762163206186311060e-01 -2.406932917315021403e-01 -5.011218792625898172e-02 8.533727861978919471e-02 -8.994223094669595922e-03 5.921470179098553555e-02 2.264817770392430537e-03 3.627940152939589102e-02 1.432235061955659250e-01 -3.990008576544343960e-02 -4.149488497999734293e-02 1.035694605484423214e-01 -5.589871378427155313e-02 -5.231339206838657441e-02 1.041873666989749925e-01 -2.306037303926140869e-01 3.267154309599122619e-02 3.302178479428692914e-01 3.313470911989874201e-01 1.179158263775100246e-01 -9.638324827394776362e-01 -9.704561017793328359e-01 -9.459668768211099144e-01 -9.654215832394715813e-01 -9.710372058519679550e-01 -9.479812984654275576e-01 2.744875309842590982e-01 3.050945673700996008e-01 1.228057815581132944e-01 3.525777111141834563e-01 3.459520145425310500e-01 1.089577709927069399e-01 -3.117834242042069048e-01 4.711315583755280000e-03 -3.373287109030211339e-01 -7.065709538043101201e-01 -9.680964146141662896e-01 -9.736879871738031156e-01 -9.550384325199470226e-01 -6.925915146029650860e-01 -6.948420396752436057e-01 -7.908546950190744607e-01 5.025931178317702974e-01 5.712361073802365574e-01 -3.069850599546603553e-01 2.780617388718965022e-01 -2.948704039991343895e-01 3.307014247024323006e-01 4.481953367543627942e-01 4.779765897101138639e-01 5.813116038253974410e-02 -1.233795529371044392e-01 2.010675062007088176e-01 9.591793414688862263e-02 1.450633835364359761e-02 3.009272379984028953e-03 -8.242215727657529190e-01 -8.102836271047082484e-01 -8.919657247856979110e-01 -8.308656535344884908e-01 -8.114040475943867792e-01 -8.934428104083943500e-01 -8.450961095159669201e-01 -8.568294237127651591e-01 -9.047112814865313490e-01 7.886242398676521770e-01 8.485699055879403208e-01 8.711706471698059673e-01 -8.395204463682548468e-01 -9.319084747863798368e-01 -9.269156020279275543e-01 -9.802636985033179595e-01 -8.347110032579764249e-01 -8.519596482252012049e-01 -9.051151048076103711e-01 -2.738862436549948098e-01 -3.132432534563410198e-01 -3.248772209875191996e-01 -1.074797593460101591e-01 2.648424837631333517e-01 3.196872320501472492e-02 1.687599458325180768e-01 -5.865908251277043156e-02 1.250244258890902682e-01 1.682083549589885596e-01 3.269232861379117172e-01 -6.162892867218984494e-02 1.286938263984760966e-01 1.489811930561653168e-02 6.230508980996196655e-02 6.614975651652076072e-02 -1.318021938529199966e-01 -1.403901004193422800e-02 -2.626510081943167832e-02 -4.586581112392624365e-02 1.282291117439878225e-01 -8.821530979943383866e-01 -8.341223567277340489e-01 -8.442120062379387946e-01 -8.924305514045256515e-01 -8.555448140149922720e-01 -8.547086254744937772e-01 -7.587330598579983265e-01 -8.212921184961963217e-01 -6.170630050415284451e-01 7.450333752026787604e-01 8.108290662322357178e-01 7.043462868828218593e-01 -8.094520931255531071e-01 -9.719161517759541402e-01 -9.662664403271329361e-01 -9.584483011693594179e-01 -9.074156595861090358e-01 -8.837486189125377534e-01 -8.816543226275319611e-01 -2.096507541108381112e-01 -7.764146299960654821e-03 -1.112480191448422390e-01 -2.260618828446936956e-01 2.016916196180163767e-01 6.488221202980563906e-05 3.280816951984042579e-02 -2.094746509654910049e-01 2.015766199412948601e-01 -1.134280040307902998e-01 1.925333402340592970e-01 -8.547821982936723573e-02 7.340960584912950559e-02 -5.515110938275725322e-02 1.729950451775343068e-01 -7.202796476784380231e-02 1.700731024315856044e-01 -2.454069147235661830e-01 -9.380882215181211847e-02 -2.596708048783515771e-02 -9.045616701766301393e-02 -8.675483249221850324e-01 -8.931031325484088956e-01 -8.885880524957167070e-01 -8.777116940769809084e-01 -9.061411401818266764e-01 -8.960719362188063197e-01 -8.523497167817064568e-01 -8.909256097988186296e-01 -8.782830812147329747e-01 8.691071259388739589e-01 9.051932542837344275e-01 9.075058836222057446e-01 -8.964171980480702961e-01 -9.676179269890219370e-01 -9.839627998213675841e-01 -9.762395050693536414e-01 -8.942950393521569286e-01 -9.218555411938044175e-01 -9.071231707120680499e-01 -1.702073853338861298e-01 -4.083093153286064710e-03 -1.941527749778074186e-01 -9.280618982517184479e-02 1.216404542928918309e-01 1.020290608230755569e-01 1.335272941333202623e-01 -1.696621776338947674e-01 2.404316537156298283e-01 5.460755044443130202e-02 6.066681560738385742e-02 -3.231047936364999512e-02 1.042096135193538303e-01 -3.700056349715214431e-03 9.115658698816174466e-02 1.530531901867944744e-01 1.427624332753089365e-01 -1.180913864473930597e-01 -8.014599537748470226e-01 -7.791205256287433434e-01 -8.077799470212371213e-01 -7.712514218002943789e-01 -9.437803875261261410e-01 -8.014599537748470226e-01 -9.249921556463404082e-01 -8.467235245725828197e-01 -1.983857311315825878e-02 -8.883482691510963258e-02 7.467467329888972938e-02 -4.233450215037854597e-02 -1.199514760464740273e-02 -8.014599537748470226e-01 -7.791205256287433434e-01 -8.077799470212371213e-01 -7.712514218002943789e-01 -9.437803875261261410e-01 -8.014599537748470226e-01 -9.249921556463404082e-01 -8.467235245725828197e-01 -1.983857311315825878e-02 -8.883482691510963258e-02 7.467467329888972938e-02 -4.233450215037854597e-02 -1.199514760464740273e-02 -8.406922458628355299e-01 -8.011548190395414437e-01 -8.196473101224297508e-01 -8.013875852534112498e-01 -9.084063227509092675e-01 -8.406922458628355299e-01 -9.386182335757531359e-01 -8.585439919914866769e-01 -2.806704096322192865e-01 6.257235209221943817e-02 -1.414869086957058590e-02 -1.486492539078192732e-01 2.687245085966215655e-02 -8.112596669871148247e-01 -8.006136292043192215e-01 -7.875721365866388268e-01 -8.189967037730150334e-01 -8.613415077330914826e-01 -8.112596669871148247e-01 -9.512660936670368494e-01 -8.096787716967087656e-01 3.639643492470200359e-01 1.182568176057367630e-02 -1.250364583678300612e-01 1.672766239277160283e-01 -6.732458979173776281e-02 -8.935159031783994621e-01 -8.767116568335944216e-01 -8.893064225913661636e-01 -8.771183500858866777e-01 -9.229892622448331307e-01 -8.935159031783994621e-01 -9.794643914721703482e-01 -9.048664992688987274e-01 5.318196921532588467e-02 2.496443520380589309e-01 -1.025243315639566555e-01 1.803677495235081127e-02
2.463712686747765168e-01 -1.262558864246856975e-02 -9.892153583399562744e-02 -6.316079800339359229e-01 -4.621385869248305078e-01 -6.730914173644210186e-01 -6.674588015123253948e-01 -4.917186268685160844e-01 -6.793725777564895152e-01 -4.568313114363981575e-01 -2.664133674784148198e-01 -5.321344776046412761e-01 4.831992006683828444e-01 3.418850971687197315e-01 6.386595938949715112e-01 -5.781096353087421535e-01 -8.610245508045600848e-01 -8.885183963609174507e-01 -9.143789618339158709e-01 -7.432631738757603523e-01 -6.703610788735401282e-01 -7.110541578192647316e-01 -4.065240391168013778e-02 -1.701680065441400422e-02 -7.827032783226917090e-02 -1.918503185710411785e-01 2.012640736653264761e-01 -9.772585298880853699e-02 7.385469667519115045e-02 -6.224419076679924001e-02 9.963061427942444814e-02 1.201405062488993397e-01 -4.526099390179492976e-02 5.682660836533245940e-02 8.365827032874732783e-02 -2.030646705692039367e-02 -2.794713593719238068e-02 -4.383154734017587900e-02 -3.150596495759101501e-01 1.458078181554981444e-02 5.264123732544968570e-01 1.315807108895826194e-01 9.120072843646473415e-02 -9.635542320988310649e-01 -9.692801967680031439e-01 -9.432633936897184546e-01 -9.649417335848607946e-01 -9.698240066091489142e-01 -9.436207811459933481e-01 4.697253421199826806e-01 1.107682559336654188e-01 9.642124049048447776e-02 5.443885996884678669e-01 1.480515101797252320e-01 8.093978769504171777e-02 -3.310558893195880148e-01 2.790752390835822827e-01 -5.157572173503098822e-01 -8.015383084676716008e-01 -9.670257072692106659e-01 -9.719142637103039828e-01 -9.454741987481364296e-01 -7.703258542204565185e-01 -8.216662432311320208e-01 -6.300918175197091076e-01 5.178265435826275853e-01 6.035811837022084791e-01 -1.919036834687904425e-01 1.815926478969089874e-01 -2.245244213961766766e-01 2.876295139558987524e-01 2.888897976497913356e-01 3.362739476265012017e-01 5.862086355831094830e-02 -2.523621285647058010e-01 1.121288303001542336e-01 1.554797931513204612e-01 -3.289364816338440078e-02 1.243421384547946373e-02 -6.023321887296001487e-01 -4.891637806368834829e-01 -7.197902207889561588e-01 -5.991761345899390134e-01 -4.912099518564154166e-01 -7.330291284361393211e-01 -6.375537570036681201e-01 -7.214978785543120221e-01 -7.540059803095180424e-01 5.545610499351895095e-01 5.745602342810185448e-01 6.359898191466243356e-01 -5.935533974131799173e-01 -8.380702517556020137e-01 -7.303404411150508091e-01 -9.187900129481838540e-01 -5.780344490311731809e-01 -6.203568860635763071e-01 -7.833111444759578434e-01 5.907905620200483432e-02 2.853787067574316966e-02 -2.943576073213911848e-02 -1.498895504629488284e-01 2.547395336230678931e-01 8.623311706658022546e-02 9.706171877169302020e-02 -1.010567005250577327e-01 1.554808219023658955e-01 1.962227193289299565e-01 2.994463811183421531e-01 -3.385172679986656052e-02 2.183814674782531828e-01 -4.442059960953501085e-02 2.440140178552883954e-01 -1.250784087774625408e-01 -1.877223662465831722e-01 -3.318689343930118860e-03 -4.150103896067156017e-02 -3.629378949348949918e-02 1.235973767235914317e-01 -7.111320740928441797e-01 -6.684073007674683486e-01 -6.679025366565759514e-01 -7.193116380122376308e-01 -7.021854406431490281e-01 -6.956066452786894283e-01 -5.707719518641233281e-01 -6.803690303041174392e-01 -3.830023412774067881e-01 6.293587059628162894e-01 7.264869673632655678e-01 5.455910830125944022e-01 -6.098561102232873399e-01 -9.189885938558896017e-01 -9.021818014772695626e-01 -8.992629295889642549e-01 -7.263061623542070855e-01 -7.420892744452449730e-01 -7.556405508306789365e-01 -9.847720414678867717e-02 4.608158024922800371e-04 2.915022386886058359e-02 -1.193316908336164300e-01 1.060273130966627175e-01 1.319598251118077048e-01 -6.822415642703810734e-02 -1.802855683177302937e-01 2.019884056319108667e-01 -5.251328357554937987e-02 1.380580735750173427e-01 -1.263438191776933284e-02 6.012618477678271373e-02 5.002539434259599058e-03 1.002851415320011319e-01 -1.806573426235820456e-01 6.885902129256889215e-02 -1.891362281599578699e-01 -8.030434330870080128e-02 -1.363560308882241778e-01 -6.481306519209882600e-02 -5.873270981872602547e-01 -7.182316036249583036e-01 -6.385070334358387001e-01 -6.067004370228142873e-01 -7.342795244234057161e-01 -6.698892194493870633e-01 -6.096816867128033168e-01 -7.840300090017094936e-01 -6.346160820926246560e-01 5.661532945006322315e-01 7.498724683471761354e-01 6.575333740035469443e-01 -6.843107107641819287e-01 -8.187941899583217609e-01 -9.224471494602571875e-01 -8.586484584543893073e-01 -6.507268687683339659e-01 -7.533628043417743836e-01 -7.311268707851946713e-01 1.304871724860266757e-01 1.945078130708240427e-01 1.110502527014296248e-01 1.110721697527438864e-02 5.288540563939470723e-02 2.114728642895792321e-01 1.566889580919760272e-01 -1.633358054159870232e-01 2.565246448954564551e-01 1.121733534731089721e-01 9.808748264318817300e-02 3.689612511980344678e-02 9.208681612804106575e-02 1.818469727588012674e-01 7.685640913767513354e-04 -1.270258670380170103e-02 2.873820188561495431e-02 -2.112693679263085988e-01 -5.679963153574532075e-01 -5.789265261371460136e-01 -6.249047045562986513e-01 -5.702854403143357009e-01 -8.440799336218646198e-01 -5.679963153574532075e-01 -8.122425720675832128e-01 -6.767418748840701159e-01 2.574230381259442479e-01 2.800919802593641178e-02 -6.025604825371102397e-02 1.233286409608460171e-01 -9.513990420094607658e-02 -5.679963153574532075e-01 -5.789265261371460136e-01 -6.249047045562986513e-01 -5.702854403143357009e-01 -8.440799336218646198e-01 -5.679963153574532075e-01 -8.122425720675832128e-01 -6.767418748840701159e-01 2.574230381259442479e-01 2.800919802593641178e-02 -6.025604825371102397e-02 1.233286409608460171e-01 -9.513990420094607658e-02 -5.963077415859203700e-01 -5.338581133123858624e-01 -5.566095814202519643e-01 -5.716557305860185956e-01 -8.091908595291782413e-01 -5.963077415859203700e-01 -8.155944411258112536e-01 -6.278235219322194638e-01 7.524560294799613469e-02 1.134999474013646675e-01 -8.717156625835130457e-02 -1.820282714717329220e-01 1.061786922654327781e-01 -6.177613886748163363e-01 -6.262442681241316977e-01 -5.981115732655539752e-01 -6.627667989535033222e-01 -7.582527901102602552e-01 -6.177613886748163363e-01 -8.635347319024179180e-01 -6.274880258841628589e-01 4.448548397747874028e-01 1.382065249219352199e-01 -2.279545261275263690e-01 1.934063215698176297e-01 -5.622969255008022221e-02 -6.827313610040206537e-01 -6.727095726922752705e-01 -6.921371993874685380e-01 -6.991693082817493909e-01 -8.243287523665001615e-01 -6.827313610040206537e-01 -8.919749820293110254e-01 -7.040017865600033398e-01 3.005042291199953586e-01 3.342087929148270242e-01 -1.869267063431590548e-01 8.834926973227061331e-02
2.533407318002224851e-01 -2.216010887896878098e-02 -1.090911029914583830e-01 -5.526816707286766883e-01 -5.154019484859149181e-01 -4.926821930269137395e-01 -5.744825097557079152e-01 -5.343067605870067682e-01 -5.127474046961388865e-01 -4.243648873149028500e-01 -2.991791706088841596e-01 -5.046630266892389027e-01 4.678785769353107082e-01 4.129166540779079519e-01 4.372171413122787897e-01 -4.934748421838776045e-01 -8.332458785002070378e-01 -9.255890177855776724e-01 -8.217982249752898705e-01 -6.313785146508208435e-01 -6.532257566146187910e-01 -6.240688401038519961e-01 3.513477898445917236e-02 -1.624027112712233059e-02 4.082661001955514152e-02 -1.823184891038369115e-01 1.039784513265326338e-01 1.062584405019799810e-01 -6.281123879850331049e-02 -1.639691857964975519e-01 2.001291054818385429e-01 -5.651091299135162921e-02 1.080724539441295512e-01 -1.010781200941865965e-01 1.288263025079389723e-01 2.837875385061161895e-02 -1.085729603154249601e-01 2.003848526816674053e-02 -2.266478050542441169e-01 -1.663779699822718616e-01 6.888470643375879110e-01 1.057793943716673346e-01 -5.620903283832056826e-03 -9.685827068361100300e-01 -9.663088243862212323e-01 -9.412710890019776455e-01 -9.695553459324720569e-01 -9.675573057238334718e-01 -9.444679836775039528e-01 6.290746240502841369e-01 8.700556984398286064e-02 2.497417064530707206e-03 7.048904923710080928e-01 1.218973920938688088e-01 -1.571760564335035817e-02 -3.328798962170983478e-01 5.053638331652683391e-01 -6.964559784084669580e-01 -8.575919810932968179e-01 -9.712125668056200700e-01 -9.713825753007175878e-01 -9.525359495508753938e-01 -8.409072293590597047e-01 -6.749174419429834204e-01 -8.457807696881053383e-01 4.935333241825453077e-01 5.863978069688239314e-01 -3.882991216592624473e-01 3.791770437753738676e-01 -4.110999632177960161e-01 4.591593892633919483e-01 4.299802509893447255e-01 5.183689255775271176e-01 6.945541544046653082e-02 -4.326738427420464585e-03 4.497475967476964320e-01 1.498048900417113249e-01 -8.231332333897165010e-02 5.346261799623090033e-02 -5.535966021791046687e-01 -6.038621132214907483e-01 -6.620984103922873398e-01 -5.460924668497882939e-01 -5.860194531176557975e-01 -6.684109710280328187e-01 -6.420970581932715637e-01 -7.244943939084917961e-01 -7.267162659126917834e-01 5.188299774661945252e-01 7.083703905853090399e-01 5.734301356863257260e-01 -5.746725104126447770e-01 -8.299856196721155932e-01 -8.502748177987734524e-01 -9.046295747080349559e-01 -5.313713479446741106e-01 -6.530348654126989505e-01 -7.098898638544938189e-01 1.492837036877960044e-01 6.248522128181904084e-02 1.701994296023884856e-01 -1.244629881075688532e-01 9.976770475261706461e-02 2.060409450744714599e-01 9.027849722401502797e-02 -2.261447857907073478e-01 2.538250144076701353e-01 2.884012786891316377e-02 2.262292780883613796e-01 -1.420438456220196322e-01 1.122941985751708116e-01 3.378740682354250402e-02 8.383630262517208220e-02 2.260122404475690960e-02 -1.556900292089212767e-01 -1.880547714015900207e-01 -3.551833616280765382e-02 -8.240584171815534820e-02 8.984839891518162092e-02 -7.434726585758634210e-01 -6.597669810303803395e-01 -5.944186990099287193e-01 -7.583082379365878589e-01 -6.866421632170156553e-01 -6.041393870791074150e-01 -6.470536691967760934e-01 -7.071711759962897581e-01 -4.729380891699908052e-01 6.198884137046235532e-01 7.371369366551157043e-01 5.240403058516922563e-01 -6.015284895413811617e-01 -9.429002415059810627e-01 -9.150876618383261274e-01 -8.776390066311129390e-01 -7.736022815762492177e-01 -7.285879101277029646e-01 -6.309257615476788761e-01 4.951305134812375268e-03 -1.865127486746879365e-02 6.440093216079047223e-02 -2.387122736980840931e-01 1.473951037246645224e-01 1.423406291087864206e-01 -8.775114023650006090e-02 -1.869430115258100822e-01 1.375004165504813136e-01 7.782421021816667006e-02 3.308935722168369897e-02 -1.977789403132793888e-01 1.808310433132537254e-01 -1.305974865775337279e-01 2.433485296086776162e-01 2.818072117012943197e-03 9.680172001198993070e-02 -3.074884284260833156e-01 -1.051809480817064990e-01 -3.328306398221488743e-02 -7.548791406600090237e-02 -7.299975908165752259e-01 -7.649016545526056143e-01 -6.959262138868034242e-01 -7.308027536572515581e-01 -7.810912937269799405e-01 -7.024525106189525303e-01 -7.040165653176433391e-01 -7.806149316554585882e-01 -6.385473551358843425e-01 7.776306310057297111e-01 8.037928493187332935e-01 7.933060326849663557e-01 -7.492526782427492149e-01 -9.338268868780037479e-01 -9.582678118515075560e-01 -9.245205470869403142e-01 -7.390286126141099032e-01 -8.036569349252652428e-01 -7.065725331008542165e-01 1.578897251784931732e-01 2.197765146748875686e-01 1.748029838956018933e-01 -8.797955242963946543e-02 3.244322527311423870e-02 1.324771163373027472e-01 1.992627508902972688e-01 -1.407847948655630288e-01 1.546681261078751424e-01 1.699170982123143492e-01 9.566882660171445452e-02 -1.855406557442690063e-01 1.650109929218530891e-01 -5.173033045917431461e-02 7.575895083014204390e-02 6.715099827893095119e-02 1.727034845434110566e-01 -1.075303443832124062e-01 -4.817027374510421400e-01 -5.591592583639547476e-01 -6.166699576411045491e-01 -4.655689228179105688e-01 -7.741215289940954758e-01 -4.817027374510421400e-01 -7.871091049462137779e-01 -6.826436483312912085e-01 3.819762649836370150e-01 -6.490912141120463996e-02 6.242825322894705181e-02 -5.286063709238691261e-02 -5.817965987719595812e-03 -4.817027374510421400e-01 -5.591592583639547476e-01 -6.166699576411045491e-01 -4.655689228179105688e-01 -7.741215289940954758e-01 -4.817027374510421400e-01 -7.871091049462137779e-01 -6.826436483312912085e-01 3.819762649836370150e-01 -6.490912141120463996e-02 6.242825322894705181e-02 -5.286063709238691261e-02 -5.817965987719595812e-03 -5.735114135518233347e-01 -5.349495582152692386e-01 -5.650149455187133407e-01 -5.427058885460595006e-01 -7.317811699604216402e-01 -5.735114135518233347e-01 -8.355485830735407404e-01 -6.349022478074571874e-01 1.678239651569216895e-01 -5.444908096882947190e-02 1.344359146103885072e-01 -2.554160324232996326e-01 9.738154202448361108e-02 -6.066320593830535346e-01 -6.632046432704511441e-01 -6.352178296540997859e-01 -6.964306267019167995e-01 -7.516066645135245361e-01 -6.066320593830535346e-01 -8.834454575519758990e-01 -6.550640509182614757e-01 6.065517539332702102e-01 -2.734527237051694384e-02 -5.074867282965583870e-02 7.537804049834664899e-02 -3.651434923947884797e-02 -7.448997366199502368e-01 -7.566932784547415469e-01 -7.772320258352267697e-01 -7.696450279013902218e-01 -7.290277591858106421e-01 -7.448997366199502368e-01 -9.484559694384906425e-01 -8.199232748026203943e-01 3.840536681976472466e-01 2.133866075912590754e-01 -1.872768401367020941e-01 3.849971731997526431e-02
2.772318382855892827e-01 -1.649978339885947373e-02 -1.081420685329620157e-01 -9.822287144380525969e-01 -9.463130919272427777e-01 -9.546639929862356100e-01 -9.846993696618296932e-01 -9.485138507827812759e-01 -9.544288586202887004e-01 -9.204088376969128404e-01 -5.367830657647915116e-01 -7.925046518458898070e-01 8.286478307291647027e-01 6.683583661543852639e-01 8.231969064002460090e-01 -9.629042251563808552e-01 -9.983175754361126586e-01 -9.977770866762601942e-01 -9.968398966017257834e-01 -9.875025982614041853e-01 -9.607518356412455551e-01 -9.548230907473425066e-01 -4.620687615534088133e-01 -4.624134052611710288e-01 -4.069304975665559709e-01 1.342403593618801683e-01 2.203930994117535031e-03 2.860019325966955614e-02 1.051465966765891963e-01 9.990778607174660708e-02 -7.747907231250425464e-02 1.807028567501270111e-01 2.766935573913663696e-02 1.142362687067752375e-01 -5.228109651821601089e-02 2.760917595268153751e-02 -6.881470167235713420e-02 -3.268830787619218803e-02 -2.562812908842048709e-01 1.099470804385565548e-01 7.310003314837005828e-01 7.522467666794344088e-02 7.164562906433560863e-02 -9.874685379584167144e-01 -9.761919670513476976e-01 -9.656858833423386246e-01 -9.875391184802285727e-01 -9.769745134926262065e-01 -9.668764405250463989e-01 6.619150785346858967e-01 5.233527896944938085e-02 7.009616395375818654e-02 7.522555334878825439e-01 9.290073732312587040e-02 6.521006402399913415e-02 -2.804463451717220668e-01 5.438885782269528013e-01 -7.217749358892642242e-01 -8.671130486349200028e-01 -9.878687397469860798e-01 -9.796376426764348277e-01 -9.695014631507545833e-01 -8.864908437831424681e-01 -8.152715335494686855e-01 -7.074895636985812919e-01 3.539238216481829791e-01 4.260228514820105783e-01 -4.181312625288982621e-01 3.890437173752432920e-01 -3.984767856559057742e-01 4.244048456311485529e-01 4.910011745892234325e-01 5.035687221515844358e-01 1.859882552449431126e-01 -8.065014663842606790e-02 2.728751192564135009e-01 7.675710721513057111e-02 9.061580686072635837e-03 -1.686960436184621777e-03 -9.774159093237293483e-01 -9.637798013801461838e-01 -9.800967487450025217e-01 -9.788103628912784293e-01 -9.639284996121927351e-01 -9.790589732923757893e-01 -9.749879064460507117e-01 -9.712336098801903628e-01 -9.818195319975276947e-01 9.719386849423257146e-01 9.687480338653301493e-01 9.746263553561077542e-01 -9.757259291064782625e-01 -9.983066599842519429e-01 -9.972228058498940895e-01 -9.991594487519631640e-01 -9.784127004396815375e-01 -9.694786430097523944e-01 -9.782108112781596754e-01 -6.090420402517161547e-01 -5.913100752445177299e-01 -6.304944049297537267e-01 1.110137942917707871e-01 2.183189836939542217e-01 1.976221357315278426e-01 2.067001849653333778e-01 5.852411855522716977e-02 1.590285798518065348e-03 1.851388895069780438e-01 3.313600674457710116e-01 8.962666426444093615e-02 6.240789578791057501e-02 -4.423976965937265540e-03 1.599612508969715519e-01 -9.152422135398508019e-02 -4.868856330881130706e-02 -4.138769809487660017e-02 -3.141514161235543084e-02 -8.119143629016739583e-02 9.158804956293842281e-02 -9.500521339290879386e-01 -9.668701275890998481e-01 -9.614017710652842386e-01 -9.533218576600968053e-01 -9.699195587411139075e-01 -9.633364749304084151e-01 -8.445750150349935481e-01 -9.327610114000344232e-01 -7.255125701846358854e-01 8.057663515819102340e-01 8.935465164265027349e-01 8.023285667759899598e-01 -9.451222836885172507e-01 -9.951805755219925720e-01 -9.982079446974553294e-01 -9.964447579678880063e-01 -9.607618349557144333e-01 -9.746965161011972301e-01 -9.694746948753630855e-01 -3.126573709316807226e-01 -2.712928532448648511e-01 -2.936068521805557663e-01 -1.954928907924153858e-01 1.029348262068330300e-01 1.059463878827005684e-01 5.844836949946291549e-02 -1.447936129188045207e-01 1.211300125949908019e-01 -5.432479356801917653e-02 1.911647646683240498e-01 4.877122643533960550e-02 -8.929129639321592427e-02 1.150378793673821481e-01 7.028544312884357770e-02 -2.480468291340589271e-01 -2.103974714293518553e-02 -2.098989720686948168e-01 -1.012118909669690175e-01 -3.913127429117368300e-02 -5.277753698763013035e-02 -9.699040104895104708e-01 -9.809290789676088362e-01 -9.798652739657927047e-01 -9.726597483396038912e-01 -9.830800824416429107e-01 -9.813300893856385931e-01 -9.669565946094593745e-01 -9.808635274262539339e-01 -9.746059469303735012e-01 9.668280983383790161e-01 9.825456410649378025e-01 9.823300179516923913e-01 -9.805372292319313177e-01 -9.984017337486199573e-01 -9.994339528798927841e-01 -9.991860344396092941e-01 -9.764771525417048625e-01 -9.855116289807476226e-01 -9.832522479406566873e-01 -3.771883595945786372e-01 -3.374365305666141013e-01 -4.443830508915205257e-01 -8.095297738139632659e-02 3.448399415844173653e-04 5.050314376084232698e-02 2.135773859749431625e-01 -1.037196509890870588e-01 1.832179969927212049e-01 6.443325173548659912e-02 9.552224222526684017e-02 1.441021370298526949e-01 -7.638841345590915988e-02 1.661877533082175840e-01 3.736211653700510088e-02 -6.925025364425649310e-02 1.895095748001316988e-03 -6.793170476983101391e-02 -9.622411731757641862e-01 -9.566263606968152811e-01 -9.616854569688274568e-01 -9.560982821653217778e-01 -9.880781928611727105e-01 -9.622411731757641862e-01 -9.967214442520735407e-01 -9.658970089746727883e-01 -3.886594528189324382e-01 5.666115060415784221e-02 -8.988745149936157308e-02 1.600464138754682797e-01 -1.329988127346762306e-01 -9.622411731757641862e-01 -9.566263606968152811e-01 -9.616854569688274568e-01 -9.560982821653217778e-01 -9.880781928611727105e-01 -9.622411731757641862e-01 -9.967214442520735407e-01 -9.658970089746727883e-01 -3.886594528189324382e-01 5.666115060415784221e-02 -8.988745149936157308e-02 1.600464138754682797e-01 -1.329988127346762306e-01 -9.757419555181580106e-01 -9.715388592332800943e-01 -9.745950424058769102e-01 -9.697595467369353184e-01 -9.751620940914988989e-01 -9.757419555181580106e-01 -9.981069386182606085e-01 -9.797107578721694354e-01 -6.607883787298506340e-01 1.958489588013983818e-01 -1.020140835663691792e-01 -1.360988702538467043e-01 -6.013940825007869917e-02 -9.437196510484825440e-01 -9.302071191305313347e-01 -9.243086791402613800e-01 -9.434237634674315087e-01 -9.640730552217756655e-01 -9.437196510484825440e-01 -9.946065930410410427e-01 -9.330312950433353736e-01 7.948105059104948467e-02 -7.265107855122641956e-02 -3.945602537207170551e-02 8.109073558640181312e-02 7.440807676884523061e-03 -9.798472100690003295e-01 -9.759704367949522119e-01 -9.787095116527986249e-01 -9.750105387589927952e-01 -9.826309043637259100e-01 -9.798472100690003295e-01 -9.991870280860453146e-01 -9.817596246155233519e-01 -3.397907964037117368e-01 2.595078502143489674e-01 -6.925805304218388136e-02 -7.221341044917897745e-02
2.771366465939337220e-01 -1.648961579577315831e-02 -1.084966576656029441e-01 -9.783669221910056280e-01 -9.455092450292756912e-01 -9.530876296232277944e-01 -9.810081509246670883e-01 -9.476337319643499679e-01 -9.529931365193472503e-01 -9.159252573374641049e-01 -5.371059901065246001e-01 -7.908343469562252315e-01 8.251404879968596839e-01 6.670869482244250470e-01 8.212091792620986874e-01 -9.602652861604428214e-01 -9.971900967278271022e-01 -9.972375778050762696e-01 -9.959638682893687811e-01 -9.841619607997442731e-01 -9.600475535152785955e-01 -9.536261752207668696e-01 -4.453261033581556450e-01 -4.665392535003708430e-01 -4.101320836024264227e-01 1.110817241778895015e-01 1.202131686600700980e-02 1.558311614916655860e-02 1.007940782732661134e-01 1.105980398870522324e-01 -7.124758324996101344e-02 1.717623042934987021e-01 3.820836871387333494e-02 1.210618297695534723e-01 -5.156715065286446298e-02 3.393117665840625352e-02 -7.584634175483552510e-02 -2.402779646163998375e-02 -2.800728919411845097e-01 7.156379983010002777e-02 6.240059615131177129e-01 1.523175177853152429e-01 9.879851848058336661e-02 -9.859842133196050629e-01 -9.775797715714286129e-01 -9.671024723382443122e-01 -9.861008407509325169e-01 -9.782724856408071545e-01 -9.681964152965271131e-01 5.558530764603487606e-01 1.270640692341422906e-01 9.683142075309764119e-02 6.469618811057366026e-01 1.694662418355048494e-01 9.286706336446945431e-02 -2.446085856984115958e-01 3.904666563917239541e-01 -6.152881027722023610e-01 -8.191824747948600605e-01 -9.865694415082867375e-01 -9.806432247898732024e-01 -9.706245052465849454e-01 -8.552945595219936248e-01 -8.071503381719952186e-01 -7.094801024757260155e-01 3.738325750467643149e-01 4.393893463622792761e-01 -3.781447287901201215e-01 3.487922062545568691e-01 -3.607011094076101876e-01 3.901906411838843014e-01 4.655981401724300084e-01 4.791660987383342674e-01 1.593405804683668825e-01 -1.561635248114468244e-01 2.231580817896105795e-01 7.653030195281408654e-02 8.359864504860098008e-03 -5.113237200130897825e-04 -9.739794418080174321e-01 -9.612595992297386926e-01 -9.776141429119288295e-01 -9.753960198959246153e-01 -9.613270162473041003e-01 -9.767562613865075072e-01 -9.717547664021434217e-01 -9.694417052191162121e-01 -9.793549116804346477e-01 9.680865443526560643e-01 9.672491749821333640e-01 9.706475410749391131e-01 -9.727208706654258963e-01 -9.967146835571294439e-01 -9.957515702145788294e-01 -9.984918562160982614e-01 -9.750622805982420704e-01 -9.673774453716218469e-01 -9.761995685973692272e-01 -5.985624450054534140e-01 -5.904291380968184066e-01 -6.242520154507261720e-01 9.689565086972821983e-02 2.207625588792895277e-01 1.837301848242803015e-01 1.961023253123045096e-01 6.210943004575054244e-02 1.992321093294775053e-02 1.875173141165322188e-01 3.336763804182565352e-01 9.347829778397072353e-02 6.841655516667692616e-02 5.239658527096227245e-03 1.693644472938793943e-01 -9.120894032442883326e-02 -4.990729393556517235e-02 -5.292424652993125284e-02 -3.085915024417302394e-02 -7.935994050924380372e-02 9.397950452740631844e-02 -9.515833057889133695e-01 -9.648143783892411118e-01 -9.592660272882753691e-01 -9.547646294462093230e-01 -9.680665215916854915e-01 -9.615160900798248589e-01 -8.448679502408692477e-01 -9.307961795199979349e-01 -7.223027719308962036e-01 8.067504446587474565e-01 8.922584180816144350e-01 8.011665709151895021e-01 -9.440974609727160738e-01 -9.950879467419699864e-01 -9.976218360485298309e-01 -9.954279228294136139e-01 -9.616687670634149754e-01 -9.730363779804694913e-01 -9.680733796905073296e-01 -3.270807696179964807e-01 -2.628058601882345413e-01 -2.954259431233441369e-01 -1.785025513027011512e-01 9.871952170261641402e-02 1.046616791070119484e-01 5.470353290348994868e-02 -1.320139111764537243e-01 1.155421120303727761e-01 -4.394854928383908760e-02 1.773497767714026507e-01 4.848652600443452421e-02 -7.985370833748389741e-02 1.008802918527608172e-01 8.040021330510227493e-02 -2.561090905767765546e-01 1.665929551496665717e-02 -2.233812774385706135e-01 -1.012336319853932437e-01 -3.938993400475659240e-02 -5.406493209020945406e-02 -9.684048943375279661e-01 -9.786608865883185127e-01 -9.777879903342756585e-01 -9.712804301878179558e-01 -9.811047851239873552e-01 -9.795023127878631497e-01 -9.651013770193860308e-01 -9.783497476285072381e-01 -9.720229200581899098e-01 9.654970887419994652e-01 9.803964398733457930e-01 9.805396631389555751e-01 -9.787496069761713047e-01 -9.977138413056493293e-01 -9.990135001529246717e-01 -9.986958254411953950e-01 -9.753169271858873612e-01 -9.838383897618466767e-01 -9.816596739762539769e-01 -3.821083523480237054e-01 -3.281475079180343202e-01 -4.414433028684843219e-01 -6.643823745384670743e-02 9.420566204216884731e-03 5.993118615754385037e-02 2.227786958801733219e-01 -9.016040935428205894e-02 1.869695084515396732e-01 7.848953323284652006e-02 1.047914763803312332e-01 1.402009391326470289e-01 -5.982192885619475042e-02 1.604609448740253741e-01 4.158696263125293696e-02 -6.688007371060473993e-02 2.829503695391840171e-02 -7.406212419414447135e-02 -9.598015323875032090e-01 -9.551171621806191503e-01 -9.604680509270306921e-01 -9.534842928724089894e-01 -9.866079926276511980e-01 -9.598015323875032090e-01 -9.953487609390474500e-01 -9.649446712763106726e-01 -3.882592241846665182e-01 6.084128402674848085e-02 -8.474186122446669689e-02 1.446720653017872227e-01 -1.308519093615762297e-01 -9.598015323875032090e-01 -9.551171621806191503e-01 -9.604680509270306921e-01 -9.534842928724089894e-01 -9.866079926276511980e-01 -9.598015323875032090e-01 -9.953487609390474500e-01 -9.649446712763106726e-01 -3.882592241846665182e-01 6.084128402674848085e-02 -8.474186122446669689e-02 1.446720653017872227e-01 -1.308519093615762297e-01 -9.728518862741497575e-01 -9.679023609823944607e-01 -9.711782556687432733e-01 -9.664084344202440446e-01 -9.732807159667344887e-01 -9.728518862741497575e-01 -9.966442112561721967e-01 -9.769110347964522489e-01 -6.530607648411832500e-01 1.969570158688729866e-01 -1.064415864319235849e-01 -1.457925785621511094e-01 -4.465206311810869522e-02 -9.430842764038859238e-01 -9.310324682504715899e-01 -9.253628037493236702e-01 -9.429988234110501244e-01 -9.624157496888324781e-01 -9.430842764038859238e-01 -9.939888527479301406e-01 -9.338539723440015816e-01 7.038913635845817085e-02 -5.218346993634983416e-02 -5.813122403065577870e-02 1.050553117660297797e-01 -2.217111695441217542e-02 -9.780421301284987212e-01 -9.737556861444599532e-01 -9.767916944581309657e-01 -9.725673076953043061e-01 -9.812425437140407380e-01 -9.780421301284987212e-01 -9.987000476921371606e-01 -9.803437912690906586e-01 -3.317155946636952124e-01 2.683292901134060049e-01 -6.458860191745843804e-02 -5.233112670995868076e-02
2.768005623509225965e-01 -1.652958941213674565e-02 -1.088487586364596249e-01 -9.744533519377589492e-01 -9.464388901376455943e-01 -9.535023706957228562e-01 -9.773557039692729598e-01 -9.487678404800315990e-01 -9.537241712229193036e-01 -9.117091179823139102e-01 -5.382654422870357669e-01 -7.896174445672132780e-01 8.211638055235014333e-01 6.663497607393298328e-01 8.205328430024938502e-01 -9.587443921084913834e-01 -9.966000586807940431e-01 -9.973286145999717967e-01 -9.963229842365149969e-01 -9.812337295695163775e-01 -9.611942892690714668e-01 -9.546601213355889737e-01 -4.163506641661028351e-01 -4.639293443054741117e-01 -4.142053360460748457e-01 7.516070227652593694e-02 2.544734832637906077e-02 1.641505756426701575e-03 9.059555221113357870e-02 1.126968285677297510e-01 -5.590101350865746971e-02 1.572674827724087898e-01 5.171116610991936813e-02 1.312679622266257340e-01 -5.333281126457197624e-02 5.327338311236799046e-02 -8.916622202877165504e-02 4.894135383008089632e-03 -3.101384651850133678e-01 -4.363524455984990028e-04 4.493022857426950400e-01 2.684098405099875628e-01 1.395341541480828451e-01 -9.827913258853950840e-01 -9.791678052887928807e-01 -9.691523836134531278e-01 -9.830392764008063500e-01 -9.796888273052600793e-01 -9.700782220156516367e-01 3.829915628108956915e-01 2.397716306185980195e-01 1.370277098124946524e-01 4.747477949186683088e-01 2.847181461574402883e-01 1.344122576190328322e-01 -2.177689923098698466e-01 1.473506729421428518e-01 -4.485035408634054921e-01 -7.396292689361979589e-01 -9.838596950991608248e-01 -9.815175091772493365e-01 -9.721782286389203387e-01 -8.066659175714067098e-01 -7.881810410001406364e-01 -7.204604494651210000e-01 4.129717256166183792e-01 4.697633401976685219e-01 -3.304385290598945701e-01 3.001919859694258674e-01 -3.144428352819811368e-01 3.475821431488846369e-01 4.265635528995527226e-01 4.414884411649224183e-01 1.128537584611349343e-01 -2.499001528159975616e-01 1.547616558060734837e-01 7.588783376127940239e-02 8.996089898119232278e-03 1.170056468986473619e-03 -9.721754120838095314e-01 -9.600288991093457458e-01 -9.760190406356425985e-01 -9.736375888637300857e-01 -9.602226113158492948e-01 -9.756445053910972609e-01 -9.713618145280665805e-01 -9.685538386778728137e-01 -9.767615416252189986e-01 9.649845096918036047e-01 9.655260094924483782e-01 9.683751980532213643e-01 -9.712700119376450614e-01 -9.966959505825176979e-01 -9.956059433361909017e-01 -9.986142851774520990e-01 -9.736366018164294145e-01 -9.671799247805041855e-01 -9.759771418073738269e-01 -5.811863757865304292e-01 -5.835925090004605575e-01 -6.131609483329020227e-01 7.466369180692110363e-02 2.207773215675737088e-01 1.654004895388844487e-01 1.798554657322328221e-01 5.442558991308683869e-02 4.489778022408068281e-02 1.838256109263963212e-01 3.337713246662685207e-01 9.710192432099692961e-02 7.183379994725506978e-02 1.911430354283364177e-02 1.903411759382162838e-01 -7.783692799472877177e-02 -6.289706271761204281e-02 -7.697966635687854275e-02 -2.861039313407342730e-02 -7.517970899794138018e-02 9.918604516282056305e-02 -9.537644728594757426e-01 -9.624479754383731267e-01 -9.571374411639377300e-01 -9.571238141173901148e-01 -9.660343395289963109e-01 -9.598532897292620936e-01 -8.454137190965248516e-01 -9.286086641842603573e-01 -7.182435287652749745e-01 8.085387029121006153e-01 8.905942685502644673e-01 7.998952628354464300e-01 -9.425324536031051137e-01 -9.951937151154462979e-01 -9.973309685446835049e-01 -9.945287702683086595e-01 -9.639716245419006624e-01 -9.713692296266940307e-01 -9.667908485757513715e-01 -3.264701618119827398e-01 -2.414178012560774245e-01 -2.871373198483890832e-01 -1.598723111484547654e-01 9.865799641128070174e-02 9.415817683373051139e-02 5.763115188509251863e-02 -1.205846963249099096e-01 1.121950258726426009e-01 -3.245746010173554408e-02 1.611089840813029472e-01 4.044777072871813539e-02 -6.085517616464033996e-02 7.546731692659093549e-02 1.036202061043072498e-01 -2.665566532629015661e-01 7.903616878447290717e-02 -2.369588358800384376e-01 -1.005869107080821223e-01 -3.983722271610174587e-02 -5.736648830245851677e-02 -9.679630895510222821e-01 -9.765248933375191287e-01 -9.757944963243873060e-01 -9.711840734804714215e-01 -9.794388163997101993e-01 -9.781410771716634311e-01 -9.631750420667928303e-01 -9.766256596546494251e-01 -9.685330195638581774e-01 9.649325459824565909e-01 9.777504945843177309e-01 9.780401022169985525e-01 -9.775765492812995561e-01 -9.977888998320889602e-01 -9.990120553980369467e-01 -9.985654304466817788e-01 -9.754377195021215474e-01 -9.827725913324049101e-01 -9.810112795217810211e-01 -3.796503064065473998e-01 -3.065731130103543367e-01 -4.312928261856952550e-01 -5.081385695279171805e-02 2.410412130397967742e-02 7.258570144622460141e-02 2.202153757744971241e-01 -8.010597946875715192e-02 1.936253480290912043e-01 9.175336685377369350e-02 1.177032491798390146e-01 1.247474731330412284e-01 -3.510281447802406085e-02 1.437610268677740888e-01 4.769281846962504512e-02 -5.907221823067865252e-02 6.340070922951991650e-02 -8.367297181228523784e-02 -9.584462368596130544e-01 -9.536563082285514081e-01 -9.595125481995211425e-01 -9.507713905298440515e-01 -9.861550622945903788e-01 -9.584462368596130544e-01 -9.950493567658902361e-01 -9.648208441355120568e-01 -3.792679541300035817e-01 5.859535935878329438e-02 -7.273312157133951517e-02 1.239616245799212979e-01 -1.274436037479516337e-01 -9.584462368596130544e-01 -9.536563082285514081e-01 -9.595125481995211425e-01 -9.507713905298440515e-01 -9.861550622945903788e-01 -9.584462368596130544e-01 -9.950493567658902361e-01 -9.648208441355120568e-01 -3.792679541300035817e-01 5.859535935878329438e-02 -7.273312157133951517e-02 1.239616245799212979e-01 -1.274436037479516337e-01 -9.714678381427873655e-01 -9.653454432096970628e-01 -9.691092851370621819e-01 -9.635880457220586948e-01 -9.731064938352984584e-01 -9.714678381427873655e-01 -9.966495933429680987e-01 -9.756880549068135400e-01 -6.357633893523785273e-01 1.960965249023914336e-01 -1.072451456571074380e-01 -1.549514550378539024e-01 -3.194725030482033906e-02 -9.419884737830926946e-01 -9.309628542712077293e-01 -9.254724760464265731e-01 -9.415393558807255703e-01 -9.609919801380696347e-01 -9.419884737830926946e-01 -9.937055579782934078e-01 -9.336325814294271774e-01 7.403618701369912847e-02 -2.752864670547025897e-02 -8.247414410691143727e-02 1.367932094473746640e-01 -5.742742784032742187e-02 -9.767964466097802667e-01 -9.714407891323639799e-01 -9.748467225918021617e-01 -9.703358274884481549e-01 -9.807144704038517347e-01 -9.767964466097802667e-01 -9.986969387361986916e-01 -9.791774500760623834e-01 -3.092251949755108198e-01 2.785738589107427665e-01 -6.781584120203669463e-02 -2.149372292452990385e-02
2.757147102807079864e-01 -1.657239856630902258e-02 -1.091613427583419255e-01 -9.586682866161012617e-01 -9.331872519271958710e-01 -9.424500876649104519e-01 -9.626896914352746082e-01 -9.358525642527236732e-01 -9.434263276420216116e-01 -8.923726949434004352e-01 -5.326067966051981628e-01 -7.780149093660908566e-01 8.066723254775478580e-01 6.565235550250657637e-01 8.123987267392968059e-01 -9.438155543962295502e-01 -9.918796631674461350e-01 -9.950577942166590750e-01 -9.932986040044572418e-01 -9.684529315810866956e-01 -9.510511371427157190e-01 -9.455449046418786807e-01 -3.655109261582494273e-01 -4.380287438241446951e-01 -4.032345813455102124e-01 2.687981645530007971e-02 4.428661695274268423e-02 -1.069006259428629396e-02 7.257541042054861669e-02 9.851628018930809472e-02 -2.753763982381772155e-02 1.371083948368011229e-01 5.724994276734482468e-02 1.318083006241970168e-01 -5.039095393697444469e-02 7.883517466045464328e-02 -1.089493171509203773e-01 4.775479286188638595e-02 -3.405208869587614817e-01 -8.182386469130029094e-02 2.536657997369919926e-01 3.885981590453784218e-01 1.779919060230401306e-01 -9.774644167700792252e-01 -9.793165635703164895e-01 -9.696804307595661143e-01 -9.779686416998724097e-01 -9.796851799354993062e-01 -9.704704811613342752e-01 1.902015366932721108e-01 3.569971570560147023e-01 1.753831699708002789e-01 2.812937311623889824e-01 4.037117942806597859e-01 1.733403101420164238e-01 -2.037076516816980487e-01 -1.211895397516179751e-01 -2.637359873379148678e-01 -6.512139358257909016e-01 -9.794029278370760538e-01 -9.810819645846871051e-01 -9.722838870517593879e-01 -7.392801301294156247e-01 -7.554983404022994620e-01 -7.373524661076763520e-01 4.630334267862119546e-01 5.121544139947606933e-01 -2.873770605773388054e-01 2.557027664034330905e-01 -2.713675433322927932e-01 3.070712956006341199e-01 3.858814771633412577e-01 4.036240079581819296e-01 6.936750976408682934e-02 -3.319227406503757472e-01 8.535621793269215773e-02 7.554265367888982063e-02 7.714495025250939393e-03 4.337317201385698304e-03 -9.586040388598846551e-01 -9.458001245305479587e-01 -9.666334576477206841e-01 -9.599500345771870835e-01 -9.454453320061482202e-01 -9.666062216923074768e-01 -9.613235552192141986e-01 -9.587076226192694506e-01 -9.681987835035004153e-01 9.490275920570546697e-01 9.554053689560798590e-01 9.569454757563997660e-01 -9.580659224790668560e-01 -9.922223117817012827e-01 -9.901201264204898544e-01 -9.969538586893181842e-01 -9.596622048753370438e-01 -9.552894568946604936e-01 -9.682396831769316536e-01 -5.321098003101896179e-01 -5.487288810524587612e-01 -5.736432322719151600e-01 4.352240885935051984e-02 2.198936908176914728e-01 1.458334408627155188e-01 1.640778622856763902e-01 3.421694507244565225e-02 7.727405317777021054e-02 1.830612884831243625e-01 3.215293567061334734e-01 9.174826308753249171e-02 7.302197071431894282e-02 3.446353106591264204e-02 2.107614173985879191e-01 -5.277154343158829003e-02 -8.909154380943894169e-02 -1.017496064805316763e-01 -2.556626075970043488e-02 -6.801626085306988756e-02 1.082154608593920569e-01 -9.489764024762469274e-01 -9.502464340938800991e-01 -9.439990415819581315e-01 -9.527978428818083545e-01 -9.548840639902188565e-01 -9.472877803916538442e-01 -8.380490517497021230e-01 -9.188886139662479913e-01 -7.038350895427325504e-01 8.047851571614683674e-01 8.828706785893110087e-01 7.921520263677032103e-01 -9.281731720468997526e-01 -9.936321491869961609e-01 -9.946146074487385302e-01 -9.900396904007139343e-01 -9.597606631540659405e-01 -9.615404515814014452e-01 -9.556228987872593672e-01 -2.978927446879412466e-01 -1.950479302465341347e-01 -2.538580134855188408e-01 -1.456340309646191600e-01 1.035761064120970382e-01 7.928320551558165619e-02 5.902490998253081406e-02 -1.153143789305251660e-01 1.144055719801341242e-01 -2.217572712335876689e-02 1.392740611975236409e-01 1.788830382355030210e-02 -2.963605535481450559e-02 4.052729031007810956e-02 1.298483225862455126e-01 -2.572772490755016461e-01 1.442589864189228188e-01 -2.374116263224245460e-01 -9.939830200372513913e-02 -4.249676937589449283e-02 -6.128461951775725919e-02 -9.583704626472099308e-01 -9.670667516541372466e-01 -9.658038016891621336e-01 -9.620899869106509517e-01 -9.711354125552428274e-01 -9.689963386745839014e-01 -9.533008031602678845e-01 -9.680268832886853581e-01 -9.571064244622604633e-01 9.557947511848416955e-01 9.690275872533630208e-01 9.692813549021035424e-01 -9.688206367965954691e-01 -9.953918807658084233e-01 -9.976990367620437450e-01 -9.965812054166747203e-01 -9.671433379586362733e-01 -9.759568126248130415e-01 -9.727043262522401257e-01 -3.481090771696599973e-01 -2.559701362894296617e-01 -3.954814050813804105e-01 -3.767546534089907806e-02 4.232016494718032068e-02 8.643634977140782216e-02 2.105342518012105757e-01 -7.585753719823191965e-02 2.036859223398594931e-01 1.057311286921536336e-01 1.265507644664872755e-01 9.409031763865419173e-02 -1.749314673127981817e-03 1.173700054992629777e-01 5.379713402564359481e-02 -3.054101140519759061e-02 1.018679464739301876e-01 -9.917591599264853619e-02 -9.436832775751402558e-01 -9.405512341632641382e-01 -9.484230381263134557e-01 -9.346805663645676443e-01 -9.817215110295082203e-01 -9.436832775751402558e-01 -9.894655083602132972e-01 -9.561598931427499615e-01 -3.350996786781340608e-01 4.861520983035910043e-02 -5.350331271749153572e-02 9.194237098158931920e-02 -1.128315314279926818e-01 -9.436832775751402558e-01 -9.405512341632641382e-01 -9.484230381263134557e-01 -9.346805663645676443e-01 -9.817215110295082203e-01 -9.436832775751402558e-01 -9.894655083602132972e-01 -9.561598931427499615e-01 -3.350996786781340608e-01 4.861520983035910043e-02 -5.350331271749153572e-02 9.194237098158931920e-02 -1.128315314279926818e-01 -9.585564578466819752e-01 -9.506935367734461462e-01 -9.556654282841251513e-01 -9.491634014543917086e-01 -9.651946125011506838e-01 -9.585564578466819752e-01 -9.922912666257734937e-01 -9.646026046355652417e-01 -5.845047610802416305e-01 1.935803184502684904e-01 -1.009614007962279514e-01 -1.743752188128197267e-01 -1.595329915708111265e-02 -9.286606580042913173e-01 -9.218719189862627506e-01 -9.156353056915845778e-01 -9.311762992472406575e-01 -9.468478588123211415e-01 -9.286606580042913173e-01 -9.900437846748554316e-01 -9.237461209541433238e-01 1.125127107116735553e-01 3.335507617152515432e-03 -1.119146043293033216e-01 1.724376590761291517e-01 -9.810477525272998101e-02 -9.678994862158381007e-01 -9.612917281151551752e-01 -9.655440133666868263e-01 -9.604991337725102829e-01 -9.742371612441597106e-01 -9.678994862158381007e-01 -9.970628465363968740e-01 -9.710728530731378427e-01 -2.488804947523977074e-01 2.889959085401926919e-01 -7.448142832005327785e-02 1.205647454235879608e-02
