2.779701406220381754e-01 -2.137831878697361854e-02 -1.108457994997273793e-01 -5.928744724407617461e-01 -4.912258598811117261e-01 -6.475948456094843264e-01 -6.222733820306393104e-01 -5.223469756176628565e-01 -6.489518788614279110e-01 -4.154251722502547706e-01 5.455931854555168270e-01 3.687194868018520699e-01 6.048890701632447797e-01 -5.581056548995434463e-01 -8.502631158199062122e-01 -9.126352683359347795e-01 -9.086011009710346364e-01 -6.914355697848966198e-01 -6.780281969286822141e-01 -6.766455747376244334e-01 -1.027177182789627968e-01 -1.052697244500551688e-01 6.960529163050022290e-03 -2.074246997359441846e-01 2.143162916906967141e-01 -1.443473818801278841e-01 1.991011399608017540e-01 -5.303910593797185602e-02 9.271250451393496517e-02 9.272564560683362045e-02 3.639733812424161136e-02 -1.856091956572003890e-02 4.254193781469151753e-02 -4.821465895531069218e-02 -1.500562576850243343e-02 -1.991231910634946312e-01 -1.178041395921719664e-01 2.638355004726202976e-02 8.452711381121368328e-01 -5.645119682345661749e-02 -6.723302049430750216e-02 -9.754653428708159879e-01 -9.623467819170726800e-01 -9.528772175030287839e-01 -9.761667519631116452e-01 -9.638548909134109222e-01 -9.542722142076108804e-01 7.797869706080068353e-01 -7.098466284433567475e-02 -6.375555516868033901e-02 8.585080400316569271e-01 -4.109209637024536371e-02 -7.647136351820962852e-02 -2.979390666136938481e-01 7.159910842911390016e-01 -8.114408041750866829e-01 -9.489747974638952366e-01 -9.782727659319160329e-01 -9.686440344190407892e-01 -9.584326425459728238e-01 -7.387164372253613998e-01 -8.870079863979096757e-01 -8.851247568804082588e-01 5.243647162386380067e-01 6.055369041840588107e-01 2.401683440615110521e-01 3.263491363185944683e-01 5.233990738122602515e-01 5.656513373249285603e-01 1.346542379407865420e-01 1.874692286890711490e-01 -1.377906026007957307e-01 5.783903692728225437e-02 -1.377347633580979251e-03 1.514366451714142109e-02 -6.177346810794567267e-01 -6.046294672495126088e-01 -7.972279261266306261e-01 -6.308066428732133080e-01 -5.984765789656008028e-01 -7.924649421820813000e-01 -7.292573309525736125e-01 -7.233404078843898022e-01 -8.553268007723079380e-01 5.035005503287753870e-01 6.661284629066750451e-01 7.776012814252042382e-01 -6.588491198935173543e-01 -8.650090118740639822e-01 -8.518545594916908659e-01 -9.599258258898353269e-01 -6.534694487319495648e-01 -6.776403617961439529e-01 -8.146413995995169799e-01 7.407300091113343254e-02 2.504956844578628758e-02 -1.024326974086095868e-02 -1.991255611886763310e-01 2.097209156736246638e-01 4.839070464413636197e-02 1.652537978184379086e-02 -1.173892468112032322e-01 1.526997103827809343e-01 1.405235270435837569e-01 3.326101235397138089e-01 -4.962221718279503924e-02 8.966661576825706026e-02 -6.649461028843775545e-02 9.354080498324790494e-02 -2.447057188764368008e-01 -4.993633273715630122e-02 9.961230407327907599e-02 -4.623338923169612730e-02 -4.708134632959865701e-02 1.035914760447965294e-01 -7.142871039281406542e-01 -7.249087380760058652e-01 -5.966496056767948142e-01 -7.254262784724873070e-01 -7.319984626873876632e-01 -5.829851672064594315e-01 -6.249628482795049900e-01 -7.662260053457847775e-01 6.270814328999178011e-01 7.651893003465446430e-01 5.481199002703667222e-01 -5.885461687575596068e-01 -9.083910854398810075e-01 -9.356525774048451982e-01 -8.636535163244206670e-01 -7.445525914581053728e-01 -7.442814422194077295e-01 -6.096519575146089887e-01 -1.340653900162376289e-01 1.289004551023117118e-01 3.911286495212761005e-02 -1.879836292125425801e-01 1.453069767706798576e-01 7.617247606746639643e-02 -3.206596213242665638e-02 1.472575470243074613e-01 -8.487594950566125507e-02 1.687476168728865300e-01 -1.597695609380039017e-01 1.165057518323714958e-01 -7.881089344966799026e-02 2.128842753616815853e-01 3.053771937223479210e-03 -2.513572654998840750e-01 -7.460609812565124552e-03 -6.102676917758801528e-02 -4.371286462231622344e-02 -7.944112080431253720e-02 -7.335640109672816322e-01 -8.349501439530507829e-01 -7.636408848993012644e-01 -7.370515526582578358e-01 -8.429241944963510313e-01 -7.776150954980279861e-01 -7.137289158475650375e-01 -8.595599840315103490e-01 -7.492778599118009586e-01 7.529869604896675117e-01 8.588933563008980254e-01 7.875696110718980458e-01 -7.990587473282591002e-01 -9.360725098329422122e-01 -9.756784248582682784e-01 -9.481983203197696941e-01 -7.541611362311813060e-01 -8.526258784751523656e-01 -8.074885293818634402e-01 9.678052754166514837e-02 1.559253245324939696e-01 6.349735407923876029e-02 -3.796998769889978892e-02 6.843316568099339081e-02 1.578588552352177266e-01 1.381268905896308186e-01 -1.068544061238182602e-01 1.763094538147667034e-01 1.202821321158372564e-01 -9.920913563221234188e-02 -8.253608495777278731e-02 3.897779804563744621e-02 7.040304488924123416e-02 -1.011231355534636944e-01 2.417972959391980758e-01 -5.067507372026671536e-02 -8.801255486576248233e-02 -5.497560063466248037e-01 -5.834060017473121640e-01 -6.478671347567990235e-01 -5.440376260764955285e-01 -8.071647371395598292e-01 -5.497560063466248037e-01 -8.157547279153084530e-01 -7.312566215498530475e-01 2.536574622069875384e-01 -1.102059028406398161e-01 7.412085945174241852e-02 -2.981072826707493670e-02 1.803540351801410577e-02 -5.497560063466248037e-01 -5.834060017473121640e-01 -6.478671347567990235e-01 -5.440376260764955285e-01 -8.071647371395598292e-01 -5.497560063466248037e-01 -8.157547279153084530e-01 -7.312566215498530475e-01 2.536574622069875384e-01 -1.102059028406398161e-01 7.412085945174241852e-02 -2.981072826707493670e-02 1.803540351801410577e-02 -6.580537481030187541e-01 -5.961831136108329821e-01 -6.289945159869728686e-01 -5.854154176418124855e-01 -8.234517981157607469e-01 -6.580537481030187541e-01 -8.770769613423744504e-01 -7.084740861157097225e-01 7.432093571302168800e-02 1.807565763038828169e-02 4.505750656356088263e-02 -8.750528402168099296e-02 -5.485805804975562444e-02 -5.984924491324171703e-01 -6.940063954461791473e-01 -6.672645878047464008e-01 -7.105208532670737043e-01 -6.269697901697285358e-01 -5.984924491324171703e-01 -8.653557469531478752e-01 -6.960457860572338840e-01 4.520890272190752901e-01 8.014979953695462733e-02 -1.725673391670536627e-01 1.824828518616042339e-01 -1.060824913054655705e-01 -7.975141081734963278e-01 -8.110604077119371036e-01 -8.236983954012021547e-01 -8.176677945429867700e-01 -8.348135829828028376e-01 -7.975141081734963278e-01 -9.636341520187611254e-01 -8.375993873295010106e-01 3.030080892786653490e-01 3.364714025244256446e-01 -4.614859823991573906e-02 -7.476385817051710292e-02
2.768796500247703851e-01 -1.992831422758755550e-02 -1.121247407036730925e-01 -6.197207335782911608e-01 -5.156786047867837341e-01 -6.726102314451665176e-01 -6.475211240904128474e-01 -5.442941635154638913e-01 -6.743961014505156504e-01 -4.494425337095286910e-01 5.639615620544508046e-01 3.874307905903745519e-01 6.235770731951486567e-01 -5.851401113173139157e-01 -8.613687722670499980e-01 -9.182417870587056274e-01 -9.147449271952052818e-01 -7.122246919052328540e-01 -6.913436288540224517e-01 -7.016415103382255269e-01 -9.988405151140741789e-02 -5.124676445905965161e-02 -8.304390891901590466e-02 -1.379542479289475876e-01 1.682325306212805183e-01 -6.082935928433118311e-02 1.387570893248004089e-01 -1.390725515212390961e-01 1.352534733587608395e-01 9.776050482688294907e-02 -5.378592285928399802e-02 -4.459437505450343162e-03 2.514928585221354665e-02 2.759948618340864190e-02 -3.992662954746527271e-02 -1.461254156960903050e-01 -1.692403129466563960e-01 1.734750735189424520e-01 8.368316963873225767e-01 -8.849402651816315468e-02 -3.826435274517952373e-02 -9.746583614431760800e-01 -9.582654407975935706e-01 -9.544887357755592605e-01 -9.753276950156352099e-01 -9.596958816492799915e-01 -9.561553765093768753e-01 7.715004478791163134e-01 -1.013961262835957333e-01 -3.649284827469276987e-02 8.498658134823413590e-01 -7.406770399096124224e-02 -4.854410456869235474e-02 -3.180189162179153373e-01 7.062979193353539076e-01 -8.051421692420108744e-01 -9.415618342412046538e-01 -9.773386620594198826e-01 -9.643779866727314465e-01 -9.604335036479293430e-01 -7.436461852949434181e-01 -9.359452091999816981e-01 -8.448356079058613188e-01 4.837290395768729101e-01 5.539390435187993011e-01 3.201323491985957892e-01 3.754745796038907457e-01 5.548790766799485130e-01 5.973771874793487591e-01 3.301463880150909969e-01 1.382593738884146384e-01 2.498610848480005975e-01 5.870584675780334688e-02 6.200660683288862322e-04 2.849975594603205899e-03 -6.419852314095918500e-01 -6.253556494942230648e-01 -8.119511332209793375e-01 -6.544109351079120396e-01 -6.197353323127260394e-01 -8.075566580644643055e-01 -7.439710902968741379e-01 -7.386501709472748090e-01 -8.665648684920351785e-01 5.354687212616869862e-01 6.811938341059446955e-01 7.926031561262577574e-01 -6.802171308442138686e-01 -8.757842275882458116e-01 -8.616996023127513338e-01 -9.635333779441747071e-01 -6.754212739232489104e-01 -6.939669893912078225e-01 -8.274532700282891673e-01 7.049883556933447815e-02 1.235073863104870287e-02 -6.252276723103793177e-02 -1.376128044318872257e-01 2.018981073930309900e-01 1.102466027182967545e-01 7.994610821895346831e-02 -1.595687902123369140e-01 1.512800725692365900e-01 1.783942590071894430e-01 2.601630871271521372e-01 -4.478634178908379865e-02 4.801425536976975522e-02 -2.737289752259629283e-02 1.211098314335539022e-01 -2.153976113832299366e-01 -6.174018329763741181e-02 1.699565833891445443e-01 -4.771826218031215844e-02 -4.724524631263463115e-02 8.935860031458661701e-02 -7.232784999938791648e-01 -7.377846030268536692e-01 -6.151944756932299363e-01 -7.338975224043172707e-01 -7.457014886848672974e-01 -6.020577931884814049e-01 -6.360907371753271589e-01 -7.735577089434798603e-01 6.311460364471336293e-01 7.713923821493080535e-01 5.596374530236903899e-01 -6.035444865229153688e-01 -9.138919320824749892e-01 -9.390310648435759022e-01 -8.746391726978830494e-01 -7.522620365897498829e-01 -7.577713101207854685e-01 -6.279812899627572609e-01 -1.699133653065276472e-01 1.121563880103536442e-01 2.291081373303239816e-03 -2.864734495042151607e-01 1.818808591287842669e-01 1.390359045743417843e-01 -1.662808867465937479e-01 1.921768681054351058e-01 -9.363411969930636458e-02 1.556827723839947220e-01 -2.090018971146430649e-01 1.624494162808705344e-01 -8.963523539670203988e-02 1.383781716115670968e-01 -1.957307911134933964e-01 6.892942874898896899e-02 -6.227621766909034046e-02 -6.167020283405872522e-02 -4.204154533305296676e-02 -6.890411354376277386e-02 -7.473072375874239004e-01 -8.456421953562924809e-01 -7.775620331439992983e-01 -7.513837154170317501e-01 -8.539450090495890322e-01 -7.906893862795081329e-01 -7.291458389337014401e-01 -8.658758375942797736e-01 -7.646801169558984368e-01 7.614989341338856965e-01 8.690749810264800645e-01 8.014889041076621590e-01 -8.114939750239633653e-01 -9.404054229238046902e-01 -9.776153023788433094e-01 -9.521926794203605660e-01 -7.677210565559395850e-01 -8.636154375287559137e-01 -8.185380174927403552e-01 9.181750784812241217e-02 9.186583086251086383e-02 9.716362442056551696e-02 -1.031643107237093515e-01 5.999388672626674440e-02 1.622303539605313150e-01 1.870405504899756155e-01 -1.732655275383483684e-01 2.144720578798352817e-01 7.146444541704241593e-02 1.598681475388561909e-02 -1.179495210183968829e-01 1.021967886842104767e-01 5.642708389718946449e-02 -5.086151489781241125e-02 1.612599559448128217e-01 -1.795910097553186924e-02 3.532761897724280478e-03 -5.780009883746816124e-01 -6.069764667717697515e-01 -6.677270613490230433e-01 -5.717840623687528989e-01 -8.208760458869336363e-01 -5.780009883746816124e-01 -8.287791928229719662e-01 -7.472786172317811282e-01 2.167415796411796269e-01 -2.460118805343122425e-02 1.392910207600417567e-02 9.464213950203729034e-03 -3.420793615464386150e-02 -5.780009883746816124e-01 -6.069764667717697515e-01 -6.677270613490230433e-01 -5.717840623687528989e-01 -8.208760458869336363e-01 -5.780009883746816124e-01 -8.287791928229719662e-01 -7.472786172317811282e-01 2.167415796411796269e-01 -2.460118805343122425e-02 1.392910207600417567e-02 9.464213950203729034e-03 -3.420793615464386150e-02 -6.794078789598435586e-01 -6.218522024137328463e-01 -6.529449054213205539e-01 -6.119146399385996249e-01 -8.249594908086425038e-01 -6.794078789598435586e-01 -8.865663898562784473e-01 -7.269671314802745865e-01 3.157415616571504491e-02 1.123921582453454165e-01 6.694513173203284206e-03 -1.472449419493258582e-01 -8.383560087101124547e-02 -6.135077070049279602e-01 -6.953290316035647400e-01 -6.687760213827078637e-01 -7.152992295945754808e-01 -6.458623439168699187e-01 -6.135077070049279602e-01 -8.738235878587855554e-01 -6.973325294592995771e-01 5.069528163278846922e-01 -8.258455345639945100e-02 -3.537525337197365560e-02 1.074112903608230307e-01 -4.953574379867579924e-02 -8.099153960085622161e-01 -8.207752894306435953e-01 -8.333244246658866317e-01 -8.266268079844472094e-01 -8.424077470151828395e-01 -8.099153960085622161e-01 -9.663552735299855145e-01 -8.473406456272520870e-01 2.597377216186279592e-01 2.784009902223801292e-01 -7.308755217191414966e-02 -1.077670509275110711e-01
2.841456876037593005e-01 -2.385316975991245980e-02 -1.221721668727816651e-01 -6.200138548489589896e-01 -4.912762695189389350e-01 -6.394532301335843494e-01 -6.544680079691114205e-01 -5.252248195325691649e-01 -6.412267346058186934e-01 -4.397968397910475002e-01 5.658472156359939387e-01 3.701613466029016752e-01 6.262741200986441381e-01 -5.722288589970749850e-01 -8.713405712777879675e-01 -9.196239793811897822e-01 -9.073497973276217765e-01 -7.326099911002919018e-01 -6.813917991497708826e-01 -6.795033193560381379e-01 -3.621045960919856005e-02 -5.199871036873868896e-02 -8.159786742587188391e-02 -1.805974775245388908e-01 1.675700389496339315e-01 -9.828367267297480336e-02 1.688134687988092630e-01 -1.149727858003749686e-01 7.984517093225662610e-02 1.082635823789113855e-01 1.287891043087853633e-02 -7.893712042014409958e-02 6.247163657459848390e-02 -4.138307740969266596e-02 3.365259383985589204e-03 -1.281721699532427927e-01 -2.759857053400174842e-01 6.001471147821786645e-02 8.129013150373254337e-01 -9.087032461603483657e-02 2.440239286874219815e-02 -9.679005782072287456e-01 -9.433218237601567191e-01 -9.392834503010644154e-01 -9.686994028140542001e-01 -9.445048743172141936e-01 -9.406110937787657278e-01 7.502615637563262441e-01 -1.004328084121431097e-01 2.912739973257680304e-02 8.244249633852895887e-01 -8.097711384301778392e-02 1.109041448670736695e-02 -2.381670166588781279e-01 6.618445483584891598e-01 -7.881540624183438482e-01 -9.172124326372940173e-01 -9.714541437379862199e-01 -9.496106953690998109e-01 -9.456517755185124274e-01 -6.311806902147210074e-01 -9.006472213579201913e-01 -6.332356860182647429e-01 5.427313464690246558e-01 6.190927341068717116e-01 4.318817095247947102e-01 4.925286886246322271e-01 5.889592843715170112e-01 6.269517666320416627e-01 4.275646867163788722e-01 -1.181073013628281820e-01 1.881631622105354729e-01 4.755042577304105511e-02 -8.592841688153987287e-03 1.756251456479169734e-02 -6.679190876167928614e-01 -6.448278669439250210e-01 -8.288888089084328614e-01 -6.819886240191331828e-01 -6.396601088290513326e-01 -8.243484221523309508e-01 -7.419658757914041614e-01 -7.570204539316292003e-01 -8.764565037887592780e-01 5.701324445513784589e-01 6.879294360526937435e-01 8.080541649497571255e-01 -7.036048556668643705e-01 -8.953434858922305617e-01 -8.808568598045917186e-01 -9.700024100301516405e-01 -7.062681484896001782e-01 -7.066068383817897258e-01 -8.383228420949564441e-01 1.122281394411527855e-01 5.808054840989929773e-02 -4.216878154296399561e-02 -1.709218256040095640e-01 2.007045774360234069e-01 1.032919395182669252e-02 1.285103985278860106e-01 -1.470075179591295855e-01 6.824435721954622003e-02 1.234821005248348952e-01 2.446933757438157775e-01 -9.945864707680381056e-02 5.778343810680205972e-02 -9.709256976862641608e-02 6.761794368154575019e-02 -1.974909045111080397e-01 -1.262759153482598262e-01 7.496557068184947492e-02 -8.713223590894618453e-02 -3.556080950256840928e-02 7.545683427308502722e-02 -7.105361100858087475e-01 -6.950024361336950562e-01 -6.373799197502086900e-01 -7.215434245972157656e-01 -7.006374274378343037e-01 -6.285416435144205449e-01 -6.471330549467465554e-01 -7.557952357024837475e-01 6.059869058258386953e-01 7.614634907993639290e-01 5.701084012732353656e-01 -5.792441429231051098e-01 -9.116258054065069505e-01 -9.262770427389386274e-01 -8.923771525628088064e-01 -7.399079443703536763e-01 -6.982274934693094570e-01 -6.575145345375351669e-01 -1.547444042671575204e-01 6.826386378972690294e-02 5.084489280424605434e-02 -3.605762916145025532e-01 2.638074374303953085e-01 8.109180316946967490e-03 -1.302812410783940437e-02 1.686906226267387565e-01 -5.221354962351308637e-02 1.775394973471700333e-01 -1.965947586804573655e-01 1.373757981629133429e-01 -6.507338493853852268e-02 1.641100818035612918e-01 -1.934911047489036584e-01 -1.664347130545162923e-01 8.074822810813866991e-02 -6.515803475307216375e-02 -1.471495115747501088e-02 -3.399760699680161313e-02 -7.517538722948753360e-01 -8.515847353269088149e-01 -7.929626032967128646e-01 -7.534384618489264884e-01 -8.605256720624785416e-01 -8.035897188163392268e-01 -7.375910153745477427e-01 -8.638058921209992302e-01 -7.826442518468408327e-01 7.738497636228233167e-01 8.763115779289761820e-01 8.208242442840354425e-01 -8.184109551397611426e-01 -9.472462884934873539e-01 -9.806455011802693855e-01 -9.598777304305882163e-01 -7.595627965595123099e-01 -8.700716087754574168e-01 -8.261223912234038069e-01 1.697705765950732193e-01 1.691326985725377652e-01 1.631613565663861676e-01 -2.014387734982012734e-01 1.182779288451140109e-01 5.141603011989003685e-02 1.458329216863772093e-01 -1.902999954539235095e-01 1.598460585704097603e-01 5.230169925607520975e-02 2.212888257389979477e-02 -1.188367495665781648e-01 6.318979997154741679e-02 4.854230833114824006e-02 -4.548864148939744251e-02 7.318643074001250637e-02 -3.623245114846582182e-02 -1.203868250741968286e-02 -5.635363795629170225e-01 -5.892351691667767621e-01 -6.532155144461392338e-01 -5.585685825910110536e-01 -8.143795124251943518e-01 -5.635363795629170225e-01 -8.350794085820492096e-01 -7.305328615111869039e-01 3.348366331556036357e-01 -1.716798548677846703e-01 1.100193837339279862e-01 -6.337136061198511694e-02 8.235816245246388445e-02 -5.635363795629170225e-01 -5.892351691667767621e-01 -6.532155144461392338e-01 -5.585685825910110536e-01 -8.143795124251943518e-01 -5.635363795629170225e-01 -8.350794085820492096e-01 -7.305328615111869039e-01 3.348366331556036357e-01 -1.716798548677846703e-01 1.100193837339279862e-01 -6.337136061198511694e-02 8.235816245246388445e-02 -7.026615112089329429e-01 -6.455962449940245707e-01 -6.764464772762517342e-01 -6.394134170196790201e-01 -8.465910185556394518e-01 -7.026615112089329429e-01 -9.040804798394102004e-01 -7.435534325675819955e-01 8.783625775960662851e-02 5.980181024790447164e-02 6.550946572024370085e-02 -1.911757525546749215e-01 -2.616011799332349647e-02 -5.866897792269785139e-01 -6.604258902304849244e-01 -6.316773867357153849e-01 -6.917811876269481797e-01 -6.276623277490698261e-01 -5.866897792269785139e-01 -8.693540903332556136e-01 -6.611237738433921596e-01 5.817532362772871446e-01 -1.329542582701487563e-01 -8.918774579194413757e-03 8.572157946641886794e-02 1.918828435499126545e-02 -8.166516539489815374e-01 -8.266876317940579089e-01 -8.400835779474988829e-01 -8.282110258218275955e-01 -8.433421119943528277e-01 -8.166516539489815374e-01 -9.708206224550698371e-01 -8.547040223782051971e-01 3.562319025567716180e-01 2.196411971418293918e-01 -8.908058190619214112e-02 -7.191430696416702129e-02
2.811739846690537448e-01 -1.894885230040707982e-02 -1.129268514546824670e-01 -7.127313045584354745e-01 -6.375485403955198915e-01 -6.789264015736040658e-01 -7.432736931294122718e-01 -6.621284305477338483e-01 -6.868328687977932612e-01 -5.351013939380433460e-01 6.290826824290279840e-01 4.534706984754801051e-01 6.186830771039240062e-01 -6.745928110359857843e-01 -8.928610964285734752e-01 -9.470729395161427977e-01 -8.953504205317236453e-01 -8.173630957136213127e-01 -7.624428113455916645e-01 -7.433501737229670780e-01 -1.529582016934483424e-01 -1.228982074564736876e-01 -8.812879747254465101e-02 -9.112594358633446801e-02 1.332191498126326090e-01 -3.019727754946179010e-02 9.285950596065838114e-02 -1.117116905838122648e-01 9.619139310051712244e-02 1.032901286662449430e-01 -1.219603153743628252e-02 -7.093085986713022761e-02 7.858454438093362415e-02 -5.277481176904433996e-02 -7.033851777075917321e-03 -1.193488103712784382e-01 -3.164879229047149467e-01 1.625461241063514417e-01 8.068833687454805004e-01 -5.240845383340772545e-02 -1.039517948020622640e-02 -9.745199714580735639e-01 -9.556523509642713687e-01 -9.474953572361553000e-01 -9.748748189929211660e-01 -9.565128717601312225e-01 -9.486611322223041931e-01 7.417458690773396368e-01 -6.627005066935537370e-02 -6.422854950022851596e-03 8.215353352643592899e-01 -3.871177708684984953e-02 -2.066789715970411903e-02 -3.031025521482920149e-01 6.596160689668751909e-01 -7.989053690886330772e-01 -8.996029919831926014e-01 -9.762307275761331615e-01 -9.591913760237188447e-01 -9.527108550866165704e-01 -7.620057961181516681e-01 -8.495735123228336239e-01 -7.265868538992561465e-01 4.359850282168335478e-01 5.202512407510918591e-01 3.674474509390819321e-01 4.170699335717739098e-01 5.532152689471460105e-01 5.995401839106313524e-01 3.113233776815048648e-01 -1.137408871569381245e-02 2.464355624711611070e-01 5.556723101335397930e-02 4.324714423466126216e-03 1.528120986156950023e-02 -7.126404998479437536e-01 -7.152342402652785980e-01 -8.240997464494135283e-01 -7.284288142214090378e-01 -7.175082285338448829e-01 -8.259495621160491963e-01 -7.331332102695299335e-01 -7.948510934088198754e-01 -8.454109949487119691e-01 6.720535004476876351e-01 7.536964834358561571e-01 8.074524449892611644e-01 -7.455228646961868932e-01 -8.934061379140868508e-01 -9.051373343657804771e-01 -9.574038932637668475e-01 -7.434739257266403945e-01 -7.769489174271688725e-01 -8.542860711272163288e-01 -9.675903610426447865e-02 -1.046552893916025684e-01 -1.686413720075945200e-01 -8.208498689173208962e-02 2.220624188178024760e-01 1.186157061453812361e-01 1.554201834272110061e-01 -1.468418980137715379e-01 1.125601271739146148e-01 1.271147637135019992e-01 2.796888840188141989e-01 -9.765089869478960072e-02 9.579536890789085157e-02 -8.681322438514726958e-02 9.850928493672651831e-02 -2.047538038659253434e-01 -2.103491857452845504e-01 6.936697339557627850e-02 -7.419473342115519288e-02 -5.065177874018492871e-02 1.077931380183780874e-01 -7.709882750616231517e-01 -7.532457971789157103e-01 -7.341114836331926741e-01 -7.787740972602377187e-01 -7.823364930473775125e-01 -7.338293653289217344e-01 -6.980380727068919988e-01 -7.265837977619967747e-01 6.573327901371092130e-01 7.515294596747950084e-01 6.451498014551284577e-01 -6.809278655965079752e-01 -9.324281197017699752e-01 -9.332521836558763662e-01 -9.220330318764681232e-01 -7.871720296095104930e-01 -8.197485430240228910e-01 -7.583322066378110904e-01 -1.499347947516068147e-01 1.567869523372374466e-02 -7.324858993013958451e-03 -2.881644161263300363e-01 1.964904246800044108e-01 3.974916623638392182e-02 1.769901137357516793e-02 1.567299191674152437e-01 -5.755798865199912573e-02 2.109716371634696996e-01 -1.404969262337580627e-01 9.604434901194312812e-02 -4.962887355887325713e-02 1.686017536072850764e-01 -1.664395814701149501e-01 -1.904369554193865305e-02 -9.167994364396701845e-02 -9.947133855200566976e-02 -3.674655634771475943e-02 -7.391250882424532653e-02 -8.047076825093945063e-01 -8.201212996514408715e-01 -8.320509230185182403e-01 -8.136179819681174097e-01 -8.461390379902541392e-01 -8.447348497698669023e-01 -7.972775002306647929e-01 -7.945537337853536553e-01 -8.155987007237215369e-01 7.813660393788802727e-01 8.445456876305573735e-01 8.354700999785302784e-01 -8.370332889698841594e-01 -9.595074610639793278e-01 -9.515329711474400654e-01 -9.670615032584563009e-01 -8.253515467747247758e-01 -8.709113784574319395e-01 -8.707113131383733551e-01 5.436294551327294777e-02 7.514832357931784668e-02 1.135619237620864169e-02 -1.444378536471422891e-01 7.776628674005160724e-02 4.485638628044510967e-02 1.707612315552553828e-01 -1.571517845039304695e-01 1.913091730430523663e-01 5.184388016603481975e-02 9.023572949092797946e-02 -6.734325293409633428e-02 5.301421940571566377e-02 5.789362434086196829e-02 -1.335539166325244893e-02 2.505435163287655573e-02 4.103011126936556563e-02 -9.154946531732849335e-02 -6.723233281432414721e-01 -6.346598909034866232e-01 -6.961107535442203620e-01 -6.085316545054810788e-01 -8.869737347781104786e-01 -6.723233281432414721e-01 -8.630401087137735683e-01 -7.817990174824358540e-01 1.663374651546812855e-01 -1.045649187852650958e-01 5.578618782499154827e-02 3.045177886615438117e-04 1.427889239106499598e-02 -6.723233281432414721e-01 -6.346598909034866232e-01 -6.961107535442203620e-01 -6.085316545054810788e-01 -8.869737347781104786e-01 -6.723233281432414721e-01 -8.630401087137735683e-01 -7.817990174824358540e-01 1.663374651546812855e-01 -1.045649187852650958e-01 5.578618782499154827e-02 3.045177886615438117e-04 1.427889239106499598e-02 -7.481706863246684325e-01 -6.751700351280334189e-01 -7.079118852996473255e-01 -6.739260357324025064e-01 -8.612075620546616461e-01 -7.481706863246684325e-01 -9.038784726294905036e-01 -7.810579324257670430e-01 -8.733811892885653960e-02 9.265977839054886922e-02 -4.093594453141395813e-03 -1.484322037868229804e-01 -1.754658304434197555e-02 -6.809344031381644458e-01 -6.970944281147375410e-01 -6.838550101501469358e-01 -6.962192911330232770e-01 -7.495203003611131676e-01 -6.809344031381644458e-01 -8.955316407452028615e-01 -7.160680558800346374e-01 4.745976455623636681e-01 -2.352796392989942725e-02 -7.732712762965474051e-02 9.598572266508935413e-02 -1.120382942646761318e-02 -8.293956912214424104e-01 -7.898930680432354468e-01 -8.222326071960029958e-01 -7.779209903084627342e-01 -8.586727594080493242e-01 -8.293956912214424104e-01 -9.551279377070902576e-01 -8.537578460248854695e-01 2.146080160330329500e-01 2.445323240783404961e-01 -9.541634662447852355e-02 -3.079902897867769704e-02
2.783736120015102844e-01 -1.799203885037579942e-02 -1.072642529796069416e-01 -8.856607017136920446e-01 -7.987420859694862596e-01 -8.393798309074155251e-01 -8.954876510330174177e-01 -8.087400336446389781e-01 -8.380041751784693682e-01 -7.970787263041935189e-01 7.518968767153013655e-01 5.791531277506324349e-01 7.535330625278209293e-01 -8.401988273658141937e-01 -9.645139287685063900e-01 -9.757659158813527522e-01 -9.684223299769705307e-01 -9.145611589782611794e-01 -8.606613566988585706e-01 -8.504738630576893499e-01 -2.582050037963021794e-01 -2.361167932028531702e-01 -2.124340133431806554e-01 3.139220416734450625e-02 6.822288740533209717e-02 2.362072616592150731e-02 5.960731485011144110e-02 -6.383011232556927428e-02 2.781637319966361044e-02 1.550764793357743976e-01 -2.655815031657102893e-02 1.255576007498291312e-02 5.780188082313004842e-03 -1.110189453232809237e-02 -3.389770170521774068e-02 -1.950524266304824381e-02 -2.605220837883120422e-01 8.681650598394700935e-02 8.112717037100609652e-01 -3.485804026418366786e-02 3.259264318649113257e-02 -9.777562132235376735e-01 -9.563054759060454213e-01 -9.404831404574366394e-01 -9.778747744280020804e-01 -9.566902857746650835e-01 -9.414217296082665332e-01 7.446832000763432546e-01 -4.907602066256706169e-02 3.793551234788065246e-02 8.271606660229635644e-01 -2.031460421057843316e-02 2.121299420715672818e-02 -3.943634688242953490e-01 6.747862168086449230e-01 -8.070444907935917511e-01 -9.091915476384604400e-01 -9.785658725827697246e-01 -9.585049078921783483e-01 -9.450739834217090074e-01 -8.564225115873383976e-01 -7.980422930859335517e-01 -6.505939292040380240e-01 3.802207345476535938e-01 4.594329431489767024e-01 4.390965728889499320e-01 4.743042012602294855e-01 5.882566522987278113e-01 6.118120796713361065e-01 2.551769898640649514e-01 5.179745993539754817e-02 3.582370769883518880e-01 6.940352034141954174e-02 9.687184754332691522e-03 1.245057162081454746e-03 -8.839449099179462754e-01 -8.561999642651031417e-01 -9.286778908736293969e-01 -8.892128488601354075e-01 -8.582135573798133077e-01 -9.284969059015426573e-01 -9.049563423503932391e-01 -8.892943750740760489e-01 -9.414834622687637822e-01 8.509961783455084472e-01 8.765363244171836543e-01 9.158849916614502096e-01 -8.899314040994732444e-01 -9.680756475298698538e-01 -9.602412296999052188e-01 -9.901037123320634015e-01 -8.949209002903527610e-01 -8.854087961653660521e-01 -9.349388808063345824e-01 -3.341553212462661793e-01 -3.254836864175368882e-01 -4.092276454589847678e-01 3.482019490177068466e-02 2.287167129971023616e-01 1.964165509517518948e-01 1.900358469543017292e-01 -9.118519799217303379e-02 5.339565562535375509e-02 1.185621240009045313e-01 3.212462372023498491e-01 1.492117975113296585e-03 5.224172324663645117e-02 -4.298425717152611764e-02 9.614534331814399148e-02 -7.993855219000585433e-02 -1.604056344583906779e-01 -3.454655467013159620e-02 -4.063313880230095404e-02 -6.639474798100633568e-02 6.757344132295316219e-02 -8.656538129068858112e-01 -8.769129854989676787e-01 -8.579165885602132446e-01 -8.732726225726881175e-01 -8.911564892717160902e-01 -8.574986996424597274e-01 -7.627263364806732282e-01 -8.597502018989537920e-01 7.399153374442453135e-01 8.373869760634167214e-01 7.180073414596995773e-01 -8.236928170572058727e-01 -9.717359827404981054e-01 -9.768823663879956376e-01 -9.652536902497994564e-01 -8.874999927209586970e-01 -9.063723486413821639e-01 -8.706028388629860615e-01 -1.888446888493330034e-01 -1.018144192365146167e-01 -2.024950744210156917e-01 -3.076361826371530328e-01 1.988740332537808353e-01 5.228703162287667849e-02 2.903138273800027341e-02 1.489978108728642614e-01 -7.924522149821607020e-02 2.232376042422089257e-01 -5.547939361221795873e-02 4.570318761068347529e-03 3.563251070828402783e-02 1.085242531608931471e-01 -1.949268580698641784e-01 6.464922140579686116e-02 -1.719997215693285508e-01 -9.323373675991328269e-02 -3.809081739690758223e-02 -5.336587756487150974e-02 -8.948880562467557143e-01 -9.329150966990761296e-01 -9.185947511896297435e-01 -9.006744992069295463e-01 -9.401842800169405434e-01 -9.242081496154563869e-01 -8.869301209832317623e-01 -9.365459341293637108e-01 -9.087187672043891551e-01 8.923476153395736299e-01 9.389933557862355507e-01 9.288849576314792689e-01 -9.262213395890680490e-01 -9.824695892187846891e-01 -9.927519976875126551e-01 -9.872192592838253677e-01 -9.096457847887655657e-01 -9.478111363881757123e-01 -9.344322357080351305e-01 -1.145860841165474014e-01 -1.012092051675669013e-01 -1.872877965794224331e-01 -1.660626831631869249e-01 5.616377558383774116e-02 4.278206020371732449e-02 1.493265575989954075e-01 -1.621142783232444595e-01 1.785537930747970181e-01 1.788950877383684371e-02 7.526739371086885177e-02 2.603502346797988490e-02 3.487503473060913636e-05 8.489697280997711426e-02 5.030567728645797543e-02 -1.541424915507728054e-02 2.567801110112931037e-02 -5.025379309221493507e-02 -8.359777378691322092e-01 -8.338075428414249979e-01 -8.560168663632350405e-01 -8.301796421947292837e-01 -9.378736985050426522e-01 -8.359777378691322092e-01 -9.518212233690439561e-01 -8.873144721154114789e-01 -4.466651030647426912e-02 -5.571364858719403401e-02 7.951143438550052969e-03 5.074401147211581725e-02 -3.447495194420387155e-02 -8.359777378691322092e-01 -8.338075428414249979e-01 -8.560168663632350405e-01 -8.301796421947292837e-01 -9.378736985050426522e-01 -8.359777378691322092e-01 -9.518212233690439561e-01 -8.873144721154114789e-01 -4.466651030647426912e-02 -5.571364858719403401e-02 7.951143438550052969e-03 5.074401147211581725e-02 -3.447495194420387155e-02 -8.895594062189868811e-01 -8.642914047751915074e-01 -8.788466192169631652e-01 -8.587590404131628663e-01 -9.343529250124024133e-01 -8.895594062189868811e-01 -9.695868645735066238e-01 -9.071991101497793863e-01 -3.616150367860419546e-01 1.526100605438369673e-01 -5.844582879297233885e-02 -1.317650055461037362e-01 -5.231461944388059171e-02 -8.234255855618575204e-01 -8.179521903086198753e-01 -8.071166873449455714e-01 -8.383781040212321400e-01 -8.712968778531463565e-01 -8.234255855618575204e-01 -9.583914654165162084e-01 -8.295159103418043856e-01 3.861246759893255942e-01 -1.413111321188435243e-01 1.605748984824948572e-02 5.780176206688156931e-02 2.170936045134863254e-02 -9.241391670074907694e-01 -9.156297294282209620e-01 -9.253789458119350275e-01 -9.147539927932210047e-01 -9.391181977718022766e-01 -9.241391670074907694e-01 -9.898418566068687419e-01 -9.374931833633521894e-01 -2.096216824452680830e-02 2.191946191119427401e-01 -8.764241614419250592e-02 -9.373721236724832928e-02
2.783669837849433448e-01 -1.923901515713766219e-02 -1.071287440090294835e-01 -9.398850154440386850e-01 -8.655046491224119842e-01 -8.886144460907074993e-01 -9.459839088896960790e-01 -8.711322398629735009e-01 -8.890378095854958307e-01 -8.661695875389988641e-01 7.925469438815446743e-01 6.213736773216065323e-01 7.836364537367808136e-01 -9.003855664554446525e-01 -9.848665972682564274e-01 -9.877609646330004489e-01 -9.816187221258051432e-01 -9.559979798053159783e-01 -9.022035844194726817e-01 -8.978786589391639650e-01 -3.275823961101779203e-01 -3.253006194052590616e-01 -2.749264753877288525e-01 5.779518301111075118e-02 5.956681416569422488e-02 1.855013387234274655e-02 7.812667323893887628e-02 -2.407625500359018150e-02 -4.569285415008885083e-03 1.781196947589704094e-01 -3.740920291606129877e-02 4.676102579480666960e-02 -1.465359616421725054e-02 9.600840497803742046e-03 -4.004924136600922918e-02 -2.535399387060929474e-02 -2.735643410378997831e-01 1.298902333853378943e-01 8.059281375385288770e-01 -4.309789835636602083e-03 4.015552908709707491e-02 -9.802958439143661939e-01 -9.594253498346138054e-01 -9.488560692647387551e-01 -9.802822170688445524e-01 -9.594367984656675397e-01 -9.502097604667001374e-01 7.384303001746829187e-01 -2.055607679780845770e-02 4.386612146724602063e-02 8.229439164595789835e-01 1.087866286997615263e-02 3.070291835862364385e-02 -4.130642415557776448e-01 6.675972989740864838e-01 -8.067606657047506902e-01 -9.048217255214546784e-01 -9.805173825036093138e-01 -9.600572515187525413e-01 -9.546742925409655856e-01 -8.740322344602213800e-01 -7.468921805628939703e-01 -6.637866275738882882e-01 3.611468545269136965e-01 4.451069338341045456e-01 4.385307840323316442e-01 4.660412144259545864e-01 5.662069702249544756e-01 5.862133136037083192e-01 1.648562206304473865e-01 -4.219487094509277031e-02 2.966072289039581311e-01 7.294640193567149267e-02 1.083254615669525245e-02 3.449162431577969951e-03 -9.341507375177007244e-01 -9.087391251900304168e-01 -9.520227252314169553e-01 -9.377316679335563343e-01 -9.110321212323881923e-01 -9.532435625668967960e-01 -9.407180113391153675e-01 -9.260810002209898251e-01 -9.548377205135368806e-01 9.154987471188300585e-01 9.218541621492486460e-01 9.426142703442454973e-01 -9.341728101195206913e-01 -9.861676233541550873e-01 -9.813824982854701950e-01 -9.951059122836642956e-01 -9.403854747931122970e-01 -9.277203437896901494e-01 -9.570436131594718399e-01 -4.444220572193396390e-01 -4.183292182240329060e-01 -4.960276126171676014e-01 4.900641970421352328e-02 2.391632657204487422e-01 1.872997283365783194e-01 2.023227573230323428e-01 -4.874609599581872232e-02 3.377036887550812633e-02 1.374413188498221639e-01 3.409740650192173983e-01 2.377599858071215502e-02 5.397146325648794624e-02 -3.857890358347686871e-02 1.364068979608079879e-01 -9.168508895407342929e-02 -1.449852633026462168e-01 -2.801919031087924533e-02 -3.636079902639983985e-02 -6.764560737861306794e-02 7.040751596221150876e-02 -8.992310003437795629e-01 -9.116376559258272394e-01 -9.067666700407986946e-01 -9.072002817902292682e-01 -9.259309326067821644e-01 -9.078811807670325029e-01 -7.936135794629811668e-01 -8.808672545562497014e-01 7.602395125695068367e-01 8.565657870885298175e-01 7.537099915303558939e-01 -8.750316914068400065e-01 -9.833485129906195388e-01 -9.861957280733243403e-01 -9.816057849039013794e-01 -9.201887905415864211e-01 -9.405991227660671639e-01 -9.170659793742403920e-01 -1.982267843123206863e-01 -1.395752132582298299e-01 -2.271905162934290956e-01 -2.872463821933799455e-01 1.873072972683482440e-01 4.752138858678893463e-02 5.995921708905493919e-02 1.506090085114951405e-01 -6.947205383839599735e-02 2.116645179168159530e-01 -3.081944555084735124e-02 -1.955064413849291402e-02 6.373938562392586493e-02 8.561750616664265401e-02 -2.399116700162760019e-01 5.649808610865636460e-02 -1.740841404271595561e-01 -9.744583130497269652e-02 -3.801670883715076166e-02 -5.082596482366993906e-02 -9.252900864784427970e-01 -9.520321251540326823e-01 -9.485207379628803892e-01 -9.335320582951753821e-01 -9.593145576416631792e-01 -9.525321317068130567e-01 -9.156957832329382097e-01 -9.516735167398027162e-01 -9.394786328764687111e-01 9.159669656179655339e-01 9.536749700573874389e-01 9.553470094239767674e-01 -9.512903935133707467e-01 -9.906619062630044326e-01 -9.959172554048137949e-01 -9.941590151781088958e-01 -9.423529338930036747e-01 -9.665427234335141060e-01 -9.590569970010621725e-01 -1.917071527416024657e-01 -1.774561647581088530e-01 -2.717289018077810314e-01 -1.568992656532782470e-01 5.230505380093915246e-02 2.790592503332128826e-02 1.645396045416759323e-01 -1.626387652270291917e-01 1.870315160639877683e-01 2.375423426936826982e-02 1.060496331245875529e-01 5.374318106035883696e-02 -1.398015187714168016e-02 1.030037515510301011e-01 6.948290922900066113e-02 -6.422717933514297817e-02 4.700236295764997560e-03 -4.705903352567067377e-02 -8.976746355027078739e-01 -8.879971007140584627e-01 -9.024751275591124111e-01 -8.884597586023407212e-01 -9.663447494550408967e-01 -8.976746355027078739e-01 -9.771379262124125775e-01 -9.220871794704443847e-01 -1.546697421658499993e-01 -1.517192334886429024e-02 -2.752452005364243795e-02 9.169386612998836616e-02 -7.090423222426366079e-02 -8.976746355027078739e-01 -8.879971007140584627e-01 -9.024751275591124111e-01 -8.884597586023407212e-01 -9.663447494550408967e-01 -8.976746355027078739e-01 -9.771379262124125775e-01 -9.220871794704443847e-01 -1.546697421658499993e-01 -1.517192334886429024e-02 -2.752452005364243795e-02 9.169386612998836616e-02 -7.090423222426366079e-02 -9.339894556116038471e-01 -9.159001721680625208e-01 -9.268521717151392281e-01 -9.097809765507812729e-01 -9.572291179091195756e-01 -9.339894556116038471e-01 -9.862315466598069458e-01 -9.450111192408989780e-01 -4.730221879982377531e-01 1.552957925376585446e-01 -4.282715372017935340e-02 -1.460026242807589414e-01 -6.491107377987320737e-02 -8.735716489098227511e-01 -8.519823300958734302e-01 -8.461681492205884725e-01 -8.681417237631540162e-01 -9.139213852798782067e-01 -8.735716489098227511e-01 -9.758663301971165493e-01 -8.648755623455808283e-01 3.055927476897574713e-01 -1.217104099332495110e-01 1.489399999421277482e-03 6.480042661398179027e-02 1.575969840641080338e-02 -9.494650571895046909e-01 -9.360611049007421247e-01 -9.458465476150297313e-01 -9.338533072955716996e-01 -9.615646110701921989e-01 -9.494650571895046909e-01 -9.945755098461872556e-01 -9.578793914746692728e-01 -1.190634337313156987e-01 2.267546600888517561e-01 -8.819083966300719779e-02 -7.383989602893858972e-02
2.785252931039102209e-01 -1.905812860713410398e-02 -1.069105921079195748e-01 -9.666164446076432881e-01 -9.077878134131260879e-01 -9.241934468266117531e-01 -9.704216236495877279e-01 -9.105031102849775460e-01 -9.231215756981153708e-01 -9.001615809370766552e-01 8.158593468977931584e-01 6.469510758346587176e-01 8.065852292588659989e-01 -9.347402737438450515e-01 -9.941236367207172409e-01 -9.938656531736366206e-01 -9.899466893447794735e-01 -9.758082782415181677e-01 -9.294682238458094048e-01 -9.266812313164606296e-01 -3.818849941371606493e-01 -3.963916515894783665e-01 -3.297003529460417748e-01 9.230415480783392412e-02 3.870414962018607630e-02 2.790460261895874247e-02 8.199871870756884895e-02 1.457413944694238746e-02 -2.899911803768554300e-02 1.785688344760101298e-01 -2.171316149227531939e-02 9.735169188698927778e-02 -5.012710921231351008e-02 4.400290093283137915e-02 -5.935754624578841454e-02 -5.843961621605451087e-03 -2.584383057702311359e-01 1.040720841049259798e-01 7.593237616038083226e-01 2.588144859175605522e-02 6.071321574351221800e-02 -9.837288126517300668e-01 -9.654290964537645126e-01 -9.592167025583711037e-01 -9.837103997000640199e-01 -9.653966505850793967e-01 -9.602441301660179507e-01 6.908081921836781714e-01 7.304570744394527602e-03 6.196337561522741177e-02 7.784096896008418920e-01 4.248195213607412757e-02 5.406778589765632442e-02 -4.115046588948276240e-01 6.105857490723258785e-01 -7.836936679863596433e-01 -8.709694422814598935e-01 -9.838265564259723872e-01 -9.657722048198236209e-01 -9.634988200587990548e-01 -8.960691910383253855e-01 -7.488094796489003224e-01 -6.945433225003746491e-01 3.545328285073318653e-01 4.382618979829763228e-01 4.147216752216734692e-01 4.372564269634289791e-01 5.203918677879896260e-01 5.383409289210909776e-01 8.083444322937263782e-02 -7.086007092120526207e-02 2.747583118642290545e-01 7.465427832628913907e-02 1.199113491850841047e-02 2.937069845771625963e-03 -9.604953364866358756e-01 -9.403994041006868976e-01 -9.688619934264527389e-01 -9.625587111735078860e-01 -9.414512407311345088e-01 -9.683497928248309128e-01 -9.620415116255385257e-01 -9.511656480342092213e-01 -9.720833503901601391e-01 9.505900897722860954e-01 9.497594853077189203e-01 9.614518266826823645e-01 -9.586672182560961319e-01 -9.944468294528869823e-01 -9.917354185295493840e-01 -9.977570738683037010e-01 -9.632681144597915468e-01 -9.514448594743277754e-01 -9.691622053687736216e-01 -5.226182183138032844e-01 -4.991650825419036708e-01 -5.607747678064322061e-01 7.776864301549225866e-02 2.381030376332775034e-01 1.953765333136485705e-01 2.118390304003985314e-01 -1.201505294477100104e-02 2.401659456025807826e-02 1.504950848155242049e-01 3.321219712863751061e-01 6.894768211466813235e-02 4.171066375115819319e-02 -1.232574582394801305e-02 1.647534157426249202e-01 -7.044560811553367274e-02 -8.910595878181448715e-02 -5.284588995856667748e-02 -3.317014078858571829e-02 -7.186282020436594864e-02 6.901693559935287436e-02 -9.277263497177024032e-01 -9.411559372993629768e-01 -9.365523551770894572e-01 -9.318483331385724044e-01 -9.497708944301935796e-01 -9.380984099153210076e-01 -8.203428717975976836e-01 -9.097471750864699613e-01 7.911349638775063697e-01 8.760410410944454718e-01 7.755932816907799010e-01 -9.126114582031584765e-01 -9.901680632562186446e-01 -9.927352036755067166e-01 -9.905466852862506721e-01 -9.412334654592874328e-01 -9.595416907386110639e-01 -9.451244215965680651e-01 -2.384266600097330324e-01 -1.975291732188975691e-01 -2.977507343571381138e-01 -2.579432420163583206e-01 1.568251745579717638e-01 7.269604538573277985e-02 5.073553175241417995e-02 1.336574557785147610e-01 -5.952334109009754098e-02 2.014844801915802452e-01 -3.140591467649480641e-03 -4.186682958247243957e-02 8.096708766582474959e-02 8.321369786302322547e-02 -2.378299622187184104e-01 5.239420683320049343e-02 -1.961428897733870358e-01 -9.839318132915904347e-02 -3.826251742862660926e-02 -5.067238181184808427e-02 -9.536963710637518243e-01 -9.689857317997879749e-01 -9.660353788251401230e-01 -9.571590970927130737e-01 -9.730291035803503297e-01 -9.686578572706376900e-01 -9.496903226140390730e-01 -9.691457271692240916e-01 -9.586534461506553972e-01 9.510682375151037204e-01 9.708637410248938115e-01 9.710868293595421585e-01 -9.683354421931186229e-01 -9.959560339869969470e-01 -9.980182891564102210e-01 -9.974397197286288819e-01 -9.616549740569445559e-01 -9.773613008471407904e-01 -9.726851127584481560e-01 -2.795555869533855042e-01 -2.581565071262232336e-01 -3.484546170252507125e-01 -1.243413348775722904e-01 2.353615495962484150e-02 5.566041793068002286e-02 1.464142463712601872e-01 -1.338680964609454682e-01 1.862346844914521127e-01 3.646230781315801250e-02 1.157349003676377691e-01 8.298146658321108038e-02 -3.457761069099836437e-02 1.250756587232854378e-01 5.497368266370514234e-02 -4.772082572483241775e-02 3.997866669907569614e-03 -5.704477806011901131e-02 -9.330162890010971211e-01 -9.268707459022580419e-01 -9.348488954014838592e-01 -9.285364282833471483e-01 -9.788530594287315756e-01 -9.330162890010971211e-01 -9.896196636288797643e-01 -9.449715739801736181e-01 -2.611229777213782133e-01 9.806377213326148215e-03 -4.834121211588843225e-02 1.272906599593039700e-01 -1.185418380962239143e-01 -9.330162890010971211e-01 -9.268707459022580419e-01 -9.348488954014838592e-01 -9.285364282833471483e-01 -9.788530594287315756e-01 -9.330162890010971211e-01 -9.896196636288797643e-01 -9.449715739801736181e-01 -2.611229777213782133e-01 9.806377213326148215e-03 -4.834121211588843225e-02 1.272906599593039700e-01 -1.185418380962239143e-01 -9.586592371784334876e-01 -9.497625452597383555e-01 -9.556140682125789931e-01 -9.468286307800468649e-01 -9.686360474641164675e-01 -9.586592371784334876e-01 -9.941704078366787600e-01 -9.656318018294104411e-01 -5.686333249882205010e-01 1.953550743266707079e-01 -8.258104986463098152e-02 -1.204794945818210422e-01 -1.020780057718584377e-01 -9.108492533765132348e-01 -8.937193670672268775e-01 -8.858271403184131421e-01 -9.111123217663669172e-01 -9.458263768392857207e-01 -9.108492533765132348e-01 -9.865507158184529946e-01 -8.968536666453218453e-01 2.017108758018641146e-01 -8.756702940027297211e-02 -3.556208504223180161e-02 9.741315224857609312e-02 -8.064193074329895419e-03 -9.670147362029439808e-01 -9.603338899389610717e-01 -9.654128157821643130e-01 -9.589568860529457117e-01 -9.735373329755131477e-01 -9.670147362029439808e-01 -9.975074424478931334e-01 -9.715878738095932166e-01 -2.323948031509586731e-01 2.555571151237497896e-01 -8.355641185628634449e-02 -8.149282341989891321e-02
2.768415446468773244e-01 -1.869091167964776617e-02 -1.068166600122980731e-01 -9.735540825132212861e-01 -9.313112975909294544e-01 -9.441392504300285538e-01 -9.766470861116564040e-01 -9.322434645301731493e-01 -9.433440020817648319e-01 -9.096473796725897953e-01 8.231940566545276061e-01 6.601752435419225851e-01 8.183764937740004575e-01 -9.501965535348999570e-01 -9.953010414836406250e-01 -9.958943261771942002e-01 -9.940364347992092231e-01 -9.804177036011925139e-01 -9.448295629005993845e-01 -9.447699074604741787e-01 -4.403669228253147550e-01 -4.572645424528883895e-01 -3.708374041850693859e-01 1.138586352430853016e-01 2.166001783013607809e-02 3.558200305464895991e-02 8.263096733619361423e-02 6.702010872336185143e-02 -6.111673734201394231e-02 1.928572397963975449e-01 -1.758967500639234058e-02 1.249615124268615568e-01 -6.336668907526035732e-02 6.011543281087506491e-02 -7.772901035972266948e-02 -1.764246003059052534e-02 -2.508688293355243459e-01 8.345620191093482132e-02 7.175876254419383260e-01 7.690032923585760072e-02 6.842828278358975558e-02 -9.861141094720701217e-01 -9.727902632329966659e-01 -9.670829160097799138e-01 -9.861310099910807203e-01 -9.728713302034214250e-01 -9.679298037987711378e-01 6.484481748958879077e-01 5.510095645499234890e-02 6.741383508565015892e-02 7.382496777292484325e-01 9.481403192524198720e-02 6.339759894795840567e-02 -3.820832600439713622e-01 5.411685483335162417e-01 -7.220004105630681845e-01 -8.648310530310002742e-01 -9.863012670019463135e-01 -9.735132652491044203e-01 -9.704564844664789192e-01 -8.872330064491331658e-01 -7.675478815149756606e-01 -7.123777913083505497e-01 3.533649786644837976e-01 4.331604794343484333e-01 3.845358628155455816e-01 4.078160364439163410e-01 4.797823170439229901e-01 4.963010274553524281e-01 2.699667844248024653e-02 -1.255092027361959517e-01 2.358759624970643565e-01 7.470115856584305658e-02 1.464873446707344075e-02 1.187515273699058741e-03 -9.700211017302773353e-01 -9.553710430098570905e-01 -9.756090332028852785e-01 -9.709509534956903831e-01 -9.550437971353222810e-01 -9.747058715844626464e-01 -9.713088088107071361e-01 -9.651256237793884862e-01 -9.786164920187212513e-01 9.638220642770887192e-01 9.627681449180169881e-01 9.690286454600345323e-01 -9.683317480466188121e-01 -9.965274804999297853e-01 -9.951079955207550176e-01 -9.985924805916709390e-01 -9.701526571235257190e-01 -9.616621859132840067e-01 -9.744059732374332761e-01 -5.754708476861661870e-01 -5.581184565671045705e-01 -6.040131410430836789e-01 9.700361470397050878e-02 2.346387320467844262e-01 1.991180511065848147e-01 2.211185789700666759e-01 3.771172675935974272e-02 8.349126982715775191e-03 1.865187291469549147e-01 3.261297359105223559e-01 9.251296790511767676e-02 4.866158415544986210e-02 5.512815757235135609e-03 1.856454761832913858e-01 -7.684155435825738845e-02 -3.888570408192682654e-02 -5.063173106751634595e-02 -3.165652696209527578e-02 -7.189654890992487613e-02 7.501862947830935380e-02 -9.447171905520788115e-01 -9.569827289436508844e-01 -9.511618150640505087e-01 -9.477288007769122391e-01 -9.620052627451102234e-01 -9.526159365491344566e-01 -8.360960267525111567e-01 -9.241509249251378399e-01 8.050378223034556635e-01 8.878353753563611450e-01 7.897319779425003849e-01 -9.344270201968915002e-01 -9.929593377372479823e-01 -9.957337481519230593e-01 -9.938189783223138063e-01 -9.555731486697234267e-01 -9.683288954027328144e-01 -9.581094287295254253e-01 -2.794072854486790991e-01 -2.386985680589929215e-01 -3.376098632501272068e-01 -2.177016959749821512e-01 1.271106769307899231e-01 9.577650238973449415e-02 3.789085662911450408e-02 1.217581058418778367e-01 -4.475554419113255550e-02 1.825856034813267970e-01 3.510557955600653729e-02 -6.521177707502208432e-02 9.068198458742694756e-02 7.975081764368799342e-02 -2.416534898884463156e-01 1.927366918217850861e-02 -1.957960487329858668e-01 -9.599705896133213512e-02 -3.918588662565875708e-02 -5.265092130686883920e-02 -9.655164863312830636e-01 -9.770276538140729716e-01 -9.736882242483881900e-01 -9.674460250266153638e-01 -9.796464845562343760e-01 -9.756451070245089063e-01 -9.629965529650961198e-01 -9.769364952925312373e-01 -9.676146545667709820e-01 9.653834144491222347e-01 9.789403272251071542e-01 9.777925742580106938e-01 -9.760755569724719471e-01 -9.974750281798521190e-01 -9.989420860248228173e-01 -9.983930941047116647e-01 -9.701282153802935904e-01 -9.823413320314446917e-01 -9.784111410976339407e-01 -3.440173369404119219e-01 -3.172412566270969569e-01 -4.059656782540905784e-01 -8.632565376713746685e-02 8.039237742358340891e-03 8.515203715503469328e-02 1.484293914123840652e-01 -1.087131174032172215e-01 1.905798691233240028e-01 5.700598405271282282e-02 1.308939258059107213e-01 1.244359817195162948e-01 -4.392283032981242341e-02 1.523428246337920622e-01 4.221513527311403918e-02 -3.927183000979853761e-02 -9.341401454107894995e-04 -6.992176853725307062e-02 -9.489035411986422863e-01 -9.468101946770944854e-01 -9.522723239274397677e-01 -9.461554037126167493e-01 -9.824281479270232653e-01 -9.489035411986422863e-01 -9.926884365215928874e-01 -9.576131053201080157e-01 -3.491727780273851667e-01 3.937129118948340389e-02 -6.843915153304905297e-02 1.498659450989298925e-01 -1.516223106624983441e-01 -9.489035411986422863e-01 -9.468101946770944854e-01 -9.522723239274397677e-01 -9.461554037126167493e-01 -9.824281479270232653e-01 -9.489035411986422863e-01 -9.926884365215928874e-01 -9.576131053201080157e-01 -3.491727780273851667e-01 3.937129118948340389e-02 -6.843915153304905297e-02 1.498659450989298925e-01 -1.516223106624983441e-01 -9.683003825956596478e-01 -9.642482755130841188e-01 -9.676943346833277726e-01 -9.623658255498088732e-01 -9.729517115995363064e-01 -9.683003825956596478e-01 -9.964296061975049801e-01 -9.735376352740561234e-01 -6.314527154686627730e-01 2.045209122270464364e-01 -9.407201936404938070e-02 -1.203487043428074499e-01 -1.033978650856953313e-01 -9.330256876876756866e-01 -9.196908121798966773e-01 -9.131594315246455151e-01 -9.337020845482920661e-01 -9.606827345738879753e-01 -9.330256876876756866e-01 -9.910076367071808390e-01 -9.228132437010168054e-01 1.015216009842867945e-01 -4.720233235973706615e-02 -7.395120555631509718e-02 1.295642150390207692e-01 -3.549733900805681491e-02 -9.752053444795076853e-01 -9.716793596675271649e-01 -9.748856116801875027e-01 -9.708897156998567146e-01 -9.777386585606012703e-01 -9.752053444795076853e-01 -9.985621626911045379e-01 -9.787148391926545621e-01 -3.161902121130663601e-01 2.762117853393868949e-01 -7.607411997045576690e-02 -7.222014987603976588e-02
2.759556542078920316e-01 -1.844571658416886348e-02 -1.067519772341954248e-01 -9.834856759323736819e-01 -9.544386784381762023e-01 -9.604221741167658921e-01 -9.853727851338227595e-01 -9.551418870788812576e-01 -9.597720476813200730e-01 -9.232702499092343418e-01 8.324345450126923174e-01 6.711925722032937580e-01 8.261453989768610118e-01 -9.663814340226382082e-01 -9.987688578460024447e-01 -9.983076176681459080e-01 -9.971684680820789293e-01 -9.875507269595379389e-01 -9.637788888381114694e-01 -9.598857029925030870e-01 -4.858375572914852003e-01 -5.107607744413672490e-01 -4.053598853745181696e-01 1.265720842615975505e-01 2.699163504429764535e-03 4.281453267522970785e-02 7.393244372879356763e-02 1.099202578369014721e-01 -8.186225723510896779e-02 1.950003521641607007e-01 -2.206933404277564015e-03 1.436387065082999070e-01 -6.905433455821588518e-02 7.226887740100002011e-02 -9.978449422758770004e-02 -1.949174986557564854e-02 -2.608580195442865013e-01 5.872781716711754363e-02 6.344156803080661655e-01 1.446262745819264783e-01 9.500902113152297213e-02 -9.868443940706651540e-01 -9.793039257621947158e-01 -9.724372232711863129e-01 -9.869133424964412482e-01 -9.795098039771749088e-01 -9.730968041524372669e-01 5.654711585643868998e-01 1.193460890341431629e-01 9.217570791559270837e-02 6.570771929141817624e-01 1.633187863862285150e-01 9.100819066081680675e-02 -3.294099812482924605e-01 4.201593170517112230e-01 -6.395225957201513545e-01 -8.261772434644665264e-01 -9.872021306786232797e-01 -9.804069224483442646e-01 -9.750486795618340530e-01 -8.709053275938237748e-01 -7.865475387178018085e-01 -7.258371228647991780e-01 3.643399501256535666e-01 4.333080822846233082e-01 3.535412992331414261e-01 3.791840706745588929e-01 4.432756528767577420e-01 4.581911412783955528e-01 1.701874566097412358e-03 -1.785273146244985842e-01 2.155646452667019930e-01 7.555827276735260778e-02 1.298336082206466395e-02 -8.140259906001863651e-05 -9.800935541104749404e-01 -9.692795808771323962e-01 -9.815393964489613765e-01 -9.808710248175085411e-01 -9.686157365020245935e-01 -9.804288074315907764e-01 -9.796505785790305953e-01 -9.756981272206128875e-01 -9.833364596075768738e-01 9.756792740206660097e-01 9.749345949319815352e-01 9.764311203411930595e-01 -9.784172804705995041e-01 -9.987788407734666807e-01 -9.979643756313157921e-01 -9.992647779903683913e-01 -9.801172996558750183e-01 -9.727162760380397843e-01 -9.794499442124411370e-01 -6.240440501763545589e-01 -6.182157743457992183e-01 -6.442074637983662422e-01 1.158156516646106915e-01 2.256590452839314087e-01 2.019178178178925032e-01 2.247509926606630071e-01 7.470375671012642604e-02 3.747845548174040965e-03 2.097788765160702451e-01 3.192438687382730955e-01 1.107574598421897927e-01 6.029681323661939540e-02 2.452270990902858869e-02 2.025392199156003104e-01 -8.705957942193520704e-02 -7.658719840281045729e-03 -4.609838865348858672e-02 -2.670128651574659243e-02 -7.420547282788532428e-02 8.178212036964022102e-02 -9.605147652720521512e-01 -9.697218588946279194e-01 -9.656097640097391910e-01 -9.626509946649377536e-01 -9.727778654183844020e-01 -9.670990011271306530e-01 -8.481544308707644753e-01 -9.349267364075782849e-01 8.201632466720196746e-01 8.956104279496182041e-01 8.026549830739542202e-01 -9.543810776945809149e-01 -9.961928620900480924e-01 -9.982460465733308252e-01 -9.970946450453198606e-01 -9.688446626637615688e-01 -9.772320875733332413e-01 -9.720329382736817569e-01 -3.090147526510412801e-01 -2.714024431247077929e-01 -3.722595863785901904e-01 -1.747498228921549879e-01 9.457873959205211067e-02 1.185682527587632595e-01 2.875640043705635085e-02 1.056759251033078245e-01 -2.298031852259514729e-02 1.597063741117445423e-01 7.493348894509212210e-02 -9.089972929720074868e-02 9.827232600015232966e-02 8.437321048886134434e-02 -2.503060985252062998e-01 8.671820075038761885e-03 -2.161913162054559523e-01 -9.561652673347278975e-02 -3.984776600063571345e-02 -5.337576708793355384e-02 -9.763811086000445671e-01 -9.829098772222084612e-01 -9.813175578805959365e-01 -9.777423450873189426e-01 -9.847424807688868187e-01 -9.827870600690026270e-01 -9.736803412908587863e-01 -9.827431441893620390e-01 -9.765284604907501498e-01 9.761976915955369316e-01 9.843702153514890529e-01 9.834253395588270497e-01 -9.830916218188155975e-01 -9.989742882172379934e-01 -9.995071966772132166e-01 -9.993163647050481435e-01 -9.796027368398035895e-01 -9.866371408141334509e-01 -9.846285545202109191e-01 -4.071337915751574998e-01 -3.673442062315042667e-01 -4.614402985538892943e-01 -4.789432085725567334e-02 -6.529968345085970793e-03 1.077396934605902301e-01 1.590859372969002927e-01 -8.180317748134811884e-02 1.897150215387450878e-01 7.964511507316181238e-02 1.487565060631863834e-01 1.650099593158518840e-01 -5.385893945889030227e-02 1.718055201079959349e-01 3.729849006348215368e-02 -3.864439257238278663e-02 7.168042065226270902e-03 -8.791365500881762052e-02 -9.657427707453628551e-01 -9.647783661708877467e-01 -9.683167146080942089e-01 -9.629977303352990070e-01 -9.878625467558075357e-01 -9.657427707453628551e-01 -9.974363102889858279e-01 -9.709005181318044464e-01 -4.235393594838146591e-01 6.351125762407788811e-02 -8.360555886628223687e-02 1.650742723552984514e-01 -1.774276809078323691e-01 -9.657427707453628551e-01 -9.647783661708877467e-01 -9.683167146080942089e-01 -9.629977303352990070e-01 -9.878625467558075357e-01 -9.657427707453628551e-01 -9.974363102889858279e-01 -9.709005181318044464e-01 -4.235393594838146591e-01 6.351125762407788811e-02 -8.360555886628223687e-02 1.650742723552984514e-01 -1.774276809078323691e-01 -9.784564305046714594e-01 -9.762931730280742793e-01 -9.785377082884624267e-01 -9.747100843682214855e-01 -9.775388547242170878e-01 -9.784564305046714594e-01 -9.985782849154779539e-01 -9.823897203475991935e-01 -6.897617649973659670e-01 2.129454674671968639e-01 -1.092869257657372167e-01 -1.261481692232053475e-01 -8.892908613561184561e-02 -9.532382116263501404e-01 -9.414951042441662699e-01 -9.365401599784662912e-01 -9.526595971854060485e-01 -9.737412809573467998e-01 -9.532382116263501404e-01 -9.955364679881594236e-01 -9.452763116587953318e-01 1.765721440318337651e-02 -9.691480282477632144e-03 -1.102109369153583540e-01 1.608611215755678947e-01 -6.158494743104449276e-02 -9.825239998193867619e-01 -9.799203777480095523e-01 -9.821349454620711406e-01 -9.791195057348325292e-01 -9.839000890789041387e-01 -9.825239998193867619e-01 -9.993719499320288246e-01 -9.847612778105508946e-01 -3.870428485123799667e-01 3.003352280944197039e-01 -6.267940926945728131e-02 -6.204788649728336380e-02
2.753322267390443945e-01 -1.846679584056382800e-02 -1.070869745229986320e-01 -9.840921143064373933e-01 -9.614208394309358141e-01 -9.652117273473850290e-01 -9.857605647554291695e-01 -9.620788738182571853e-01 -9.648035298676951310e-01 -9.250436123703894564e-01 8.331573278869178756e-01 6.742059138656332218e-01 8.283087664671429096e-01 -9.699874094911687950e-01 -9.990219073689409202e-01 -9.987655301486406678e-01 -9.979583792993326208e-01 -9.876856569317064016e-01 -9.696965434793579641e-01 -9.649512934947024334e-01 -4.943133061659574223e-01 -5.346236919816023114e-01 -4.251086829105042986e-01 1.183498467893048661e-01 -3.705047083265645622e-03 4.425637432906478347e-02 6.368758006237269786e-02 1.336820252430017397e-01 -9.024555220622347551e-02 1.939213055620603587e-01 1.177101041025110581e-02 1.482311692833316596e-01 -6.779087949452260176e-02 7.463922361302707809e-02 -1.090443251789962736e-01 -2.204662938347435111e-02 -2.734046261523311316e-01 3.077606087589873640e-02 5.448463244703682928e-01 2.107681431963064067e-01 1.258948578546426611e-01 -9.858548898833778829e-01 -9.828360035800244310e-01 -9.743093280575442217e-01 -9.859657987157176562e-01 -9.830808358526096358e-01 -9.748539373248061857e-01 4.767238528187885960e-01 1.827115799399346985e-01 1.221709379485903524e-01 5.690854660299333734e-01 2.294007317003534663e-01 1.222258781363101399e-01 -2.732834860874272520e-01 2.898004595972573649e-01 -5.549766206463321305e-01 -7.793239813580896680e-01 -9.864023132952413064e-01 -9.840032341682786177e-01 -9.764445045672909274e-01 -8.393296667866861904e-01 -7.940009646789112363e-01 -7.256743140139217951e-01 3.841186889369514468e-01 4.432574468374468890e-01 3.257131631138302508e-01 3.559253767638738131e-01 4.223627041980139718e-01 4.361476624892197118e-01 -1.594775269789520597e-02 -2.199219920488975633e-01 1.876985621306723473e-01 7.560149055223228109e-02 1.245089270701340081e-02 -1.022605677637324507e-03 -9.821231088358528538e-01 -9.730638759431626816e-01 -9.828339555301413011e-01 -9.826978159045205441e-01 -9.723162579950127560e-01 -9.817934924408567854e-01 -9.817939627620893006e-01 -9.790107942645693839e-01 -9.842786174928438436e-01 9.783775375081940062e-01 9.776330788624125745e-01 9.776913943857881151e-01 -9.807262344940401722e-01 -9.990737070455740776e-01 -9.984712740450895074e-01 -9.993767749659223654e-01 -9.817147553771651269e-01 -9.758658845376628754e-01 -9.808127212584101251e-01 -6.382304851043142380e-01 -6.429107096763312379e-01 -6.583983491399862942e-01 1.161353499494113678e-01 2.179943085556729221e-01 1.968337516168494616e-01 2.231946079327794541e-01 9.229334450529731726e-02 4.076980704382510666e-03 2.221929461393208627e-01 3.149331962052315248e-01 1.151985304191902593e-01 6.812812894884757997e-02 3.187374771544124186e-02 2.065255772981838267e-01 -9.538532778284360136e-02 5.989082374057734179e-03 -4.599562206277896942e-02 -2.520981433028770397e-02 -7.547988144339563832e-02 8.768384770135795314e-02 -9.668454444294448669e-01 -9.731369794506640192e-01 -9.701719565631679032e-01 -9.686697291656737319e-01 -9.754099359083165943e-01 -9.717313704179705303e-01 -8.534765159912259813e-01 -9.382902841129233673e-01 8.249530760517010952e-01 8.976440629863745579e-01 8.080660392790898205e-01 -9.609503420095457660e-01 -9.971390737831881124e-01 -9.988428783582727899e-01 -9.977780993051520442e-01 -9.738771694454889660e-01 -9.791027111821137829e-01 -9.763977293237240396e-01 -3.314752570358762140e-01 -2.845593286891417995e-01 -3.734567904080808853e-01 -1.445794204125852855e-01 7.478238511986178005e-02 1.263361045947403727e-01 3.019925074237153964e-02 9.919692495806341215e-02 -1.146367266256179997e-02 1.462580072420625044e-01 1.000774683764574235e-01 -1.055747492336607668e-01 1.015194633343675518e-01 8.722812456692967398e-02 -2.587890965580800229e-01 1.249166465437711974e-02 -2.247318558795426413e-01 -9.572484037606274199e-02 -3.994446886752493764e-02 -5.546755602210572816e-02 -9.794757439291207346e-01 -9.842553848258986937e-01 -9.833823803792893781e-01 -9.806735552983606441e-01 -9.858914610088223007e-01 -9.847687642058785551e-01 -9.768978155925999163e-01 -9.841487664960639759e-01 -9.785653595380687797e-01 9.793345704191669387e-01 9.856447474202774117e-01 9.849006663767095882e-01 -9.849284767051462719e-01 -9.992621026054622213e-01 -9.996435150109810319e-01 -9.994663109365674591e-01 -9.823187608603211052e-01 -9.875899116320183690e-01 -9.863946781054768742e-01 -4.354935225647608155e-01 -3.795723941607787588e-01 -4.859902703693561032e-01 -2.325061671185214146e-02 -1.000217551685197125e-02 1.153703772909350361e-01 1.715014228493722814e-01 -6.910258963542724453e-02 1.926314568703386410e-01 9.201476290931491497e-02 1.616320489816507611e-01 1.899432292665562128e-01 -5.546935380585008013e-02 1.802239921433278214e-01 4.317867446985379498e-02 -4.083475195686222387e-02 2.249673025138509974e-02 -9.975561483292311182e-02 -9.695982113911232325e-01 -9.691321271609496524e-01 -9.723189109061946001e-01 -9.666814848591853693e-01 -9.884368894458741561e-01 -9.695982113911232325e-01 -9.980842848035709203e-01 -9.742842961251054756e-01 -4.490791928915399689e-01 7.236742354399172683e-02 -8.769716088710975688e-02 1.679209767066382752e-01 -1.866384083158344753e-01 -9.695982113911232325e-01 -9.691321271609496524e-01 -9.723189109061946001e-01 -9.666814848591853693e-01 -9.884368894458741561e-01 -9.695982113911232325e-01 -9.980842848035709203e-01 -9.742842961251054756e-01 -4.490791928915399689e-01 7.236742354399172683e-02 -8.769716088710975688e-02 1.679209767066382752e-01 -1.866384083158344753e-01 -9.807892493961615221e-01 -9.791027662403268828e-01 -9.810042331231932922e-01 -9.776959756044847349e-01 -9.786849246347052445e-01 -9.807892493961615221e-01 -9.989030162043033290e-01 -9.843630966362013623e-01 -7.086027146818619782e-01 2.089516038752972371e-01 -1.163049072677439510e-01 -1.314140975046807769e-01 -6.699288937229341823e-02 -9.600990509520163085e-01 -9.501823837744077794e-01 -9.460959646170593595e-01 -9.593516252842714254e-01 -9.769183170893526169e-01 -9.600990509520163085e-01 -9.967242721954681084e-01 -9.542477781840943418e-01 -2.199457357394628276e-02 1.927533404939563155e-02 -1.386546590137107682e-01 1.863435650685336675e-01 -8.254373895578209774e-02 -9.844554798935800655e-01 -9.821306518066684754e-01 -9.840194077129920114e-01 -9.814163893960418106e-01 -9.854548296810534680e-01 -9.844554798935800655e-01 -9.995420637992992186e-01 -9.863278539603450579e-01 -4.097026320070684124e-01 3.191884412118235481e-01 -5.267019896434352311e-02 -5.720643735151804271e-02
2.753140613198060693e-01 -2.339583191784219696e-02 -1.128518799843891696e-01 -4.911626948738374576e-01 -3.655805877273988203e-01 -5.801165877639723467e-01 -5.290204996278882188e-01 -4.016521215645864062e-01 -5.822512613591211972e-01 -2.772554411634601812e-01 4.722114252551337654e-01 2.905972918744529343e-01 5.587944999533371870e-01 -4.537718368471470032e-01 -8.106963945887316614e-01 -8.896734289005517882e-01 -8.896073994761238835e-01 -6.176967543486633350e-01 -5.937540350484659113e-01 -6.172139390628930133e-01 1.034498404314124556e-02 3.456159976077971541e-02 5.636254284676956577e-02 -2.601578679834011809e-01 2.510756245809389053e-01 -1.048723257458582664e-01 1.308298630124905826e-01 -1.576070793365059453e-01 1.481566173070444081e-01 1.091771029779478597e-01 -1.141953613121126643e-01 -8.679591169151598673e-02 9.356678959345036961e-02 -3.375043105755854561e-02 -4.758714473059299371e-02 -1.691966387177850917e-01 -1.956989513773129685e-01 1.926436257109791772e-01 8.628580550070810151e-01 -1.323336554646835084e-01 -8.143444404333738396e-02 -9.717718925412635045e-01 -9.526974276829549559e-01 -9.522370780775946120e-01 -9.726132042605234451e-01 -9.546587612911674459e-01 -9.533763591521364766e-01 7.987266708955961247e-01 -1.411742774932039091e-01 -7.883297410873346678e-02 8.741581815338662631e-01 -1.184591799898535164e-01 -9.170337613738492599e-02 -2.340823800971901514e-01 7.360995414589505126e-01 -8.243922443477968987e-01 -9.501985991833968859e-01 -9.748945137442344144e-01 -9.605656515070988277e-01 -9.565244903462130077e-01 -6.923236938334461632e-01 -9.619907015933066852e-01 -8.643973361819382584e-01 4.949577829706963139e-01 5.856800039940576186e-01 2.581422256260502146e-01 3.174107246276036132e-01 4.985036001976876352e-01 5.497319199096901698e-01 4.780502939200748092e-01 4.061155206224034697e-02 2.321732768984419437e-01 6.304477086895939053e-02 4.153196442851243148e-03 4.729736806945889459e-03 -5.242210634245223488e-01 -5.153972138220492827e-01 -7.576510930970605795e-01 -5.410803503337321407e-01 -5.057990170541459829e-01 -7.512453576690407697e-01 -6.653508455716020675e-01 -6.655900972472068577e-01 -8.299000345569618187e-01 3.818120838456017241e-01 5.906281804570672200e-01 7.347383081624552226e-01 -5.800119983907016108e-01 -8.309736202276640782e-01 -8.173553011643942545e-01 -9.530005558367951046e-01 -5.702880622867916305e-01 -6.004677307080644733e-01 -7.740323430943115701e-01 3.011577325576750841e-01 2.223610909819342951e-01 1.404837813657723311e-01 -2.428146435362418809e-01 2.232377350107637992e-01 7.244490969286621063e-02 5.000708925606175276e-02 -1.649161130723799384e-01 1.674211241851674137e-01 2.056762734117389413e-01 2.639214994918545609e-01 -1.101200838615827154e-01 1.058817841794532366e-01 -5.265480551989193403e-02 8.715214140658072983e-02 -2.851085982854226208e-01 -1.059553412663080396e-01 1.145190227548447542e-01 -5.627686178163073677e-02 -5.345927305132716634e-02 9.764669376797995015e-02 -6.466455843278153814e-01 -6.618161665813945271e-01 -5.050649003602585285e-01 -6.593743188880526462e-01 -6.689789324778685486e-01 -4.866400351567213289e-01 -5.662299589552880485e-01 -7.293601930513285980e-01 5.748311951767747230e-01 7.295704292967840621e-01 4.864029358237550449e-01 -4.942587744494542079e-01 -8.841035415923360619e-01 -9.200603608144493073e-01 -8.323132295804145375e-01 -6.804882353631780401e-01 -6.824416783380472529e-01 -5.178189819323819609e-01 -8.170697239277437129e-02 1.069081891833860570e-01 6.980327042149256367e-02 -2.642354603113932776e-01 2.245063553735689166e-01 8.359896930619958866e-02 -1.804483880761481307e-01 1.965113513996321615e-01 -4.323672304943614736e-02 1.197027844915110606e-01 -1.651500443185146827e-01 1.549707307681598423e-01 -9.984457765286590403e-02 1.387341672700790618e-01 -1.178792533506861206e-03 -1.801975744048741890e-01 6.612566739998747278e-02 -5.193951279762361317e-02 -4.465645978207352651e-02 -8.542825284025225285e-02 -6.680184392560457596e-01 -7.995014810462367505e-01 -7.077582881206205823e-01 -6.722148620435295374e-01 -8.086921861910255638e-01 -7.240457212592578129e-01 -6.478166860695496743e-01 -8.285071051388785968e-01 -6.893200844258799975e-01 6.872877720885994801e-01 8.322850487281941989e-01 7.432939400517485362e-01 -7.518246970100141979e-01 -9.190212613758192983e-01 -9.701428002075795920e-01 -9.355636654883260350e-01 -6.933130262136044664e-01 -8.200055268566431854e-01 -7.607105578960280390e-01 2.921747502611098946e-01 2.830480443029544380e-01 2.683897680443385614e-01 -8.502654975395028403e-02 1.328990273134120770e-01 2.198436972284382451e-01 1.232620123897826270e-01 -1.886493940234618139e-01 1.999122068895669846e-01 8.643601757578568689e-02 5.197642375271253889e-02 -6.784101732033770427e-02 1.189949834041140464e-01 1.098070016880667021e-01 -6.534968094680451700e-02 2.043516322092066850e-01 -4.710461753734692530e-02 -4.429722882634604120e-02 -4.441180835797648996e-01 -4.839110976499838568e-01 -5.655706942160818596e-01 -4.329643349302161326e-01 -7.589399980539607293e-01 -4.441180835797648996e-01 -7.684893858996175720e-01 -6.728625426912973051e-01 4.180713157190712459e-01 -9.385803432268569058e-02 5.935263128211174660e-02 -1.102148077309470647e-02 -1.891289235467695192e-04 -4.441180835797648996e-01 -4.839110976499838568e-01 -5.655706942160818596e-01 -4.329643349302161326e-01 -7.589399980539607293e-01 -4.441180835797648996e-01 -7.684893858996175720e-01 -6.728625426912973051e-01 4.180713157190712459e-01 -9.385803432268569058e-02 5.935263128211174660e-02 -1.102148077309470647e-02 -1.891289235467695192e-04 -5.784925574044915697e-01 -5.029389752170456696e-01 -5.442905639142834318e-01 -4.894512685510259420e-01 -7.757738707665574607e-01 -5.784925574044915697e-01 -8.481286110800201339e-01 -6.443938935897487452e-01 2.696448094094751613e-01 5.751878024753446367e-02 5.059447820059440049e-02 -1.713313497893788617e-01 -2.892666899376231809e-02 -5.063717563094770613e-01 -6.306983765320310908e-01 -5.978677644394078117e-01 -6.500315280359386660e-01 -5.407555935225678567e-01 -5.063717563094770613e-01 -8.315500599139472593e-01 -6.343654274768564250e-01 5.761814508414240255e-01 -1.564708909338290155e-02 -9.698042104968186694e-02 1.304257432443142461e-01 -3.658200753988601756e-02 -7.500558523639249131e-01 -7.696101632776027879e-01 -7.841866469500018422e-01 -7.795279932310258397e-01 -7.902652660941718032e-01 -7.500558523639249131e-01 -9.547224369048390447e-01 -7.994661932543721816e-01 5.021652420048881016e-01 3.224369943819339057e-01 -1.152815795183377151e-01 -6.075104104574700209e-02
2.747209569022533993e-01 -2.249052370504419501e-02 -1.121109369895848251e-01 -5.190329574034286964e-01 -3.973480562974598396e-01 -6.053384782263191433e-01 -5.546569106410423888e-01 -4.319260330269902304e-01 -6.070446764460109002e-01 -3.161025915817915477e-01 4.919400850338219722e-01 3.110019599152129000e-01 5.787516865562899460e-01 -4.830661411279171258e-01 -8.216180029645528959e-01 -8.950358157809275017e-01 -8.962573414503669511e-01 -6.378634459177674465e-01 -6.149396394618851236e-01 -6.390831296118393290e-01 -1.879181690015128275e-02 -2.003607065747666297e-02 1.648024143449239841e-04 -2.572217494826505302e-01 2.302378118136156060e-01 -1.270146933894611974e-01 1.545225549770132822e-01 -7.912781251965685103e-02 1.025047287372146676e-01 9.135496199814795160e-02 2.693691581877109137e-02 -7.577619222604949079e-02 1.022338360470788909e-01 -4.468993942042375628e-02 -1.237011688614133784e-02 -2.415358199753260549e-01 -2.169642421856620429e-01 7.598332075075864278e-02 6.769408240139377364e-01 6.794346100336019594e-03 -2.429222686831611095e-03 -9.711330269204104804e-01 -9.561791213498879172e-01 -9.520830874384816900e-01 -9.718785516069781139e-01 -9.578388872844616486e-01 -9.533680681554552727e-01 6.137961885413042440e-01 -7.622559792032364279e-03 -2.273179247062518565e-04 6.922637182677369161e-01 1.909180085876866981e-02 -1.276068371147289805e-02 -2.357767615485067136e-01 4.832894318099085762e-01 -5.934761871728397864e-01 -9.286045478571428591e-01 -9.740170191393828780e-01 -9.627910668070133182e-01 -9.572382613391817729e-01 -6.987478084775393672e-01 -9.478050052348984122e-01 -7.857058193461686768e-01 5.463584846384058613e-01 6.277851606404064588e-01 2.950642614533161012e-01 4.173521048576893655e-01 4.915254536503868565e-01 5.450828912833680651e-01 4.428728765594193151e-01 -1.832100889785152897e-01 6.155417469654474866e-03 6.043980581985888834e-02 4.043777221655943735e-03 5.273727615938983600e-03 -5.517611887196557374e-01 -5.375676924337513540e-01 -7.751169868773608584e-01 -5.677673353285525026e-01 -5.290873464497506395e-01 -7.694658721817350111e-01 -6.848682507219759907e-01 -6.793686113547476868e-01 -8.400808224846590955e-01 4.177583583855375982e-01 6.073370534293376366e-01 7.533546828439747767e-01 -6.043841367427499334e-01 -8.417360676583824919e-01 -8.249956680766206141e-01 -9.568879695615933878e-01 -5.947415531319080184e-01 -6.188915641847687610e-01 -7.909128171367163507e-01 2.291755815390951190e-01 1.498568897529742594e-01 7.154602320837008533e-02 -2.366810415686114999e-01 2.179139107617790172e-01 2.283458501665719051e-02 7.503362479074675295e-02 -1.285831085738093349e-01 1.137669703227903867e-01 1.756861354288507260e-01 2.158994911423704754e-01 -1.166629277267789422e-01 1.270512428996766474e-01 -7.871666409156316546e-02 1.246899609528655806e-01 -3.150344329761736728e-01 -6.385380348865217492e-02 6.945612853258405217e-02 -5.092071670470684625e-02 -5.590039548894756849e-02 9.491930917101444598e-02 -6.629275066908886238e-01 -6.778443242158879167e-01 -5.357579504121446901e-01 -6.756166047349134729e-01 -6.851226873840963183e-01 -5.196893645251537963e-01 -5.790036240005071999e-01 -7.412539822777030052e-01 5.879696259564524130e-01 7.362426884012510664e-01 5.068269705155754590e-01 -5.202181214300267698e-01 -8.905490997408878062e-01 -9.234437542722685466e-01 -8.455397969784127499e-01 -6.968614141398531414e-01 -6.978238926893336469e-01 -5.508014178982605369e-01 -1.117876402210290637e-01 7.262463247923829635e-02 8.788055069552627718e-02 -2.166910882334405763e-01 1.607745918154021847e-01 1.363045612266451379e-01 -1.348431827036446762e-01 1.845343549347287504e-01 -7.011743282656310305e-02 1.681840137387956013e-01 -1.630613951190066913e-01 1.476707199705229456e-01 -1.072352814270360055e-01 2.478373809844593711e-01 -3.212825581708390194e-02 -1.501308846072283154e-01 4.992770917391874813e-02 -5.664752991651754443e-02 -4.265245468900571990e-02 -8.027391686727680664e-02 -6.860574258710471218e-01 -8.113762078971136216e-01 -7.238285898433941545e-01 -6.902857354379758892e-01 -8.207810025039046220e-01 -7.393702966067938753e-01 -6.680627873964654073e-01 -8.359207113609959938e-01 -7.073154218653773251e-01 7.033091190730594855e-01 8.420355446069937022e-01 7.579917561598606968e-01 -7.663548335144740875e-01 -9.230947013688940439e-01 -9.722653454141857443e-01 -9.394197419908781876e-01 -7.100161001943416927e-01 -8.318070371518097028e-01 -7.746976346540458414e-01 1.943709496960977223e-01 2.302460856790742860e-01 2.109265073700874737e-01 -5.492014709273209533e-02 6.839768598610951322e-02 2.051482380348654544e-01 1.763104753820758375e-01 -1.594432931217377725e-01 2.091784845410104010e-01 9.695568304342329358e-02 1.488934472024750454e-02 -1.119175020241026108e-01 8.491783428192910266e-02 4.358808858118459750e-02 -5.067850075288424933e-02 1.843748708428647465e-01 -4.565835940447712099e-02 -2.042052508742623479e-02 -4.741695567108769604e-01 -5.085855697749861459e-01 -5.857241966293039725e-01 -4.623247710846283831e-01 -7.750616819667780488e-01 -4.741695567108769604e-01 -7.813760690491599048e-01 -6.872640429215524094e-01 3.459308273927568789e-01 -5.902270177166318160e-02 8.782350198780182818e-03 5.953007062877985547e-03 6.360702137219634289e-02 -4.741695567108769604e-01 -5.085855697749861459e-01 -5.857241966293039725e-01 -4.623247710846283831e-01 -7.750616819667780488e-01 -4.741695567108769604e-01 -7.813760690491599048e-01 -6.872640429215524094e-01 3.459308273927568789e-01 -5.902270177166318160e-02 8.782350198780182818e-03 5.953007062877985547e-03 6.360702137219634289e-02 -6.025352145125039138e-01 -5.298745168627296831e-01 -5.697596516537369871e-01 -5.173452619081458925e-01 -7.871760038094115508e-01 -6.025352145125039138e-01 -8.571769484883958734e-01 -6.648594632892359524e-01 1.932163948507940321e-01 7.124353148554751769e-02 7.839228090947594763e-02 -2.348767870709862204e-01 -2.192061712781301699e-02 -5.312256743543583015e-01 -6.435580230842995464e-01 -6.133120145297918935e-01 -6.635308236693301387e-01 -5.670924372122733148e-01 -5.312256743543583015e-01 -8.412448402751061538e-01 -6.507917388203026121e-01 5.154011903019991570e-01 4.722812726375663628e-02 -1.426920023916934954e-01 1.464562388004925220e-01 -5.071701400566214213e-02 -7.645238002155995138e-01 -7.806745622885608027e-01 -7.951743473696477604e-01 -7.895355757720292633e-01 -7.996354913140836240e-01 -7.645238002155995138e-01 -9.574934348301343823e-01 -8.111956419430941256e-01 4.229704671118657555e-01 2.886782150922883039e-01 -1.097059683806566460e-01 2.091380938907875381e-02
2.691782301236363417e-01 -1.779813031867566106e-02 -1.062528348965627312e-01 -4.857336644458966068e-01 -3.492486572068883022e-01 -5.686573150557691081e-01 -5.170608054203549298e-01 -3.905901807694613370e-01 -5.770260931994569686e-01 -2.833106338884692765e-01 4.760077067100989545e-01 2.801365227336180541e-01 5.377586338647833974e-01 -4.394273975831207157e-01 -7.839945273188023700e-01 -8.757332017993527673e-01 -8.738808518937185577e-01 -5.963332570854318337e-01 -5.914385740710810246e-01 -6.151811445300362502e-01 1.110277723613233014e-02 6.522207083446684983e-02 3.284210544998178438e-02 -2.407195464114991745e-01 2.109694403398557350e-01 -7.408714032366375823e-02 1.078721607982556507e-01 -1.172388868518122879e-01 9.766204569670115798e-02 1.263382038009600861e-01 -2.977317099506084433e-02 -6.915354905001322439e-02 5.951170032989754055e-02 -9.547273977204554689e-04 -1.660623780744367381e-02 -1.800550783801886101e-01 -2.679278696118002068e-01 1.585366064403272435e-01 8.353071702816208255e-01 -1.255879700468621740e-01 -3.363933391757061714e-02 -9.704756348331186055e-01 -9.493225629462299642e-01 -9.419621333855087153e-01 -9.711874949273561208e-01 -9.501173818368976454e-01 -9.432721158768299086e-01 7.715400334587203535e-01 -1.355957149003240159e-01 -2.919603723123442157e-02 8.471102179399998544e-01 -1.129862119698003542e-01 -4.628788366533621162e-02 -2.313925454159914963e-01 6.932817779646934797e-01 -7.968925467888781089e-01 -9.339583559573131355e-01 -9.728830663930397860e-01 -9.538466416896266287e-01 -9.473992390002032860e-01 -6.782988731227455048e-01 -9.150079659420160549e-01 -7.704355354393185307e-01 5.201989167681297932e-01 6.140372611988835772e-01 3.583647508478383092e-01 4.459763249009394137e-01 5.669231496241213808e-01 6.250364609788054970e-01 4.323582727953313998e-01 4.192497701007043970e-02 2.754476142222515023e-01 5.817752838174383712e-02 -2.982604748312363621e-02 -6.315218688571026806e-02 -5.321658761354904899e-01 -4.840344602744500180e-01 -7.493959406443994054e-01 -5.493062607153669230e-01 -4.789625096765587342e-01 -7.450356473379602384e-01 -6.156527370686533107e-01 -6.162716494423828850e-01 -8.016231460892787597e-01 4.543469226843110942e-01 6.042758057690026385e-01 7.237737514103158576e-01 -5.733192129062470999e-01 -8.233122413247120353e-01 -7.781082712794417100e-01 -9.438546942855700062e-01 -5.884641423867201793e-01 -5.788549370122348936e-01 -7.617088117572118344e-01 2.170957572208834507e-01 1.677651262767393403e-01 6.460313215048815727e-02 -2.186733071743834911e-01 1.916951933369904770e-01 1.092809228424101442e-01 2.803083596504794828e-02 -1.553289819614894207e-01 9.041187641041448231e-02 1.649824470022175360e-01 2.675469833848513890e-01 -1.122084597099102243e-01 4.230304644416087861e-02 -6.745258279808283297e-02 8.595974811657064452e-02 -2.563630704123195936e-01 -1.557988994577087505e-01 7.576776898304726782e-02 -1.082513088599647158e-03 -1.068353199502789369e-01 8.640616295368998279e-02 -6.592017118720989721e-01 -6.523112392497283363e-01 -5.207892542387834167e-01 -6.760704539178210570e-01 -6.642427809599582567e-01 -5.213787930378269708e-01 -5.522396269581011374e-01 -7.083923104743417021e-01 5.995840440269959437e-01 7.004931278814765516e-01 4.472082023451952604e-01 -4.978749944845101139e-01 -8.847009094142614938e-01 -9.060568647986210200e-01 -8.344833025628441980e-01 -7.014279743782866339e-01 -6.781772452461133360e-01 -5.698595023860980602e-01 2.440338964040394271e-02 6.278829053785985048e-02 1.099126334142487005e-01 -3.119417697967756253e-01 2.149151849679914739e-01 8.942396577235618704e-02 -1.026594773336846761e-01 2.035597890216198358e-01 -8.746138760282197444e-02 1.821846092264242378e-01 -1.968296482750912790e-01 1.563506443721629779e-01 -9.463960165152433823e-02 1.935208246421464273e-01 -1.247124886361644508e-01 -1.004505851531542898e-01 -1.123352824213164503e-03 -5.094148497208448451e-02 -4.906783160092596102e-02 -5.862829519943899698e-02 -6.703796620550662722e-01 -7.838247132268698625e-01 -6.901720363519843193e-01 -6.803435141021397792e-01 -7.998002864887888697e-01 -7.077065890351218469e-01 -6.374163005208067778e-01 -7.988640713463225351e-01 -6.696126091176062278e-01 6.809228236075290930e-01 8.177325007914240107e-01 7.394761879088497247e-01 -7.459269394209504522e-01 -9.168206351337159221e-01 -9.606839241669807850e-01 -9.191571601786122647e-01 -7.026654792723115994e-01 -8.168208154781642083e-01 -7.545460217686471571e-01 2.611423135980618926e-01 2.404045551279392068e-01 2.341252859148530985e-01 -1.445021990216666108e-01 8.324857289433627849e-02 1.246323739184679175e-01 1.613555091069981406e-01 -1.985813098248198905e-01 2.010788373950604946e-01 6.389693681535107972e-02 2.446490374988480754e-03 -1.302731741645169194e-01 8.391884476536620729e-02 5.485433477827252741e-02 -7.269737612228314994e-02 1.354542721354412838e-01 -6.094927493288683495e-02 -4.924965853772368674e-02 -4.309467244138441289e-01 -4.700425640254362603e-01 -5.535669378654445305e-01 -4.177840089346747110e-01 -7.839318257306461257e-01 -4.309467244138441289e-01 -7.366716444537566577e-01 -6.638490635332996437e-01 4.252290403912507566e-01 -1.455215442668740811e-01 7.484783483694729123e-02 -2.221735087554297002e-03 4.153185517582651948e-02 -4.309467244138441289e-01 -4.700425640254362603e-01 -5.535669378654445305e-01 -4.177840089346747110e-01 -7.839318257306461257e-01 -4.309467244138441289e-01 -7.366716444537566577e-01 -6.638490635332996437e-01 4.252290403912507566e-01 -1.455215442668740811e-01 7.484783483694729123e-02 -2.221735087554297002e-03 4.153185517582651948e-02 -5.731393340501474976e-01 -4.945068541869506173e-01 -5.365036527914348596e-01 -4.858588162258971055e-01 -7.482298632322891274e-01 -5.731393340501474976e-01 -8.305413522378894964e-01 -6.315993169168562238e-01 2.354376515140157444e-01 2.220400062628647211e-02 7.192847040262272118e-02 -1.475002182556754693e-01 -3.065527048715632752e-02 -5.091532033526313672e-01 -6.030907357772889998e-01 -5.710821259992715504e-01 -6.310420479887223211e-01 -6.023404631614827087e-01 -5.091532033526313672e-01 -8.249826462842774211e-01 -6.219046985659255622e-01 5.675932021954961382e-01 -6.744988101005161552e-02 -5.563790084268486341e-02 9.891780415684404970e-02 2.906751287400997485e-03 -7.424467611750937834e-01 -7.488627249823084364e-01 -7.661690611889018232e-01 -7.618001151172131280e-01 -7.913021075028155993e-01 -7.424467611750937834e-01 -9.457909603429284218e-01 -7.898170815514977683e-01 4.712965731358723098e-01 2.186177523103919884e-01 -1.027614940304958785e-01 -2.299706349573275854e-02
2.762837213508584910e-01 -2.024633591254293777e-02 -1.092643039859784171e-01 -7.209959410276748359e-01 -6.158099059211566972e-01 -7.386424447998118925e-01 -7.417608945398173059e-01 -6.370278566065246117e-01 -7.389758220106159570e-01 -5.856137196898022479e-01 6.327881109902251389e-01 4.549374709300872954e-01 6.820279496993271184e-01 -6.803507674997615329e-01 -9.001839845502571658e-01 -9.392609759633483435e-01 -9.380799258837132504e-01 -7.882528705151500281e-01 -7.483415802254818061e-01 -7.595960396141324678e-01 -1.206095848183474650e-01 -1.228889765328987360e-01 -1.137753566644920250e-01 -1.241195421544320499e-01 1.505647841261024411e-01 -4.562981275948854720e-02 8.461314590026562665e-02 -1.005768889930699211e-01 6.864742957389063926e-02 1.516253062599450252e-01 -3.568785765240682639e-02 -3.552145148342814029e-02 4.188008142954521146e-02 -1.779509663973485520e-02 -2.938325053007835932e-02 -5.401463170157205090e-02 -2.967088156264771626e-01 6.388536836433572619e-02 7.476184189149120973e-01 -2.479639490439523516e-02 6.078834029817403728e-02 -9.734290327829290268e-01 -9.561919425407316986e-01 -9.462410361067000730e-01 -9.738313007815795341e-01 -9.569879265650461653e-01 -9.474775089217708501e-01 6.831089412435294994e-01 -3.927976738372478127e-02 6.430641991120404632e-02 7.629402653643951870e-01 -1.135938919188587276e-02 4.988505340035696844e-02 -2.563437997230491594e-01 5.633669780317113185e-01 -7.540946316662900939e-01 -8.434672225088165609e-01 -9.751885496235126460e-01 -9.598825568061938318e-01 -9.517239109908149919e-01 -7.518070560383990353e-01 -8.460999850011436951e-01 -6.950249693450947230e-01 4.742098898489925385e-01 5.523676197740688965e-01 3.722597004530544540e-01 4.295735348102646678e-01 5.693642382863509654e-01 6.047285990109875220e-01 3.456334162776625862e-01 -8.970271202076343653e-02 1.918912898261745104e-01 6.284738699835035192e-02 8.112970557613534070e-03 7.094992248725480802e-03 -7.363780312191691158e-01 -7.042889057849122114e-01 -8.627672325026929379e-01 -7.459554174117155600e-01 -7.022401923894961984e-01 -8.602058225698199223e-01 -8.058471833704541343e-01 -7.865762462642111874e-01 -8.963852520213233532e-01 6.613546520291784248e-01 7.466852478807401994e-01 8.472744377427923190e-01 -7.609638511887560908e-01 -9.114118858982368510e-01 -8.945784018784282976e-01 -9.761913895550774489e-01 -7.597438184577536280e-01 -7.592232730046793998e-01 -8.727929467843761335e-01 -7.311703581092732218e-02 -8.247397874777305515e-02 -1.914717581776014255e-01 -9.915000924035209662e-02 2.102232271206078973e-01 1.348689152602128849e-01 1.004488435799900797e-01 -1.364979304507855373e-01 6.591114570465679556e-02 1.484858449674449354e-01 3.035136140364418367e-01 -5.563889290336510723e-02 5.749205637639333982e-02 -4.671213125838731550e-02 6.175636926039398261e-02 -1.427490309492056297e-01 -1.551102971640757888e-01 -2.324075007547132810e-02 -4.167254875993494506e-02 -6.031019692266519766e-02 8.005766969949819345e-02 -7.773371087946542302e-01 -7.839539077618475904e-01 -7.244931130623927240e-01 -7.877855508594671097e-01 -7.948992514011170574e-01 -7.193613879686997503e-01 -6.791199421644035228e-01 -8.052217559784257128e-01 6.715707593044198953e-01 7.901409703415909203e-01 6.296350275795238316e-01 -6.914658461932117195e-01 -9.374301408079713793e-01 -9.522235652009969353e-01 -9.183342679311248258e-01 -8.056385625634441272e-01 -8.086299810537828092e-01 -7.425238845708125313e-01 -1.073693808289326451e-01 9.955962075676743142e-03 -5.950544530794747711e-02 -2.916414597705809797e-01 1.823085722167321066e-01 9.953966845259305807e-02 -3.829770322532418531e-02 1.807209588899831021e-01 -8.602272770656139989e-02 1.993785187228487299e-01 -1.058658536169187203e-01 7.413488590619939089e-02 -2.797697972896430810e-02 1.631228955632057498e-01 -2.018706161351504214e-01 -8.761019690693466061e-03 -5.296265809058616630e-02 -7.948475205687231815e-02 -3.918334521133019083e-02 -6.198790401902803254e-02 -7.974782630561021435e-01 -8.788822759102359328e-01 -8.312520242656199487e-01 -8.028250132163003983e-01 -8.874867365219600845e-01 -8.411359996340392886e-01 -7.863470962806474729e-01 -8.904417504888061385e-01 -8.189946003335113467e-01 8.021188520193440752e-01 8.959728096637558092e-01 8.533797404685367072e-01 -8.539739788273232879e-01 -9.546626513282503446e-01 -9.837599130139553782e-01 -9.656521604603007791e-01 -8.167132113872813681e-01 -8.965903164724070562e-01 -8.625995247624668183e-01 5.052264979925304156e-02 5.737239730971292057e-02 6.054983263322825243e-03 -1.446243628494302824e-01 4.315037062806995061e-02 7.819692734864580608e-02 2.039193484443071747e-01 -1.870298466402702253e-01 1.867479949541239193e-01 4.552030622792421766e-02 2.446680312423397952e-02 -3.728040583146046555e-02 4.714747068844205025e-02 6.912398674123633457e-02 6.985643602067708770e-03 3.394984468452359738e-02 -5.975165262109279757e-03 -3.307522167648885292e-02 -6.743496471303004336e-01 -6.853399469556082924e-01 -7.316399052409335857e-01 -6.650251422283536273e-01 -8.702573127966910516e-01 -6.743496471303004336e-01 -8.755671689832957849e-01 -7.939767315615343657e-01 1.654248273789001855e-01 -9.407592111490242770e-02 3.691858790908201376e-02 1.523054155997069330e-02 2.040347889130615655e-02 -6.743496471303004336e-01 -6.853399469556082924e-01 -7.316399052409335857e-01 -6.650251422283536273e-01 -8.702573127966910516e-01 -6.743496471303004336e-01 -8.755671689832957849e-01 -7.939767315615343657e-01 1.654248273789001855e-01 -9.407592111490242770e-02 3.691858790908201376e-02 1.523054155997069330e-02 2.040347889130615655e-02 -7.596782036342284439e-01 -7.125948513530860895e-01 -7.388994469998224623e-01 -7.054206786758004943e-01 -8.663660632953641416e-01 -7.596782036342284439e-01 -9.183310576277915471e-01 -7.972151268055522877e-01 -9.524181826102054438e-02 8.777200879257500421e-02 1.490109943989774595e-02 -1.473827566605194483e-01 -4.809440696200872195e-02 -6.956803565463197669e-01 -7.381581846694952320e-01 -7.195332197809332087e-01 -7.581167984155274819e-01 -7.413161595169212026e-01 -6.956803565463197669e-01 -9.086180105724345202e-01 -7.497456577935883715e-01 4.869033917136905143e-01 -1.011182340111434486e-01 -2.628275045465728113e-02 9.627701112327660682e-02 -8.926794423845073670e-03 -8.519638256306517610e-01 -8.533845768005315913e-01 -8.654854177454113229e-01 -8.569686860631060554e-01 -8.758879062345628075e-01 -8.519638256306517610e-01 -9.752011376230965700e-01 -8.798134573504370337e-01 1.964902435561597382e-01 2.344370353300289644e-01 -8.194475780308958790e-02 -8.420955667303012260e-02
2.776699259844482848e-01 -1.909666919863853979e-02 -1.086615794003768093e-01 -8.394864884822716977e-01 -7.477415681646791823e-01 -8.201425119299622368e-01 -8.523450132490034692e-01 -7.606899170012219047e-01 -8.199283419698388808e-01 -7.376488193623159662e-01 7.187865230626747648e-01 5.432540058006417594e-01 7.385309993152185948e-01 -7.984333469047910636e-01 -9.455444258890751685e-01 -9.651509648356716431e-01 -9.616857985221984872e-01 -8.788790063830085320e-01 -8.291745417948870323e-01 -8.338388577544691982e-01 -2.369273470354654187e-01 -2.187759965984754362e-01 -2.177688161510954457e-01 -1.824845106771558895e-02 9.672589391848411544e-02 -1.493974983831790164e-02 8.902110333201654346e-02 -6.137243798136608752e-02 3.903144064737144175e-02 1.376560135290536280e-01 -1.690764102633169827e-02 3.828206014410574787e-02 -9.036074066306670066e-03 1.993698690949124996e-02 -3.863822755821744170e-02 -3.220015591646619574e-02 -2.664059692536550616e-01 1.004134651426798058e-01 7.408316170717822446e-01 -4.167992500250165822e-02 -1.039246427556615553e-02 -9.769674841811415433e-01 -9.569528797822013377e-01 -9.470434291826786977e-01 -9.771532710334353000e-01 -9.572723367489369695e-01 -9.482431765998901030e-01 6.749528891985637769e-01 -5.619838517033751146e-02 -6.114030975357297865e-03 7.578729101396112222e-01 -2.721905274217083573e-02 -2.048250513020383537e-02 -3.633651784691337427e-01 5.934912509030186856e-01 -7.968370614744246794e-01 -8.323819044493474539e-01 -9.779668734708175659e-01 -9.589031771509243240e-01 -9.523756178901870983e-01 -8.339379532890938140e-01 -8.101074682313694764e-01 -6.796814719210509947e-01 4.105942652694434258e-01 4.895234920767294606e-01 4.143193277951598419e-01 4.566620601490671283e-01 5.540687902596305170e-01 5.857870565511875682e-01 2.427910115846316219e-01 -3.896086935564582049e-02 2.566593838270032624e-01 6.770963457820064479e-02 9.690493849380109326e-03 5.616640487297635403e-03 -8.426258926194936105e-01 -8.114510483878356606e-01 -9.122282199659219604e-01 -8.489157259492738916e-01 -8.121923820966293617e-01 -9.112507555192789210e-01 -8.777302976964762582e-01 -8.584941604654267033e-01 -9.299749044534189046e-01 7.988573544874723042e-01 8.384481473192421097e-01 8.994107229300778439e-01 -8.537408241873175596e-01 -9.514290226681864082e-01 -9.398206769521022519e-01 -9.866106173271045332e-01 -8.564826475669035100e-01 -8.482084581974392856e-01 -9.186476214191398038e-01 -2.738616015032779849e-01 -2.666202281752740877e-01 -3.570386058943292862e-01 -1.555646505320699632e-02 2.314296175760397756e-01 1.500465842279276318e-01 1.711840169733445383e-01 -9.103885090908744870e-02 6.967547530934965760e-02 1.264134692589062858e-01 3.085765533082754919e-01 1.223383499269682824e-02 4.038360403018941697e-02 -2.535803838441708091e-02 1.108190586625872887e-01 -1.028993904137517623e-01 -1.449643850135649836e-01 -2.576956478561805500e-02 -3.869637689916385209e-02 -6.446738022337278329e-02 7.234774946467643908e-02 -8.438139230911374522e-01 -8.539408696438040014e-01 -8.242676242621943539e-01 -8.521603723423136767e-01 -8.663136691487189900e-01 -8.231762987903402662e-01 -7.404240335735376988e-01 -8.479565832720284968e-01 7.224078935074830232e-01 8.263865065486406536e-01 6.962876243086640882e-01 -7.914641273628097995e-01 -9.626405541197624594e-01 -9.702464451547567759e-01 -9.541226809382099550e-01 -8.671479543001598955e-01 -8.803753281030507472e-01 -8.395287329761644823e-01 -1.571591057865596441e-01 -9.109781562431228108e-02 -1.605675127510151901e-01 -2.967107836756632255e-01 1.973436681847721419e-01 5.505758039449591690e-02 1.298979166498510744e-02 1.500023272145502851e-01 -6.789066449039025952e-02 2.042661790497583008e-01 -6.598098119001707951e-02 2.417684111394875768e-02 1.424199107555227349e-02 1.384491449665557761e-01 -2.244734377064431519e-01 4.579772475021798989e-02 -1.537305585854652212e-01 -9.043329840233184369e-02 -3.808066386004038684e-02 -5.507507856485234499e-02 -8.669408382697912918e-01 -9.192166101749130735e-01 -8.940490864706851504e-01 -8.725301684118815793e-01 -9.267147691363987194e-01 -9.006079025948651173e-01 -8.585461046716629241e-01 -9.244103300721254746e-01 -8.835432374934139022e-01 8.662054459550884156e-01 9.284016905868336389e-01 9.086621118193961566e-01 -9.063586405590353667e-01 -9.739665288980460245e-01 -9.903328927232577517e-01 -9.808807328500738221e-01 -8.830076855021862237e-01 -9.346774835014119986e-01 -9.139797416273699460e-01 -8.083803703784039896e-02 -8.538434321289509188e-02 -1.434834966122321420e-01 -1.539208899143981457e-01 6.459157612108579194e-02 5.280712081010967979e-02 1.615405815885628260e-01 -1.597451253083259082e-01 1.831624499658973948e-01 3.163189019380306666e-02 8.992791283417700399e-02 5.682077930713986570e-03 1.715294889401894687e-02 6.919479436296474550e-02 5.471857755314235572e-02 -1.967518436848872745e-02 -7.821616387868629561e-03 -4.478507504913769449e-02 -7.939676530823357448e-01 -7.935136301272106563e-01 -8.222534045230667221e-01 -7.856252408835711076e-01 -9.228783828991712346e-01 -7.939676530823357448e-01 -9.300002372551160468e-01 -8.615761595685373919e-01 -9.926164992019969116e-03 -3.507920677708224744e-02 -1.468323151758888466e-02 7.943429181015174145e-02 -4.935974165596423990e-02 -7.939676530823357448e-01 -7.935136301272106563e-01 -8.222534045230667221e-01 -7.856252408835711076e-01 -9.228783828991712346e-01 -7.939676530823357448e-01 -9.300002372551160468e-01 -8.615761595685373919e-01 -9.926164992019969116e-03 -3.507920677708224744e-02 -1.468323151758888466e-02 7.943429181015174145e-02 -4.935974165596423990e-02 -8.529457895818810531e-01 -8.216031719513693377e-01 -8.393205913579884214e-01 -8.160947658131020299e-01 -9.145175458297696292e-01 -8.529457895818810531e-01 -9.544954890796178981e-01 -8.758948444881059503e-01 -2.971576650199833081e-01 1.390057434153839644e-01 -3.677402186576612247e-02 -1.392872782589999470e-01 -5.488312305809472241e-02 -7.925561097916687947e-01 -8.004448834218326203e-01 -7.875547821409607518e-01 -8.201147851518174603e-01 -8.378426348925140932e-01 -7.925561097916687947e-01 -9.454431751109830806e-01 -8.109778521986200639e-01 3.784080991262311344e-01 -9.928585006702772553e-02 -3.078064661385121817e-02 1.043974660476389982e-01 -1.256887966259312775e-02 -9.043894864259327537e-01 -8.989921456980293213e-01 -9.090209378311422395e-01 -8.996087327456536720e-01 -9.218379973106339831e-01 -9.043894864259327537e-01 -9.856179552061206106e-01 -9.212000349450609749e-01 1.899241546669191635e-02 2.303453336644999683e-01 -8.567813861448760060e-02 -9.247497305829169290e-02
