2.786537240128921789e-01 -1.889213312592251046e-02 8.455354761782046813e-01 6.791143296395725226e-01 8.356768114100532330e-01 -2.232587707571336011e-01 3.940538638194250320e-01 -6.849289656590329400e-02 1.383151163703034425e-01 -2.495115680094134314e-01 1.679371024573820537e-01 4.485621719374173755e-01 9.538448885535031341e-01 -5.992988544404392881e-02 8.794406634651661392e-01 -6.265083501626765583e-02 9.725135050534389203e-01 -6.414576249774968375e-02 8.743145606567669370e-01 1.170055694987135048e-01 2.804022511674297835e-01 2.091414148661902561e-01 2.695685698655910234e-01 5.103826721074450345e-01 5.530611491730758056e-01 7.468618314017411164e-02 1.597863224245046898e-02 -1.490425667764764053e-02 9.865204097206442535e-01 9.870806167942000053e-01 9.809584839773679565e-01 8.440212676527419910e-02 2.848256109102809686e-01 5.353066130992033544e-01 2.290467033865776006e-02 1.272874869622379543e-02 4.672896400952583629e-01 -1.273818179628238567e-01 3.380453498680079938e-01 4.598224097181966008e-01 8.316892978113718526e-02 8.443175392011335045e-01 9.018170820423636602e-01 8.129569825491483881e-01 -9.534474162271138614e-03 2.999449602476768062e-01 5.411914502415404726e-01 4.153109090599175213e-01 -4.663756979954967324e-02 3.972033694525769487e-01 9.957026340515472418e-01 9.944689338895813524e-01 9.868950884717215821e-01 -1.976296240555879685e-02 3.058111153080903533e-01 2.962205171776841617e-01 4.530287949039846773e-01 -2.118302784312992848e-01 -4.015861907737949127e-02 -7.512486602292688109e-02 1.270952718497498080e-01 9.452537005060836217e-02 -8.858504051045067162e-02 1.549856334785698064e-01 -2.306595582596502325e-01 2.347536745494924193e-01 -2.306595582596502325e-01 2.347536745494924193e-01 2.910083961777573669e-01 -2.508637563187037789e-01 -5.717819448084211081e-02 2.036669493300805878e-01
2.814736450979956617e-01 -1.737451887192564479e-02 8.499476492880900791e-01 6.934854639427099343e-01 8.448597171113447768e-01 3.213846043170403254e-03 3.719147433088187266e-02 -1.982580864111873620e-01 2.275115527238008584e-01 -5.085646124686834385e-02 2.617544149894833194e-01 -1.455212211641723069e-02 9.057799497849292614e-01 -2.642448820151946931e-01 8.325997162796382467e-01 -2.684682176622726901e-01 9.259614220917323779e-01 -2.634861876289720239e-01 7.503745319123805713e-01 3.689084888521067529e-01 3.811311296735829801e-01 7.848644763486548048e-02 1.476094095069516721e-01 1.425947258109365456e-01 1.580313466031849634e-01 7.277498320648145835e-02 8.284550476219112655e-03 3.968578774436431735e-05 9.951688938408663754e-01 9.947512831234306407e-01 9.869192620715042663e-01 2.126553106301633522e-01 2.089696235642484190e-01 1.953927479168336978e-01 7.850057877427008002e-02 4.062116629945725643e-01 3.216877233355255883e-01 1.798447080318539837e-01 4.009182006696339062e-01 -9.556945447345656375e-02 8.394676215766852523e-02 8.426144357013957142e-01 9.146605958623432731e-01 8.296045812034323896e-01 -1.132084269906090263e-01 2.914358318861360875e-01 -1.004538077903260607e-01 2.143128264265142802e-01 -1.403790374714783962e-01 1.375101248233263351e-01 9.944498087444968437e-01 9.963633313462475494e-01 9.977095005097302849e-01 4.768311309031003815e-03 3.713244699383769221e-01 3.592806593538950266e-01 1.141818649333836283e-01 1.938945407790702291e-01 3.949198903225585866e-01 4.175922092830511995e-02 1.958238010736267076e-01 2.319864184041585398e-01 3.567620613386648237e-02 -2.076799878807755739e-01 -4.253189249226329571e-01 2.098859184398006172e-01 -4.253189249226329571e-01 2.098859184398006172e-01 2.415442660213321657e-01 -6.292498941384345734e-01 5.539274767095142549e-01 6.185360359700765587e-01
2.828868992812704763e-01 -1.629435951178572622e-02 8.459698876471164475e-01 6.916017469053306055e-01 8.415860258138856409e-01 -1.871675684860828193e-01 -1.761384900901654671e-01 -2.078488116255688134e-01 1.756480329281737141e-01 -6.911948304650683550e-02 2.431663519294351150e-01 3.797796996934340030e-01 1.938146980619193660e-01 6.533214583364506112e-01 1.246526876065985612e-01 6.405898309385392730e-01 2.277937337428727615e-01 6.545438329523606269e-01 -5.784428071568631369e-01 7.173932000813384446e-01 7.170759160102755381e-01 3.790322144302120666e-01 3.917164312222664591e-01 1.928095505748405325e-01 1.969921781468311761e-01 7.473866333629204661e-02 5.646594383879190160e-03 4.005199786126513797e-03 9.906169544032384922e-01 9.954120617771481383e-01 9.963581560586322050e-01 4.893912629182134433e-02 3.083843918178740817e-01 1.244680731962695547e-01 -2.558560523311269319e-02 3.351654697871814942e-02 6.136239882278935465e-01 3.811329102802300806e-02 -3.148991731692553191e-03 1.550023847901106089e-01 8.524996306563847881e-02 8.453980903155855486e-01 9.065162487508937605e-01 8.254978767799784345e-01 -1.529501070118753289e-02 2.761281256075558965e-01 -7.788268374197804267e-02 4.030608159345539510e-01 -2.987378827377281665e-01 1.381796132599254906e-02 9.956056231805637813e-01 9.939050013096498715e-01 9.965936280685889770e-01 -5.343698485435044443e-02 1.891440148300011503e-01 4.238273968036013750e-01 -1.863678729677183468e-02 -1.820332498159820678e-01 4.072574782736487209e-01 -2.604865732221177121e-01 2.233491257488992576e-01 1.167461255717337915e-01 6.956358445104912636e-02 7.822299804294092704e-03 -2.244795095449930444e-01 2.333361898191677608e-01 -2.244795095449930444e-01 2.333361898191677608e-01 5.161275090949137834e-01 -1.441164398918504674e-01 -6.716558181746692946e-02 3.874961578351773239e-01
2.626746388565722734e-01 -8.117266130557887135e-03 1.846131291745313208e-01 2.630042774304719444e-01 4.067386107571940301e-01 4.651114577982936593e-01 3.326640743442345616e-01 2.966704402820563025e-01 -2.109030580605745706e-02 -8.559317713114281134e-02 1.891949158494818928e-01 -1.849031043876910030e-01 9.697347012794719223e-01 3.620382031999476447e-02 9.024465225452290573e-01 4.242686141881837208e-02 9.803614793722948972e-01 2.107210922319869423e-02 9.162647209559453554e-01 5.478655637421149249e-01 6.785992581828165227e-01 5.308078277592458843e-02 1.415647922699163619e-01 3.741158084238855319e-01 3.956532067921804119e-01 1.272766692090526452e-01 2.075578549803949735e-01 3.095015148069532769e-03 7.259195548798433317e-02 5.253063595003616415e-01 6.261598916212535171e-01 3.143349074448367197e-01 -1.097912748799538263e-01 -6.450986676906313166e-02 3.758238100528529246e-01 3.113885672305807817e-02 3.416555352402153023e-01 -2.748721719560985252e-02 3.518872715945622898e-01 6.534106490222611752e-02 1.602813833581044345e-01 3.649039412434443297e-01 4.878666558509469064e-01 4.742526847827000652e-02 3.433101091181954834e-01 7.319042983232644517e-02 4.148526131003953954e-01 3.327585454979894442e-01 4.389276762574691459e-01 4.917712768294471570e-01 5.583984336154000916e-01 6.780618709752614937e-01 7.085520054548258839e-01 1.491382615179112359e-01 2.063262405440773328e-01 8.353357608263253797e-02 3.066349972788964262e-01 -1.169193314446710097e-01 -3.744848914016661590e-02 3.207119149777092337e-01 -2.941082925408479709e-01 2.240538088387046545e-02 8.328030563075985993e-02 1.140229938891804545e-01 5.096585439449266564e-02 1.509689514946952263e-02 5.096585439449266564e-02 1.509689514946952263e-02 -9.335058847217762856e-02 -2.968344542287471716e-02 -7.706130996886602358e-02 -9.172143536229472593e-02
2.796473930517819895e-01 -1.696274910231482594e-02 8.465377690959570156e-01 6.818923983811502332e-01 8.405409984739793394e-01 -1.318560883674896045e-01 7.596641024384964865e-03 8.766971766759916462e-02 -1.465622128104168351e-02 -1.403043119010557727e-01 1.462415938687971484e-01 3.861829725763671894e-01 9.018362099282675182e-01 3.130296311669979459e-01 8.281181455610319153e-01 3.028052349603019833e-01 9.225412110682650324e-01 3.133610840843826795e-01 7.403921446677025342e-01 2.526868971783986506e-01 3.084980756216150755e-01 2.456644628842543088e-01 2.462106810277809033e-01 3.310862011677848105e-01 3.437841918966831889e-01 7.428502663155063523e-02 1.549294151948135516e-02 5.612824459054404714e-04 9.880236328700008341e-01 9.915874572634796325e-01 9.930938880392402579e-01 1.611819104933692737e-01 3.974540198286662385e-01 2.512375523461850557e-01 2.706766687751997469e-01 -2.257063056640575688e-02 3.988011375734339392e-01 1.663530556674958361e-01 2.325145237221609706e-01 -2.444102441786020000e-02 8.603375302004294400e-02 8.375485212890980691e-01 9.087003054879431163e-01 8.216339341537105545e-01 1.106565548447708547e-01 9.944399181433477564e-02 -8.650895013838459657e-02 2.435200567568672758e-01 -4.017811243326641080e-01 -1.927014240438846004e-01 9.853712796095595028e-01 9.952337596511553475e-01 9.902062851596934445e-01 -9.228682505196626057e-03 -8.846272102265925405e-03 2.995749927602625595e-01 -4.372390537737775446e-02 1.252659042462180017e-02 2.330140484850831695e-01 -4.568484077136018007e-01 4.155566969513153630e-01 5.375946004322719185e-01 2.477196084739453213e-02 4.194017880272198906e-01 -2.668609938471351306e-01 6.101327767969859650e-01 -2.668609938471351306e-01 6.101327767969859650e-01 2.625188352859451624e-01 -2.726944537469176422e-01 3.028145585708734711e-01 3.860699541870308282e-01
2.848847708127550948e-01 -1.183645498343405267e-02 8.528722566509323588e-01 6.879380011106760451e-01 8.451346254928665536e-01 2.627786971172253044e-02 9.753903543152946110e-02 -1.458510694479009939e-01 1.908310463811256630e-01 -2.552194657360903896e-01 1.334611402078702269e-01 5.390344207419766054e-01 8.648509118195638612e-01 -3.541859057905358266e-01 7.936524554555808297e-01 -3.567479318995597781e-01 8.851263614920805711e-01 -3.541813042452804372e-01 6.482199381195629107e-01 4.022095306237654100e-01 3.941542341169514407e-01 -2.097129450811886509e-01 -2.584575942596580855e-01 2.931754088606195463e-01 2.823751645677245459e-01 7.985949865973558659e-02 1.727762521746673344e-02 -1.823609313677384538e-03 9.962703922927040878e-01 9.899801914932045976e-01 9.877857261708522518e-01 3.510477159627584109e-01 3.354122362056309592e-02 2.593046760309860033e-01 1.950395423645187865e-01 4.746440326224659612e-01 3.773229991116110460e-01 1.258377290353194788e-01 3.028760244931661960e-01 1.826166652875627072e-02 8.249133518348511496e-02 8.416041185869955754e-01 9.136289517219697842e-01 8.261788185015146446e-01 -2.201098010298608021e-01 3.972095168568786083e-01 -2.304079823222650036e-01 -2.130676080540908623e-01 -3.998654790984133567e-01 1.403107399024989266e-01 9.972839003133735503e-01 9.964973228223628077e-01 9.967166315819122602e-01 -7.343325220912766405e-02 4.567010114194107184e-01 4.272742877649413629e-01 6.444759243990291764e-02 4.598680807180874908e-01 1.989464698185577918e-01 -1.975619507804398656e-01 2.212298859263898410e-01 1.627243056253453168e-01 -4.966966286219205717e-02 -5.651251691059697158e-02 -1.491103365485219601e-01 1.846933048452558956e-01 -1.491103365485219601e-01 1.846933048452558956e-01 3.461237373510869797e-01 -4.761654737268911086e-01 5.334196319506926409e-01 4.545092969762423718e-01
3.142204440733303850e-01 -7.913653889540604031e-03 2.489955843500653576e-01 1.846913989393572653e-01 5.735323043371134411e-01 1.727703589645175619e-01 1.498674600018882475e-01 1.704387280953821859e-01 1.490826702541629967e-01 2.788330371426068766e-01 -1.289788677291625954e-02 -3.393075512003797534e-01 8.922005450310447339e-01 3.063711786315873042e-01 8.557819213070094744e-01 3.527031076944399657e-01 8.984805513264084720e-01 1.633743989991991996e-01 7.162292783915763517e-01 8.523219287305279224e-01 9.204062025747221654e-01 5.869438033756677608e-01 6.112889975952715549e-01 8.433301726567338230e-01 8.650095444435483838e-01 -1.820326991345459500e-01 2.142968413619672496e-02 -2.627367121276466544e-01 6.468156715147844738e-01 7.200355665111058956e-01 8.293521592375029394e-01 -8.559610103000586667e-02 1.965686765395951441e-01 -2.692304207492536294e-01 2.338265735813265661e-02 2.280323368425142272e-01 1.470332769160102304e-01 1.396691862356828351e-01 3.063157878627274511e-01 -1.672295553517429700e-01 5.115648897434516007e-01 6.386035579790192429e-01 6.830376844721071095e-01 5.359599427519563530e-01 4.057443851237051979e-01 1.252454395723155423e-01 2.979421455940611807e-01 2.748982024152709092e-01 2.528678813425177530e-01 1.835249291801632765e-02 5.925945772813553392e-01 9.086581373233997283e-01 6.007300035288732909e-01 1.688940540341368479e-01 -7.937060226919553929e-02 3.699176235769819354e-01 1.219320794449739176e-01 9.942165508411598962e-02 -4.326973250692394135e-01 5.892006250058441641e-02 6.977940524258437194e-02 -7.372590746315108023e-02 2.560490743889062837e-01 4.218472166524950828e-01 5.097832924014044087e-01 -2.631606840621218968e-01 5.097832924014044087e-01 -2.631606840621218968e-01 -5.473957987199865732e-02 4.612841142261652760e-01 -1.684319296406935340e-01 -1.251527055718617554e-01
2.921154014709476110e-01 -1.430359032865921934e-02 8.459346366726142596e-01 6.968182919217414950e-01 8.375947805887568043e-01 3.742760713986496152e-02 1.062312762205287475e-01 -2.204802567138453295e-01 2.804893187691455125e-01 -1.121052838603747437e-01 1.230471550788523327e-01 -3.394221813024010381e-01 -2.671535890768011456e-01 4.586087417887758644e-01 -3.288132420339531792e-01 4.488851359742437874e-01 -2.242692525000604120e-01 4.548195881821828768e-01 -9.433599295954920860e-01 5.669202537579418610e-01 5.647495293477611256e-01 -1.232008648550983049e-01 -1.147670869706165775e-01 4.843622704774283028e-01 4.878311511894658503e-01 7.297050908020299986e-02 6.677395765448802464e-03 -1.208289813356319773e-03 9.908695664730221564e-01 9.864006612675652041e-01 9.921717343780227516e-01 3.268032490152404379e-01 -1.075458428377577685e-01 3.746898112590282270e-01 -4.202177018779514051e-03 3.326099979534224982e-01 4.788743197501535431e-01 1.329566936199481630e-01 5.618756395008389637e-01 2.538949845571069480e-02 8.605159922127958438e-02 8.416051378826668872e-01 9.079455453335346649e-01 8.266361851481964784e-01 -3.475068087709399373e-02 4.507072380618661889e-01 4.073677961739170794e-02 1.730686311443834779e-01 -3.823021894780441188e-01 4.193099782132596320e-02 9.940009116155757996e-01 9.973533659206500479e-01 9.958790262091733458e-01 -1.263101747451295664e-01 2.949338804029828509e-01 4.061558123365818229e-01 1.285455537908622159e-01 7.281669694401894655e-02 -3.240202607851775524e-02 -2.885053507731584754e-01 3.811565771948696169e-01 2.059782314307168904e-01 -4.188800720757437923e-01 8.466836147381043287e-03 -1.913442625749692816e-01 3.346406082515498426e-01 -1.913442625749692816e-01 3.346406082515498426e-01 4.041432369624209375e-01 -3.013975129906617534e-01 -1.500182556752518298e-03 3.863263537407468640e-01
3.197967925391961286e-01 -1.370742825036432716e-02 8.303403984293615814e-01 6.882243238237238936e-01 7.678768290335740154e-01 6.474392226214145118e-01 1.064557008682142092e-01 2.656784868963332213e-01 -1.969025909775160843e-01 1.069222173939599618e-01 1.320858378941938416e-01 -5.337675152979376447e-01 -6.647203128963949381e-02 8.376500759457833345e-01 -1.229639112048473426e-01 8.260231198055696389e-01 -3.651326938620178680e-02 8.365695786225071373e-01 -8.372736714028293781e-01 6.073224505548597829e-01 6.127283598118942187e-01 4.232884887788159745e-01 4.469424091476029703e-01 -1.418423477058363136e-01 -1.410202668054386654e-01 6.830581873363730794e-02 3.899813722035021246e-02 -6.095162641810197846e-02 9.159946987025266996e-01 9.648734124724409611e-01 8.956430261528891545e-01 6.087648774435866494e-01 -1.684648426061716719e-01 1.831237180187910984e-01 4.365685972279276794e-01 -1.018500150881514466e-01 5.460648045044889931e-02 4.841188382100076737e-01 1.336480988927691016e-01 -5.221151457557328124e-01 1.028885599375133492e-01 8.357319079203636703e-01 8.010726906356843147e-01 8.149971727691250889e-01 7.918678623400496885e-01 -7.682461037864561915e-01 9.896683304612735599e-01 5.023808175061751369e-01 2.580549944639196069e-01 -3.907869312578154779e-03 8.400839766700493039e-01 9.431801162344607414e-01 9.705789549750928336e-01 5.448719869925980896e-01 -4.902367821528402225e-01 7.216646972269707971e-01 7.717349675424461930e-01 -2.814781237943873582e-01 9.841274742189621075e-03 1.285302098160189810e-01 -1.868355448030272481e-01 3.940880264374064801e-01 -8.483599059165772838e-01 7.467647342031142887e-01 3.080877971702840057e-01 -4.690887842657957552e-01 3.080877971702840057e-01 -4.690887842657957552e-01 -4.148942244610521746e-01 1.321320938472291817e-01 -4.377448401998110250e-01 -3.981450561439334179e-02
2.919374986324800303e-01 -3.499503976575028819e-02 3.224368888470861005e-01 1.725590695937539720e-01 1.499841575224146739e-01 1.294688649496966715e-01 -8.393617725579574640e-02 4.050141568472545583e-01 -1.044760680157797023e-01 1.266368653506662889e-01 2.015557297237995649e-01 3.710130246833136525e-01 9.353921173412828027e-01 -2.111049666080898335e-01 8.703761270721721566e-01 -1.994311855485743912e-01 9.438386984069406793e-01 -2.209489458130402817e-01 8.262383203033971668e-01 4.637409834211970727e-01 5.508994158683666598e-01 2.188374045109928723e-01 3.431984502292254602e-01 3.993227421817108214e-01 4.971012061640498469e-01 2.050894260616744902e-01 -8.612168939180889216e-03 -2.747103620353507636e-01 3.518246162700631174e-01 4.930252209114830420e-01 4.517230255707719300e-01 2.277720860118621210e-02 2.070418118924817752e-01 3.027169905444456258e-02 2.355890628847327473e-01 4.610779617338497949e-01 -2.678086447716176988e-01 3.202861001859719919e-02 -2.018361304490824681e-01 1.696267403180710398e-01 1.785462243810464755e-01 3.636621013181453033e-01 2.554334712899782867e-01 2.696410470905380996e-01 3.454267608205007778e-01 -2.008736767926624922e-01 2.826140339133531021e-01 9.915582479536581492e-03 3.133888486928279593e-01 1.308361517056729206e-01 7.178482725488264382e-01 1.357738536316675793e-01 6.851437020663623256e-01 1.878638360620279446e-01 7.507948992219705409e-02 -2.697424983887447558e-02 4.379348580669772395e-01 1.393070016825112001e-01 3.576340836846916282e-01 1.448118916850340832e-01 2.406970775161609011e-01 -3.293994325653907818e-01 -9.604239466847214191e-02 2.304246193073885285e-01 8.601112135503484468e-02 1.390895937211122646e-01 8.601112135503484468e-02 1.390895937211122646e-01 1.439736044573594964e-05 1.669160696889198103e-01 2.866333015079512991e-01 7.704467397619565450e-01
2.756845425045148512e-01 -1.650567784196053933e-02 8.487454790047019859e-01 6.902639604652692773e-01 8.373272154288997626e-01 -5.511555843553855860e-02 1.905552320035856229e-01 -5.005787327267242626e-01 5.574965856309066492e-01 1.127993733904425755e-01 -1.600054386608742441e-01 5.225851215621001300e-01 9.407182879961935029e-01 1.961286583428715202e-01 8.663686796000901191e-01 1.897309674024949544e-01 9.600955759474147921e-01 1.972512405483439479e-01 8.400406468112568970e-01 3.522056799560536189e-01 3.760146471247198252e-01 1.973766766385033899e-01 1.905948696316510926e-01 4.041698249482308936e-01 4.275943527406285694e-01 7.906945860836943341e-02 1.320879826098165025e-02 -4.676037737685635742e-03 9.943402283561899591e-01 9.950484896099379695e-01 9.896910600262635027e-01 1.288680808224971219e-01 2.175301842746899250e-01 6.206295937031046372e-02 -4.488043624775465701e-01 4.793608439433729163e-01 4.181975565449868593e-01 2.042267184698332294e-01 2.635460084527927460e-01 1.718929844095551940e-01 1.035777187181698700e-01 8.437922293838466814e-01 9.108111167354500104e-01 8.238340311727303522e-01 -1.459159770428014591e-01 2.988797198444879677e-01 -2.764475390347972267e-02 7.943050671244052119e-02 -2.679357721882848486e-01 2.757884768796670105e-01 9.947020490067436382e-01 9.970259562673847720e-01 9.972231420002835023e-01 -2.410205284394793535e-01 2.529444757978523417e-01 -1.230495451156077193e-03 8.046472534570661694e-02 8.856277600390120505e-03 5.564013368499386436e-01 -1.678049172148939061e-01 7.912375350342236435e-02 -5.788883472330935698e-02 -2.126094889900906060e-01 3.019356680413508021e-01 -1.435728207231275477e-01 2.286082747941976245e-01 -1.435728207231275477e-01 2.286082747941976245e-01 2.475509036014967579e-01 -2.269380279148362489e-01 2.265781682490558557e-01 7.032502786914198722e-01
2.900562615839496483e-01 -1.115391391958190856e-02 8.328070102744098424e-01 6.921026839088574301e-01 8.298963268193345622e-01 -1.139534842219021987e-01 -1.340041687168238571e-01 -1.121553615879532784e-01 1.907229622244539791e-02 -2.249266796795303669e-01 1.732388248226068850e-01 -5.791824003121313069e-01 -3.243161408804066670e-01 8.775370736595261567e-01 -3.875164884658680586e-01 8.636293870439023523e-01 -2.784403274236842418e-01 8.752421048299308115e-01 -9.362179184127269460e-01 7.324685975865787846e-01 7.353157564448965511e-01 5.759317150648088912e-01 5.746455735824300692e-01 4.870964163061046737e-01 4.918135168803657309e-01 6.328705981112027479e-02 9.840584122990983160e-03 1.449718164178313319e-02 9.770598632723027643e-01 9.954707905597428574e-01 9.850584049341859494e-01 1.312448194381871970e-02 2.997133109842766707e-01 -9.470189387099300915e-03 7.742398463888745808e-02 -4.087399709341917736e-02 4.046252563119547840e-01 6.608730493230194347e-02 1.234452879669133696e-01 8.025424802247306533e-02 7.867438313666891281e-02 8.306148418581424941e-01 8.962386205932031391e-01 8.243719343706290559e-01 -1.142486659939708216e-01 1.894678561378974335e-01 2.166659109005475148e-01 1.095014201225735367e-01 -1.110223975397026386e-01 1.554525964915215441e-01 9.840660026830871931e-01 9.914948810489592201e-01 9.962109172732199758e-01 1.163545067198561156e-02 3.875998818594375006e-01 1.195755937663433716e-01 9.724701443660795086e-02 2.926246580253967222e-01 -6.243552113857705477e-01 7.436952218000969506e-02 3.486206759584251774e-02 2.789087181565842455e-01 2.115734331266630186e-01 1.445168171060850215e-01 -2.101554181163925450e-01 3.910308180747276152e-01 -2.101554181163925450e-01 3.910308180747276152e-01 4.322885575363479838e-01 8.056011018988609718e-02 -6.205541353016984923e-02 4.151156520394427285e-01
3.397989150874430875e-01 1.629512986875730415e-02 2.072123436508516714e-01 5.035143837755101659e-02 -1.943498526059194709e-01 1.165194264687000048e-01 6.201808921463965868e-02 6.613390635473323509e-02 3.509216615897051694e-01 2.061494896293396828e-01 3.149272391688476974e-02 -1.862962598405902837e-01 7.167809541081042735e-01 -4.253060405368698782e-01 6.677255976559129946e-01 -4.067440477325676706e-01 7.043426745151178947e-01 -4.440248668870266369e-01 3.059462966219839153e-01 7.239549150105469844e-01 8.072724627463648828e-01 7.022642447497494667e-01 7.353869352603590315e-01 6.969342494825047085e-01 7.350909575161787002e-01 -3.708412130892318331e-02 -7.450215376910392095e-02 -1.285389664543834520e-01 4.061830639670832577e-01 6.360125221094804493e-01 3.682251775830033269e-01 4.589566442169211447e-02 -8.629034297810873888e-02 2.769023801967043230e-01 -1.728528974881324565e-01 2.874719076006172491e-01 1.469634122785263286e-01 -6.331357451217013710e-02 -2.103990783869799375e-01 1.200960950383296588e-01 1.224613360199637846e-01 4.109849751096152359e-01 3.685020490489507305e-01 -2.158944560273452495e-01 1.775383398306646099e-01 2.260916320093692977e-01 5.160786674825257325e-01 1.909555790317349899e-01 2.879726939619127180e-01 -9.590444672649516000e-02 7.270449282682788228e-01 5.340420895549851110e-01 5.967420859786494169e-01 -6.982441220544099991e-02 5.992995342845298251e-02 2.019566583428059336e-01 4.465690734096079417e-01 -2.773920162057643690e-01 2.563537372784407409e-01 2.076506340271838322e-02 1.015263679558923021e-01 -5.808629652859827186e-02 3.878449882202761323e-01 1.235516533461714500e-01 3.949978280093526806e-01 -1.656258515487860905e-01 3.949978280093526806e-01 -1.656258515487860905e-01 -3.047509839951029753e-01 -1.111540455642544972e-01 -1.028366670491261403e-01 -6.791845405529930990e-02
2.785810275477543230e-01 -9.959522147284027155e-03 8.510660317975401457e-01 6.815495897748480303e-01 8.454941154230536382e-01 -8.100575929754204318e-02 1.827480464306832919e-01 -5.823317715137596440e-02 1.909430378497898595e-01 -2.187039165130267027e-01 2.161845073123960792e-01 -2.841597966439196599e-01 8.230253979250859997e-01 2.432494832810359331e-01 7.497895112486052671e-01 2.354059007761836186e-01 8.439544987784272090e-01 2.400789280448616947e-01 5.472820840124100750e-01 4.443941414646541133e-01 4.450653197716362142e-01 9.072194912983687631e-01 9.075882561063149945e-01 3.803545729814573062e-01 3.793514678577172283e-01 7.437584962676438427e-02 1.553114917411408183e-02 -1.261789692301753217e-02 9.948123452332171546e-01 9.873544507509346424e-01 9.904010027935871152e-01 2.047387110130793331e-01 8.703076824150260404e-02 2.691398751578618631e-01 2.031257224216293789e-01 3.815409409108836414e-01 3.928027965721630488e-01 2.056917844491959815e-02 1.989037198689964647e-01 -2.594207680329806420e-01 2.233742851456714529e-01 8.320265440911620569e-01 9.061345306434273050e-01 8.440900780867217623e-01 -1.668640484033457605e-01 4.373603359091247089e-01 8.179428226246884814e-02 -9.753239481486854212e-02 -1.944966560812660950e-01 -1.310188144005343391e-01 9.968656108189160037e-01 9.939897133470301238e-01 9.936019204835320195e-01 -1.409717818963746871e-01 5.162680069741916178e-01 2.220285743990106919e-01 2.253095275204304929e-02 1.259444462895157602e-01 4.015479032269763660e-01 -1.093190728203348866e-01 2.997682912416292367e-01 -1.546652820158256336e-01 2.982582887498205215e-01 9.120130944833949871e-02 2.452438756405376716e-02 1.136665726268939469e-01 2.452438756405376716e-02 1.136665726268939469e-01 5.179325135068960639e-01 2.476085504663749493e-01 -7.676468336314500041e-02 4.221852129345051163e-01
2.234699517714280881e-01 -3.317023244731337733e-03 1.666102635486134687e-01 1.355326772021011039e-01 4.813533406402634163e-01 3.207454329665653803e-01 5.464113338210866422e-01 6.076383875978428467e-02 1.250667681259693409e-01 5.319406349875666074e-01 -5.089506962147187785e-01 9.884091904131935002e-02 9.540550037552031348e-01 1.512593245653353902e-01 8.903282549306122950e-01 1.574779886989387812e-01 9.619294491149464887e-01 1.346597712443020067e-01 8.749205100184308526e-01 6.858045180830811827e-01 7.720236291845355980e-01 2.139828407463709170e-01 3.062320075738926839e-01 4.271611306357457338e-01 4.565645162681313263e-01 -5.806707339742698259e-01 1.094579337093071203e-01 1.857432089495123645e-02 2.041084377859955779e-01 5.540119741957965083e-01 5.133175030034690112e-01 2.000027839969803767e-01 -1.381330854620954063e-01 -2.504618451380889455e-01 9.319759493987196664e-02 2.306677518600104559e-01 2.170546113693785084e-01 5.172051923753264724e-01 1.960303365700967124e-02 2.066072700426881126e-01 5.753359207821059917e-02 3.392861111606123581e-01 7.040413414614860033e-01 3.995231502670916757e-01 2.933887781983888776e-01 -7.488932004728399150e-02 1.420824661554316304e-01 1.957408529376727380e-01 5.897655254981443856e-02 2.512281330559058001e-01 3.965072880374688746e-01 8.295519565601474632e-01 4.756195676916911141e-01 1.166256115235120711e-01 2.225788589364835202e-01 -1.596032775672334703e-01 1.119147910743853030e-01 1.851155236569712315e-01 -3.217756464386011817e-01 1.268720843545465826e-01 1.545449866813491391e-01 -9.358500175674705490e-02 -2.050240404948822648e-01 6.702783047900388036e-01 1.198058045547656658e-01 6.013380612923466956e-02 1.198058045547656658e-01 6.013380612923466956e-02 -1.123539364750015535e-01 8.524129378814204738e-01 1.682221249101768235e-01 2.082935621664627757e-01
2.748600230861615312e-01 -1.852620505488411506e-02 8.472403238782127977e-01 6.743852022630381082e-01 8.304995878531661324e-01 -1.637703250050641657e-01 7.773914119098011832e-02 -1.701829298081837527e-01 3.682711508522954480e-01 -2.749534816970541917e-01 3.842723351055191694e-01 -2.578607474191589866e-01 9.194482731795405872e-01 -2.047726085009676511e-01 8.461594527689010325e-01 -2.089545732753896323e-01 9.391046093834500841e-01 -2.083328715430334543e-01 7.851878764639971253e-01 3.011911099323261176e-01 3.639234999103594381e-01 1.718690456099149777e-01 1.427399466805147898e-01 4.307223236434298275e-01 4.339972086024567743e-01 7.640284166583966030e-02 2.736600846123566147e-02 1.359820649706055401e-02 9.924317120389301028e-01 9.817694112393235972e-01 9.858991024686952764e-01 1.695656500929049737e-01 2.807942641486753099e-01 4.555082893788666154e-01 -3.507321780342684964e-02 4.254835474255625472e-01 4.685786343726348058e-01 -1.740393587274764176e-01 2.618353168264393460e-01 5.520991310766330470e-03 7.469409036045082662e-02 8.267521024799443508e-01 8.994671236179946350e-01 8.171615583342348721e-01 3.070176312814741904e-01 -2.592518254527836352e-01 1.429937636451486249e-01 8.453628895666120621e-03 -2.672210333536412796e-01 9.144637149325704484e-02 9.799888957111475563e-01 9.893394208723420569e-01 9.959853197438722772e-01 1.576579435470398527e-01 4.754119942384515962e-02 -1.679876694248428892e-01 1.230496864863197815e-01 1.820109614763939787e-01 1.351860756283343283e-02 -1.591525573951491357e-01 1.800631929672491804e-01 8.773321359879655834e-02 1.846747351024822723e-02 -3.035367725699311334e-02 -1.207517333105450758e-01 2.984094121230923546e-01 -1.207517333105450758e-01 2.984094121230923546e-01 4.375121770958813605e-01 1.329454063262316965e-02 3.117351656502750368e-01 5.351622794608743572e-01
2.851260569379961418e-01 -9.043776687179217941e-03 8.499385810210902115e-01 6.933176774504934414e-01 8.478101889815186087e-01 -8.687102424828362091e-02 1.214970802303061703e-01 -2.239281233440881813e-01 2.491742358028904980e-01 -6.810984489044295820e-02 1.073212869806781239e-01 8.881849121544563297e-02 -7.234525907052180571e-01 9.776390095812267367e-01 -7.877150915716094604e-01 9.631783158770556019e-01 -6.679883850824452907e-01 9.758435970600177756e-01 -8.883758732300854888e-01 4.869711252683671665e-01 4.864654074279333718e-01 9.245025011812337823e-01 9.355534985188067587e-01 3.082294105704811438e-01 3.278979755504584093e-01 8.075928363939464949e-02 -2.889780117366093077e-04 -1.625373315225477067e-02 9.933690951607564434e-01 9.902490221160378248e-01 9.914075834267368492e-01 2.239555050311426709e-01 1.000766421892669844e-01 3.223206227785290756e-01 -8.145855268384132042e-02 5.189654190281408619e-01 3.930187388199291726e-02 5.846430377487953078e-02 2.197045999507982184e-01 -2.211779951275626988e-01 1.101453661525853556e-01 8.477408214876656078e-01 9.099028848066570418e-01 8.287636259096743396e-01 -6.581764306900608763e-02 1.830969579603941855e-01 -7.992257989140563734e-02 -1.888802049642960279e-01 -4.015462008663258087e-01 -5.826472585581273650e-02 9.919038749200359550e-01 9.967978729784662262e-01 9.956029471068381653e-01 -1.049807791791993322e-01 9.114431912453022089e-02 2.151611729789411342e-01 2.372363052095991798e-01 3.449313187066533337e-01 3.543332922471171820e-01 -3.606328135399303192e-01 3.923442336004309139e-01 -2.761537111224008356e-01 -2.291206625416062834e-02 -1.061823751198277821e-01 -3.476182941243281532e-01 1.277698584580283514e-01 -3.476182941243281532e-01 1.277698584580283514e-01 3.881930056955525954e-01 2.186220072179868856e-01 3.177761016532720806e-01 4.230431970934360741e-01
2.745364458733642321e-01 -1.879659191953001948e-02 8.414127616301207979e-01 6.830714105603821196e-01 8.481781113854108822e-01 -3.688315665115659420e-02 1.421519212937945864e-01 -1.892498771300434035e-01 2.517589245600177494e-01 8.501205984578055763e-02 -7.614407228329798938e-02 -3.434203288124209608e-01 -4.177803520805545290e-01 3.232337650563146259e-01 -4.840785457035885475e-01 3.187007399793989615e-01 -3.684069551987111946e-01 3.216009900268540500e-01 -9.664463356362649193e-01 3.512344081472428825e-01 3.960873336699158309e-01 -5.663158745865369825e-01 -5.663720541343980619e-01 2.925023935613954018e-01 2.862025331406419792e-01 8.207331488894806237e-02 3.080792167511496246e-02 -4.944895613368359075e-03 9.839049726566647669e-01 9.803083420786699032e-01 9.881804585826617915e-01 3.380130406602144810e-01 1.691542906651511413e-01 2.509514123505958705e-01 2.220494662432982713e-01 4.395226792551722439e-01 4.837550143098865441e-01 1.587296805489901985e-01 1.283804866535568912e-01 -2.743737616090423104e-01 6.979155297854239270e-02 8.414740796187685223e-01 9.068946568067476344e-01 8.250952908984398038e-01 5.077321140667054485e-03 6.271177111127856918e-02 -1.180911850927547461e-02 1.150586870728980970e-01 -3.262838923147104442e-01 -3.684808614352505507e-01 9.910881390529941992e-01 9.950966664954865593e-01 9.974558428215729577e-01 1.337881409866030213e-01 1.979994620195362487e-01 3.666414520431488522e-01 2.877379524930992472e-01 2.060336279537106630e-01 2.279999306084896649e-01 -1.565017731060384942e-01 4.450692803680116327e-01 3.121355668279481854e-01 2.489962823978486839e-01 -8.997714390502250734e-03 -3.465387653489899189e-01 4.169184604228178825e-01 -3.465387653489899189e-01 4.169184604228178825e-01 1.489265360574074659e-01 -4.249387798742902400e-01 5.068367420316021166e-01 2.641837950355964693e-01
2.666024428014236447e-01 -3.674323161195797161e-02 1.577215663213080987e-01 1.573626375093648555e-01 4.886489303430080477e-01 3.702655876184123285e-01 2.722270593614212197e-01 4.472894817576047455e-01 -1.830733079639123850e-01 2.060031569502259463e-01 -2.114036028221108476e-01 7.076410768299132292e-02 9.463642564004990376e-01 -7.173451455029111572e-03 8.795462572148632363e-01 -9.991321741452556526e-03 9.554000142047128774e-01 -1.633141783891311691e-02 8.547698093834283917e-01 6.307812991150106852e-01 7.105718302059189639e-01 5.342146049863039092e-01 6.097229282309721832e-01 5.762853403179275524e-01 6.240265051468438795e-01 -5.121178387708201496e-02 2.506862432986881745e-02 -1.211976086941364723e-02 3.726926305547179630e-01 5.695979683268861393e-01 5.931203680840337888e-01 2.788298145531780681e-01 -2.585864029701983591e-01 9.331460074428912788e-02 3.838383718674500122e-01 -1.388153869123515682e-01 1.899599462727866450e-01 1.861502732857916731e-01 7.933547677488834993e-02 2.678884931764121680e-01 1.282798778203594336e-01 5.725835772557019698e-01 8.065395383125111284e-01 2.687303857503836602e-01 5.700971833559864005e-02 7.795243285136514710e-02 9.070984434946237351e-02 -1.754710501285449142e-01 -4.973795696799580141e-02 1.630725862683257976e-01 7.241573987352022401e-01 8.260464768122753876e-01 5.396440251914702557e-01 7.910443266476448188e-02 6.493036648394996668e-02 2.521183060791297725e-01 1.267746251662635604e-01 4.800753126057182851e-01 -4.465335115810261102e-01 -6.699732433022830003e-02 1.572030851491680870e-01 -1.592683920601349612e-01 1.232447090715895338e-01 2.201213239468616800e-01 5.293730351245490295e-01 -2.871340316942009308e-01 5.293730351245490295e-01 -2.871340316942009308e-01 -1.945296377943544763e-01 9.142089704606319867e-01 7.623075452554012310e-02 2.715595847579002076e-01
3.818763189173051131e-01 -4.358969092526621646e-03 3.465734240689594681e-01 9.813743735356825204e-02 3.687534561788597103e-03 5.740530541631461148e-01 2.884401956003355139e-01 -2.639923092959297057e-01 4.777370534132410751e-01 5.912982119934816483e-01 -2.911034685206853601e-01 4.204965033973255828e-01 9.100550995670797505e-01 -2.829504401780122413e-01 8.505755232968306156e-01 -2.774037980203328813e-01 9.190982080814453781e-01 -2.865685503414075463e-01 7.612555927643088749e-01 6.100413752932121181e-01 7.269933953161155094e-01 1.544444469064849002e-01 2.118571762325362762e-01 4.581510694199517619e-01 6.133992639630317933e-01 1.281384461479293801e-01 -1.599563892151091571e-01 -1.360506867238648609e-01 2.441963149369522079e-01 4.404888242065947423e-01 3.571765691321545089e-01 5.008069749105017454e-01 -3.400676300488565951e-01 1.802536823078424721e-01 -2.689288984403219729e-01 2.659206823343899240e-01 7.495211393446584713e-01 3.459432526390643359e-01 -6.675760958161230940e-02 4.995114823477947441e-01 7.447049732647011144e-02 3.487478047151668648e-01 3.337309582382667617e-01 4.731796208410052329e-01 3.278567141885404407e-02 5.253810545734378668e-01 3.356561594860896225e-01 3.735501654633321955e-01 4.279981265683832081e-01 3.219574426049793825e-01 5.903871212783740052e-01 6.090870534758046073e-01 6.389551340661988599e-01 -2.653564937670220836e-01 1.255591744900886875e-01 4.309592594499844220e-01 4.139833827270943400e-01 -4.556079729198161954e-02 2.592391520513173675e-01 2.182480118847413275e-01 5.615505731599394756e-02 -2.800908013654720974e-01 -2.810005765386293652e-01 1.135567476573074719e-01 6.221275296666325394e-01 -4.370685926958658984e-01 6.221275296666325394e-01 -4.370685926958658984e-01 -1.498435942037405211e-01 6.763706207307168539e-01 -1.118089149266463106e-01 3.121546767556965252e-01
3.050855147629421560e-01 -3.554510665080563153e-02 3.289832687436033409e-01 1.540515576072339354e-01 5.758289661089164291e-01 -8.953228121223073821e-02 -5.139197943101745519e-02 2.387794020615502041e-02 1.815132045196994892e-01 5.469096307076687369e-01 -4.654114322322300268e-01 2.219381456666239816e-01 8.917312365897366311e-01 1.141890889648569940e-01 8.252738563910849701e-01 1.217654611969965633e-01 9.044476520662951824e-01 1.042364951924698163e-01 7.150678270386227053e-01 7.020509733588276013e-01 7.696029519890997816e-01 4.412817785566173212e-01 5.554366990876544730e-01 6.328954088251538268e-01 6.493221104392091769e-01 -6.695751090732932065e-02 -5.637547759102651268e-02 5.882010227515308692e-02 5.684571238248131708e-01 5.762406058630424877e-01 7.872968373475147663e-01 -2.931817785665370990e-01 1.819510765262638552e-01 7.474178707035565583e-02 -2.201410035549250521e-02 -2.929431827277449371e-02 4.877130425057865648e-01 1.438126770658100240e-01 -6.553147701092285615e-01 4.050582213871783965e-01 1.002534623891393889e-01 5.337949978346308022e-01 5.639056405454332399e-01 5.964594410082345588e-01 4.004558924056922931e-01 7.526962849934524559e-03 4.225995883184548441e-01 3.693617665291173413e-01 4.069758305363645468e-01 2.573950011955536965e-01 7.652005493522249235e-01 8.813341147313441537e-01 8.490658673799335032e-01 2.080132325560311024e-01 4.161545894458917524e-03 2.023415919399820517e-01 2.841101348883083855e-01 -1.466418072451629862e-01 -1.349888158716427977e-01 3.127635524851271609e-01 -5.928138182584406085e-02 -1.002625202194812049e-01 3.962215849867261053e-01 -2.064379707668120845e-01 3.926780558045240843e-01 -1.620841064519351893e-01 3.926780558045240843e-01 -1.620841064519351893e-01 -1.225474797668128779e-01 7.764672765165893109e-01 7.792192280814996819e-02 4.131542171234411226e-02
2.365740163488210535e-01 -3.902865922596278347e-02 -2.286562166082668768e-01 -2.823335113577603583e-01 -2.840454297009504803e-01 7.879722409431186292e-02 1.002524508293197031e-01 6.626369366191785237e-02 2.219488495278482687e-01 -5.674999685691514695e-02 1.437026236050798489e-01 1.955358952654868976e-01 9.096831456860646758e-01 -2.002081629850034628e-01 8.428587463388351742e-01 -1.875106641993757595e-01 9.173431240083886884e-01 -2.152086761648654423e-01 7.603683623344188458e-01 5.084111098699183318e-01 6.374909601325545738e-01 2.725101562412883816e-01 3.027982505916502753e-01 3.605052803146105433e-01 5.090053039560794579e-01 1.685750376557936525e-01 6.348025910909639580e-02 -7.052117676237253108e-02 1.811067489788340534e-01 7.813286834673523196e-02 7.354890516528173050e-02 5.276543342249613577e-02 1.545653485636953872e-01 4.182451487653822408e-02 1.927497876535551671e-02 3.134832265616875335e-01 1.927094187458669172e-01 2.761053360883868393e-02 3.420557934562417080e-01 3.242947600795456076e-01 1.858398022148574080e-01 2.162068067751511669e-01 3.551493959209101048e-02 1.565334231502056583e-01 2.730272802189369630e-01 -2.731741854108321599e-02 1.577290864384607028e-01 1.442780896557903370e-01 -5.171212772662029528e-03 3.480267852332410428e-01 2.645739690948867850e-01 2.524840713211441434e-01 5.426525940292515893e-01 1.306697957829955348e-01 1.741091023135842852e-01 -3.350101540709889136e-02 2.416704412634861354e-01 2.514251718543702996e-01 7.677655091258546102e-03 -3.475805574307863632e-02 2.666765458004584106e-03 -5.112533725146892888e-02 2.748854234765648052e-01 1.059088377017886329e-01 -5.174578185159479232e-02 2.140213908598685710e-01 -5.174578185159479232e-02 2.140213908598685710e-01 9.176260592738413879e-02 2.252044888757553931e-01 8.723192358210241082e-02 6.029752064727323946e-01
3.205619150690901531e-01 -3.356813520279550850e-02 3.436792378324253772e-01 -5.749269253789680671e-03 3.077598931514857195e-01 3.537667548946272777e-01 -4.570026995900051264e-03 4.126760930485977030e-01 -1.540389844161933752e-01 2.645304825798361903e-01 8.212676973040729939e-03 4.582491447326610401e-01 9.329997894323039942e-01 -1.387625456700941340e-01 8.671678250732244297e-01 -1.383882111709489326e-01 9.428030466714378832e-01 -1.510637012024569348e-01 8.200999085053536364e-01 4.152875250558341613e-01 5.489586348350753431e-01 9.641800900171361433e-02 2.894092358672923360e-01 3.083712812670199033e-01 3.688978207408595278e-01 -6.349521388462174565e-02 -4.967444420778391323e-02 -1.176377585201763554e-01 9.262911274780616377e-02 1.379216398530928693e-02 4.699526937889833555e-01 3.855333503064318212e-01 -4.291160316089573379e-02 2.407633395082355854e-01 4.189836028808274215e-01 2.018221810278383321e-01 2.140170043155859569e-01 3.150116153287241816e-01 2.080858757209018972e-01 2.634910638715086129e-01 1.445794848645582664e-01 5.725877810874306917e-01 6.512776509438474859e-01 4.286866273721914311e-01 2.598556636769427386e-01 1.166972915283529810e-01 2.432195265914303406e-01 1.172299260467122173e-03 4.264392152345721776e-01 1.722018309792007762e-01 4.823289829912063564e-01 6.989806567734847542e-01 5.282594827448098274e-01 2.391314491419012089e-01 4.055864532250469390e-01 8.512738503243830190e-02 2.007051505903323374e-01 2.653892241220509596e-01 6.868657918789394801e-02 2.633599306932705164e-01 1.563129543637582775e-01 -2.336853192529740053e-01 6.300760066180081109e-01 -8.156949412356706217e-03 1.352972021987313145e-01 -2.826837180814426725e-02 1.352972021987313145e-01 -2.826837180814426725e-02 -1.899557201910472282e-01 9.421156510219014235e-01 2.834857182274892404e-02 2.916247679758209865e-01
2.886739783080526367e-01 -2.517176421201527958e-02 8.287562530279800610e-01 6.553206067914753019e-01 8.263831161342325426e-01 -3.928085547450474446e-02 -2.179834444233041263e-02 -5.331993778876462087e-02 2.219719269249116056e-01 -9.919552732069113199e-02 1.049318816725726411e-01 -5.568032295815771304e-01 8.070249078878340976e-01 9.348493954544449813e-02 7.405696083540151964e-01 8.867438704989551168e-02 8.265578439880675310e-01 9.329592699761753150e-02 5.097609242410021668e-01 3.400804377420671432e-01 3.484910468997377553e-01 2.931321698289314215e-01 3.119710717742028017e-01 3.442434319290951228e-01 3.680468830929661816e-01 7.967783431224761959e-02 -3.469587979400132888e-02 2.298199220019844433e-02 9.482445594861889093e-01 9.366728943420733478e-01 9.539377872886576348e-01 1.601344823427224562e-01 2.769035668212772028e-01 1.664248088123360392e-01 -9.154751824418383421e-02 6.186384606241662754e-02 4.243362086762961227e-01 -1.238091604449409987e-03 -8.343450892975796951e-02 -2.023937022822709375e-01 1.156318705178668443e-01 8.319896908429749161e-01 8.791164447633650347e-01 7.435473133599549422e-01 3.320544990620348524e-02 2.849705359137992278e-01 4.657049401135063271e-02 1.650100544254329282e-01 1.800246386076110316e-01 -2.989657887010436707e-02 9.806003235275037033e-01 9.807077261230746634e-01 9.407541940754670096e-01 -8.849816773008337134e-02 4.461634022388495380e-01 -6.036003576419528976e-02 5.265149761193843592e-02 1.220994686510985111e-01 2.385083356849063418e-01 -7.451377611633686060e-02 3.907172493790669332e-01 -2.800161555377143618e-01 2.046357352584217970e-01 4.536573613939453575e-01 -7.315302253630251439e-02 2.776740129750504549e-01 -7.315302253630251439e-02 2.776740129750504549e-01 -4.531875822373853530e-02 2.898071290066147054e-01 1.332708808702870174e-01 2.141470374103337793e-01
2.856369575516011783e-01 -1.696402309883113940e-02 8.486263133020784943e-01 6.673078839551177532e-01 8.445410302352051035e-01 1.753712596395038889e-02 2.629426726894065758e-01 2.088394412709946787e-02 1.090309271135906644e-01 -2.490819113000858898e-01 4.770730052969805457e-01 3.667618148370355158e-01 9.281140088059094406e-01 -2.583015654772983782e-01 8.545299368951448926e-01 -2.617602729638788817e-01 9.471536586530141522e-01 -2.597733125464132264e-01 8.074496906260429929e-01 6.304220553260332371e-01 6.780951777108651379e-01 3.799080804968408831e-01 4.787105111471110508e-01 6.280637344938460043e-01 6.380447724074617133e-01 7.394841663402201837e-02 3.309885539917504366e-02 2.389309217051861431e-02 9.873747430438623018e-01 9.706156003405036481e-01 9.800011562034987023e-01 2.214524060437352837e-01 -6.622175045793932124e-02 3.072264832379259514e-01 1.316036039291302619e-02 -5.565220982604244387e-02 4.496380289420217613e-01 -1.701910771442264603e-01 1.647617764105050453e-01 3.601839304651920787e-02 9.290509556584893025e-02 7.919871358939392092e-01 9.091230506235220554e-01 8.179251454402454158e-01 1.039236712219615832e-01 5.155234843810280188e-01 1.265602709650043844e-01 2.704916892588833388e-01 -1.370722353042173602e-01 1.813512088784517695e-01 9.635453664325400736e-01 9.926194101515284363e-01 9.954790761184704184e-01 -1.574825041497798228e-01 -1.112348860657736832e-01 6.255004434879702924e-01 7.845317039772448098e-02 -1.518960060682952862e-01 1.769609350194215058e-01 -6.029478508364765482e-02 -9.886078284680478723e-02 2.483463894209643474e-01 1.567080394225549289e-01 -3.706160134244293469e-01 1.998049310495141409e-02 2.444702146825866174e-01 1.998049310495141409e-02 2.444702146825866174e-01 8.890624092718192595e-02 1.693339865244896103e-01 4.422014058627697641e-02 -2.539214032992208603e-01
2.398701383067507464e-01 -1.261411561215424956e-02 1.413917911683737760e-01 -1.286983566039024696e-01 2.416181320728351123e-01 4.327295771434474525e-01 3.470424289406558449e-01 -3.586179196416027642e-02 5.277735780821790623e-01 -1.208029364645315656e-01 4.594978355376299062e-01 4.557365834371187446e-02 9.667035791813771706e-01 5.362615256829306176e-02 8.998679402697927765e-01 6.698787319340651636e-02 9.774447241768645656e-01 3.977721111559311823e-02 9.082401483489669358e-01 5.716129625815951076e-01 6.950015677448283524e-01 4.348119408781594281e-02 1.972826023036251264e-01 3.008951433500808847e-01 3.856487063782239044e-01 6.843274654939867085e-01 -1.987157827732290993e-01 9.561921063876234472e-02 5.811248429522636316e-02 1.652646514433159519e-01 4.186884558032819004e-01 3.413852782272645547e-01 -8.447176670206724136e-02 -1.024750895932928507e-01 -9.108358037749759994e-02 6.501588537763338671e-01 2.973328080339948665e-01 -8.448950389692476415e-02 8.749903219706095525e-02 1.003956575523654582e-01 -1.043898631597687948e-01 -3.267249087555998410e-02 6.506189231645379545e-01 9.253604022148240182e-02 2.698954895266927889e-01 1.741357730132806481e-01 2.775969636197221369e-01 9.347849114430989426e-02 -7.010306738909559410e-02 -5.284992799086989379e-01 4.116668894026255798e-01 7.093382068804904295e-01 5.598072219139813566e-01 5.561235576253074908e-02 3.436845862185244349e-01 -3.780667513528521151e-02 3.112412977390949798e-01 9.066414693851661266e-02 6.296790463299319074e-02 -1.112974448775853470e-01 6.292613464623872943e-01 8.813797365613695520e-03 -4.129731534862466913e-01 -2.754643475024036725e-01 1.422464823587098470e-01 -1.713831678155119387e-01 1.422464823587098470e-01 -1.713831678155119387e-01 -1.050032659350650238e-01 1.199533701373512729e-01 6.172893118324825762e-02 4.403903559196791218e-01
2.778407303446583931e-01 -2.488029546755633412e-02 1.039569882361711661e-01 1.826269524635537878e-01 4.799493152744650493e-01 2.639888626543932526e-01 2.130062826559383227e-01 -1.184115240446824147e-01 4.469641931504295118e-01 3.207907171336090157e-01 -1.931848442900795104e-01 1.805276073639951462e-01 9.424110504109979303e-01 1.206677289853626441e-02 8.810382623027647186e-01 1.238858323337265963e-02 9.453607623361405254e-01 5.514358562783284838e-03 8.445261092847509143e-01 7.158360717359554259e-01 7.922538024236521759e-01 7.508445001054772083e-01 8.055080197324168134e-01 5.702919113897649828e-01 6.374079216616117538e-01 3.457279955832608942e-01 -6.211902094586187889e-02 2.093867728665416428e-01 3.196118054415383325e-01 6.180160609169103036e-01 6.100228973258268184e-01 2.070847620501557185e-01 -1.782042785974377042e-01 6.116128356603525718e-02 -3.344134451636979199e-01 2.712920338250270902e-01 9.953278246545621544e-02 1.199820275970218952e-01 -4.136633635070575132e-01 2.501684046770601966e-01 1.318312378998198475e-01 5.215987316507663119e-01 7.766484910373313566e-01 4.011573397869667157e-01 2.124732909114978585e-01 -4.304517784229280192e-02 4.836812003423884287e-01 3.864704034914568376e-01 5.864631950036864882e-01 4.845899606715205477e-01 6.782694916001349439e-01 8.352000701607547040e-01 7.093428692172593086e-01 1.503067434468760843e-01 1.469207773687228671e-02 7.717425064463155626e-02 5.725399804740891607e-01 -2.132198738311193165e-01 1.389156490577519165e-01 5.107805591642970988e-01 -3.053726956431722650e-01 -1.207783158601401785e-01 3.294640812033469146e-01 4.433185778981480474e-01 4.516769316001207901e-01 -1.600602220981949542e-01 4.516769316001207901e-01 -1.600602220981949542e-01 -9.251287481437871218e-02 8.982450496976938092e-01 2.089443845177205716e-01 1.885128035563469195e-01
2.746682422128402523e-01 -1.274044721716269257e-02 8.506900877650920290e-01 6.921239753279723184e-01 8.430623907067726908e-01 -9.425975897174283802e-02 1.696398905736845042e-01 7.928723537725330950e-02 -1.808257491483920842e-02 -4.961920659733979125e-03 8.100766466021537549e-02 5.704243351131290662e-01 9.678830960942202966e-01 2.252398509620856439e-03 8.932165297712676422e-01 -9.577218220231036938e-04 9.870608174682169444e-01 2.302404669863901843e-03 9.113301516075661413e-01 4.558528079358860063e-01 5.422252113951356867e-01 3.771466328260260070e-01 3.660280938799733152e-01 5.122509445270035933e-01 5.178479662747288437e-01 7.356074734648804236e-02 8.357151878621363328e-03 -2.827521671310932565e-03 9.961572888647276525e-01 9.877951830920674858e-01 9.763525257454791495e-01 1.400891221118681362e-01 1.168114173398022426e-01 2.507478697260980827e-01 3.097131331505086349e-01 1.050533150088288209e-01 3.466590129490177419e-01 1.385076871988514258e-01 -1.172381503380057199e-02 4.029284441028306574e-02 8.534160488155631552e-02 8.445938413024721703e-01 9.030943126964262602e-01 8.277110881744562665e-01 -1.288380960098845507e-01 2.157434542827072477e-01 1.471484708774671302e-01 -5.544096538069592447e-03 -1.675059619190204796e-01 4.028467686160247530e-01 9.981546284401101587e-01 9.939928545802625415e-01 9.960813719168121194e-01 -5.654400708869306708e-02 2.312987153376926119e-01 3.046799517846602856e-01 9.987666438609794917e-02 1.542362471666733625e-01 -7.272411096556759269e-02 2.484231828452310165e-03 -1.333544741702826497e-01 2.018122467189768787e-01 1.560849702455904819e-01 7.309732700775165015e-02 -2.730932365456103517e-01 3.582802097176392420e-01 -2.730932365456103517e-01 3.582802097176392420e-01 2.943818972380797816e-01 -2.984407116029609286e-01 2.643533475079739084e-02 2.119347935181917220e-01
2.751222486481782470e-01 -4.088193183606197469e-03 1.133258230820280432e-01 -2.190778661611653411e-01 6.429833035313183842e-01 1.479444495269558735e-01 1.977647710101217982e-01 9.529762495438025283e-02 6.473679372404565757e-02 -2.159781166216790393e-01 1.785662780286345619e-01 -3.428962670432750826e-01 9.442464910892224284e-01 6.962705333588752044e-02 8.777689381150428627e-01 6.482437876610103178e-02 9.565432832414896280e-01 6.240336801306711756e-02 8.492360921191766110e-01 4.883470629748370428e-01 6.401844083097480986e-01 2.973228947450353155e-01 4.965070724999981477e-01 5.412524034654567773e-01 6.251940787251515363e-01 2.498356398107434151e-01 8.337753380858424490e-02 2.052420310489624141e-03 2.549783344745648606e-01 2.803358746131234813e-01 7.195389562629240787e-01 1.385824033186726090e-01 -2.062144624187472186e-01 3.613563973299610543e-01 6.218063452505064731e-02 1.539168902079249002e-01 1.246465000739810508e-01 -2.258895172002240437e-01 1.482327913537703490e-01 -2.629172516956642669e-01 1.048757456639338725e-01 3.885659779033463490e-01 4.704152683965501236e-01 5.508357553261938877e-01 9.746820446568159324e-02 3.711437259279392609e-01 3.395132611119675570e-01 4.544007656655441596e-01 3.095732390008282958e-02 3.882531656443877210e-01 4.195645603035054738e-01 7.671313666823413868e-01 8.101513875391646025e-01 -6.744176847239670425e-02 1.568052713910082219e-01 4.132147853571878082e-01 2.033613091498650272e-01 -1.071068044282948023e-01 -1.091177090281965009e-02 2.010400566812851550e-02 -3.539951751682090392e-02 3.611037004193532463e-01 1.225268017298888068e-01 -3.721552839998108486e-01 -3.633392887262158061e-02 2.525917329063353534e-01 -3.633392887262158061e-02 2.525917329063353534e-01 -7.931897890304708681e-04 4.291914933716418079e-01 9.455089806969216998e-03 4.582529782945365948e-02
2.769889734527198333e-01 -1.929007127747062525e-02 8.513851094925368734e-01 6.859419515944159551e-01 8.300901443307104888e-01 -1.287792432428831457e-01 7.462349233796304430e-03 -2.984908952327740006e-01 2.715646335555398361e-01 -1.420565315179642407e-01 1.460226184438239913e-02 6.482293525452615945e-01 9.672073804026704025e-01 1.356269994041612442e-02 8.925736702914358611e-01 1.395373944313536320e-02 9.864940340331475044e-01 1.010771206164737084e-02 9.095399457230431972e-01 3.119633720539779498e-01 3.421800925709922447e-01 -4.085403766697649069e-02 -7.552073655346669412e-02 4.093880219743477045e-01 4.043928075270031286e-01 7.556331451473000116e-02 1.673288883995343104e-02 1.165770235999089022e-02 9.984753038073346243e-01 9.949494554275463143e-01 9.859008064006521410e-01 1.043293376687255553e-01 3.917892109942961443e-01 1.976944586876034637e-01 3.398229280753346099e-02 3.824944201766342089e-01 5.656540391499982334e-01 1.377836649112826328e-01 4.481948817898685489e-01 -2.306655272086872155e-01 8.377538265544780260e-02 8.453310798499591439e-01 9.089391160297723982e-01 8.296518507970328526e-01 -2.394147792213716652e-01 3.960182725999618070e-01 -6.879705324267208766e-02 3.654941823023594855e-02 -2.119061495133032491e-01 -6.683303251943316370e-02 9.962501968346981762e-01 9.992379974121724517e-01 9.971570685711546034e-01 -4.205385107739040979e-02 5.623449241542296528e-01 2.818545925780963080e-01 5.648764731073424583e-02 2.131780160438258298e-01 -8.164730417134136164e-02 -3.835349924674109900e-02 3.390282742127191384e-01 3.179834309588711605e-01 -1.038747456267248570e-02 2.121439206857204662e-01 1.781991542933578435e-02 -1.424551768346443426e-01 1.781991542933578435e-02 -1.424551768346443426e-01 3.015783267760950292e-01 -5.539668463715694546e-01 1.210223377742999512e-01 5.153723503952397644e-01
2.789432917067443118e-01 -1.289480554505764882e-02 8.499615064623141647e-01 6.911131826229701680e-01 8.388267509835979352e-01 -5.581297354129870214e-02 -2.724689672085027839e-02 -1.314932218357029170e-01 3.650238528731286070e-01 -1.406453113903096130e-01 -3.561596989306298200e-02 4.478856243059223252e-01 9.747349749509149897e-01 -5.448589331290776966e-02 9.000656658254948539e-01 -5.934462406102202631e-02 9.938869078583076888e-01 -5.461456490351841025e-02 9.295327983004835204e-01 6.240926112428810818e-02 1.364883101878461291e-01 1.539067963987537646e-01 2.371853509166675922e-01 3.472567573515366601e-01 3.447021145702737766e-01 7.854303752931174332e-02 7.155689931051143100e-03 1.316204252883762006e-02 9.876414589848544479e-01 9.896240338280288817e-01 9.932116608949190795e-01 3.168413311256356168e-01 4.786075882107595492e-01 1.517961122952046493e-01 -6.846614542282770943e-02 3.594808103417224121e-01 4.160181336913048034e-01 6.452508141703670874e-02 1.624404733503763409e-01 3.745249299305741797e-01 8.609839164563376501e-02 8.421965582144669282e-01 9.104064866000147749e-01 8.229019156885095665e-01 2.359950143122743205e-01 -3.573479102807743807e-02 1.486828177526398620e-01 1.397222554634914293e-01 -2.574466182857009788e-01 3.240937179210234831e-01 9.910839018984378690e-01 9.954113454072960332e-01 9.944599678330252601e-01 2.484038771157379699e-01 1.577641313539099033e-01 2.127894925874498910e-01 1.988080260510965147e-01 8.151709547204874506e-02 2.357621950815678644e-02 -1.542148716874819636e-01 1.561436663801190339e-01 2.308447176043852134e-01 4.526479601190552815e-01 1.356596730212759200e-02 -2.927747521230892325e-01 2.537936687454581675e-01 -2.927747521230892325e-01 2.537936687454581675e-01 4.928702321846412659e-01 -4.369746934141803263e-01 2.669949559616777157e-01 4.647582108576071014e-01
2.630744714716613530e-01 -1.938437309524689706e-02 8.336861814357497957e-01 6.616703676760671282e-01 8.260919594263629318e-01 -7.655607987952986471e-02 6.272020394534540133e-03 1.317712438798416541e-01 -4.698092412001469292e-02 1.652544023356543879e-01 -1.496787846402384270e-01 -3.624284504097324833e-01 -8.290792055997216192e-02 7.451931983714642493e-01 -1.515856430515338249e-01 7.337292596723795635e-01 -4.390051833170534323e-02 7.454321438477852224e-01 -8.075124929434636112e-01 7.103356862854022236e-01 7.290168530673711844e-01 3.326053849467549006e-01 5.946696911258815277e-01 5.251626693935103063e-01 5.604082308513796962e-01 7.286930954669028349e-02 9.318329006427514966e-03 -3.230297972316224092e-03 9.879246620649508870e-01 9.533436112354666259e-01 9.743887296583519930e-01 1.404165612450379921e-02 2.868334377344136654e-01 -8.749674318384334515e-02 2.754426553384103915e-01 -2.851618461135069227e-01 6.324769095706080924e-01 1.925906197563647948e-01 5.574872722985913659e-02 -2.502335365257175037e-01 8.945583976336668464e-02 8.304257941518026209e-01 8.877907711860909545e-01 8.147655386571405201e-01 -8.035536969480666647e-02 2.002456333529262500e-01 1.696934547744251287e-01 2.819284681951133020e-01 -4.834038318804333156e-02 3.398627202619233789e-01 9.843070291751675471e-01 9.835297616991707237e-01 9.916318462575460790e-01 -1.681645902353512967e-01 -9.767506162231438804e-02 5.405792085414961035e-01 1.566967233291553796e-01 -3.283566604404138806e-02 9.748935446672458809e-04 -8.603163799871029263e-03 5.884772345840459662e-02 8.469506935690651606e-02 -1.116545071860932797e-01 1.453957948137271639e-01 -7.208483611109396672e-02 4.424949614838404877e-01 -7.208483611109396672e-02 4.424949614838404877e-01 6.710305364099239216e-03 1.186665586238145470e-01 1.996389593920351868e-01 2.721595908686942344e-01
3.131679059771882434e-01 -2.465685019734489836e-02 3.540476635788042392e-01 2.227351189798801312e-01 4.454687537880923087e-01 5.748230817665797021e-01 2.452723879409109964e-01 -4.842650181537970847e-03 2.576611915505638284e-01 -1.354860179415346977e-01 3.063681760471656176e-02 1.371230285534134549e-02 9.293867039685632658e-01 6.825152259824306122e-02 8.671604960368028969e-01 8.284692690108372282e-02 9.363212186167831907e-01 5.054754379197116260e-02 8.108042889620123983e-01 5.768593761743726622e-01 6.484821204103166092e-01 5.279868898551437484e-01 6.456756139133197347e-01 7.582125353127940892e-01 7.780304554277173157e-01 1.622053175828713778e-02 1.090398174172188400e-01 -1.725483896161879027e-01 8.211181182116583654e-03 6.998778237447338402e-01 5.834999405379074355e-01 5.081512916858667017e-01 -2.013897591036250267e-01 7.020355525372197480e-02 -7.897127231994308105e-02 -8.112303444227060567e-02 5.710865076911810778e-01 -2.681277578535117834e-01 -8.515506805386029165e-02 1.153072189370039913e-01 1.395117858019806478e-01 6.185589208698212271e-01 5.018994503264684326e-01 3.682401700115072174e-01 4.700154540274920634e-01 -1.135761932629909682e-01 3.740248005257016395e-01 2.528503633139237428e-01 2.843047989004929277e-01 7.491641891308642442e-02 5.464437423831103313e-01 7.424053803092052206e-01 7.330230147172556165e-01 2.883462918320681134e-01 -1.835506926529074379e-01 2.768818854275017505e-01 1.520391108077057962e-01 5.034297980403390493e-02 -3.249640808400959813e-01 1.160856477563788486e-01 6.938474636331783130e-02 -5.932209083688896878e-02 -3.140951985993022805e-02 1.737039746116407213e-01 3.899853927518488472e-01 -3.572206401423468347e-01 3.899853927518488472e-01 -3.572206401423468347e-01 -1.979442304472355252e-01 1.094456877208784722e-03 -2.434799213134901108e-01 -2.556825001660461005e-01
2.983416836155960428e-01 7.620222250655204338e-03 4.264489567794697011e-01 3.953392894484566433e-01 4.535539563813961172e-01 1.554169345883616438e-01 2.533622690143791933e-01 -2.973438701010363422e-02 2.042776423778254191e-01 3.141026264754095965e-01 -1.283259586612602587e-01 1.297125957943057462e-01 9.515489166811533783e-01 9.388573106895233000e-02 8.843308064002953772e-01 1.043320474168022288e-01 9.626548319774522744e-01 8.095181158773948060e-02 8.683221562915259817e-01 6.329095504626919277e-01 7.059696904083375690e-01 5.490821949502010524e-01 6.888721546002990470e-01 4.845247195748725311e-01 4.976206029446154089e-01 2.213498837586062029e-01 9.011718388053080453e-02 1.337626816370367060e-02 6.145082880553243143e-01 6.212884070355859656e-01 6.029234619764923808e-01 3.777859004143110933e-02 -1.512873299015112527e-01 2.100167183981486441e-01 -8.610789278133232361e-02 8.655050045896101052e-02 3.509227073686155829e-01 2.869829321432987856e-01 1.680537128589159046e-01 2.436927733966455789e-01 7.413262253124519585e-02 5.604291409163022486e-01 7.330378838831438371e-01 3.544285748650416457e-01 2.101504427978956036e-01 2.372463698766246187e-01 2.616742346125732754e-01 1.088212336031938177e-01 4.744714145537148875e-01 4.172577728260647434e-01 7.494774579927330205e-01 8.877203452776409875e-01 7.946307283912740216e-01 7.071659175804620966e-03 7.415712570635757395e-02 2.514895283670720016e-01 1.994100382867512178e-01 1.171827701987033198e-02 1.579639749812216387e-01 3.809165260550983478e-01 -3.235056408447740117e-01 1.715007496829680789e-01 1.927679943851338118e-01 -4.901355269181148500e-02 1.420670059139023667e-01 1.157221655251783332e-01 1.420670059139023667e-01 1.157221655251783332e-01 -6.737936275516455409e-02 8.519523730589129151e-01 2.659516179858363305e-01 8.080662631653487415e-02
4.259417454834228400e-01 -1.233994556174713118e-02 2.145065394913035772e-01 1.562869070730257826e-01 2.702793420307454952e-01 2.910095360450967172e-01 4.883689386461562837e-02 4.304500262661197230e-01 -2.588671991847887877e-01 2.977642903573171629e-01 -1.481004503067747391e-01 5.772372349741806685e-01 8.722314613269089856e-01 -2.044399840200886997e-01 8.085735479000079051e-01 -1.959854127809969870e-01 8.698668907914872683e-01 -2.157965841296090870e-01 6.668038320262040797e-01 5.277573380371354261e-01 6.502430678169535128e-01 4.496267669813134860e-01 5.110335040389766270e-01 5.058522926008146570e-01 6.581487482732143457e-01 -1.278372533808936617e-01 -1.078793337598027563e-01 3.819650721755533940e-02 6.399820406731977773e-02 6.291461580785319141e-01 3.950538509599821335e-01 3.319125184544662321e-01 -4.173887387760519263e-02 1.877575409444205423e-01 3.580951486698890629e-01 -2.671475815801374262e-02 3.372323663637111224e-02 2.028169669768142280e-01 1.118627541074059505e-02 6.325729681444716146e-01 2.851153065805406839e-01 3.337505456124714165e-01 6.554460582014733916e-01 3.566979968034503790e-01 3.473562166121523798e-01 -1.050414739797145558e-01 3.550912733651415132e-01 6.597905913260765365e-02 4.953985837153669913e-01 6.032215393418970395e-01 5.609554099539137972e-01 4.838243140857885760e-01 7.096653362666076603e-01 1.976538759678387880e-01 -1.673188937529104109e-02 2.070170050404436801e-01 3.654708115636853272e-01 1.068427782411353610e-01 2.346254831737605850e-01 5.037903147146232108e-01 -4.079046089841824041e-01 5.605133705069260258e-02 5.692845871331196905e-01 3.839853575641407613e-01 9.808108003302892786e-02 -2.568606272059150222e-02 9.808108003302892786e-02 -2.568606272059150222e-02 2.521826265065160722e-02 6.091581130493531893e-01 -9.021475990765344399e-02 3.748073746761914071e-01
2.790422171928249040e-01 -1.365769470092565753e-02 8.369980733179214205e-01 6.580491501891072570e-01 8.236414950175511285e-01 1.830984285496888853e-01 3.224717352028665940e-01 1.844470507916268764e-01 -8.189026766194891505e-02 4.353513161313205676e-02 -6.787714869010492980e-02 2.470460317330030742e-01 9.429000124147890460e-01 -7.687335218970715867e-02 8.693357711683177280e-01 -8.121625867114423691e-02 9.628831248058898895e-01 -7.888593247506459072e-02 8.457242380144460725e-01 5.531191209496354455e-01 6.067855950172180712e-01 5.214925516592544552e-01 5.462172777438374371e-01 6.390931274511550964e-01 6.501807247523488931e-01 7.274462812830920222e-02 1.835956628929273637e-02 8.161911839410095244e-04 9.801335980302282591e-01 9.755537365722410925e-01 9.748535565051911211e-01 3.103844427835635300e-01 -5.858193268259574010e-02 1.146054434389206650e-01 1.463573915958243377e-01 -9.672195772653760515e-02 1.871886237191083269e-01 1.615370502442487477e-01 2.881595134052342688e-01 4.340373082153202444e-02 9.440637698726624116e-02 7.868846258572876895e-01 8.896780466666600606e-01 7.919763710458456174e-01 3.681226068783403638e-01 -1.133570150220571948e-01 -6.583251466198380975e-02 1.699456026959949087e-02 1.396803272482932956e-01 2.095131613806172077e-01 9.747748042179017469e-01 9.916033172750443603e-01 9.828521960315564909e-01 2.513205476458771348e-01 -5.068284614716367376e-01 5.879670528593308187e-01 -1.810432072779182555e-01 1.635172797267994416e-01 1.387008008374559023e-02 -8.752559704616436412e-03 6.336789548764244773e-02 -1.212513199067289660e-01 6.831768472053319219e-02 1.218930415197220091e-01 -1.391391497483912276e-01 2.525684055733136146e-01 -1.391391497483912276e-01 2.525684055733136146e-01 2.668167049258300394e-01 3.452961036311409937e-01 -1.757411215122295922e-01 -6.297701262524889147e-04
3.255268076940407429e-01 8.932889524253402038e-04 7.548258085616321722e-02 1.610409135836353978e-01 4.626378151242742098e-01 1.649832881649483107e-01 3.338825013711284595e-01 1.010228083220240589e-02 -2.516480388056537010e-02 -3.780319890560895728e-03 -3.589622933553029971e-01 4.693275072053165742e-01 9.631904379223888979e-01 1.280100179269026417e-01 8.940504936864341889e-01 1.570168711750007107e-01 9.761083678763137206e-01 1.081735492440067115e-01 8.989299143970388428e-01 6.415890348004887889e-01 7.717279755334448543e-01 1.034581616022061112e-01 2.669438125351791813e-01 6.834129996184410416e-01 7.442859790733851177e-01 3.429387225184188925e-01 -3.553958974481168376e-01 -9.092408230038558081e-02 2.016707169193957330e-02 1.139317456694178554e-01 2.259743106375984023e-01 1.099689582548017408e-01 -7.683451033101026950e-02 4.436475740398315194e-03 1.907800904579349532e-01 1.051189228135840786e-01 2.749994349626571077e-01 1.215816927485427051e-01 -1.417123941233352780e-01 2.306763091339724125e-01 7.905885747576407718e-02 4.861599100062006795e-01 5.294231989361793955e-01 4.002317002100245769e-01 3.706023200516749688e-02 9.645241942790792888e-02 6.912822409189009476e-02 1.333291803944041953e-01 1.988628082874132896e-01 6.268316908319735425e-01 6.890262838562845049e-01 7.719319282027020668e-01 4.722057221524932347e-01 5.118634767546439285e-02 1.563187484804045430e-02 4.260077957897479561e-01 -1.050723578368988748e-01 1.700195942465464460e-01 3.197481553413215188e-02 2.507146683458630343e-01 -3.299302727694539139e-01 2.177891537913926867e-01 1.899480748338405467e-01 5.317287338691413512e-02 -2.241197377688223524e-01 3.467277965405484719e-01 -2.241197377688223524e-01 3.467277965405484719e-01 -3.971181938681104390e-02 5.448317710844670092e-01 2.028089293111295377e-01 1.981712256546034612e-01
2.744881888953502047e-01 -1.236308813130968833e-02 8.340945310725290662e-01 6.934219906174935444e-01 8.435745077305635276e-01 2.481818292676452389e-02 8.250587333254581768e-02 -1.241760404769973458e-01 3.238366793305259561e-01 7.309778441360541279e-02 6.594049243902448676e-02 3.324882976564297321e-01 8.815268360383976542e-01 2.267008939655124067e-01 8.075469602480350728e-01 2.173880091588871466e-01 9.019702138211314058e-01 2.282982398984428063e-01 6.895608530523119617e-01 4.029224982618990758e-01 4.381607441683640358e-01 -1.354101049328393022e-02 9.304710896176977830e-02 -1.813757700045412480e-02 5.350879133202442878e-02 7.710461182678707281e-02 4.988825415641156592e-03 1.027642372671287892e-02 9.797616290429618235e-01 9.862380111165700569e-01 9.869505754574542378e-01 3.112441764547506651e-01 5.129677748247186975e-02 5.078050351953740105e-01 4.476075063531375492e-02 3.029937516182299451e-01 6.505955886420743406e-01 2.845839873611381021e-01 1.980136494423400395e-01 3.226693299524522329e-01 7.207859976484283504e-02 8.338091956248145920e-01 9.063826898222057116e-01 7.864444091850870677e-01 3.912853057230752385e-01 -2.946368479704286614e-01 9.682818435213183528e-02 2.402562466055369328e-01 2.254978886267331173e-01 4.218113894292255805e-01 9.879985626965681611e-01 9.920605302103222556e-01 9.736138932813396263e-01 4.023157811492789060e-01 -1.289272010875899994e-02 2.875876602467979382e-01 4.901614609004983358e-01 -2.101192604364950089e-02 3.790734325208185429e-01 2.828667449586533822e-01 -2.724969790388794277e-01 3.453116287743815960e-01 -5.240164353413043763e-01 6.587185077350168338e-01 -2.494864714820571316e-01 1.778647610939286527e-01 -2.494864714820571316e-01 1.778647610939286527e-01 2.597601026596774165e-01 -4.043489553560110639e-01 9.683187486097771801e-01 3.290476246318063125e-01
2.549982964052092682e-01 8.700828425545889186e-03 3.099296693939598279e-01 -7.641469986412444126e-02 2.589806269177808429e-01 -3.002247195715944672e-01 -4.948834982611337308e-02 -1.801862428960449708e-02 1.088665832880635204e-01 -3.666782340032948562e-01 2.997537127206190699e-01 3.223463057518266561e-01 8.382129544749383765e-01 3.874872872502704152e-02 7.781883220335720219e-01 4.102796363607604663e-02 8.424554913428367042e-01 2.616084332258858738e-02 5.836246932194324444e-01 7.027954208743741882e-01 7.726189322331338261e-01 4.670835253175230073e-01 5.828091846489495964e-01 6.601621993817905487e-01 7.003230618355710257e-01 -4.264417193659990335e-02 3.491701404414022658e-01 1.582461167183563666e-01 3.396510856584640248e-01 3.233534478242051091e-01 4.953914430006928771e-01 -2.868158475612397340e-01 2.493139358804812578e-01 1.959783933618677865e-01 -2.560483669598129577e-02 1.092285620070996138e-01 2.163258564793156813e-01 -3.901057854550629700e-01 1.890356332120171623e-01 4.900882037035105832e-01 4.321418089618790648e-02 2.813739862381230417e-01 6.212578571642906056e-01 4.421072029718373098e-01 3.610564636477094913e-01 -1.517984733683672149e-01 2.762098020630478490e-01 5.662234091377316841e-02 1.202590720226211080e-01 2.689307334097090774e-01 4.109347271933519452e-01 8.306136482416692779e-01 5.371754853607001445e-01 1.882894145909284611e-01 -2.306387917293434980e-02 7.197910927274504822e-02 2.532801880840880870e-01 1.417829931582411107e-01 -1.885195210775229280e-01 3.434712366491743940e-01 -1.032670808123031803e-01 1.641390718744525912e-01 1.852787932969962581e-01 1.446757514568180469e-01 -2.199036547243349848e-01 5.475973629497257189e-01 -2.199036547243349848e-01 5.475973629497257189e-01 2.372419549126139893e-01 6.222523794163317135e-01 1.775269584562595149e-01 9.302167714040876501e-02
2.923641545000610908e-01 -1.747344560372522324e-02 8.398905767250159915e-01 6.647223616283652881e-01 7.533868222755532029e-01 4.752255448647760977e-02 2.632246478191524464e-01 1.099645791601065459e-01 -1.371728567393405429e-01 -1.624886898798589066e-02 1.834108033462971549e-02 2.153843985068557287e-01 9.616948956990921671e-01 -8.031497966019261747e-02 8.932985684475180932e-01 -6.905131126638365535e-02 9.741682311986272769e-01 -9.634263718135929744e-02 8.949961632996272787e-01 7.554427873416312833e-01 7.615838584331842132e-01 7.648020227506346913e-01 8.028805390458206848e-01 7.140527055385574862e-01 7.149664109011694135e-01 6.711848074624801597e-02 -2.286910419987501499e-04 -8.283810289885031736e-03 9.787132892003160833e-01 9.655151173639211493e-01 9.578387693202952136e-01 4.090903521154318212e-01 -1.250397809056212617e-01 3.545222222437873216e-01 2.475658485398062325e-01 -5.352821347604005409e-01 7.328308499289328815e-01 -8.634643335799459252e-02 -3.622899183811659207e-02 5.214400806877894645e-01 -4.728644170591932844e-02 7.503960026925092786e-01 8.654240710658298585e-01 7.058537613564054292e-01 2.901235067094418141e-01 -8.765639303518564518e-02 1.544784586523649805e-01 1.980345084763174557e-01 -7.514027337926758310e-02 3.828399406547386419e-01 9.840967132722078237e-01 9.735475293030687594e-01 9.736096943174246121e-01 1.865960192535387197e-01 -8.557017425401876320e-02 2.045192652132308275e-01 3.323081987303355689e-02 -4.813222684712641086e-02 5.982534816062869132e-02 -1.702417001166232902e-01 -1.968363958900198052e-01 1.066152587478503000e-01 1.039323662581897046e-04 -3.313486375495373060e-01 -3.712916228128582130e-02 1.834595251791541481e-01 -3.712916228128582130e-02 1.834595251791541481e-01 -1.960701998886380526e-01 5.670104198402343698e-01 2.673288859444561969e-04 1.675407127542141994e-01
2.728869701887677857e-01 -1.759968125844429618e-02 8.339921030931661816e-01 6.878988644159863552e-01 8.282140442360161892e-01 -2.314929743604067156e-02 -5.687027977963038383e-02 -3.465615487404747896e-01 5.277708868632242645e-01 -1.000087991639347362e-01 1.481306865897311642e-01 -6.592129283120060634e-01 -5.391653082860724949e-02 7.150629438772961866e-01 -1.191315088556161028e-01 7.062220815259118156e-01 -1.881464615596234111e-02 7.133581368302722714e-01 -7.797192107586370380e-01 5.794151628443329205e-01 5.742345344227379744e-01 5.968839282198894897e-02 3.245722139746565205e-02 1.924583505719056620e-01 1.803374736586202121e-01 7.652504832024646653e-02 4.915143062381236751e-03 -3.787844260069844846e-03 9.929157809412246793e-01 9.922616963441824867e-01 9.905831083066630738e-01 1.066589640970273534e-01 1.786350593752412674e-01 4.897058720086510525e-02 -2.985060902718605913e-01 4.111130801990106054e-01 5.617999936991401322e-01 1.368575113948989619e-01 3.286347372622036578e-01 4.527516293520825880e-02 7.193670465791571211e-02 8.433691313680908852e-01 9.007777188774186428e-01 8.192613999057816176e-01 -2.148309753860495885e-02 2.935484030363254004e-01 5.570907454925130148e-02 2.281789511161665118e-01 -2.694382139908563234e-01 -1.800557318409124752e-01 9.959678539470736558e-01 9.972068083832017482e-01 9.967556520126531483e-01 -5.581300932563362099e-02 2.739290732325119770e-01 2.745996961050088392e-01 -4.621435310097148086e-02 9.921949529427027958e-02 -3.220232022854200293e-01 -4.948146007352150627e-02 4.253936730113760945e-01 4.367849259037292348e-02 -2.363406896674865865e-01 1.192226834418544795e-01 6.790526851552826371e-02 9.270123864424242854e-02 6.790526851552826371e-02 9.270123864424242854e-02 2.735358125472065471e-01 -6.600418254118842198e-02 -7.231825069940235606e-02 4.736266720761544979e-01
2.773953485651449169e-01 -1.444922164984343768e-02 8.216749413157532489e-01 6.742110692578285880e-01 8.246157806952605362e-01 -3.333819193273072912e-02 3.676878979013569748e-01 -5.624745445280397715e-02 2.345633396428701833e-01 -1.209032046750874861e-01 9.837368256636124658e-03 1.276983656623399861e-02 8.777205574813907729e-01 2.420925369235185365e-01 8.045220309077717458e-01 2.347627406741568945e-01 8.986729620859182921e-01 2.411742599215324079e-01 6.803489609846379294e-01 1.784989078359507375e-01 2.669434772822612545e-01 -1.204236078729496034e-01 2.273484407911990912e-01 5.346580916487491120e-01 5.790765560572060933e-01 6.603030583595238812e-02 1.145598282548252085e-02 7.296066142901441731e-02 9.606709365786798571e-01 9.415097195810170350e-01 9.672510423449587336e-01 3.532584538339022528e-01 6.609974524170350585e-03 3.879285380065296551e-01 3.585645583975874406e-02 1.727032452536239604e-01 5.562101775071193188e-01 -4.091544670173920956e-02 -1.425011048852193041e-01 -2.300801898484578778e-01 9.892544282431427194e-02 7.794675170963467625e-01 8.927998818022258032e-01 7.776533465815319568e-01 3.884106985299193848e-01 -2.917297924267261977e-01 5.021076277208210703e-01 3.698787349102681810e-01 1.895240108268936297e-01 2.460133186174588427e-01 9.283549073703880605e-01 9.677799441706905759e-01 9.768876913208198731e-01 3.188159681228912024e-01 -2.887827109797765357e-01 2.153411360033680999e-01 3.789203586286004621e-01 -1.683051417731765698e-01 2.055890059171668616e-01 3.426070718647255542e-01 -3.480541407172429436e-01 2.158579135578286290e-01 -2.509446529747602073e-01 -2.161151576631500648e-01 -2.080081107093019466e-01 4.414464956265362616e-01 -2.080081107093019466e-01 4.414464956265362616e-01 1.970526458075585186e-01 1.995086500471731639e-01 5.664626447042352825e-02 -2.520558585359071735e-01
2.341800652292897189e-01 -9.235116676652393997e-02 5.216378525775638986e-01 2.075770139635902956e-01 3.463658972048745399e-01 5.737299423023466405e-01 1.857772713494380279e-01 5.665870617704038548e-01 -3.320016797674934517e-01 5.289107686452725332e-01 -5.552131343769657335e-01 -3.081943047066849073e-01 9.187964671595765243e-01 -5.861947179492776189e-02 8.620463238091764513e-01 -3.280284390241116482e-02 9.266845536550352147e-01 -9.363880452363790297e-02 7.836802753824873013e-01 7.345432582998738802e-01 7.859661199464847980e-01 7.123197603210816853e-01 7.355075802340783619e-01 8.489995001269018404e-01 8.546937918087698094e-01 1.768887173241283639e-01 3.350178274925796340e-01 -3.007470998714265042e-01 6.408829984263243462e-01 7.990309917571774001e-01 8.440087063190152561e-01 3.410002694984768934e-01 4.733820766172959840e-03 -1.500764132682597396e-01 3.764012298961262881e-01 -1.574020721812570758e-02 -1.408516063603094670e-01 1.347123281281839835e-01 -5.703293357944233533e-01 9.133069217569392273e-02 -1.735186235014519462e-01 6.869739196157751415e-01 4.863890496346884862e-01 7.710965995317184407e-02 5.499839363752477839e-01 -1.502126805297141210e-01 5.815203756056835926e-01 5.236906772347624806e-01 7.673703631258496083e-01 5.479540780992487869e-01 8.847205083636864309e-01 8.832346661996646198e-01 8.015516515495096916e-01 2.089901043045942486e-01 -1.150160741451409369e-01 3.744956824705198556e-02 3.781946671045754993e-01 -2.360480025169706120e-01 -2.251886402201930815e-01 6.452930916064412159e-01 -5.829434638507836608e-01 7.237069859983706610e-02 -1.115791048385352396e-01 -3.581341109330865580e-01 6.294126214502716588e-01 -4.103191423182031561e-01 6.294126214502716588e-01 -4.103191423182031561e-01 -1.979924198135907809e-01 3.152510249592031522e-01 -4.205599559307527935e-01 2.448406863326425820e-01
3.267280471506707751e-01 -1.766236411309574095e-02 1.909944912376607684e-01 4.486041044505941211e-01 1.188228839022309608e-01 -8.906749554970286309e-02 5.564556279224443930e-02 8.769935505057828429e-02 -9.288733410105756705e-02 -2.272466056398211517e-02 3.024155990975654906e-01 -1.478637221206554331e-01 9.286601107893610596e-01 -1.595030438225684133e-01 8.709770419878898329e-01 -1.612555419500708576e-01 9.305618114560104681e-01 -1.629834017422151504e-01 8.090555037073083877e-01 7.004769048961287936e-01 8.398385624502135993e-01 2.540997497398431726e-01 4.149640481089593713e-01 4.728848282414304660e-01 6.525059030092447143e-01 -5.255767961903522884e-02 -1.468031096382682588e-01 -1.078952128837626784e-01 2.605248926973553480e-01 3.675636491014157015e-01 4.122672505828506306e-01 -2.363511777419737003e-01 9.195094786856919389e-02 2.312712360630848618e-01 2.138437902863010720e-01 -3.665201370741317383e-02 2.550326606403091612e-01 -2.107990291741660138e-01 1.835859359666139057e-01 -9.167422446977387118e-02 -1.633319303168769832e-01 5.425719374850151988e-01 5.437340699408524936e-01 -5.698232684239849799e-03 1.415289634547724391e-02 1.180830946379402419e-01 1.388705589319766953e-01 6.007626149024923867e-01 5.323372548461349080e-03 -1.375490404143858356e-02 5.320059183293419647e-01 6.339930125188522059e-01 4.614796603373816919e-01 7.244185821772659850e-02 1.117569143158075040e-01 3.692152180119196436e-01 2.392043500520424915e-01 -1.170877497356551528e-01 3.339812900611558999e-01 -1.385076332833151402e-01 1.113736986298437537e-01 3.154199800130324527e-01 -1.527985668955953447e-01 -6.240382856196933364e-02 2.031992977128305733e-01 1.063743190752212270e-01 2.031992977128305733e-01 1.063743190752212270e-01 -1.750185948240596812e-01 4.230212765909968087e-01 2.100540419395320046e-01 3.144267349934327660e-01
2.816954246886904656e-01 -9.542563680532144960e-03 8.480266266203891901e-01 6.896799721805185746e-01 8.333514728633671931e-01 -5.973036207600683316e-03 7.492909162345276486e-02 -1.147860375239101449e-01 7.047832389842732803e-02 1.095705498425036256e-01 -3.285827593782221501e-02 3.888301523541359828e-01 9.608785603091970495e-01 1.456685312586248060e-01 8.873364131566797708e-01 1.512625995447064164e-01 9.792588170503747635e-01 1.437206504732108370e-01 8.928164143951948795e-01 5.326855226543023569e-01 5.860802441855128553e-01 6.145232243264873162e-01 6.018170204157247127e-01 7.297721550633016196e-01 7.234304524221346622e-01 7.277520659221027588e-02 6.971865400076898527e-03 8.748788359200718179e-03 9.955691090595264470e-01 9.930919981936279228e-01 9.878478947206138505e-01 2.315330722012271525e-01 1.628010133826539307e-01 2.190899629920976532e-01 1.377122571118268579e-01 1.768229631037288863e-01 3.523919957172470530e-01 2.613785217776692926e-01 9.724407305202913132e-02 -4.517539851221822472e-02 5.247681891446815544e-02 8.339945665562398247e-01 9.116498859284599687e-01 8.155374814244437109e-01 8.246930881023569609e-03 3.416141372382527908e-01 1.101664685871923677e-01 -3.692162247338597741e-02 3.899713217502095985e-02 -1.208628944191421084e-01 9.935409698390322841e-01 9.973728609219236763e-01 9.972168010657177506e-01 -5.191305360525520773e-02 3.408310856247046550e-01 2.124780245788142341e-01 1.445275950135272158e-01 2.065411375774842684e-01 1.121240343767228587e-01 1.539592115143944839e-01 9.256029878327050320e-02 2.804125378806880953e-01 -2.554346574932689351e-01 -1.227530289286428156e-01 2.656812720230499608e-02 -5.980888352974584460e-02 2.656812720230499608e-02 -5.980888352974584460e-02 4.429078828874611351e-01 -3.382370568654357035e-01 2.094050374489052624e-01 3.501840926798718834e-01
2.770340408517744657e-01 -1.609144941209600388e-02 8.472327877385411599e-01 6.912568140911821146e-01 8.293755494977267384e-01 -7.596468710417725312e-02 5.169712040923953866e-01 -7.821163664231021995e-02 1.067951099710604534e-01 2.632029711116968748e-02 -8.689085861518998366e-02 5.394582096497624324e-01 9.705233943898593507e-01 9.617359796354300883e-02 8.960815835953350739e-01 9.546015963905764290e-02 9.890311491410302969e-01 9.206844739177519332e-02 9.183342417731947815e-01 5.246115029873190672e-01 5.620477022915548737e-01 4.341948968389667818e-01 4.153082046042565478e-01 5.600669144393745080e-01 5.522415196741186083e-01 6.861259901066547873e-02 1.232183455831460835e-02 2.585979258968896036e-02 9.928746926468371425e-01 9.930753876779779832e-01 9.877601223032671518e-01 1.179931825303544568e-01 -6.861516756565351483e-02 8.180809871703434433e-02 1.171323151872035867e-01 1.610159531511372311e-01 3.476992094494413821e-01 2.308362248309812348e-01 2.777542227329758973e-01 -1.898252932582492362e-03 8.783899375045273183e-02 8.406274696600161134e-01 9.105563963264400318e-01 8.278928292511484877e-01 1.452655887678044010e-02 2.459654705519715157e-01 1.181773025603385097e-01 3.263966615782457753e-02 -2.156633742872032800e-01 -1.181125185292204588e-01 9.944087269011100405e-01 9.969733307150380197e-01 9.965087016185557589e-01 -2.296281457245391913e-02 3.312168208417942128e-01 1.125739335007038128e-01 2.365034668822892094e-01 5.012941111577628311e-02 2.396187758795084166e-01 5.075322901339056336e-02 2.923224786308470935e-01 3.235302781520372206e-01 -7.047139421559378558e-02 2.056724177518595986e-01 2.998076366490783906e-01 -2.768053143405148631e-01 2.998076366490783906e-01 -2.768053143405148631e-01 4.217401307635088720e-02 -4.279977752125664336e-01 -4.291246042674193295e-02 3.965162144727786275e-01
2.740515219367965494e-01 -1.367254955341346348e-02 7.909756206160024616e-01 6.781574308171598453e-01 8.111470663287089211e-01 1.389855457070500178e-01 2.235254681464717286e-01 6.290915701255107850e-02 1.568149160176372792e-01 9.617501368137446049e-02 -3.411374174835161144e-01 2.934506855514031898e-01 8.595686483745932360e-01 3.757042421246258312e-01 7.875610868779504559e-01 3.668769060805578963e-01 8.803271155178710172e-01 3.730040576279776143e-01 6.356360300132490870e-01 9.580251329420567952e-02 1.770833893792405633e-01 3.284688527743783171e-01 4.120371865629028352e-01 4.037736085876056369e-01 4.725121285072249600e-01 6.935195357671049277e-02 2.741120612066922854e-02 -2.038759670065408230e-04 9.174059469805611045e-01 9.638272954730754405e-01 9.336182484632062906e-01 3.614590259480785495e-01 1.767910893638983960e-01 2.244817710307654424e-01 3.344630572466884832e-02 2.487221026922039058e-01 1.619735755622573603e-01 2.275545952238081926e-01 1.934626690891904366e-01 4.264824242247247099e-01 8.718211436161497907e-02 8.226474017362991331e-01 8.867004247252169291e-01 7.278464500551261596e-01 6.044988012878817901e-02 1.222470945952042060e-01 2.592910017336465950e-03 1.132702890197570256e-01 5.818892990593544923e-01 5.230976714541777373e-01 9.716876269207596062e-01 9.691383397313595438e-01 9.469179114839020306e-01 -6.047288560352895651e-03 1.571699893056624497e-01 1.569455095318281479e-01 1.762167272541141361e-01 2.758072526320019535e-01 -1.481767059029824932e-02 7.301790426874652518e-01 -5.380360599383177123e-01 2.800274755045878972e-01 -2.251817249008943311e-01 3.293360571101710543e-01 -2.197794014460735523e-01 3.880024862182876455e-01 -2.197794014460735523e-01 3.880024862182876455e-01 -1.428901704395145293e-02 1.748089144737285383e-01 7.163971301430486216e-01 -1.176395387767725648e-01
2.851282364524471702e-01 -1.693259833152113009e-02 8.408137876795173105e-01 6.855443747483220829e-01 8.361854400299998380e-01 -1.766707563884551413e-01 -1.563544618295428512e-01 -1.908382772162936225e-01 3.027787309008180827e-01 -1.873482444267394187e-01 2.023516197021270613e-01 -2.722323802019144257e-01 -2.263460742976594053e-01 8.125148418413480345e-01 -2.910102761962367612e-01 7.986265373038990978e-01 -1.829651879371374523e-01 8.130800011637565605e-01 -8.867668952547044237e-01 7.187719929727830470e-01 7.267561839746075059e-01 4.347716307398888924e-01 4.358299964697072149e-01 1.959451868034182143e-01 2.224990956876836401e-01 7.306449143422358294e-02 2.162126271157615784e-02 4.382093343171356882e-03 9.821519246583554352e-01 9.915989335449697517e-01 9.826066242239108739e-01 6.116382752739078082e-02 3.340466450450526037e-01 2.200950677845712189e-01 -1.119396467576763005e-01 3.753485925323227779e-01 1.827045936256122549e-01 9.182292978420877883e-02 4.377141080082123104e-01 6.234462681727752364e-02 9.079913923266091924e-02 8.219045110187297443e-01 9.026819807554637975e-01 8.259740551587070323e-01 1.249522572380531438e-01 2.555522382991145536e-01 1.984696368364514130e-01 -6.912309372762384489e-03 -2.929914082721216118e-01 5.754870429639664248e-02 9.676156555047167318e-01 9.807454323808604268e-01 9.950444329163460333e-01 5.826196706613522014e-02 2.753608361808307925e-01 2.614298834642181379e-01 2.253971520047067523e-01 1.553398537247782096e-01 2.667942958142727021e-03 -2.747451936384050497e-01 3.267726014622351349e-01 4.995442180732048015e-02 -6.019729277494968445e-01 5.444427869848542795e-02 -4.087599508195898790e-01 3.703029002733303487e-01 -4.087599508195898790e-01 3.703029002733303487e-01 2.836759616305556952e-01 -4.807395314037021111e-02 -1.080272550948860183e-01 6.811133462834054186e-02
3.558700480814375733e-01 1.683750178241233755e-02 2.460611340442932782e-01 1.611188755246016624e-01 5.516275730559018209e-01 2.094486311609616291e-01 1.103440587476030021e-01 2.814123876834805360e-01 -1.666879557015379931e-01 2.042835505474046853e-01 -1.575176202900193875e-02 1.357062155282510452e-01 9.323325680963547857e-01 -2.219783798994792029e-02 8.781011663363798014e-01 -1.598822340076549650e-02 9.339797524448802957e-01 -4.478519896532059258e-02 8.184977729336849750e-01 7.089358629216400143e-01 7.925153291909416975e-01 2.499571085034006379e-01 3.974999708079391403e-01 4.566431290745854299e-01 4.794490535145655707e-01 2.299828022582459663e-01 -8.424212124101776444e-02 -2.242522705238254588e-01 -5.358318377260450766e-02 2.734316856727614931e-01 5.495943280076216464e-01 1.374086494275967851e-01 1.459078722342350976e-01 -1.294140165897293415e-01 4.602393723473135467e-01 -2.361370814540586227e-01 5.023127655390883239e-01 2.708729024694587206e-01 -8.426899143415546301e-02 1.632176764354015264e-01 1.343452871806425919e-01 6.345953984772472189e-01 4.957332606572192324e-01 2.867232519129521151e-01 2.895976690765686978e-01 1.016638443744244252e-01 2.064175413173639784e-02 7.597226286803099304e-02 -8.219584603364507580e-02 4.157594909575705322e-01 5.019624856317786987e-01 6.348150250439874576e-01 3.881070313640404001e-01 1.903839953039059285e-01 2.511734130707827251e-01 2.028768832887898332e-01 1.337350755972493144e-01 1.853021882175880097e-01 1.216018206284544406e-01 8.373641414423778351e-02 1.816527868872849436e-02 5.531623315704889410e-02 3.809147439942737190e-01 -1.926171743115491775e-01 1.325038974137018322e-01 -1.818451224971659175e-01 1.325038974137018322e-01 -1.818451224971659175e-01 -3.217297816713785702e-02 8.245208009267712690e-01 3.833716105353017767e-01 3.083376014515350483e-01
2.962643719957914201e-01 2.394954891584624192e-03 2.746967371184023676e-01 3.115421318147452157e-01 3.747908302854937590e-01 2.250502601354634480e-01 1.090089327514100204e-01 3.843816563104582307e-01 -2.814595742713915660e-01 2.338703504049682580e-01 -7.652836256031637918e-02 -1.579969486232429554e-01 9.541786179697722137e-01 1.438095624438880393e-01 8.932687192318912173e-01 1.604777344516040150e-01 9.678732587879966820e-01 1.019948620190071070e-01 8.752165812969654457e-01 6.104147172892728790e-01 7.017972031310741876e-01 1.886429565857903889e-01 2.555930355312948099e-01 5.657794242470165491e-01 5.853651520907687811e-01 9.173816383376089123e-02 -7.274241740192481653e-02 6.566415921551979618e-02 4.217324945482036624e-01 5.522963424537319366e-01 4.239058557846003272e-01 1.289812358223867972e-01 -9.942342903354278727e-02 1.988885293442784752e-01 5.693689268291368677e-01 -3.282396089780794668e-01 4.319821563683076682e-01 2.812645373777228341e-01 3.403725694345326458e-01 2.325920207217650193e-01 2.226134455264619505e-01 6.666191026623519145e-01 6.443541559251513284e-01 2.645140952209061869e-01 2.727942072651635685e-01 2.870883635952997670e-01 -2.127004815117370870e-02 2.450153099145984115e-01 3.217750137776900221e-01 5.408133805285058049e-01 5.626510322949628273e-01 8.662627822287788382e-01 6.130794243755286477e-01 9.065238022686407382e-02 3.592283935721800048e-01 1.268753570503025896e-01 -8.083399652691791726e-02 -6.307111285043456861e-02 2.717716176806619921e-01 3.943355616352606230e-01 -3.229271338297601823e-01 1.261028584455157198e-01 -7.550412835128476885e-02 -4.161647818962133094e-01 4.715381318578492631e-01 -4.395669576514882881e-01 4.715381318578492631e-01 -4.395669576514882881e-01 -2.623453163474515071e-01 7.879181220569191346e-01 1.566118494116224003e-01 2.765952621481405083e-01
2.752940234681998666e-01 -2.293781250952002873e-02 8.468288916856914206e-01 6.784732120326658622e-01 8.406820649409968427e-01 -8.809227778547791543e-02 3.929645508999613651e-02 1.165057923027546932e-01 2.015214007050765421e-02 -1.694623398128581870e-01 2.872690615814422199e-01 -6.473270642243295070e-01 9.668950679817364113e-01 2.846924801508698977e-02 8.932331521680919595e-01 2.612678197717480458e-02 9.852464932611018078e-01 2.552473014624491096e-02 9.087140167508541699e-01 4.807433132317258662e-01 4.822015843651913936e-01 5.039984133221776519e-01 4.899154375157107610e-01 6.222880058079479637e-01 6.193391655973152776e-01 7.595497136572901264e-02 8.169310627763600591e-03 -7.659068531855800499e-03 9.958106330090142899e-01 9.892661400498860003e-01 9.877592957169970544e-01 1.993935181310806937e-01 1.695329096578072903e-01 1.927594594260236549e-01 1.855064617900381296e-01 2.803295402907887007e-02 3.620589732786917425e-01 -3.195944784320925956e-03 3.811409260609259775e-01 -8.720805548834326126e-02 9.374488271259891203e-02 8.309715528570166265e-01 9.078777771274959552e-01 8.205029055427567330e-01 2.021180270580522909e-01 1.433868190203434478e-01 -1.447813191024862889e-01 1.078428857651632100e-01 -1.510816513251884707e-01 2.424458378010418136e-01 9.946460685312698002e-01 9.942392000187927348e-01 9.922067612470633069e-01 -2.129404825422956740e-02 7.016220600596720369e-02 1.065693920356958480e-01 -2.179724419795676937e-02 2.044991454596878644e-01 1.438064976037065346e-01 2.547214304247676434e-02 2.577321224326896507e-03 2.283003775694390225e-01 -1.409402612693217427e-01 1.529048328464848450e-01 -1.220731631968687975e-01 2.955267980135027894e-01 -1.220731631968687975e-01 2.955267980135027894e-01 3.041492920936718081e-01 -1.003774302215606345e-02 3.890497168791972604e-01 2.165835420841239201e-01
2.814280646869545821e-01 -2.073420706801326271e-02 8.347352161318537522e-01 6.502407040745462607e-01 8.048388799558644502e-01 -4.756978822896433534e-02 -1.731689688885628894e-02 1.248687281462000642e-02 5.439941696863179188e-02 2.945061763593954246e-02 -7.591323332464385010e-02 3.017993095570807305e-01 9.618022947697997260e-01 9.199590765962250768e-03 8.884885001951744465e-01 2.920754356143809294e-02 9.793299600328708721e-01 -1.676403288112830389e-03 8.952540181143455733e-01 2.261454178814021887e-01 3.183197419157584029e-01 6.576811720575317377e-01 6.670571015573386608e-01 9.311339467655583846e-01 9.497165505162465937e-01 8.560881435264187933e-02 -2.029426522615368142e-02 1.945201150429359859e-03 9.721980540300080298e-01 9.498719039921846852e-01 9.697230044426430329e-01 1.667818886065652872e-01 3.788314394209713609e-01 2.011961555338129537e-01 -6.358415095633453140e-02 1.746863241010210288e-01 -4.257812692248175851e-02 1.368728459494086003e-01 2.415300830205646121e-01 -6.695154368588517035e-02 8.004672864362664952e-02 7.326481893284392255e-01 8.920390373633413361e-01 7.818360124824985657e-01 -1.036741727800284119e-01 2.940103164997533436e-01 1.444201698950289547e-01 3.160318930411237237e-01 -1.078120626828693723e-01 1.758321694281791969e-01 9.643538825904660605e-01 9.882997075977228985e-01 9.862624879061886451e-01 -3.184090768042985853e-01 1.361121911944799534e-01 -5.931950348881116775e-02 7.007864891468983115e-02 3.584393993476260587e-02 -2.899753837845905902e-01 -6.898896045726855830e-02 7.412878708608650058e-02 1.084649657019823438e-01 1.464828927789228186e-01 3.300263809617633992e-01 1.004506517009668420e-01 -4.695986478116392915e-02 1.004506517009668420e-01 -4.695986478116392915e-02 6.109190312251402272e-02 4.161941181901027687e-01 3.224925585350463253e-01 1.021782728134046636e-01
1.909734098669780000e-01 -2.172935309242925508e-02 1.301959539044940661e-01 -1.643287580043470697e-01 7.715300674755324987e-03 1.910046338153881806e-01 -2.324212177298036822e-02 9.870061469747316851e-02 3.201883116306064592e-01 4.417984126527938482e-01 -3.603224840796158124e-01 3.322669633788254417e-01 8.831586157021027450e-01 -3.143099603783157114e-01 8.170897153338482211e-01 -3.162714723182090681e-01 8.960449372996205364e-01 -3.163428462487551940e-01 6.939825272200736972e-01 5.448537505987133267e-01 6.708473628665525546e-01 -7.292747990426727556e-02 -1.763983600310864604e-03 1.830863741653805110e-01 3.272661879149613706e-01 1.380307139652520720e-01 -1.387092843106645657e-01 1.660328276011647231e-01 4.817678620207251350e-01 1.971516400821681780e-01 4.381715511350571524e-02 -6.435222466512745265e-02 3.665686117762650409e-01 -1.775810611340228606e-01 6.585445636810233205e-02 1.736559505680879412e-01 5.296529757655058512e-01 4.077811048376691061e-01 -1.549720082418124152e-02 5.294423533080506727e-01 1.872413610530955230e-01 4.785589128300658524e-01 5.140432513629599187e-01 9.321772713372045160e-02 2.308899115975448224e-01 4.116898100842870667e-01 2.772737091858474834e-01 1.272280935858998707e-01 5.720179911638502424e-02 1.470124526141182719e-01 5.981298409414225192e-01 5.490651561416346471e-01 6.421347484666014571e-01 -2.939429089666224792e-02 3.194085578971457839e-01 2.169039157125318418e-01 2.698855163747252428e-01 1.070726551811299748e-01 1.460881470797115167e-01 -1.239096237464043793e-01 7.628212486163941930e-02 2.945280201770214545e-02 3.192590694848783661e-01 -1.016582547239283235e-01 2.024676444560613298e-01 -2.154012820903264402e-01 2.024676444560613298e-01 -2.154012820903264402e-01 2.152308888346816246e-02 1.721266153930678944e-01 1.563043215323866447e-02 4.527977140245293963e-01
2.369724468574022358e-01 -3.303740745900583808e-02 2.297154742297809471e-01 -4.704678607968535570e-02 4.869643304808417561e-01 2.431915122166192766e-01 4.649455408312463955e-01 2.082955889550670847e-01 -1.096493676158410285e-01 4.998633571243352169e-02 -6.462258587566033219e-02 4.771012894852577624e-01 9.650863199143691062e-01 6.401498966450157313e-02 8.968728835272808952e-01 6.923266516254988900e-02 9.770301849141451722e-01 5.269359779093094748e-02 9.039480358094561518e-01 5.248073193973460393e-01 6.414430807930583400e-01 9.526121651341740160e-02 2.630019035749970313e-01 6.740550470364004010e-01 7.484605765068066408e-01 -3.414631076549204947e-01 3.485872870631913090e-01 -1.636405008559119190e-03 6.745774917640628976e-02 -3.602652613703183349e-02 4.392087983014090202e-01 3.231842168560004613e-01 -3.411226290661458771e-01 2.349337257488483821e-01 3.171895724972657038e-01 7.396496331799466695e-02 2.098261749841685286e-01 8.505611302311598398e-02 -1.459051248058906569e-01 2.236639677369653134e-01 1.132822841801661429e-01 5.329064164331023257e-01 4.541973425210465432e-01 5.268442166679283556e-01 4.438715659564966554e-02 -2.408280963882043248e-03 4.215852834830997181e-02 3.638780875167493267e-01 1.786509332330066535e-01 3.437592997584135168e-01 4.024110131275960844e-01 6.468855022410134881e-01 6.280624011137452278e-01 1.166095707834547968e-01 1.237430535677673665e-01 1.663898617285645976e-01 -1.826091312604363054e-02 -5.083849401958855790e-02 2.320773528739362435e-01 1.336122989618601931e-01 -2.471547076642666325e-03 8.848966170678842363e-03 2.324219842766758193e-01 5.356997434359049570e-02 -1.392884877203383054e-01 3.329067446421110632e-01 -1.392884877203383054e-01 3.329067446421110632e-01 -1.863407111808170480e-01 6.030166765473259360e-01 3.338995514414527244e-01 2.386469597337962933e-01
2.814926766449850626e-01 -2.230410639554757189e-03 4.239752133222056130e-01 1.972079711642360511e-01 2.255968830829107041e-01 1.605659509077233260e-01 7.391828796939149682e-02 1.789350237534095833e-02 1.874564398779074159e-01 5.308853899431946743e-01 -5.562356592151155299e-01 4.660992997393461623e-01 9.289161790160723742e-01 -1.688207525714235935e-01 8.758725387609349600e-01 -1.617944285579877850e-01 9.240949767850423768e-01 -1.953660817496203628e-01 8.097796048728398421e-01 6.717900362338431464e-01 7.666739923963638015e-01 4.868963145800593306e-01 5.267851713185119911e-01 5.516962230826990554e-01 6.349682644054374103e-01 -1.121638535548326876e-01 7.198600346227050639e-02 -1.952476758014278987e-02 2.897320683940313168e-01 5.799952095596583312e-01 3.878150868029510145e-01 9.740625900096884504e-02 1.036811485937209759e-01 1.097570328438413623e-01 3.209982394638263847e-02 2.074228817522615342e-01 2.279816748513674995e-01 4.775191611766003152e-01 -1.295529819497407142e-01 2.445383190228900827e-01 1.178731317672346290e-01 2.575252627379205350e-01 6.654781945729459913e-01 4.685623054549248323e-01 5.150371136488688384e-01 -2.468510735209433760e-01 2.137626975853917088e-01 7.475942314743502792e-02 3.220644290410089039e-01 2.103387822117602779e-01 6.411613313894726218e-01 7.516338031012465004e-01 6.388355258296620764e-01 3.873774383280570444e-01 -3.789724995927011286e-01 3.736499148711927010e-01 3.063169640888668832e-01 6.914454031527555999e-02 2.173493037849512088e-01 2.442240889818930172e-01 -2.780371221620332733e-02 -6.601644492570904466e-02 3.201900862387137559e-01 4.356947296808617587e-01 1.411997733032068769e-01 -1.069196199233624495e-01 1.411997733032068769e-01 -1.069196199233624495e-01 -1.518938652407147150e-01 6.255407845444271864e-01 4.121653536861184519e-01 4.157906428800227649e-01
