2.653959562942295736e-01 -2.588657380420985796e-03 8.447045222248950047e-01 6.782957236485215313e-01 8.307004061026938002e-01 -3.534482784487908980e-01 -4.097171344245206792e-01 -1.562246184574554164e-01 2.324987698748696430e-01 -4.086045795814301912e-02 6.274065162566476450e-02 2.657935115637820034e-01 9.671802697007566563e-01 -9.252122241745511233e-02 8.969834276205533863e-01 -9.048670701759627122e-02 9.798958022350400254e-01 -1.043596398927222474e-01 9.094792992023272848e-01 9.691034516373575602e-01 9.775209711787489208e-01 9.860293240129354153e-01 9.856450463425173725e-01 9.332979421382381346e-01 9.487296828396521997e-01 7.493201455278031275e-02 -7.318633083820602625e-02 1.559266044720277519e-03 9.973020277163426872e-01 9.926268296044162831e-01 9.866459709150037227e-01 -6.211907166215764609e-02 5.649916922351657655e-01 1.567023491193156592e-01 -4.210810660696109320e-01 1.302796861003699125e-01 -2.096787387813020542e-01 2.009709201606070528e-01 5.099905640188919786e-01 -2.351676761362662960e-01 1.881370776838907077e-01 8.330572803208187160e-01 8.935594870323958494e-01 8.488641403678212072e-01 -1.186421360767571792e-01 2.169080370425403026e-01 1.995020696638939717e-02 2.106430776748792477e-01 -2.116742201569232207e-01 -1.368587060756573937e-01 9.976479165384994907e-01 9.959333205746057072e-01 9.963014691308199611e-01 -6.856242344129750976e-02 4.508201818227080548e-01 -1.195806321357906626e-01 5.966117406569419745e-02 1.895933667745314591e-02 7.407185723846779766e-04 -4.713941515222027506e-02 2.714562512010325612e-01 1.702762716616320060e-01 -5.262622153814719428e-02 -6.669989949864196799e-02 1.169310006258566931e-01 -2.612474830545022386e-01 1.169310006258566931e-01 -2.612474830545022386e-01 3.974325996659831550e-01 1.160986106549072305e-01 -5.337941891017443374e-02 3.676955834605687423e-01
1.390383030554526861e-02 1.532959777933431134e-01 5.663159304333791333e-01 6.818287824185351731e-01 8.052896004474479064e-01 1.669334409910759875e-01 -3.597035619680903906e-01 2.675856640624710847e-01 7.160111237772797364e-03 3.777120891793380730e-01 -4.860662072955640456e-01 8.873891345009018439e-01 7.030862386791344454e-01 4.397738310178664900e-01 7.685913043598558980e-01 4.854607414566219914e-01 6.249879365301543865e-01 3.612609543189203576e-01 2.813888672767937971e-01 8.003106872558434226e-01 7.952945847748510433e-01 8.844318028357767147e-01 8.793192461254769610e-01 8.719458473101859841e-01 8.662497884477611265e-01 1.784380171056972053e-01 -1.196643544558374933e-01 -2.591401662392451288e-01 9.117543586759195851e-01 9.584617400831766387e-01 9.241797987607446307e-01 1.685127212706914179e-01 5.320309480282815473e-01 -2.944952950674156189e-01 2.085733722825626468e-01 3.954828031345135331e-02 1.879574658631661399e-01 1.118928313871059010e-01 -3.682445679035086794e-01 9.232609165813313035e-02 6.040521519805843592e-02 8.381340973422251039e-01 8.541155525182222430e-01 5.955421005620912256e-01 1.266757615954352545e-01 2.725067628301537925e-01 4.151980387856375743e-02 -1.821169711200935348e-01 -1.301176445873744245e-02 1.576900250357463340e-01 9.356434230292354215e-01 9.694647266568523492e-01 9.287251996150974742e-01 -2.004876598511485253e-01 6.541304378365726535e-01 -6.584599684323036994e-01 -2.737833481767587909e-02 4.149921070331893946e-01 -3.639711642356110444e-01 -2.327047707044289371e-01 2.022405007213586847e-01 -3.911718347159509057e-01 -1.681863817329448396e-01 7.300696714530602316e-02 7.941840958321818578e-01 -8.282773734078945349e-01 7.941840958321818578e-01 -8.282773734078945349e-01 3.308034870938281191e-01 5.027739810272640053e-01 -3.069432569652199433e-02 3.752457700788449646e-01
2.792213794213374012e-01 -1.364308999543610047e-02 8.499981995022514170e-01 6.783071454347203710e-01 8.221683803377520805e-01 -1.769863400020599276e-01 2.552031111921171935e-01 -1.946205952593706989e-01 2.563126073975753316e-01 -3.141858894351535758e-01 2.347911586985389210e-01 -8.184327323662161924e-02 9.413175182014145159e-01 -9.116823239946193758e-02 8.675372676818620121e-01 -8.918362730783040149e-02 9.615581165563196198e-01 -9.474897158704029265e-02 8.415827077655263500e-01 1.772029806342945157e-01 2.280816293343606305e-01 7.563522050242880157e-01 7.961613146007071595e-01 6.010224981793604870e-01 5.949828597890166604e-01 7.969585289795361183e-02 2.372196305688285128e-02 2.369005410019693267e-02 9.894393022624479173e-01 9.975657358487562965e-01 9.822398145419987125e-01 2.231194903150966469e-01 3.176734024760059505e-01 4.775479458752153739e-01 -1.730392998624684930e-01 3.571138738806991370e-02 3.985306308280824328e-01 -1.312445751411419614e-01 1.758155433356134167e-01 6.263746120092096581e-02 8.437972768398396828e-02 8.423800137566300750e-01 9.083719998108304994e-01 8.084763147513293058e-01 -2.231775999184409942e-01 4.114127853441279514e-01 5.939265134582552563e-02 2.020448332214201115e-01 -2.765726886855739974e-01 1.576116886140405682e-01 9.897641205205043313e-01 9.958467509196304857e-01 9.936182406380250631e-01 -3.133195726891392918e-01 2.707730986013465735e-01 5.972636087396394899e-02 8.084522319970588455e-02 5.546604106689755065e-02 1.296132963717938069e-01 -2.811839179997097093e-01 1.710804592474892971e-01 1.572457120377944162e-01 1.532307013946633545e-01 -1.029165988267398135e-01 -3.094961257001149213e-01 4.610215423762215048e-01 -3.094961257001149213e-01 4.610215423762215048e-01 8.613390671231505036e-02 9.822400731639976262e-03 2.040308452076780021e-01 4.620616377757539306e-01
3.401310188169840432e-01 -5.365515160574694555e-03 1.399640683174097899e-01 -1.853781074230583248e-01 4.562121139062688124e-01 5.690309047337730464e-01 3.553343313296473682e-01 2.091842210635065924e-01 1.964488811646496746e-01 3.476415932990505886e-01 -1.025013288018210150e-01 1.965032875526867284e-01 9.343962866769615072e-01 -1.349876408747755462e-02 8.753861938292218925e-01 -1.629088681814982315e-02 9.459349020019250931e-01 -1.860709433683445380e-02 8.236584498095071982e-01 6.605181354229977542e-01 7.970576283738858292e-01 -4.561525820883396976e-02 1.475056981387964372e-01 2.856549450126956158e-01 3.420524350799729607e-01 -2.675125467498701282e-01 -2.454898485304565434e-02 8.476954705808061041e-02 1.492273494596126626e-01 1.224155010593137582e-01 6.170096181401142355e-01 3.556279139321340543e-01 -6.052866796947880407e-02 -1.992101674422686874e-01 1.235696697024462609e-01 2.903954864318410434e-01 2.571570297080663647e-01 3.293218466635021713e-01 1.839386555969615145e-01 3.654680941531872063e-01 7.312952277050636940e-02 3.094104848540704111e-01 4.186847159205183133e-01 3.745386268684391951e-01 6.276112880437491048e-01 -1.406581385158566788e-01 4.242229542892334559e-01 3.830968200194941886e-01 3.794266409621702141e-01 2.780965154174840914e-01 3.447077855972257576e-01 6.879743064018769561e-01 7.098028761254299157e-01 3.539298105510280124e-01 3.189781049373872912e-02 1.021169797434210713e-01 4.051376846441803181e-01 -6.366458589407435198e-02 -6.848513539321222920e-02 1.284356945914142678e-01 1.550563514409585286e-01 -3.301405764317471569e-01 2.986625960129535295e-01 7.447679823900830998e-02 1.406009126817411858e-01 -6.483052166427170915e-02 1.406009126817411858e-01 -6.483052166427170915e-02 -3.145871485561583802e-01 2.577623862292360846e-01 -3.069099162553212135e-01 4.213459741610645626e-01
2.787996496509371203e-01 -1.703664342613326818e-02 8.473689317772494789e-01 6.937865427203204760e-01 8.370063668287258674e-01 -1.992762394089213907e-01 -1.085126996741244826e-01 -1.126777100956570937e-01 2.314831475880729794e-01 -2.034450238257095311e-01 2.334582507423847708e-01 7.312231104221826594e-02 7.800010510027632904e-01 3.263649011084612250e-01 7.077749589177259049e-01 3.168556919302837893e-01 8.026680966873325218e-01 3.256841656693318376e-01 4.458872934201210114e-01 3.570398120785774898e-01 3.517865837395735551e-01 1.002355530152352209e-01 2.082327091249626394e-01 4.516820006848506486e-01 4.517555171277486403e-01 8.006179344985137059e-02 1.216392814027597059e-02 -1.632136777064010754e-03 9.931621494637380421e-01 9.965463156571442438e-01 9.913210874500311132e-01 5.954162050017852703e-02 1.737932031670804123e-01 4.767973062943887119e-01 2.416368352908365019e-02 2.989381555882521524e-01 3.585931103723086211e-01 -8.180796246238997149e-02 3.684859649243354962e-01 -1.608395387320188386e-01 8.867679391452552851e-02 8.459265088123683052e-01 9.063209716395107529e-01 8.307138183695088607e-01 -3.155672965487079651e-01 6.036798298724873613e-01 1.630508710130553762e-01 1.847330255509532781e-01 -2.854953657379828980e-01 -1.124079039342150421e-01 9.979231231830705262e-01 9.959391010844306225e-01 9.971398475831501074e-01 -2.578558054322979687e-01 4.600330184695362590e-01 4.456831695418095873e-01 1.847044782705302979e-01 -9.056582819079049551e-02 1.738341658669138590e-01 -1.276507564871554867e-01 4.302543477570592301e-01 2.708214830609148027e-01 -1.891084273107581648e-01 4.380196819390708707e-01 -1.708658536286968010e-01 4.656414389486918104e-01 -1.708658536286968010e-01 4.656414389486918104e-01 1.928809437550092765e-01 -3.089301736447628288e-01 2.058919940643346991e-01 4.984960649513889286e-01
2.777362806643190463e-01 -1.789147855864527820e-02 8.489502603480580945e-01 6.866457992201815408e-01 8.405861725300693976e-01 4.342857598508946537e-02 7.971292940913879410e-02 -2.649469006628100698e-01 3.246665104547171721e-01 1.980879956419669963e-01 -2.828558509109034835e-01 -7.270601884535450310e-01 9.620364544038200183e-01 -8.919388073124118188e-02 8.871888847413080814e-01 -9.553234670791826977e-02 9.820455524084902299e-01 -8.782776449889159731e-02 8.958685016409321245e-01 4.926064333533574091e-01 6.145399319458967335e-01 3.589759926090523301e-01 3.675714284228560058e-01 5.015100038729660703e-01 5.388952037808268924e-01 7.500833702512604839e-02 1.604441000109692664e-02 -5.172253673931277891e-03 9.906460118795079595e-01 9.806583208522184902e-01 9.927122759383200101e-01 1.581118752120391213e-01 3.163610651153426767e-01 -1.913213705698903200e-01 -1.568497860953746437e-01 1.640870208932277141e-01 6.245229346603983211e-01 1.670767331746905449e-01 2.138514839839765758e-01 -3.864727052308282729e-01 8.868256358382850535e-02 8.375933162311738345e-01 9.067070113651645169e-01 8.219270468207592328e-01 2.293152503376106113e-02 2.374765840252709981e-01 3.422244337021470573e-01 2.056224893790575270e-01 -1.410269986636512596e-01 4.806196067798139127e-01 9.918002187208945220e-01 9.931484338676155321e-01 9.962072483413889623e-01 -9.804952817543749477e-02 2.095902166691463175e-01 6.721258099543149511e-02 2.462671658778921857e-01 -1.017754680805226103e-01 1.429991875839537463e-01 -1.137831122406636197e-01 -2.185625507886588270e-01 2.967945899320882375e-01 8.528602799834408832e-02 -1.908226718666368171e-01 -2.918435604002146341e-02 8.537098133985882020e-02 -2.918435604002146341e-02 8.537098133985882020e-02 3.978007493816581031e-01 -2.505721038673989209e-01 1.523501233355817885e-01 4.319609870044421179e-02
2.781555902613911946e-01 -1.644756596326538839e-02 8.509955483242187535e-01 6.893007765681623544e-01 8.239531386929430656e-01 2.306942637053120138e-01 1.832098906698698959e-01 -1.109438101596345594e-01 2.296331542213957688e-01 -1.343599985838186406e-01 1.047423794570342542e-01 4.585053700244480779e-01 9.754321711914790693e-01 -6.316619167107706545e-02 9.008416312805687109e-01 -6.993062984047797304e-02 9.949186496747733921e-01 -6.206277433483262801e-02 9.313865266084000449e-01 2.129596894808660490e-01 2.534637666782656451e-01 -1.038575824127783431e-01 -1.189443835722528153e-01 3.742004868281816887e-01 3.786087086706612648e-01 7.605186396926176540e-02 2.300721045923570865e-03 -8.344463444823538995e-03 9.874083851322843497e-01 9.895203422718921171e-01 9.795004189750082801e-01 4.009453323769966437e-01 1.269967840565801032e-01 7.064429644053510371e-02 4.376836602163910322e-02 3.139841561109302792e-01 3.943550690577730111e-01 2.833028320898002203e-02 2.660732612002605912e-01 7.364408426435481783e-03 8.942046208515094796e-02 8.431548506327070092e-01 9.090561890601267514e-01 8.295104794285679262e-01 -3.183574964082603893e-03 2.395735014185613743e-01 -1.117280139786178128e-02 -4.313603505225429430e-02 -1.198012899151514599e-01 3.719117423331543271e-01 9.972441432895000624e-01 9.972349498880311858e-01 9.942711202303611273e-01 1.167249171661708107e-01 2.936305727499000096e-01 4.647819897228698260e-01 -4.963701884145942794e-02 3.636642552535679918e-01 -1.581501656600434735e-01 -6.457330715924450293e-02 1.012195309602862275e-01 -8.072644444110260720e-02 4.046369399989058202e-01 1.936654797516355331e-01 -2.521282882438903306e-01 3.975772447851693703e-01 -2.521282882438903306e-01 3.975772447851693703e-01 3.229519949024075576e-01 -5.792255563961233866e-01 5.244146560751039576e-02 5.710358108476180083e-01
2.636068244164947449e-01 -3.231214652309908480e-02 7.596551872584873522e-01 4.800058203417474911e-01 7.083912511945409385e-01 2.612418549842571158e-01 -1.776718100803622580e-01 -1.606336821901047929e-01 8.676046120157163699e-01 4.275739222813420559e-01 -2.766062569898394274e-01 5.396374586832459741e-01 9.618496345856573093e-01 1.417592584843148373e-01 8.907446912804845018e-01 1.599521936314340087e-01 9.746548996017501132e-01 1.255318078400951276e-01 8.953830921133959508e-01 1.182459277168836365e-01 1.536999104788808468e-01 -3.465144127200563747e-03 -3.273810895637614682e-02 4.987445565669590963e-01 4.922684191646203300e-01 9.756978706620370034e-02 -2.610947897080534777e-02 1.560549540289426183e-02 9.243682563872837044e-01 7.215721430194438346e-01 8.535837013513958293e-01 2.811411454664796694e-01 4.731355325291597969e-01 -4.778165027351128497e-02 -2.445029307825371534e-01 9.577670084092897440e-01 5.019347239736198230e-01 5.410822791535470078e-01 4.404678834161083190e-01 7.719314073019986067e-01 4.022726074520414224e-02 7.929079797232164717e-01 8.358375803420367012e-01 5.823281000211568692e-01 3.217096012332356647e-01 2.468944813110269740e-02 2.188582537673979533e-01 -3.211630179026422893e-01 -2.679813151027619078e-01 -6.715946117802842341e-01 7.528914512495137323e-01 8.686698550219339454e-01 7.294382579861660165e-01 1.366861313563383640e-01 5.779507481467914820e-01 -3.697485897131484456e-01 1.383512809086303585e-01 5.715702065581815816e-01 -3.668812861514731405e-01 -1.950630431335735326e-01 7.513875751685656912e-01 5.187332339212429311e-01 -7.658114386341615676e-01 9.036454228940106193e-01 -1.908630906789561543e-01 3.969822270503707839e-01 -1.908630906789561543e-01 3.969822270503707839e-01 -1.443060529892905286e-01 4.927499926628076676e-01 -3.158015810146133084e-01 4.773568591353443136e-01
2.750225531134809498e-01 -1.442193882297889730e-02 8.326973952259495437e-01 6.849673008041496924e-01 8.337252598356161837e-01 1.588137134857826177e-02 -4.609821965847030190e-01 4.055202944425326250e-02 2.456384746137371122e-01 -8.520376021857818671e-02 -1.022745715032400832e-01 -4.050890075916087629e-01 -2.989741599590021170e-01 7.071296320774815847e-01 -3.654557073096953990e-01 6.941330160965861751e-01 -2.530260856150380322e-01 7.076936154955857372e-01 -9.716369672054374629e-01 3.229018233781107416e-01 3.171625554848344630e-01 5.698790825401429672e-01 5.979444219149748774e-01 3.413646318231174925e-01 3.558233050798688124e-01 8.035185118390854309e-02 -6.133258688001017207e-03 -2.138100447650333885e-02 9.859755760511401679e-01 9.759037445788216747e-01 9.861789821634688868e-01 2.653214818652936402e-01 3.729333606414855229e-01 2.942097436588048676e-01 -1.151530467699089649e-01 3.657991742996455353e-01 -3.014458129445867982e-02 1.971301748364298612e-01 2.564900375580905778e-01 -1.739418921879252317e-02 8.926854737269138140e-02 8.310165324795015795e-01 9.114178569677644504e-01 8.240254045003847505e-01 -1.988699635169683400e-01 5.258377812224143133e-01 -3.070194081366704464e-01 -1.471916201874952368e-01 -2.737922064806445066e-01 4.231899951081670719e-01 9.957768451503278273e-01 9.960755509592252865e-01 9.919507423394532397e-01 -4.174657891305299517e-01 9.619178597951065501e-02 4.024434191620813728e-01 -1.755671534723376309e-02 4.188512088718064352e-01 3.812413257524435717e-01 -1.736756043127097859e-01 1.469898174169545491e-01 2.697934540093759881e-01 -7.479916908947051302e-02 3.818160134413405293e-01 -1.041635547661437511e-01 1.614967977285274303e-01 -1.041635547661437511e-01 1.614967977285274303e-01 3.112810352274713033e-01 -2.972005543847694442e-01 4.071481395849772533e-01 2.467584456979428631e-01
4.018230976317874181e-01 -5.828060126739617597e-02 5.811281524688637345e-01 5.373828731562831917e-01 7.767055581008364129e-01 3.124400973516210933e-01 1.330433156620433321e-01 3.339857874621855460e-01 -1.341829645487146727e-01 1.586601638784113089e-02 3.189903316491316532e-01 -6.201046949535268249e-01 -3.323467324926100419e-01 6.919420567361507235e-01 -2.136766727368235308e-01 7.395868081676236772e-01 -3.560718279142483511e-01 4.446673063667849202e-01 -9.780550455679627442e-01 9.668171113213880341e-01 9.843328329858246351e-01 7.490391527139280692e-01 7.534880555405442104e-01 9.904646404566624929e-01 9.841662825231647371e-01 1.360610685235230932e-01 1.301504268211098880e-01 -3.169693727051541288e-01 9.151405642369560001e-01 8.930998718835673200e-01 9.075586571776124156e-01 2.105218942087155598e-01 -1.225075774387828637e-01 9.308999378572655956e-03 5.939298494862745859e-01 -5.412364736929375919e-01 7.708623135836498719e-01 -3.167085575722690116e-01 -1.155215160963306842e-01 -4.737109497884859910e-01 7.917263066649149472e-01 9.017502035687444684e-01 9.111768774567058360e-01 9.496943098245258508e-01 5.586983450600966350e-01 -2.554638731723819500e-01 -8.999397437524936372e-02 -2.330020588974302254e-01 -2.338788304624158654e-01 -1.421390060780774456e-01 9.171723708179239098e-01 9.529340266553597560e-01 9.732280576478520295e-01 4.702380939483533639e-01 -4.321324575081155750e-01 4.744887608192214778e-01 -2.111202442760961584e-01 2.916002817916967318e-02 5.542335930894085605e-01 -6.056584565581225599e-01 9.032543222780142766e-02 1.640362237572841331e-01 -1.693336058327660765e-01 3.462756577415743164e-01 3.433709544467944963e-01 2.495739015483968148e-01 3.433709544467944963e-01 2.495739015483968148e-01 -2.420244086509764636e-01 7.495278682547551474e-01 -3.061982467591662371e-01 3.986884459541505110e-03
2.763118115285702614e-01 -1.829003464637333695e-02 8.522237178981357797e-01 6.916935457782631413e-01 8.351307009756323563e-01 -3.443699297007133953e-01 5.872681576823415156e-02 -8.124435411645450356e-02 2.044487448384318118e-01 -1.205937792833027822e-01 1.346287611907736603e-01 -2.217917816573901080e-01 -7.910132625159521647e-02 -3.674303458383909593e-01 -1.484038790012573439e-01 -3.667554267958793579e-01 -3.732118644848077954e-02 -3.684400499238415505e-01 -8.562663666964830389e-01 4.009936694191791884e-01 4.062946809790833891e-01 1.979347680585109015e-01 2.421277744330726511e-01 5.073735560749470519e-01 5.038419858758357295e-01 7.780573426093198575e-02 1.545929900655165952e-02 4.161574026004890431e-03 9.967300070003766166e-01 9.948421278103636300e-01 9.921125774222220306e-01 3.250160656355959021e-02 4.464322797819141320e-01 2.029668839971720540e-01 6.804330321801163595e-02 3.992447591665603257e-01 2.167557620126250029e-01 -4.528317052135071713e-02 2.519838255209298425e-02 -1.612660973313139179e-01 8.061402941981263282e-02 8.420435040032727692e-01 9.158097344473006274e-01 8.262084019694805326e-01 -1.627008936094963276e-01 5.350761461513278139e-01 -2.148383806431462470e-02 8.389177863561031456e-02 -4.015115988822572923e-01 -4.458022262193222507e-01 9.960792659658348480e-01 9.971546399724914300e-01 9.988558068543427204e-01 -2.693962644297012154e-01 3.916195314779828407e-01 2.774850996222590349e-01 1.860399398937478133e-01 1.623385211831621655e-01 2.900344206973401451e-01 -1.905486036412942785e-01 7.327308642490997226e-01 -1.552203202296694937e-02 -2.032593815101403079e-01 -1.791342838014242655e-01 -1.195011226187462916e-01 8.846702500424508120e-02 -1.195011226187462916e-01 8.846702500424508120e-02 3.592489317300481821e-01 -7.677843148502501158e-01 1.742023467441586038e-01 7.034188734371658036e-01
2.978273182837132826e-01 -3.873312999347399387e-03 3.746799872661256137e-01 5.513303172062544721e-02 3.886565626296310527e-01 4.203607045851485147e-01 -1.300762390258846518e-02 2.819123039306461465e-01 1.272192010376918814e-01 -1.558209504151612246e-01 6.702758757622290231e-01 3.940269824223175954e-01 9.316563411157624541e-01 -1.806521944490096787e-01 8.684096743138723928e-01 -1.741823403832245265e-01 9.454422436297927890e-01 -1.848896460428778865e-01 8.165660552094944347e-01 3.723293156590869457e-01 4.814407441243879759e-01 -2.696441091771749066e-01 -5.347522082511602104e-02 3.724078200087833079e-01 4.291235433783290310e-01 1.250900790950478514e-01 1.536922618871807214e-02 4.399223686590267302e-02 4.459620273093959503e-02 -2.345140978019940314e-01 5.945295184692354074e-01 4.101978438425780138e-01 -2.587155300580847028e-02 1.687958465623755899e-01 3.265430801108194503e-01 3.279157354535307545e-01 2.751787936251985922e-01 -2.341294612150456311e-01 3.416592921216538015e-01 1.481524582214992225e-01 4.765226505682344793e-02 5.503801415245233031e-01 6.359094647617193896e-01 4.001298295280525941e-01 2.710485230261288625e-01 2.632084591286317776e-01 3.090714309404380411e-01 -1.247191613795261243e-02 3.776920788293814946e-01 4.328641082296837833e-02 5.456183392554845302e-01 7.619053723425160962e-01 6.079988739056636504e-01 8.911789739394845866e-02 5.113719034996583312e-01 -1.348637394675049166e-02 2.019348552481430026e-01 3.105460601768590401e-01 -1.203903597388115143e-01 2.577513114528967031e-01 1.876533410017931225e-01 -2.287394204736736825e-01 7.000165029215043022e-01 -3.041071770920514838e-01 -2.136594500307214747e-02 -1.872175586527032309e-01 -2.136594500307214747e-02 -1.872175586527032309e-01 2.184615749440686761e-01 9.118680521580873055e-01 -1.500067247642344614e-01 1.612950293220888898e-01
2.802827891808862826e-01 -1.917526067478766277e-02 8.437195527918514015e-01 6.843791507227082738e-01 8.382934921960779606e-01 -1.223960273182274766e-01 8.935553490640180119e-02 -7.997492373762690732e-02 1.513578702026140144e-01 -1.358771682774583822e-01 9.014882833656576167e-02 6.880546972074722545e-01 9.565647148987720394e-01 1.731965085859819009e-01 8.830510544430527631e-01 1.652677289708760489e-01 9.761425440618132221e-01 1.734296846938374326e-01 8.814556029242103241e-01 4.491140543583080347e-01 4.759295847564353199e-01 1.426786373175728262e-01 1.189249710818734429e-01 3.870381521525657620e-01 3.812925031064358650e-01 7.720883146010415476e-02 3.495445114702698530e-03 -7.396946450323605825e-04 9.895295014759750707e-01 9.913598602226502132e-01 9.916726084741619429e-01 2.778066651335014403e-01 1.040375902723486151e-01 3.812830206373946651e-01 1.785741718305739467e-01 2.474855696167167218e-01 4.166779880613521447e-01 6.047848485501987337e-02 2.877546438882774282e-01 -5.899782894791447130e-02 8.947968154682310604e-02 8.328833605469689871e-01 9.110110486359507265e-01 8.067938309381642581e-01 -8.144216396280581916e-02 1.059611045337038454e-01 -1.249105481538798773e-02 -3.428137090913843665e-02 -2.054243592851973457e-02 4.807016774404330728e-01 9.910100097804166452e-01 9.955284507331250143e-01 9.897242923060403097e-01 -1.014316761216334656e-01 -7.036871321156245793e-03 2.670434379858551144e-01 -4.046574022591974129e-02 3.376239731918337372e-01 -3.060115830130089032e-01 -3.241383358830578210e-02 -6.313571964880811127e-02 -5.516049822371291850e-02 2.492568078088940597e-01 5.330180975358648210e-01 -1.621224931302426286e-01 -2.096595504695662054e-02 -1.621224931302426286e-01 -2.096595504695662054e-02 -5.694031637653994282e-02 -2.626438529887180628e-01 8.528473332443037291e-02 3.067144627973636406e-01
1.813694491549850962e-01 -2.610415722561256965e-02 -1.104931154646945635e-01 7.294079148941016999e-02 3.073247861671138392e-01 3.953873850491133601e-01 2.159669579251289051e-01 9.623126529102148108e-02 2.693672591488140422e-01 3.457569002950328652e-01 -2.663349858208116649e-01 4.017531134152799166e-01 8.419911298064364225e-01 -4.142925100842059782e-01 7.798121449591555177e-01 -4.040584690027707593e-01 8.403687675402449209e-01 -4.391888042187374053e-01 5.923979361081401773e-01 6.867417056408517961e-01 8.155984568493933606e-01 4.863164220149520101e-01 5.512942396650899468e-01 7.815470456160765744e-01 8.707146583704186149e-01 -1.636803569056364746e-02 1.799443708265957217e-02 2.847687749973863980e-01 2.857265030419646190e-01 3.351166530321421089e-01 5.720270668828368876e-01 1.753660300658114735e-01 -9.266170896640570087e-02 2.063262104712661540e-02 -7.310969277953347466e-03 3.506905749687529439e-01 1.883281590906714931e-01 1.701849832633886284e-01 1.341381850306993251e-01 9.253318533066326457e-02 -1.206336711954477114e-01 4.133939287343820213e-01 4.989889940562463599e-01 1.094144682462486889e-01 4.733715094928501177e-01 -1.426738704033655436e-01 5.880138531593507301e-01 3.523023298054304142e-01 4.740566827600636302e-01 3.684671730646874033e-02 5.821892736470100083e-01 6.697601409703951569e-01 5.955386896556517096e-01 2.688929770901822836e-01 -3.386849467348903436e-03 1.552981621842920712e-01 6.809549425160594804e-01 -3.018801019849247647e-01 2.780134267596699460e-01 2.731116022519770037e-01 1.261247331356442070e-01 -2.609237631236289712e-01 1.773666448151380026e-01 2.546016488580414294e-01 3.653967422507493068e-01 -1.871147862297413700e-01 3.653967422507493068e-01 -1.871147862297413700e-01 -2.164078644482253233e-01 6.838127462449988814e-01 1.588942403345360854e-01 3.383634806465138922e-01
3.038331819591054694e-01 1.036481585267428479e-01 5.744441545964508178e-01 5.046378122024793855e-01 6.347777239233507451e-01 3.806994910227923246e-01 2.495014589918173875e-01 1.027109345222780579e-01 1.218608271669459203e-01 1.385017750915915891e-01 -1.017969766013597371e-01 9.494163176265393855e-02 -3.393914819209552514e-01 7.020909569437880915e-01 -3.517661230346145751e-01 7.632659702143502756e-01 -3.618580083074727227e-01 6.368340335612262537e-01 -9.811317921420283916e-01 7.590992534013911719e-01 7.632146741395158251e-01 6.552751981049813601e-01 6.764185257171999588e-01 8.211867353362681810e-01 8.321978602351637333e-01 -4.877727358412532049e-02 1.454851219888956271e-01 1.047531175942372494e-01 8.186044595349722952e-01 8.231721178973984143e-01 8.718629401842410420e-01 4.372784346648690978e-01 -3.800697632185508277e-04 -1.995179498893384917e-01 4.422396468062025215e-02 3.231408091111828695e-01 -2.841830798200285779e-02 2.862880595798270901e-03 -2.606788866390645776e-01 -1.784982613692512876e-01 -5.217534908269300803e-02 1.935307338319562729e-03 7.810402840747755482e-01 4.516056796531016659e-01 2.939456400772912370e-01 1.482021561098043755e-02 1.732828372120192584e-01 1.824114551823994845e-01 4.613829384186862170e-01 4.469370030308467134e-01 3.107044836121407583e-01 8.682290838843045311e-01 8.811256485727441135e-01 1.947667802105299273e-01 -6.153843038193838183e-02 -7.030905302282509928e-02 1.537473796018778149e-01 2.105552930682242363e-01 -4.837242273967610751e-01 2.865080269618730524e-01 -1.254521905490775524e-01 -3.101709855291648887e-01 -2.676938357896239684e-01 -3.463966295577308729e-02 3.889796147438257523e-01 -5.215198885378956595e-01 3.889796147438257523e-01 -5.215198885378956595e-01 1.543550127031516339e-01 8.039186756620413377e-01 7.116616486073513992e-02 -3.537135011129369788e-01
2.641377361808871505e-01 -5.465484074175999685e-02 4.355523989211050329e-01 1.397784026822413983e-01 5.768142010821238896e-01 4.001407036299742259e-01 1.722814202095334091e-01 3.917157000423874824e-01 -2.011856484050184579e-01 4.225780500770195403e-01 -4.631176004344489949e-01 4.510070241842982774e-01 9.598509918079340952e-01 1.400058305816635484e-01 8.884421012096432868e-01 1.357381358862614629e-01 9.763754017469170599e-01 1.371732621000628927e-01 8.901087847740890568e-01 3.724905983114620289e-01 5.351784355357360745e-01 2.378473745674567208e-01 4.076995432307731204e-01 5.255077555743711271e-01 6.353692675176949578e-01 1.074302693691289168e-01 1.145022435185019116e-01 -1.591319303542957364e-01 2.115503709079317174e-01 2.966980725643012518e-01 6.199394635855107749e-01 4.187395333934645913e-01 -3.765185322187071526e-02 5.751754388479108498e-02 4.232824335462126442e-01 -5.028529990746240935e-02 1.799752926034499101e-01 3.621241256920563201e-01 -5.419417410283477315e-02 5.934707312237255117e-01 7.119212581867191691e-02 5.533220656808455207e-01 7.615345299722652284e-01 3.000080572114785515e-01 3.302719167526850796e-01 -4.550268552443805653e-02 1.907153891272234669e-01 2.334593998153633998e-01 7.396668320753470131e-03 2.285681283653621665e-01 5.797676579469189795e-01 8.538601071864604375e-01 6.452398261322891404e-01 1.508090763326418726e-01 3.739678494459097030e-02 1.138079147011561709e-01 1.421643882627655897e-01 8.955745599582885796e-02 -1.230672144638058907e-01 8.510867861236007248e-02 2.090706352919726174e-01 -1.167515902954621154e-01 -5.497793764255826110e-01 4.866024416276489850e-01 2.327371174881334992e-01 -2.533012409080694360e-01 2.327371174881334992e-01 -2.533012409080694360e-01 -3.348712487364531309e-01 8.809553373965116618e-01 2.007951527802718794e-01 7.853102128628164369e-02
2.789100122719384567e-01 -1.651517389917734127e-02 8.494964808086004071e-01 6.924652175103637175e-01 8.454911693821338670e-01 1.359438084551785331e-01 5.899544122531528156e-01 -7.624668988851354690e-02 -1.541427882986163948e-02 -3.222515341894499619e-01 2.397044065043061611e-01 -1.598283923528794614e-01 -3.359856209528703230e-01 5.403325993924030790e-01 -4.040865825960328617e-01 5.273659782869334345e-01 -2.879033532275023788e-01 5.423615935086036899e-01 -9.823284012422518474e-01 4.745860800070654806e-01 5.372514677656207160e-01 1.641312093275862360e-01 2.024080704389154550e-01 3.162956837853201364e-01 4.129822859434889026e-01 7.443852180175786204e-02 6.263702928610924599e-03 -2.946570236326444010e-03 9.922206394713166677e-01 9.935498693810063120e-01 9.910605295303532847e-01 2.717324140120957465e-01 -1.579645879598392533e-01 8.411918490550855665e-02 1.532214182108494471e-01 1.196262486441027201e-01 2.262153407522700110e-01 -1.397745608639580916e-01 2.998636641394865632e-01 -2.829326602667807111e-01 8.640660905712457818e-02 8.446716591655346607e-01 9.148900190901300133e-01 8.292913103265049379e-01 -2.207495593692527514e-01 4.621035150584809070e-01 1.464725510634923289e-01 2.844827247986305152e-01 -4.720836189717320108e-01 4.066992567931279612e-01 9.984526179570296645e-01 9.988619380489397459e-01 9.961219381464223588e-01 -2.487564729959704235e-01 3.908243559810983259e-01 2.361196873624478998e-01 2.880801667328198312e-01 -8.464950266642048970e-02 3.729941316427426989e-01 -4.050523585057644316e-01 3.042430267611602179e-01 5.122365368811800795e-02 1.685882044163126148e-01 5.202567794415097896e-02 -3.736970897042519724e-01 5.113646425169715570e-01 -3.736970897042519724e-01 5.113646425169715570e-01 1.466006849382761601e-01 -8.128875127028711844e-01 2.539528868082995272e-01 6.984564162497813866e-01
2.795521731562261025e-01 -1.293732595892327017e-02 8.491938813632576855e-01 6.911588376149084834e-01 8.370096505303616929e-01 -7.149910353135960350e-02 3.177827214045201853e-01 -3.218253246540942469e-01 4.174723338344572543e-01 -9.161491350832302871e-02 -7.862195283399993351e-02 4.484755581010205217e-01 9.643283198610804741e-01 -1.146197973055055191e-01 8.903528407642381515e-01 -1.149426226471944174e-01 9.838487077475173148e-01 -1.160549784769585036e-01 9.019220896370346852e-01 3.312771309780873086e-01 3.862387874471473470e-01 9.243945246109297464e-02 1.058506785596972088e-01 2.549438681963334674e-01 2.435574715204306129e-01 7.707560106097503805e-02 5.391115522776153185e-05 -3.071347681780417591e-03 9.961360974140134328e-01 9.864214624712296375e-01 9.840706627193377409e-01 1.483575801016643325e-01 1.478569052532855976e-01 1.671322312989081127e-01 -1.822116315035980927e-01 5.749045799296338410e-01 2.045888293232222266e-01 3.751012621796531166e-01 3.030475264156144433e-01 1.100669812798736463e-01 9.647863841713559541e-02 8.402608219631733100e-01 8.963530977228005847e-01 8.307299798813703173e-01 4.016908665232899606e-02 -8.925247056224910880e-02 1.241689577661386767e-01 1.363133014892174422e-01 2.322411434132676256e-02 1.486247404717905840e-01 9.882403524292946440e-01 9.850750034722355331e-01 9.955264376836499007e-01 2.052896014065768715e-01 7.648217626752069898e-02 2.964409065579395874e-01 3.401943847383764319e-01 1.830378764543248021e-02 3.084970257271243965e-01 1.394607262749630872e-01 8.035388163632814496e-02 8.849887479079364405e-02 2.279469563857974557e-01 8.924016476478488502e-03 -4.191715997826684914e-01 6.982693383245810459e-01 -4.191715997826684914e-01 6.982693383245810459e-01 8.893150365387471334e-02 -1.302618424033268607e-01 6.297916677350676729e-01 4.318607602331480111e-01
2.301353294788055504e-01 -8.288964960672262627e-02 -2.047646264927091841e-01 -3.138530661117606702e-01 3.496855692797313231e-01 2.297047588450030348e-02 3.626118926417697397e-01 1.629053481406660120e-01 6.316215697734550716e-02 -5.831037454373511324e-04 7.449005023696689265e-02 2.742712941500213275e-01 9.286714080264418802e-01 -1.780361487462642570e-02 8.827240447965898351e-01 4.649326375002972751e-03 9.119676640485884223e-01 -2.904720845419566516e-02 8.092718768310672717e-01 7.152183963395530863e-01 8.894526877981429047e-01 3.254359400725428397e-01 5.145064475938921911e-01 2.301321745258980700e-01 3.576736369084013711e-01 4.412864730306336192e-01 5.057911826148149270e-01 3.086031919147374514e-01 -4.685982601489164234e-01 1.482235437074867490e-01 4.095148085512581027e-01 -3.381235883104660028e-02 -1.039138945038866335e-01 1.098411505870744986e-01 1.874843731845088901e-01 -1.685581716291600918e-01 6.240699834005826174e-01 1.230055856990195234e-01 4.472734203542632070e-01 2.439970916254112221e-01 7.263276464110818287e-02 -2.485720574271430283e-01 2.624697849969933050e-01 -1.415754574030278316e-02 9.782872066977865710e-02 5.477947886896742391e-01 3.325288395281733034e-01 1.599068545514392148e-01 1.728468093881316281e-01 3.371432826061521171e-02 1.621608876022601620e-01 6.289329368059154435e-01 3.272918206149349474e-01 -1.646458750273685212e-01 3.245540293733762960e-01 2.999292002606153140e-01 2.718812882742420722e-01 1.019208169810984499e-01 -1.156630496545488079e-01 -6.967662472053293490e-03 4.512418691302225726e-01 -4.269180485499313171e-01 -6.344232808183944416e-02 -2.178880889491924266e-01 6.866720211245562477e-02 -1.491829824746118971e-01 6.866720211245562477e-02 -1.491829824746118971e-01 -2.127165353414050553e-01 -3.033901415329217088e-01 3.496022563974195974e-01 3.150977439042353945e-01
2.818371632343271149e-01 -8.582563379170763881e-03 8.501276313722221367e-01 6.891632282401776166e-01 8.454913637231200596e-01 -8.628408288533286064e-02 -2.694662714616584062e-02 -8.079093722339216951e-03 1.925210389812763989e-01 -1.923504396518584958e-01 5.867701155560972603e-02 -1.958243785040731100e-01 9.643190096176181836e-01 7.869632424732947440e-02 8.912514404260500900e-01 7.114344130867678029e-02 9.831608072038831025e-01 7.939367041537651049e-02 9.018983589942005663e-01 2.818334380296070307e-01 2.902618644694794914e-01 3.236947504779277840e-01 2.994714280264987316e-01 4.593522089461160585e-01 4.720018601125719471e-01 7.438104978224992225e-02 1.204479129073531343e-02 9.083268400113734056e-03 9.927941685233628855e-01 9.896738012056467415e-01 9.871473217211083062e-01 2.152372986680796685e-01 3.395885683552828382e-01 2.964871630602216035e-01 1.937292334537759342e-01 3.809710916604738817e-01 4.279618224436894103e-01 5.456574228342919719e-02 2.630564888838688442e-01 -2.636543420772456958e-01 8.370011049877791598e-02 8.340142465900909352e-01 9.120003113057771893e-01 8.147001684945414102e-01 4.238965547477194229e-01 -1.745101427694043805e-01 -9.100076699604599251e-02 -1.633840840594895649e-01 -1.380543158611312674e-02 -8.185172657340358468e-03 9.834554556856615060e-01 9.962314378080746602e-01 9.966365663112403128e-01 2.076373278914928622e-01 9.226853368887896756e-02 -1.451682009820319530e-01 1.789167781083465247e-01 3.923472223704306261e-01 4.754111889578435113e-01 -3.915022806828290930e-02 2.441574624612104782e-01 -1.119247336799450154e-01 -2.867563830799949032e-01 -4.797014895062224338e-01 -3.018378350055694326e-01 2.798774792070315431e-01 -3.018378350055694326e-01 2.798774792070315431e-01 3.346493185973131168e-01 -1.610283350971365990e-01 2.896771471952322985e-01 2.950633459981215623e-01
2.832027123722543616e-01 -4.702384414654867811e-02 -1.764155780302078536e-01 -9.316106363076086250e-02 2.494845501322650871e-01 2.980622800930469718e-01 8.236129950921371456e-01 2.828874899373530205e-01 -1.065218922427712822e-01 9.645693902466338093e-03 -7.974913675108556699e-02 3.816182118420501923e-01 9.120982445830471130e-01 1.235665159662478335e-01 8.608332349240657155e-01 1.418807817273948779e-01 9.109305819296857898e-01 9.451928373010724804e-02 7.665563636975502027e-01 7.969993581082089884e-01 9.372032118434188153e-01 3.927697850974192773e-01 5.760440227888877773e-01 4.467772791964149115e-01 6.077257203437087529e-01 -1.296067460061507692e-02 1.016833638003482171e-01 -1.612036934521108300e-01 -9.518316830110024052e-02 2.179109499955318996e-01 4.235965809533071558e-01 1.784794249151431256e-01 -3.566072605312650134e-01 -2.335144203313939681e-01 2.173655133899979053e-01 5.671939461581439711e-03 1.452225698791894670e-01 7.046413973810157494e-02 5.234001940810784070e-01 5.406733382836601542e-01 8.838252310531931333e-02 1.205506171265682130e-01 5.619519085753312826e-01 2.468496491135087623e-01 1.100391649029257707e-01 1.700889513802199271e-01 -1.338461232176183513e-01 -4.565127737186067819e-02 1.106939807296738604e-01 6.069187948656427078e-01 4.722293195366998320e-01 7.382044113047709910e-01 6.312090112958970156e-01 -6.429281450100947370e-02 3.026879148324176927e-01 -1.539318334787209974e-01 -1.078198991534215501e-01 3.203600498383252226e-01 2.631544341092654227e-01 6.518296722323406456e-02 -1.569163230314626623e-01 -2.517177574122404435e-02 -1.050449540717685731e-01 4.403372592144303987e-01 2.001876316608550144e-01 -1.313532976086051185e-01 2.001876316608550144e-01 -1.313532976086051185e-01 -1.930839999205310326e-02 3.728348212457402999e-01 2.379577767491642681e-01 6.448464400939262209e-01
2.369397690762530539e-01 -2.125246660111048541e-02 1.117168553609541870e-01 8.324282329832179486e-03 5.306518391215360453e-02 3.985558707596622563e-01 -9.085408020392084227e-02 1.512091831753389556e-02 3.678134018010230655e-01 5.309848335709547312e-02 5.394517867355708152e-01 4.029107849160732391e-01 9.394668889257250521e-01 -1.606385775144736905e-01 8.723402373248195785e-01 -1.580879449691474647e-01 9.509672099126228462e-01 -1.695906654928590329e-01 8.367982033771579342e-01 4.064731766588970951e-01 5.288632917447003701e-01 -2.976750767582889493e-02 7.460572491831890529e-02 2.455574569226073034e-01 4.049217162194126418e-01 -6.623396945583846784e-02 2.719100608394788843e-01 1.338961061214734571e-01 1.718802639378029518e-01 2.567781231509459472e-01 1.489877446584605622e-02 3.421364540811330235e-01 7.151675801635924701e-02 1.049103465888862607e-01 7.686902229580067081e-02 5.070948809176926142e-01 3.816240574014695963e-01 -1.216171882397042159e-01 1.182084156364383853e-01 4.213777248674710485e-01 6.732045593351659862e-02 5.002888087836411257e-01 1.244507736115209040e-01 1.907303578092407748e-01 8.558303104169963371e-02 4.457746964681997826e-01 6.226477871704763078e-01 4.291436769096297343e-01 2.239742971319254872e-01 5.144501575797767456e-01 1.985283156699891860e-01 -6.517602824220235236e-02 5.702983657544270502e-01 -4.190230968067589629e-02 3.877428141875616796e-01 3.411857196292910066e-01 6.661012626672953019e-01 -1.442689032597419263e-01 3.329028883703569197e-01 1.384592103608396074e-01 -1.589293488177453140e-01 -6.285564336094884297e-02 -1.399496920160835378e-01 6.293365499549323505e-02 5.635558260034426864e-02 8.419294634557887569e-02 5.635558260034426864e-02 8.419294634557887569e-02 1.095763564048793659e-01 3.607442700050076945e-01 -3.033931789197047424e-01 3.259259367861084833e-01
4.868379508532390543e-01 3.675227189866592248e-02 8.133094597925299984e-01 6.480473993583697467e-01 6.957775593859659713e-01 6.651044943778855467e-02 -2.278312760450154628e-01 2.656740593440438114e-01 -3.190935652909759890e-02 1.594298080020574160e-01 6.137360158688830170e-02 -5.210242778724087920e-01 -5.643947017087846962e-01 9.600067508383254289e-01 -5.407366252489250735e-01 9.869723964839280939e-01 -5.756521454219837297e-01 9.245365853493690000e-01 -9.898937821548632332e-01 8.747204887366030190e-01 8.805815676494630484e-01 9.477365602933156552e-01 9.617709944113455034e-01 9.094230403977253685e-01 9.244161356909135208e-01 5.023459984997814820e-02 -2.628740024864563429e-02 9.083088029307549716e-02 8.441946460759350845e-01 9.569217586736132874e-01 8.807465171673504178e-01 2.100476487479167181e-02 3.263153452552938760e-01 -8.111628610896710889e-02 2.179388637855029509e-01 -1.258363528039647683e-01 2.705993557006307060e-01 1.923571057491806346e-01 2.551022623430562741e-01 6.294612919826808595e-01 3.139243389039258481e-01 8.698806543305043215e-01 6.805390379850388971e-01 8.468781960178590751e-01 -6.994592107183553176e-02 6.031875024075605829e-01 4.572348512770733620e-01 2.703202643531964489e-01 6.691065206363865613e-03 1.741953557930579211e-01 9.233591175730485601e-01 9.392565030303772211e-01 9.551972584870763727e-01 -2.226105927634691173e-01 4.392048203604419498e-01 3.011698362519865668e-01 3.904312329386020464e-01 -1.983800751934549911e-01 1.447397325353092234e-01 2.734745291603205355e-02 -2.667349975599092246e-02 4.233947546938654494e-02 -1.899240529082890927e-01 -7.038453274349569522e-02 5.138667465872939211e-01 -3.548835873658356399e-01 5.138667465872939211e-01 -3.548835873658356399e-01 1.629680907830712566e-01 8.519308654615433962e-01 -3.470015317883574091e-01 5.100811938081924873e-02
2.059791916248945864e-01 -3.481748460416009359e-03 2.336865273700054202e-01 4.163866090105589751e-02 2.229806734588928030e-01 1.781086061086693539e-01 4.168338491217350728e-02 2.612427418205493512e-01 -6.705456117879733668e-02 5.184794441637893825e-02 1.801761324312309009e-01 1.219091557894701749e-01 9.543280112892704725e-01 1.171479997314215926e-01 8.879636305772637961e-01 1.122694517419822041e-01 9.678683613718167544e-01 1.137295720640934260e-01 8.755932633945895383e-01 4.814374149367989797e-01 5.963636489255933482e-01 2.408552559051722053e-01 3.673369766881669496e-01 -1.867513536455502055e-02 1.691265455686784547e-01 1.695348070711753807e-01 3.657373091004251786e-01 1.833039614030202227e-02 -1.906251534808290780e-04 3.204375547546719494e-01 2.426087155282769803e-01 1.636729266509574787e-01 7.931278800532097148e-03 1.928412579160222462e-01 2.532128672503242139e-01 3.158313514638824704e-02 1.872640763933968167e-01 1.755815171251905726e-01 8.337462178103971500e-02 -1.952900907304982447e-01 1.019799907888079837e-01 4.721396928966692386e-01 6.077968733124987644e-01 3.284248108878233263e-01 1.002369684468352590e-01 2.077185801683946731e-01 2.783139862214906723e-01 6.706649665185053510e-02 2.407252791292367466e-01 3.409132556314349305e-01 5.633693808127955283e-01 7.593975928035016087e-01 5.107352275512930806e-01 -7.162276507007646342e-02 1.397516268301118025e-01 1.885324481398959751e-01 3.826374086738533187e-01 1.211289175090220355e-01 2.549801930667329741e-01 1.038973958167323242e-01 1.090745108558622556e-01 -3.213782096037844371e-01 -2.198063461765465965e-01 -1.445194716943367375e-01 -1.435782432363506556e-01 1.144335278993536542e-01 -1.435782432363506556e-01 1.144335278993536542e-01 -1.567382530448495695e-02 8.094141752142376411e-01 2.874173992655047472e-01 7.332398376010813568e-01
3.425593762757094818e-01 -9.007244519936770388e-02 3.578132614489185070e-02 -1.898393698285888997e-01 6.088588645325060562e-03 1.299708632529839869e-01 4.054161586434026909e-01 3.993242573147990360e-01 -2.722530019264281925e-03 2.744834098561937941e-01 -2.453619501121795110e-01 4.001712377840951351e-01 8.901161950401503820e-01 -1.860141892995950674e-01 8.348814939285735814e-01 -1.770082092744609259e-01 8.875407561878372320e-01 -1.907671229400817181e-01 7.109780429646033184e-01 7.004013122226806498e-01 8.150950944419228517e-01 5.606099001045075081e-01 6.689149019952709274e-01 3.733707325149528966e-01 5.388486108683149256e-01 6.227071025648777125e-01 3.093185421935686422e-02 -6.414742610505175247e-02 -2.257477964687532312e-01 7.609956593164068916e-02 2.037591065903826548e-02 1.031625981873237063e-01 -2.377841703195243128e-01 1.573933560340258775e-01 2.807129672961304334e-01 1.053812610733626393e-01 1.514575353142656178e-01 3.411245685505480130e-01 3.668204529394205049e-01 1.225505826697589756e-01 7.544021620755585189e-02 8.104224463219567021e-02 5.107630577590559495e-01 3.887875403721581247e-01 3.344621288143042048e-01 -5.943758109058608352e-02 1.383458350202905751e-01 1.872494008304718613e-02 3.300523452810762981e-01 2.181345324876740044e-01 7.107520994864444663e-01 5.042574135059507690e-01 5.544644698905366598e-01 1.756524535047539193e-01 7.742656321110245876e-02 4.731686719102340399e-02 2.793286928978600536e-01 2.051365124868373413e-01 1.432454491635771487e-01 3.877192246454776448e-01 -2.443817963516203562e-01 2.495582045181801156e-01 9.327385423121456465e-02 1.782783618660067348e-01 2.531461809004053598e-01 -2.831611036963784245e-01 2.531461809004053598e-01 -2.831611036963784245e-01 -1.893712872681731774e-01 4.840520513218783405e-01 3.392149212117955837e-01 3.968487227260381611e-01
2.089106322709803620e-01 -2.784750878118152917e-02 3.900412332346949729e-01 1.618073849854529400e-01 2.590813558821433160e-01 5.352735806807548125e-01 2.805840405520697023e-01 5.600857606587695409e-02 3.461850376747945268e-01 -3.472941030465017676e-01 4.579412106025539386e-01 -7.716003495660629652e-02 8.672414727519542899e-01 -2.493762095738737972e-01 8.023800325643500875e-01 -2.297373198671102124e-01 8.727185329996739460e-01 -2.642341007950991250e-01 6.539964370256379222e-01 6.646496177692605700e-01 7.529484752865499564e-01 3.008659615775370333e-01 3.625505895353038355e-01 7.766948061447076501e-01 8.015087153202609116e-01 -2.648874601977379561e-01 1.775502563583791077e-02 5.103391335371932902e-01 -9.020966534567732148e-03 4.429152457003754373e-01 7.469535069636055180e-01 3.894000127641298326e-01 -1.796352868513891032e-01 -2.751870902646923883e-02 6.367329507381169762e-03 2.264302511566718967e-01 4.653620874005100494e-01 -4.731800322174319895e-01 2.968480283141809450e-01 -1.621335290845418997e-01 6.001343435919009178e-02 5.919317672929064189e-01 6.996306961508120814e-01 3.738056030680608210e-01 1.464507482785369352e-01 1.010344111609458445e-01 3.216213836394228864e-01 7.133453849078079390e-02 4.609585452188889598e-01 2.847783924998772420e-01 5.848561217093408704e-01 8.759201033163560579e-01 7.246663475727356252e-01 1.807146646945627655e-01 -6.383646973736320507e-02 6.002525117781480901e-01 2.519635012155024278e-01 1.668137156580698846e-02 6.416918305118492205e-02 2.762673660264545750e-01 -6.900875356749659739e-02 -2.272127803554146175e-01 3.467773266439750923e-01 -4.050667928389740241e-02 2.713799215219865335e-01 2.164465225049293576e-02 2.713799215219865335e-01 2.164465225049293576e-02 -2.131394256821884936e-01 9.454295248469173352e-01 2.869805878310908720e-01 2.301487365529789053e-02
3.255128296205465621e-01 -3.042504889553646064e-02 2.939774456911751765e-01 8.192401301013028936e-03 5.423739327716264880e-01 4.119788772920731645e-01 5.927881291459891067e-02 -1.011783112148156027e-01 6.230262263549188884e-01 1.476749539073745343e-01 9.467498787617938116e-02 3.637561329977929692e-01 9.294223703470333442e-01 -9.664789684281828441e-02 8.633911002919018030e-01 -9.833139672981357216e-02 9.445660403371007874e-01 -1.096349082928899377e-01 8.107888209058742301e-01 4.131209317539037973e-01 5.761416101092684539e-01 -2.402245261268176266e-02 2.788523142033272340e-01 1.670055283851651362e-01 1.961679380472940160e-01 -2.461118167007055324e-01 -5.595903842501106507e-01 -3.157747774426309939e-01 -6.309061454647581224e-03 2.025358189549458440e-02 4.057673859542831329e-01 3.556024342278037431e-01 1.282573750878560903e-01 -2.669194573400712756e-02 -2.429453680196771992e-01 5.534144370899055643e-01 4.552751891799687312e-01 1.387412430344694136e-01 -2.440145121669021200e-01 5.527939130348435981e-01 1.257947298136085079e-01 3.687587148688807881e-01 5.095881541252703650e-01 2.123428862979657994e-01 1.799759755180756760e-01 4.394156205072826116e-01 4.532177457785641628e-01 2.801846708750269088e-01 1.139747011934488102e-01 2.233681144067706237e-01 3.852365862025228793e-01 4.145215658801735259e-01 6.806586631453586111e-01 -2.904629029255595407e-02 5.551516584031697121e-01 1.243765283629740398e-01 3.932441618998570032e-01 6.315633327351885540e-02 -1.006441861855655040e-01 1.412081028680031713e-01 -5.059347758754104835e-02 2.571066720387216731e-01 4.561435341614609174e-01 -3.975604468159569804e-01 -4.969827175586293000e-02 -1.565819973674196508e-01 -4.969827175586293000e-02 -1.565819973674196508e-01 2.632697102603296369e-01 4.991710955672801209e-01 2.760828493343624457e-01 3.609661092784127168e-01
3.339483698572612846e-01 -3.458421195493600886e-02 4.696940811927842740e-01 2.733761912842839203e-01 1.446399220862024382e-01 2.973587164949417772e-01 5.618360281187442240e-01 1.076992889842058043e-01 3.156515098439354738e-01 7.723245637639350458e-02 -1.662664680251993155e-01 -1.684701874299128210e-01 8.332724604056244155e-01 -3.801854584578760465e-01 7.653924803943826793e-01 -3.758857184417787600e-01 8.460184504102290504e-01 -3.942366185898260600e-01 5.712930510230517234e-01 5.889218199809166387e-01 7.104246496076197515e-01 3.953545009261503207e-01 4.434708407455791312e-01 5.443560013815719190e-01 5.864722112379443519e-01 -1.192002893865831969e-01 -2.031828493516751044e-01 -2.974752292707057433e-01 5.395213614025222704e-01 5.714945613091523269e-01 5.074410715038476516e-01 3.715820681984929319e-01 -5.166398364487063688e-01 2.854135203387980213e-01 -4.362167800997708567e-02 6.819282362582486379e-02 4.843868096604325157e-01 1.264861779421225518e-01 2.681496077716826187e-01 -1.141965700591810046e-01 6.300416113819881647e-02 5.190719310200201386e-01 5.389757911694879056e-01 1.039694622629455251e-01 1.630228787028175363e-01 1.967992008976105489e-01 4.423389357264263522e-01 3.072067601702095918e-01 2.911427567836379904e-01 -4.237398751281178837e-04 5.835782112786680464e-01 6.415259210912819254e-01 6.785180409685850345e-01 7.857095367143920872e-02 8.194791997529787819e-02 4.352758385350615766e-01 4.259532574385596626e-01 -3.050271578623309221e-01 3.081295498820487144e-01 5.589758610319547905e-02 -2.342093483792397068e-02 1.795535608497378088e-01 5.325853548838346829e-02 4.784492082490247045e-01 2.022839892861797162e-01 1.742507897845405329e-01 2.022839892861797162e-01 1.742507897845405329e-01 -3.481601580087399506e-01 6.573526281402699567e-01 1.707996401217496130e-01 1.198919005262511217e-01
4.068945199019312065e-01 -2.752722299380190585e-02 -6.542220524387536151e-02 -1.142908693410246562e-01 5.371680402287294376e-01 -8.482070160016913496e-02 3.443765896894784850e-01 4.449833294566524766e-01 -3.183654495184134459e-01 2.197705094634647971e-01 -2.129147394510730318e-01 -1.395645393458978534e-01 9.470325300136732682e-01 1.443464599757673938e-01 8.931420399991046866e-01 1.548715499749894198e-01 9.469353100255597511e-01 1.306899799417576002e-01 8.566208600358076186e-01 7.251973298785919786e-01 8.553163097728996300e-01 -5.666847338615977302e-03 1.659140004117832246e-01 4.928000504041374352e-01 5.498635003538417942e-01 -1.357359098242221229e-01 -2.827746697629461847e-01 -8.186134398241001753e-02 -1.048700490982530931e-01 1.562285006882797034e-01 6.465746402831428208e-01 -1.283030400580232877e-01 7.571655744510494279e-02 -2.089901894999543486e-01 4.808669695680836687e-01 5.922613617539373293e-02 5.300342026639460330e-02 2.385509893808513970e-01 6.972384358901656531e-02 3.164889396263362298e-01 -3.655718888161510471e-02 7.805939163269405567e-02 7.631080201245876715e-01 3.294566604128112974e-01 3.796650894890356565e-01 -1.093897895171057899e-01 2.628200090385979237e-01 6.058607197922121212e-01 1.805134338862459872e-02 4.025796694064778247e-01 3.787653805068030843e-01 8.763292200953961553e-01 3.596210605189533727e-01 2.777743294913849192e-01 4.046458628701789934e-02 1.525345498472495676e-01 2.883763594446153711e-01 -2.166098195123737080e-01 -8.254620171537577211e-02 1.595666194223290812e-01 7.683953347910585374e-02 -1.281534395296378137e-01 8.306989185001310838e-02 3.901288696112036325e-01 1.677158398376473181e-01 -5.817406303640605507e-03 1.677158398376473181e-01 -5.817406303640605507e-03 1.029949001592279922e-01 3.902831897218642099e-01 3.132358799135738225e-01 3.597089599397443882e-01
2.738912400025614313e-01 -2.610314299878788158e-02 8.471595000010181398e-01 6.466343400075200698e-01 8.470259799939277023e-01 -1.243975701265278150e-01 -1.124977999809884388e-01 5.154339595037051025e-02 -7.698910793381938400e-02 5.501402420926439392e-03 -6.551064690592481310e-02 2.128417000838568607e-01 9.566676300013703393e-01 1.455547899940604906e-01 8.840124600015425438e-01 1.380374799973819455e-01 9.763034400003960389e-01 1.393977699852659569e-01 8.817264500036138264e-01 2.585113200593208704e-01 2.714001300572578823e-01 7.886317299719713958e-01 8.519671099578217666e-01 6.188930500681887326e-01 6.364553200640545860e-01 7.601318600027964778e-02 -4.117927098231685332e-03 -1.161782400832750244e-02 9.930158299994591431e-01 9.734783900035401949e-01 9.908854899998799093e-01 2.106019999246356578e-01 3.314879000516426366e-01 3.387612400129001999e-01 3.656194698587340169e-02 -3.678384398761028740e-01 3.925142399973540197e-01 1.138000998878350156e-01 1.377222498982011711e-01 1.415742899449990155e-01 1.309982899953562596e-01 8.300329200029701315e-01 9.019013100023207663e-01 8.276002700005733459e-01 4.890323694934389787e-02 3.495272300213335126e-01 -6.156123215187984943e-02 3.222360700028373826e-01 9.486288084959428046e-02 3.251919598785940058e-01 9.916895500004258013e-01 9.953850999994394710e-01 9.958933699988754551e-01 -2.785774000085635693e-01 -1.947971598904122970e-01 4.502066899082067808e-01 -6.539474505739553689e-02 -3.568155592345290117e-02 -4.061224594450839331e-02 -1.010213800801794404e-01 8.542073519942223678e-03 -3.190532898574758303e-01 -1.088069799935457854e-01 6.110275998678390552e-01 2.795530698806464667e-02 1.205304000005464893e-01 2.795530698806464667e-02 1.205304000005464893e-01 -9.871828392233891747e-02 2.269732599636881953e-01 9.935776802028070676e-02 -2.024863399071094583e-01
4.257890676596954860e-01 -3.027720858515896632e-03 9.246702443460468046e-02 1.253016435563879261e-01 4.552423945748900747e-01 -6.551934768182313129e-02 1.765677128048814826e-02 1.426937708984721276e-01 1.606755553455981311e-01 -5.607608102679823014e-02 1.670292527266848404e-01 2.709536516161480946e-01 8.413924448704577230e-01 -2.035685327921438748e-01 7.745574253856091218e-01 -2.008317498375065679e-01 8.538844716347230301e-01 -2.119707605804465600e-01 5.908602421834048268e-01 6.971801994451007900e-01 8.070596427328451394e-01 5.383538189862385748e-01 6.943149559048593655e-01 5.637800246769729684e-01 6.218677380947705835e-01 -6.917682283988130232e-02 -5.033759100354761040e-01 -1.682471454812931033e-01 3.506567542441647034e-01 5.548174206862485081e-01 5.889590043980748035e-01 -3.224349032089895983e-01 -7.106077123234723347e-03 3.158799115930293611e-01 -1.720057886098545069e-02 1.751168417382720222e-01 1.546612003192460449e-01 -8.842239612408064886e-02 2.770372633228385673e-01 3.883305567197726377e-02 2.060391095213890689e-01 5.064330749514461827e-01 7.605496925750312442e-01 4.200201459478655197e-01 1.748293753305774911e-01 2.351895298093719111e-01 1.850463106822286541e-01 -1.841841110339766940e-01 2.968643171861204411e-01 1.529132459133331068e-01 5.244021366827600339e-01 7.850229024291668356e-01 4.752929824155656680e-01 4.813345004316998271e-02 2.926656975518546200e-01 1.660175959621175701e-01 1.892006021305904784e-01 2.029933985887705794e-01 2.188741932114594280e-01 2.430777020473990635e-01 -1.612458470317974443e-02 -4.070439290081533795e-02 4.856627526778597437e-01 -2.890165547658606893e-01 2.233048383883077526e-01 3.500916341930431636e-02 2.233048383883077526e-01 3.500916341930431636e-02 -4.582358653421559902e-01 9.195084436249180149e-01 1.868669215329249178e-01 1.339243433040733788e-01
1.954510279167437359e-01 -8.707703475996740952e-03 1.839669457984705880e-01 1.864940398805254584e-01 5.890974400625180740e-01 -5.422449448473647127e-02 1.668754714949840512e-01 1.895919274513292729e-01 1.189771703224205140e-01 2.343672071189627573e-02 1.877765348125183253e-01 1.506107610634445093e-01 9.336232307824566812e-01 -1.084800841130700716e-01 8.737560282208768347e-01 -1.114426191835915514e-01 9.378877818960760226e-01 -1.117993191938981973e-01 8.217307927429344794e-01 6.600851503733636827e-01 7.836486013826161612e-01 3.674616467127931885e-01 4.465190297643783501e-01 5.565414681934587326e-01 6.224298107394027335e-01 -1.301602652227748513e-01 -4.149970212749873322e-01 -1.351243687518987636e-02 2.213508390486368382e-01 4.006661414016012834e-01 7.160913000501684111e-01 -6.022098169276472041e-02 8.873848940626186121e-02 -4.793791531845967811e-03 4.353944288809738494e-02 5.069434896262541290e-01 -1.815842124465552598e-01 -4.357678735226716560e-02 -8.259073084890321270e-02 -1.997289661117832293e-01 2.998040028502827470e-01 3.091755387252322906e-01 8.010129551177788132e-01 5.615154722976991586e-01 4.584311493953962535e-01 -1.651694303609475556e-01 5.943230123332265274e-02 2.056736388485131684e-01 2.322918507067620042e-01 -1.036166140951108768e-02 5.417577818328835892e-01 8.171842174218305610e-01 6.807951236635942927e-01 3.352682691707314921e-01 -2.103204139282238358e-02 1.581464801923210539e-01 1.881898953115603013e-01 8.951495081613504434e-02 3.593831454662081443e-03 1.653361369110124546e-01 2.431312156023622550e-01 -1.212471890379490935e-01 9.694431008983669593e-03 1.073151666777348440e-01 -2.319706685222382506e-02 6.898122721438626308e-03 -2.319706685222382506e-02 6.898122721438626308e-03 2.163236638597861305e-01 8.865013058197217521e-01 5.398823578006807233e-01 2.728723920390154212e-01
3.552275982243166541e-01 -1.760001542408305307e-03 -1.246146123077742779e-01 1.478420330595233700e-01 5.002354350971003338e-01 -1.916333491747982884e-02 5.899984962771904762e-01 1.364878501659928245e-01 -2.011119963216427206e-02 8.000576543317690359e-02 -8.976030506310138379e-02 -2.190726812472235802e-02 9.549636814068814816e-01 1.507139337025206194e-01 8.948443648611168477e-01 1.559302484517939846e-01 9.544780254525403462e-01 1.302232793151291701e-01 8.773400162771989308e-01 7.609936692446120921e-01 8.883536079460574442e-01 -1.180676207031238906e-01 -8.264924308232506067e-02 5.206863688231031517e-01 5.811234602392677528e-01 4.182282046267358222e-01 -1.343196714166911554e-01 8.621868007942572187e-02 1.832471330117208669e-02 1.140220502415013187e-01 3.281608589439153900e-01 -1.214276853824631033e-02 -1.510853116145342567e-01 -1.725855981260884797e-01 3.402995480148027219e-01 1.301160436950233867e-01 3.107564897355835631e-01 3.527558626776793743e-02 -4.270214543280345665e-01 -8.579229034627834649e-02 2.300531310229425863e-01 3.601056842119567669e-01 7.371523355575753111e-01 1.983796438959610775e-01 3.570419616194154822e-01 -2.939786082864172534e-01 1.981525943598984318e-01 5.915768588395431404e-01 -1.000377220894770464e-01 2.866978749846768038e-01 5.029833598454600541e-01 8.226982519563805774e-01 -2.376291956971419983e-01 2.726255623597815259e-01 -2.111638976073617890e-01 1.481053232652958518e-01 2.320838463122580353e-01 -1.102426786805279918e-01 -2.938115969180328801e-01 2.979108610107886190e-01 1.851718556623651035e-01 9.356351456334301153e-02 1.025127231853497634e-01 6.515180440468976153e-01 2.185370979103134353e-02 -4.445522249262029435e-02 2.185370979103134353e-02 -4.445522249262029435e-02 1.251416658977396179e-01 5.390730989061672807e-01 3.265597747650191840e-01 1.632811150058896266e-01
2.498704306141559250e-01 -7.529187757006993234e-03 3.292944340960662908e-01 8.044478838895779971e-02 5.078429383724907265e-01 1.709045974343206542e-01 -5.570228847945913470e-02 4.570907963694491039e-01 -2.541146255802321230e-01 2.357623523930164056e-01 1.667778405308874834e-01 2.725304615086170390e-01 8.986886941072177448e-01 1.481889575980304963e-01 8.401584401984031336e-01 1.428677569370623568e-01 9.083353117561456802e-01 1.473711252900813673e-01 7.324596923450952257e-01 3.974809847682663766e-01 5.681446882714180635e-01 -3.460987190282491244e-01 -1.191709553545076683e-01 1.565582889244535314e-01 2.235159686759791986e-01 1.904451227771674360e-01 1.630299963860771043e-02 1.083555423114418298e-01 5.676377592521865412e-02 1.688414873288650031e-01 6.291345130903287508e-01 1.498137726558521066e-01 4.078492541695838414e-01 -1.691254113375660895e-01 5.886651537451329519e-01 7.006668586810738120e-02 1.581996521576470860e-01 1.196717293910024571e-01 -2.247236491969733241e-01 1.588006626378846708e-01 9.301098507969257634e-02 5.814745255715587646e-01 7.143592713721013121e-01 3.676610093800550261e-01 4.536532071466565230e-01 -1.944278396408470888e-01 4.051069519738556557e-01 2.650631806635485588e-01 3.860514120040978159e-01 2.629732843839192036e-01 5.217727251752363182e-01 4.935239292432546665e-01 4.949473006603155034e-01 1.566364343106050605e-01 4.073517692156248260e-01 -4.380297918127734613e-01 4.975204585469440999e-01 4.486985082706050620e-02 7.605164991067572822e-02 3.886335793038465103e-01 6.870127383730005588e-02 -1.544920910091873989e-01 4.264097585595759132e-01 -1.807433746217590176e-01 -4.356414672498343799e-01 -1.214107129590401464e-02 -4.356414672498343799e-01 -1.214107129590401464e-02 4.494676198401570399e-01 8.906882593200300402e-01 -2.910832172404931827e-03 3.606444587368805577e-01
3.865749262109656192e-01 4.089182253954032342e-02 -1.569070789095967922e-01 -6.031886412226861865e-02 4.362153967405438260e-01 3.605235607407848430e-01 4.995097456999529340e-01 2.987557155234118467e-01 -2.698380162217803857e-01 1.642165026833576624e-01 -2.660825547200790231e-01 4.790069455300425827e-01 8.894883708517673515e-01 -4.674029166543762492e-02 8.297864861259625080e-01 -2.442815703088752760e-02 9.026680020666127957e-01 -5.997880912260620395e-02 7.092770559032881561e-01 7.344021978369149606e-01 8.400940073555850374e-01 4.836680991915294769e-01 6.072722610121800146e-01 6.853477794496191100e-01 7.782472225268060040e-01 -1.507889096001750404e-02 -1.654272182819412629e-01 6.897872907340042714e-02 2.345477387211887255e-01 2.259385371188867286e-01 3.837333891808936692e-01 1.481022090722529938e-01 -3.042872848665635621e-02 -3.763205296400996547e-01 2.890754493366137767e-01 -1.306681640208255668e-01 7.488385667810347479e-02 2.190481340992607440e-02 -3.010407227419162890e-01 7.763344681621554555e-01 7.614210835375022357e-02 4.701754330623525435e-01 6.315064190513896003e-01 1.385362400254873116e-01 3.514094657629129870e-01 -1.034533526281117971e-01 2.828835238083515224e-01 5.472363427979939909e-02 -1.414887860753068043e-02 2.413079131322752313e-01 5.865146579215984035e-01 6.607754192400457915e-01 4.705643194260534790e-01 1.323120813590389355e-01 1.918191454514901473e-01 -1.787153232120306801e-01 3.009440008186994309e-01 9.606050034793921222e-02 3.025231653711585658e-02 6.366029768068943995e-02 8.517692838707381642e-02 -1.127936148066528699e-01 2.900287989790084620e-01 2.397405650335767135e-01 1.235820433856530676e-01 -1.555845433781497533e-01 1.235820433856530676e-01 -1.555845433781497533e-01 1.975086026013890550e-02 2.982064776174396803e-01 5.941821912797234928e-01 3.968292500413957424e-01
5.882621613864495030e-02 -1.086125702687862349e-01 3.188184617714779345e-01 1.857530660318497673e-01 6.170407922646098386e-01 3.817117378179865073e-01 4.259119178923717053e-01 3.770479039015528500e-01 -3.752614219351742275e-02 2.582173014277556189e-01 -2.378416124050542271e-02 2.205265641262219578e-01 9.187596891024349954e-01 -1.533886652865413813e-01 8.811909670821380658e-01 -1.433686973459090963e-01 8.940227654839486560e-01 -1.687032536098582447e-01 7.840905983072968821e-01 8.272873298922622798e-01 8.962812965953085298e-01 6.099458925640928175e-01 6.510203097229015912e-01 6.710344067218745323e-01 6.987960080648070171e-01 1.065252689765086164e-01 4.219714029921444176e-01 -2.381134947646222980e-02 6.524166675463396459e-01 5.747028592632631439e-01 7.033547305676367545e-01 2.289504064421297169e-01 -1.397655680166778880e-01 -1.834189091588641352e-01 2.741999135859916059e-01 -3.611952176213494188e-03 2.098299475857904328e-01 9.897008142185789725e-02 1.840460317640381371e-02 7.341054517663418988e-01 -7.397704806162848368e-02 7.665301374134243506e-01 7.160372785689714803e-01 4.190140713621041124e-01 4.754724716496169235e-01 4.771018532856420580e-02 3.048550285928381953e-01 1.782320694583888199e-01 3.563530485450605023e-01 -7.123067584050433998e-02 6.904440575868305841e-01 9.191939141666868318e-01 8.063407488268039547e-01 2.182978181368927240e-01 1.274632649015563501e-01 1.263454086528348341e-01 2.377762794072000307e-01 -2.161434162006900181e-02 -2.630535294289540124e-02 1.454872202645890455e-01 2.419823680772967833e-01 -2.371459694010619734e-01 1.670794058757083533e-01 -9.998945590176828990e-02 4.529339289690789694e-01 -2.954147371645813314e-01 4.529339289690789694e-01 -2.954147371645813314e-01 -6.159636234649563252e-02 9.149708296230190108e-01 -2.003198827456517117e-01 -3.157000718207175205e-01
3.160927342350383640e-01 4.709924956150055020e-02 2.316248001166002768e-01 4.258372313392074643e-02 4.909903930270203554e-01 4.146789382120468770e-01 8.871609391085671925e-02 -2.034110641625354043e-01 5.578006102221932938e-01 -6.989697263851535336e-02 3.737295376620884957e-01 2.591756139466764863e-01 9.252129451048115572e-01 2.159176646469754095e-03 8.721453406227629435e-01 2.869173112949492243e-03 9.315494146486573701e-01 -1.473714831842145960e-02 8.000432839851063793e-01 5.956809478125348889e-01 7.031663435754108571e-01 5.358348265588955828e-01 7.275135380040458344e-01 5.357470388325165089e-01 5.916400370778763795e-01 4.112184659153865496e-02 3.455416483503040426e-02 2.214528238128946405e-02 -6.746545642980263102e-02 4.199971135129191291e-01 7.026315367614751617e-01 2.337767862216528214e-01 -2.303199645234944859e-02 1.604550658907051564e-02 -4.148400755475423196e-01 2.926466878817147177e-01 4.698875867880387691e-01 -1.447314729951921508e-01 3.691894049566582514e-01 3.109563269172910260e-01 3.536761477725197667e-02 3.434059963541354343e-01 6.185373760768878570e-01 3.944209345109752074e-01 6.810805440866538607e-01 -2.111013375766241651e-01 3.508072731663023358e-01 1.811108172822260831e-01 2.389158515766690027e-01 1.307136478910530253e-01 5.724563026086724182e-01 5.852434269732690320e-01 6.260694665381772994e-01 3.152354273440151622e-01 1.681915743006649200e-01 -5.849583376095487952e-02 4.027406663254102237e-01 -1.159046239102308890e-01 3.883505827336757865e-01 1.618071730257605589e-01 5.107406492463049258e-02 3.858764329916754970e-02 5.328781916972600598e-03 -8.756280036653128762e-02 1.014460541274976174e-01 5.651638980856650563e-02 1.014460541274976174e-01 5.651638980856650563e-02 -2.746444455944362373e-01 6.261905879200230229e-01 3.378871670867628074e-01 6.281431144571697489e-02
2.124836442869444120e-01 -2.023139947999079424e-02 -3.186703143082262463e-02 3.804198508970559750e-02 4.704524275158085689e-01 5.564329124383015079e-01 4.805963916236443700e-01 3.066715192356512798e-01 -2.258496039503654074e-01 -1.254629926018601127e-01 5.960613599680100044e-02 2.904685998694250815e-01 9.109563585468755109e-01 -1.433098375976334798e-02 8.418833350228684953e-01 -1.791171693112679486e-02 9.237802913415086303e-01 -1.844701598716218943e-02 7.634691596919871426e-01 6.339823715310695107e-01 7.568296540490678792e-01 2.961598144088677387e-01 4.076387861434501714e-01 5.509504659375308311e-01 6.460813194196884934e-01 -3.331382255419954586e-01 5.826272626831229262e-01 6.710700598654317783e-02 -1.930871657536824826e-01 3.179519090064938380e-01 4.291847737087550740e-01 2.612081160538465285e-01 8.307588876676071099e-02 -5.377528462694338707e-01 3.430683519807831705e-01 -1.714496596771838688e-01 2.070917044135010543e-01 -1.801456811430744709e-01 -2.283018561355169285e-01 4.983962790420288225e-01 -6.213830655393722674e-02 2.074055905519842369e-01 6.907772115139961810e-01 3.103647220895592862e-01 3.864466134469169978e-01 -6.826685568482883382e-02 1.588096524460342884e-01 1.054479908160157325e-01 2.693803152151963420e-01 2.794653113440068726e-01 4.608325497049283181e-01 8.326045599182486656e-01 5.761675223408048163e-01 2.308991467212092585e-01 1.049827309234110384e-01 6.019640646716450938e-02 1.583319973336769215e-01 1.194722148559005520e-01 -6.486156886532587484e-02 2.087887525181369441e-01 -3.859521581113192767e-02 -1.810066092584821651e-01 2.229408166801715996e-01 1.363115699716186020e-02 1.036625092125586928e-01 -1.019719981157453728e-02 1.036625092125586928e-01 -1.019719981157453728e-02 -2.087651979507963024e-02 4.970755908410285362e-01 4.809512930662591251e-02 5.188179688808300938e-01
2.166382849825390089e-01 6.924401239013066450e-03 2.756310262495269003e-01 2.003317793540456970e-01 2.828299367644384610e-01 2.020651423584083062e-01 -8.952936210960990571e-02 3.160483848403516371e-01 -1.165226659029456741e-01 5.846780058623813892e-01 -4.422568211433917651e-01 1.280155792378382951e-01 9.663725904418275503e-01 9.710253580993380429e-02 9.021117564122456134e-01 9.156758179076765480e-02 9.737878851840233718e-01 9.453594030001985504e-02 9.074001210045826715e-01 5.502781198933350826e-01 6.674013925653696777e-01 2.407586992739444154e-01 3.498821350505285643e-01 -8.843076966177880471e-02 9.803502982407807931e-02 2.417056464612837852e-01 2.494052682629760986e-01 4.648617982998676235e-02 -1.033896445501877176e-02 5.775628621109255567e-01 2.511618804053349918e-01 1.651112890849313619e-01 8.824348328437132613e-03 2.736924851220887689e-01 2.890350193647954202e-01 4.820718028913058978e-02 1.370013289652209920e-01 6.538109993985570245e-01 1.467898262985143365e-01 -2.146812463953226002e-01 1.194659956916519911e-01 5.208183042922975847e-01 6.298877729052444474e-01 4.078858680773497225e-01 1.762230093965030595e-02 3.741582566772367335e-01 3.304866618525603150e-01 1.677669480635095578e-01 3.555266837260362967e-01 3.130177147387218084e-01 5.127486911080747500e-01 5.783996726160799406e-01 5.819322881799470215e-01 -1.700374892130917526e-01 4.984815258479131650e-01 -1.467257582547200068e-01 4.497984413618197896e-01 1.409437175579725428e-02 3.862853080828870245e-01 1.916076773019887713e-01 5.799028330453725316e-02 -2.645530885587908387e-01 -2.506691922460116406e-01 -1.430292067835643166e-01 -4.322297420123676764e-02 2.440197689183900287e-01 -4.322297420123676764e-02 2.440197689183900287e-01 1.325421156240867704e-01 8.496140935837863672e-01 4.518905952864803177e-02 3.072913801398088340e-01
4.289549902333963938e-01 -3.449355659118496370e-02 -5.510702478788190306e-02 -5.980618026548237820e-01 2.913002886857383178e-01 5.285461377919335561e-03 -1.620816615054540000e-01 -1.481374086863513073e-01 7.193686170360968912e-01 1.625181172475207991e-01 -6.675472804528598258e-02 3.560432220742831833e-02 9.241926299981993997e-01 -3.819916650038583661e-02 8.633612509641274135e-01 -3.299559550334085073e-02 9.325468803970530240e-01 -5.150191334808820048e-02 7.973699446342745745e-01 5.703522777485668938e-01 6.767876775114609611e-01 8.805146584473871885e-02 3.985450157553988015e-01 -3.104721781035504891e-01 -2.533335475682907956e-01 5.072208997465628144e-01 -2.860799300346476004e-01 2.453404018496449859e-02 2.216868175650352768e-01 -4.187199036774427729e-01 2.328628752515058686e-01 -1.608959877058346588e-01 2.791246878535781906e-01 6.800184352743431082e-02 -2.969092457407088159e-01 6.754347121153166933e-01 4.446696638478709329e-01 4.602676651551918519e-01 5.743728630524025380e-01 1.962061828798027652e-01 4.757165861986177580e-02 3.167397582146145307e-01 3.216464258048158387e-01 -5.481275347653796759e-01 -2.829143584390011318e-02 2.594650369015306102e-01 3.981296153503385282e-01 1.852068604148251751e-01 8.311274930972008257e-02 -2.706758811892555697e-02 -2.186642414518109034e-01 3.672131580820887642e-01 -7.209954858480781548e-01 2.531815672029519640e-02 3.572208457046169849e-01 2.501333767712878853e-01 4.400743296207178523e-01 7.237023577282841735e-02 1.368956378787374584e-01 1.438133583567588747e-01 3.555475831556953459e-01 2.896625761459231674e-01 -2.005380402277483765e-01 -4.383962434216222281e-02 7.365623930455578172e-02 1.059777869016435559e-01 7.365623930455578172e-02 1.059777869016435559e-01 1.913336085317490776e-03 3.073602275998666977e-01 -8.600062334248176343e-02 2.871420648036394074e-01
2.735399290777421055e-01 -6.625549326988300694e-03 7.598473055751057137e-01 5.788686479719730160e-01 6.848041950358656482e-01 2.913419684565448087e-01 6.125434014455439780e-01 -1.687309167220945594e-01 6.911227255057227348e-01 -6.397323872977264680e-02 3.537142870223558555e-01 7.654061861293846025e-01 9.740759960776508297e-01 1.775392259174818702e-02 8.997625657460111004e-01 5.307104265532815168e-02 9.927769446858131230e-01 -2.223250490047235656e-02 9.277758030457440297e-01 4.761502555676056514e-01 7.714860828049154851e-01 4.841676088098498809e-01 4.782286497517593271e-01 9.005111881885621283e-01 9.092532949635125927e-01 7.031590384941338590e-02 5.098206841584764643e-03 -6.968019714938004927e-02 8.798518185986939910e-01 9.181554763043311418e-01 9.187398091816263435e-01 3.953192484035155108e-01 -4.422197490569365064e-01 3.951178039559158917e-01 -4.462799582063713411e-01 2.676056298966208447e-01 6.137600792911421799e-01 -3.052183645079482033e-01 3.067455075031266798e-01 1.924155776009876806e-01 5.254360093937827242e-02 7.380766470667654566e-01 7.698821458393257933e-01 7.156665096262356807e-01 3.716497715554329950e-01 3.933827534682644012e-01 4.883078717769437915e-01 2.614772619995906280e-02 1.116360929647059880e-01 -2.509884629270922041e-01 8.955107057822564443e-01 9.645461702601557663e-01 9.690835970172199110e-01 -6.064775392031636347e-02 3.188867744263979009e-01 6.492698529975772515e-02 2.013935400078618876e-01 1.110428515841222624e-02 1.670297019910848071e-02 -1.696962977981289478e-01 -3.377443172257928866e-02 3.124904782091139643e-01 3.595837963240435253e-01 -3.462703129662176305e-01 3.887832685286859991e-01 -4.148519763605239552e-01 3.887832685286859991e-01 -4.148519763605239552e-01 -2.181523380376433618e-01 6.634895764215904546e-01 9.066118477752785343e-02 -6.134573369239224583e-01
2.094449578198584738e-01 1.303183898418558938e-02 3.805637315175344759e-01 5.674921366884742163e-02 5.574717253281734342e-02 1.935278339887771815e-01 -3.035417494981060629e-02 -2.602934982694790622e-01 5.828025992594770832e-01 -1.412571524186624072e-01 3.354783600140757716e-01 6.772813387538002550e-01 9.787921708550040290e-01 6.738839976065849613e-03 9.081144849482313264e-01 1.045690700963032745e-02 9.944346443966224358e-01 1.568759045193361288e-03 9.403518590935220356e-01 3.222303862893270976e-01 4.359393303923591034e-01 8.555505321463678647e-02 3.714634518310081512e-01 4.212320375400936401e-01 6.235910658249743665e-01 2.170726668279447102e-01 1.513571128066205362e-01 3.912897834383767259e-01 2.186439276290752520e-01 5.073914848971220609e-02 3.502356794577673321e-02 8.418118997668745662e-02 2.162181337204620579e-01 -8.598417460737346751e-02 -2.454535109437799290e-01 4.497243443783501826e-01 6.832002384733846245e-01 -1.853783129092447246e-01 1.901915820992138711e-02 7.080230787587183938e-01 3.115490447415850822e-02 4.756453290113811794e-01 3.786911462553168572e-01 3.929134104233814040e-01 3.836326724129859866e-01 -1.282579855581831296e-01 1.790622222705096633e-01 1.115596188851295661e-01 2.238475451385228132e-01 3.087319516568521327e-01 3.267074258637648887e-01 2.545588786291058669e-01 2.744139335634859234e-01 2.811709705606033616e-01 -3.306054165393988720e-02 1.932721916974460274e-01 2.844875737840129037e-01 2.417409039193331721e-01 4.374333540929990077e-02 2.152873051834748586e-01 1.247653486842516118e-01 -2.055877864156174240e-01 8.770220275230576623e-02 3.519953312346583152e-01 -1.170673363671998757e-01 3.310240158834740209e-01 -1.170673363671998757e-01 3.310240158834740209e-01 9.048202947596876988e-02 6.929714726071116715e-01 2.327052510191745249e-01 3.642171598735450821e-01
2.784981905274099834e-01 -1.288378482329548790e-02 8.399289624119309350e-01 6.892476355783460074e-01 8.266780742297116236e-01 7.069791448448023430e-02 -2.441126043228905029e-01 -9.799593616556313835e-02 7.507755897992217375e-02 -7.106340392217183610e-02 2.152263002556400739e-01 3.786490658650281116e-01 8.532014070941101869e-01 -3.953833137811782472e-01 7.801661853857790874e-01 -3.976374739355733046e-01 8.742436728449126671e-01 -3.957672651194107938e-01 6.195173840900267681e-01 1.336332950954485232e-01 1.265569336128711253e-01 5.285435130529727576e-01 5.284238725037578854e-01 4.205108576175027868e-01 4.170656171338647522e-01 7.417964702275489652e-02 1.513311784451774411e-03 -6.191548014869470949e-03 9.816882839779470515e-01 9.768170894876501142e-01 9.787574128323824896e-01 3.012727227031450350e-01 4.101892353171993633e-01 1.130687295605377202e-01 3.753104985106967689e-02 3.454126291471721483e-02 4.231121850855216193e-01 -4.585864828477786981e-02 3.890670990704006571e-02 2.831407619829570121e-01 7.087884403977032233e-02 8.320939629568430140e-01 8.994914716186300785e-01 7.953156438004397311e-01 3.338005221867200445e-02 1.501072866990609544e-01 1.635109968376103062e-01 8.604308758310359739e-02 -5.029735898124498839e-02 -4.284278580336044889e-02 9.820671511833298784e-01 9.887174105876389563e-01 9.920016829306637085e-01 -1.736088702812028928e-01 -2.289198443694254875e-02 8.936306384417801174e-02 1.686393013980936606e-01 1.207870870994248169e-01 1.285951582112901219e-02 -1.650484182446729231e-01 1.596717387790448361e-01 3.562030349935421669e-02 2.420089310086696310e-01 -4.969450620803054774e-01 -2.005316361836034789e-01 2.984118438857265576e-01 -2.005316361836034789e-01 2.984118438857265576e-01 4.087180441886555382e-01 1.915143369906844584e-01 -1.158171235892968276e-01 4.309058672871461937e-01
2.791744109304628574e-01 -1.870392209116032017e-02 8.440707165540263235e-01 6.814101950086329795e-01 8.278891525979960031e-01 -2.674840219599806668e-01 -2.993719594819337082e-02 -2.729937678903020526e-01 2.617113615202189547e-01 -2.786787027114783280e-02 -2.879103843704102772e-01 -7.888377003119987352e-01 -9.088895516670565666e-02 8.837934063517879357e-01 -1.590298127958960639e-01 8.697834264049910669e-01 -4.882201608426934430e-02 8.838085896895970794e-01 -8.647033793938393442e-01 4.095547459697869708e-01 4.188614928152061267e-01 3.117632539427167560e-01 2.887775327200884923e-01 4.134980835860658233e-01 4.108553622330546329e-01 7.711246819215651638e-02 5.435171144262179385e-03 1.366611368688826038e-02 9.901652222429739858e-01 9.952031861916067479e-01 9.940231141533121262e-01 -7.220325449280324409e-03 2.668023864350074215e-01 4.353160793918506855e-01 -1.824390630730749197e-01 2.086862541044732788e-01 3.270746406333805423e-01 2.070107285016396792e-01 -1.361368556844810666e-02 -6.742953424378747562e-02 8.466047923906054595e-02 8.346706013117463074e-01 9.126252060904391783e-01 8.262604033553316851e-01 1.213380755943074957e-01 5.136654958079449329e-02 1.877023752891871511e-01 1.221496807120433896e-02 -1.585484492699739678e-01 9.346809563944961929e-02 9.926383482608167608e-01 9.965118897476320514e-01 9.969905062865640488e-01 5.487954818266793655e-02 2.651584387529397069e-01 -4.984947892755295373e-02 2.493427918688620182e-01 2.025390193909945291e-01 -1.140000554735890737e-01 -4.149203133249156072e-02 2.342041784389838344e-01 -3.904033947891397821e-02 1.157626165877032182e-01 -6.125968034621179226e-02 -1.690305874351865634e-01 2.978896875973503500e-01 -1.690305874351865634e-01 2.978896875973503500e-01 4.448783949012072303e-01 -2.985744740531935393e-01 7.178171484030310134e-02 2.139792894071345930e-01
2.768691960515918815e-01 -1.651796452169211962e-02 8.490935017819608577e-01 6.935859012536857993e-01 8.436090727622879148e-01 -2.554108093500802659e-02 1.283721413397475586e-01 -3.262788007771256216e-01 4.154177703915919451e-01 -2.073387781633417581e-01 1.881059838244131810e-01 1.436020467948346813e-01 -3.359624097193917858e-01 5.411519247100556873e-01 -4.040581756194076002e-01 5.281891326178557167e-01 -2.881952350552476338e-01 5.428254332288772188e-01 -9.823211780040178587e-01 3.785081549429950565e-01 4.267179963126640496e-01 -4.438462629151344180e-02 9.695418248764831048e-02 2.124968207791036734e-01 3.413623307915982785e-01 7.348904427275926299e-02 1.077147702457889600e-02 -5.749142655165142028e-04 9.945789765780164160e-01 9.965981846511769993e-01 9.935461351806816888e-01 1.715550929595365537e-01 2.401295744691520906e-01 6.090636985987769175e-02 -1.398224596595600278e-01 4.290577388536870873e-01 5.545365237395035729e-01 4.331084465444792059e-02 2.620462694862206732e-01 8.661457981686253305e-02 8.654649988138313210e-02 8.449887630176950992e-01 9.134863467960966377e-01 8.290616506630746896e-01 -1.638904445645096020e-01 3.480792466690081910e-01 -8.579040060887395402e-02 1.433179147699581713e-01 -1.350685495923289459e-01 3.081716458239199818e-01 9.963353450593473992e-01 9.978920568598398377e-01 9.964357856371330868e-01 -5.481106786303120010e-02 3.815365416909612950e-01 3.498538675704882528e-01 5.130914863889673994e-02 1.493734524332406555e-01 4.297639332891563524e-01 -1.718085809159905844e-02 1.255734397128105695e-01 3.574871277493756327e-01 3.904653311299581542e-02 -3.150716136744174944e-01 -2.174524812990935585e-01 1.371681654804188522e-01 -2.174524812990935585e-01 1.371681654804188522e-01 3.855295884515995697e-01 -6.991340457291425059e-01 3.429961925064528572e-01 5.805944358709081987e-01
2.707151294067848823e-01 -1.312759788043107827e-02 8.080275998086442479e-01 6.864265492014145487e-01 8.436730438553886602e-01 1.447594941722800954e-01 -2.781657460025729889e-01 -6.947592485265838280e-02 5.342998944305157316e-01 -2.194955741852670783e-01 3.923629807899625122e-01 -1.615410404065260527e-02 8.100615619997616479e-01 9.331356325656912920e-02 7.367577831030294178e-01 8.473729973877609789e-02 8.314854338391095556e-01 9.500373142265777782e-02 5.159990604073492193e-01 4.853924859317347296e-01 5.379733786865390499e-01 1.203087345139037950e-01 1.396604214718545345e-01 1.952634471411138772e-01 2.302957036582287398e-01 7.198117824711738888e-02 2.176824437900396272e-02 4.051116062520609788e-03 9.561881275498091970e-01 9.642588179328976938e-01 9.797259338145890561e-01 5.861065042254655355e-02 5.741780380798032768e-01 -2.434149137983579181e-01 -7.708513198504611530e-02 6.638080251035157753e-01 3.173504971424714882e-01 -1.516378406100722361e-03 2.727068942289359588e-01 -9.930873478121848841e-02 7.902447579146183732e-02 8.294679976453863679e-01 9.052238698577943499e-01 7.747592859968195356e-01 -2.885524129382338598e-01 5.862433249910226074e-01 -4.619968595090104962e-02 -1.150521744606230329e-01 -1.272155810789020736e-01 -4.978832803846313659e-01 9.841784620822032759e-01 9.889264165820640384e-01 9.821004325418974945e-01 -2.367532436693972064e-01 5.496672115988715523e-01 3.748937225499732184e-01 -4.018970396996680156e-02 3.092316453804636600e-01 3.111786121526526339e-01 -3.435902402448693382e-01 5.067056132214647901e-01 6.272696451718580424e-02 -3.104185750900838314e-02 8.852625603826950185e-01 2.246834667693823895e-01 -1.907458590032936330e-01 2.246834667693823895e-01 -1.907458590032936330e-01 3.255710200990996617e-01 -2.663485584669596506e-01 3.211735024102996272e-01 1.951610020294908265e-01
2.811855803066115045e-01 -1.644181585109788513e-02 8.333124553796709133e-01 6.850392315024909085e-01 8.176175666219539506e-01 -1.663847009199225790e-01 6.025645443217467895e-02 1.619435336059153394e-02 1.747402671146360553e-01 1.434908969915022758e-01 -1.312143623882045806e-01 2.824507678399537647e-01 -4.831760401274775019e-01 8.822529858872198150e-02 -5.502170192377504598e-01 8.561402813182159011e-02 -4.322798275394711398e-01 8.540094997042467495e-02 -9.999305435278128540e-01 4.818436829292439549e-01 5.370851944508387987e-01 -3.348084053650323133e-01 -1.425147842568314782e-01 3.059839111903968623e-01 3.001386046655755702e-01 7.486315247292214814e-02 1.165565584943082343e-02 -9.917641204474298214e-03 9.782266425999007753e-01 9.839126149565837753e-01 9.449420543494003732e-01 -8.321677221809646585e-02 1.600125552716525623e-01 3.647505907549379867e-01 1.952959977856096874e-01 2.343688921858131102e-01 5.096722796364416830e-01 3.730589991296850982e-01 2.534046173940006086e-01 3.811833939603393451e-01 8.822766391912843786e-02 8.103751142293369458e-01 8.857455920485791667e-01 8.128480329120157943e-01 4.673866012256121527e-01 -3.355355027466261353e-01 3.013083150241012143e-01 5.058743044039510500e-02 -1.607814949617583922e-01 4.958682885592219369e-01 9.127662209965849982e-01 9.794382348262752336e-01 9.789818811188933934e-01 4.683871121433156315e-01 -1.142720258692941221e-01 2.194811554570924306e-01 2.849613353877434863e-01 6.184533659077722650e-02 1.403046171822614208e-01 -1.634990235108633450e-01 7.389095222834799262e-03 2.847991267542712701e-01 -3.028669633191397592e-01 1.533522550571663479e-01 -3.121076001829879432e-01 8.204517048035706028e-02 -3.121076001829879432e-01 8.204517048035706028e-02 2.270033823700811151e-02 1.613031631446027458e-01 -9.859847699714227587e-02 2.915736636361220824e-01
2.771261363027244240e-01 -1.701443430851564548e-02 8.505819950814346164e-01 6.923045238757530306e-01 8.394418790448909817e-01 -7.544595151023920920e-02 2.859535677225870098e-01 -9.337466258493062887e-03 3.318942220245151009e-02 -1.256342639146161913e-02 5.742364959931484103e-02 3.463453864645920643e-01 8.060566834402055347e-01 3.645524566888375118e-01 7.324522583741404080e-01 3.547697051687129788e-01 8.289443122424245969e-01 3.650500202663264915e-01 5.065618925987451782e-01 5.076747282745965872e-01 5.187798052472629706e-01 2.146890188182312975e-01 2.952497323568599730e-01 2.816019658685792182e-01 2.804262088122865260e-01 7.535066570191914503e-02 1.187320102036669434e-02 3.695048417108988338e-04 9.966196836843378426e-01 9.960072898564188426e-01 9.896184618007130007e-01 2.423231801042736722e-01 6.795707696936538478e-02 1.966708882422366078e-01 1.320940558976643198e-01 2.147209083145811687e-02 3.429826150872176127e-01 7.510479693306432170e-02 1.779715186507259683e-01 9.171941718323575743e-02 7.471050479221230667e-02 8.448653630257202396e-01 9.122221851384963998e-01 8.250591639998005045e-01 -2.146985778305815773e-01 3.340191258451762346e-01 7.186045230600210387e-02 3.358577830518555407e-01 -2.261443198505091734e-01 2.674680353572446712e-01 9.988053081847902970e-01 9.976154265871700622e-01 9.969355022355214091e-01 -6.859129776607861273e-02 4.660445192753139843e-01 2.266266251714149360e-01 2.269420744948899005e-01 -4.472292628656599628e-02 1.250249748588189436e-01 -1.233406292695071876e-01 1.282563870877119483e-01 -1.569554653029238134e-01 -6.594077653350455259e-02 2.118766192102319312e-01 -1.466112607489456765e-01 4.433862290277806872e-01 -1.466112607489456765e-01 4.433862290277806872e-01 3.279863976451435903e-01 -5.595244322543380111e-01 6.397851807013905934e-02 4.725306126119461769e-01
2.727863363931247731e-01 -3.446118054203756859e-02 3.878526179879610014e-01 8.975905320374800989e-02 4.430611953531970459e-01 2.747250594223468179e-01 6.166789296019966476e-02 4.077007834751122384e-01 -1.435136312430812244e-01 1.409413778947314067e-01 1.589297709168438835e-02 2.058805460465114312e-01 8.695815045627435236e-01 -1.075242158209322868e-01 8.030869594328948757e-01 -9.219877755484956472e-02 8.825073684965252241e-01 -1.266849986852710552e-01 6.597372472028586454e-01 6.038702461687426304e-01 6.969860390574953435e-01 4.384296603509146850e-01 5.915135968350353490e-01 6.023027682694381824e-01 6.195917337606409170e-01 -7.186995070958424048e-02 -2.427598622735554004e-02 6.249558318616652008e-02 2.392341235332225424e-01 4.223012051415211410e-01 6.145046284515587320e-01 1.434341087318700136e-01 8.947586651246895728e-02 -4.959946491157771198e-02 2.577901174911916837e-01 1.336165505642480378e-01 2.529328598768605836e-03 -1.913916453566548784e-02 -8.760916493591225374e-02 4.331708947744186688e-01 1.831449305782017756e-01 5.012914459483290841e-01 4.287777712051430434e-01 5.367720002943079383e-01 2.459265972541510303e-01 3.309762466964361605e-01 3.531286035645215815e-01 3.640561465339391817e-02 1.451544537877179353e-01 2.566099939741340874e-01 7.279563964305092449e-01 5.556137815916705192e-01 5.943486569751501580e-01 8.188753775886144226e-02 3.473548348367873073e-01 2.380636924014624678e-01 2.456689846467127736e-01 2.256142721485788205e-01 -3.627075931388614727e-01 2.117681730691547692e-01 -3.933089591939883251e-02 1.684452801205646166e-01 4.095165134840464960e-01 -2.541981442778867284e-01 2.362820827567235771e-01 -1.458469601683501649e-01 2.362820827567235771e-01 -1.458469601683501649e-01 -1.176471913350140147e-01 3.676418185414752626e-01 4.457701256881471674e-01 4.701741910415647707e-01
1.476163019991227066e-01 4.405632584741306194e-03 -7.530564117995691698e-02 -4.012070377035741875e-01 1.120582566492146354e-01 3.796189153174819308e-01 1.808890805421937975e-01 1.788746145764168183e-01 3.569566841146713104e-02 5.884495614158985477e-02 2.058181151743863901e-01 1.281872340119342146e-01 9.582705467405615574e-01 3.457061207559732757e-02 8.952380397729934325e-01 6.372379158535179666e-02 9.671998634990119914e-01 2.840589237938779925e-03 8.859683140951246649e-01 5.761250929137952115e-01 6.864891231369524283e-01 8.357455082890294373e-02 1.485763257048729191e-01 2.766576959685337345e-01 3.021534711566662978e-01 1.803432508518028887e-01 -5.559344178550920113e-01 7.546746504838873493e-02 1.997084086221027066e-01 -2.312444203177118351e-01 2.218225293678808829e-01 2.536948610423732653e-01 -4.845366915736781799e-02 -4.225006982306136333e-02 3.907598967314754312e-01 -2.914937556326158696e-01 7.384658407759293608e-01 5.539722144471985465e-02 5.419027644523474047e-02 2.342502601803749668e-02 7.092461360933344228e-02 -4.944717905318113949e-01 6.208695140093947185e-01 -8.578462038592243877e-02 2.098108618318139107e-01 1.531976548796360749e-01 3.102025962207213272e-01 3.228636743808122045e-01 -3.041492582567494746e-02 -3.526142174450945799e-01 -1.224728221478646600e-01 6.817357064448359427e-01 3.093169851476624821e-01 8.030870252726962644e-02 2.978876368224301907e-01 4.621886817031188588e-02 2.402113092763370206e-01 -6.221372457620324287e-02 -3.478093654152839692e-02 -7.544798838367755556e-02 4.950651635165249087e-01 -1.826004280051754802e-01 -4.667973636085562261e-02 -5.544828326838819876e-01 2.840983062546404425e-01 -6.875187969246013275e-02 2.840983062546404425e-01 -6.875187969246013275e-02 -1.300909974084826226e-01 2.215346284843700830e-01 7.804828027778239197e-02 3.431018713015200894e-01
2.470180015338121760e-01 -1.060349525764491506e-02 8.128515675447381961e-01 6.439572129886125262e-01 8.022504956925032849e-01 3.864745270546901534e-01 -3.009453009105643173e-01 3.442421958055155162e-01 -2.597942573606962929e-02 7.914027040015052250e-02 1.124475285934529722e-01 -1.881978413285350371e-01 -4.851988865128161188e-01 1.120849893574552558e-01 -5.370495339010723512e-01 1.113038091108260325e-01 -4.460630100005401055e-01 1.023042477942370798e-01 -9.997928930153577864e-01 8.292884918314268328e-01 8.445864111085240600e-01 -1.239050096525084049e-01 -1.347695061646478898e-01 5.078585741734482628e-01 5.078899122823105072e-01 6.597382909898642789e-02 -2.787337243683910698e-02 -3.505784266849843941e-03 9.642003854051580669e-01 9.407367703836236883e-01 9.475589860388139440e-01 3.447521643098180877e-01 6.177943762592280619e-02 2.756185359687146619e-01 5.847934053301051538e-01 -9.066517875887522560e-02 5.109355383103849624e-01 1.162109636245373112e-01 -2.039179718827113796e-01 -4.180221988312866205e-02 2.205427183885234343e-01 7.847920128724681366e-01 8.587563844915259148e-01 8.192264240049634827e-01 3.368262865186467669e-01 -1.336781679092226283e-01 4.088315285816115363e-01 7.410115079475551592e-02 3.816281966830283312e-01 8.179915870900782149e-02 9.304244977288214091e-01 9.681092497010759246e-01 9.421743387814899284e-01 3.673790632793749733e-01 1.313699339272165201e-01 1.145653831463013111e-01 6.767107949612697348e-01 -3.104597494156491888e-01 4.576351421927994378e-01 4.870048199124727417e-01 -2.143662319778117387e-01 1.560480598523855122e-01 -3.101976826389949426e-01 -4.397999311025223568e-01 -3.708742169451372667e-02 1.091061890278437196e-01 -3.708742169451372667e-02 1.091061890278437196e-01 1.507120575334261192e-01 5.256653462702687296e-01 3.968883459672641889e-01 5.791044352675229767e-01
3.255631247272046669e-01 -2.467617681943221064e-02 8.059732878549660251e-01 6.693604678844466971e-01 8.021640280423050218e-01 1.846041400927224130e-01 1.406101120257008397e-01 -7.561956918121227889e-02 2.837373957346270292e-01 -6.554630872717052970e-02 9.155469383648640047e-03 7.875861562939088234e-01 3.872626841823558763e-01 5.866131668121136178e-01 3.627977863591623220e-01 5.899145606742395298e-01 3.950524386579727376e-01 5.715266376123830927e-01 -3.173116933106270854e-01 9.882106124445200201e-01 9.933935137470379928e-01 9.618496093354516052e-01 9.754891258246292107e-01 9.703653336097057824e-01 9.746878344375832226e-01 9.579078699144004394e-02 -5.459804037261714073e-03 -1.302571152881159969e-03 9.905203385017017359e-01 9.889245769647209139e-01 9.905309999169671364e-01 9.575629301610601510e-03 1.428919574493258959e-01 -3.599275079584688397e-01 -3.707287663478369549e-02 2.824555109942479270e-01 3.035234618163271114e-01 -4.913909339332728915e-02 -4.706616890372415651e-02 -2.826687679922621280e-02 2.528151063473730309e-01 8.277458445747655214e-01 8.539782398105023598e-01 8.532638584120221248e-01 8.773485720611889915e-02 2.463394517283002128e-01 -3.935758802758341363e-02 -3.467384179054633364e-01 -4.968307347567692267e-02 -1.553948976318629029e-02 9.894371513605781931e-01 9.908356522662810084e-01 9.917601946107362787e-01 1.218822762457020398e-01 2.994994875024560299e-01 3.744633520199893706e-01 -1.858458749335721583e-01 4.022246995447616436e-01 -9.009733944823047902e-02 -4.664796280140200840e-02 1.178425462976936122e-01 5.856464115997517261e-02 1.515874423687120498e-01 -1.033370508697202400e-01 2.879297144947283839e-04 5.837715090663636586e-02 2.879297144947283839e-04 5.837715090663636586e-02 9.164146694593512665e-02 4.326693249294125687e-01 2.730327394559923793e-01 3.733962825053701584e-01
1.180562719162972646e-01 1.981179642345598860e-02 -4.550532229776629856e-02 -2.743840943041065961e-01 -9.091459127878741969e-03 3.765900882794873117e-01 2.342854952139189761e-01 1.343105300733835050e-01 2.332118379370769212e-01 1.218578747052131289e-01 -1.558654121735978670e-01 4.897057101844660282e-02 9.260053675108586013e-01 -1.149725060891798323e-01 8.681184067855020059e-01 -1.064927447923573189e-01 9.361657735328762220e-01 -1.222706145857438420e-01 8.020439398509477957e-01 6.123891146605267011e-01 7.562562356896030957e-01 -7.822518799590993943e-02 9.816800412384603380e-02 1.944610388673866375e-01 2.748285491790529167e-01 4.378054069786580516e-01 -3.923787392886033398e-01 -2.373132629619455897e-02 2.857084732844737684e-02 -3.767574665386069777e-01 4.395463267144815722e-01 2.625221717353887763e-01 -1.302221553439477653e-01 2.335845896111575851e-02 1.408415549988391302e-01 4.244913052415475452e-01 2.279551041921149823e-01 2.633721109794867621e-01 -2.372393015739935815e-02 -2.586869790271402736e-01 -4.913681102806710665e-03 4.601591147705905160e-01 4.096833763153303054e-01 3.231119502570570790e-01 9.949093539721572121e-02 3.944695357246848499e-01 3.565111172510098542e-02 4.733916081039171372e-03 6.512287435585281115e-01 5.828783570297144667e-01 2.539360179420515062e-01 4.239107527555406874e-01 4.380784672847915506e-01 -3.132328571156209329e-02 3.406092864499831729e-01 2.920104725100319820e-01 -1.575687812817810896e-02 3.840867282996394683e-01 -7.950412291858660607e-02 6.776617650806212589e-01 -3.424701774528131626e-01 2.334030770264811094e-02 6.420052483689918654e-01 -6.113665603488278345e-03 2.418627817996222840e-01 -1.922008755883671816e-01 2.418627817996222840e-01 -1.922008755883671816e-01 -3.521909210273257429e-01 2.290068755662246214e-01 2.172326219834909145e-01 4.120401955433316554e-01
1.358734938504321255e-01 -2.067537263518808011e-02 7.704163223526135917e-01 6.594915031121116877e-01 8.302758660219891063e-01 1.036337051155195171e-01 -3.637992295763958217e-01 9.509680945427527454e-02 4.468099667648664508e-02 -3.221552218739545670e-01 3.626332194076580251e-01 4.578063273813743894e-01 -7.554361425290191390e-01 6.909149151942453049e-01 -7.817115120777257120e-01 6.806550623660694299e-01 -7.468985676723783884e-01 6.886105459761646674e-01 -9.266791883706089195e-01 8.219689361725308618e-01 8.185972403380957774e-01 -5.767585966398025565e-01 -2.954614217806446619e-01 1.036695310371683887e-01 1.104627415535251872e-01 8.908200824635455206e-02 -6.598542321122257900e-03 1.064580993783235084e-02 9.620886743552924392e-01 9.204140327431514779e-01 9.880531021472650499e-01 3.352208246969908823e-01 2.252485088126893464e-01 2.753546795758356480e-01 4.160031502355549526e-01 1.603134919250200352e-01 5.809063383627971477e-01 -1.823449883325704846e-02 3.673785037576722812e-01 6.306440648466293819e-01 8.077132958312656374e-02 7.956969151571188226e-01 8.949074874764215703e-01 8.097701984640989226e-01 9.152846612660953118e-02 -2.155491603627923344e-02 -4.467883699972254041e-02 -3.131436781573830319e-01 -7.408019843204652344e-02 1.414584263489095661e-01 9.469568816027162939e-01 9.754463543458123942e-01 9.862093627965476950e-01 2.446605302627159195e-01 2.737289438762836591e-01 1.111005889853047962e-01 3.137043942759836224e-01 4.068803749208931286e-01 3.517844270177039601e-01 2.026414834803898501e-01 6.817271033176698636e-02 2.059859374074214100e-01 5.560561507084488264e-01 -2.407492347568690461e-01 -2.619324062478430113e-03 -8.809699586527831860e-02 -2.619324062478430113e-03 -8.809699586527831860e-02 2.919521104568793823e-02 1.050557494329988906e-01 6.713127872353571446e-01 3.385339092704333641e-01
