3.401433736900781324e-01 8.612097415887589105e-03 3.139697213697646982e-01 -1.489444822144500025e-01 1.036321720839253890e-01 9.481406538853058910e-03 -4.250070873505966407e-02 1.357287496618177908e-02 2.107190901745268630e-01 2.553436130919568003e-01 -3.194369168869363312e-02 -1.960289869607335644e-01 7.365195758634645040e-01 -3.970326266171493312e-01 6.841362321744405284e-01 -3.741693158361764637e-01 7.433734085244517731e-01 -4.428990799527184885e-01 3.523185757453348166e-01 6.485491063327361028e-01 7.495534682727789111e-01 6.861662726512631760e-01 7.258172798605466713e-01 7.516619032960196733e-01 7.805847320179181148e-01 1.368255724990970479e-01 3.222076864477255165e-02 1.465840366118861815e-01 4.739037258627957216e-01 3.709387981081203600e-01 4.265838445128147804e-01 4.046008054653797009e-02 1.937338887735962911e-01 1.106925456523302764e-01 -7.515058715393729827e-02 1.825812520239339098e-01 1.516601124990962501e-01 8.871208000486674461e-02 1.735425497463095879e-01 2.264951058035713782e-01 2.771277088880104711e-01 5.053671344821938360e-01 3.227393058289315109e-01 -3.303548356463240632e-01 1.292138098613928587e-01 3.539994737819752713e-01 2.241348500974571500e-01 4.259337159386421962e-02 1.401615822125270583e-01 -1.456100621820406553e-02 7.593387323341240780e-01 6.114745645419493725e-01 5.918358158069609853e-01 -8.781976559374050917e-02 3.356822011590084309e-01 1.504813287553315388e-03 2.060871018093043960e-01 -2.008101461456559753e-02 2.383375661735518403e-01 -4.038134266588295357e-02 -8.253436271530995016e-04 1.407657519509687982e-01 1.394447960815800580e-01 4.665301233655558821e-01 1.807608761529538033e-01 4.135471925558811823e-02 1.807608761529538033e-01 4.135471925558811823e-02 -1.127805937917476936e-01 -3.241997844844926591e-01 2.080435165414676324e-01 1.974458026341945338e-01
3.479235435652013320e-01 -1.566359955819369293e-02 3.184628198993664228e-01 2.871458261792706468e-01 4.427650545998313980e-01 -1.120504071518440281e-01 -6.707945938793666296e-02 1.180260653333548154e-01 1.805575438540853728e-01 2.535866628856997540e-01 4.750944481000704545e-02 4.821335206779082672e-01 9.197226723713812779e-01 -1.867081624214456392e-01 8.480071374923544569e-01 -1.866396496101200286e-01 9.371227092166711792e-01 -1.962828569413776203e-01 7.860232641812012755e-01 3.436785697807236417e-01 4.667885891319556446e-01 -1.586836390010332720e-01 -4.622063615044578327e-02 3.077909636776954283e-01 4.593016709456568258e-01 -9.318618026265530763e-02 -8.175411378947930463e-02 -3.537377474480245254e-02 3.436662890714238805e-01 4.885896950999283339e-01 4.211727812614926014e-01 -9.462843067254686491e-02 2.991574436152010796e-01 1.363429539516517464e-01 1.938398718045513391e-01 4.275504034195842795e-01 2.074300161742441140e-01 2.454915764044212911e-01 1.556502530331098921e-01 1.059219597509763744e-01 6.502609701099980322e-02 6.258923614680058645e-01 4.599224094793822326e-01 3.296908361200399651e-01 -1.483285792832972072e-01 4.819400585014925742e-01 1.455920369217567900e-01 2.853863673945739032e-01 1.001354061345115648e-01 3.461125734329472126e-01 6.702643143663421510e-01 6.542280050855066031e-01 6.575196057863291754e-01 -1.797177389942139214e-01 2.940130412533036308e-01 4.756889250762458277e-01 2.612781975696997216e-01 4.750929682054549213e-02 1.769026550529601005e-01 4.698778090862449491e-02 -8.906829278526269544e-02 1.626710916850722111e-01 4.524584423040772241e-01 2.355103629244258978e-01 -5.635314876692155278e-02 7.473037525499610922e-02 -5.635314876692155278e-02 7.473037525499610922e-02 1.724786619783744146e-01 7.245418562947566476e-01 3.066544696531455227e-01 2.804272053607024251e-01
4.133665528471962003e-01 1.426673920083380842e-02 2.236378410182922605e-01 1.223920123369508228e-02 3.095141474536835524e-01 2.540964779274237570e-02 2.387566652537196632e-01 -1.284698486698676034e-01 5.625570943456257300e-01 2.088307691166493008e-01 -4.993862791504732196e-02 2.530881039059898561e-03 8.345750531935467453e-01 -2.673063064969322111e-01 7.733398836011754485e-01 -2.647763435820369993e-01 8.439497215091590343e-01 -2.769604923135883801e-01 5.759690986105527877e-01 7.378843031253840001e-01 8.320130070769548025e-01 2.685385190987698567e-01 3.377631756734337243e-01 6.029377292491193696e-01 6.738447356243141284e-01 1.250898131107165412e-01 -4.495095646566329983e-02 -2.634478710379630217e-01 2.266594460119953358e-01 2.206347670572484376e-01 5.399529305691795900e-01 6.984644824716200462e-02 1.906723938156787770e-02 -1.772325285681478416e-02 -1.810009991285969622e-01 6.102794366858443897e-01 3.065051221702423945e-01 2.089309161988019831e-02 -1.127781219910627269e-01 -3.881884314336009334e-01 4.080539234752651734e-02 5.806079000610840923e-01 7.136081873109383356e-01 3.322749795167604381e-01 2.851581484411631201e-02 3.447652724675306368e-01 2.405568518059987559e-01 2.862585289051014503e-01 1.019582422495170365e-01 1.931253134411883288e-01 5.471070030579756605e-01 7.408562807093260760e-01 7.505465601772393081e-01 -7.616515609601626213e-02 3.477957162177666151e-01 1.751470461332051698e-01 2.852261888668524148e-01 -5.005295631146917251e-02 1.240253152748526516e-01 1.102401441471304866e-01 -1.025155129298842144e-01 1.075198555247361271e-01 3.369178111444844914e-01 -1.824244484565446245e-01 1.440970368877894092e-01 -8.337753743706814713e-02 1.440970368877894092e-01 -8.337753743706814713e-02 9.539514696708562003e-02 7.620681283971296738e-01 -7.994407027363578666e-02 3.670301445559663867e-01
3.985094693894991602e-01 -2.454736228059507461e-02 2.476595745761571432e-02 1.638743835050844033e-01 3.852633140433266434e-01 3.610961105050223274e-01 5.501537361237166524e-01 1.726639334059198450e-01 2.119853447136251512e-01 -1.375187638102709498e-01 3.120413017402571265e-01 5.528626173725287307e-01 8.371724082046874127e-01 -3.741159355549688592e-01 7.712458252776352996e-01 -3.668612993057205340e-01 8.521268715831072926e-01 -3.879307265017263306e-01 5.820350791426266435e-01 5.978410895564659766e-01 7.159676138367874199e-01 5.345552607872066098e-01 6.124345183547978966e-01 7.727294414798941968e-01 8.862813969267026026e-01 1.950367596498600586e-01 -4.641981659725255560e-02 -5.150495163504423823e-01 -9.351628147321855086e-03 5.840262507472404607e-01 5.598517521326097368e-01 3.531859477083597043e-01 -4.031121371274745679e-01 1.601787306522741705e-01 -4.684009757526475838e-03 4.824227977167540593e-01 -2.754394724880651971e-02 -1.695857808616413331e-01 2.269164324274892397e-01 1.790888125107318873e-01 3.186444819741481027e-02 4.186551243500646335e-01 5.758870258907354822e-01 4.034566336605225900e-01 3.248892202367385518e-01 -2.010824240800421561e-02 3.329767159676524924e-01 4.466992724812884896e-01 4.059370737527618345e-01 6.256976972733584164e-02 5.767426388541431193e-01 6.827510127909923732e-01 7.526163263529123126e-01 1.338657660995968002e-01 -6.877102312409530058e-03 4.571353405199387460e-02 4.220625075230463596e-01 -2.188202710374007876e-01 2.851342921667842645e-01 1.507031881809883511e-01 2.473891404649119219e-01 -3.577992455212014034e-01 1.105337015916078441e-01 2.401896907139222936e-01 2.569615615166283007e-01 -7.223077557089899181e-02 2.569615615166283007e-01 -7.223077557089899181e-02 1.239906096006752334e-01 6.410257112586890127e-01 6.806254411863583709e-01 3.301942540860830499e-02
5.471519682328979811e-02 -3.088700335819351966e-02 -6.762409962686907750e-02 3.010420714431296663e-01 3.175370749398275239e-01 -2.537070297233950389e-01 3.088632052169027475e-01 2.357840013635465193e-01 3.458057872294155455e-02 1.409997303451778622e-02 4.318071669715602134e-02 5.791429108430168338e-01 9.126465458451662460e-01 -3.042524409748699754e-01 8.890980968928419159e-01 -2.119874823565595090e-01 8.940357442383329856e-01 -3.416980187240914457e-01 7.690318030870411103e-01 7.744755536055176748e-01 8.836179570093110058e-01 5.834878258108724403e-01 6.423227342521388161e-01 8.173570703242042379e-01 8.997283359002337111e-01 1.246372084935365582e-01 -1.907383185911266585e-02 2.851060703109454808e-01 2.972076179700462450e-01 5.768375460076493599e-01 7.267738426128195206e-01 -2.768796287791582822e-01 1.233310670216697727e-02 1.752525256678059140e-01 1.944838958935940221e-01 1.497320798653078155e-01 1.663456351318236548e-01 -2.237462962842473313e-01 -2.120103132613681274e-01 3.932379084157375249e-01 -4.466912698294964179e-02 7.191413633458720867e-01 6.896635350069959536e-01 3.805548099584786792e-01 5.530180695922128908e-01 -3.368611181146121125e-01 1.909451078103188426e-01 3.243083465115833425e-02 3.089069893599343808e-01 3.434496749159379192e-01 6.260364371687260343e-01 7.631848407898117470e-01 6.832370141160912791e-01 3.696368351055246970e-01 -7.256549613226351281e-02 2.815304221445813319e-03 6.831818786749710437e-02 3.170718584463577683e-01 -2.246278750580126826e-01 2.402745964541017076e-01 -9.412153636816845970e-02 -1.294716013155041145e-01 4.358778856187247447e-02 3.634427396011014055e-01 1.046508419399469897e-01 5.441912130483216384e-03 1.046508419399469897e-01 5.441912130483216384e-03 -8.477366747482045772e-02 8.073825540481162077e-01 5.061539983192422237e-02 1.096553732957650240e-01
2.820923689036634041e-01 -1.560962936115683868e-02 8.522128417888249485e-01 6.902292200818471724e-01 8.369684822770498966e-01 -4.752789273658489938e-02 5.215311540235024329e-02 -1.201087898338441123e-01 2.565285600810894850e-01 -1.705068800411984331e-01 8.973878902306610394e-02 -4.719565352412493503e-02 9.484239560644924794e-01 -1.886909105075650767e-02 8.756547139593046092e-01 -2.287600553343857590e-02 9.674891233805400503e-01 -2.220796364361682720e-02 8.601297340910967204e-01 4.928377506513342277e-01 5.035246392352800138e-01 3.999369773222716251e-01 3.834702290959651205e-01 2.598579781806698019e-01 2.541427414434567211e-01 7.403082943298336382e-02 9.008397124345538659e-03 -1.186963391540909497e-02 9.967932035846178707e-01 9.962416511375121742e-01 9.929781817793804644e-01 2.436028095746384514e-01 1.504977162971753435e-01 2.405474384577732105e-01 2.992006886956390457e-02 2.868461607639945510e-01 4.056403198052784820e-01 6.659656657418881742e-02 -1.585383928704423018e-02 1.872622353073431778e-02 9.054505865034288836e-02 8.432611558279757835e-01 9.140409614410179850e-01 8.206807636407027484e-01 -8.894164061798143228e-02 3.276252560447556195e-01 -9.070846827742095816e-03 -7.640816910711294152e-02 -3.400897140483508663e-01 -1.502573503929017784e-01 9.938480894024929180e-01 9.963682125176486215e-01 9.964865909957683066e-01 -8.189372933269112309e-02 4.092025215377061431e-01 8.887626266681421250e-02 7.356661819046439454e-02 3.727660357198674390e-01 -1.164012419440912938e-01 -3.446768580832258455e-01 4.093128566564526727e-01 -8.353916398506802676e-02 -2.608563144362626152e-01 9.760604215471693768e-02 -1.146645430452166992e-01 2.445104934999567381e-01 -1.146645430452166992e-01 2.445104934999567381e-01 2.820663634544150478e-01 -4.437357925696150396e-01 -1.848829021678295367e-02 8.466295314664576965e-01
2.284157352443125510e-01 2.894090711665482391e-03 4.319999035215856681e-02 2.922376749640416202e-02 4.941233424351126335e-01 2.479499481943092387e-01 -7.498524094588066014e-03 2.408454775496795264e-01 1.273527377155494744e-01 -9.209835034390007058e-02 2.199249675179699992e-01 2.872492488316850112e-01 9.575637108434590372e-01 5.610819075725416438e-02 8.948354320237017490e-01 5.808765555075545012e-02 9.707573854612868702e-01 4.754762543433239258e-02 8.841155775318302323e-01 3.380210468915363364e-01 4.837908460849840719e-01 3.325550838134932463e-01 5.069750394531160609e-01 -8.866595386258732669e-02 -2.799731469303935391e-02 1.892463736839491706e-01 1.019045181248858789e-01 -4.073184227964651849e-02 -2.221126169621480684e-01 2.126247314675617228e-01 4.483564360133171500e-01 2.547538000171039596e-01 1.469308163755981278e-01 1.182820361003492082e-01 1.610976174646236159e-01 2.783199779240579375e-01 1.542021952787770989e-01 1.827212315130078701e-01 5.146589863964469158e-01 2.240835557721781723e-01 5.366883041086376038e-02 4.084975564600645259e-01 4.577289466019418551e-01 2.645217059205010601e-01 9.165188857183431681e-02 8.678968907095806207e-02 2.298297129473330369e-01 1.508310227794441294e-01 6.722229764734506674e-02 -4.314031187562358122e-02 1.097891828133994718e-01 4.695585692513276066e-01 2.758101345223689660e-01 1.369105964256239483e-01 8.413946920676920738e-02 4.017950491374647770e-01 2.884579109571413502e-01 1.885958199223712606e-01 1.787046141432091784e-01 2.010121278272356260e-01 2.739500230968555661e-01 3.097435909541646493e-01 -3.084355722571460734e-01 2.511886488906143189e-01 -2.324643613958594576e-02 -1.298028971355940642e-01 -2.324643613958594576e-02 -1.298028971355940642e-01 -1.588470347556944773e-01 5.774520599079588923e-01 9.070781241544009776e-02 4.722899132836570479e-01
2.757165951590468955e-01 -1.980420842646202217e-02 8.438237122476596186e-01 6.384370340308761493e-01 8.059071018322832014e-01 -2.265536442169845122e-02 -1.848016468987141378e-02 -1.546844558391179819e-02 1.505675807959268864e-01 -1.550498586701446468e-01 1.034685271190557837e-01 6.424853525985348979e-01 9.445658661019463720e-01 -7.845553453694117940e-02 8.735743748277492449e-01 -7.532269677718980705e-02 9.626192547107754738e-01 -8.675405438212155373e-02 8.500615190297156065e-01 1.815293912953637734e-01 1.778349732865082133e-01 5.636476578961518991e-01 6.573540189558171321e-01 6.423855354692237229e-01 6.415971556148413191e-01 8.297513728503168318e-02 6.539025729485469819e-03 6.852644621057801724e-04 9.872358570878694284e-01 9.618073779037868976e-01 9.757862152165547309e-01 3.328324258778586064e-01 2.723017107328787878e-01 2.382774380965669569e-01 -1.404195639851667232e-01 2.564351075630235677e-01 -3.688367494363443966e-02 -1.242433642593169935e-01 -6.165697521558351907e-02 2.228007706332404969e-01 8.715841171474850158e-02 7.703965052975757510e-01 8.829747541111110376e-01 8.033351532892386571e-01 3.199495556552282571e-01 -1.796108330837498102e-01 1.531193513205757716e-02 2.266186350383514181e-01 -1.048021986178243742e-01 1.680106756909884591e-01 9.179525538286210651e-01 9.892325954376726127e-01 9.756380948423207800e-01 1.700251366509638040e-01 -2.467297358038615662e-01 2.158978972632146776e-01 1.753517809282541598e-02 9.369397012405435154e-02 -2.335385077558633782e-01 -1.568478448277868531e-01 1.783970265728782312e-01 -2.359429090145014410e-02 1.270653609455769939e-01 -4.480997474480227227e-01 -8.489849251321464341e-02 3.571372608924630598e-01 -8.489849251321464341e-02 3.571372608924630598e-01 3.432117855826516961e-01 3.316446101702656968e-01 -2.617549657496968246e-02 4.237953294699705054e-01
2.908008545394732414e-01 -2.058946912329931780e-02 2.707135658343436946e-01 2.200651928303776483e-01 4.786148877263364798e-01 2.408777746483596882e-01 2.957277234125777476e-01 1.780120856684200836e-01 -5.186757136163600013e-02 -2.327780388451284599e-01 2.349708395171009601e-01 2.337871228555710428e-03 9.343891857659095690e-01 5.697548116027664755e-02 8.779631847901216979e-01 8.634528620823006539e-02 9.361876903457719834e-01 3.777478679289757169e-02 8.237625575751035267e-01 7.090702367281395135e-01 7.822129731562882382e-01 6.841092877651147042e-01 7.360949253452466756e-01 8.590326253725972805e-01 8.873583258134394303e-01 1.495896277994771539e-01 4.523749792334932907e-02 3.554266468342594937e-02 -9.741081308075841272e-02 4.838033216905294198e-01 6.308839944030476543e-01 2.101193995146363735e-01 -2.298742251927036739e-01 1.760680640957691112e-01 1.458656580632911037e-01 -9.964404362312610786e-02 2.228781700725600834e-01 -4.255456186314603428e-01 1.797173180701193695e-01 3.722564734502159522e-02 7.961502597479276633e-02 3.343413742945254841e-01 4.359896215817016252e-01 1.756010966331032763e-01 4.309190750042443119e-01 1.784099149016887820e-02 1.977844283988212382e-01 3.497395691618240821e-01 3.047492530702831104e-01 4.233497277197816322e-01 5.696473637588667094e-01 8.348258697076627044e-01 7.432764004280599801e-01 7.743887476656197144e-02 1.185003954868167758e-01 -2.413268816678997009e-02 3.700219794628293452e-02 4.028133159814143577e-02 -3.684005699340034967e-01 3.621090503029879004e-01 -5.073235265870138511e-01 4.058071294874937007e-01 2.108329954203346304e-02 -1.717059208117446834e-01 2.534820404336139976e-01 -2.166410652177850893e-01 2.534820404336139976e-01 -2.166410652177850893e-01 -1.946291646840450640e-01 7.605581137989063378e-02 -1.638024923928280974e-01 -1.999455318289149533e-02
2.650054432416917849e-01 -1.710631597077641800e-02 8.162224995268638761e-01 6.816256153590920519e-01 8.331504219193316407e-01 -1.610948562665266148e-01 -3.385168619950738866e-02 -1.967407978054895312e-01 2.437826764846164895e-01 -2.883481656715737307e-01 3.243415257577272892e-01 -6.861023321827681709e-01 -3.737598759889907418e-01 8.990416235940591472e-01 -4.298360429430797547e-01 8.860809833522078627e-01 -3.337465333729310868e-01 8.970050910894167284e-01 -9.473377112877927608e-01 6.780837799511888475e-01 6.735002631922897276e-01 1.281725985732750650e-01 9.646277622511556515e-02 2.303397241860279110e-01 2.209254277352659390e-01 7.561229692478656228e-02 8.340469558843365341e-03 2.378275704173259640e-03 9.862230861143193028e-01 9.943456722708214901e-01 9.880659753706670934e-01 -4.979140385344102415e-02 2.273104061014281640e-01 -8.287460760955006611e-02 -5.140666318454639727e-02 3.479293067860055322e-01 2.860156273969758356e-01 9.167065720997165379e-02 2.724732088410081743e-01 1.512805356316734295e-01 8.581771829784359817e-02 8.338017817948606414e-01 8.951460856535555788e-01 8.286605859502298443e-01 -5.749699120380693390e-02 1.456002542587594706e-01 8.014414202773550988e-02 1.593926588798942334e-01 -3.006938917000271938e-01 1.958125823095118734e-01 9.885264094282325553e-01 9.846436060780023869e-01 9.949456186296624649e-01 1.251224355366394314e-01 4.036705917019917100e-01 1.766010196042092084e-01 2.463186885933228154e-01 1.392495169598002014e-01 -1.174164811665932562e-01 -1.927991167833701183e-02 3.458238633135470863e-01 3.270877398357889820e-01 9.012749572735483106e-02 2.281726208903739773e-03 1.827141332420865322e-02 1.486058686698985554e-01 1.827141332420865322e-02 1.486058686698985554e-01 2.266625517117157040e-01 1.344078092367326505e-01 1.860186316688872965e-01 2.276493263188788529e-01
2.747452898597239623e-01 -1.426927555468466072e-02 8.443745058377229995e-01 6.821975721034037043e-01 8.452774472659090321e-01 -1.108852678702714478e-01 1.629689533753190048e-02 -2.462333021933037214e-01 3.006288068423835780e-01 -1.921003488841799833e-01 3.780991468599300132e-01 1.545134765968112500e-01 9.331131237680915236e-01 2.457362171331733680e-01 8.590628559023705257e-01 2.406780520295425385e-01 9.524360529410011988e-01 2.409666902864033011e-01 8.203948375448493202e-01 3.565245742760582148e-01 3.720485370590849161e-01 4.663434927102049210e-01 5.862970001127092434e-01 6.159800848967903475e-01 6.200697502003728045e-01 7.662715706970021912e-02 1.269365930467611196e-02 -9.779442055650988327e-03 9.884740921186581097e-01 9.755871392871832137e-01 9.907818334434091989e-01 2.797185089414078174e-01 2.685467129062991121e-01 2.821333330936971473e-01 -1.426896827760371633e-01 3.722687526810302128e-01 2.241985954378413748e-01 -1.794781976622031594e-01 2.682140682839859736e-01 1.063583341023486423e-02 9.580341377297967032e-02 8.362084328837926517e-01 9.078530368489082791e-01 8.073901947655726108e-01 -1.407677505150817590e-02 2.037746458819059137e-01 2.356918795537112643e-01 3.933022185480210542e-01 -7.362992799605734334e-04 2.825730778552371647e-01 9.904883689107591982e-01 9.885604651507498009e-01 9.889707577173054709e-01 2.188580495845809590e-02 4.171376676753922319e-01 4.640010344219523512e-03 4.220103717653005404e-01 -1.979364622490209225e-01 2.510417447677815717e-01 -2.604682850394396051e-02 8.245078462230227834e-02 -9.796418514884885909e-02 4.812248535501528410e-03 3.209130336072003875e-02 -7.869855700060510162e-02 -3.900871712928876550e-02 -7.869855700060510162e-02 -3.900871712928876550e-02 3.528014238186552021e-01 -1.589935366168369890e-01 2.330913247853396431e-01 3.722144564602525296e-01
2.821947938796710020e-01 -1.979117511141759156e-02 8.492897913468684390e-01 6.835306823227522699e-01 8.366805590390137271e-01 -7.217341793823026097e-02 3.143149270129385053e-01 -2.230084916382293891e-01 1.251845552793984795e-01 -3.508160820469011232e-01 3.942031609474929699e-01 -5.440708989668765483e-01 -4.971477398007560500e-01 -8.242055916117884129e-01 -5.591915035443048021e-01 -8.200397466106003064e-01 -4.623209942908588777e-01 -8.291585953749105453e-01 -7.861085635597667709e-01 8.624993958394918669e-01 8.601411192830141772e-01 7.053626067501471697e-01 6.936326979329566766e-01 4.274708372088836250e-01 4.225110685968299640e-01 6.777711292890349626e-02 -5.951558998978383544e-03 -1.985518599724416314e-03 9.954474521906269135e-01 9.931250985214324922e-01 9.941296685221637786e-01 1.497465161407470768e-01 -1.331286319573837529e-01 7.429838087478178588e-02 2.944779427716829809e-02 1.674083096032938922e-01 3.505206712784829093e-01 -2.892496248972633577e-01 4.215264334496953147e-01 7.464622637271575538e-03 1.239273205455291710e-01 8.376894830488395005e-01 9.097429471782353394e-01 8.399470220198234083e-01 -5.639806274356571995e-03 1.608720141337415532e-01 -1.813238759849596093e-01 1.031021928301459334e-02 -3.691177767366274343e-01 3.963075354825359303e-02 9.871483579580662138e-01 9.976697764563855486e-01 9.968324045774958897e-01 -5.529132402668025109e-02 -1.307875785810969430e-02 3.491736911923503661e-01 -9.825472699163113888e-02 2.473914092719539104e-01 6.219233570615610024e-02 -2.171462632659867664e-01 1.536610425987718631e-01 3.970032265211681510e-01 -2.997635374590125190e-01 2.735234843772202940e-01 -1.616868156533892986e-01 3.129500949902599416e-01 -1.616868156533892986e-01 3.129500949902599416e-01 4.258741996508211836e-01 -2.706728167545532915e-01 1.263365113244988847e-01 1.773840901735036779e-01
2.792961356063181633e-01 -1.759904471626221392e-02 8.408794035297523228e-01 6.885062727844668551e-01 8.355384892266898289e-01 -1.474947540534584933e-01 3.283603389214374002e-01 -1.502116506142921748e-01 3.493129719775097675e-01 -3.635956277893571953e-02 7.725497288953358209e-03 -2.137264264793521384e-01 -3.347969634669679673e-01 5.517626175120200482e-01 -4.024465922661280004e-01 5.407467396719807251e-01 -2.875256246145564965e-01 5.476581873926437138e-01 -8.170234745092503914e-01 5.040756363256745365e-01 5.623211297457233471e-01 -2.275191004629525671e-01 -1.659923401489901695e-01 2.644701183502486952e-01 3.229742778151902804e-01 7.476336743242262273e-02 7.307501295340602769e-03 5.910157606695051920e-03 9.860515308338114737e-01 9.825328874488076236e-01 9.828539271153968748e-01 1.188769692860973254e-01 4.842198417700263602e-02 2.660340773568388162e-01 3.991784116767602142e-02 4.030624818115677299e-01 5.299187698398816204e-01 1.332983326924250533e-01 3.381492889730853268e-01 -1.299688245960833044e-01 8.549838589720731852e-02 8.355435031445901384e-01 9.012424856946074092e-01 8.249088372950094117e-01 7.181856381303168557e-02 1.539043758445786392e-01 3.000147840386434631e-02 4.696542029556129844e-02 -2.155475676777559579e-01 2.270522726055335117e-01 9.820080329585852974e-01 9.867983192916113255e-01 9.929306909286487182e-01 1.765894877208657593e-02 1.482743273996481870e-01 2.782339595107047314e-01 1.820297496708356833e-01 1.495635727444595275e-01 2.772821680456564186e-01 -1.163612923823263978e-01 2.404220294956418424e-01 4.472493055592872968e-02 -5.719821096027376539e-01 -7.821817888535961827e-02 -1.797597156401448681e-01 2.749423392068843230e-01 -1.797597156401448681e-01 2.749423392068843230e-01 2.720091390011224464e-01 -1.717534020027646491e-01 1.978893647185028803e-01 2.936971719808840198e-01
2.724159509826202252e-01 -1.735758382965767871e-02 8.086034023517923996e-01 6.771561032991318951e-01 8.031383844932397098e-01 -1.367675539984379851e-01 -2.739398226719529372e-01 -1.162328123878366287e-01 2.689876228412409476e-01 3.759612808807932111e-02 1.452846632089916379e-01 5.486672744979755739e-02 -3.837032227492956360e-01 4.104403804014256640e-01 -4.455343719192154661e-01 4.029867547600834432e-01 -3.417610598502808239e-01 4.060180803728181131e-01 -8.260064565454262597e-01 5.568791644698755094e-01 5.551321710207098858e-01 -2.810658448651401908e-01 1.578776816937262073e-02 -4.712677610651400117e-01 -4.137718355144468507e-01 5.952978109532358619e-02 1.080876964151750337e-02 -8.798494036995815068e-04 9.835937660138280858e-01 9.636954327789176711e-01 9.507153122704913306e-01 1.200670881136760154e-01 5.200887563486814580e-01 -1.095448806928490948e-01 6.566178625633317667e-02 4.738335214988210753e-01 2.740794946124992526e-01 3.405192857076104751e-01 3.598412688492194089e-01 6.823218400273108053e-02 4.611910220792284076e-02 8.113027190961349389e-01 9.056733914100828509e-01 8.049388137195505610e-01 -9.038145737752402431e-02 2.320281941162720407e-01 3.512943788458534194e-02 7.352002703271133532e-02 -1.675687655612379534e-01 -2.522045700318917283e-01 9.580639941088971989e-01 9.809076626181005842e-01 9.889901277984766148e-01 1.656096645769360165e-01 5.170796915271020922e-01 3.514074636892269843e-01 4.032498502411419605e-01 5.374253450174324570e-02 5.200452657170415716e-01 1.487022859637267963e-02 4.811818276480117063e-01 -1.034276366364552391e-01 -8.906265344583691457e-02 -1.179991151775379443e-01 -2.022106360728938013e-01 6.325194420994226241e-02 -2.022106360728938013e-01 6.325194420994226241e-02 3.648480203427967861e-01 8.935699182662731888e-02 4.310387102169931928e-01 2.832819823933929171e-01
2.336837271487827161e-01 -1.307923040178512152e-02 3.876557578192227904e-01 1.966859416897729917e-01 2.745085822993444946e-01 2.044503862696996632e-01 -6.255966257490952476e-02 1.653466791598688646e-01 2.266709824772361326e-01 1.244125535017630291e-01 1.312526476232593053e-01 5.843069416705993779e-01 9.068120740884492159e-01 -2.377575835557451389e-01 8.401860757749012310e-01 -2.378509363891297135e-01 9.203941954219542199e-01 -2.443480753160107433e-01 7.532080321917273835e-01 5.643601144737144804e-01 6.768452859104826524e-01 2.283358419038713227e-01 3.504116602718608808e-01 2.536442638874813471e-01 3.951109365927113481e-01 2.779821171217916054e-01 -1.624691300117835774e-02 3.617891316295789722e-02 4.989535019278262817e-01 5.164700835795849043e-01 3.402004157748200752e-01 1.741883792958602850e-01 7.059900132125700167e-02 2.006134509162777746e-01 8.799108149907966525e-02 4.173840657880831806e-01 1.477131120902526740e-01 9.047707626165368833e-02 6.946421926349891085e-02 4.925633238131326141e-01 1.851541983177501516e-01 5.545258593350421705e-01 7.554031778811437503e-01 4.232029418944400767e-01 2.190081410219815450e-01 5.616946455875940908e-02 1.197162861217299923e-01 1.556874167425105482e-01 3.921355555616671817e-01 2.068553857001270424e-01 7.527808954776163963e-01 7.799349459473969848e-01 7.649445185407013348e-01 8.507235331713854098e-02 -2.372618022720524716e-02 2.616299615752115115e-01 2.938571127106257563e-01 4.244974019495056927e-02 3.984655962021956266e-01 2.131331953867932061e-01 1.615400513514326716e-02 -9.551442477801785902e-02 2.780786836457044275e-01 5.028921096139657987e-01 1.602837897148766400e-01 -1.081773623585882138e-01 1.602837897148766400e-01 -1.081773623585882138e-01 -1.318372753890302007e-01 8.552272561247701299e-01 7.385842131931394383e-02 2.372360656927725298e-01
3.346851084889194139e-01 -2.288352048033938380e-03 1.734410215471628991e-01 2.464548199153263619e-01 5.842470356467063253e-01 3.606183758260232408e-01 3.599636966651321712e-01 2.851334267872124850e-01 -1.842862751643536412e-01 1.257081788229472696e-01 -2.653532002437156700e-01 -1.221382702658166813e-01 9.454138775803934136e-01 9.137866187715225352e-02 8.785238468843544757e-01 9.828099602021479753e-02 9.547837648867653071e-01 7.117906597025032422e-02 8.522996051218773017e-01 6.908552121599609297e-01 7.760588448636474013e-01 4.757908546210040113e-01 6.547333453625236999e-01 7.537764338825445609e-01 7.814568106570733974e-01 -2.497124953202508602e-01 -1.029474487901948371e-01 -1.705746439285407146e-01 3.884803248574559276e-01 5.656348607134176198e-01 7.740026868768459245e-01 3.182671383446997182e-01 -2.179291760243635134e-01 3.292965506227146788e-02 2.693681380939343395e-01 -1.432888385660544273e-01 1.772147956111480571e-01 -4.768829902486115824e-02 -5.287642210028318246e-01 -2.817436912650166936e-01 1.393203621140844117e-01 5.906707458881990114e-01 7.057558115043530700e-01 4.241500895641958646e-01 3.943618014425962492e-01 2.694548750882174576e-02 2.833485370012656657e-01 6.549600699782968105e-01 3.985944665658274766e-01 6.714888155836002959e-01 6.646398224767194884e-01 8.974620327780852280e-01 7.364704878885842687e-01 1.961510665985826962e-01 1.121254830824517934e-01 7.163969610170849156e-02 2.337209978514391273e-01 -2.019475004171151222e-01 -3.214171422495924468e-01 3.636714639968087193e-01 -2.955512481628708166e-01 -8.915869125033673570e-02 -2.363814372512966500e-01 1.703501280778972060e-01 1.655526635620215292e-01 1.851546473650425920e-02 1.655526635620215292e-01 1.851546473650425920e-02 -2.416057654955557910e-01 6.703439698376006950e-01 -1.343975183459947265e-01 2.338229190106646538e-01
3.806543894901026626e-01 -4.453728993448848039e-02 2.830276664913112250e-01 2.759951662990957066e-01 5.599897160392565132e-01 2.453210045440526732e-01 4.281101020836095006e-01 1.661446371343041906e-01 1.248839444351977496e-01 -1.631742475255398561e-01 4.572234961952062471e-01 2.192412452609033280e-01 9.558896460653230065e-01 -6.444851589478034493e-02 8.904576550945791924e-01 -6.423825608988885383e-02 9.648546579098237208e-01 -7.479003915757467813e-02 8.797291024314586316e-01 6.447803371675087103e-01 7.761736244518495642e-01 1.414064050345269774e-01 3.607557678487323671e-01 6.540016818324759784e-01 7.025375011925929503e-01 9.985166748949925175e-02 8.009134414749885522e-02 1.361001446750594590e-01 3.692818655620099810e-01 5.765489553254172783e-01 7.744838728012310991e-01 2.894621687616844574e-01 -3.384761934472027556e-01 2.180637214538506674e-01 1.497344904481752170e-01 2.190223360889236304e-01 2.334026029131608115e-01 -2.828484296949081434e-01 1.097239686089103612e-02 -3.616444227316292781e-02 -9.900094698000066508e-04 7.855251843854830218e-01 7.352321601517369798e-01 3.310632618050101117e-01 5.604111390530343018e-01 -4.137756588127083912e-01 2.503067283534900489e-01 2.827979472656197424e-01 5.064617773323606270e-02 -1.171996585771748062e-01 6.631537073981972341e-01 8.609797057446729740e-01 3.668062920843288555e-01 4.577147451876979467e-01 -2.148452788142462266e-01 1.507111480809033288e-01 2.296199950131843637e-01 -1.451947993134390484e-02 -8.222895808042939014e-03 3.062379917783561445e-02 2.990591069034599925e-01 2.245241264931629177e-01 -9.928903037827052636e-02 -4.771449588096358246e-02 2.502372729846543131e-01 -3.546777380099097043e-01 2.502372729846543131e-01 -3.546777380099097043e-01 -1.043798527052058750e-01 8.190656005146670360e-01 -1.039017145268577857e-01 4.000000725815517355e-01
2.652112644461542823e-01 -1.808223039943300872e-02 8.213974633285910931e-01 6.822244889885900054e-01 8.276729563785372168e-01 -1.170621982707872183e-02 -1.893646624104370069e-01 -2.544505747034669363e-01 1.891217507056608405e-01 1.318328737352111174e-02 -2.077598441454809319e-01 -6.958934311582615218e-01 -3.435844672227751917e-01 8.416503709357745500e-01 -4.018103213993889367e-01 8.298119494044631228e-01 -3.054046992046858811e-01 8.382526648669101910e-01 -9.054092729499915171e-01 7.148215943264110139e-01 7.119081240074143224e-01 5.055725524896678147e-01 4.919074095364293076e-01 3.034940587176794824e-01 2.983316899775740327e-01 7.870974979372638569e-02 1.063341924057082435e-04 -2.652606850604091130e-03 9.825953461789691534e-01 9.924345045115854358e-01 9.884387815060994287e-01 4.793813148972141114e-02 3.168818982563680331e-01 -6.033124380279742544e-02 -1.719831775421939990e-01 8.660512357760823121e-02 2.941653142539822352e-01 2.067574400160640258e-01 6.688739486217433472e-02 -2.886525848123901172e-02 5.607019069244614795e-02 8.380803973339210344e-01 9.017440585066142100e-01 8.128353665915457604e-01 1.660058656448668846e-01 2.839013986926229929e-02 6.333340247741292561e-02 1.437758673940109644e-01 -1.941290494893788132e-01 -2.061484669353950694e-01 9.876378075684033586e-01 9.914216779773581401e-01 9.905992772368533705e-01 -7.924207940690089144e-03 9.030801813821713597e-02 -1.114786948943928407e-01 7.640318470545887086e-02 1.241416312161116170e-01 -1.628191287620089911e-01 -6.790013263538756394e-02 3.148932854738368814e-01 2.089442507232616986e-01 -5.188757661549994182e-01 2.782711828136382182e-01 1.360850139541433523e-01 2.853853566560992858e-02 1.360850139541433523e-01 2.853853566560992858e-02 2.590922085671728547e-01 -4.689386687089220490e-02 2.946328556645235776e-03 2.572903011120773395e-02
2.769465020829730562e-01 -1.858597285381095518e-02 8.272436967555405474e-01 6.733855506151433801e-01 8.205238112376951332e-01 2.149093083970714246e-02 -9.190976846012971491e-02 2.091114679921702024e-01 -4.822134490485056879e-02 5.941736741353184637e-02 7.257646954984646459e-02 -2.642839312457033740e-01 -4.324916589598432060e-01 -2.329504020710125578e-02 -4.990149313554457788e-01 -2.965668022779880883e-02 -3.833948441914226124e-01 -2.648522738275642732e-02 -9.299375193227545910e-01 4.515449114767998706e-01 4.670343648160881211e-01 -4.434645638260121259e-01 -1.849563862634640565e-01 1.117975383580249032e-01 1.213936514461085303e-01 7.979845873258503697e-02 1.208007171727751468e-02 -5.249312114241758316e-03 9.710114133222189636e-01 9.533856719831794724e-01 9.641217621142127436e-01 1.793908103936475706e-01 2.884219609742306734e-01 1.103408599738306545e-01 4.674994231761118169e-01 1.503498586197177800e-01 3.640901154687526398e-01 2.414252298423308629e-01 2.498935425968102364e-01 -2.137154376642078357e-01 9.061465211662075858e-02 8.409347683524920347e-01 9.005884005084949795e-01 8.026827329067864891e-01 3.802328760540004127e-01 -2.055297653748683062e-01 2.580758967444865548e-01 1.334440440833266628e-01 -6.554169862740145958e-02 3.319172616224993488e-01 9.612163499678585410e-01 9.857208999111466419e-01 9.826865284620246443e-01 3.146311714222863598e-01 -1.076245878913981019e-01 2.030845689495103801e-01 4.216926080375318908e-01 1.224998284439713370e-01 3.102483610982878504e-01 -5.503547344901773414e-02 9.198342713803814297e-02 -1.166583395901929221e-01 -3.065566876839669885e-01 2.302653821665187617e-01 -1.652200498293800168e-01 2.951880699445866285e-02 -1.652200498293800168e-01 2.951880699445866285e-02 2.248961260651440031e-01 -9.610650428617380182e-04 2.861897914426653755e-01 6.755296263674110957e-01
2.411920046620247560e-01 -4.915305210004994318e-02 2.498028610590334042e-01 1.407514918934791581e-01 4.727755561179037835e-01 2.242057406320297624e-02 1.666633256185224843e-01 1.203305643596583180e-01 2.402492230880923230e-01 1.197989786151120242e-02 -9.201255448007067406e-03 6.090703890353245387e-02 8.386045480040547062e-01 -2.807205259896051741e-01 7.718003415451459848e-01 -2.751491359058699793e-01 8.533869479284333925e-01 -2.878171891137769056e-01 5.845269589952872824e-01 6.404073307931819059e-01 7.311539474452465326e-01 3.100871605233118111e-01 3.591884893565672754e-01 6.052722328057272838e-01 6.600722553985788332e-01 1.038303515075754552e-01 8.816628973658231783e-02 4.700865151100358519e-02 2.090596790962478413e-01 5.123394172224086107e-01 6.174823682585820483e-01 2.611824262610989641e-02 7.584763568888851226e-02 -2.862675532288631863e-02 1.181817286772191833e-01 2.451544854096251724e-01 3.807925938137447508e-01 -4.726689363825307966e-02 1.011899669500313827e-02 7.998691978438894623e-02 -1.933897118888895650e-01 6.607454043308275127e-01 6.947317324025972241e-01 2.790782725909534134e-01 4.139969596764561111e-01 1.932217566427134672e-02 3.130332452503720164e-01 2.772316974171291082e-01 4.492031750989659566e-01 7.597184814529182040e-01 5.303171906458733487e-01 8.027795663978133378e-01 6.964810617733205866e-01 3.052572278410046747e-01 -4.849692638925942600e-02 3.550865735431396053e-01 3.370770853338062589e-01 -1.167062196253981499e-01 2.433679594571568627e-01 4.194920240637500797e-01 -4.989112276684234404e-01 -6.846602705660710664e-02 4.142239198552750690e-01 -1.899299604735013858e-01 9.215996802196006407e-03 -8.573800396258866863e-02 9.215996802196006407e-03 -8.573800396258866863e-02 -1.139355232836669896e-01 7.812205102131932755e-01 1.979154434731901224e-01 2.692757142278542348e-01
2.828761506542869508e-01 -1.892994370395500309e-02 8.501614815788265389e-01 6.882972500610535782e-01 8.364801789413737199e-01 -2.677584500124561839e-01 -3.680127961583464641e-02 -3.613308488872584157e-01 4.485175187236387639e-01 -3.195785807702586911e-01 2.787385065060483114e-01 1.379844449348868740e-01 6.722516355277119438e-01 4.452511191215277608e-01 6.000109833576882101e-01 4.369903145641136910e-01 6.959824983087309347e-01 4.407861663149542086e-01 2.167179107389739234e-01 5.614436336473256350e-01 5.949509363207865498e-01 2.477914412929515253e-01 3.089739550600268392e-01 3.041037670228519119e-01 3.413869065093512734e-01 7.596845756770238822e-02 1.284881402116543406e-02 -3.830398066362586049e-03 9.945905279416346056e-01 9.936068582902145563e-01 9.949330355393161129e-01 -2.063677820114722533e-02 3.195174741013335762e-01 2.580232618453566773e-01 -2.478869674744587082e-01 3.963613012526988610e-01 5.198447570269433271e-01 -9.311496092954486825e-02 1.507333420552061098e-01 -1.595423415209942797e-01 7.860223572682012438e-02 8.450600600953728225e-01 9.114600994423192049e-01 8.252534602960531762e-01 -1.679885375615785062e-02 1.786448081438521407e-01 -5.572534226873908370e-02 9.832130412169735878e-02 -2.207387713639367144e-01 1.414453966161425547e-01 9.964772479596011312e-01 9.968988011842462305e-01 9.966096354613603880e-01 3.413473542476069822e-02 2.552815377594563340e-01 2.096417702616904521e-01 8.546940001747982407e-02 1.701307899370559651e-01 9.607431726934718974e-02 -1.355678896899323027e-01 2.307281732284252873e-01 -1.526258890475144792e-01 -4.217039546905021474e-01 1.073963642970499344e-01 -1.622446415261627195e-01 3.466395521900270671e-01 -1.622446415261627195e-01 3.466395521900270671e-01 3.922200066937698848e-01 -4.161252205886721844e-01 1.968004021659661984e-01 4.640291938536633132e-01
2.785313928535612105e-01 -1.764651500714599711e-02 8.517363263284725150e-01 6.827252777016362684e-01 8.435856440083343566e-01 -1.999717887967670527e-01 2.395707773815317632e-01 -2.495688628663176034e-01 2.746666481665533399e-01 -2.668991145714443847e-01 4.454117234947098658e-01 3.065228076716784988e-01 9.403770230942067876e-01 1.941812020477512446e-01 8.662674580389424506e-01 1.886813847143610223e-01 9.599411089967332389e-01 1.891414810471025443e-01 8.391927667138798785e-01 2.587798065044319418e-01 3.010508185194847863e-01 3.729847155387238655e-01 4.573074824890956958e-01 4.121617811491354866e-01 4.181832426777230549e-01 7.540001776522564647e-02 1.143731984123120757e-02 -1.213083181373354053e-02 9.923044075836665590e-01 9.900506131577878621e-01 9.903970356378452022e-01 5.266462004756910370e-02 2.547899906614704557e-01 3.184267289795119638e-01 -2.398803796610183559e-01 2.962678201614509232e-01 1.242958670491589868e-01 -1.802931721039918722e-01 1.721448420344461883e-01 -1.365119012747310207e-02 8.950923089806821220e-02 8.449320140354219522e-01 9.116637128727291817e-01 8.289184039568605611e-01 -2.274363952271513667e-01 4.222381585314555763e-01 -1.369015266507695172e-01 -3.084433759055658225e-02 -3.010520810737463138e-01 -3.275933187885609055e-01 9.962789618672956982e-01 9.942018112978320277e-01 9.957448888102143902e-01 -2.642244491241357296e-01 3.281372388070213364e-01 1.857962436183487887e-01 -8.391922638585634642e-02 2.919043417092253567e-01 2.001465958538429790e-01 -1.912053381372104122e-01 5.633650051723857466e-01 5.909066184193829951e-02 -3.708963022564596979e-01 2.920063990346561389e-01 3.760036266564981133e-02 5.242695795726041996e-02 3.760036266564981133e-02 5.242695795726041996e-02 4.509429268423307824e-01 -5.579182375716569275e-01 3.432027451570599519e-01 5.209547170575153929e-01
2.831902819440073049e-01 -2.122014592514148007e-02 8.441905873741119004e-01 6.839316821358405463e-01 8.262648821557703194e-01 -2.051092130470857089e-01 4.429674404621353201e-02 -1.522818335513767898e-02 1.947539220613875854e-01 -1.329363374817001398e-01 5.374810549906353097e-02 6.005963710149559986e-01 8.305050029472714757e-01 4.151010395865130098e-01 7.599697612715797801e-01 4.069945465540538709e-01 8.520065239681107183e-01 4.050353029331984489e-01 5.664106452336887809e-01 6.937137710009118052e-01 7.074947159055626766e-01 5.268810971797851517e-01 5.422366014132845580e-01 3.935469493343959901e-01 3.931367599731925289e-01 7.907145033895310315e-02 -2.087779071676631321e-03 -2.127943355904447428e-02 9.924293281638369990e-01 9.900406901258996806e-01 9.867081721950525797e-01 1.006196668066158401e-01 1.946958970115821030e-01 1.663130864049923163e-01 9.986177345330073118e-02 4.562167844794340898e-01 1.891032208351585975e-01 1.599402576507116536e-01 4.771043033818797019e-01 1.535387368972976063e-01 9.998495292107621724e-02 8.444534124549730736e-01 8.992296175163547733e-01 8.283797165696629161e-01 -1.691121678567232001e-01 1.381239725927707052e-01 -3.978687998449704361e-02 2.798193458297861258e-01 -7.921906459064272099e-02 2.308354799231900067e-01 9.941414749967047992e-01 9.926322486021412761e-01 9.941925577133758907e-01 -1.931812928956134490e-01 8.024980285855627671e-02 5.579547749455193023e-02 2.562321209969930721e-02 1.879067830342938828e-03 7.485612308511317703e-02 -1.383890459243010962e-01 1.603729850513790911e-01 -2.506376587610412154e-01 -1.732644819318256701e-01 -7.463077547305532744e-02 -2.648007342538205577e-01 2.442638535898806751e-01 -2.648007342538205577e-01 2.442638535898806751e-01 2.042789945704429067e-01 -2.731185909968730230e-01 2.895596951305908773e-01 4.514359888944213250e-01
3.128945941495382965e-01 -5.832679124417906175e-02 1.104489444227654410e-01 1.922895803391939662e-01 5.723563102625488508e-01 1.482596168252330870e-01 3.122123838590689648e-01 2.798943887681387133e-01 -4.117343543558101698e-02 2.605456256998687214e-01 -3.162696549855549821e-01 2.449934041102367621e-01 9.348094183973711946e-01 -1.370378055500593405e-02 8.719535581970198068e-01 -1.029817317594849003e-03 9.366175070264122215e-01 -2.900735900084388738e-02 8.248518361264149945e-01 6.559216039265234333e-01 7.418956304941864976e-01 6.774762542601521220e-01 7.441011170968669930e-01 6.784408155764655168e-01 7.206088147859088799e-01 3.179513591422832020e-02 8.584506168665284598e-02 -7.094414449632034658e-02 1.453971268364677438e-01 5.769202042754981719e-01 6.198331102853887886e-01 2.015818369666754206e-01 -1.911062661658658179e-01 1.549184453722512456e-01 2.087107556093562299e-01 -1.649874687464503720e-01 3.076639040224291577e-01 2.923149033727216461e-01 1.757577569897902092e-01 1.678110744365749196e-01 2.124665348758672176e-02 5.365010297747760948e-01 7.343547293650234398e-01 2.463376669281140130e-01 1.574764926330926018e-01 4.144405890822370347e-02 1.565373469062038003e-01 2.149410486422939637e-02 2.154559338587370698e-01 2.501627224262200078e-01 6.686662415121106262e-01 8.531282094067503818e-01 6.338090927132457031e-01 1.209250481042888625e-01 4.786129986469454811e-03 2.938029856071969204e-01 1.931145625326730342e-01 2.860596553308061840e-01 -2.108370411047155446e-01 2.180936025433055370e-01 -9.379331514051528207e-02 4.375839538229214093e-02 2.347068912607903346e-01 2.665431184661396502e-01 4.789608077163066135e-01 -2.935862036131422492e-01 4.789608077163066135e-01 -2.935862036131422492e-01 -1.934815794309599490e-01 7.302694466527273054e-01 1.975270292140415551e-01 1.271506213377636141e-01
1.767555695559410722e-01 -2.738879361639988061e-02 7.553390980658000187e-01 6.490429363113420225e-01 8.431953261916103060e-01 2.871765694787696555e-02 -1.703351548754578892e-01 1.589594562921676779e-01 1.012419891515522336e-01 -9.659913125985006288e-02 2.778386040102436838e-01 -2.063007297581412047e-01 -5.855765962095828281e-02 5.399065341566586795e-01 -1.008541251437432285e-01 5.496635589454531567e-01 -5.317249923897958419e-02 5.245017110978873465e-01 -7.520555407092034406e-01 8.396447521520989943e-01 8.427255626555417711e-01 4.364845950721810697e-01 4.345979761637878691e-01 6.496264115803079831e-01 6.433449333397963654e-01 8.582654921995504227e-02 -1.053833811658753256e-02 8.261429203456941220e-03 9.558754614121093285e-01 9.722012953692028558e-01 9.571640469424752551e-01 -8.447972747970612650e-02 1.143757186211012827e-01 1.963594987726450247e-01 1.750171711146451536e-01 5.355035325008345587e-02 3.513055851942702978e-01 -1.532628726390277141e-01 1.140055252565743554e-01 3.929923615381675783e-01 1.421380983797970177e-01 8.331122874183252147e-01 8.819090257941211153e-01 8.108822839799967319e-01 2.113407736763051326e-01 1.761164148463146006e-01 1.669329541711125631e-01 -8.306822413170665553e-02 3.477865469633048545e-02 -2.814271242507158585e-02 9.788150599094804782e-01 9.686554407875345163e-01 9.740919366722082806e-01 -2.342785735538949546e-02 2.185915614904332671e-01 -1.307511091482125090e-02 5.931734341354123752e-02 2.988836472322363158e-01 -9.595089664276011676e-02 -1.247150344477121614e-01 1.898442018551820265e-01 -8.969810149813954581e-02 2.697302064105884523e-02 2.308468356582542569e-01 2.529906622398479521e-01 3.400270308078411768e-02 2.529906622398479521e-01 3.400270308078411768e-02 1.826508853930509102e-01 3.731354858366004446e-01 -7.098518064880435068e-03 7.604629024350739210e-03
2.893327577780373527e-01 3.803206909492617884e-03 2.671897041121329974e-01 1.385806027441963961e-01 4.950337851123554067e-01 7.799561375827970267e-01 4.373269410183215911e-01 -2.568158215436948735e-02 2.983484511698175079e-01 1.527151682327400513e-02 1.413748090744029740e-01 1.199826858629860216e-01 9.281419525950274085e-01 -8.676249722077536419e-02 8.710400657291423876e-01 -6.297217815291733523e-02 9.348609341739804179e-01 -1.181146251226289218e-01 8.076458089972220478e-01 6.751599676029936825e-01 7.817241371373401249e-01 3.608673733933586703e-01 4.648553117752482478e-01 3.932713691911101650e-01 4.181080222229262566e-01 -1.888023642692483045e-02 9.508702617047577743e-02 -2.131131395931167016e-02 2.022551459014528819e-01 4.776115383030858363e-01 6.280781883099449958e-01 5.756528764868271697e-01 -1.186000597235047083e-01 -2.125728817513500013e-01 -3.280994195404224323e-02 2.223796436206264826e-01 4.125898232495596174e-01 3.816511505907355106e-02 1.421889415407983359e-01 2.211151782352591411e-01 8.019331538114410352e-02 5.310223562515001827e-01 6.445387281375074551e-01 4.743013330431997687e-01 1.627300409439073337e-01 1.543189913615031217e-01 -3.953197405525386843e-02 1.511899758203657795e-01 2.227031241959003260e-01 -3.689361545548649340e-02 5.902414021686206436e-01 7.106692016749728280e-01 6.762148080038359321e-01 3.194938430630649227e-03 2.503350596495182434e-01 3.647728286986314655e-02 5.582230124172314623e-02 1.738617084229687471e-01 2.121425574331357866e-01 4.630546182059124688e-02 4.267052075958870927e-01 -3.824230882565856637e-01 3.352443962434722424e-01 2.591503874450842848e-01 3.765648380869399126e-01 -2.354703617133148963e-01 3.765648380869399126e-01 -2.354703617133148963e-01 -9.086558036261807580e-02 8.555693096494572103e-01 1.024342009403561016e-01 3.204155729633130778e-01
2.781360088847383283e-01 -1.766043211307732202e-02 8.470494944316767638e-01 6.884517835202367264e-01 8.443553600926856362e-01 1.899767932233653947e-04 9.299002169810627327e-02 -8.668555284161395813e-02 2.141582230999855563e-01 -2.021912004759633397e-01 1.262490175448056084e-01 2.327187193764559958e-01 8.801650086712762278e-01 3.078565769317595513e-01 8.063704214195915876e-01 2.991224637959090105e-01 9.012744403956840511e-01 3.057703406233885923e-01 6.863696901978002529e-01 2.048909772029451071e-01 2.291700784450817763e-01 1.219306201598780587e-01 9.727914537344857504e-02 4.141250038279275514e-01 4.378723569079375211e-01 7.817415551117606887e-02 8.773769989965327434e-03 7.988373364423612816e-03 9.887379703335513748e-01 9.909950141233621057e-01 9.884651376260117361e-01 3.274788341680675563e-01 2.723815169621966459e-01 9.852641264627917672e-02 1.411820279778006060e-01 3.975728085957641045e-01 3.081572464651424759e-01 -2.226339041605718272e-02 2.348646815377644081e-01 -2.134553048729210534e-01 8.285334393793414298e-02 8.457728713488655847e-01 9.132620317867934379e-01 8.245072818900985867e-01 -6.128696416268659269e-02 1.725793519863471348e-01 -2.008250973275765849e-02 2.711404559477986198e-01 -8.619811604358991464e-02 -1.040053141158149425e-01 9.981870300333719470e-01 9.982354227557087567e-01 9.949983787756047082e-01 -2.074107588073613624e-03 3.886201895846313481e-01 4.732369047653196825e-02 2.293254245849918327e-01 5.123882467967719179e-02 2.315143390640791166e-01 1.067343594032398868e-01 1.994937707190659604e-01 3.521324558326874299e-01 -1.068737567874454841e-01 1.501631684590412352e-01 -3.836941808375328722e-01 2.346715058317342117e-01 -3.836941808375328722e-01 2.346715058317342117e-01 3.015484810219642431e-01 -5.941319630413105513e-01 3.654251044124919856e-01 4.404375661946003939e-01
2.780478057586276974e-01 -7.622281075037965273e-03 4.237108329904449300e-01 1.921960551641692105e-01 5.873055244843307099e-01 4.647165484854141604e-01 2.785581165865545494e-01 2.772446353471213487e-01 -1.519236087959050796e-01 6.052081523168145044e-02 -1.608490121503593773e-01 -1.154460099142749774e-02 9.332184343943518146e-01 1.068177884018122956e-02 8.664131757701954983e-01 1.461801589180391353e-02 9.448722239375006993e-01 2.773860966715495369e-03 8.206449944643013916e-01 6.166901920318573760e-01 7.335980193781358460e-01 3.583691709245307444e-01 5.692840739357221125e-01 7.910807551936384074e-01 8.506559065885692661e-01 5.112672342873781917e-01 -3.687681830261905214e-01 1.120669482162472141e-01 3.976189704883222875e-01 3.160633352792550088e-01 8.700689915702839450e-01 2.465461698219987841e-01 3.287558953363035191e-02 -1.804202368734008355e-01 2.529221743357969454e-01 9.136281383695279978e-02 -2.186292821695689712e-02 -3.816608735219408077e-02 -1.643960361486971888e-01 -1.786812470402410480e-01 1.231820456309273698e-01 5.106616195025854843e-01 7.173732303309080516e-01 4.936397375947740862e-01 4.221845760202221354e-01 -7.661219525707334277e-02 4.296146298694950016e-01 3.508427889765106666e-01 3.394718507312932676e-01 2.648689449987367550e-01 6.275288848319198198e-01 8.966446903733938933e-01 7.393790376734895586e-01 2.577421808461384800e-01 4.637978614459331572e-02 1.198761175639360826e-01 3.417187175783641950e-01 -8.629151771717152863e-02 -1.643326154534041073e-01 1.328640743738591645e-01 2.230641933142845090e-01 -4.588458337691811995e-01 2.377282881449093443e-01 -3.780620168299753669e-01 2.042140120426778616e-01 -2.384898340381672310e-01 2.042140120426778616e-01 -2.384898340381672310e-01 -3.209541277315274277e-01 8.993565865941657300e-01 1.018322974974266576e-01 2.836065506634073419e-01
2.080031919594856338e-01 -1.952873390149585317e-02 2.530675796054144278e-01 2.516806404234034344e-01 3.050661097647094921e-01 3.467848996907507142e-01 3.399715846092870447e-02 -4.603182795261483162e-02 4.599991441840818318e-01 4.878911776144700951e-02 3.722592102811387305e-01 6.758989303301804474e-01 9.115224341908816363e-01 -2.516995824590617659e-01 8.441471056601722589e-01 -2.548259055266118844e-01 9.267440558358320812e-01 -2.571725930366629553e-01 7.650120488271364705e-01 4.273464895124732821e-01 5.559540547208855488e-01 2.857719182261933555e-01 4.180902638976841112e-01 3.367099364229262370e-01 4.887440753419242667e-01 2.664890830453277570e-01 3.399102037791573716e-02 2.034883510894986425e-01 4.678000477882418573e-01 4.414948154975066319e-01 3.239739652590258867e-01 2.869738545608936375e-01 8.806643363619850659e-03 1.125124044389043815e-01 -1.498354021531579927e-01 4.764368641689700756e-01 2.824492101037934244e-01 -1.118084803822209650e-01 -5.049764349708400768e-02 6.733339686720889450e-01 1.445163227590832156e-01 6.089737574043055934e-01 7.256464740544147363e-01 3.960437024858212141e-01 2.605304289109207638e-01 3.222450043817909338e-02 8.072456200129885309e-03 4.530299463355951656e-02 4.945479457585928995e-01 2.472640999663467398e-01 6.197505189691129290e-01 8.023986860259760823e-01 6.799902031679327941e-01 1.067144041934414145e-01 -2.234775867795078461e-02 2.579974638975123247e-01 1.000474354888705869e-01 1.777750762642315852e-01 3.282766204235792462e-01 3.424958755487888529e-01 -1.064995897352531418e-01 -4.243397542014643031e-02 1.431686296296069971e-01 5.128753457055446052e-01 3.499856953915207042e-02 8.915861440263689319e-02 3.499856953915207042e-02 8.915861440263689319e-02 -9.760971640873493393e-02 8.298291533385973029e-01 2.301028560408470147e-01 1.512745022227366676e-01
2.875340692716812918e-01 -1.893043984176999081e-02 5.394832626506799178e-01 2.814041051352831890e-01 2.819801222072048641e-01 3.340979364401987506e-01 4.921275137119190402e-01 3.771554352975875490e-02 2.278826740379871763e-01 -1.655865716637463418e-03 2.579382244566539861e-01 -1.431935640511261820e-01 8.267474397350355053e-01 -3.831563946463142356e-01 7.603633642359617362e-01 -3.715324986447693933e-01 8.408404305809956680e-01 -4.003758610743461954e-01 5.561508713685660021e-01 6.396182729066599570e-01 7.482577452745061697e-01 4.698232458947716461e-01 4.971176785994500524e-01 6.395783963969390307e-01 6.728066329990922689e-01 5.729853346803964742e-02 -8.809379520789473172e-02 -5.739064072390654553e-02 6.021817367269597376e-01 7.524454706616289235e-01 7.089946228080601376e-01 3.189699798757710258e-01 -3.544633403374196079e-01 1.445471621401769047e-01 -5.601589068715040476e-02 8.362894386134125946e-02 2.962701152114220471e-01 -2.170596989271029371e-06 2.391923071720741811e-01 -5.213560277181213121e-02 5.925971679740418829e-02 5.913376310260917146e-01 4.304308774409803529e-01 2.031619649978930187e-01 6.577466993736857948e-02 4.482014073078617322e-01 2.720640092164893220e-01 8.081377015949046949e-02 5.144008918886541770e-02 -5.509203816799803505e-02 7.048878964441943618e-01 7.538046562037872267e-01 6.946549621613008485e-01 -1.614246782883052844e-01 3.028225282190566414e-01 2.086369181612406087e-01 1.229904114216539696e-01 1.214617898099002585e-01 -1.934119972659594788e-01 -1.391103766005813147e-01 -3.535871673162093581e-02 3.199533792155950795e-01 -3.590386561866065057e-02 3.749037876180489337e-01 1.570664919027024431e-01 -3.345544303706121658e-02 1.570664919027024431e-01 -3.345544303706121658e-02 -6.922782007643613067e-02 5.882780046845085264e-01 3.117983636865516162e-01 2.037666222973251798e-02
2.701973843722447199e-01 -5.712266331769753729e-03 -3.860001850036197391e-02 2.367276896251159155e-02 8.869205314752695579e-02 2.923868407932777580e-01 4.315126848255973480e-01 1.421289463523985330e-01 1.343647941315353755e-01 -7.251665473295840214e-02 2.813370935656287486e-01 2.505806407399232549e-01 9.258074139700488425e-01 -6.221889090517903481e-03 8.669475669317225908e-01 -2.794305995507553528e-03 9.347565976069276417e-01 -2.235639742846547151e-02 8.016394915588846981e-01 5.983118021194373526e-01 7.466525474224465775e-01 2.828051549709692525e-01 4.349846320497539609e-01 3.264453297129993325e-01 3.959268774984174843e-01 -2.090294251369578804e-02 -7.944945297486954994e-02 1.804057373143009846e-01 -3.674487969364064743e-01 7.964569142929384116e-02 3.683803654759236212e-01 2.486866649981394617e-01 -1.038329213424001585e-01 -2.436764886817747999e-02 2.111805156270408212e-01 -4.708999981536436674e-02 5.855137794721929634e-01 -1.116565453212383513e-01 -2.344614579349364736e-01 -2.556320745864480368e-02 6.790640829467392559e-02 2.225419869709839293e-01 3.360193061538257475e-01 1.546834813393430652e-01 1.042205157835685708e-01 3.811702240784888840e-01 3.821290181807412978e-01 4.479889870938448260e-01 5.009762522440206478e-01 6.737038989800924194e-01 1.555524473999361224e-01 4.228811248623365882e-01 4.465255137415358178e-01 -2.381183247557143098e-02 3.480275400969390920e-01 2.399399336876629762e-01 4.435432932310758303e-01 -7.021927606445334258e-02 2.475514926160635003e-03 5.846264482002399010e-01 -3.768699336276506995e-01 1.715651911240213823e-01 -1.580680785675738775e-01 5.878987478517610360e-02 2.418995207421751337e-01 -3.199476881668351091e-01 2.418995207421751337e-01 -3.199476881668351091e-01 -7.649521775717704752e-02 4.569922878404027861e-02 6.621049607787750368e-02 3.081121663264060895e-01
2.740818509092058375e-01 -5.204107467014888744e-02 4.755368266222317342e-01 3.593401166074238103e-03 5.522715414861943950e-01 2.181951254857852907e-01 1.000924018275658745e-01 4.264481392113712160e-02 3.338075697996148450e-01 4.226457133637962493e-01 -3.842553781502129340e-01 2.507086929151434163e-01 9.267635789190249440e-01 3.123652087352877388e-02 8.592709074756588183e-01 3.918511237062061864e-02 9.400814149006009313e-01 1.104174017513705718e-02 8.040756893624978474e-01 6.410549394656709365e-01 7.245442175583557409e-01 3.080915979172804686e-01 4.056744535443262967e-01 7.518057917936912249e-01 7.706194092705687115e-01 -9.989966866598226636e-03 1.164327867063281452e-01 -1.633951846214659331e-01 3.365591490569958544e-01 2.211543252142925409e-01 7.920656459938886229e-01 1.397592378918873779e-01 -1.128384987546795018e-02 1.469546890493436953e-01 -3.196699764013127831e-02 4.709253527333808198e-01 1.759685878136121318e-01 2.135850894837557912e-01 -4.195336623497419870e-01 6.307907311829495656e-02 7.435365103040353363e-02 3.695862951051250844e-01 6.746344923034768293e-01 5.273729321698626960e-01 6.715002715726817728e-01 -3.315428760950681064e-01 2.244538423264926252e-01 3.128879995609551434e-02 6.570351638031683705e-02 -1.697048303591813245e-01 6.856644904119737483e-01 7.939330338752441651e-01 6.988766269291107891e-01 3.660952447429534073e-01 8.508043317740714151e-02 -1.318282184351964592e-01 1.227466885534641006e-01 2.899132640408354500e-01 -3.428795372203339853e-01 9.068225798200345300e-02 2.166435580228575630e-01 2.208755088501958563e-01 -1.577109991454883342e-01 -5.064331092102505316e-01 7.223656686652356329e-02 8.520739805748579754e-02 7.223656686652356329e-02 8.520739805748579754e-02 2.250307480062532783e-01 5.067923039775449334e-01 -1.338692636759313270e-01 1.325473199440688754e-01
2.795553996192420843e-01 -4.477718681582255889e-02 3.208872057338253425e-01 2.297692254929160072e-01 3.323077479090468800e-01 -1.907424762917143135e-01 -2.377136410419517509e-01 2.435073548231824758e-01 -6.766989428011918606e-03 5.131005577177032428e-01 -2.916111214713239530e-01 7.915597280718886242e-02 9.602777904087698158e-01 9.819886600374383434e-02 8.970811347434028971e-01 9.743992264099048117e-02 9.720872752564410080e-01 9.027710803939036077e-02 8.912671247274650543e-01 4.784861783862436324e-01 5.910398154400384740e-01 2.929396007605792884e-01 4.186214046398353816e-01 3.642517149092155265e-02 2.016059206025073713e-01 -3.420966926044954892e-01 -1.220547273102543309e-02 1.474661341519246660e-01 2.025496524009560984e-01 5.189534512410708400e-01 3.785947366327206409e-01 -1.734943613313190136e-01 2.532619315838743335e-01 4.102674623869723147e-01 2.464330454692956751e-01 1.506411706258482808e-01 1.610123649217933273e-01 5.069687768425295005e-01 3.328893744486936812e-02 -4.414448958975177861e-01 6.293034321831580957e-02 4.979228228424784075e-01 6.853106607038245146e-01 4.143037667125695211e-01 1.262764491043101012e-01 2.939956059522768617e-01 3.644401374729085985e-01 2.679270700415066209e-01 2.882290869025082580e-01 4.835149753168239695e-01 5.009379556827614488e-01 7.108273332736140260e-01 6.403350080021593671e-01 -7.814933402786899963e-02 3.717430112776373141e-01 -7.232886275353844329e-04 4.652773748764754136e-01 -2.109219783714314650e-02 1.339254247943451048e-01 1.935569316811622531e-01 -8.473446199939302370e-02 -7.333046098040192640e-02 -1.639920207913570238e-01 -1.222944745614024248e-01 -1.571094534172923496e-01 -5.594426563124501456e-02 -1.571094534172923496e-01 -5.594426563124501456e-02 2.713759814616948929e-01 6.773112212107283980e-01 1.894250545169224309e-01 1.796955749633177835e-01
2.641486742046201264e-01 -1.799929362384279294e-02 8.421270126621908103e-01 6.807684777018602196e-01 8.426933142076858951e-01 -2.834751981287195188e-01 -2.299524911083724588e-01 -1.355979807921191271e-01 1.100182508895153760e-01 -6.520902263181496683e-02 1.909886273989021277e-02 -4.253141161116454905e-01 -3.634889482141566708e-01 6.934246194666249252e-01 -4.299612060888050591e-01 6.839514470361064413e-01 -3.200796068826317065e-01 6.880891575474905597e-01 -8.227359756688333858e-01 4.223918481022883031e-01 4.303636492711722106e-01 1.878280845225304974e-01 1.803030109673376402e-01 3.785516610833917772e-01 3.763058963273095414e-01 7.351292924199179235e-02 1.669491408690975103e-03 -8.489937492041819966e-03 9.828615455110795152e-01 9.924348664373140450e-01 9.927045760115780215e-01 -1.005213871852913762e-02 4.043138593753399790e-01 2.799688541909699513e-01 1.862117123939138058e-02 1.964001420735849573e-02 4.070040394693181240e-01 8.063371057326584879e-02 1.027536477820956556e-01 3.800247632121671326e-02 6.230437914893625917e-02 8.314155592472159961e-01 9.121983576549326234e-01 8.130585894240903722e-01 5.454391057240261936e-02 9.817848936603697230e-02 4.528594151328454998e-02 -7.166578605848986094e-02 -1.420733636914917608e-01 5.578351039021772068e-02 9.906445442461230266e-01 9.946022124892096583e-01 9.906317580903285513e-01 -1.322030823986703255e-02 7.047547579620430658e-02 1.893047804955513003e-01 1.520402324089722979e-01 3.692246879275652427e-01 -1.742154819803075072e-01 -8.058639328352183717e-02 7.972294230740593901e-02 2.038176196455114553e-01 -1.780181271760936934e-01 1.412138533577824429e-01 -2.841588040697047290e-01 6.694368371321147981e-02 -2.841588040697047290e-01 6.694368371321147981e-02 3.405442986712070019e-01 -2.847831867150685259e-01 1.336556678029072465e-01 5.793197323630304707e-01
2.914119720459139584e-01 -1.339280849902109265e-02 7.634879589641450082e-01 6.464705432343521574e-01 7.906835783363462822e-01 5.704523938000724548e-02 7.223079982545339839e-02 1.227325182679280674e-02 3.166922975491517356e-01 -2.299712280776625706e-01 6.347397054986716469e-01 -1.739040162246043852e-01 3.814825918844402114e-02 7.717041407044831214e-01 -2.123407540173500446e-02 7.673272240038337966e-01 6.362867218158937965e-02 7.628031237785866114e-01 -6.859923919595074526e-01 5.568765604890274501e-01 5.647634288554091997e-01 3.288033675436588532e-01 3.346294218567081868e-01 2.399609057714443827e-01 2.396469779427036484e-01 7.304036297891881857e-02 -5.646103193059766323e-02 3.749360537725171527e-02 9.594596924359121148e-01 9.289303773101217354e-01 9.536744849150539105e-01 2.045904457865544146e-01 -1.667582170645526274e-01 4.741408429656593926e-01 -5.838265755198571855e-02 4.369945834735278895e-02 5.203892194964667706e-01 -2.304283434458903601e-01 1.240968074142887317e-01 1.726773142127186189e-01 6.994642382242496903e-02 8.045765235401302062e-01 8.635394819855236603e-01 8.004688919156678351e-01 1.348347772635264119e-01 2.665876535482509246e-01 7.697910556396370119e-02 -3.717904623976527739e-02 -8.401118792608776309e-03 -1.288471633511962255e-01 9.105845067599405152e-01 9.606176300431168436e-01 9.709959479716925301e-01 2.882381196900627926e-02 1.338382900171799228e-01 3.789844803492026237e-01 5.000074551179073401e-02 2.751371767472809426e-01 9.553114805444765101e-02 -1.714343549075685313e-01 2.915627212069216712e-01 1.829200839005331036e-01 -7.918576541779885625e-02 2.060729930857045367e-01 -6.060459449133998727e-02 4.441938902517336696e-01 -6.060459449133998727e-02 4.441938902517336696e-01 2.122679991698601942e-01 4.804322092903025032e-01 -3.061891448932210422e-02 1.286948062369302204e-01
2.532000056837155344e-01 -5.236499333572153247e-02 4.684708047399369635e-01 1.264031375333301566e-01 6.404070457580144371e-01 4.895973072383027480e-01 1.250916394029654155e-01 3.779857076692988982e-01 -1.221137173774505379e-03 1.921434203295298571e-01 2.120738751091582608e-01 3.059650965807342304e-01 9.742890952093838930e-01 -3.006807914115612948e-02 9.098604100070928347e-01 -6.492938466729990775e-03 9.833281692734902046e-01 -6.149953058422640700e-02 9.284022962768649911e-01 5.914827100247698199e-01 7.015145048253377258e-01 3.819164623045201434e-01 4.663754693220938385e-01 7.555337186773077862e-01 7.742670925631564005e-01 -1.191602941410528291e-02 3.686355029198606307e-03 2.297535698018347283e-01 4.152492216697549754e-01 3.939960468949076366e-01 8.029265994120032834e-01 3.197081101679781212e-01 9.438804283216931101e-02 -1.076503027333970408e-01 3.020665867317514075e-01 1.131135072989666313e-01 2.111819518060643330e-01 -2.650887524186111566e-02 -7.562161683612224350e-02 3.466167277231200772e-01 2.833791964872993743e-02 1.735523020293698870e-01 7.165909272603082636e-01 2.699061898745499510e-01 6.137270980513937629e-02 5.119218876253904815e-01 3.935833282097385144e-01 3.731240900440731256e-02 2.415799391419859166e-01 9.181748056973199068e-02 4.822302724946308516e-01 7.873768080594327756e-01 5.630862210161809989e-01 -1.087328024733805604e-01 6.048452368719395844e-01 4.120326671903874055e-02 3.141217666922800356e-01 2.031648592651064678e-01 -1.920940100041141629e-01 2.825320843987541020e-01 9.225324144642924398e-03 2.989753248315272227e-01 2.112905210299983738e-01 -1.384681246595367565e-01 6.942773248282783916e-02 1.568582460079424590e-01 6.942773248282783916e-02 1.568582460079424590e-01 -1.048671142690757729e-01 5.521217712883322859e-01 1.796937102188886012e-02 2.337164208049112291e-01
2.765757826671218500e-01 -1.355835283585367021e-02 8.486913786380235747e-01 6.857144545065217978e-01 8.212587021193322734e-01 -1.872908230354437265e-01 -1.261447960121878376e-01 -1.587737855524886110e-01 3.964737354302923511e-01 -1.787558408442924407e-01 3.476866911003651528e-01 1.655921277663356395e-01 8.620401435087259312e-01 1.937308676241738525e-01 7.887843752613358239e-01 1.972651678438656353e-01 8.815902932185646357e-01 1.872393686639722277e-01 6.417607735482032671e-01 3.545558702008316798e-01 3.608659506535963346e-01 -8.526822047366246216e-02 -2.911977272933952143e-02 3.195327707204546064e-01 3.056607460323440550e-01 6.996455598029269196e-02 8.118105282028808753e-03 3.008156364861916399e-02 9.915317974890031083e-01 9.799607002764748609e-01 9.899731312209585354e-01 4.330913158521274703e-02 3.505238280710610277e-01 3.543255815417000187e-01 7.819790451737017312e-02 4.329003439084073146e-01 7.074487388234653729e-01 2.141625766195181732e-02 2.434976475241311111e-01 9.905820454821347154e-02 8.883668716356545036e-02 8.434341083239116355e-01 9.122522727513469043e-01 8.302294633192601747e-01 -2.223063514096954019e-02 2.421702481310853416e-01 3.996248228563466232e-02 2.218341414562107483e-01 -2.880800634067191002e-01 -6.602399060478135462e-02 9.943597008321397590e-01 9.936992160800749430e-01 9.953535986216217601e-01 9.193308167590949487e-02 3.566809283564522648e-01 3.356561129410444155e-01 1.602369456085827037e-01 -9.817353602858773509e-02 4.261368520742898625e-01 -1.987742540507067002e-01 3.695566221486282221e-01 3.044476896814311551e-01 -2.035324332697368011e-01 1.691222770326640257e-01 -1.062163331340547634e-01 1.884095006327208832e-01 -1.062163331340547634e-01 1.884095006327208832e-01 5.001932563889541772e-01 -1.566707796585094792e-01 1.468426155029802227e-01 4.337277464167669794e-01
2.671999653594188673e-01 -8.402774897140764462e-03 8.393606002958428070e-01 6.960153639953624571e-01 8.435137230484749393e-01 -2.210614336690651036e-02 5.353381399254390771e-02 -1.486557753468085719e-01 3.001343440918370908e-01 -1.881387894901931368e-01 4.004024390625054441e-01 -3.428595978511203013e-01 8.212223311560852279e-01 2.377184349416548992e-01 7.522210549105520228e-01 2.297398576221046929e-01 8.404935784793995390e-01 2.359326301079397448e-01 5.434049486417361630e-01 4.736923824158876806e-01 5.252265421343796925e-01 1.010120424421288715e-01 1.495784384229295050e-01 3.953115255373613190e-01 4.065299768967352012e-01 7.812696558187005869e-02 9.092647119897257629e-03 7.841772169904604600e-03 9.917251444955158535e-01 9.896941688263046766e-01 9.940258506736689981e-01 2.717968752048955938e-01 8.559214537309622894e-02 3.159420661516718631e-01 -2.412409807953799432e-02 3.073144779886509137e-01 4.318484447370147250e-01 -1.269498969728408699e-01 2.311837345168020197e-01 -1.272355092583943581e-01 8.568112652732939871e-02 8.405587785440196136e-01 9.139553129345833193e-01 8.178607626119417384e-01 1.671963097855320435e-01 -9.113741403254993489e-02 -4.312498264089114491e-02 -1.190554529648883975e-01 -2.518843638045739630e-01 -1.189537147928493993e-01 9.939009724501308707e-01 9.963446580327743884e-01 9.803080761189179038e-01 1.935779649621383880e-01 -2.127319040536228556e-01 3.513432645240535668e-01 9.736754605287722963e-03 2.404689515655952237e-01 2.741132656390149469e-01 -2.159375415806714243e-02 9.157434445639625609e-02 2.548730709471346279e-01 -7.371417655653646206e-02 3.410332632245077211e-01 3.515654451532394809e-02 -2.503417665145351440e-02 3.515654451532394809e-02 -2.503417665145351440e-02 9.254581089269763028e-02 -4.631824797072641720e-01 2.628095281238322922e-01 1.978144451839349560e-01
2.799678065464282217e-01 -1.703421540295473741e-02 8.531748371809623199e-01 6.941396731453263191e-01 8.382004971145116112e-01 -1.286481712589580828e-01 -2.666666559365312231e-02 -4.034740455429596806e-01 2.658851714267592703e-01 -2.299708297251716604e-01 1.463226283614482148e-01 3.284014282834006315e-01 8.913246757873534154e-01 2.753190520576294098e-01 8.179503077281310430e-01 2.688136353981009918e-01 9.114809949349800267e-01 2.728007002182497587e-01 7.140280074360004781e-01 4.820396498373847316e-01 4.860109329738655504e-01 3.048342106323855272e-01 3.087627481019463715e-01 4.294766179168916787e-01 4.228909686720076500e-01 7.415116684389218282e-02 9.441763748890332278e-03 5.628977226999851575e-05 9.960688904946083388e-01 9.942982433020635114e-01 9.896679465820921173e-01 1.165433548312319323e-01 2.245566722809031746e-01 2.235639094441259078e-01 -1.942138134928204918e-01 2.352537365861624152e-01 4.204789565431640841e-01 -6.702854191397890349e-02 1.597469317970754421e-01 -1.688867210197178559e-02 9.987037740857164503e-02 8.449213048955618310e-01 9.116974129747993372e-01 8.293710232146523920e-01 -1.772302787961739234e-01 2.801148194836093896e-01 1.328510555643382107e-01 9.120661359419895975e-02 -4.262852580886269394e-01 -1.637015564315813798e-01 9.971876075406843620e-01 9.978011620948390448e-01 9.955363034777418019e-01 -1.082863073364481732e-01 2.126691739221005517e-01 3.822679756676971019e-01 2.523938833902055756e-01 3.601606064881697489e-02 2.321809602561215602e-01 -3.021687674121529832e-01 3.172127660859622167e-01 5.660560103659662001e-01 -1.578011322763616109e-01 4.572834961888574412e-01 -1.362745541090902568e-01 1.872845887802049025e-01 -1.362745541090902568e-01 1.872845887802049025e-01 1.728446336086268409e-01 -4.543412308320911586e-01 2.992630823959849806e-01 4.968142498783555405e-01
2.813340518338849350e-01 -1.797676247904384308e-02 8.442889635053859587e-01 6.887881733100773562e-01 8.266634806883520481e-01 -1.142265900671195628e-01 -2.291756774133780483e-01 -2.323535636455879849e-01 3.161126055817927716e-01 -2.800296599598241232e-02 1.214767174551254492e-01 -2.714336304149098655e-01 9.634981774293951418e-01 -7.909580674027337499e-02 8.906474014563932062e-01 -7.228188242226397942e-02 9.813408525385342029e-01 -8.601024496369177874e-02 8.997305441978773466e-01 5.652715861616313120e-01 5.937607728166643950e-01 2.677226853428189002e-01 2.861975970069882691e-01 7.635430323861556179e-01 7.862150281232657134e-01 7.292385497094706903e-02 1.490550788813842752e-02 -9.473622993451460972e-03 9.884964740301649400e-01 9.888281295608331023e-01 9.827438875847993582e-01 7.853667950031135991e-02 3.418487883828666418e-01 2.827626538648959076e-01 -9.188267591409364499e-02 4.343122450342664087e-01 2.585684841337903550e-01 -6.676500088159111057e-02 -1.457335799570497192e-02 -2.825485956151655986e-01 8.409261674193449498e-02 8.229431773594872990e-01 8.731126922552624459e-01 7.995449217549510657e-01 1.879707913078403070e-01 5.343186304983212065e-02 -1.758647266450043961e-02 4.531979392103132609e-01 -1.801949764508361529e-01 2.425255646647460350e-02 9.850520937405186084e-01 9.922494297557196141e-01 9.916103554906796624e-01 6.441162116714603536e-03 -4.764081671750847874e-02 3.943054800532917042e-02 -1.283130696349346067e-01 -9.522195633377170121e-02 -1.748518786642760392e-01 -4.218099653150824135e-01 2.885993010653276625e-01 -2.594035752871146072e-01 -1.497214941493078544e-01 -3.290558254472224498e-01 8.208374621458172302e-03 2.035578924264559164e-01 8.208374621458172302e-03 2.035578924264559164e-01 3.396553627406582732e-01 3.673046143950549070e-01 -4.613108253595062797e-02 1.731632925291485825e-01
2.800415547725225163e-01 -1.754916728546050339e-02 8.498716611659753450e-01 6.825382275972970980e-01 8.415583730952874708e-01 -3.050096945668475112e-01 -2.820818536345793826e-01 -7.297443841994655234e-02 -7.061532627465890583e-03 -1.580533101697972898e-01 2.248544713283054663e-01 1.346092056279986626e-01 7.123201706535166045e-01 4.438743759312522297e-01 6.402437707994109717e-01 4.364859274125865718e-01 7.349864445097996635e-01 4.369091993198904178e-01 3.000826877479872423e-01 8.565221750748035490e-01 8.736243324139734145e-01 8.096852346781759913e-01 8.391856397288457448e-01 7.805838343694626591e-01 7.918440462531282087e-01 8.205506696020169188e-02 6.808150253894070490e-03 -2.386436549836019189e-02 9.928572799131760718e-01 9.876465999454470124e-01 9.896480932592133239e-01 2.128647091981740805e-03 5.109465564728435938e-01 3.217313101513560314e-01 -2.176312277504460421e-02 4.127858509150927890e-03 1.299499613735329850e-01 -1.327526794329198512e-01 -1.282456556886788501e-01 -5.532968157799179193e-02 1.349404374407421892e-01 8.332547643833003725e-01 9.076953684672773859e-01 8.309750734551458740e-01 -1.027349314966034960e-01 3.181459780120480252e-01 -2.521106050140536348e-01 2.039851647043735561e-01 -2.950682544969587817e-01 -1.162687200588840945e-02 9.971360967434272915e-01 9.977638638959344108e-01 9.967420743022805674e-01 -2.901296922761830155e-01 2.413220983616974624e-01 -9.055952191759712722e-02 -1.518798814945447606e-01 1.477265983250932446e-01 -4.445206264873750868e-02 -2.311589898702561818e-01 3.230210002400525360e-01 -1.793482478417279535e-01 1.944544711938153425e-01 -2.273293443434221822e-02 -7.945988776505592821e-02 2.281942826122063672e-01 -7.945988776505592821e-02 2.281942826122063672e-01 4.875949717111079385e-01 1.427083810539027386e-02 4.056413295583907730e-02 5.557609924116635458e-01
2.779738695910807800e-01 -1.884543321500305527e-02 8.444777367340998708e-01 6.834349837348249190e-01 8.257842748136219324e-01 -1.813042494819627933e-03 1.448063572669834598e-01 -6.193676957192625204e-02 4.789211895546711950e-02 1.810982765188668409e-01 -1.042893236324290568e-01 3.060900808912628279e-01 9.571500165620581146e-01 1.306930053515007462e-01 8.831331270117244170e-01 1.259238894133224429e-01 9.760369989091530751e-01 1.244095402165178998e-01 8.829996190144043799e-01 2.104348316552290266e-01 2.616906310999628782e-01 2.961461577958793279e-01 2.870500596386960646e-01 6.248617060139549650e-01 6.347309731590565773e-01 7.708201592339244956e-02 -5.731742814900646701e-03 -2.236130293406738898e-02 9.805990012282835844e-01 9.893931116985162921e-01 9.758940448065298590e-01 2.372017511952474456e-01 3.000815536833758013e-01 1.170205691067442849e-01 3.569946961910967081e-02 1.490127895080974596e-01 1.179947520648553377e-01 3.345153566895187058e-01 3.416522408968906133e-01 1.263188944809587599e-01 8.873380292026308847e-02 8.360935639827595800e-01 8.639277805747054284e-01 8.225127785123536039e-01 -4.362399574625296789e-02 3.122186961031163110e-01 3.040736145084835251e-01 2.693547611000054465e-01 -2.686322918680181249e-01 1.757388202464317817e-01 9.875341936009213173e-01 9.723657875219343660e-01 9.904803558260250052e-01 -1.539434273340186954e-01 -2.223516258174252844e-02 5.090464396903904287e-01 4.039397570307604046e-01 -4.261048437476250977e-02 5.059029340421027088e-02 -2.126101166498060857e-01 2.947387628177091101e-01 4.247665148221389103e-02 1.539392251949988667e-02 1.414518018405071520e-01 -4.304269771935759908e-02 2.697244141031949691e-03 -4.304269771935759908e-02 2.697244141031949691e-03 2.682914940902145773e-01 -2.183990434307811479e-01 -4.065708095712162184e-01 2.821451874425701667e-01
1.745731271824265962e-01 -4.442122983384793472e-02 4.693275462613237248e-01 6.290276437752765348e-01 8.214164564421141401e-01 -2.829967315620101828e-02 -1.612002782090902198e-01 2.012853486967803585e-01 8.412008812134282032e-02 1.340300717756696680e-01 -5.082163334177106778e-02 2.919277459268596400e-02 -1.481251352504510954e-01 2.970307804504988547e-01 2.517383758477130529e-02 3.709008418363768933e-01 -1.826529129558856213e-01 4.187797414261972689e-02 -7.724320111128329946e-01 9.488834594936821354e-01 9.496867917468276854e-01 6.704288012936123753e-01 6.729108206238419987e-01 9.642333924216406338e-01 9.610532167307829221e-01 2.240152223720419666e-01 -3.440890588942674411e-02 -2.288418015687341545e-01 9.531508175976142194e-01 9.027433098619720431e-01 9.566259816435068730e-01 -2.033189697408715746e-01 3.874974926004741693e-01 -2.306752873222738254e-01 2.536119746658883622e-01 1.522658113345100664e-02 4.183109020769384956e-01 -7.261917550732838178e-02 -4.297979712558435139e-01 -8.109568000941129451e-02 5.027439065702369314e-01 8.255380008500474709e-01 9.059848317760271774e-01 8.917539368987735804e-01 1.468177493649451548e-01 8.650205221107409512e-03 2.503407059226318565e-01 8.354718853084172614e-02 -5.669197761108570044e-02 -1.566224895659168725e-01 9.411132724263484572e-01 9.669105147852724569e-01 9.820636150399398856e-01 -8.942804324436509633e-02 -1.766318431771497083e-02 -9.708737182126878085e-02 2.512461115255424926e-01 -3.699147748006254011e-02 1.485902682606707048e-01 -1.219581957029806096e-01 1.755716727593861770e-01 1.314220465289626938e-01 -9.665153730546242883e-02 1.084391791777577219e-01 4.090103272196285999e-01 -9.529772123464064215e-02 4.090103272196285999e-01 -9.529772123464064215e-02 -9.104501368786659110e-02 5.198142447921466625e-01 -1.109796488071226744e-01 3.132167600169438737e-01
2.737286114270467974e-01 -1.713549865377063039e-02 8.363465634594533515e-01 6.914520678800853970e-01 8.385629441036442921e-01 -1.035255995032188236e-01 2.046884547192462933e-01 -9.445221551617663525e-02 8.007224490313961940e-02 -2.726929793807829072e-01 3.397743811182998286e-01 -3.664681048899474103e-01 -1.081261301783328355e-01 7.546701482216345847e-01 -1.738549552566425460e-01 7.431428897734313477e-01 -6.862224872165435807e-02 7.497842513857081448e-01 -7.704458181717165344e-01 6.787990633142380048e-01 6.786856809439695271e-01 1.547476232812503849e-01 1.402842813378332165e-01 1.933021761701970431e-01 1.882346265439623079e-01 8.077312744936299138e-02 8.226379861625115683e-03 -4.015863015922467821e-04 9.915032401588553812e-01 9.930453701505533859e-01 9.858479774515584992e-01 1.695575355138256857e-01 -2.794214403861569607e-02 1.849405477689262112e-01 1.755303637130740391e-01 1.149505773849168050e-01 4.499423622980247006e-01 -1.615284497033842373e-02 2.630655753545553255e-01 1.424272500925853058e-01 8.606708644846784717e-02 8.425726616103641486e-01 8.934590680273055696e-01 8.253008319053612984e-01 -3.492077581973253575e-01 6.776511278059405008e-01 7.349154129235943578e-02 4.065972077801556228e-01 -1.051568050028242329e-01 3.609754133091979539e-02 9.948097398757551613e-01 9.944355907247842685e-01 9.943474382507434539e-01 -4.514193248142099324e-01 4.048346933268874848e-01 4.826089465782671395e-01 5.479010188693544947e-02 3.214347104287781226e-02 -3.361094147637454510e-01 8.750235321602799210e-02 1.856334546278547437e-01 2.046024982282445281e-01 -3.507636066977384837e-01 2.289221943218215094e-01 -3.445976752522767472e-01 2.947829133291359205e-01 -3.445976752522767472e-01 2.947829133291359205e-01 3.087400453161876501e-01 2.456334187854438550e-02 1.432555664874864132e-01 4.158388854113976435e-02
3.414111890942266858e-01 -1.902300413792142389e-02 6.162466574391946283e-02 2.007181813168123011e-02 5.319748849633849641e-01 -9.486430775423802114e-03 -1.783884220684788802e-01 7.330306272606647300e-02 3.244963366888197198e-01 4.805015292021725393e-01 -2.984161062318076985e-01 4.800196945481871591e-01 9.281193745548436125e-01 -9.570044895354903880e-02 8.574626415961732473e-01 -9.592176913121353010e-02 9.440420647485801009e-01 -1.044471389737680334e-01 8.075237478596082319e-01 2.887041575179849495e-01 4.331011898466178289e-01 1.159111348034988637e-01 2.921454123431894701e-01 1.663088027558235274e-02 4.379160166589566444e-02 4.144329111506965257e-01 -4.254529066358698208e-01 -2.854548804150388031e-01 4.538467389420632048e-02 2.691328880290039249e-01 5.249316539976488505e-01 4.424317059808076380e-02 3.871940462552047602e-01 8.058917726203312926e-02 3.527614809665673840e-02 3.369064711207889751e-01 3.520057260512667874e-01 5.153978041748117356e-01 7.265431082354097125e-02 5.981378303774878002e-01 1.050090191262246925e-01 4.095455839164606204e-01 4.472789183253281231e-01 3.342692139852917466e-01 2.968999027116994704e-01 2.104634347194197230e-01 3.232826910054527048e-01 2.024595075398559763e-01 1.681637222100283990e-01 9.096601846765976773e-02 4.319367500064762444e-01 4.315595907980578905e-01 5.865516539745577740e-01 9.299921275675052112e-02 4.497126277058121624e-01 -2.935870063164260080e-02 3.868806770856408894e-01 3.476087953369307731e-02 1.257086495027538373e-02 1.752058793493700695e-01 -1.172136813609538607e-02 2.394674211538918018e-01 5.576705005922291125e-01 -2.554704743063929695e-01 -1.282025293842362634e-01 -1.443419220742651610e-01 -1.282025293842362634e-01 -1.443419220742651610e-01 3.066375244744743989e-01 5.707934754352532725e-01 8.897708815068966492e-02 1.483674123412446200e-01
3.313345233427344994e-01 -3.190666449992920345e-02 2.372259255245247611e-01 -2.099991130163729458e-01 4.841000278907682253e-01 1.885474727611184120e-01 3.108555194702580793e-01 3.587371493476920054e-02 4.236539950168575763e-01 4.112423339027853481e-02 3.293508166495870970e-01 1.631635044719852434e-01 9.528222781476485270e-01 -2.447299389943756454e-02 8.840263962440516599e-01 -2.160574284062284980e-02 9.671871237368584451e-01 -3.489380334756591456e-02 8.716463906153164576e-01 4.992135349976675185e-01 6.241117901535622181e-01 7.214783235236360559e-02 2.743814044303636845e-01 4.125922481977683520e-01 4.689429006206259354e-01 1.772030166425087039e-01 2.411295815142339427e-01 -2.752148089628809746e-01 3.091885317614584960e-01 1.288312965759248752e-01 4.209656193012370484e-01 2.494986390224202821e-01 -1.638041243813413983e-01 1.519581545014704604e-01 -7.454432433832036686e-02 4.508659713922190115e-01 3.382738951639698843e-01 -4.677431971345507450e-02 7.120604190007052969e-02 3.671207541895919468e-01 8.430162505931382277e-02 3.662488950780956598e-01 5.814146037422106561e-01 3.582731928890068307e-01 3.030431345698970103e-01 3.036615861825717189e-01 3.684607612527465159e-01 3.106939430429785376e-01 3.318953175039165981e-01 9.628696376643397503e-02 4.707388951928087595e-01 6.869045306204139001e-01 6.218694290005823966e-01 7.976546017705986313e-02 1.374514517322562024e-01 3.464900490071828321e-01 2.853908007883630416e-01 1.033107209271535848e-01 -2.992823942414511995e-01 1.280951971219094210e-01 3.081231040735616378e-01 -3.794195761586354188e-01 1.549123960271044376e-01 2.998561146527398830e-02 1.334962859561318604e-01 -2.741183520692029585e-02 1.334962859561318604e-01 -2.741183520692029585e-02 1.790372941912365609e-02 2.564929232417896832e-01 -2.208526572433138491e-01 3.042078741149476517e-01
3.264817036731898492e-01 2.078044772842635619e-03 4.639525417214986347e-01 3.378690483222203111e-01 3.683826809477903641e-01 2.979529682260269319e-02 -5.089371206505153428e-02 1.854337071787351132e-01 2.865100621920776622e-02 2.758691096001931187e-01 -3.017424465387557597e-01 -2.310404163367684727e-01 9.364623447924047550e-01 -3.678157705853724729e-02 8.729247165536531128e-01 -1.677017566950669489e-02 9.441364816697718210e-01 -7.838382893782096239e-02 8.290611110507803971e-01 7.518996744650788822e-01 8.060133580194503988e-01 7.635934629233390725e-01 7.854468750095366936e-01 8.592945851144793146e-01 8.719682855806432098e-01 -6.561934698640776997e-02 1.226508499562792426e-01 -2.591828429233907771e-01 5.731954810857463611e-01 7.279466421138146570e-01 7.896887596414602362e-01 -9.275713281423260403e-02 4.767283707075619520e-02 1.831834326084540443e-01 3.640069545688869729e-02 4.135015686261072840e-03 1.061870291234473240e-01 1.115903824840612235e-01 -7.789379854629327471e-02 6.752978958445145230e-02 -1.543885447094521003e-02 7.670044700375816538e-01 5.921663286404251769e-01 2.230641354448160696e-01 5.113473562399246664e-01 -9.399586881992864906e-02 3.389260910290586293e-01 2.683904501942371290e-01 4.668889785145411420e-01 2.034091721813745812e-01 8.344534379663234303e-01 8.668464300324373317e-01 8.490863594545290383e-01 2.309054924562568556e-01 3.254863726399086221e-02 4.669457376736586840e-02 2.102058225080539466e-01 -1.668225059104496699e-01 6.051263373841545695e-02 1.051506366676844689e-01 1.401644795932051601e-01 -3.568344851533238882e-01 7.308591319045622953e-04 -1.119847579711095859e-01 2.335290159658094389e-01 3.122241277682903382e-01 2.335290159658094389e-01 3.122241277682903382e-01 -2.197693052779677025e-01 4.534869492164272375e-01 -1.407113559277844428e-01 -1.814096968286735834e-01
3.332996486752845544e-01 -4.625636284554255490e-02 -2.720515369997111299e-01 -2.593051584421018907e-01 2.716712934540797472e-02 -1.901383702133764564e-02 3.545848339212140377e-01 -1.198873148140660178e-01 5.106456456957102485e-01 3.686027585277150687e-01 -2.144578685024425280e-01 1.508915077765805579e-01 9.148230339238653253e-01 -7.646938380313376971e-02 8.625707116355989523e-01 -4.397806349049651620e-02 8.858293774848701174e-01 -1.126960219923692219e-01 7.737706375870742059e-01 7.145378016872244720e-01 8.641929935943675201e-01 2.167839684022608016e-01 3.876222184108788493e-01 1.281073530347537071e-01 1.684388071785011265e-01 -6.820050735708993450e-01 2.568471971223176276e-01 -1.211381743266597838e-01 -2.665614542216350191e-01 -6.048262574112075324e-02 1.520977889048220899e-01 -8.028141690571503897e-02 4.704081267209154343e-02 -6.140952995099012435e-02 -1.881652860691833684e-01 4.522531549098146031e-01 4.294582797589954759e-01 4.532584743154666751e-01 1.965123082362244256e-01 -9.897871997509045949e-02 9.612511943146252735e-02 -6.031774526671959125e-01 3.732660401447652210e-01 4.955778229864266082e-02 2.675478638654043562e-01 9.910134081144633678e-02 3.603816908300148669e-01 2.428458883749881336e-01 -4.641093326610171155e-02 1.930646141853062103e-01 -9.068082168673743393e-01 6.107821558081658608e-01 2.222526011044889671e-01 1.871237887505111386e-01 4.929893555607500061e-02 3.178265618457347119e-01 3.415681365892044852e-01 2.910691264308105236e-02 -6.492325444949199886e-02 1.640747427914185722e-02 7.783128689863257066e-02 2.665621047481033790e-01 -1.243258590675999781e-01 -1.982865111964841609e-01 -1.977071487583178730e-02 1.065962059493281988e-01 -1.977071487583178730e-02 1.065962059493281988e-01 -1.575780497937347424e-01 -2.611253085316773137e-01 7.217200770400986065e-02 2.590775635903314056e-01
3.154924784844204133e-01 -4.146478106959387844e-02 4.296214246373326051e-01 9.585159216888685177e-03 5.791431058587142022e-01 1.245327624600887223e-01 -3.132729230714196341e-03 7.096722087459776673e-02 1.092722033779206514e-01 -1.865057232346687410e-01 3.552900034556435993e-01 3.817710605524649581e-01 9.028643839126854198e-01 1.492314536131360558e-01 8.319275713408448292e-01 1.510402341084967903e-01 9.193203023874229052e-01 1.443547811676331172e-01 7.430494649660166484e-01 2.708632066219784917e-01 3.969645838807919769e-01 -1.325549804669840515e-01 9.864867189626201627e-02 3.784461517266797803e-01 4.534177136193526247e-01 -8.524431524420963968e-02 -7.912073582781134484e-02 -6.504195203971889494e-02 2.667020323304584717e-01 1.080949202409468568e-01 5.659884626584272826e-01 1.630057615872661236e-01 3.080634439327562535e-01 -6.724839033763058138e-02 2.250046259030764606e-01 3.089611750029723214e-01 2.475273364860643699e-01 -1.136383462275620537e-01 3.192449505550921662e-01 3.335186837016591022e-01 4.687825262537814730e-02 5.077830163923546802e-01 6.911526408059984750e-01 4.015734051643844449e-01 4.199961163741234849e-01 -2.357328788633369088e-01 3.298291253136223511e-01 5.795112124744472570e-02 2.700620801782077085e-01 1.832020119903204902e-01 3.867030652885591335e-01 6.928601801646269154e-01 5.378352366001873941e-01 2.746523881176097248e-01 1.011898352064784928e-01 -7.052750478048834537e-02 2.583238846063231620e-01 3.961949386569099674e-01 -5.424243593733176771e-01 1.732987674547827317e-01 3.557882960856051935e-01 -5.401479384994261057e-01 5.644700081043496631e-01 -1.383632607803678416e-01 -2.367721918773745271e-01 -4.593016650069375872e-02 -2.367721918773745271e-01 -4.593016650069375872e-02 3.550032441252738979e-01 7.901443101180830597e-01 2.669045015739338611e-01 5.442968073215455060e-01
3.650538820842511578e-01 -2.851506006454722700e-02 2.961209467010018637e-01 3.594362472907364769e-01 2.702708283290404800e-01 2.076751918148665166e-01 -1.105346369552018676e-01 3.197269102469527807e-02 1.732716236663707776e-01 3.185827182400374769e-01 2.821145476160130325e-02 -5.730051238836180172e-01 9.509204566133824255e-01 -1.580572589336096123e-01 8.836931886350830601e-01 -1.603230558269729267e-01 9.619497035273498753e-01 -1.644922561540802797e-01 8.666764863946473385e-01 5.869680887477253250e-01 7.182239266510050957e-01 1.828423854031393514e-01 2.589301982999828167e-01 5.194491070424837043e-01 7.036369254443008980e-01 7.173067505791529130e-02 2.231502689727670186e-01 -1.448718240756839692e-01 5.064156853891156329e-01 6.356285750153165548e-01 3.881782366387030447e-01 4.945958106116978698e-02 2.546245883741173333e-01 -3.258919504393745226e-02 3.867961862676729673e-02 2.699862940885052187e-01 1.659040469652389715e-01 7.161625416580724712e-02 -8.227375423035680757e-02 -6.942566130515738232e-01 1.170436770443992330e-01 5.955090457042312435e-01 7.189462796872569950e-01 4.431244834123613252e-01 2.885942923786218861e-01 6.858037731850144059e-04 1.612221537930849657e-01 1.429985194155710959e-01 7.013871769236458276e-01 5.947632104671138897e-01 7.468783258222798649e-01 7.853946667648359359e-01 7.260609229067364057e-01 8.466317826248120904e-02 1.716155722641281647e-02 1.972851041494670943e-01 2.212491146926590935e-01 3.204839388365911257e-02 2.714481455504684226e-01 5.426455382081399881e-01 -3.363777627936468950e-01 -4.348166838957331914e-02 2.818784161055129869e-02 4.949436891033218155e-01 1.562615854978407770e-01 -4.392473679737756570e-02 1.562615854978407770e-01 -4.392473679737756570e-02 -9.799038290516748351e-02 8.588230337548256044e-01 1.942287272192336489e-01 2.756445666766478286e-01
2.109079583197699670e-01 -1.632529629089255960e-02 3.690541415515915524e-01 4.856966581207877720e-03 5.267095745742775836e-01 -7.993032786577122795e-02 6.096807311999279805e-02 -2.481007845106514287e-01 5.842157291308978095e-01 1.953094778527052766e-01 -1.871129864691068734e-01 -8.665998266819163742e-02 9.636973684867672363e-01 2.255297271274808377e-02 8.986534885162028585e-01 2.650708114685005126e-02 9.670190901620738799e-01 -3.345972427862895079e-04 9.003078348921548235e-01 6.616224365714198363e-01 7.372736655533037586e-01 4.382277302357981963e-01 5.044525929873967529e-01 4.345938601044848637e-01 4.667893736704640806e-01 3.422786079821431987e-02 -2.741664721876882482e-01 1.257600504253215679e-01 5.096638652995855168e-01 4.278013992762251250e-01 5.731022833104987280e-01 -1.796121347230527909e-01 7.562701306701113957e-02 1.723164129660976207e-01 -3.867690267854405062e-01 3.736043190836855765e-01 4.757347471534094652e-01 2.788503924464345585e-01 2.596622696944949626e-01 -8.392343022235480843e-02 1.420798334598640522e-01 3.497987179878631059e-01 6.249611894019200253e-01 1.130025687021932457e-01 3.731832333641105781e-01 5.202499315996762796e-02 1.135751855460754300e-01 2.879099438707557468e-01 5.185689047704341581e-01 3.877167127515188660e-01 6.035516701848210319e-01 8.085093652585225721e-01 6.910557436525461839e-01 1.068776328597880743e-01 8.248375509359147373e-02 7.459654877984421562e-02 6.646818936482938589e-02 1.033277672927004065e-01 -2.287213773409088879e-01 4.713511305171979582e-01 -3.661394854614216654e-01 1.894965124660572542e-01 -1.160322500247779609e-01 1.893345340175587033e-01 2.711732131119632960e-01 -1.824621732256766493e-01 2.711732131119632960e-01 -1.824621732256766493e-01 -1.815761504019199890e-01 6.116327088608615181e-01 4.089482381548623091e-02 1.802207862698938443e-02
2.737743706225804763e-01 -1.504677226953741835e-02 8.462095309749038119e-01 6.879777114010042771e-01 8.433992997529433655e-01 -2.639270482914349292e-01 7.187778024640868735e-02 -2.437384050127617274e-01 3.144318221478401565e-01 -1.180435954624854261e-01 1.494504438458596207e-01 1.011741286893580172e-01 8.815856385768718884e-01 1.882638606250091329e-01 8.082143703439530480e-01 1.821463963719739121e-01 9.010879122055897028e-01 1.837159439421642004e-01 6.901275927484563644e-01 4.265666233944262475e-01 4.760349637728473748e-01 2.952233427605359672e-01 3.628157768739307398e-01 4.384018966687622809e-01 4.518652446176417703e-01 7.356351141946952665e-02 1.496366674521281206e-02 -5.100467680315979788e-03 9.912210667783443174e-01 9.862727985878484427e-01 9.901206552879968648e-01 -9.294342742976798022e-02 2.935516802162316807e-01 2.686878827747903320e-01 -1.417356045337578307e-01 2.724106792150690626e-01 5.141234405115304718e-01 -4.999896100123116249e-02 -1.167557011201673794e-01 -1.427236461624911967e-01 1.126014148851089969e-01 8.439057946439437741e-01 9.099414979651592184e-01 8.336305782007539245e-01 1.629275941636768033e-01 4.362554186172305781e-02 -1.590537048280157850e-01 2.532996387973224760e-03 -2.184599299734949207e-01 3.528702355815471203e-01 9.931410575225038118e-01 9.968072572159298872e-01 9.919906831649686341e-01 2.051662331899140046e-01 5.759261856415433950e-02 3.426599161038837993e-01 -1.215896251253496957e-01 2.080497897221653125e-01 2.060243151335781897e-01 -1.178990725211873508e-01 -1.762866423311103270e-01 3.965448995986987080e-01 -1.726603190383847741e-01 -2.857527498700375146e-01 -1.499101444266671135e-01 2.463775506466642229e-01 -1.499101444266671135e-01 2.463775506466642229e-01 2.556233270436613081e-01 -3.080783856962878153e-01 -1.934343649175696289e-01 4.889810992144373869e-01
2.623892513837215446e-01 -2.186686426983226392e-02 5.509837219837859790e-01 3.114270324506743792e-01 4.995763927215643996e-01 4.047251201997117270e-02 -1.000691552993358269e-01 -1.118322678919059371e-01 5.198910947197650234e-01 1.627259402800505517e-01 3.217328244623747224e-01 7.239321544750022819e-02 9.173503497500443693e-01 2.794241585306324049e-01 8.495989759473552283e-01 2.747555541136241786e-01 9.336493545611370681e-01 2.719650030330988955e-01 7.799873783460161691e-01 5.359331491741260445e-01 5.868515279404646900e-01 3.767349777649647291e-01 4.758897444958165579e-01 4.484328928512236190e-01 4.974584253878346352e-01 -4.955614886536667540e-03 -1.871956771848529502e-02 -7.456866908794838877e-02 6.735160785896610047e-01 6.728165672752487447e-01 7.552457946864694627e-01 6.609685356320975369e-02 1.412347163514365567e-01 2.394831149524551950e-01 -2.292108728782172866e-01 3.962447035548428143e-01 4.564104221996463928e-01 -1.655177582345751519e-02 -9.984631015103511212e-03 -4.156304809706485859e-01 -3.457225530666333761e-03 5.169435452194556246e-01 7.571147816725847246e-01 5.417644775543468683e-01 4.211691033101105375e-01 9.641847000199035844e-02 4.826473528594958928e-01 3.477043226551125299e-01 2.085335283173628540e-01 -2.884761320670544138e-01 7.933977504496504407e-01 8.161001815915069901e-01 8.130012031790958549e-01 2.183621366405147923e-01 -8.969419936262826298e-02 3.719665700387821961e-01 4.980906428729914293e-01 -2.450552757358680223e-01 1.581969741598069912e-01 7.666998220293230228e-03 3.975080079779199083e-01 -1.270357470799541311e-01 -2.183985863429414864e-01 -8.793494235922337532e-02 -6.592526619003317989e-02 1.963338041241519463e-02 -6.592526619003317989e-02 1.963338041241519463e-02 3.247696441502501696e-01 8.609407950883962712e-01 2.421729144245998444e-01 1.454713955634098776e-01
2.690961824689185322e-01 -2.375404320152609688e-02 3.992377492864000454e-01 2.602064702789429473e-01 3.072230605911026036e-01 2.602679982885129917e-01 1.928516025613865870e-01 2.109365443787136474e-01 1.113133974751664146e-01 1.221040240125581128e-01 -1.115130222176244530e-02 3.806105361027157241e-01 8.135819757189387547e-01 -3.697983174498280512e-01 7.466432771184258188e-01 -3.658598614341359578e-01 8.322126248919434754e-01 -3.810135705037649423e-01 5.263781759157780682e-01 4.098631358712480632e-01 4.963768338175523209e-01 4.301778452273903319e-01 5.042912669912471557e-01 7.595819160430130612e-01 8.378458640350522346e-01 1.244898403169207163e-01 -3.348539593794095520e-02 1.113903948378083819e-02 4.241092317479490115e-01 5.923817813294124379e-01 6.067924657931054178e-01 1.674516850582576655e-01 8.005220556334838311e-02 -1.064826016848069157e-01 1.200905434705391434e-01 -1.746315147876169316e-02 3.570450659257624615e-01 -5.374472486105974500e-02 -4.011725989003889215e-02 1.757937539709532038e-01 1.646992699090391310e-01 4.958526431619688091e-01 8.023080407733775843e-01 4.936360116270002152e-01 3.628563831351648838e-01 1.993028229429224807e-01 8.995834921026424347e-02 -9.057523524454992592e-02 3.061579788687524561e-01 1.435026285950780633e-01 8.220480575691495595e-01 8.482331861110214977e-01 9.015550673989305430e-01 7.327366169162305432e-02 1.336605844044974623e-01 1.606858040143361865e-01 1.346161130753781576e-01 2.754357602433787910e-01 3.603794084350330634e-02 1.424896839365545897e-01 -3.393516928071581285e-02 -7.564038654210367141e-02 3.743874558348616599e-01 -6.636473838548291593e-02 3.067540313954220110e-01 -3.078388178996627755e-01 3.067540313954220110e-01 -3.078388178996627755e-01 -2.093303858307486720e-01 8.528901013992002955e-01 -2.816632623606633162e-02 2.577340119480440173e-01
